4.770985383157796966e-02 1.451285908339479680e-01 -2.681655546538186732e-02 -1.578986682049687562e-01 -7.068640515790426682e-02 -1.787206706853069482e-01 2.769574661798685639e-03 7.587964050465838273e-02 -7.405331206601587640e-03 -8.980096405337183174e-02 1.262242870749475110e-01 -6.214964996172286232e-02 -8.319171367223187827e-03 -1.530307962615118367e-01 2.033602273884425882e-02 -1.885150151973923605e-01 1.047566274715888875e-02 1.777350038015748923e-01 4.644038018788037604e-03 8.045484857362046605e-02 1.503138372045666193e-01 -5.397970236858555537e-02 2.984565949747910313e-02 -7.973033920279656113e-04 -6.677037194148189095e-03 -5.517338783074821236e-03 4.720716858662382664e-02 -1.694602328958251525e-01 -3.005223765011137346e-02 -7.171553976858875690e-03 -8.378800931824509357e-02 1.243517097574446534e-01 2.220156395271994862e-02 -1.184734939442237261e-01 1.270940107310711970e-02 -5.781404825001740244e-02 -3.436845055591744580e-02 2.070876859274953588e-02 9.617939292230841264e-02 -7.417392489147035806e-02 1.830367774017256921e-01 -1.321122453518196183e-01 -2.615845697958671390e-01 7.009833514990991554e-02 7.198623187360420062e-02 -2.435635111266137506e-02 -1.852731190866324928e-01 -3.919430605343779406e-02 3.208100786373158791e-02 5.853332637437738684e-02 1.409493000209717239e-01 6.925428118140629363e-02 1.649076974895009873e-01 -2.535445624110130216e-03 1.212323287047645526e-01 -1.915753833546582074e-01 1.323889401647004305e-01 2.638792359743268034e-02 1.216340775067742547e-01 2.000578733420201732e-02 6.575314118964346866e-02 -3.597012003038908140e-02 -1.116336762867017746e-01 1.670039219251749363e-01
-7.521469563748327258e-02 -4.885940014735559028e-02 -7.935649678275684404e-02 -3.799796111374199176e-02 5.225586919031786903e-02 4.804293382392407948e-03 9.902808741728473529e-02 -6.239387448784832618e-02 -1.885825160222834654e-02 -3.491840064634330054e-02 -1.130740865843601339e-01 -1.176224957193366255e-01 -1.475491933995268928e-02 -1.503928722322391172e-02 6.627424336152357154e-02 2.771807422428032922e-02 3.847072779986528135e-02 1.495725941093715289e-02 -9.215912560601724479e-02 -9.083437059668143798e-02 1.031863208747901967e-01 -5.895047470245639437e-02 9.440193932771114016e-02 3.568849826420431894e-03 1.131833534013687859e-01 -1.325402446258866773e-01 -8.966994431691134582e-02 -3.617868803544314199e-02 1.569284336066859367e-02 -3.147745187564487263e-02 2.279633981337003332e-02 -9.723894080873259071e-02 -6.246154975310961449e-02 8.618470291321541146e-03 -1.427890364715630189e-01 2.900585627432223507e-02 1.099896244960346242e-01 1.304070848199226640e-01 -1.281550117955423951e-02 -6.567775236753088663e-02 -2.193358854965287569e-02 -2.800688795090304495e-02 -1.609819019240683324e-01 -7.021687021713625410e-02 8.460041846277088773e-02 -9.581707742590060695e-02 -1.399452547856496094e-02 -1.022756891681293745e-01 -1.073468496141313927e-01 -3.056024048910946367e-02 7.275166069750237108e-02 -6.434745967764265995e-02 -1.226617287828375424e-01 5.014948575917878293e-02 -8.721265365609512030e-03 2.207314285922370306e-02 4.872143370764512454e-02 -3.935977472578264073e-03 3.151240239359345136e-02 -4.750849373975809392e-02 -1.901624969259120210e-02 7.546060716494590315e-02 1.918348160549337642e-02 1.290328526313090120e-02
-1.197855275140995331e-03 3.214342444717501607e-02 2.262994362877045473e-01 -5.961683413603208193e-02 4.963581537235250973e-02 2.327893760233074594e-01 -3.011640862411931949e-02 -8.794451896619247602e-03 1.734276550897296404e-02 6.181322713232481614e-02 -1.334978185504396286e-01 1.036619629181084051e-01 -4.194543896896891361e-02 -7.028649835001765656e-02 -8.163305210872345841e-02 1.058756826608013568e-01 -1.577332082376762742e-02 1.002555415287443713e-01 -1.298755581047291441e-01 2.374042304844828019e-02 4.584500612437245742e-02 2.045519993778317502e-01 -6.034697711555366689e-02 7.935733127517857755e-02 3.136583071134956685e-02 1.171878735710419200e-01 -9.127324971200789783e-02 -9.785863191953121654e-02 -1.462655107159467616e-01 -4.869149950488053935e-02 -1.937110821347139411e-01 -2.708345657913527674e-02 -3.867683279464478874e-02 5.330686764096381758e-02 5.853523326059931024e-03 1.506644229973183313e-01 -3.104360928050412319e-02 2.011960033433668471e-01 -8.252980362708661755e-02 -5.384899441099857964e-02 -3.249495029269724999e-02 1.296551533037115615e-02 1.365009318083976741e-01 -1.076111249862915118e-03 -7.935521068595763339e-02 -1.311980816715524467e-01 -3.672036029802516754e-02 -1.836127560720809265e-02 5.716524914789850031e-02 -1.254749101567200625e-02 -1.534564235302623113e-02 -1.049967173434005058e-01 -1.415020252172549675e-01 1.454308212877708506e-02 -1.037557597159560474e-01 -2.924230348488245437e-02 2.533278219844943280e-01 6.174272679296959748e-02 -2.689875710823660948e-02 -3.270930022874932175e-02 -1.141196551546155152e-01 -1.251346650793082049e-01 1.003559138073390616e-03 5.722821779193680569e-02
1.531754985333205060e-02 6.955494975803720378e-03 1.249272726871301920e-01 1.679176766219003525e-01 4.953236099510293505e-02 2.130972589015020235e-01 1.052601400608014631e-01 -4.856028179337008865e-02 2.485347883026577664e-01 -1.103700314567682139e-01 1.341445331149153375e-02 -4.715053941556232586e-02 5.019453565749849161e-02 3.813305957477376718e-02 8.440134863393128350e-02 -6.251770246738298786e-02 -1.727960814695784011e-02 -2.659687074131263373e-01 -1.186697162991311727e-01 -2.338429221921299594e-02 6.561106444670117277e-02 -2.412647321414955817e-02 -6.022240401765450307e-02 1.902515028477756442e-01 -2.576105407549074064e-02 -5.940235334360766811e-03 4.402640362123832335e-02 -9.223352926364444815e-02 2.466699482948698022e-02 -4.089669648805088070e-02 9.247132740969030151e-02 2.457041447255753699e-02 -1.040428034668158114e-02 -1.525366538127815585e-01 -3.476822137390750411e-02 -2.058128091192174824e-01 -1.233408376202883988e-01 9.171468238529476014e-02 1.698682929821419552e-01 2.449642123693794860e-01 -2.277533391484064806e-01 7.699905373465801284e-02 -1.779776168068110676e-01 -6.596917358267538611e-02 -1.765384969060667872e-02 -7.247260954955481171e-02 -6.493352952521765087e-02 2.627189747112609539e-02 -1.421646364908162874e-01 -5.000916523347918169e-02 -2.572396345541768103e-01 -6.617123328479657118e-02 -1.393768989062773855e-01 -1.521513065125271180e-01 -1.832414432637882451e-01 -6.752543838562959089e-02 2.088483408003317665e-01 9.145127195937997888e-02 9.634547929765265029e-03 -8.068714819962076457e-02 1.677961331166381576e-01 9.838350139241566761e-02 -2.070352552479869657e-01 -6.540037460885546328e-02
9.797226683152242266e-03 -1.292803591388685114e-01 -1.018953104227203893e-01 -1.627351014116702466e-01 8.701628389026645413e-03 -6.676162610261358876e-02 -1.559133850724876980e-01 1.146632341758923174e-01 9.461557890396200821e-02 9.893364754742194067e-02 -1.324515866459580749e-01 6.989060566720103201e-03 -6.711742715311646429e-03 1.441857336180172311e-01 -3.004152663693149608e-02 -9.145655420152185022e-02 1.618793989893295149e-01 4.287285247159806217e-02 1.608615758712901231e-02 -1.798316067175028399e-01 1.362626892260741795e-01 9.058065795323058667e-02 -8.433825294506458459e-02 -8.162732595025461863e-03 3.388072887575803438e-02 2.360625881743488863e-02 7.310448728441529265e-02 6.399702946221938471e-02 -8.452929002217379750e-02 -1.166023528908451297e-02 -9.676628550261841266e-02 5.754368288443954121e-02 4.727979000380351515e-02 -1.934626611458028222e-01 -1.946434670562415536e-01 1.503286520913586777e-01 -1.837901010462088258e-02 1.481661075478608522e-02 -2.189844535798385061e-01 -6.389987434953077472e-02 -1.182133165119976931e-01 -8.024140976107126122e-02 -9.974944965403319264e-02 -1.526171820169745785e-01 -1.306760954101925665e-01 -1.106148010938611259e-01 3.829141904263189122e-02 1.131150447308985202e-01 7.697500486532478370e-02 1.122882666112679818e-02 1.392145727790447263e-01 8.174585528843088256e-02 5.396567781154872068e-02 -6.223294080769952580e-02 1.348610169471869957e-01 2.925520048000690085e-02 6.401505458203912702e-02 -1.083578880958231822e-01 5.325956930687983371e-02 7.056688408413543112e-02 -1.667931704418039729e-01 3.264856500946885370e-02 -8.054575334531408060e-02 7.910092818287406402e-02
-1.423731530635409526e-02 -6.822297094152898755e-02 4.562669921849631105e-02 -7.487545240800110025e-02 -9.812076364445349030e-02 2.067902251337337960e-01 7.756172720814179244e-02 -1.266698802998266447e-02 -1.679252830421833487e-01 5.057048681407946833e-02 -1.378675636399493976e-01 -3.275808469672421026e-03 6.177673328420016374e-02 3.261960704058375349e-02 4.735943409406909166e-02 -2.470640795159456671e-02 3.772253370146375073e-02 9.593719513372110652e-02 -9.332998525661673206e-02 -1.063031087126211499e-02 -1.947757686207862160e-01 6.982652302545067080e-02 2.936444679961911636e-02 1.152910863110026413e-01 -8.972199614399695156e-02 -3.686462325901859044e-02 6.348724845228576052e-02 1.975260098422898861e-02 -8.313750686478818541e-02 -1.155848475119408414e-01 -1.228501861270480389e-01 -7.437652111289698442e-02 1.106936681464696509e-01 1.420305779391184131e-01 5.136765249349841723e-03 -1.931515215361115922e-01 9.152745381817720127e-03 4.662427718344249600e-02 1.670388339480775169e-02 -1.428343975175700442e-01 -5.528175656453537812e-02 -5.392399234529977187e-02 4.241394239750056333e-02 -5.564833681436784536e-03 -5.064565250975863742e-02 1.167088696676483496e-02 8.460120224979486570e-02 1.210281312658249286e-01 6.390678488710289928e-02 -1.180839069695214516e-01 1.017959585304484410e-01 -4.177847376205549856e-02 8.171233355611894067e-02 1.019083919851342113e-01 5.287865306619057154e-02 2.972767254850065127e-02 5.750333451253712702e-02 3.920693530316301384e-02 -1.528486774612507204e-01 8.998759823241390954e-02 -9.131089722139305864e-02 -1.039950621689948868e-01 -8.924540404763749157e-02 1.087981455479770584e-02
-9.548228483004456146e-02 -1.333799301905106149e-01 -1.412078742477084967e-02 -4.344251374546205524e-02 -8.328105705038690854e-02 -5.856205516783482418e-02 1.204638665824530053e-01 -2.080353399926038530e-02 -8.440970736375992545e-02 -2.605256476418565600e-02 6.172159182967862368e-02 5.931425426343246710e-02 3.008113508266890487e-02 -5.213816029014869263e-02 -2.118878277088062298e-02 1.258650115713568461e-02 -3.282394723600179365e-02 7.882011845309853937e-02 -4.205728183217124355e-02 6.978120656761772900e-02 6.180658249470858366e-03 1.550822255505827085e-01 -1.199635777785037528e-02 3.590771026891102780e-02 -4.971361685082339478e-03 1.892071131729086142e-01 -8.695309327649443365e-02 1.399505054104900614e-01 1.433098621299619402e-01 -5.139915978687530085e-02 -2.249700813995681725e-01 1.445899237860131803e-01 -9.312299305235792468e-02 1.125750994876323074e-01 2.128195661999851829e-01 -1.807212547223296939e-01 -3.335502270995235191e-02 -7.823495825542639559e-02 -7.078319161768439893e-02 -1.465623465757050770e-01 -5.424856863506955645e-02 4.693515834417837790e-02 -1.973123474477921913e-01 6.355624481289944006e-02 2.292287543198134048e-01 5.188487529373330548e-02 -3.257324744995217236e-02 -1.354130003187182241e-01 1.441256186425540486e-01 4.679054162307060005e-02 -8.683920774554249045e-02 -5.320359753565518518e-02 1.219209137085096317e-01 1.605208388989019103e-02 -4.909378930467198088e-02 5.105404308253844170e-02 8.227513430272728745e-02 -9.966775437108177371e-02 4.043166003717581919e-02 9.496208510948636605e-02 5.418820448267118450e-02 9.928206027279817825e-02 -6.765085665607692422e-02 1.581183576548849667e-01
1.680364817480579087e-01 -1.169988270360380472e-01 -4.746294969650336482e-01 1.559466523339550770e-01 3.460821469071524714e-02 2.965202384378155115e-02 -1.682055101700799249e-01 -2.931593403024551972e-02 7.589672048815424010e-02 2.298145215133957919e-01 1.123493041794276642e-01 7.839372792312480909e-02 7.674315587191231358e-02 1.927376957358267751e-01 6.112841492374754965e-02 1.047365632225788767e-01 -1.166438689129904449e-01 -2.663366757804988549e-02 1.340821142361663110e-01 -4.249712837036021540e-01 -4.178991283890518688e-02 -1.262471469275047893e-02 -5.554869833020426723e-02 -3.113197824761681706e-02 5.046442932959661204e-02 -2.585231625260933988e-02 -4.435182125711599477e-02 -9.523325338154925088e-03 1.404852678288925558e-02 -7.325350832671359558e-02 4.643592126706680978e-01 1.056010777096858949e-01 -2.084825016039898102e-02 6.000914535882941048e-02 -1.487931172389128365e-01 7.877481715531262085e-02 1.583837687821613716e-01 -4.953866211330785335e-02 -1.030539252382326326e-01 -3.792805488192867863e-02 1.086148801229064736e-01 1.229335651864221918e-01 1.240985171993100183e-01 6.718123269645645546e-02 -3.565115288700588803e-01 1.503117574468778861e-01 3.635245244112762786e-02 7.325928780507715010e-02 -1.823794295631783191e-01 -1.076128519838646380e-01 3.242784931531521482e-03 1.507076428219238651e-01 -1.863542093651878728e-01 -8.963972920451802884e-02 -2.252583121297805913e-01 7.690806678855485745e-02 2.859102790006812223e-02 3.390960346216351229e-02 1.307399023024116425e-01 6.106621335658710820e-02 -3.669828219407512276e-02 2.547769878636512234e-02 -1.205619559659290435e-01 -2.492265113948656241e-01
1.541007704071322981e-01 -3.143211958327057909e-02 4.226522123841218448e-02 8.423729968585269567e-02 7.801778435027243927e-03 3.211166153481451613e-03 9.113759745008861990e-02 1.751251198829998634e-01 -1.262215549099692247e-01 1.229902040893314855e-02 1.047582607484282280e-01 7.981321927655894710e-02 1.017950717583770981e-01 2.213498564412808706e-02 4.789856719518776479e-02 4.841855925835233943e-02 -1.818987072382340919e-01 8.253294449221665330e-02 2.061688372564698946e-02 -7.974240879623376022e-02 1.494623539264192114e-02 -7.171473353965214514e-02 -5.733923195292718600e-02 9.881395428208816778e-02 8.362074779729394489e-03 -6.945148390172969921e-02 -1.613084415407292360e-01 -2.242108425247151676e-02 -1.206023553635875295e-01 1.479412387332976475e-01 9.909954456550262858e-02 -5.125759135040411363e-02 1.661655911349702031e-01 1.294196036411680295e-01 1.705489365267691959e-01 1.104152616318367086e-01 -1.360329598124871142e-01 1.825570200534842868e-01 4.329061606010056740e-02 -5.437824060740856225e-02 -7.309724422367869234e-02 -1.171279431790834824e-01 -6.066545543393434686e-02 1.596856302690808846e-02 5.190853818632858857e-02 1.575622190489342211e-01 2.400800594882490646e-02 1.460548922575802544e-01 -1.173171212564610988e-01 9.133698541947209149e-02 1.857539310221364148e-01 -1.160686498617428397e-01 1.528119171543010080e-01 6.026585732079859509e-02 5.406310884317500065e-02 3.118304972023025132e-02 6.090974461402991896e-02 2.723114793861454094e-02 1.336084248886810349e-02 7.024287252302942319e-02 1.837100257352425881e-01 -3.482667449454654451e-02 -7.933734017183569076e-02 -2.695178611420726445e-03
8.143447070506604213e-02 -1.973822499933596541e-01 6.907743639185150164e-02 1.504629662538254364e-01 1.328345831444057434e-01 2.357873295631449373e-01 3.650149639626060899e-02 -1.014114523598371592e-01 1.264894845980543692e-01 3.519593243437446617e-02 2.312698064708407653e-03 -8.824186230815279919e-02 1.941824186868082447e-01 2.821701820964361285e-01 -5.783448795970704687e-02 -1.220222253478667543e-02 1.067183243699921374e-01 -2.241237223192017458e-01 8.891258295412662882e-02 1.330041120185438686e-01 7.906950545546176379e-02 7.333218652596695808e-02 1.027285774789172268e-01 4.656815346987421833e-01 -8.515742621864728912e-02 -9.394933204942626515e-02 -2.739844811201944119e-03 1.173831619385976577e-01 7.728200588461847653e-02 -8.149713908931931206e-02 1.663544976998445057e-01 -1.999103443139329528e-01 -2.383447762947141502e-01 4.456881097617953341e-02 -2.233222549041497251e-01 -1.867106722388534867e-01 2.203603609742724456e-01 -2.200363772882644731e-01 -7.283004438156447102e-02 2.731555790221836810e-01 -3.074137875445825258e-02 1.478887527313848538e-01 4.143999758985324189e-02 -1.062563255778618473e-02 -6.091335328189006332e-02 -1.162696872360376443e-01 -4.759680831705363768e-02 -1.096578595220143969e-02 -1.425697126519751834e-01 2.434251593694975249e-02 3.086006217493559439e-02 2.511928799221184103e-02 -1.025305782484384753e-01 6.061793358250903985e-02 -7.375622821952652897e-02 -1.451485479210855856e-01 1.264748618470009356e-01 2.893382763366806887e-01 -3.002666815670183564e-01 -3.171291016996688472e-02 -7.262165126896370781e-02 1.241623729386275160e-01 4.556392131667779538e-02 -1.457299299063624931e-01
-1.088281279698968262e-01 5.298668062819510832e-02 -5.391444076930374668e-02 -1.036346980882439789e-01 2.693810818044237512e-02 3.327808053128425425e-02 1.037153694104057805e-01 1.837239121989876767e-02 -2.159463374227267238e-02 6.454641120333858006e-02 -4.820365976877073050e-02 -1.204507037776171158e-01 1.079180033449678444e-01 -7.481295320359505896e-02 5.654184400967721125e-02 1.258743748644630400e-01 -2.073642972817199559e-02 -6.640725338528324917e-02 -1.264467246455015792e-01 -1.461607055293091817e-01 -6.780935336960686177e-02 7.900850591103829312e-02 -9.684304370281263119e-02 -1.104102688370221519e-01 3.193594408042123300e-02 1.379218442865230432e-01 -2.710306123577086584e-02 -8.175666267183057112e-02 1.248738442070315285e-01 3.923519725769000766e-03 -3.441475532290039219e-02 -1.664858229263667666e-01 2.874495273829124481e-02 -1.080407121118245883e-01 1.581650921690134493e-01 -6.843936886882365234e-02 -4.184987045046551640e-02 -2.160359019927186527e-02 -1.170057577757978307e-01 -5.772121267872555583e-03 6.501886153535443857e-02 5.354218236989460866e-02 4.790010954601610360e-02 9.808693368410259517e-02 -6.560288858430336767e-02 7.629003624867965183e-02 7.655213479925289388e-02 6.984757149891181183e-02 1.284584035029035232e-01 -8.183154263585282195e-02 -2.802329620013021064e-03 7.583228318958417855e-03 7.762265088853542716e-02 -8.974422706116452764e-02 -1.853223697744117715e-01 -2.085732547715780580e-02 -1.370625673072411177e-01 -1.240001746663610405e-01 7.544473701299464485e-02 -8.049020516758274846e-02 -2.154590035828680625e-02 -1.719133740339171337e-02 -6.769242650040721565e-02 -1.359303754229300998e-01
-2.815539260761468557e-02 8.484396920361546302e-02 -6.516674888424110745e-02 4.554369534694689692e-02 1.019339159338712164e-01 1.750168677610303668e-03 -4.212226773479150208e-04 -3.962134134907820127e-03 -1.632632427287786514e-01 -3.587949179760636931e-03 -3.894833230726205131e-02 7.577640486808445708e-02 -4.506128621163547898e-02 7.301353867633504635e-02 4.711737079777729431e-02 2.024659696959714983e-01 9.573277679996361131e-03 4.771929390346710265e-02 -2.925111253397178618e-02 3.566688792051062734e-02 6.173058678343052580e-02 -3.872242100749836297e-02 -2.563317672581619591e-02 4.036018842183029809e-02 2.443550429740507651e-02 1.695676672867193757e-01 8.839787108155260087e-02 9.651346308161631860e-02 2.356761874322449088e-02 -1.172683993759982835e-01 -7.285967068273206670e-02 -4.334418819933472805e-02 -1.321969704409442781e-01 9.319010017893222461e-03 -5.647631092425382110e-02 1.154037251052173058e-01 -2.028312993013817178e-02 1.621060432253619288e-01 -1.064850335249094976e-01 -8.196609131748045299e-03 3.478306019711452368e-02 -7.910795500160644478e-02 1.014440759606985154e-01 2.184497669112503981e-01 -6.193810001316301522e-02 3.164687479507508755e-02 1.394043114111059162e-02 7.962660586302268417e-02 -5.249270395177301363e-04 4.647998191870792231e-03 -1.404580644162841951e-01 5.391499237496897440e-02 -2.221978555026634522e-02 5.019074781385311074e-02 2.690207195689933370e-02 1.237953874418700334e-01 2.455698853173637619e-01 1.775210442880111317e-01 -3.392936420786286933e-02 1.488899146763582142e-02 1.377185344447661719e-01 6.612941334238455274e-04 -3.023638758826370163e-02 2.199812471165571159e-01
4.883549347227117421e-02 -5.236509890819309593e-02 4.062311574527349700e-02 1.746348074680905901e-02 2.298135714560485196e-02 5.939431177781769045e-02 -7.726890096237822025e-02 7.960648064750418251e-02 -2.688118395621954398e-02 9.093172584553713134e-02 -4.061057377597934032e-02 9.178952076972073104e-02 -5.125285345602001268e-03 -1.099657017963960592e-02 3.151177686224148483e-02 8.756009285764556477e-03 2.975767793241512055e-02 -6.194027491064284241e-02 -3.947040368399493127e-02 5.698530597781908263e-02 1.028019673044350685e-01 9.625187461560862079e-02 1.635557422344509002e-02 1.284668828354403047e-01 -1.345296099461531364e-02 -4.750654457772345018e-02 -2.893542037785398410e-02 1.225250576500747958e-02 -1.553520469445384203e-02 -1.207242007980433157e-01 -1.190753061258127687e-02 1.219156037635984596e-01 2.195722222865607864e-02 -2.335526249896954440e-02 -4.923083018324376364e-02 7.649675763785442062e-02 1.067889323389297623e-01 7.642818013402756516e-02 7.450918061080230581e-02 3.767042561774242015e-02 8.098479741287124833e-02 9.474081943664641736e-02 -3.728523044781772121e-03 8.189906640325207710e-02 -4.800429696416929487e-02 -1.987078664257242722e-02 -6.651945186443732061e-02 -2.816618211847802394e-02 -5.100127623777501312e-02 -8.174176571766851584e-02 -5.934406236732543694e-02 -7.119833228425709315e-02 7.403308403417531436e-02 -1.105754067411619385e-01 -1.139269976819144159e-01 7.899433626603262482e-02 -1.550548404037356640e-03 1.231085848949765860e-01 8.926987665156127516e-02 -7.497745250787489490e-02 -6.702746685259096393e-02 4.484889850968824115e-02 4.464303969949076634e-02 5.864699255376298881e-02
9.206140963511492969e-02 9.471416358764342402e-02 9.702396910433780386e-02 1.075847245911312616e-01 6.336357311338557119e-02 -9.075098523712414600e-02 5.761366584730075874e-02 -6.936692296762130006e-02 9.186165217545644301e-02 -8.859514146717832606e-02 7.575815823514468750e-02 -4.590423464696839068e-02 -6.541901796382400269e-02 9.470342672165113496e-02 8.453783156787174347e-02 -1.241766380287797136e-02 1.233627366999437563e-01 8.808869952689897878e-03 1.383713509967759436e-01 -3.866526143512796082e-02 6.975826081271579993e-02 2.167844635346502513e-02 6.038869241042333497e-02 6.197469702686927290e-02 6.328190946519229865e-02 3.808436914900072134e-02 1.987727657565464823e-01 -1.765911055401747295e-02 -7.716454029510375068e-02 2.944867296733663653e-02 3.235113111248742734e-02 -5.765335396861158423e-02 -1.260127671639177660e-01 1.296046590026104194e-02 3.965962629576504084e-02 1.029142130643025538e-01 1.154013331252293911e-01 -3.757529240006225735e-02 1.502758259171730892e-01 2.120854047564358358e-01 6.884451227036703091e-02 -9.051956786045779746e-02 -4.971529798790765703e-02 1.573142976918659453e-02 -3.685445148332720799e-02 4.842140468322417984e-02 -1.220219536617213607e-01 -3.618392002673568187e-03 6.364770037823318238e-02 8.309366608611906679e-02 6.340780084193188559e-02 -5.101527595056614545e-02 -1.278758804394887205e-01 -4.530294762960228316e-02 3.302089776724377590e-02 -1.430387147345731358e-01 8.731995690633001517e-02 -1.097553966585502888e-01 -1.000295545355633781e-01 6.972550585305835151e-03 4.128003873620834235e-02 7.759334150106601824e-02 -5.975921782007000832e-02 -2.186070350916499705e-02
-4.486465871095261099e-02 3.067711245854868110e-02 9.049564826649595523e-03 3.340549256851115673e-02 6.037394159751580808e-02 -1.135717423342932769e-01 -4.983661229446173513e-02 6.881594694016425484e-02 -1.975502964183248333e-01 5.384908890417205996e-02 3.944488665366777808e-02 9.239680802916036551e-02 -1.207241494691989325e-02 -1.721807553830645085e-02 -1.039211612451686750e-01 7.794782945462759571e-02 -3.610293929341192726e-02 -1.377521073259672935e-02 2.396579780717131639e-02 1.714235765187216431e-02 6.671937263275093399e-02 -1.185621597991598324e-02 7.362071682384002669e-02 -7.132112817433602925e-02 5.516975446849917142e-02 -5.364904307335530143e-02 1.896730678205577406e-02 -8.942454577323519227e-02 -3.039762200752355731e-02 7.614315844557868751e-02 2.150847659313896362e-02 1.429854244220865947e-02 9.107015586251719641e-02 5.286926366116263820e-02 -2.291509032402412327e-01 -1.746541390085401269e-01 1.106886689016968184e-01 2.430376818468529473e-02 -1.404159751835476200e-01 -1.014598976154416632e-01 1.302197417373695820e-01 3.531489749280927737e-02 -6.580444835947746318e-02 -3.214978420654992369e-02 1.032109556344902590e-01 1.114843425726047554e-01 1.667304088059493594e-01 -6.823184310814871256e-02 1.784592790211215196e-01 6.606939029857657186e-02 6.639774895509799324e-02 -5.230308725022554672e-02 -4.318246755632169226e-02 1.088752803129963420e-01 -8.017315292261693871e-02 6.308293454154172142e-02 -4.907395580763948550e-02 6.571469137896930601e-02 8.188841831441294461e-02 5.087349617778557515e-02 -1.725570273341278937e-01 1.848734772120034370e-02 -7.921450417908273978e-03 -2.295694767783216725e-02
1.039553388621380775e-01 -1.419436448235473769e-01 -7.825018490637739021e-02 -1.880619187963239458e-01 -4.028730490856987506e-02 1.419812648751655193e-01 -1.559927629302690633e-01 1.768643189342670174e-01 -2.544212352316967390e-03 1.427612643314362939e-01 2.416350747780107999e-01 -2.251019200033707868e-01 -2.349878271118146719e-02 9.639426803971373747e-02 -2.487914071865925669e-01 9.976194425497586504e-02 -1.505370650179418263e-02 -1.433136811573941238e-01 -9.880491885166042820e-02 -2.651726424634373025e-01 -8.395922786218174005e-02 -2.357575330410412867e-02 -6.367512206789619801e-03 -1.126405801696289399e-01 -8.564198799029694442e-02 3.656890687683412439e-02 -1.391338557047900049e-01 -1.137849114558661390e-01 -9.367059617292888829e-02 -4.034212453383952818e-02 -1.052912133541343692e-01 4.308956464301372941e-02 -7.508350424138189594e-02 -1.266628460549648338e-01 -5.781361055472278992e-02 -2.445071705582521279e-02 -4.007955211689370745e-02 5.600536134798451970e-02 -1.562239554575920730e-01 -1.750650631285718684e-01 -6.582019140838894777e-02 2.912451750985337734e-02 3.025968393430349124e-02 -2.012038901902932775e-01 -3.273201862204475066e-01 3.967437491048553949e-02 -1.049224286610642709e-01 -9.982503405800897955e-02 7.659633316904577993e-02 -4.791745342820195180e-02 9.959231020787040478e-02 -2.700260385203282487e-01 -6.614992418472825063e-03 3.950432135299513509e-02 1.064973152092198588e-01 8.176454798833464321e-03 -1.285849542038523981e-02 -4.841499592796412454e-02 1.162034491815324699e-01 -8.544719624791781779e-03 2.391684933591704462e-02 2.649447139421258479e-02 -1.028648512968758227e-01 3.298463928302674542e-01
-4.242069691156895306e-02 6.678398437145070810e-02 5.770283728120535749e-02 -7.146707135115210226e-03 -1.493085516078519193e-01 1.146196842109066250e-01 -9.715290415714271377e-02 -9.169365436264641234e-02 8.333692508075947469e-02 4.419367782903026870e-02 2.216187855199601708e-01 -1.228853250280262654e-01 2.017650971506483315e-01 1.024450003857576424e-02 -3.373444831660847576e-03 -6.403325480552921056e-02 7.965023646029521787e-02 -1.351601489746850626e-01 1.761278540209939847e-01 -2.101906458482411533e-01 -7.374461710432171982e-03 1.900622828037785705e-01 -8.441056101994844074e-02 -4.169292075401109798e-02 1.817369721304775143e-01 -3.216320940549362295e-02 -7.649495350940449523e-03 2.959726424067484624e-02 1.418023652560305436e-01 5.423148436632756891e-02 3.306105623797939846e-02 -8.232731760640323027e-02 -6.625613539204715241e-02 -1.392131491617355499e-01 1.144024363712771442e-01 7.438288768355970360e-02 1.018255883024721670e-01 3.708458283278586592e-02 1.389912594943709390e-01 5.366981178999293695e-02 -5.401499795391755815e-02 -1.231287362027182058e-01 -2.371924029198757902e-02 2.116390053755988765e-01 3.379742922476679234e-02 8.317783588311489229e-02 3.111362655812235228e-02 -1.051873270061013249e-01 2.441028720719274833e-02 1.107781034409438953e-01 6.544406109544995132e-02 -6.752475994836949769e-02 -4.693509424876603220e-02 -7.054876945474419792e-02 6.941172087580878280e-02 -1.031940214943210810e-01 -4.978358695372816362e-02 2.943558160306654625e-01 9.631778943808758098e-02 -1.199157751077356698e-01 7.303200725012565231e-02 5.720123784221048391e-02 2.982287423938631294e-03 -6.699696195405192845e-02
-5.655785795652810977e-02 -1.876368397599488258e-01 -3.297373563675536079e-02 -5.724299000139986758e-05 -7.141987157238248451e-02 8.319026853231464846e-02 -3.704742128733574252e-02 -4.664362505392792568e-02 -1.612664323396844901e-01 -1.506395934427479273e-02 1.061420520050436050e-01 9.806456034289159907e-02 -1.233121168530798388e-02 -6.764570072295769676e-02 -2.609741490101832873e-02 1.713066040868132800e-01 1.109344987081236217e-01 2.711803139216460018e-02 -5.486779008878246017e-02 8.471031845917816050e-02 6.520370844650884290e-02 7.908937971864657412e-02 7.634584840490807323e-02 7.609572846712836340e-03 1.396244929849204189e-02 1.232949630533229368e-01 -2.449026874509920015e-02 1.120631596553094272e-01 -8.279931846260961403e-03 -1.010713682835188698e-01 5.269899560625573159e-02 -3.183596586282967655e-02 -5.476950196344222699e-02 -6.679050437550060337e-02 6.796859210217029434e-02 -5.212285694537838188e-02 -2.344816756995235594e-03 1.018567057575085477e-01 2.127404754355998948e-03 -1.187562005343632682e-01 1.506153858600799700e-01 8.122481335602688146e-02 3.975733319759735401e-02 1.180073475973950764e-01 5.814618712377476323e-02 4.415657141379182582e-03 1.616167329323874025e-01 8.354557428556386167e-02 5.128041592791204167e-02 5.594673711070066204e-03 1.575676405054357021e-01 2.883085136281912098e-01 1.580601049349099063e-01 1.205452627685111439e-01 3.232218190756516729e-02 -2.317507068950580562e-02 6.675918546496543982e-02 1.195905328624857940e-02 1.084095457374685267e-01 1.500431774281228356e-02 -9.691629553672551078e-02 -7.505607334022865174e-02 -1.020081929654797076e-01 4.052298547304260257e-02
9.084843250628628960e-04 -1.506960361719656138e-01 -4.868763178314504392e-02 -6.111307547095763681e-02 -2.384022654711421413e-02 -1.140406966711225850e-01 -4.682171825989308450e-02 1.654628248691102088e-01 -2.515217680982656870e-02 3.426588070624269483e-02 8.337248929571065836e-02 -8.586328644996102377e-02 1.307368171354332705e-02 1.620620658664253394e-02 -8.929097740014238505e-02 1.116986304142929265e-01 7.438847226830988535e-02 1.571729156186905119e-01 -1.051501465490038700e-01 1.323296429564149446e-01 -1.305890666676084444e-01 1.333634157049311819e-01 8.605478622195621152e-02 1.146819522681629400e-01 1.180640953430145933e-02 3.308918233090914901e-02 1.548169268565234291e-01 -3.400355120275320303e-02 1.188179775738830435e-01 3.135118683936049394e-02 -1.146868473044710679e-01 4.167514805171295550e-02 1.386814965368431407e-01 -5.168568483669408464e-02 1.454913280494681514e-02 2.078482094737964803e-01 -1.058580146570753519e-03 -1.139256567964863909e-01 -7.530968668368133445e-02 4.880776583734837415e-02 -2.037069134750903870e-02 -9.560572569566322745e-03 -3.860198646773758957e-02 3.093020760406469186e-02 8.470016175304739825e-03 6.810259255447749516e-02 -1.478657524109299737e-01 -5.123837321701184690e-05 1.016873544650957611e-01 1.039494696186227113e-01 -7.818898444687723270e-02 4.677585849109351657e-02 -8.778920978338988768e-02 -8.597056531974846261e-02 8.197137607735283105e-02 1.601482931902681664e-02 1.036500594395360353e-01 1.312218076219198171e-01 -1.257401171772792002e-02 6.597266183409868090e-02 4.622560378921347808e-03 9.275239932172654614e-04 5.419873439124344577e-02 3.666117782884222714e-02
1.257183315364652776e-01 -7.483611192171796267e-02 -1.084724369175346474e-02 1.216191159407845925e-02 9.164657145263661875e-02 -1.621997823143891682e-01 -2.742712672523346940e-01 3.159929988848850235e-01 7.259511516563992711e-03 1.102920743090067546e-01 -1.418614716901384076e-01 6.010528748925393280e-03 -2.421127802725601408e-01 6.238610825383819614e-02 -2.599199980175409541e-01 2.244853318043545376e-01 2.532903257691529464e-01 9.393903193427066700e-02 -3.359077796302814556e-02 -2.508042706525194787e-01 -3.845858357152130702e-02 -1.344072848513549676e-02 1.426503535717196236e-01 -3.565081149782592385e-02 -2.874426501859662086e-01 1.412579505396853174e-01 -3.743674146173998907e-02 -1.149744905971930575e-01 7.076982388762943776e-02 -1.704140914067903134e-01 -1.080179039374135619e-01 -1.873389371320839381e-01 3.782916694000820063e-02 -1.449272273184008530e-01 -1.876646377468307314e-01 -1.541402257804007636e-01 -5.499401134333602864e-02 -9.575202657673080597e-02 -1.415899413788358208e-01 -1.747122198634415424e-01 -1.342950282960399255e-01 -1.132012631805311698e-01 1.553081775864732506e-01 -1.162384613537993522e-01 -5.580040778244802629e-02 -3.239069636473890321e-03 1.401858487624488801e-02 -4.646193926215700341e-03 1.052292450926129719e-01 1.080348923617926483e-02 3.331464833449375180e-03 2.667895504526832107e-01 -8.983179076327532653e-02 2.928788607792329884e-02 6.611430434732826211e-02 -1.360277476434213761e-01 -2.438963163924325606e-01 -5.857040484606839542e-02 -6.656108458398252159e-02 9.249766408643134499e-03 -5.840960995322468374e-01 7.600819231207756044e-02 -5.673527989836038045e-03 2.659059616506506130e-01
-7.871895312961199598e-02 6.050362376483507665e-02 5.018873898824233876e-02 4.060177349645511385e-02 1.822544129422926651e-01 3.512221566986196281e-02 -2.203441258144456932e-02 7.569186823883207460e-02 9.217316291520614990e-02 -1.691519323697179555e-01 3.674509068222091279e-02 5.874732244724807824e-03 1.679561644261445179e-03 2.217085616449822327e-02 4.992275576704450352e-02 2.385478963022549803e-01 7.375326046620889198e-02 -4.814742361984731406e-02 -7.794392591696349716e-03 -4.750114295153439609e-02 1.568903832732989889e-01 4.492388262974205543e-02 1.138306854884957448e-01 4.884948761694601557e-03 2.099346986303622306e-02 1.693509132785201710e-01 -4.166477550233093491e-02 3.463858147967231044e-02 2.049729669864014045e-02 -8.350069465674768432e-02 -8.176255418698738509e-02 -6.500886370256346580e-02 7.535176849001598565e-02 -4.901829003147740310e-02 -1.429971434001888753e-01 -3.553482157330580676e-02 1.178596734810360633e-02 -7.489150176728956443e-02 -6.400013263171291933e-02 8.073601940986645242e-02 -8.565348527852846561e-02 -9.557860408584666068e-02 2.524153394902785563e-01 1.279782143678432349e-01 -1.471068604980441674e-01 1.366323620945040784e-01 1.326785909111978523e-01 4.272561665451015539e-02 1.240695005540075162e-02 -3.298733680794542489e-02 -2.390472737305126827e-01 1.759071244979238113e-01 7.434805661005600141e-02 -1.587070309645645036e-02 -5.368758701243679654e-02 3.630258393257632110e-02 -7.507901597136222571e-02 -3.689882185089154998e-02 3.389372685854167427e-02 5.290557572092801503e-03 -1.390484902706363157e-01 1.205635383411910871e-01 1.215907628252429623e-01 -1.199841828302040392e-01
-3.558010161339938277e-02 -4.614352473522955606e-03 -1.378938170443249067e-01 -2.326376841086733732e-02 -6.966420796779214386e-02 7.917332865332578351e-02 5.598973897724703747e-02 4.384279803467430736e-02 6.251824852682837108e-02 -9.731010754049086720e-02 1.499533868735935527e-01 1.057227181563779872e-01 1.040346243880776187e-03 -1.557556584084469342e-01 -2.766806543553070041e-02 -1.155380523431520784e-01 2.455594870623901693e-01 -1.108541547951949480e-02 -1.774405440577343507e-01 1.482448641883255258e-01 -8.850060986177299416e-02 -3.087363050039807627e-02 2.580035081924348175e-02 4.535847078133841553e-02 -8.959279202289133215e-02 -3.888702154302869918e-02 1.406211978907654925e-01 -5.726252123069516808e-02 9.827323884364522200e-02 -1.030170419540995252e-01 -1.172167163587209127e-01 -5.009758835404196781e-02 5.043667502918736112e-02 -4.060323095648811498e-02 1.082271290848615536e-01 -1.646686449193152449e-02 -8.354455692983016671e-03 -3.366185202321048120e-02 -4.647157214134396697e-02 2.429247019036568089e-01 4.162239541288889622e-02 7.566869289927256881e-02 -6.251895579414420978e-02 -1.751621416606396475e-01 -1.660017564069958540e-02 3.291186521775867069e-02 6.798664061204699738e-02 5.898185870341232651e-02 3.886796712809831994e-02 -5.117511101560422854e-02 -1.391444196084633544e-01 -1.916673412846384705e-01 -1.547599505279218524e-01 -3.022272661006064620e-02 9.283394120300554608e-03 9.463827640390692908e-02 1.843060575507527998e-01 -6.227062936907151736e-02 -8.942230597216133114e-02 2.135279740792144221e-01 -3.893875765142239265e-02 -1.299839132379050285e-02 -7.107721295477748003e-02 5.644977524647120520e-02
1.097150678273527552e-01 -9.867734873636664281e-03 -5.681233983116946301e-02 2.529598132928313065e-02 6.010613936834376114e-02 4.671574187210031284e-04 4.614986608051713235e-02 9.019803076827688157e-03 2.095225456203632652e-01 -2.755928823829880206e-02 1.304641617058985015e-01 -3.332837152965465594e-02 -1.643678222871467615e-02 -5.356702444057911960e-02 3.458566816116949438e-02 -7.770261420933208263e-02 -1.272212530728024371e-01 -1.841380681606799297e-01 -1.287468262421695708e-01 1.386904226711764276e-01 1.465055445179656024e-01 -1.661193291512905457e-01 -1.228486241337400919e-01 -1.085148177757174100e-02 1.055491024316452808e-01 -1.019157388744943715e-01 -4.573320013261160388e-02 -8.410627372602361151e-02 -8.912923459469543688e-03 -6.969417898096402775e-02 1.224485859362438311e-01 -1.094171842318256149e-01 1.057884912213468559e-01 1.600761991178848223e-02 1.304487425694419722e-01 -1.262851661132990688e-01 -1.665019635451665259e-01 2.985162336078890644e-02 1.280709655812366232e-01 9.147295332040340787e-02 1.060263194425185018e-01 -6.839817490196781202e-02 -9.142932132022883740e-02 4.326491952220415382e-02 1.890201244265531932e-01 6.208601677869176466e-02 1.694606127568738449e-02 2.859265984596512725e-02 -1.131461083993504091e-01 4.918036850759038847e-02 9.533446308769619182e-02 -8.000459677005956893e-02 7.124115645856891887e-02 -1.028627952192076173e-01 -4.985465026570039954e-02 4.496461470907755706e-03 -9.477820410090097292e-02 -8.102717485467150760e-02 -4.361875682983132330e-02 3.013742298926299322e-03 3.080107562237824892e-01 -2.554569957466815838e-02 -3.011899504319660425e-03 9.136100954284474829e-02
-1.184090280226489031e-02 9.181339632782838100e-02 1.884784372187595924e-01 9.546067814221646797e-02 -6.816301467567680017e-02 7.060077611579466950e-02 5.232608678136441149e-02 -2.988998737543650114e-02 1.512561066028307588e-02 1.165992015727985581e-01 1.101846383195489165e-01 1.585227970327309985e-02 1.929216313569724894e-01 -2.790624851105445031e-02 1.378269689457728431e-01 -2.748211987765313280e-01 -1.331874633889677251e-01 7.595468600821397853e-02 1.038256886351169583e-01 1.836430944290872447e-01 1.335723004880055576e-01 1.254887343522271548e-01 8.299492011368216071e-02 1.868355557477391071e-01 -6.333175093760087283e-03 1.505875179619176885e-01 -7.202325431155084945e-02 -1.785123554089310949e-01 7.821738488091369360e-03 1.822926674179535869e-02 1.977130637535032820e-01 -1.815066673544848963e-02 -5.589448257772042239e-02 7.897406834392335651e-02 -8.151201017825029926e-03 -9.688839805903744218e-02 -4.972205069079182332e-02 4.528527600707520778e-02 7.045183271385913049e-02 1.211638820594250071e-01 -1.221389995872649847e-01 -8.928729195353707002e-03 -1.060497074877583649e-02 7.821385354771795417e-02 -3.551431251742231260e-02 1.202662994443269712e-01 -7.204762311099559280e-02 6.916171237173869557e-02 1.716136651033749877e-02 6.432281954677689095e-02 -2.564854735199154079e-02 -2.342558283989635073e-02 -3.133241444659801145e-02 7.849511326022209912e-02 -8.703363217484602621e-02 -2.367160130735357706e-02 -5.719501744433672097e-02 -1.067496040742765308e-02 2.741345061719153153e-01 1.067984089346203473e-02 -9.393519623502129615e-03 5.502277357014390829e-02 3.928905977414020277e-03 2.073378057610062442e-01
5.138789063472074675e-02 -5.097456796751687058e-02 7.943687950465709450e-04 7.342436384394662729e-02 -1.005023912776646135e-02 -5.834168409754809242e-02 -5.618917895585962691e-02 -6.178772696438853546e-02 -8.910687557876782738e-02 -1.424790679750523870e-01 -4.224553604859601630e-02 -6.843132628607069556e-02 -1.961230570573308796e-01 1.161109846173759286e-01 3.506235324551754823e-02 -2.168353227294461671e-01 -3.440145699107018812e-02 -6.721751856162393179e-02 1.448468136044487042e-01 -3.350721007591540845e-02 2.681374651939614356e-02 -2.712321290135953980e-02 1.014039244607388424e-01 2.351956939597477925e-01 -6.358980279264452029e-02 1.224220937466297676e-01 -3.728999624373832700e-02 -1.639993021611508284e-01 2.857060620393978012e-02 -5.396746077528524754e-02 -6.581278391628610225e-02 -1.208726515133084212e-01 -7.130666015841259642e-02 1.505452415307316494e-01 6.035693958514630475e-02 -2.238602644021937815e-01 -3.703357232798498017e-02 -4.141785525075068058e-02 -8.323170585488834025e-03 6.456461750365967422e-02 1.636293144746312767e-01 1.412554085281851890e-01 5.004538438739185302e-02 4.700924271006579752e-02 -9.370544755196243136e-02 9.792512708203991723e-02 -1.721319605141523601e-01 1.936066577724302601e-02 3.492827617956279569e-04 1.172566285339232128e-01 -3.654841148918039351e-02 8.635276572647913873e-02 6.365395201990066421e-02 2.250078211402546310e-02 2.061064167452905382e-01 -5.588354835087022340e-03 8.493057834186532040e-02 1.143207110838751900e-01 3.351621802984408593e-02 -1.078333286019637627e-01 -9.681098875326596756e-03 -5.535063608081783326e-02 -7.864394654794543138e-02 7.197745892559503922e-02
-5.962102520895275898e-02 5.718276604866047441e-02 1.963923553705753944e-01 -1.659190426937769414e-01 -1.053718136165407958e-02 -8.460955605849415639e-02 -1.429243384640054015e-01 1.098661275546662791e-01 2.659065518976395093e-01 1.701964593122756997e-01 1.823102954047774449e-01 1.263935400925499664e-01 -1.542283661679837159e-01 -5.249774594815871664e-02 -2.348345104164634850e-02 2.972668432698220495e-02 -1.082032618075176589e-02 2.387572766289209059e-01 -3.183228390629133653e-02 -7.887763395090660601e-02 6.302758712888810151e-04 1.958631037443861467e-01 -5.034036974470766646e-02 -2.262925882608474160e-02 5.247521124470671400e-02 2.968383927695395982e-02 1.621266045881548379e-01 3.732543157177886650e-02 4.087891138739761093e-02 -1.637222375183762513e-01 -1.213480431594478465e-01 1.038736853332544174e-01 3.512322458190327013e-02 -2.063967320476014500e-01 -1.897000144544837563e-01 2.725704216906079183e-02 1.486376321351192686e-01 4.647737250106498755e-03 3.301478665356966948e-04 -6.035983912332223977e-02 -2.269688418755091974e-02 1.335070595817880179e-01 8.390875588497666293e-02 -1.060150943383784267e-01 -9.553631615854214776e-02 2.747552964317232296e-02 3.716570524945522758e-02 2.096905652372206552e-02 9.156270193002041813e-02 -1.316793672437339691e-01 2.491965039545846472e-01 -4.746818552683271242e-02 9.019895020521699613e-02 -1.419659102228604253e-01 -6.679045278907079497e-02 -1.712592100824457397e-01 -2.104959808627571982e-01 2.773813957995344484e-02 2.685155752275769983e-02 -9.059629769117437392e-02 -4.415796442755467316e-02 1.029586904842424468e-02 -5.507993723282254145e-02 -5.694238103317053601e-03
2.015476981575187176e-02 -1.877566062539498259e-01 7.799113312596117620e-02 -5.055296082885350761e-02 -1.106891391206977875e-02 2.020153032182899974e-02 1.840647463108337767e-01 4.449852636406137485e-02 -9.795001862303251167e-04 -6.096686264208894118e-02 6.129407991559342184e-02 -5.228096985002286118e-02 1.431352674052362994e-01 1.380537149496182669e-01 7.479177364378989702e-03 2.642649507765597039e-01 9.784247604406962062e-02 -1.256504107807387138e-01 -4.999111829537963153e-03 3.550899443196109395e-02 3.503789681559885127e-02 -6.633177330065354038e-02 -2.409737780940278754e-02 -1.370662838421210228e-01 7.225967871205543624e-02 6.592474527881911350e-02 1.043790968131993874e-01 1.089989287620600072e-01 -3.543854790353518497e-02 -4.772661060597285787e-02 6.696062167553097633e-02 -6.150165028116656545e-03 -1.059406186126350957e-01 1.450391123444749186e-01 2.655642036517696369e-01 -9.383357644914397389e-02 -2.593105718855616068e-02 1.591157553020968157e-03 -8.537315777276009363e-03 4.986167443733377502e-02 1.508629255173044303e-01 -1.258156652658848906e-01 1.284574303727261946e-01 1.607472169731174183e-01 -4.128509906265553919e-02 1.266931805296868940e-01 -5.080459014819696528e-03 3.606259740145799364e-02 1.479189195405545415e-02 -2.191007491641213008e-03 -7.841120102238884060e-02 7.121934283039388358e-02 5.591732701350881490e-02 9.369182771127078369e-02 -4.585124224188046049e-02 5.216112249295824094e-02 8.174286930706523013e-02 -3.026804902558119167e-02 -3.294223255162701675e-02 3.173450063196145421e-02 -1.184362650656942823e-01 7.321264037569040484e-02 1.533088347073618962e-01 -2.683151800526980472e-04
2.715140285658728669e-01 -8.846452561222392652e-02 4.719162625835245789e-02 6.007739436076500184e-01 6.937084416964500733e-02 6.144708904192421051e-02 9.619427124517233862e-02 -4.052707415842538574e-01 3.729382952226925063e-01 -1.995700552324874977e-01 -4.061666413940694942e-01 -1.692110992169363892e-01 1.760510846187102740e-01 -2.237309341146117569e-01 -2.843675647747534452e-01 -7.939024774680206176e-02 -2.588477703743785052e-01 1.836447454491487441e-01 1.302716177689234589e-01 9.579703830397157116e-02 -4.956449794916447521e-02 2.571358007186736461e-01 5.559306796582193927e-02 4.501347617244296634e-02 -9.326213587346611489e-02 -1.181127872807529455e-01 -1.473362789692952146e-01 -3.001945204324724462e-02 -5.382939204993588550e-02 -2.525857009952803614e-02 -4.274963625498269804e-01 -1.136757893917393625e-01 1.787863756246868829e-01 -4.543777945961569725e-02 3.558099135072872454e-01 3.043591176044743718e-01 2.596697375642673111e-01 4.040911324833945661e-02 1.078539003987523670e-01 -1.024595178731512457e-01 3.103683380270616174e-02 -2.216907293742410336e-03 3.941945973112363083e-02 7.616692093327792623e-02 -3.773746487502165348e-01 -1.000065595868247642e-01 7.498065106644494215e-02 -1.728890829062423584e-01 -3.489841087177308343e-01 1.381950404347722650e-01 2.507948447406123105e-01 -1.651235992179577450e-01 -1.908872662406250198e-01 1.447499909586160149e-01 -3.980421781179341312e-02 1.635750619786834892e-01 7.438425929249166402e-02 -5.799709898008002795e-02 1.431830508105239562e-02 8.932317773509132475e-02 3.080211650893726824e-02 3.374499379810733113e-01 -1.149483456918002910e-01 -1.611621511899306025e-01
8.112469325417499127e-03 1.343279825895859203e-01 -1.267458672881535860e-02 1.033137926372598159e-01 4.863450601300256526e-02 -1.253902623338069844e-01 1.713957939942799547e-01 1.015821495829824679e-02 7.848223027280416819e-02 -8.392330297257792615e-02 -8.779116875555276200e-02 -3.134968623532965321e-02 -6.892752154078017612e-02 8.273989555303100374e-02 -1.827036044683675309e-01 1.322921358183843377e-01 1.197899617783292348e-01 -1.332334015370258418e-01 5.050619976274863671e-02 1.684473905748852529e-01 6.554636788646629741e-02 -2.153529344415450186e-01 -5.093640651774235945e-02 -1.057531788078431290e-01 6.802669920678229565e-02 -3.919237131061850676e-02 1.788505615927004910e-01 1.562998401797034420e-01 -3.247429525544887757e-02 -2.199444075471871096e-01 -8.425201816634340923e-02 -3.725313719005755864e-02 3.605077659506947946e-02 2.219523133264886955e-02 -8.661006393094579370e-02 -5.248227593948978642e-02 1.005529031960897685e-01 -1.035196499534768305e-01 -4.377168234098844507e-02 7.171611600263676223e-02 -5.733137407617688169e-02 1.388295599113506251e-01 1.292232888004658242e-01 9.249428265846754149e-02 2.771665997525886785e-02 -4.839822197648461751e-04 2.019541434954856204e-02 6.880253751018292931e-03 -2.597129171462103994e-02 1.104474878353694928e-01 -1.051154799327243435e-02 6.823099028401797411e-03 1.129212629108928972e-01 -6.916417460405835382e-02 -4.291824169143210882e-02 3.361287690240247206e-02 -1.004050062602019344e-01 -1.839146457854545225e-01 6.898348909291731647e-03 4.174992827161436160e-02 -4.140121626962999651e-02 -6.037469876473147701e-02 1.468814933326455067e-02 2.009437713102155965e-01
-5.047002324880282137e-02 1.110922052403279375e-01 -9.623313862619263526e-02 -1.694885863762842781e-01 -1.964999211169900228e-01 -4.542193157117477981e-02 5.379829666893767154e-02 -6.198363644391206850e-02 1.606990305094009499e-03 6.863355828614525755e-02 -7.833863237689047201e-03 5.834006593793172879e-02 -1.049977392653497939e-03 3.893055870804160851e-02 2.589890477374757333e-02 -1.677448895443349464e-01 8.713841276317092766e-02 -2.281974541653900013e-02 7.082344420987445044e-02 -5.874482739891533772e-02 -1.291896084406522482e-01 5.611528095910767178e-02 -3.458241628258063027e-02 -1.460484602200129989e-01 9.209995394435938065e-02 3.623212367745736601e-02 -1.041489505528187393e-01 -2.041725980741135593e-01 8.670009757115763882e-02 -2.313693064872763411e-02 3.240850158669691394e-01 -7.491484737067533040e-02 -2.411611468538659396e-03 -3.546987150981473214e-02 5.094696685404076497e-02 7.036940402487346091e-02 4.570093828917869139e-02 -1.357400902553425881e-01 -2.915228970522160123e-02 -4.229622853458835097e-02 -8.473704703925920290e-02 5.587305914861347145e-02 5.912567791358876862e-02 4.180995005548711341e-02 -4.579950307017715779e-04 9.506259439673482581e-02 9.501088291157508414e-02 -8.559761071022768675e-02 7.801601405622216046e-02 1.943398349444520543e-02 -9.675247143019311338e-03 -1.946948387068440922e-02 1.085430623145477863e-01 4.567227316936357112e-02 2.243193932975037080e-02 5.920055591701819248e-02 -2.151458317256322791e-02 4.848604694823795136e-02 -1.048852211882882052e-01 4.921629527626578127e-02 -2.346789716762319802e-02 -1.375117847111225790e-02 -1.618294729003965857e-02 -2.916542892308430224e-01
-7.726395776294290620e-03 -2.050669842300435405e-02 -4.505846651034953187e-02 -1.324790156183094925e-02 -1.260153027113776192e-01 -1.174029329309672631e-01 9.994580011955229992e-02 -2.078568038960391592e-02 1.320928910653245553e-02 -1.099180142990878045e-01 2.768811923838256431e-02 -5.970792995527331301e-04 9.359772437834629200e-02 1.347192442817889968e-01 -3.663161117037127407e-02 1.952561461969231846e-02 -3.587974077607157530e-02 5.381693102390343320e-02 1.135503552326270066e-01 -1.076896402861069052e-01 -1.969644039826535728e-02 -4.660735355188946188e-02 -1.821481784620332736e-02 -3.232059554400955326e-02 4.148650830561396996e-02 -1.347502099676581300e-01 -3.413327124648419392e-02 -1.138602651190666892e-01 -7.936061181566932132e-02 1.577493801510306817e-03 6.064891911918360301e-02 2.367025737143083064e-02 -1.176172466571013958e-01 6.624640178761727338e-02 -2.926462668862078731e-02 -4.424687844347812565e-02 7.834121276162406278e-02 -5.275619282534423082e-02 1.158233759730729479e-01 -1.377687215732317783e-01 -6.391123378795328380e-02 -6.625438367392044725e-03 -5.930439125068525871e-03 6.645001264943896369e-02 1.172186134080120817e-01 -1.221990809671943401e-01 -2.867292710258836919e-02 -1.066337301653752685e-02 -3.660721392584084105e-02 -6.254254390135724484e-02 -7.190809235968463609e-02 -1.948675475031858562e-01 1.079444085905602035e-01 -6.214223185586349729e-03 5.304443293802259263e-02 3.204910326760225525e-02 -1.025946814492403464e-01 3.570657141743103363e-02 -1.957967922120247214e-02 -6.244562844900490226e-03 6.057188889916854946e-02 -2.592706366692997325e-02 1.357827036912005458e-01 -3.113251005574579899e-02
-1.369881778934577653e-02 -3.757311226145698679e-02 1.199448813811124399e-02 -2.243599467215786226e-03 -2.150649387904443877e-01 -6.251309300792519397e-02 1.483711373996500146e-02 -1.894211283332760121e-01 -1.307334153858550896e-01 3.358623201690186938e-02 -1.143411214134583062e-02 -1.642025693834485434e-02 1.904786255441718035e-01 9.798279573161258749e-02 -9.760179170350964661e-02 -1.245512853079345540e-02 -1.243246520243375813e-01 -3.562725909637060040e-02 1.076505683712467853e-01 -1.254210829299321761e-01 -4.264855250109803736e-02 -3.515620068448609831e-02 -1.934881606546680066e-01 -2.464461661278782856e-01 2.332057756705649409e-02 7.252449904866116459e-02 7.523905468205735469e-02 3.070260860871385639e-02 4.874973024990208320e-02 -2.805226217936446220e-02 2.759236282371130972e-02 -6.490336051559486563e-02 -2.408345852925765709e-02 -3.335215618073342908e-02 1.000808533099374203e-01 -2.338457535098531770e-01 -9.517509141617500057e-02 4.440590401702683432e-02 8.472915290737572172e-03 -9.486403163552951587e-03 -2.377574807795705403e-01 -5.732703438385909622e-03 -1.025668435469690998e-01 8.660109809458209351e-02 -7.018526037174711851e-02 1.094478509681340445e-01 -5.658211710489511465e-02 2.392465716035088036e-02 -1.483489864367479871e-01 1.189488640631825161e-01 -1.292475543948095607e-01 -1.089552759310631891e-01 -5.921655956411768507e-02 9.585658776070393738e-02 -3.595874290287592867e-02 1.521135868172346639e-01 -4.160057315910997006e-02 -2.656027368200562788e-02 6.892872237854704223e-03 9.448403378727408819e-02 -6.575929113259618153e-02 1.730589403491068073e-02 2.491691791170863590e-02 -1.319271673025973202e-01
9.647652806398870906e-02 -6.772097273401360418e-02 1.058607698269029146e-01 -1.063459381483487370e-01 1.048159716161302379e-01 -5.022611016568068881e-02 -8.518706681975224404e-02 1.079246099283657223e-01 -1.839565661699421872e-01 -7.028467245338856917e-02 -3.015324221139897495e-02 1.966863716289014158e-02 3.343705022617432868e-03 -2.812579395693855667e-03 -3.226334175777708507e-02 -5.514547844777923508e-02 9.104967479385332046e-03 1.225901907014463471e-01 7.339438518585321425e-02 1.772650512426049429e-02 4.453993507687969283e-02 1.775178512267020989e-02 6.561800625952197985e-02 1.290079868762736837e-01 1.938724947850182789e-01 5.358400975568092250e-02 -4.158230097312849011e-02 -5.742579789025965831e-02 -1.170886813654206937e-01 6.446427579798665042e-02 -6.997070617195416675e-02 1.424720336456080858e-02 -4.279683651601066952e-02 2.279753519801587525e-02 -6.564930185160791631e-02 -3.353084354016599433e-01 3.095327483189000070e-02 -1.370795252689483157e-01 -9.484644291875940492e-02 -1.705126093449964575e-01 -4.888817891176505670e-02 -3.037192841561891718e-02 1.738291771946673947e-01 -9.754562044614399630e-02 1.246922730630757314e-01 1.627136414223265271e-01 5.002189004491683355e-02 -6.152643496328879386e-02 -5.528314349873848788e-02 -3.921742262156743125e-02 1.937924432512873052e-01 1.364383883762262384e-01 3.163034816881431927e-02 1.214604943443977070e-01 5.379472803984711865e-02 -2.392384376195311746e-01 9.448084154874736296e-02 7.562129641608583697e-02 1.223100919237995465e-01 -2.782112953236805589e-02 -3.013814773289209478e-02 3.586389166007965257e-02 4.616769727057358497e-02 1.504783669576718330e-01
5.927507942359414722e-02 4.049866748683033507e-02 8.158311815117652577e-02 -9.708671641555942367e-02 3.735818843095231601e-02 1.635886944407714816e-01 -4.703308766133482144e-02 -8.278495330678940778e-02 -7.489852560313788044e-02 -4.433560443790842548e-02 8.038015531295977789e-02 1.025399154020038839e-01 7.596138345647972245e-02 -5.820273325237166478e-02 1.813772027546060178e-02 -6.844119747539825771e-02 4.661851591223262897e-02 -1.128980564565241901e-01 -6.139240549220011806e-02 -4.000130527383573623e-03 -2.119671655198493432e-02 -2.503064342690418300e-03 4.769076956531176359e-02 7.112740648736741444e-02 5.394457349637856586e-02 -7.321277975157938767e-02 5.131658044919585465e-02 6.035711717074179056e-02 4.874883081882956659e-02 -3.469653182016615989e-02 3.917561680346010392e-03 -6.391991818090479727e-02 -3.894138755171714511e-02 1.117935818711577184e-01 1.685789128653681149e-02 4.768550228763381027e-02 -1.617667468383636731e-01 2.826106632450433448e-02 -6.980709058039900883e-02 -7.862784136416028913e-02 -9.798738410891436046e-02 -4.939160325764634096e-02 3.733508577213221630e-02 2.327313456894114507e-02 -8.995322500400959598e-02 3.108228190165493454e-02 9.721373667285337916e-02 8.963546698065123775e-02 -1.172145310075421304e-01 4.046827136582840934e-02 9.880069812034171506e-02 -8.449099502629364711e-02 -1.565653877105175479e-02 4.001748986165000466e-02 -1.223238633948373205e-01 1.766183566605050437e-01 8.379115112695718903e-02 3.920603047182382589e-02 -4.185688046745761337e-02 -5.939347452063409305e-02 1.993899891594133889e-01 -1.741180771718601195e-01 1.991648400749102682e-02 9.153562525751049450e-02
-3.908361241328836555e-02 2.154923309890487484e-02 1.366662662839942810e-01 -1.181747175159362923e-01 -1.396930681297367249e-01 -2.132960134118601914e-01 2.575373266992049270e-01 -2.853127387288777335e-04 -1.445124267988580347e-01 9.892272444524662089e-02 -1.144326865543549565e-01 1.319942385396910833e-01 1.247367568727993786e-01 -1.228797899657186748e-01 8.020414144739736184e-02 -1.139378408128996351e-01 -4.987892985389019013e-02 -1.036292441694487976e-01 -4.903103535012249409e-02 1.216212249020044434e-01 1.669160678816569987e-01 -8.505653343712636649e-02 -8.798802241219512432e-02 -7.205132950715056883e-02 5.005457662582169648e-02 -2.462352348904279231e-01 5.514938314442264372e-02 -5.751091772707795508e-02 2.818917884035901378e-02 9.054039767900491642e-02 1.471232065701483793e-01 -1.046890326673806798e-01 -6.357116762073509661e-03 6.019844310857198899e-02 2.206054383204035796e-01 3.055135507135220974e-01 3.165655703811883215e-01 -1.614419044575754747e-01 1.909987521543843325e-01 1.018499398531631656e-01 1.622575306607522694e-01 -4.578184360572904593e-02 8.138927097166324259e-03 1.154212617731959073e-01 1.361092114569238398e-01 -5.780991102904128182e-02 3.568662205658634096e-02 -9.257729713517480474e-02 5.133848880300985462e-02 3.419550765372040418e-02 -2.699857003369493524e-01 7.170619510089883131e-02 3.933916002639164383e-02 1.676514648653807532e-02 -4.295980096532195369e-02 -4.070465522341221165e-02 -2.509875787418507920e-01 1.474457522988429081e-01 1.309769870510268941e-01 6.456867706280659813e-02 -8.097920743764441820e-02 1.130457982940150929e-01 2.030514556490081446e-01 9.184210149249992516e-02
7.986079918492663965e-02 -5.783085289389192779e-02 -3.511824085464411438e-02 -1.907082942706487816e-01 -1.075519788498393720e-01 3.155417700141344151e-02 -1.530166726833823709e-01 1.217958118536967560e-01 8.781595522125716646e-02 5.895088728866614003e-02 -5.536213729713828496e-02 -2.724840889607818475e-03 -1.729440699871575282e-01 -5.412209042940129000e-02 -1.861584066449323005e-01 1.054779530810213140e-01 -4.194570856627546224e-02 9.593844297104014984e-02 -1.227114223264977322e-01 1.968328991650007426e-03 7.532049769630404235e-02 4.207084399183073226e-02 -1.665738298201572543e-01 -2.181208093534620363e-01 -9.172816449628271029e-02 -6.086329015613719390e-02 4.906426610580652548e-02 -7.236317850901510806e-02 -1.100104571880701348e-01 -9.727496544942403067e-02 -6.276393644156964824e-02 1.879491918270048967e-01 1.175077283975892173e-01 -3.150905406167429923e-02 -2.594849495628139824e-01 -3.277980661367964621e-01 -1.505472194423917720e-01 -1.985211222464184841e-02 -9.913791379275559146e-02 -2.107221469388907142e-01 5.762143117557753935e-02 -5.060869844320586147e-02 1.467844796132734553e-01 -1.270301508917275612e-01 -4.641797517953931071e-03 -2.237960702799377255e-01 -3.549036028382342861e-02 -4.141166229263777004e-02 1.041773774772340906e-02 -1.360948567038200441e-01 -3.101232647556195765e-02 -3.408879648252210320e-02 3.919032189047864934e-02 -8.604959685278792958e-02 7.959863713992901268e-02 -4.637669837946954698e-02 1.146747467461332326e-01 -2.054592028848308341e-02 -3.649556867184992632e-03 1.065241635844962160e-03 -2.500180172798087685e-01 -5.517367547296329194e-02 -2.162633695814439871e-01 -1.630817036096993689e-01
-8.448887168865933106e-02 -1.953716041529759695e-01 -7.345777356451108075e-02 -5.412714909294298604e-03 1.691687834161312853e-01 -3.836871708933542457e-02 -3.556940178316621015e-01 1.505303245269694890e-01 7.526548791469668542e-02 -1.555799042239195129e-01 -6.062380943175830865e-03 6.476232579149490687e-02 -2.389643727495932568e-01 4.123442297446672233e-02 -1.249302638842662155e-01 1.685573953858472973e-01 1.095782731218055139e-01 1.550236173024551745e-01 1.988026198288887769e-02 -6.608784735677934730e-02 -7.741138251896960421e-02 1.300353871196842648e-01 -1.478834251226888129e-02 8.891723957217809171e-02 -1.409126607312359836e-01 2.507738559819294166e-01 -8.652751121654246591e-02 1.079241133672937253e-01 2.264914793758869282e-01 -1.569757736897083589e-01 -5.007006443326633693e-02 2.183659019419462444e-01 1.888727098037380064e-02 1.361878561855393334e-02 3.997387905237496236e-02 8.196396210941335470e-02 -1.658113724947453405e-01 5.622015594376885556e-02 1.810469630585709588e-01 -2.383735875030490170e-01 6.261471692856632187e-02 1.246939799380127056e-01 -1.127724621860899494e-02 6.091015289525829324e-02 -2.896508310357267732e-02 -1.289599728562597879e-02 1.025556521142061417e-01 -9.101355137670609496e-02 1.081246484102206390e-01 -9.834021156856911222e-03 1.042301243728463722e-01 6.661175791237351762e-02 -1.969660367497664058e-02 -5.398354984774035581e-02 -3.233724293952353057e-02 2.116769445563213559e-01 -6.368598568093447598e-02 -1.070019305367471835e-01 -1.050872854566741316e-01 -5.972343597206736937e-04 -5.789762475175175976e-02 -6.896199438364689072e-02 -1.105596546362238725e-01 9.946923757245418329e-02
-4.406148140345209074e-02 2.510394693405179276e-02 1.114695297459630946e-01 1.650023535332161839e-01 1.767053036128651555e-01 -6.314834276978747996e-02 -1.152662881275198364e-01 2.260183410459262465e-01 1.084277605122596806e-02 -6.891331057611538302e-02 -9.190534327516118596e-02 -1.457837324570496751e-01 -4.712611925048641737e-02 2.294529933552553330e-02 5.746427208182813828e-02 1.796136012203446986e-01 -3.902628304518313690e-02 -3.154122014113799888e-02 1.563155668919294639e-01 1.208927760597079404e-01 1.678698637989962383e-01 -4.067527143531311090e-02 1.273703422961073306e-01 9.237282762493322086e-02 1.437899017660106693e-01 7.788574176358030454e-02 3.837373293439807348e-02 -1.186111062518022813e-01 7.965886588294122939e-02 1.182325605700675075e-01 -1.889334918480236047e-01 9.556848276751321591e-02 2.517624885909088006e-02 1.001357733715362297e-01 -1.055904152819837167e-03 2.836656466306708979e-01 6.018763959783373502e-02 5.421341141028231114e-02 1.192561437800000873e-01 -4.434233716911673007e-02 -3.278797996918718649e-01 5.303014781294677210e-02 1.784544276041300165e-03 -5.646295200657396041e-02 -1.303206208036045977e-01 -1.186176078669230471e-01 9.972972329924393448e-03 1.313885377640188444e-02 5.821629874427835388e-02 -1.094177212037051317e-01 1.001579410771522710e-01 -2.651715270049843573e-02 -6.757514672536059364e-02 -9.476874243500141293e-02 -8.196342664835619407e-02 7.453842902485167954e-02 -4.168304003313638706e-02 -3.087540533669392295e-01 5.917586033391678685e-02 2.586271174561515299e-02 -2.507388154775273825e-02 2.331595099081553921e-02 -3.851801392953381475e-02 1.389780695659872112e-01
4.283690714391259063e-02 -9.869006538211047563e-02 -1.219665932509518547e-01 -4.112084547250553085e-02 3.015581039788091736e-02 5.505027631097964697e-02 7.508442399708346870e-02 1.303045163385257721e-01 -7.255516584671395375e-02 7.419529171857371097e-02 6.134018522535490334e-03 5.036121839799547611e-02 2.463208217590338589e-01 4.664817410428484523e-02 9.497029251084201928e-02 1.727711622936945260e-02 2.218716911647454770e-01 -2.469544309154456455e-02 1.379813621879583119e-02 -6.608476773060495413e-02 2.213703695939113654e-03 4.229519077223424517e-02 -8.444197027559901050e-03 4.242744155082284196e-02 -5.351639190840316168e-02 1.691471608813146371e-02 2.144620629462672817e-02 3.565054694381733502e-02 1.466415951850925381e-01 -3.497046229445397586e-02 1.088283125357634128e-02 -3.867692311929431248e-02 -1.300242115363636486e-01 1.721570836296925852e-02 -2.257693806161586991e-02 -1.713187765717634203e-01 2.794889088860053397e-02 -1.519673497428674913e-01 -1.636097444608262397e-01 -1.595196093014732142e-01 -2.325398370610022858e-01 -7.036217690493515309e-02 5.660531982816601609e-02 -8.484739137920120633e-02 -5.564949851341359499e-02 8.637811500545489185e-02 8.232447350622218440e-02 -1.192147796547305266e-01 1.271644380076658032e-01 -3.418077829121075190e-02 2.619166564350530052e-02 1.207603269614556003e-02 -1.384954164926151532e-01 -3.391825292997532881e-02 -2.800313004070031919e-02 -4.763525089663954437e-02 -1.062137022335215980e-01 4.780382017860426019e-02 -1.965357211545317728e-01 -6.721091771354230360e-02 -3.906185934511917091e-01 -4.849330660147293387e-02 1.041765454270787844e-01 -5.553248710880935579e-02
-1.847149327703891675e-01 -2.957860041684137187e-01 5.107424984680043745e-02 -4.507983952150804163e-01 4.471242252212544455e-01 -3.027860721831244356e-03 7.455155237803676171e-02 2.515427550943770685e-01 1.746109514763413695e-02 -1.323268434243904390e-01 -5.698337657015590807e-01 2.639325946249180266e-01 -3.418176697534267561e-01 -1.431922518451684556e-01 -1.334480357794823879e-01 -2.699447804956767727e-01 -1.368328429788644718e-01 -4.851693716830031422e-02 2.336074686473726125e-01 6.439313521158462894e-01 -5.914184722527322802e-02 -2.392059767594097511e-02 -8.983400570217046910e-02 4.907558205811988344e-02 2.358935126847311325e-02 -5.492705378922305842e-02 -2.873413865648106746e-01 -1.387718837841262209e-01 -1.602390397669536601e-02 -1.925658431383975022e-01 -5.649905125015753926e-01 3.119580200667020423e-02 6.050718778001861614e-02 -4.467856724111369388e-02 1.045497076492142852e-01 6.524836309274925639e-02 -2.565950540024212745e-01 -1.506829775135630767e-01 3.445385133991741289e-01 2.320860351757263185e-02 -1.186367775644381894e-01 3.815970145147667969e-02 1.827136303990428146e-01 1.667732650696577279e-01 -1.525350369203637146e-01 -1.095842263438345440e-03 -8.646913830472997831e-02 1.776100755329373670e-01 1.312938177872584322e-01 1.071918233826395367e-01 -3.973280682518852414e-02 6.606032423415431065e-02 9.573205737726544345e-03 -5.823757391113682652e-02 2.928988475746200498e-02 1.901167345304970169e-01 2.623961455421248631e-02 -1.442901020887865926e-01 -2.457530956104252706e-01 -3.503557669009703668e-01 -1.223011737693396744e-01 -2.039480395108828892e-01 -3.892193106975019162e-02 1.943579170987600746e-01
-8.357021049498246368e-02 -4.949788348453885989e-02 -4.683240804356816195e-02 -1.468653461898898061e-01 1.174231858428929631e-01 1.647355399382835761e-01 -3.280554212624277322e-02 1.792134112237743319e-04 -9.721446698520794238e-02 5.282817303384482882e-02 -6.851149291999980573e-02 -9.128248259548453480e-02 -7.991611775022776365e-02 5.819779179933124574e-02 1.062722902995920718e-02 1.210131183704822450e-01 1.020440389712948676e-01 -5.892665975939228445e-02 -2.077197508239612966e-02 8.379643619880070005e-02 -5.993820596793450993e-03 -1.030818994891220808e-01 7.724225865439822425e-02 -1.343640164321150132e-01 -2.306864762278021674e-01 4.566721717976806455e-02 -2.054417449512671301e-01 -4.255034187414774571e-02 -2.068346118047068027e-01 1.088699980016234609e-01 -1.928292592139432826e-01 1.646077623456524697e-01 -1.318674137619526010e-01 1.066285652202141609e-01 1.039094509634076041e-01 1.164465340892968832e-02 -6.334160809583111451e-02 -1.158677084206120693e-02 -4.836726009072702531e-02 -9.348175828947818955e-02 7.739510180325367972e-02 2.434690741135153991e-01 3.924969141721691007e-02 6.382062122905761414e-02 -9.035772330348862402e-02 -5.455259050119684594e-02 3.867521074013164500e-02 -9.946650881282355361e-02 7.332779575115294657e-02 2.605729859720785566e-02 -1.405530733265392407e-01 5.079955788127438199e-02 -1.275613597176490366e-01 6.948742786266159932e-02 -3.994643130400098684e-03 5.095319929997732533e-02 -1.487885577325128716e-01 -1.126144503893694304e-01 1.911854766804007601e-03 -1.266659570740252261e-01 6.362166242577892150e-02 2.363684915546008028e-02 -1.537520041297801843e-01 5.872750866018743021e-02
1.697415664788420320e-01 1.191345634381323210e-01 -4.244571384997788271e-02 -4.309884104668559868e-02 1.506968730758954655e-01 1.396703161179478070e-01 -4.238482076412280336e-02 8.769866731643620461e-02 3.881631652949622292e-03 -1.144982227283154325e-01 1.471433673810977616e-02 5.737603260799737682e-03 3.219912608942864657e-02 1.254278717295791434e-01 3.511194560716231206e-02 1.170580278690182968e-01 -2.536422321463819296e-01 6.222125065453538648e-03 2.405485784137206817e-01 9.455481240135417409e-02 -1.587108141927971172e-01 1.458554946264209173e-01 2.025021917760437273e-01 -2.184661417412675846e-02 -1.002668935641179010e-01 7.837729320355063534e-02 8.702378724456721892e-02 2.019871838581233647e-01 9.699693854248367386e-02 3.875088335753658353e-02 -8.693721587063865663e-02 -1.176391047679477275e-01 -2.563576879204867293e-02 5.199032874020110412e-02 -1.106514006120210836e-01 -3.150543730241301549e-02 -1.524461358994624038e-01 1.904714734798005835e-02 4.721641025732107450e-02 3.519297655202673070e-02 1.380054571703841215e-01 -9.680653589598184339e-02 1.259056633943007597e-01 2.633962945212212775e-02 2.417713179306223842e-02 -5.430486934046005465e-02 1.216057268677276856e-02 9.047659138065394790e-02 9.190564269896969382e-03 -3.191978635305143391e-02 1.758983772641304621e-01 -5.293836604449094624e-02 7.598583629167710018e-02 -4.850691703183994397e-02 -1.971655688896919653e-02 1.851709784255068381e-01 -3.160755986052865008e-01 6.814030358969251633e-02 -5.213759053389026288e-02 -5.212636509380938997e-03 -1.127743890951443326e-02 -6.630940079024762526e-03 2.754046132292271576e-01 1.343115646585786409e-02
9.985850584618066739e-02 -1.442332107125184615e-01 -1.103089335680872973e-01 2.233146278547030739e-01 -1.872493351976946829e-01 -1.561622113544297308e-01 7.736645714326279878e-03 -1.817294032795946715e-02 2.637780341639453519e-01 -1.787611032265976618e-01 1.272777431344552235e-01 -2.650780599793855496e-01 9.607581565439199389e-02 -1.962847334325566739e-02 9.689441999625363414e-03 2.131428887962587004e-01 3.079364205196413740e-01 -7.990313287237990961e-03 -2.012551372245949544e-01 -1.336926739136942155e-01 -1.364537043940096568e-02 1.082810280446064310e-01 5.032775823133519427e-02 -1.904672076344261084e-02 4.430255237959205422e-02 2.000788218836675458e-01 -3.274866721031396977e-01 -1.520852264997355208e-01 2.687539363719718133e-01 1.273710257531703027e-01 1.118168568150638420e-01 1.633873408021511153e-01 1.876681565210187863e-01 8.050252184667414102e-02 3.484437182405760725e-01 -1.949435230853783507e-01 -3.080686421289031696e-01 6.213285669006223672e-02 -9.742212414319355307e-02 -2.580520653533733277e-01 2.164434832928058550e-01 -9.212209036532659212e-02 3.864461627162920493e-02 -1.917776657659469863e-01 -1.098819034623328174e-02 -9.040662940756613586e-02 6.767790161092067380e-02 -1.786979248131904396e-01 -2.188671732267540720e-02 -4.271666947603958847e-02 -1.132305968561124337e-01 1.809932573102907560e-01 -7.165806964226277553e-02 -9.082345833028244997e-02 3.221294255723804179e-02 -4.797341389678923262e-02 5.236501022301652541e-02 -3.224531867749749203e-01 -2.059121074325163392e-01 3.005926883475102881e-02 7.940392539344331979e-02 6.512270547226162512e-03 7.818864958584235232e-04 2.833109918166979435e-01
-1.305537497071163622e-01 -1.457112386611561505e-01 -1.100366803026235907e-01 -7.308951761734769348e-02 1.194351164684584882e-01 1.131181569417029215e-01 1.617477310513362743e-01 1.290433175215139824e-02 -2.397178960727570224e-02 -4.573643169244163281e-02 -7.782451859623272516e-02 5.607399827483654231e-02 8.360632002701004484e-02 3.270586259328680384e-02 4.787268225418275748e-04 -3.362380460661028303e-02 5.481595474565512105e-02 -1.242194516131654297e-01 -4.232121092651553590e-02 6.479046425165765899e-02 6.184614230182620270e-02 -4.703573486390746211e-02 -1.203716334974654911e-01 -1.806393485493183737e-01 4.278958316633713760e-02 -3.666037949811524338e-02 -6.153701369121621079e-02 -7.685152623672046601e-02 8.323924809945723591e-02 -8.543830535195287568e-02 2.210725533065422722e-03 6.398880725630246014e-02 -1.713905426781353880e-01 8.901378800154538529e-02 4.569128934865895886e-02 -6.111405051083415585e-02 -9.121442307539090466e-02 -7.730490318763096058e-02 4.355372031369995206e-02 6.170949499276221634e-02 -8.932336675162307060e-02 -1.343214641156688094e-01 -1.178225830246460160e-01 -6.457833643130651835e-02 -1.031641005254489152e-01 -3.361008766392568209e-02 -3.876402198841950864e-03 6.210158255648724757e-02 -9.987398884412444777e-02 6.115957224364418528e-03 5.575296131378937314e-02 -8.907857784040501548e-02 -1.449690642426482434e-01 -8.989186559661073439e-02 1.056657517757575854e-01 -1.255293209337356164e-01 1.212793490467677926e-01 8.417960343389647992e-02 8.814669108442722834e-02 -8.083483668925177390e-02 1.246182530520292299e-02 -3.626085884620790928e-02 -8.582487112295569820e-02 7.601437656057669079e-02
1.143329333963797878e-01 3.930304187046018694e-02 -8.944128347950086469e-04 -1.449110282267655203e-01 -5.120962559102486961e-02 -1.648031534049201607e-01 -2.049594672250332726e-03 -7.741452873050982432e-03 -2.262705340977510735e-02 -3.695800842765622346e-02 2.118557583991871607e-02 7.669296962819405726e-03 -7.056727591457046152e-03 9.328553975610345828e-02 3.234673120494157422e-02 1.003301101615995117e-01 -1.298051754364732725e-02 7.165440421906635327e-02 7.703874883039647792e-02 2.150651455708577076e-02 1.047042926212433250e-01 -6.691337237959817975e-03 3.001687095165482891e-02 -4.204056415924979639e-02 -1.241692609113470291e-01 1.279632897472686992e-01 7.542231228578033519e-02 -1.037954478820270338e-01 5.814363276811078396e-02 4.252319612756698744e-03 -7.410903906615213393e-03 2.988837106796051260e-02 -3.039734282700636350e-02 -6.208242140364106376e-02 1.213335383521010891e-01 1.277513905146989703e-01 -4.785542882835865791e-02 1.283577884153156434e-01 4.784826150346891543e-02 -1.032085296326848423e-01 3.842890571511437849e-03 -5.560303137161257125e-02 -1.365313927143058381e-01 -8.691754924689448769e-02 -8.514199069688857535e-02 6.581880320386158945e-02 -6.953432154357783168e-02 -7.602148143867804367e-03 5.265284468877810126e-02 -3.915535381303385243e-02 3.247005385033716052e-02 -7.529589554974272514e-02 -5.708643855403784662e-02 1.088523562414518697e-01 1.279488539222113086e-01 3.788747963885238240e-02 -1.150631487517635304e-01 -8.674135700261197124e-02 5.787263790303368710e-02 7.312017351565006790e-03 -7.591418025506534162e-02 -1.185927261849108400e-03 4.229106357534840460e-02 1.822459634557001620e-02
-1.544661444426503605e-01 3.353105609992260705e-01 3.319172214930945011e-03 -1.173252219407809778e-02 -4.980345077316358782e-03 -3.244219760004927317e-02 -2.110071393895616293e-02 -8.462533518231115520e-03 -9.945514373198598157e-02 1.201071457381866214e-01 -9.611029728823614060e-02 1.809537943934508841e-01 -2.198646690732783751e-02 -1.538722990327925366e-01 -1.301988757405694030e-01 2.991932124368634760e-01 -2.971166590212010947e-02 1.481681629721967042e-01 1.027335461231101005e-01 -9.513117277814281403e-02 -3.788752985366421189e-02 -1.430282886430125355e-01 -3.876058077386740353e-02 -1.417676837337560058e-01 -1.927678553097659023e-02 1.079682072493799161e-01 7.361093733966594943e-02 -2.766598995421134383e-02 -5.824649322664756518e-02 -1.821536794308732665e-02 6.271374381585113900e-02 -6.166335456920397223e-02 -9.357594926470853836e-02 5.249473495456066785e-02 2.394771658208061926e-01 4.796018349707033973e-02 -1.584522471836319335e-02 3.033811691024557167e-01 -3.359412419553513274e-02 1.742195195153498077e-01 -6.439711520453408888e-02 1.397564322473894005e-01 2.102807395833347914e-01 1.257675680101040007e-02 1.578310738196929686e-01 -3.685760998586722070e-02 5.820273641008786442e-02 5.587185589730285160e-03 -1.320815669438025197e-01 -2.723503056610131895e-02 -1.094231113646892128e-01 9.525235237545144618e-02 2.651483353391241304e-01 2.965491641424324379e-02 -7.868424803102079534e-02 -3.720877201300010206e-02 1.951248204563469091e-01 -4.481264123105537650e-02 1.126378405211650724e-01 5.934989020138798504e-02 1.468916588427153155e-03 1.317709064122612149e-02 -1.320259827291414834e-01 4.052029352476610793e-03
-6.465395080530515759e-02 -5.582783402929456656e-02 1.085991693434750771e-01 5.031337122090502600e-02 5.188757713897135943e-02 2.615646531307579126e-02 9.020644679691620926e-02 7.419397543111327931e-03 -9.293701481155769439e-02 -1.979633535375572018e-01 -1.894527986105297435e-02 -2.775658752700975104e-02 -1.120643406518669477e-01 1.381489765975392192e-01 1.134147992798370114e-01 -5.259526629979609236e-02 -1.854486930005842527e-01 -7.759014074679715378e-02 6.082198000377793401e-02 3.239081409244608245e-02 1.403825202627652091e-01 -1.545146948953323995e-01 1.814472178565826876e-01 -6.649923243135273665e-02 1.247190989270811207e-01 1.432310023353140435e-02 1.221928854805561099e-01 9.923377061000722421e-03 -4.753698525931292912e-02 1.545664525325924354e-01 2.503055131632974661e-01 1.294972697997792167e-02 1.500973493143263615e-01 1.268776947543504528e-02 3.334428054697818888e-02 2.486304177063429488e-02 1.899702167407484876e-01 -2.285274697596919452e-02 5.561156416462187391e-02 7.300858044352868947e-02 3.734167253615060245e-02 -3.359950917416673448e-03 -2.094867821926641449e-01 3.031854231159613819e-02 -2.203979602081663353e-02 3.954065589020980959e-02 9.373963508682607582e-02 9.961520330855735961e-02 1.024043453358494844e-02 6.859299057437112657e-02 5.719814900681135378e-02 1.149501543769385070e-01 1.144105227481641146e-01 2.908879565182814070e-02 3.520981999014138886e-02 7.208481979856751209e-02 -1.052269546739748318e-01 -8.233372305081793074e-02 9.182532811469167056e-02 -1.423846596628589034e-01 8.935575688291047536e-02 2.626995200298961469e-02 5.268104235696390719e-02 -2.276826950004286476e-01
-2.299391817206490884e-01 4.878534283942364408e-02 -7.242159742218527707e-02 -2.118649306438068480e-01 -1.297017535830968099e-02 -2.929715475966906957e-02 1.612392787798205135e-02 -3.232516802190746330e-02 -1.083302661325143273e-01 4.241667293477888873e-02 -9.174246237121384817e-02 7.752585050469629549e-03 -1.112036520379009324e-01 8.480083297665838571e-02 -5.216617693667158911e-02 2.125830988689067849e-02 -1.060146374554039178e-01 -1.273367775362581333e-01 -1.009788026442870329e-01 2.160932106384796589e-02 1.883352111845996157e-01 -1.013347066505990435e-01 -1.190127998991432484e-01 9.657684172219707652e-02 -4.339873091482347733e-02 -1.091516523208962280e-01 -4.937001437906327062e-02 -7.095398752175881632e-03 1.187253776625228630e-01 -3.310543057570870112e-02 -3.730644062120656856e-02 2.808616964576975909e-03 1.555723330175374786e-01 2.407847066897325986e-02 -5.213508578044850905e-02 1.116660956619077300e-01 -7.208726005770942080e-02 1.127006924076871114e-01 -1.086990788518188977e-01 -1.467385856990549020e-01 -1.469899107428491482e-02 3.422021028394605507e-02 -3.644434768867151064e-02 -1.851710483176184641e-02 3.564067553374727221e-02 1.080656798503614943e-02 -9.185226305273941350e-02 -6.278765582888753971e-02 -6.455892328649818698e-03 -7.213599046277113791e-02 -9.988467796520028585e-02 -1.331308804243721555e-01 -3.664295816542905565e-02 -1.028243452655495070e-02 8.966905189584027658e-02 1.551175104048478082e-01 -1.021111293716805840e-01 1.282339508494130358e-02 -1.895121087172019769e-01 1.014139639392112463e-01 -3.588299061795410805e-02 6.657919589314933995e-02 6.017144820972333830e-02 2.642626305933322081e-02
-5.467333012914293855e-02 -3.967544631688477152e-02 -2.001779329861064494e-01 -1.588751769322559737e-01 -9.496105848087425805e-02 9.273956217523809942e-02 -3.274997297566818039e-02 -2.817340041456023111e-02 1.057149610632396042e-01 1.058236442843775047e-03 1.776957597208316669e-04 -1.574238123778267384e-01 -1.098188546941715645e-02 -8.504368257996525182e-02 2.418250945490986181e-01 2.437198316401718422e-03 -9.333509552727504988e-02 5.803515122335338450e-03 -7.838687054573666158e-02 -5.137824391631472948e-02 -1.274035286750695717e-01 -5.779677399020391806e-03 -8.288422885588973832e-02 2.556891820426325790e-01 -6.563736778772649716e-02 -1.001218948043816753e-01 -3.765890211006520799e-02 1.381401968471520914e-01 -9.242884347917792922e-04 -7.581228016201295439e-02 1.452219302410267254e-01 7.632907155627369211e-02 1.010340603906924456e-01 3.422130866460886683e-02 1.018005061903456097e-02 -5.342687823715564985e-03 -2.835345245717176693e-02 1.887953463951327349e-01 -1.134835066151832217e-01 -1.506540725616105636e-01 -4.522967481299979692e-02 9.834602475339251915e-02 -2.375614919996636709e-02 6.893450930719620395e-02 9.500715219203878514e-02 -1.211401834265593558e-01 1.643985432780384337e-01 -1.173864571106004590e-01 -1.310526694730065056e-01 -1.526534350455042433e-01 -6.042752314925602802e-02 -6.469761995393757091e-03 -7.196354583890213208e-02 9.308776309754722422e-02 -8.472491117034680608e-02 1.681136582147632619e-01 3.939716652091572457e-02 4.245837762022156014e-02 -1.104935356846259570e-01 4.042726118489266274e-02 1.654296576308304789e-02 1.299512881768920547e-01 -1.169798225212792878e-02 -3.783391095665281090e-02
-3.161014054733594925e-02 3.984651211180152003e-03 8.673767394371038886e-02 -6.876649119029262791e-02 -1.425451072642609264e-02 -3.125080502735317484e-02 1.596531371573187974e-01 -6.607135699187882683e-02 1.165244993684580108e-02 -1.592768495943094192e-02 -1.931283407733257740e-01 4.282079491895877943e-02 -1.579353000618834990e-01 1.234093746330850450e-01 1.934746410298161107e-02 -6.626315897978693470e-02 -8.735953564236910440e-02 -9.384081697739772576e-02 -1.080231876512175587e-02 -2.057864453598685917e-01 2.203735425078363550e-02 1.087205102436325510e-02 1.186408943158801244e-01 6.872152910337109288e-02 -1.384570929314081489e-01 -1.205923199559633813e-01 9.576346827672971404e-05 -1.590371300913231978e-01 -8.953380831600719902e-02 2.659610775444302619e-02 -5.482318184447993598e-02 1.604397513876635456e-02 -9.798383164297087139e-03 -5.299991170195634399e-02 1.454546003477818171e-02 -2.049440958388607653e-02 -4.436051219952483193e-02 5.682780038225604402e-02 1.384367650454817467e-01 -7.043604192569197231e-02 -5.983710495630239351e-02 6.628115863620724635e-02 1.054580973035105923e-01 1.802722011259990098e-01 1.243352662789753288e-01 -2.035617960828896011e-01 6.690849097321645289e-02 -9.286114837998168947e-02 -2.361599547164294766e-02 4.883617336612743054e-02 -3.786410423299155226e-02 4.273171424166875842e-02 8.759074675678013566e-02 6.734741546962957383e-03 -6.337929710560044616e-02 -2.962438182381453219e-02 -2.086184474190597160e-01 5.408861629574056307e-02 -8.303521432814889303e-02 5.469810238538434788e-02 -1.056501781531373786e-02 3.529851634340817196e-02 -9.414238353190058917e-02 -1.328446406714919037e-01
-4.942159354234363505e-02 -4.623817091362108361e-02 -1.266366481626922391e-01 -7.248033340524386026e-02 1.026457993918668127e-01 -8.324343617589188837e-02 -7.190954748844522251e-03 -3.973771016338732004e-02 5.541559149441315640e-02 2.905473258507006162e-02 1.436113431918231535e-02 -3.926800726971801242e-02 3.133124283554984679e-02 5.946377359211117708e-02 -1.616873284672050159e-01 -2.760459438227422929e-02 -3.227539349874033320e-02 -1.496289660100260099e-01 -6.309396603868085152e-02 6.270178833411932384e-02 -3.104178037380447841e-02 8.488182387878791257e-02 -9.383711099614602813e-02 1.160873997276072600e-01 3.081027051036244746e-02 5.167858200909170030e-02 7.077688647117132137e-02 1.034836432661373484e-01 -1.152391494898385577e-01 -8.070648843330968658e-02 1.842894764161510587e-02 -8.591304608506417084e-02 -1.309826772051310428e-01 -3.476627549683160984e-02 -2.976478892172327098e-02 -1.366533304627671683e-02 1.283401537364420308e-01 6.377268514058932747e-02 -3.774494044347780075e-02 -3.752766766433465045e-02 -6.667063401944804679e-02 1.119144334226481879e-01 -1.333278841229753320e-01 -5.680569241912694634e-02 1.026103078116393785e-01 9.750276187929851623e-02 7.700813077855363231e-02 -3.660006072126238685e-02 4.650075442418126481e-02 3.824766804392404351e-02 -1.289764548373913411e-01 -9.655187585981678949e-03 3.581430499199360351e-02 9.089728813840052685e-03 -9.338122783466092092e-02 -1.443709951025053950e-01 1.465360759305047444e-01 -8.431561785525092112e-02 6.444093628304725652e-02 1.064913476038193280e-01 3.914509422595451038e-02 -2.052224065823533145e-02 -9.968106368259908867e-02 -1.261220331777889725e-01
-6.784234530734643831e-02 9.647554271772623702e-02 7.786551783688175354e-02 6.869367263195680362e-02 9.081119330108770871e-02 7.509653451677734959e-02 2.118004367164269819e-01 3.213079823706981725e-02 -3.581486663413366300e-02 -1.530316534679224127e-01 5.174374393771110497e-02 -1.144736425283399556e-01 2.055824858689565549e-01 2.047362171418114218e-02 -1.253615489832882735e-01 9.192426779910591039e-02 1.043735726323524876e-01 -8.598836746589955116e-02 -1.913622693620960560e-02 -4.778434382425175014e-02 6.943423708411824991e-02 -1.950429294168705141e-01 -5.982069993141007208e-02 -1.670980506226012186e-01 2.366929956441239102e-01 -1.234070044605363875e-01 9.647681337030541981e-02 9.943557997626337880e-03 9.712459832448103181e-02 1.018071734328140909e-01 1.447235473816526063e-01 -1.155481673950515542e-01 -1.078910133057905674e-01 -4.735696345448548589e-02 -8.695922411217676951e-02 -3.164941787966487063e-01 2.178062940908541412e-01 -1.562622637649664081e-01 8.694948060348055285e-02 1.384851614704301903e-01 -1.023186254086058816e-01 -8.548920182604324847e-02 1.026058339273634296e-01 2.805126885586935875e-02 1.364373253292939236e-01 5.036486620503758532e-02 -1.299593602951392701e-01 3.519358494930054093e-02 -2.646593174556660100e-01 -1.430417433339787603e-01 -6.920500446599144040e-02 -2.435653517502727183e-01 -1.172215042113256001e-01 -2.399253770214325454e-02 -9.888770204070206071e-02 -5.170273909901838133e-02 2.228090764926656323e-02 8.713476452554957952e-02 -2.263893705258911149e-02 -2.132288436519141073e-01 2.659670767854519502e-01 -3.680169062013814718e-02 -7.882666519527942173e-02 1.217755323872276724e-01
9.705652432709741678e-03 -6.538217557595406293e-02 3.598117435195659353e-02 -6.634731871948725511e-03 -3.601757940006191649e-01 -1.338037571992471697e-01 3.562745502802807523e-02 -8.581448742450355216e-02 -9.848690267756068928e-02 -1.294812716348033854e-01 -6.878454073905887478e-02 -4.243434689839096358e-03 -2.027590939612359811e-01 -2.115968296159341788e-01 -9.867784465425102902e-02 -1.778136881868707109e-01 1.910879163953130566e-01 -3.603716247887776142e-02 9.861478538132442684e-02 2.113192069351654545e-01 8.886141840987810125e-02 -2.564251780334316725e-03 4.066325356424298036e-03 -1.061728405475169668e-01 -2.617095374962145893e-02 -1.812429736224513421e-02 -1.168611909177496300e-01 4.564813225583947386e-03 -2.578036159813278799e-02 1.670986990252718574e-01 -1.752610548729610362e-01 -5.657541953566894849e-02 2.169063906516712492e-01 1.274359642651864966e-01 9.829907322291304983e-02 -1.547527776826462254e-01 -2.857614849560356080e-02 1.769138509490256750e-01 -5.432266522972224732e-02 -1.591736545393945823e-01 1.189277759509768245e-01 2.989754318949141773e-02 7.051366102897897552e-03 -3.810073135208387474e-02 1.161342821479238729e-01 -3.501985036145627284e-02 -4.648286425105460640e-02 -1.570182902654509993e-01 -3.202811354815574690e-02 -1.372025625090091128e-01 2.398501568009354934e-02 1.063921128700886023e-02 1.256000836635000895e-01 6.462532454887658095e-02 1.407155020765335773e-01 1.886193246303496662e-01 2.548242759977506836e-02 -9.862011179161933594e-02 1.968217623041724207e-01 1.523077703714922626e-01 -1.104745119069965309e-01 2.158719906001301536e-01 -3.981700396591866808e-02 2.802868618335348505e-01
2.299743258638051527e-02 -6.904068953529182706e-02 3.600758780610446158e-02 -1.198262090609445579e-02 -8.308092733334987434e-02 -7.442766279459796241e-02 7.517630447019484768e-03 3.440219523912454308e-02 -1.697558669480621341e-01 -8.184709925769123595e-02 -1.242258227329805925e-02 -1.186545685248833193e-01 1.266934303136590112e-01 5.752157120500304283e-02 -7.073349180602719888e-02 1.548835662690171977e-01 1.301633240072506692e-01 3.044914338648594190e-02 6.873034914832359954e-02 2.913868863968945011e-02 3.935477379980588386e-02 5.843807615181177001e-02 -6.531648219523307486e-02 6.942712665480621492e-02 -3.455690721494465711e-02 1.070329466669851654e-01 -8.203759154812127752e-02 -8.339511395214381506e-02 -8.321841594802603659e-02 7.520535030832070644e-02 -1.405387957611080318e-01 8.964140086708823063e-02 7.912525817016095864e-02 -6.534432341460703897e-02 1.344145429056618213e-01 2.547246576793646758e-02 -1.229795197922380935e-02 1.176578734870904752e-01 -1.633183344020793792e-01 -1.223598177395497227e-01 -8.864609376259745266e-02 -7.504049952825099512e-02 9.070666979451469381e-03 5.801240898622665731e-02 -5.561626289258195938e-02 5.552724963605198960e-02 -4.016609147941061636e-02 4.446439471130966131e-02 2.671685069811259236e-02 -9.282913512585053151e-02 2.755367944813325032e-02 7.263672578645892497e-02 -7.642187127546271053e-02 4.124856303803193375e-02 -3.960136606116247682e-02 -1.847105394763012137e-02 2.101512076112948824e-01 7.426857566613605244e-02 8.886769658718363107e-02 -3.735696782082537776e-02 -1.251194446571642360e-01 -1.775238538533100222e-02 -2.812213437956138928e-02 -8.643541430893225685e-02
1.631114222853733697e-01 1.360350943305007887e-01 -3.505005183974629207e-02 -2.325099691235408758e-02 -1.464789487150339464e-01 -6.558976271165736782e-02 -2.135751543348749296e-02 -2.154885550744368994e-02 -2.898825600006905701e-01 1.004372402244915752e-01 1.752621240882371867e-01 5.508747083519770346e-04 -1.704657813182097748e-02 7.359506435835867777e-02 1.422323456363616123e-01 2.260779128372980007e-01 -1.081738075169636631e-01 8.063788419866670110e-02 5.685402546261398432e-02 7.946028294789447832e-02 5.418124696248390049e-02 -4.524661512210891891e-03 -5.246058444054021476e-03 7.404410963854840544e-02 5.640607396062744666e-02 1.246161453746231912e-01 -6.582844549673083634e-02 -4.538619297002062514e-02 7.889860527370057622e-03 1.003750381005707494e-02 5.180033312513115940e-02 6.573095818770979815e-02 1.081716840909697219e-01 1.433943198789446871e-01 2.867149342424981859e-03 1.626670681480844524e-02 -1.751527058876033507e-02 1.232856063322923384e-01 2.309191251457258509e-02 -1.443560834492484124e-01 -6.191350235751478387e-02 -9.254254322326972704e-02 9.584828183696889048e-02 1.295353842170037240e-01 -4.052807778062790522e-02 -8.611477591411718924e-02 -1.498940831841920063e-01 2.268206431368965763e-03 4.643368361798719951e-02 1.337775422997398989e-01 -3.258654771676723350e-01 3.220415356387333894e-01 2.165318211794804992e-01 -6.611505769236857011e-02 8.240228415030496911e-02 2.936507006481120854e-02 -2.093645388772094329e-01 1.896151394673676466e-02 -6.552627721134388072e-02 7.392810699009512432e-02 2.605372692235483761e-02 -6.175194131823012050e-02 -8.164998810950178931e-02 1.282078856138554324e-01
-3.696109789074634999e-02 1.106131697952529719e-01 -9.454445438369576959e-02 2.108975362428828215e-01 -1.998695474415120715e-02 -7.719945592228018294e-02 -2.719586768212964648e-02 -7.197013190109299852e-02 -1.628520216182303415e-01 -1.324813079807701105e-02 3.980349901454072192e-02 -3.785545175816488334e-02 -1.533287031235550657e-01 4.565384876018499516e-02 -1.137491863223288463e-01 1.036437268056179806e-01 -3.621293318575126430e-02 -1.225170965279525209e-01 1.024208462007430848e-01 2.115387592386127058e-01 -7.455047160922255445e-02 -4.719071984932465130e-02 -1.890925762840229424e-02 -2.734991045806634338e-02 -2.706841575693293422e-01 -8.369485424287831377e-02 -5.204624764403087411e-02 -1.482059373318063145e-01 -9.500560914832921477e-02 6.616793522036783226e-02 -1.207259628770637749e-01 1.036652489576509878e-01 -1.010455469783898413e-01 -9.074663838430152563e-02 2.871023288600037249e-02 4.180490649479699089e-02 1.269617200375009747e-01 1.640364953625264022e-01 -9.130045793349063354e-02 8.574909293580872116e-02 7.442164257971646546e-02 -1.314604262306456606e-01 1.900809189346276129e-01 -1.793001639176179662e-02 -7.075199041439264591e-02 -9.802085126827453365e-03 -8.284558983272857779e-02 9.412302683168231876e-02 8.488111806323939482e-03 1.173608268080444661e-01 -7.369138294206899198e-02 2.124075578221039651e-01 -3.988888916394468104e-02 -1.372508087231489038e-01 5.254652613662844779e-03 1.166290506354608486e-01 -1.018667402024275165e-01 -8.069349052377425280e-02 1.367101897661697485e-01 1.254329709336096943e-01 -5.446800658038959686e-02 -2.037481916270246843e-02 8.989810680993026715e-02 1.901236971504456363e-01
-7.789297464941100958e-03 -5.557189201259045593e-03 1.688243513850198885e-02 1.159503063381136095e-01 -1.195476673564716541e-01 -6.635866921370182914e-02 1.173359421136831865e-01 -9.863810161016056677e-02 -3.236765324268902067e-01 -9.661058954198294135e-02 8.796460226218329181e-02 3.706953039846314774e-02 1.694913711938572931e-01 -1.458434768779143798e-01 -9.319135309182159654e-02 -1.530664772724006362e-01 -1.887076731465898716e-01 -1.489689989623881744e-02 -1.508069281404919235e-02 -5.140545100647962024e-02 -4.513311472327165112e-03 -2.561696343147045751e-01 -1.394082837468810232e-01 -1.884546740876011650e-01 1.635986367345861614e-01 -1.055653761895525844e-01 -6.575671010074614353e-02 -1.844568432762184670e-02 -3.680614761898580722e-01 -8.091134544038909582e-02 9.452040535024094914e-02 -1.682583590201353896e-01 -1.317497271951539872e-01 1.430264113828285111e-01 -1.332851278158645250e-02 -1.887376661314917048e-01 1.310891138474761658e-02 -1.241565502547331279e-01 2.492161249510921606e-01 -4.722369292484611403e-02 4.725144426155902105e-02 1.263964414004265652e-02 -1.622928655525690267e-01 1.952420259214927151e-02 1.953475712432539424e-01 8.582996009827618955e-02 -8.561125870801508664e-02 -1.219224800120376762e-01 -6.222710323942114846e-02 -3.765461367104849799e-02 -1.791939478693909960e-01 -4.081879451308327578e-02 -4.911852233698995457e-02 9.923765040262602644e-02 -2.852905230956871447e-03 -2.184981036907513718e-01 1.871280225377584816e-01 -1.214016615685176159e-01 3.779788484829543771e-02 1.148512213788241698e-01 3.048087491177680075e-01 -6.700043284503630348e-02 -9.153784217447833924e-03 3.700955501069942699e-02
-1.232152624036002703e-01 6.131452298037972683e-03 4.202006817926069032e-02 1.542168051533832351e-01 4.451481202268658260e-02 1.271077243703203907e-01 -8.335751268224088351e-02 -1.475269173098817978e-02 -7.604550097789564145e-02 -1.217624894388769641e-01 -1.805814400079173709e-01 1.373313730401425070e-02 3.877820266949023875e-02 -3.483488750394788530e-02 -1.095555557190355106e-02 2.011227303458089366e-01 4.003309093950603408e-03 -2.502160670404098702e-02 -2.442533466943352244e-02 2.513358303458425314e-03 -2.225958787883944648e-02 9.221846791334560936e-03 1.860348190062870166e-01 1.112307425511073616e-01 1.533397701690384363e-01 -3.525159982238688927e-02 3.225165768754763296e-02 -8.978364150198356319e-03 3.359942544748521775e-02 -6.367128509524715152e-02 1.020903009213242757e-01 -1.078382006155776535e-01 -4.579177246322316264e-02 3.436785211523168959e-02 -1.155755012840423285e-01 7.641713876865235955e-02 1.235754579179678819e-01 4.907706689132505101e-02 1.004735080232494089e-02 3.065514931433984680e-01 5.274738882629084746e-02 -8.130219330124577315e-02 8.171496997069099821e-02 1.419525104672926252e-01 5.957371763020619798e-02 5.092388261115191744e-02 1.669402215680962087e-01 -2.894873865079655023e-02 7.695646804993919177e-02 1.804830137135446100e-01 -2.028826555786372721e-01 -7.390579029838921510e-02 6.946677795585007309e-02 -1.369610235756904548e-01 1.810207963445826032e-02 8.676774513584378790e-02 -1.712988406271678254e-01 1.369483524899634819e-01 5.527950347385610780e-02 -7.349838815753155508e-02 -2.079283000041451043e-02 -7.827850603902343496e-02 2.101355641277880271e-01 -5.437560053718573649e-02
6.304094780012486909e-02 -2.468752468896535240e-02 -1.888364144999090388e-01 -8.405820662842901358e-02 -8.780953706061751796e-02 -1.108781220135174328e-01 -2.932623896020040283e-02 3.331881604392739060e-02 -9.264880898211256752e-03 6.993315242611744531e-02 -2.295756597486868066e-03 -1.070761155942813979e-02 2.143045953914719109e-02 -5.524752013302732662e-02 -5.166998224251088956e-02 4.424135260157729260e-02 -9.084019566200123019e-02 2.251432929154409401e-02 9.375339654731029704e-02 2.582725206342347327e-02 -1.258261898101325216e-01 4.210758124085532683e-02 -9.099574092173638717e-02 3.200237680612935676e-02 -2.021369895453690724e-01 -8.803746165628536374e-03 8.459420004450136921e-02 -4.402058126119285514e-03 -8.596982773250763654e-02 -1.070432442579665605e-01 -7.509589084538456638e-02 -1.088894935057614921e-01 8.814933327406812569e-02 3.411865482301141422e-02 7.803976252346781287e-03 5.251640209073524940e-02 -1.827080441276641709e-01 -8.308993957098761984e-02 -1.278451436416517262e-01 -2.959670797897112071e-01 7.682871326044375671e-02 6.902091618076156010e-02 1.192313609385029297e-02 -1.971019258028516297e-01 -5.368355155922185928e-02 -1.215654115825039183e-01 -8.377729721783896966e-02 1.384583067111365591e-02 8.518241290337805194e-02 -1.395033639136900906e-03 1.694346980419907589e-03 9.126339226249424730e-02 -1.017242568153435694e-01 -4.498733533334518114e-02 1.601512346074526749e-02 -8.208705496034617022e-02 1.919690668133133826e-01 -1.050023035911233638e-01 -2.113088999689188840e-01 -1.464151189315171520e-01 -2.897152404639967774e-02 -1.145489898080619823e-01 -1.324964801233548539e-01 -1.588254842084056151e-01
-5.041810298310443056e-03 -8.143071290531359030e-02 -5.447650565938091938e-02 -1.531853150739442559e-01 4.887709398146976303e-02 -6.209428180036628830e-02 -7.775321969178469739e-02 -1.358862931209858967e-02 1.306297269025323282e-01 1.996687658620376060e-01 -1.711933836179605206e-01 1.946295487055703377e-01 -4.447975899654611938e-03 1.119180750807556579e-01 -8.578997056782547426e-02 9.242532955625002442e-04 -3.575869962105049371e-02 1.826185822890623867e-01 7.263140087061861760e-02 -4.632205614733376359e-02 5.583680904401736728e-02 1.974078136969635855e-01 2.692707310858817246e-02 -1.494796275458771528e-01 -1.918323078619890432e-01 1.066635797953822962e-01 -6.561215386581276121e-02 -1.457775439662470085e-01 2.431119839088716761e-01 -6.826601365194505389e-02 9.893193960641720464e-02 4.682119414384501750e-03 5.570181384508314515e-02 6.813883685958620207e-02 -2.939170482169934859e-02 -1.560319087001625360e-01 -5.578176292516883600e-02 -4.301499249325655468e-04 -2.302620170021452140e-01 5.683835186431853391e-03 -7.246035120370591942e-02 -1.560973806776039859e-03 4.523981450032746321e-02 -3.087559625400922159e-03 -8.085353776645599899e-02 -4.826420378034078362e-02 1.997585471672332635e-01 2.376456804448572324e-01 5.619291195902377523e-02 7.330560531887133149e-03 1.150317243403338879e-01 -1.158019766584660326e-01 -1.318046510872075139e-01 -3.698476486873942398e-02 1.336181281298954304e-01 1.722650939420965754e-01 2.111827466061040603e-02 -9.938667023982295304e-03 -7.742797470111308436e-03 5.570387110380436296e-02 -3.183103310567182986e-01 -1.045815131569113737e-01 2.055471384713251221e-02 3.652151687715065459e-02
-8.981331827223143494e-02 -2.231934879647596570e-01 3.608152675885414329e-01 3.898773569533044853e-02 4.699649240613830159e-01 1.899694081017477554e-01 -3.614271474817841168e-01 1.729202176147989767e-01 9.667649260459219851e-02 -8.580551514366599464e-02 -1.040446970710682956e-01 -2.732897762130019337e-01 3.695194532063781900e-01 -1.822225315878146790e-02 -8.738716230212897895e-02 5.671676449874099579e-02 3.389176698727224823e-01 2.695237429435351495e-01 1.127379717794074476e-01 -3.194067919189046978e-01 -4.349066001531116943e-02 -6.725397359737604885e-01 1.746034121397096739e-01 2.217431812930338586e-01 -1.490389186572773639e-01 2.108558672079139107e-01 7.985436763445038144e-04 6.526801479161765951e-02 -3.726014701866317558e-01 -8.169038150283448874e-02 -3.323357877412890238e-01 -1.447935263088586111e-01 -1.271078976772847813e-01 -5.943727737532914640e-02 -3.159006798687921114e-01 -1.792974170270904832e-01 2.318448657701729920e-01 -9.356521645215461203e-02 5.845913819560137892e-01 -5.655529141450022640e-02 -2.159350007303676156e-01 1.843064152460013039e-01 4.625462401724019235e-01 1.225661443024046587e-01 7.996221039491950566e-02 -3.145373210291487615e-02 -1.690090434242577933e-01 -1.188378059404939652e-01 8.839349420870322438e-02 -1.141902527081018609e-01 -1.410783786383880967e-01 1.669193303435409503e-01 -4.247553636287272338e-01 7.784252878674811915e-02 3.906613983955344316e-01 8.055343392365243993e-02 -2.715263019091079810e-01 1.132376819693664410e-01 -9.652206945289316942e-02 2.113654350875366350e-01 -2.348695132251276685e-01 -2.536397720525166571e-02 7.340671617006770677e-02 1.555172369628062268e-01
