1.430635220419845255e-01 -2.053482802900251647e-01 -7.641189206003473622e-01 1.684497825483846356e-01 -1.290882147674491109e-01 1.616342092311431333e-01 -5.676728548839476279e-03 1.960814956261842101e-01 2.991952735456595014e-01 -2.570519333952012708e-01 -2.851456768321255358e-02 6.972821524378643998e-01 -9.742719522957942954e-03 -2.791822022091848265e-01 -4.033723860975032410e-02 5.042112600630398456e-01 -1.578329448691079273e-02 -3.602225679470208441e-01 -3.094858116425055344e-02 3.200698723290624770e-01 5.696611684592736147e-01 4.714503921718143226e-02 7.388180207844330383e-02 -1.218776706038231378e-01 -1.896375679225598410e-01 1.076493166185737288e-01 -8.714166517779458054e-01 2.050912309607917094e-01 3.471577605923310827e-02 -4.736848155603370913e-01 -3.254685874190483275e-01 1.028736787445005789e-02 -2.167712933507187356e-01 7.119058186617668871e-02 1.896958388764590220e-01 -2.539326345175734190e-01 5.555415414392573803e-01 -6.867618463720384092e-01 -3.789036584407841635e-01 -6.673300839266134155e-01 6.697042728215139018e-01 -2.627898160260696003e-01 -4.264779414485314057e-01 -4.135444660710608233e-01 4.070310337218880914e-01 1.846592680561225108e-01 -5.568553942340270790e-01 3.343753518534783309e-01 -7.947790691764240745e-02 -1.004566404886625269e-01 -1.028896123273912888e+00 -5.719607834455731760e-02 3.216855919651070428e-01 2.287596108550936924e-01 -1.547615742906560399e-01 2.630995448006794857e-01 -3.870558612805387322e-02 -2.552029431070516052e-01 -1.368049233191965044e-02 1.216599737046164184e-02 -7.054569028838471034e-01 9.868787298439190003e-01 -1.073310184611424439e-01 1.362487083374092078e-01
-1.590875071170629873e-01 -6.208396376051725785e-01 -4.451002991684075566e-02 -2.268980241340987636e-01 9.693465972882057968e-02 7.506640465550162844e-02 4.064167431391601387e-02 -2.917338685273183560e-02 -1.340331841560492288e-01 -2.350201569352025274e-02 1.465811528932881025e-01 1.863194778957629263e-02 -1.088178923905258610e-02 6.086864169576637895e-01 4.687618009394448060e-03 3.432168368005194536e-01 4.137138275243500141e-02 -1.937245153834036004e-01 7.758277549074123897e-03 -1.715591548574417757e-01 3.278656823488853012e-01 -3.500790382001977008e-01 -1.689755473345884440e-01 1.039927835396726313e-01 2.735096939246753345e-01 -3.633471459821444038e-02 -1.792713970228476672e-01 -2.398060857064166773e-01 -5.551461900350974227e-02 -1.469212638708831120e-01 1.794563247943422313e-01 -3.956446708609210987e-03 1.705597673768771694e-02 1.097042063983577620e-01 -4.068782769910792019e-01 3.213274603829222031e-01 1.420647428818702096e-01 1.063835852023821277e-01 1.198639772816405130e-01 4.369322831285950004e-01 -2.274811854380224818e-01 -1.024211030834735331e-01 -2.482908560077023638e-02 1.120100129098428737e-01 9.242318351326866965e-02 -4.180312320135332049e-01 1.186668223846967518e-01 -2.424697958336082815e-01 -4.072825596153344940e-01 3.088449486638391583e-01 1.929626709690716174e-02 -1.006869158333891373e-01 2.569430644742605185e-01 3.478417454255361418e-02 -1.993745761689793283e-01 3.455803753939545864e-01 -1.700426223071621057e-01 -2.202032202717413012e-01 -1.244638717015213308e-01 -1.577753715564697012e-01 -1.997692277906224778e-01 -3.414325176924749572e-01 -2.289930835321629943e-01 5.599194326039224484e-02
8.585841272641126995e-03 -2.945422035840761787e-01 -1.630791196116645747e-01 -1.731206636724705594e-01 3.797959891658307663e-02 1.766603854297769949e-01 -1.177321749673350126e-01 9.897177501877591193e-04 -5.501564991759735901e-02 -1.430713543679044408e-01 -4.725526618394797901e-02 5.417401842178581894e-02 -7.690373678217703179e-02 -3.282395173901390267e-02 -2.131799232300948463e-02 1.200942459262954037e-01 -1.579540386169641097e-01 -1.883813848574529271e-01 -9.795519669780976268e-02 -1.878049543951348654e-01 -4.593145505904864395e-02 8.566511515148575451e-02 7.762386013370832505e-02 -2.168634386408377079e-01 -4.348153524393517655e-01 -1.180507896788361433e-01 -5.565686187335185942e-01 2.553602840925700557e-01 -5.755428936530973538e-02 -1.900248013854941020e-01 -1.246455507761280307e-01 -3.948565033444326189e-02 -2.893835199055744267e-01 -1.316859060166321316e-01 -9.288369578323171782e-02 2.383591158446498465e-02 1.272192111273507675e-01 -1.491171906623798282e-01 -7.494669516870326731e-02 -1.147618520752984456e-01 1.144180379981765000e-01 -2.065998161431915336e-01 -7.392795927896933517e-02 1.098480323354005944e-01 1.476944402694318481e-01 1.017855088493207494e-01 -1.538271348003504568e-01 1.415381243767118158e-01 -9.395285641295057777e-02 -2.092906171309988350e-01 -1.553300963983012817e-01 -1.945525461968761888e-02 -4.229333160188203378e-01 2.135943355437915081e-02 2.688561223657189719e-02 2.335876312101306806e-01 1.664184107740023510e-01 -9.900661194542342836e-02 -5.010077446500547926e-02 -1.181699506019694285e-01 -2.742882624103913369e-01 1.528592072618196740e-01 -3.007483884003542274e-02 -1.761764480683323808e-01
7.529812489349933802e-02 -2.599176601344872495e-01 -3.523676687702997218e-02 -4.759698367918508734e-03 5.683641382671969500e-02 2.220246570715382964e-02 -2.185168625905732631e-01 -6.745972409191272612e-02 -4.119985217609842265e-02 -6.133713150319261564e-02 1.815558724981757854e-01 -2.225512967777658682e-02 7.420765178269400630e-02 2.890776075590885119e-01 -1.071665113749688536e-01 -1.401475983726756802e-01 6.812069583046412823e-03 7.465528906963300737e-02 1.826445533007835520e-01 4.195465896344814129e-03 -1.047509085428573322e-01 -1.035222372899311100e-01 3.033537174428850222e-02 1.345388819333454694e-02 2.015980415542053539e-01 -1.264810689689793988e-01 -3.358987304495599790e-01 -6.379697595734686033e-02 -4.164974043000182341e-02 8.478830642452343802e-02 1.187058569327380103e-01 -4.095177158008636575e-02 -8.568136523418076744e-02 -1.018577125381728704e-01 1.126239937299164384e-01 -3.661531859824549654e-03 4.618903303380890446e-02 6.365890931051973456e-02 1.809679666345057752e-02 1.843065083879626143e-01 -5.557905852253730572e-02 -6.901510245654121634e-02 2.024236358713134287e-01 -2.431496453652479683e-01 -1.288528075359656189e-01 -3.763157178110853457e-02 1.814838688961542892e-02 5.751137061247454246e-02 -1.933731006480258752e-01 -3.239824478461533208e-01 4.138219632602744419e-02 -5.100812395053127071e-03 4.092612567906279281e-02 -1.529827171905848993e-01 -4.112690464236033044e-02 1.966991598092831250e-01 -6.201583403038732909e-04 -2.091062367868740668e-01 -2.311585003816324368e-01 -2.730145184281007956e-02 -3.581376434312254914e-02 -1.275670588037686182e-01 1.550117439829304389e-01 -8.246011059761444717e-02
2.360111780917155833e-03 2.226479707756542081e-01 -5.595963225291766124e-02 1.804917073697041296e-01 -8.484278238884741807e-02 9.443449890090058196e-02 1.658449231621184350e-01 6.121012702977424863e-03 1.989701947632302736e-01 8.871792212288434620e-02 -4.745147923474246632e-02 6.522658149504227676e-02 1.025486312875247275e-01 -1.910159369443718003e-01 -1.665528816964944366e-03 -2.958700950445020683e-01 1.485717666442869407e-02 -7.829731437675802042e-02 1.121059231806038059e-01 -1.148188602241956568e-01 -2.674263089537430929e-02 1.322061331918322757e-01 2.193278674015035346e-01 2.895679101346173082e-02 -1.880326848920281513e-01 -6.748444985579428457e-02 2.086400951906236534e-01 2.264612372947629182e-01 1.039517780964503424e-01 1.700104481270780232e-01 -1.600381957940107402e-01 -8.869974569065316658e-03 -1.019478748898099280e-01 -5.461966878815760137e-03 2.780868586169692180e-02 -2.786039630890372876e-01 -2.882722777724055357e-02 -8.351295222694243847e-02 -5.171476354796215175e-02 -5.906636312429790897e-02 7.190784958757795442e-02 1.655266908765903322e-01 -1.315788266794885863e-01 -1.132693076984735425e-01 -4.147139984089624060e-02 -1.728291172521378150e-01 -1.304211297950038095e-01 2.454672083561631329e-02 5.437637283750009626e-02 2.146148219632913190e-01 -9.225943856226316575e-02 5.192111585571608512e-02 1.598750712555054299e-01 2.389870363234104789e-01 1.516358325767737103e-01 4.528982534714812852e-02 -2.367624407851636262e-02 -2.215213082812876946e-02 -1.494814012112713197e-01 8.905370577955988576e-02 -1.782895112557150163e-01 2.173724617532223069e-01 -5.712273819949878484e-02 -1.525701364274416605e-01
-7.435655448854698590e-02 -3.878926945836394524e-02 -1.152011853583708757e-02 -3.002514737837270672e-02 -6.950160625025632311e-02 -4.447078616764571501e-02 7.167262459554246679e-02 -1.406278207751693599e-01 -9.574204732598515233e-02 1.336742698022861699e-02 1.679108648833654294e-01 9.479559942997330428e-04 -1.372497002472208016e-01 7.597428284311745841e-03 -9.452370624965650281e-03 -2.867340213553545292e-01 -2.216860282754534381e-02 1.143540163272594307e-01 1.205665759250445709e-02 -2.041624329068388727e-02 -4.814451267667601425e-02 -1.895847266893840311e-01 -2.166208871857447024e-02 -8.480274428047779312e-02 3.062844864357732247e-02 1.289786012126882264e-01 4.605119430469890862e-02 1.795877570037680143e-02 -1.774983144322787032e-01 -1.348538572604381369e-01 7.743320104208720189e-02 1.024757333168676426e-01 -1.206931097409539855e-01 -9.719062678159105795e-02 4.744959116455677028e-02 -8.237017905124363604e-03 3.479588445224867516e-02 3.012421951057524944e-02 1.128902429978861921e-02 5.607469808292424654e-03 -3.822337622808418423e-03 6.763960725394803364e-02 -1.325703988754310392e-01 -2.953957074376947212e-01 -2.019007239218450767e-01 7.311295885201199440e-02 6.840017993145260794e-03 5.377462776108209164e-02 1.813969106956392074e-01 2.318497776995860904e-01 -9.630459473297013628e-03 2.176550007829566522e-02 8.820073746656875713e-02 -4.977516207258918246e-02 -4.746135306732102849e-02 1.719535404781993848e-01 7.215685550719884434e-02 -1.883880353702664101e-01 8.280989551152297123e-02 -8.748264606533895371e-02 9.148804362132297030e-02 -5.876645258281843615e-03 7.920413255059625957e-02 -6.071102497318155850e-02
4.715994637221907620e-02 -5.584065203491350021e-02 -9.013213507814902062e-03 2.121640008382163177e-03 -9.406954387910528015e-02 -4.283482325079072256e-02 -1.999243101973326719e-01 -6.364971858793856685e-02 -1.986506671443495353e-01 1.011628164421946724e-01 1.752906092813517058e-01 -1.356412488525025363e-02 -1.649771668731933039e-01 6.308593687674876821e-04 -7.902052128387626606e-02 6.526142718205626969e-02 6.739998528677024203e-02 1.613028185808799628e-02 6.501583655295357922e-02 2.459256420167839907e-01 -8.502615025471117749e-02 -6.692707354151125609e-02 2.596733369906847333e-01 -1.442462468022300270e-01 2.007699485809198020e-02 -5.708777983050474653e-02 -1.528114630632038395e-01 -5.100959454046189584e-02 -4.221210279108339285e-04 -6.024887782669427483e-02 8.670143750554899775e-02 9.929469499547996514e-02 -2.379902252528069140e-01 -1.241489434082554133e-01 -2.800887509365262637e-02 1.926798860178689787e-01 1.223344788496140943e-02 -1.750422641228007933e-02 -4.766134080793210659e-02 -8.981323335946894693e-02 3.666278100275102703e-02 8.284867641669911575e-02 -1.327371328441958043e-01 2.237711461271719993e-01 2.185475623504708545e-02 -2.927722050272150989e-02 6.161228687576490726e-02 1.783246809220295770e-01 -9.766512118703561673e-02 -2.733499188958369297e-01 -1.691460635202731008e-03 5.763639014879045480e-02 1.134601121161526137e-02 -5.558355295487887870e-02 1.611670736242191426e-01 5.470557417601549371e-02 1.650891267117227390e-01 2.754850532276951688e-02 -1.563872128667455341e-01 7.120449399422250358e-02 6.024788934012701461e-05 3.561971686938098652e-02 -7.435912514300022091e-02 -1.076767406310589897e-01
2.128775226929447983e-01 -1.494452355666674448e-01 -4.698147500379476482e-02 -9.129658976154483851e-02 1.986383386033823903e-02 5.994995797258323433e-02 -7.951642276892872951e-02 3.898300357521261583e-02 4.494277003418599425e-02 1.398355129525126195e-01 -1.573034715451972487e-01 -4.534793556325167341e-02 1.043037046624045901e-03 8.532424699867169338e-02 1.474342522583182470e-02 -7.330330374181250053e-02 -6.213862824230551030e-02 8.669568223657880823e-02 -3.294901350945641377e-02 -2.236154981550146637e-01 -8.507025784077104982e-03 3.378014357860838202e-02 6.210972371646193702e-02 9.986209730719410038e-02 -1.388690679678708795e-01 1.030560630192937505e-01 -2.781741479065417688e-01 3.113220791168988880e-02 8.989631096307745817e-02 -1.514045258982614495e-01 -6.119748408905529430e-02 -1.262800502502942901e-01 -8.715227351874998973e-02 -8.207117860894451444e-02 -4.679789681962417264e-02 2.000755214203650822e-01 2.571884797143874149e-02 -1.875262828866391951e-02 -6.321517164714600401e-02 -1.664459637023124328e-01 7.667204656798262685e-02 1.471471229550103399e-01 1.636365350764381055e-01 2.379695888905773715e-02 1.511324793953013057e-01 -6.026747580382526420e-02 8.107253151527593626e-02 1.599274726737957564e-01 -2.034722692428856949e-01 6.766127118824444286e-02 -1.120292057356880346e-02 7.904043261268031695e-02 3.242305788262847543e-02 -7.988843457996490371e-02 6.471282700229667728e-02 -3.987339732660150071e-02 -7.861539050509847026e-03 -1.148269648465658488e-01 9.073915215153179059e-02 6.325169579954359467e-02 1.287494201662328364e-01 7.179136270187015667e-02 3.127825549780530179e-02 5.920804559311430848e-02
-9.093370998770054781e-02 2.628923765810428984e-02 2.563907053371054789e-02 -1.785950109319631510e-02 3.871767020721798153e-02 3.810300271324099791e-02 -5.464533825909086151e-02 -1.045682987382085417e-03 1.881203911629181907e-02 -2.198472697007471943e-01 2.946391509775016931e-02 -1.365347189908279989e-02 1.348246173551682081e-01 -5.002678110345862988e-02 -1.097053392826416174e-01 -1.389696988375276887e-01 8.164939033588516915e-02 1.130071375773774624e-02 2.039511930038567095e-02 -1.151167368880389869e-01 1.906297784427698518e-03 2.639765637599806453e-02 -2.177329297913297747e-03 3.421204514599288787e-02 1.887883317262674665e-01 9.563218278505171421e-02 2.783830137137763630e-02 8.171793996493521839e-02 1.615719296673087668e-01 8.263946038201895605e-02 -2.016627459454745641e-01 1.036160465180036572e-01 6.220822024021417651e-03 -7.716171735093904638e-02 -2.504470235383140508e-01 8.438295250730903918e-02 -5.282204465035295060e-02 9.832403785221131148e-03 3.236052257728234960e-02 -8.200642219145329315e-02 -2.425104089030515053e-02 -3.659797892221381549e-02 1.940922218722793691e-01 4.113394664131905104e-02 -4.468940113073018722e-02 1.593014607708090336e-01 -1.029641065530582933e-01 -9.924406460996691715e-02 1.013814928355734335e-02 9.069590832457016805e-02 1.691619399890802438e-03 1.694129998395990395e-03 1.504237151766277258e-01 -1.360052017780852551e-01 -1.449348180574540901e-01 -2.452695355642785582e-02 -7.905274708374350479e-02 -4.649862477277976608e-02 2.631331872077535827e-01 -1.010569063046105609e-01 -1.078592814394502830e-01 1.130335714806480693e-02 -6.565081220932895978e-02 -2.603685526640741113e-02
-6.649181028141996908e-02 -1.188425572854469488e-02 -1.816950102507820450e-02 1.366252427691656557e-01 1.759584711090073361e-01 1.995670419919010410e-02 -1.032308902282136065e-01 -1.506843726883648283e-05 1.168018401462913615e-02 -2.478083953442155110e-02 3.474495366331566831e-02 1.922005511564911853e-02 -4.869705432464621619e-03 1.061949456654865190e-02 -6.864205335884522585e-02 -3.477218489318757624e-03 -2.645462279324976018e-01 8.533738724456538943e-03 7.161121504690240447e-02 1.044061619562958315e-01 -5.096443397505492912e-02 1.240814861253768109e-01 -2.876492802725378120e-02 7.548962611494799968e-02 6.592563833990285060e-02 2.694633576486565180e-02 -4.974269948912898864e-02 1.965124240751722207e-01 -1.094901140522918093e-01 -7.595149392425740165e-02 1.027111409201188763e-01 -6.358921146401186331e-02 5.482131301787779298e-02 1.029946990811478552e-03 3.036322954643204744e-02 8.491629544900679283e-02 2.085394108397474466e-02 -2.431545806445763180e-02 2.378311152254855218e-02 3.955317841200328872e-03 2.935770562263319977e-02 -5.765842675734406814e-02 -2.844812717831182378e-02 2.945568726392333581e-02 1.821300135194850109e-02 -5.446573057160993686e-02 -7.453629934369068732e-02 -4.739932133186877845e-03 9.055799075799477599e-03 -3.293771544566030662e-02 7.971159922519639035e-03 -7.717524085041027604e-02 4.359709634497694469e-02 -5.692361987234027115e-02 9.442449600757026051e-02 -4.458384961885427517e-02 -1.605116299202723473e-01 8.531964238843942408e-03 -2.019845274572249980e-02 2.918548330403720852e-03 -7.042636273331749630e-02 1.196714756087350999e-02 -6.626809978243937416e-02 -1.504005155261021187e-01
-1.168482831427669622e-02 -7.001599098083780004e-02 -8.039962729610116571e-03 1.212194119667682132e-02 -9.393160954136095878e-03 1.571035789198783547e-02 -6.421329620149882067e-02 6.130668729693374702e-02 -1.020143083330135453e-01 -1.344007587906609824e-03 1.853656368407390620e-01 -4.394044188464340389e-02 -1.667054351939430135e-01 5.676169319418548909e-02 -1.804964757875616652e-02 8.733506697840952293e-02 1.328758906270059541e-02 1.461656948922152588e-01 -1.203833397405053816e-03 -1.167445715465820072e-01 -5.812602099186975346e-02 -2.358157933176527887e-01 1.176085004290597508e-01 -4.362133754383692996e-02 -3.621475851269146534e-02 -1.168984246435944979e-01 -3.472953425948904077e-02 4.308809743161034350e-02 7.467129654221961454e-02 -9.650187253564587037e-04 -9.061108238540990789e-02 3.553941634216037371e-02 2.457379566036944907e-01 -8.459787777831037289e-03 1.555116326726944942e-01 1.048380735137537101e-01 4.502601385495005187e-02 1.535659300728861934e-02 -3.576580290109317856e-02 4.170946255004786413e-02 2.512188177042016732e-02 3.278319316472695644e-02 -5.433102675339092358e-02 1.013363950400248889e-02 -2.392150283553009724e-02 1.262492298983589889e-01 2.124576875891974123e-02 1.564604934892727950e-01 -6.031639078759553491e-02 -8.626035040797026821e-02 -1.762793662907925427e-02 7.693082682689007801e-02 -5.588984517264967804e-03 -1.766852554551411603e-01 2.014503356131601974e-01 1.362700952444476643e-01 -9.038734843312451472e-02 -2.755559322347618176e-02 1.661615187870628396e-01 3.618818038786019570e-02 8.020501419111461527e-02 1.261542907948978720e-02 -1.749201575055990554e-01 -1.687570407905542372e-02
3.783300184885989015e-02 3.729775802649679811e-02 9.337019889205525405e-03 3.004373157501222247e-02 -7.463282480621170369e-03 2.189645199573024559e-02 -1.199319066337235645e-01 1.196975250844032890e-01 -1.714982272029954291e-01 -4.298033117392176423e-03 1.187220982876676344e-02 -2.988131424390087082e-02 5.531323332378208085e-02 -7.820254645914739844e-02 -6.145698148370836583e-02 9.764230108394016117e-02 -6.594645647809956046e-02 -2.327101455232631622e-01 1.760778441900279559e-02 -1.242999000274623150e-01 -4.892315227505509428e-02 -7.432102310003520229e-02 -5.556750859456947855e-02 4.669767223812389817e-02 -1.477131149377473585e-01 9.703248172196383969e-02 -8.655840580979867749e-02 -5.500898786924758588e-02 4.004557086472220612e-02 -7.915836673890458072e-03 5.252919078565628647e-02 9.981828236570797208e-02 -2.175485011013896658e-02 8.745281569978065328e-02 -3.124635896979606649e-03 -1.322392003711908050e-02 -3.986645003782547658e-02 -1.287102259243343323e-02 -5.351141436069393499e-03 -7.090316132563234675e-02 -2.395612699860260458e-02 -2.247660380233305888e-02 1.100758088494844245e-01 -6.455577183894473103e-02 9.089875600562351277e-02 1.367749087297731314e-01 -7.128342293219916415e-02 1.297269002193602791e-02 -3.297568428710146576e-02 -1.335718307210632949e-01 4.620702554609028984e-02 -5.698721595768355130e-02 2.271188772999045147e-01 7.702969600793077576e-02 -1.881111727161758340e-01 9.636241101662120650e-05 1.296892538631930769e-01 1.262050704524075515e-02 1.018414607647756404e-01 -1.065694857578450422e-01 1.602201284800993941e-01 -5.192594169316482738e-03 1.531765517643489741e-02 -8.329514940452360794e-02
-3.636680753360980317e-02 -2.388233258073441112e-02 -9.685630993077508008e-03 -1.288366742807327270e-01 1.326149023069192745e-01 5.003110772596749273e-02 -7.507837448901154287e-02 -4.236892047278290573e-03 1.783128732355283158e-02 5.250503276891683307e-03 9.351874078497707243e-02 -6.615965401633732042e-03 7.845461928807978547e-02 1.670082364509259745e-02 -5.728091896326624292e-03 5.718149340942917103e-02 -5.801133556326160123e-02 1.022887052067655844e-02 6.001652544821639568e-02 -8.802733791082520409e-02 -1.208792862009136840e-02 3.881292147454331893e-03 1.252416870797504467e-01 4.278341827428399496e-02 -1.459641501517087436e-01 -1.008530147841473351e-01 8.976927436848734787e-02 -2.684064160057139312e-02 6.304671227657265842e-02 -1.203113456895450184e-01 5.142896698102968761e-02 5.588902544005078243e-02 2.673874933805251916e-02 -7.088200933029865924e-02 -8.062348418108535031e-02 2.494059075402749182e-02 1.526702302168771522e-02 -3.076649805997998949e-02 5.230526322693717332e-03 -3.272645931886422610e-02 1.568348651544228950e-02 -3.615984694876043376e-02 4.811570653850998081e-02 -1.202636457254552347e-03 -7.582139214947895833e-02 -2.969436469123401881e-02 4.742110667118534101e-02 -7.665215420205614971e-02 4.224631873062450332e-02 -1.258371017090330890e-01 3.253923702404812324e-02 -5.662223421134695428e-02 8.941721114313777585e-02 4.897708361749747441e-02 -1.552292170574123276e-01 -5.741276021858139622e-02 6.995648428021107590e-02 9.430538801080287636e-03 -2.295678071891872011e-03 -2.838472248329420786e-02 6.263576556852032406e-02 1.820256003962599650e-02 -5.519050214664569798e-02 -7.076150146196069635e-02
1.494051709259436034e-01 2.616873792684481712e-02 1.806709716315369613e-02 7.964580900501394556e-03 1.005006410247757387e-01 3.363208817950594925e-02 -1.009179220426869097e-02 -4.210553497024246972e-02 1.332413294360846288e-02 3.411706090593098067e-02 -4.809144846645056065e-02 8.265867905950768924e-03 8.207751927820022830e-02 -3.493937394966659116e-02 -8.916077799608924936e-02 -7.886680167601813063e-02 -6.813936672809152439e-02 1.314501832143688265e-01 -6.175376734984816714e-03 -6.260291907927427457e-02 4.121543189930888113e-02 -1.656377244582471209e-01 6.170939343468984095e-02 -7.283283103236699862e-02 -3.357987307779352476e-02 -2.485665845669329452e-02 9.829561408186872351e-02 -4.317297305604833602e-02 1.588214644171278001e-01 -6.323722988495116860e-03 -1.056059013842746003e-01 3.941107310804638914e-02 1.390084172619426572e-01 -1.525933611154707825e-01 2.320611020215536391e-02 4.922137633671523627e-02 2.885507207406433697e-02 2.733124530087551081e-03 -8.836503136731291980e-03 -1.177609136990698802e-01 5.438593605854343503e-03 1.891407005383122231e-01 3.109920521079057726e-02 7.373650828817591985e-02 3.604229359464811849e-02 -3.009913934870738026e-03 7.907707356872363536e-02 1.280824321724806543e-02 3.331177419529318673e-03 6.070798171688547573e-03 9.873746365670755046e-03 -1.258277322991790403e-01 1.674114736284765606e-02 -1.657634319230626152e-01 -1.407828822850189510e-01 1.223387838164076979e-01 3.509626264299431364e-02 3.209247014950435822e-02 -5.038740511490161222e-02 5.169778013308479886e-02 1.108814018057265212e-02 8.548362987258027734e-02 -1.415738655697298780e-02 -1.228231495504948784e-01
-1.070923392409849489e-01 -1.069340559947872492e-02 2.144496768530283759e-02 -8.822838093469564935e-03 1.638563814918158612e-01 1.358480041497842628e-01 1.349927747085261781e-02 7.620315678512813717e-02 1.334592557634797227e-01 7.104661679722991396e-02 -9.903383343579733045e-02 3.880865385096721187e-02 1.063268605499746548e-02 4.368993348986383030e-02 -1.795157263207875220e-01 4.718798720256928148e-02 5.687297258656912741e-02 1.435286271164693157e-02 5.615686330528868973e-03 1.687991971999183161e-01 4.631803522691591013e-02 -3.874756087485409228e-02 -1.974215083977671759e-01 -1.695173297658406908e-01 -4.325414838286740365e-02 1.426416648165102219e-01 7.143037438717535041e-03 -1.600585005545289430e-01 1.536486783919030485e-01 -7.040180288373680886e-03 -9.897793598526996584e-02 2.168172599260926314e-01 5.670660627211041027e-02 -5.151331646956471000e-02 -1.348472903332446626e-01 -1.623407737642796611e-01 -1.739085824980880074e-02 -3.662304484524117783e-03 1.415629422850686256e-02 1.515846463987276758e-02 -7.476566489984833030e-02 2.335468249161715484e-02 5.309894199104964879e-02 -9.265635328168235138e-03 2.683164924413044411e-02 4.949850246533328557e-02 -7.442068414759867023e-02 -3.707720268262897079e-02 -7.747288023932084877e-02 8.755494776584242522e-02 6.457328411368175314e-02 -9.714277882026386979e-02 -1.402036023449779178e-01 9.696137860927017682e-03 4.553579710065398800e-02 -8.144324045438085247e-02 -1.152305389975014221e-01 -1.374107876773581205e-01 -3.283830295132693367e-02 -1.086528894289742475e-01 5.661606835087604900e-02 -3.817205877556152909e-03 7.147900890677465202e-02 4.620584018774068213e-02
3.714270588695959413e-02 -1.645415838092556537e-02 3.890735669042645617e-02 1.789964529500967516e-01 5.997403819966021232e-02 1.289029717790594054e-01 -5.990231228940508246e-02 -1.028092438519048052e-01 -3.746479053874930687e-02 -7.205736184030109293e-02 -4.121536207978224869e-02 -2.711853517619704917e-02 1.324134428086036486e-01 2.364395901052894142e-02 -1.394062576182948307e-02 -6.055659999406320937e-02 2.557133720354717310e-01 -2.508571382648998316e-02 1.698320278050612087e-01 -4.384075543052508295e-02 7.943939742376290858e-02 -1.161596303703432420e-01 2.031705973385724076e-02 -1.173662710508430046e-01 -3.070942324337916710e-02 7.411647388039377393e-02 -1.128042305166512133e-01 2.996288459369433888e-02 4.934355154495131263e-02 -2.022424964596219454e-01 -2.023343237131878386e-02 -1.903424537781358075e-02 -8.919628151808106642e-02 -4.937814439864130628e-02 -3.358771406633168088e-02 1.781285774899751262e-01 5.873809793634814785e-02 2.495326265261283219e-02 -1.119183266453382258e-02 -1.477724509807570030e-01 -4.801876204964151615e-03 1.934198997638285622e-01 -8.238093093621252916e-02 -2.102975927314024163e-02 -1.000315445497801554e-02 -1.512158423771707838e-01 -4.404611826755606974e-02 -1.821424697965429995e-01 2.046237552893915429e-02 -9.328659552554260936e-02 4.065751818442899651e-02 2.194322976049610796e-01 -3.451834181712226668e-02 -9.456060148980974245e-02 -1.703527065265423093e-02 -9.784445882692796581e-02 -1.034722541889950137e-01 -9.000485627735213545e-03 -3.358423203627763226e-02 -8.792420530272231083e-02 1.324124307921558386e-01 -2.420668828677135023e-02 -1.769540564829033824e-01 1.232719951980292689e-01
-1.360513371155351037e-01 -5.767864122147144113e-03 2.655123798757197048e-02 -1.528857418437524485e-01 1.967639153005840413e-01 9.159718229514331178e-02 1.635965232977573940e-03 1.336871142914696220e-01 4.804424803934845278e-02 -1.821862106524470837e-01 4.847472271938427918e-02 1.229970747636339491e-03 -1.065773725430340102e-01 5.239325139909881135e-02 1.821652797868774654e-01 1.688233109695919110e-01 -4.040991516471305334e-02 9.190327767192280062e-02 -7.717988638575043470e-02 -2.801567771177016636e-02 -4.989769069625353548e-02 -9.299782875207343591e-02 4.547968620575314896e-02 -3.442808415466684369e-01 -4.937452677690387908e-04 -2.499249986684623503e-01 -9.537748836365152888e-03 4.706620095310354301e-02 -1.127143996089061406e-01 8.862251399510781905e-03 1.722026040356367752e-03 1.211976334060641154e-02 -3.542736574188926624e-01 2.065034605215639377e-02 2.492182985356810043e-01 -2.677569059784425110e-02 1.847309608124994562e-02 -7.141714266778642975e-03 -7.311446672805460741e-03 -1.128366937263141322e-02 -5.268758775431658242e-02 -2.330099873561980450e-02 -3.647807354964545390e-02 -6.875175329278240821e-02 6.829687729200376034e-02 -4.077202794910828043e-02 5.367784614775998782e-03 -1.408773649872682443e-01 7.411372971988054725e-02 8.293201567275651498e-02 5.877344358542292485e-04 -2.970454725684379405e-01 -1.122430490467782177e-01 -9.151168568627769673e-02 9.108896439783335797e-02 -4.303332256103135911e-02 8.035225599415786457e-02 -8.907178422885547731e-03 -6.266018825850422358e-02 6.852891125473196954e-02 -2.651260876711376488e-02 -3.003025646277624264e-02 5.988811602569824033e-02 2.411034073343027995e-01
-2.212058545667131351e-02 -2.338551110368473213e-02 -2.575451904219184726e-02 1.948813850498812006e-01 -9.888145958757052142e-03 -4.707843623743285244e-02 8.948967771520431602e-02 1.163485935381888270e-01 2.956879763484354662e-02 1.475099254822216654e-01 3.195565464088972324e-02 4.891702395818831733e-02 -1.532489331622175210e-01 -1.806320146659184597e-02 -5.494975700258781376e-02 -5.819262953562334695e-02 -1.251330032267031211e-01 1.160329821258763855e-01 -4.116222077246451533e-02 6.812410905567010955e-02 2.441719593090936266e-02 7.520344250897365024e-02 1.476749044299552616e-01 -1.474504165410011891e-01 1.413669928848621839e-02 4.786653609243461671e-02 -4.279804775979610676e-02 -1.323422944347228958e-01 1.145123202963088255e-01 1.351710591621236024e-01 -1.663551135994777164e-02 1.597892315561315890e-01 -2.257510713348059028e-01 1.007943766178877043e-01 -1.021005925890685062e-01 -2.067592194161192026e-02 -2.956294343318827123e-02 -8.169246674467275926e-02 -2.513507566316447450e-02 -4.959153609606271190e-02 4.321775444150564860e-02 3.929312750659841313e-02 1.391892079443504127e-01 4.876018937931880098e-02 -1.868034134206725955e-02 -4.196518837538132374e-02 1.549431295284018906e-01 -1.372105982140760794e-01 -2.846974525702326841e-02 1.172016716239227541e-01 -2.710192955064301412e-02 -3.211151877000679739e-03 -1.907645453876513908e-01 3.148168141988443025e-02 -1.229025809894116056e-01 1.668225301630751334e-01 1.964934270991734039e-02 -9.160807431555079844e-03 -6.812826691116376232e-02 2.768275673512847479e-02 -7.603753364996227240e-03 1.756884565108873114e-02 -5.991004953313716630e-02 -1.517770760568436759e-02
-5.622092778215217329e-02 -7.170191108971950278e-02 -3.020141206464322260e-03 6.807315803355044881e-02 2.056788083742530915e-01 -3.026472866017781288e-02 2.801629306190693558e-02 -8.660478268049325024e-02 -2.872262769657417114e-01 -6.418178190575161979e-02 -5.872185986334865077e-02 -3.548787566159741780e-02 -1.119145947465903790e-01 -4.419183971085859086e-02 9.056816424445299218e-02 -5.063935739301701072e-02 2.203456051009438504e-02 2.801029454195484020e-02 -1.050494389662435732e-02 9.277821513537462886e-03 -2.563154181077775470e-02 -1.417443811189392743e-02 -2.569801024854951113e-02 1.294595539868479139e-01 1.039936393475003468e-01 -2.411970519134227012e-02 -1.825681217370693567e-05 1.832366497464481270e-02 6.682463333763323521e-02 5.761783824145738642e-02 7.684997142493008027e-02 -1.930638478710859363e-01 -1.821164349015691464e-01 -1.014178314653869650e-01 -6.038891267513595007e-02 -7.243468350362129715e-02 -3.603555152420919588e-02 -4.631158594967142716e-02 -1.084738645270467289e-02 -1.230653591071067116e-01 1.437667060979623893e-02 2.576339902832217033e-01 2.181111253796584951e-02 -1.641758868926997475e-02 -4.735181498713902926e-02 -1.167318526540690737e-01 1.607348850372671833e-01 -3.902518162518286288e-02 3.154223007295590964e-02 -1.179735433177825921e-01 2.274043159796279231e-02 -1.258260708257811777e-01 3.243683936175496135e-02 -1.090188521313273096e-01 -6.720847349726311037e-02 1.258498434723320236e-01 3.401822472508386763e-02 3.740681339142026135e-02 8.421162653766561812e-02 -8.007238828059776159e-02 -6.647605509655432621e-02 1.329513579828600807e-02 -5.474859556799220768e-03 2.793489118170467897e-02
