9.338983954827893841e-02
-2.229748345519121655e-01
-2.537936625608820385e-01
3.003341967154857239e-01
3.553815337446294964e-02
1.079667655753095562e-01
-1.029219185672949483e-01
2.812061375559828449e-02
1.334515457675018446e-01
-7.708257842830498752e-02
-1.893040588777172573e-01
4.645347126107307600e-02
-2.157314765000515611e-01
-5.273791828230973977e-02
-6.107912079596141547e-02
-1.689249122309410267e-01
1.307047636154184678e-01
2.117298261085887867e-01
9.879073218965034320e-02
6.839334070948627220e-02
-4.426142890893517562e-02
1.363256523779116103e-01
-1.482702327844047548e-02
-8.339020149759067413e-02
2.368940427727822262e-01
1.963668746617018915e-02
-8.633631822415419044e-02
-1.296166992198228007e-01
1.915327459974430491e-01
4.252628234120394701e-01
1.452041011157568229e-01
-6.519525914248150422e-02
-4.037089408922329981e-02
2.984179965226602463e-02
-1.107733265328801758e-01
-2.012397585622761886e-01
-6.488827734292453020e-02
1.508091507338194526e-01
-3.155335320632983165e-01
2.097160119776562970e-01
-4.153159215792018820e-03
-1.318518038235972356e-01
6.594197714452446069e-02
3.128173506109076935e-02
-1.902578520269777307e-01
1.259791577445830424e-01
-1.558645120340595158e-01
-1.393201885887087321e-01
-1.015462812546858995e-01
-1.830778898667832777e-01
-1.031007841259098078e-02
5.283742711212718185e-03
7.864166061698783794e-02
-4.851796434145930377e-03
-7.955883174621684872e-02
1.915288477820011603e-01
2.186939386170713706e-02
-6.453681251584611478e-02
1.509245170167936578e-01
2.183329198970689333e-01
1.504483082556342111e-01
1.835577923640095421e-01
-6.150199103621824953e-02
-4.121248330427292744e-02
