-6.471124902004506962e-01 -1.283710290456231695e-01 -3.178764773323954906e-01 2.260023643527241943e-01 -3.607813746330021942e-01 -2.131785748203515463e-01 1.598228176984067272e-01 1.776537576841928090e-01 -3.194040155149848736e-01 5.478548192950268847e-01 8.255542198888293770e-02 -1.389350946146162002e-01 1.905026378416500299e-01 2.564850156893974109e-01 1.279091309927193063e-03 -8.791895745917893690e-01 -1.176730982352906241e-01 -2.618337356672559291e-01 -1.188649756759973530e-01 7.497684775990292039e-01 -1.185756093165625941e-01 8.525458895204882093e-03 9.604529010356108176e-02 8.759007449671150913e-02 8.966010889118512794e-02 2.531851434051341498e-01 3.416873176212848473e-01 2.292743347581517044e-01 5.075991059656004278e-01 1.604191111254144875e-01 -1.925509353988026917e-01 -2.702364793884344807e-01 1.048675101235274187e+00 -7.013109339828137168e-02 5.433057542331218986e-02 -3.349649420600941396e-01 -4.593117029900367077e-01 1.363366386883710368e-01 -3.402679421191651676e-01 3.396923210473856702e-02 -2.005552442359821719e-01 -8.313840839129694738e-01 8.983806875438674622e-01 -1.364029110938575762e-01 -7.710095041437818875e-01 1.848913008588838058e-01 2.601093174599827806e-01 6.505776306770130191e-01 2.709936695592653488e-01 2.064440322862905741e-01 4.539189751447335608e-01 3.376073799913965889e-02 -1.213988793255575509e-02 -5.002460097106964376e-01 -6.694787459399680341e-01 -6.761347611595242002e-02 -2.906400099072292686e-01 -4.684990454400749654e-02 -4.076901854604872422e-01 -2.520647662115458373e-03 7.047952238042706208e-01 7.730193788050472303e-01 4.253292206971729522e-02 -6.667661550900655897e-03
1.090902526856775134e-01 -1.431418282622562432e-01 -2.557741543054544708e-01 2.532910306026603386e-01 -7.782021610770410713e-02 1.105841348213690289e-02 -5.497967797358407349e-01 -2.111102580743324034e-02 1.184398055836398539e-01 1.275182568495739632e-01 -5.566185566177002109e-01 -6.146776988358895188e-01 6.311388509056814478e-01 3.898654312545397904e-02 -3.510028148651182511e-01 3.674619936073530296e-02 -2.505240493112734779e-01 1.369191327050285623e-01 -7.704322823911737006e-02 -3.442845135758059588e-02 4.635516077772163651e-02 -2.049355603291026229e-01 -7.559550317451402268e-02 1.289756166956346484e-01 2.526428919134171003e-01 8.293214996680937923e-02 -3.465588195961251672e-01 -1.622912301732361562e-01 4.659649385153536993e-01 2.718203964023483896e-02 9.648897472494637195e-02 1.428479016950384428e-01 -1.925789856070830031e-01 -1.870518448849341764e-01 1.457960038982411277e-01 1.894148358560081291e-01 2.229213533419014404e-01 1.548525290955689304e-01 3.625128131531146769e-01 -5.954145966306976373e-02 -8.412050172480264876e-02 -2.422772033115445367e-01 1.326447711671474294e-01 -1.147920410051821716e-01 -1.805104704809963601e-01 -1.103908370105377706e-01 -2.031255208829831418e-02 1.625412435370843511e-01 2.219142084226577993e-01 8.395855894208291426e-02 -5.092467264244244785e-01 5.455895785469808135e-02 -3.554328063229104662e-01 -5.105121477253015544e-02 -5.728046854929422921e-02 -9.394410691586439766e-02 -9.925491845746868547e-02 -8.149838468472372921e-02 -1.017648225945830959e-01 -6.292368508292197626e-01 4.977703841479942659e-02 1.065713136241048520e-01 -5.213177808891122922e-02 1.585689974517020262e-01
-3.517140055092547457e-01 6.115490302195375483e-02 -2.183432775208754284e-01 -9.297778907596505882e-02 -2.439360536479791286e-02 1.699755376606192636e-01 -7.397895110063935908e-02 2.728487481671102999e-01 -4.759246174349022335e-02 2.508815890719489072e-01 -2.006202444996410261e-01 -1.502953761833199231e-01 -1.217322045806192160e-01 4.049294736742001938e-02 2.426389776539321363e-01 -1.599488172387553697e-01 -2.638259594132997057e-02 -7.626326733205913977e-02 -2.119888158614229301e-01 2.492093226398124639e-01 2.187947132590195576e-01 -2.320726066888273986e-01 -1.217503102338095278e-01 3.567127286603472003e-01 -5.933366967132611136e-02 4.568347096561276716e-02 -1.008931857717009217e-01 -2.940347653096992975e-01 2.415901118162076533e-01 6.888182078619581317e-02 -2.701740026010627377e-02 3.930154184832326814e-02 2.694203464805260961e-01 1.591959668950882478e-01 -4.002565279988313240e-01 -8.306405326308489989e-02 -1.484687687143824153e-01 -2.512279565991184030e-02 -2.309824131534027603e-01 -3.023156615488396814e-02 -2.452998214880858230e-02 -7.032201121599335192e-02 2.502801648245638888e-01 5.916582672137831594e-02 -2.726888181754349993e-01 -2.339505841303927136e-01 -1.818990659097680790e-02 3.385112092092806054e-03 1.533756774092942705e-02 -1.540826383153522973e-02 -2.517876889945280458e-02 7.151123120519801979e-02 2.210473910547938389e-03 9.015082398846069323e-02 -8.845128449842734608e-02 -1.442440538666152350e-01 -2.833865585313232738e-01 -2.001878281716185093e-01 -2.240654351335452099e-01 -2.414873706500419437e-01 1.719517352802502896e-01 2.690336696786063686e-01 -1.185727875816278559e-01 2.495571279430588429e-01
9.457752522838605569e-02 -1.250300436376089175e-01 -7.343014607781532532e-02 5.635076685236802690e-02 1.488341424173926786e-01 -1.055243492489103818e-01 -1.072024744467326429e-01 1.613706749315142741e-01 4.069491361645834193e-02 7.780299274608547255e-02 -1.266603431546096670e-01 -1.677646048785167987e-01 1.232376545537682000e-01 -2.707728214307396630e-01 3.410496951671278254e-02 3.933127681767352446e-02 -4.608727071457375396e-02 -8.963380261200355748e-02 -1.342501724532905449e-01 1.388084434534102643e-02 -1.673795076934021797e-01 -8.551632754316794427e-02 1.616543264964127521e-02 -1.273894186560769748e-01 -1.033421257711537311e-01 8.195753178048514886e-02 -1.627945659233880626e-01 7.082344374252823316e-02 2.948643203403386592e-02 1.567798792480154801e-01 1.845584782344044383e-01 2.933911915675894155e-01 -2.444811194042389307e-02 2.081543472879624976e-02 6.214315941783004477e-02 9.899879034037424586e-02 -1.255134063897144769e-01 3.577258084600652699e-02 -9.775289703408499356e-03 6.569351243435642140e-02 9.144611966928910263e-02 -2.105996585599577073e-02 2.707835938458277511e-02 1.061842824629388865e-01 1.600567091235841066e-01 -7.181512533414805000e-02 1.733479403255442641e-01 -1.183844925956849814e-01 -2.715021719902422914e-01 9.964427340560706725e-02 -1.390783201450217776e-01 2.536102495596719297e-01 -5.149498713212913303e-02 4.464584823309004219e-02 1.712374546119257990e-02 -9.326178046001245420e-03 1.396581296724992878e-02 2.765512121181075700e-01 -1.356450524931205881e-01 -2.224661010383200410e-01 -2.966234288964245472e-02 9.673892976412445943e-02 -1.179062350725653130e-01 2.107608702318031491e-01
2.228825850814536783e-02 3.228000414597728684e-02 -8.751831064474734079e-02 -3.198142066224674562e-01 5.094807570000930985e-02 1.358999946691637206e-01 6.432169965216250063e-02 2.952915857146768894e-02 -6.490613217511509436e-02 1.691194124488287487e-01 1.258146426901237958e-01 1.316008131427281458e-01 -9.683324914101840153e-02 8.451640310007269008e-02 2.084408951014753153e-01 -1.245745217639760843e-01 5.523212841812614321e-02 -1.153506577987787468e-01 1.291434959728534337e-01 6.246816124542471649e-02 1.087448896593813941e-01 4.430266653640783925e-02 4.797772460065159034e-02 -1.659719949132024974e-01 -1.229920627190556059e-01 1.478902627647686874e-01 1.224591517656910961e-01 -4.406630966587719161e-02 7.185717145016185144e-03 -7.709053422333118910e-02 1.880136457496853764e-01 -1.597090579515869080e-01 1.207800316386194728e-01 1.084045328623832634e-02 -6.668170326885294874e-02 2.235798848513911030e-01 -6.707660801947179507e-02 -1.213290447331922955e-01 -3.604139006318075183e-02 -1.334261936119955083e-01 -7.874196515195861640e-03 -5.565593519874083295e-02 6.920303661237044157e-02 9.618152871984551877e-02 -1.877352689398221336e-02 5.326821153001923270e-02 -1.009964324695406673e-01 4.358783851545872112e-01 -9.034434117942118092e-02 1.608133515591667062e-01 1.321605948637039896e-01 1.885493950949874431e-01 1.345322164068332368e-02 -7.032555644577950793e-02 -3.377167306774187666e-02 1.276448473620999113e-01 2.060945811988196090e-03 -7.429592271042190221e-02 1.920592836009615487e-02 1.949679583981416275e-01 8.846103197870100465e-02 6.218294660441223143e-02 3.195067373228911017e-02 -8.314688923148813582e-02
3.653030056991797819e-03 8.316064993723898402e-02 6.239369993487006022e-02 -6.028167683855481518e-02 -4.860832895732773024e-02 1.098728811380558223e-01 1.469247748444080515e-01 5.647354185957502437e-02 -6.302892597827202065e-04 8.144747738321471420e-02 4.200409449367783349e-02 4.763607303653572683e-02 2.256225520291867959e-01 -4.787656175276819998e-02 1.183340230493547598e-03 -2.323913901059961040e-02 2.030875862272349952e-01 -4.260411392119470980e-02 -6.347446245787759234e-02 6.945007128588288892e-03 1.906244830566383164e-01 3.384032629917667345e-02 2.828425282981093946e-05 -8.551367148655902861e-02 1.077164618618130232e-01 2.324763020501240673e-01 2.879226055578063340e-03 -3.543798165954298862e-01 1.294125943373483981e-02 -1.660878355078339030e-01 -1.259620213617873297e-01 1.050089554754200377e-01 8.913764041009006323e-03 -2.445863680601458381e-02 3.285328118572858336e-02 -2.203851461752007190e-01 -2.377327007202494763e-02 -7.196109149931449733e-02 -1.598136462602755756e-02 8.919228684577472366e-03 1.372413996893713795e-01 9.585277956777690789e-02 5.410389637337100453e-03 -1.202793464101377038e-02 -7.126346605370677614e-03 4.074118146132250928e-02 -2.797481117550873822e-02 8.015809301339182902e-02 7.390263428627044662e-02 2.152387164561835389e-02 -1.427644487219460918e-02 7.664078747768286737e-02 -1.151336264714013236e-02 -4.592200739592686848e-02 8.191907065239999175e-03 -3.332450549962466535e-02 9.573749753497091952e-02 2.253799812512353729e-01 1.696011117636958207e-02 2.955395908902955573e-02 -1.608276938260133279e-03 4.757002979476507298e-02 -1.749808224604562428e-03 -1.230283229530875072e-01
-2.181709657040973027e-01 2.729419679383104924e-02 -4.058056283581216311e-02 1.068138024177546774e-01 8.819478175442402312e-02 -2.216752888252025537e-03 -1.940337299208213240e-01 1.151204957121209904e-01 -5.878603786804753595e-02 -1.019165682950254614e-01 1.915765773018602847e-01 1.376004991143428557e-01 -2.013805042603399043e-01 -1.115791222102478497e-01 -5.135267712344872976e-03 2.520332629446246642e-02 1.034340044046053314e-01 -3.867634277612856386e-01 -1.907579365228150858e-01 3.316534185663880252e-02 -1.632177431469522821e-01 -7.915043339471156125e-02 1.153351741222885529e-01 -2.047466124558281961e-02 -1.052076654012111673e-01 9.069684172321891558e-02 -4.237800385579437029e-02 -7.499719685725626805e-02 -1.063560007937603552e-01 -8.625921341418817112e-02 -1.596618029430843522e-02 -1.606252681165756258e-01 9.751353185580678706e-02 5.474012125028323433e-02 7.864005716609603902e-02 -8.253679135697847280e-02 -2.735508820260319496e-01 -3.231574841380387836e-02 1.894718889017090457e-01 1.840781959846557111e-02 -4.429590237901886995e-02 -8.788370781431860401e-02 5.927804291685762755e-02 1.553459975767521317e-01 1.507911037347781646e-01 -3.746116152241148883e-02 2.898450448372846822e-02 3.075127535957902780e-02 -2.855769992763438486e-02 2.688127493718490274e-02 1.306061279233302654e-02 -6.577758910857156582e-02 1.552778410872057528e-02 3.955133351595728486e-02 -3.565588768119106605e-02 -3.297364512703485767e-02 5.425076826805124569e-02 -1.251587203232846224e-01 -8.414373605433955738e-02 1.634567542029456144e-01 4.753099176060991693e-02 1.576131182126136177e-01 -8.750221748465238092e-02 3.060591565545660309e-02
1.139383465707392157e-01 1.229270276908222582e-02 9.266811366054808485e-02 1.545055798444315842e-01 1.046537248649030555e-01 3.869476318365230871e-02 -2.507077126375203413e-01 -1.836443929615625414e-01 2.340227286147354702e-02 1.021082115712621669e-01 -4.353891866942079941e-02 5.386184638662131451e-03 -2.700060958052044047e-01 -1.032625313855791566e-01 -4.499531420091269253e-03 8.537971650075456024e-04 5.056169197135243487e-02 1.125597972837404648e-01 -1.659004471892304711e-01 -1.367562406266293077e-03 4.721300431398695735e-02 9.545918699312247457e-02 -6.209503152595911152e-02 6.550627408309095401e-02 -1.326878329275228046e-03 1.264783339544525154e-01 6.026785634273512660e-02 1.454846820451626832e-01 7.065036530702262230e-02 -2.122301533022845910e-01 -5.490196911323072526e-02 8.071053316327632399e-02 -5.033453635233971213e-02 6.215874289386797563e-02 -1.345791527473863894e-02 1.704743680733178945e-01 6.656110231334455563e-02 -6.849303119543016793e-02 8.108898346685744149e-03 1.417638056289016457e-01 1.088068669447634501e-01 -1.111717904948071184e-01 -2.995158546738108107e-02 8.362273759116112259e-02 -2.326531817667162536e-02 2.938494913653344476e-01 9.364720016604886899e-02 1.085511112604618626e-02 -6.492916647396389240e-02 -1.547998382540906048e-01 2.414905993107772583e-02 -2.435939065079499588e-01 -1.709368601672556351e-03 6.987613276126598306e-03 5.362340742144711125e-02 -3.064662866576002218e-02 -2.147731463713894173e-01 1.571620184840297196e-01 3.813509404879355386e-02 -2.021883624922270542e-02 -4.528206858696786491e-02 -3.661472436481862103e-02 5.638571622000602968e-02 -1.108467480536133865e-01
-2.832375232396512968e-02 1.281385458255491494e-01 2.340605668720808434e-04 1.076386376285992930e-01 -1.185566283675401900e-01 4.791492448502858437e-02 4.039698138027931519e-03 -2.442772351201550132e-02 -6.162315548487089321e-04 7.718747156670305309e-02 -4.358443683894140663e-02 1.198989658963381805e-01 4.097453623031058201e-02 2.095903823915002892e-02 -1.479003149122888605e-01 1.115946533997377388e-03 -2.717693838230317294e-01 1.689807092545002679e-02 -3.098904540617258840e-02 6.131857830884958338e-02 -1.270944448861760223e-01 -7.738598548924434731e-03 -1.491633880764977292e-02 -5.962536466251673606e-02 -4.639075886224384992e-02 -1.166351255053202363e-01 -3.840801437876731339e-02 -1.159510467157483758e-02 7.971568697607872567e-02 1.217556280303671301e-01 2.940523033026103475e-02 -1.204012913961391568e-01 -3.483925644321576691e-03 7.832669579825567163e-02 5.248285226669214404e-02 -2.607879941219437211e-02 1.562486931815591611e-02 -9.735125388342541486e-02 8.593331744390406146e-02 -1.253475639980006495e-01 -4.618478961401082522e-02 2.278796212285024159e-01 -7.461342329797301595e-03 -1.800820947160584606e-01 1.047088788108789248e-01 -5.721243513641081913e-02 7.778861886317474383e-02 1.385112084891357842e-01 4.755140663799942158e-02 -6.451333541103966562e-02 -5.976169684006511773e-02 -1.586411280379305677e-01 1.228922058280801227e-01 6.275936794252046091e-02 2.693426420496913484e-02 3.787412161579666731e-02 -9.436949176993034150e-02 -2.350268848947278666e-01 9.322990929047568444e-04 -9.053034827830602413e-03 4.636643928939436846e-03 3.466917174402874696e-02 1.374792849239321046e-01 -5.096156447560504232e-02
-7.183732881712209806e-02 1.811674406641538464e-03 5.885819329096133451e-02 4.572857240579574628e-02 6.626234428183375158e-02 -1.139578139461065037e-01 2.863351655169430604e-02 1.352155417683681415e-01 -1.499026194387912715e-02 1.375571075046291142e-03 9.046249760288629926e-02 -1.899146514868822050e-02 -1.391656274896832307e-03 -9.015206378898736606e-02 9.700324021083552017e-02 1.064738547122873538e-02 1.351859302691424680e-01 -1.397248725872526909e-01 -4.190947010752667928e-02 -4.852721442019192200e-02 -5.052401209190097997e-02 3.695852380386514119e-02 -6.308608922841245359e-02 7.336754094160360951e-02 -2.596297169822215853e-02 8.284001923790397515e-02 -2.611389102793177514e-02 -2.020055397935122815e-02 -2.207726438221116194e-01 -5.755338886626229500e-02 -7.624936703949965200e-02 -7.220198023859147884e-02 2.140222424305067775e-02 -1.229333395355522579e-01 2.010415973106780274e-01 1.423903058586822867e-01 9.809171313022749250e-02 1.035959048442970376e-01 7.968625014096362980e-02 -7.463047803483763287e-02 -7.647564808876289311e-02 2.876073861380886256e-04 4.111941554440328426e-04 3.024613480807207197e-03 -1.798128380805103302e-02 -6.749677353737346119e-02 -2.923105923288664768e-02 1.411058256535061284e-01 -2.598435833539028406e-02 6.827499819683051363e-02 6.325880034388059979e-03 -2.601681681880960162e-02 -1.247775085471248963e-01 -1.930878459748961232e-02 -6.008483516646057065e-02 -8.508722264800595847e-02 8.347248694822331783e-02 -2.749897492258007725e-02 -1.467727980507289517e-02 1.073337779291571731e-01 1.608224181909410216e-02 8.141606022999910153e-02 -9.286856160398276883e-02 7.106562137122864053e-02
-3.720209198083027774e-02 -4.788988888999295979e-02 -1.988790031009413442e-02 -3.027436114334730588e-03 4.024630660499876542e-03 1.523808526213754969e-02 -9.637562034827538981e-02 4.960566287267095115e-02 -3.041686143493308857e-03 -2.887875285231591635e-02 -3.424783985134381703e-02 1.029903509510182551e-02 -3.876024388015291561e-02 8.240595451465594634e-02 5.356802267267208456e-02 -2.503435443190616186e-02 9.730151587021815263e-02 2.940868891824635623e-02 -1.590337632991750336e-02 1.505086663587705889e-02 5.187434950974340042e-02 -5.814678728328895319e-02 3.847533833965967320e-02 -9.972244223559875720e-02 2.080402478499458752e-02 5.406995532790447728e-02 -2.645869343874955940e-02 -4.678250103143970218e-02 -2.259931535936728769e-02 2.093090446262990678e-01 1.132463227462876879e-02 -1.049461309168511769e-01 4.452606043899528382e-02 -1.761565713128773469e-01 4.606496231401283059e-02 2.768456260922504825e-02 8.580671741429354848e-02 -2.276941827327634560e-01 3.854766038711932713e-02 7.799922593978317331e-02 1.730727573517142903e-01 -1.289535804635002364e-02 3.020436308663873148e-03 -1.541783109606831119e-02 2.051214131320730841e-02 7.165967360591039836e-02 3.019547822727061681e-02 -6.628960310152016977e-02 5.802309840255918255e-02 1.388142403534463332e-01 -2.725299672208893881e-02 2.605304615055553663e-02 3.434402538920588305e-02 -2.299980648794414453e-02 2.590012255543798145e-02 -7.235341552859150815e-02 3.421175458214496985e-03 -5.935093797797055815e-02 -4.025812095952364250e-02 -2.198681414337422518e-03 -2.043533630263137668e-02 1.340555540345079490e-02 2.055236948769736116e-01 -1.438038819884386310e-01
5.472985473491027986e-02 2.607888725990305245e-02 -7.337204783334717872e-02 -1.878048202838388248e-01 -8.067988523108410304e-02 -2.453796734794267201e-02 -5.674373398905525889e-02 3.971970643815031510e-02 -1.357999565310884574e-02 -8.585787600646729856e-02 -1.259577729519535672e-02 -4.927752610362822611e-02 -4.766181554104495510e-02 1.286383085451929253e-01 -5.689256119647981280e-02 1.117910652817821022e-03 -1.286664218725762088e-01 1.235129012342346955e-01 -1.827672999751204785e-01 6.582728269523283049e-02 3.998027974968870746e-02 4.929408018098222627e-02 8.235929729281087075e-02 -6.485680532500416769e-03 7.482329884307658587e-03 -2.574456819454365095e-02 3.497673876588479336e-02 9.181266416613645051e-03 -4.428742203925246229e-02 6.557456212303564014e-02 6.580638357142711004e-02 9.532038318409098709e-02 5.401225241382013459e-02 8.108343546281057690e-02 1.630280445458463442e-02 -1.159948979136936620e-01 -2.200881254143326193e-03 -8.558693102209120884e-02 -2.641681651980864326e-02 2.521826061844083255e-02 -5.042665500231244963e-02 -5.940603513901031307e-02 -6.184133900325005165e-03 2.746536493336387483e-02 7.311899600725585771e-03 -1.433313236145616065e-01 1.106172803706590990e-01 -1.300557646564441845e-02 -9.731645992329139572e-02 -1.147696756594874523e-01 -4.166606167924674815e-03 8.257921921495743611e-02 5.538698744580140138e-02 8.117851137004768181e-02 3.355472354388418926e-02 7.673350001901602102e-02 -1.177166264812835594e-01 1.846524571909803972e-02 -7.960244496602497666e-02 2.507549816915270648e-04 8.235785718833828206e-03 2.611887956664753901e-02 -5.761203011153966103e-02 7.994009800383189424e-02
2.989391275424162567e-02 -7.678756889080369519e-02 3.116881566386204283e-01 -4.066583519387603068e-02 -2.817833100312575056e-01 -4.496739015801133610e-02 -1.843363791647975869e-01 -7.871496256347532139e-03 -7.588361748176210286e-03 -1.065133261340339837e-01 3.235056899467043945e-02 -4.039650325383280921e-02 2.796888742469745559e-02 1.868806254683665069e-01 1.583541457309572409e-01 1.826214538286225625e-02 -1.925841878097725446e-01 -3.037768120611131911e-02 -1.669936839798148998e-01 -1.555781581589739046e-02 -6.618984322627505246e-02 -6.839997497416482053e-02 7.268033106132558430e-02 -9.224816599735624276e-03 -8.863555780056922573e-02 5.344558556125187689e-03 -6.191748667208234191e-02 7.072793665157889320e-02 -8.347236423422943474e-02 -1.000620222486522937e-01 1.132813742748446928e-01 1.142056237423869636e-01 -3.549010520566663052e-02 6.054757980572827297e-02 1.158845943646376053e-01 -7.791063126454754462e-02 -1.037963382969726983e-01 6.074738139091907796e-02 -5.660201970354843126e-02 -1.458588437800766302e-01 1.795094013271794284e-02 1.240553591982659215e-02 7.080188685248412980e-03 8.038520856414271484e-03 2.181664194897616621e-02 1.392331049005151797e-02 4.363477972570542485e-02 1.029557911961702793e-01 -2.064660777900792776e-01 7.123977779504736541e-02 -2.942727804874885333e-02 7.468382688841034012e-02 1.977568053660179806e-02 -4.250622800088720704e-02 -3.969966338868105571e-02 -1.482476131031396950e-02 -2.518072427546858005e-02 -2.878266550502489585e-02 -6.080428585567117065e-03 1.287386715314418721e-02 -2.256562454157379563e-02 -2.730351824684095971e-02 8.185051417412461672e-02 2.871970216562246339e-02
4.956917737207752056e-02 7.975396871257829645e-02 1.376664253802538929e-01 -6.037496434296107245e-02 -9.222518635620183258e-02 -7.262733938365845132e-02 -2.947936478306990848e-02 5.658384555609131429e-03 -2.421916419829420446e-03 5.936117895606993385e-03 3.263611770075165123e-03 -1.212513628046289586e-02 -1.026943846969387113e-02 4.491551042934252558e-02 1.322635903571156013e-01 -2.842749183621715806e-03 -5.152975279288642824e-02 -2.322123347241273478e-02 -3.606132433441448792e-02 -1.473716828701389370e-02 6.439538795224607204e-02 4.757903399202624561e-02 -2.415290657349755676e-02 7.847714751513780451e-02 -7.180968795319679285e-03 5.212368877741289236e-02 1.379214107031637854e-02 3.982402394930233125e-02 -3.576072792967795178e-03 -1.037999644686966455e-01 1.556363892639739954e-01 1.467492141155837537e-01 -1.031210969934122541e-02 -2.272178977328118132e-01 1.749387499188150563e-01 -3.804882389369620196e-03 8.406657414022057628e-02 -8.511274013822848561e-04 -9.478437961812941071e-03 -5.584847221997572136e-02 1.804882949673787887e-02 9.625191918971659141e-03 -2.163476768437755816e-03 -3.895071453333445038e-02 -5.160606172382289220e-02 -8.705792193841328797e-02 1.955936396135571076e-01 1.172212854912576402e-01 -9.858059538100295838e-02 -1.111153133988713737e-01 3.510861749748170335e-02 -4.909843440668691661e-02 -6.816308633045144172e-02 5.625531575041276683e-02 1.231907129848606314e-02 -8.431925796951914021e-02 -1.142986170081736752e-01 -9.807844312091283656e-02 -2.371949942406540932e-02 4.197561656072593822e-02 6.934552216151978338e-03 1.110806617666091345e-01 6.869497899411421658e-03 -3.031753263032148024e-02
1.109064853697055153e-01 4.344148395013016500e-02 8.877651305988877584e-02 -5.986243153923276328e-02 -9.718831475536926501e-02 -4.713728824100646420e-02 -3.175599954248912310e-02 -7.369277227020537557e-02 3.176394794052216086e-02 -3.145619034422968141e-02 -1.399471629519969118e-01 4.675761225871042509e-02 -3.972004825250324139e-02 1.716907402552060244e-02 -3.573364171163996572e-02 -2.837473270339214981e-02 4.584443766427116068e-02 2.024336642068317316e-01 -7.484686731092331582e-03 -1.620780843456542941e-02 -1.774186155518054676e-03 4.914638988881115528e-02 -1.003865913025430157e-01 -8.358848425914650049e-02 6.561124004265397880e-02 8.553766994424154280e-02 7.182657641190233477e-02 4.374344227732763352e-02 2.518555771371696617e-01 7.468701225344256955e-02 1.081279657919912152e-01 8.617450086642161611e-02 -3.649463025991092624e-02 4.324108050646224138e-02 5.618910839475969865e-02 1.350935620356494837e-01 2.198776149770312605e-01 -8.385555567863496595e-02 -7.691794621447711755e-02 -5.211649525976296687e-02 -7.523571562674595536e-02 -4.436743040088456796e-02 -5.578119304538528556e-02 8.332409501634474580e-02 -1.169394779504963761e-01 -2.516746314829047468e-02 1.269410035430941219e-01 -3.714721584729287381e-03 -1.551486494337631951e-03 2.526865823483333707e-03 -4.487439563582002605e-02 -7.712681047458221084e-02 6.315275605772779910e-02 7.669696145366822898e-03 3.639285099621747399e-02 7.078392051513304750e-02 -4.662294766518286504e-02 -9.696703880264144482e-02 2.013085515116931346e-01 -1.438917715700865352e-01 -4.645424666375173872e-02 5.460296152609692144e-02 -4.756945783472835837e-02 4.790059005344302068e-02
1.642889956529855477e-01 1.565850753663964451e-02 1.080356609642741939e-01 -1.717134393190271509e-03 -2.004718272436988025e-01 9.248533354991043953e-02 8.114946114591203852e-02 -4.515038299200059557e-02 2.732520428771778587e-02 3.853023696208190269e-02 -5.376253347962105245e-02 1.589037308325408071e-01 4.960649799962689455e-02 -3.257392108895720839e-02 1.279458919982757459e-01 -5.364175861264106060e-02 -5.322246548988062570e-02 9.982354233549507738e-02 -8.940213629448300059e-02 -3.465528367707653573e-02 -1.433015530999496856e-01 -4.861129088999246312e-02 -4.139541453538805177e-02 1.021571720773050973e-01 -1.372941228437342311e-03 1.281345303381827838e-01 -1.974987958731534363e-03 9.327699725044028348e-03 9.432208032519737162e-02 5.376742154779938498e-02 -5.830557660340283943e-02 -3.549997401810899705e-02 3.062744098806038234e-02 -3.558828617599527067e-01 9.322775657186103959e-02 1.920085254399444413e-02 6.604610989871656512e-02 -8.823797515331362196e-02 7.405695186645859518e-02 1.544143155979121884e-02 2.278200626105589960e-02 1.259818819193880488e-02 -2.226298083493727722e-02 1.482523323969049955e-01 -8.006593747254484028e-02 -2.930072595524828988e-02 -1.371619294865210892e-01 -1.070281402172135882e-01 -4.440230503920285926e-02 6.446194354175761344e-03 7.638146470148594880e-02 -1.283887495253373812e-01 1.763387038462064516e-01 1.142034124741369248e-02 -2.329603704539661563e-02 2.449541589824793045e-02 -1.219020496245810936e-01 -4.419930960756462968e-02 6.213707608947818123e-02 -3.257776116404946520e-02 -4.254485266495126872e-03 -6.657038376371275656e-02 -1.488278833354235997e-01 -2.861832310355706330e-02
8.939768724216227633e-03 8.453739143149601593e-03 6.553636992686817653e-02 -8.482041815475020730e-02 -4.575500118517823733e-03 -5.141218455429789891e-02 4.630362811537568762e-03 -1.640204008821931694e-02 -1.293383321040766747e-02 -1.435375843170186815e-02 1.274664918997498592e-02 -1.601417000960193848e-01 -1.372510197808573390e-02 4.240599759391420337e-02 1.355949953509641703e-01 3.885545689458020507e-02 6.380733319839375361e-02 -1.634711475623909852e-02 -2.551443874258142036e-02 -8.104219046341830726e-03 -6.811867166830656850e-02 1.969971563017375304e-01 -1.662737538928481251e-02 3.810205033418846698e-02 8.839681630292550718e-02 -2.542902314352342430e-02 9.621305253732735652e-02 3.412024834585429545e-02 1.033464407343240438e-01 6.488713783206366548e-02 -1.345586724579459804e-02 -5.956474761611979529e-02 -2.324509548870678025e-02 2.290085760008755966e-01 1.818228276093827311e-01 7.786480028028916478e-02 -1.356785764156364371e-01 -7.813234722339264249e-02 7.120637596039121331e-02 -9.906014922925032717e-02 1.132560104044405200e-02 5.097931413928711436e-02 -2.208362661895434120e-02 -2.709636892979926798e-02 1.258011819006153997e-01 6.581285650170659585e-02 9.470977578772787897e-02 -2.354742604081310614e-02 1.523314420485538390e-01 -4.280836008718423569e-02 7.364086979062121896e-02 1.262751642593898938e-01 -3.142313064868296202e-02 2.689176750719617787e-02 2.715859336217804273e-02 1.039749352181329606e-01 -1.906607175125016318e-01 3.751045301466039705e-02 6.789577978690018722e-02 3.356492679642955612e-02 -4.981771446315406277e-02 -3.826258124316428161e-03 -8.210599175527305560e-02 -1.523104555560554629e-02
1.848811649748639124e-02 1.087153548617933591e-01 2.258365228854228024e-01 -4.766655461180636238e-02 4.278328841687969314e-02 -6.713519505491308270e-02 -1.189120786429628818e-02 2.016372027824097080e-01 -3.758169356093065631e-03 3.677337225899655199e-02 -5.578903013910451597e-02 2.066706826490663854e-02 4.203987224187623328e-02 -8.840857199754967310e-02 -4.813168121834163204e-02 -3.951299782253599874e-02 1.029690434596015475e-01 -1.147594338912442669e-01 1.059436878196760579e-01 -6.148936493695145340e-03 1.576672585409040761e-01 -7.415796175073506580e-02 -2.201600457655022436e-01 -2.634926340385132515e-02 8.669118578980171408e-02 -5.916469687388669491e-02 1.585295979788439724e-02 4.490822675969050742e-02 -1.034602336803299300e-01 -3.809918557497850994e-02 1.066822298797312496e-01 -1.207781058270842728e-01 8.467062755586087647e-03 3.250253297752457304e-01 3.490701478087331056e-02 3.495108331426891035e-02 6.543605172920824442e-02 1.499260768596883675e-01 -7.262210743685651448e-02 -8.551893044479677575e-02 -7.094151991035460569e-02 1.728606399362253576e-02 1.479260029409461795e-02 4.603787597626315259e-02 -1.894224138607280422e-02 2.167797796963259055e-02 -6.563005390906095915e-02 -1.755177151478383435e-02 5.558220140065459752e-02 8.316438987696944674e-02 1.915687459102021623e-02 -1.707315556236104204e-01 4.197090508875910703e-02 -6.713020416397337542e-02 -5.329300271372897774e-02 -1.802209873847470875e-02 4.593842068911722920e-02 -1.196572759649034146e-01 -4.654640322434495589e-03 4.732578698970943409e-02 5.670404725790887009e-03 -3.583248223197588872e-02 1.031028846433211521e-01 -3.643472143381797090e-02
-8.538091713029162533e-02 -1.220657261309552877e-01 -3.436052840459444258e-02 -2.220286792518718494e-02 1.880529751744609845e-01 8.285257578698188019e-02 3.595670282739847623e-02 1.903744693648402597e-01 -4.297688609106077237e-03 -7.626300407349449750e-02 -1.493214690936496558e-02 -7.061364263852200340e-02 1.593864666013177500e-01 2.075257400517857218e-02 -6.728926267313750653e-02 1.873756696244385442e-02 1.088274729081874920e-01 -1.468360247499123361e-01 -7.819380993548925851e-02 -2.065153909088911222e-02 -5.941457105835864366e-02 1.270853544727223172e-01 1.581011219956987846e-01 -1.194702250167749003e-01 -3.085282571550175545e-02 -3.585074458504328848e-02 -8.996996755439105875e-02 -1.050061246903561535e-02 -1.081199247807207997e-01 3.599486528165739968e-02 4.925727984469543269e-02 5.485981178234591860e-02 -1.081522665943800143e-02 1.478135439754958182e-02 -1.021074029939677275e-01 -8.282067280547466062e-03 -3.698009730747501417e-02 -1.461637649733014965e-01 -9.656973242603666963e-02 -5.660656421668775612e-02 5.337102262147108700e-02 7.897662360769724596e-03 3.080441976254222336e-02 8.569801593249546864e-03 -9.387185119757815790e-03 4.103567386291402663e-02 3.826208729781951229e-02 6.135504216836421693e-02 -7.450630750217729359e-02 -2.429011196111630078e-02 5.427954826369638108e-02 -1.036648456263872774e-02 -3.097694152749647448e-02 6.351312651370279172e-02 -2.455142559951719108e-03 5.435562825721290681e-02 1.691973439522062306e-01 -9.478573594618369680e-02 -3.268325706386309565e-02 -2.508751011453589155e-02 -6.147049092993674526e-04 -3.868484167917561611e-02 -1.938633920798921509e-02 1.978472118634834118e-02
