3.500357548109678946e-02 1.349432212979702617e-01 2.579285040589766598e-01 -1.407598880833658625e-02 -1.032619742960226572e-01 3.727478024678114732e-01 4.430336847841314651e-01 -8.872023891282924124e-01 6.354856855630079682e-02 3.187586904789057596e-01 1.307023289565744095e-01 -9.629076414475411516e-01 7.169972950140492962e-01 -2.669427769626348534e-01 6.036688187361758384e-01 -1.222237678565493146e-01 -3.760677422194930730e-01 8.187849881418648446e-01 1.003762307912459129e-01 -7.044219712977224379e-01 -1.123941018340286480e-01 -2.142390171782638242e-01 5.168914619868679727e-01 7.571769011323411513e-01 2.763813480407913414e-01 1.026405423929461526e-02 -3.283891767680298668e-01 -6.245639636411159934e-01 3.383777548784704797e-02 5.757792936782892002e-02 2.259767928692683336e-01 2.990408485606934619e-01 -7.889068489049189115e-02 3.390525884823344938e-01 -1.886152862966026427e-03 3.389476831754428821e-02 9.705330200020914622e-03 -8.795973462605949367e-02 1.507761884470883995e-01 1.157882374809868914e-02 2.392564802605041119e-01 -8.270493429835293342e-02 1.503879400162324020e-01 -2.727845305628630035e-01 -8.638309246115739581e-01 -6.334169902925008977e-02 -6.537916713917154565e-01 -1.593530538051528000e-01 -2.969743259688300760e-02 -4.461852292862763525e-01 -7.767919845158091641e-02 -2.366015650678356397e-01 8.006901413510476850e-02 5.199126288320748968e-01 -3.405115975516155857e-01 -2.782939439412889793e-01 -1.960851246085000901e-02 -6.715862377740238198e-01 -1.366424716544984708e-01 -3.423909883711648977e-02 -4.985505306502700518e-01 3.022158127301560748e-01 1.583591514284636917e-02 3.191932360293062154e-01
-1.661254411029494116e-01 -1.575526060228146438e-02 4.543328558082935370e-02 -1.736649725974646202e-02 8.112528082908696328e-03 -1.625112846600401117e-01 3.984503514553874165e-02 -8.779943858129067927e-03 -1.105211067442348760e-01 -2.279246263886553214e-01 -4.867659635709350313e-02 4.450772230207680757e-01 2.704276446506338472e-01 2.470645047046527223e-02 1.314818184692128911e-01 4.777929053042764829e-02 1.239821028620562288e-01 2.437850758156594883e-02 1.783950345755779265e-01 1.907747236033870142e-01 4.074728198329232581e-02 -4.721510927128861473e-02 1.684444340869180046e-01 3.087651077521011769e-02 1.208636229201238976e-01 8.651964789094351849e-02 -8.320747710302592304e-02 9.973977801401612275e-02 -3.394724716378216128e-02 8.695866475649063898e-02 -2.010267805001301200e-01 1.683641433258403208e-01 2.255069581386069232e-03 5.508024357697556550e-02 5.922400266031112304e-02 -2.112030232502170313e-01 2.373694329739567399e-01 -3.068408286517824296e-02 -1.732559399132493905e-01 -2.500809558019436163e-01 -2.472526234739720608e-01 -1.606496579922537041e-02 -1.347112223510203988e-01 5.200820684628452151e-01 -3.009574319147524379e-01 -1.056203214258528700e-01 -1.241342042817018126e-01 -3.230847338977166361e-02 5.843981631049749437e-02 5.784582479816544748e-02 -1.422324923043130074e-01 -3.392425612316382622e-02 1.981228603374805552e-01 -1.434841313654632022e-01 2.034952413072874389e-01 -4.781819023795449985e-01 1.963547710612303238e-02 -2.161848880864186973e-01 5.904836964078366002e-01 4.841866720837228466e-01 -4.130050111951458769e-01 -4.899720834018461008e-02 4.132229399672623232e-02 -3.223169521101203472e-01
-1.047394314997072626e-02 -6.634597438161771166e-02 2.456054761625897642e-01 -1.197803379167943112e-02 -3.000933617192080155e-02 -2.331938159476014752e-02 2.281831391015994304e-01 -1.646330633036738877e-01 6.214283589188040503e-03 -1.034560816301471342e-01 -1.003848084179130157e-01 1.429474351198785180e-02 2.957478018239637074e-01 6.412443486725714903e-02 2.048566383598108276e-01 1.764973800115169633e-01 1.746393967020409277e-01 1.314894500330380522e-01 3.407867361067219020e-02 -1.978758251682947999e-01 6.225475514626332280e-02 -8.600077884597628897e-02 3.519331112493973013e-01 1.240675122361085403e-01 -2.104260070079962130e-02 -2.240043671911793877e-01 -1.086206261275173973e-01 1.744375737100321011e-01 2.150012566942688941e-01 8.012193507194847672e-03 3.704006089993394646e-01 -1.012056624623420692e-01 9.641300365717685172e-02 8.224227890880468628e-02 1.684500687659301610e-01 2.308132593488632089e-01 1.648851724498121007e-01 1.119430420763903951e-04 3.175382050371811093e-01 1.667757047122472858e-02 1.777089195524492876e-02 -1.334461112757518719e-01 2.660382716469937292e-01 1.949243074628100592e-01 -6.105600865072728922e-01 -1.330245531884106935e-01 -2.314395594827970692e-01 -8.229766129191530555e-02 -1.878785504208842563e-02 -1.592113364461403002e-01 6.682752170745235795e-03 9.089333928741677102e-03 -5.555280320106204678e-03 5.942017991327157994e-02 2.486264688067643322e-02 -1.096944470369647234e-01 -5.555407224597339738e-02 -7.037167488883441790e-02 -2.422409991924619893e-02 1.014422254957665775e-01 9.731146890351508039e-02 1.427041333572969580e-03 1.783054251289838688e-01 9.522323101332762219e-02
1.351581580561190821e-01 -2.980168929885420020e-03 -1.508490723597543659e-01 -6.228313246841691436e-02 -4.842504308653113737e-02 -6.864107770241432635e-03 9.132832284763972575e-02 8.352524739221042771e-02 2.722861195087923972e-02 -1.790375357737929163e-01 -2.143313842121118973e-01 2.539143234651122238e-01 9.856445502761752506e-03 -9.759911947856159120e-02 -7.887868445525334643e-03 2.318082786927485595e-01 -5.266811013384612578e-02 -1.164421898296355701e-01 7.682762384794095340e-04 -1.435435777264279511e-01 -5.513001734078482735e-02 -8.846478931063064821e-02 2.152434447815264607e-01 -9.390822173669360895e-02 -1.269757583995863859e-01 1.505556105198736228e-01 -1.420080536902232349e-01 1.136377405136087676e-01 -4.746027081917662815e-02 -8.716283321887860480e-02 9.295372424296470537e-02 7.930279220030363868e-03 -1.282838477588017501e-01 -1.381996335243592944e-01 1.182985119635845128e-01 -2.081479041329707957e-01 8.259975848841064061e-02 -2.194910699114461516e-01 6.810179608644981175e-02 3.167130657924909637e-02 9.543328186928919099e-02 2.999571423286276350e-01 1.162185491881868593e-01 1.626323460547948185e-01 -3.446429616590152567e-01 1.321427823056226143e-02 -7.480216958839552843e-02 -3.314779580406927023e-02 8.080166325538293282e-02 -4.156308756923668413e-02 -3.941102875781168913e-02 4.293975188199315035e-02 -5.417620177342917509e-02 -6.295809875316982218e-02 6.525535959270925557e-02 -1.136401303650850098e-01 7.930954854391346343e-02 1.443628354365621494e-02 -2.168052558660607879e-02 5.530299033896706601e-02 1.171534356123439952e-01 -1.935403918365678766e-01 1.593883909984464275e-01 -6.265752224723855623e-02
1.047094005999788385e-01 -2.986799461068961187e-02 -4.985783321906426396e-02 -1.134966206409671469e-01 1.103684946787928702e-02 2.418204297890666210e-01 2.254990622387859252e-03 -7.740420586817495230e-02 -5.880384170548366880e-03 6.740181196496762561e-02 -1.853408095880109407e-01 -1.888087695082824868e-01 -8.297972899510419956e-03 -6.305445909605993104e-02 6.711561329926134245e-02 -2.995346323382252693e-02 -1.590326865807942572e-04 8.664175462410080020e-02 -5.256461310117278678e-03 -5.510771777969607904e-02 1.050471153975174876e-01 -1.821508456929431530e-01 -6.833862558556209887e-02 6.169467545133812403e-02 -5.524036954772409969e-03 -3.231335119398180411e-01 -2.833033754799252693e-02 6.928204148307089139e-02 -6.484488607989982722e-02 1.375462371730182265e-02 -7.666647725488738574e-02 -1.101391531297233189e-01 7.032740806598022920e-02 -1.284488338384920103e-01 1.018632565485766694e-01 -6.511415093865371984e-02 -1.095625442930239918e-01 -7.789147821738617861e-02 6.315733067348697216e-02 1.419205993669823140e-01 1.134577121512652109e-01 2.336925024734118062e-01 1.760938823544087317e-01 -9.815898725444438533e-02 -3.296381796413999643e-02 -1.060457605277497495e-01 -3.463874308540280944e-02 2.942446806774432454e-03 -2.170070131557899351e-01 -1.730340711670305953e-01 1.866006288948861280e-01 -9.905274553247832292e-02 -8.906677929602122012e-02 7.530494842712984194e-02 -8.681431407533159172e-02 2.855967581548348733e-01 -1.484756242723583343e-02 -4.742580032024640985e-02 -6.715350957448555647e-02 -6.688488785368131018e-02 -3.333177853037697091e-02 1.633148813411414435e-01 -3.835938836923159789e-02 2.448857552930213191e-02
3.942108780248479438e-02 -3.304742810688801602e-02 -6.395869637211730463e-02 1.395712820303036950e-01 -1.131958863028406231e-01 1.416379306016240939e-03 -4.986407383915912074e-03 -1.470239108906536488e-02 7.029815050059344539e-02 2.209406203979409969e-02 1.346661894925401184e-02 -5.438992802869530713e-02 -7.997229026184815830e-04 1.168913986148608919e-01 -8.933973750948166065e-03 4.824037855175830614e-02 8.247071250797471942e-02 -5.330146412110779545e-03 -4.852807948864236963e-03 -5.609553694682502256e-02 4.358768636871191045e-03 6.105322992705277535e-02 -5.831922843137716563e-03 5.483212726454535745e-03 -1.444982186471780762e-02 1.360322745156972157e-01 2.790729101915622574e-04 4.313508509050209550e-02 -6.860620327613996261e-02 3.081198659845156562e-02 -5.970949504456971035e-02 1.525064000712306189e-01 -4.249064571580490716e-03 -1.328487387438426759e-01 9.391445826059477420e-02 4.599344010884937745e-02 -7.351402494901652929e-02 -9.475442163784678073e-02 1.638255561093614199e-02 -1.863261406376824358e-01 3.288117275939274331e-02 1.522270008443027400e-01 6.573774551082469698e-03 -2.258126968601119333e-02 6.690029428448768245e-02 -3.383471187427936067e-02 1.553057347058447307e-02 1.482598396566664201e-01 -1.377661342216454903e-03 -8.980220193536302131e-02 3.804891144542772441e-01 5.910430529945842615e-02 8.914517580634778379e-03 7.244662167793471629e-03 3.056586092605256474e-02 -5.471309336328025741e-02 7.192597316863436757e-03 1.905724149806644618e-01 7.304605469244575267e-02 1.396698049486151845e-02 -2.832095497474880763e-01 7.344100043262423438e-02 7.349330494848829720e-02 1.712835145035471740e-01
-1.002960123641240542e-01 -1.862057622331150519e-01 -1.214237989167899073e-01 -2.285033768359385001e-02 -5.795236516265003801e-02 -6.809419769513982978e-02 4.715278958897067135e-02 3.617712127185612053e-02 1.599383936465685330e-01 -8.099861260469415347e-02 8.261176979234689799e-02 -4.306394382304954555e-02 -1.177085538722771330e-01 -1.140226009358305363e-02 8.469312053678139385e-02 1.808916311280029873e-02 7.079164454640588834e-03 1.413690212072841491e-03 -1.985018897713275443e-01 -1.321849836084462437e-01 1.039339475307422128e-01 3.514887233747980566e-02 1.155042775505780994e-01 3.496790619353146862e-02 -9.812866386237581451e-02 -5.571604827684688982e-02 -1.848869539614904911e-01 6.586169408558363580e-02 -4.837316825898403672e-02 -6.131348943790056877e-02 -4.501466240206381669e-02 -9.767899027752452445e-02 -7.602861144341951927e-02 -1.563239870736700954e-01 2.448771822174822532e-01 1.623654856508279787e-01 3.152935240639527237e-01 1.487049715428367114e-01 2.054332780612750098e-01 1.478139098772229265e-01 2.303241951756751782e-01 -4.676610846277020131e-03 6.217394053662253679e-03 -1.887446756914451240e-01 -3.989253354877468905e-01 2.651232507657254045e-01 -1.304024141934396752e-01 1.456208204897632141e-01 -6.662969452670421122e-02 -3.385931666418332854e-03 -1.878474947679613372e-01 1.018801984327082077e-01 -1.955103138912916427e-01 7.884429807139406443e-02 -1.462234597199740249e-01 -9.888497515641175850e-02 -2.035314992863401090e-02 -5.910970657404377576e-02 -4.684040304244844743e-01 -3.226829967466173232e-01 -1.287415747723472392e-01 6.865869990865787476e-02 -3.503104467078242690e-02 -4.742299044728347929e-03
1.286593749871350334e-01 2.149444483524984989e-02 5.807120625895239099e-03 -1.340466181379573046e-02 8.316433445697737903e-02 -6.757214190550041126e-03 -5.501919116595977571e-02 1.315955151514949968e-02 -1.726335299742234597e-01 2.626219028047220572e-02 -6.461925119814486418e-02 2.492613297227648517e-02 -7.931593393477048490e-03 7.048702881716026325e-02 -1.099385155479377409e-02 -9.288287556204191664e-02 -1.085035405741753417e-01 -5.048737704891179123e-02 9.710472543369062792e-03 3.269323819064633152e-02 6.506008167028100309e-02 -5.777927346861619351e-02 -8.300779202014035851e-02 -1.683986063666682853e-02 -2.434236504663311873e-02 5.496294015823423827e-03 2.712841307374641922e-02 -4.840661425586131883e-02 -1.816097813087445487e-02 -7.671317376506704699e-02 1.109443703438434820e-01 1.859825981943274628e-02 -1.459615193642527786e-01 1.894773257809785269e-02 4.298618770078985879e-02 -1.025467627939244614e-03 -4.170122485941658505e-03 1.044282707895698437e-01 -6.018510038228465364e-02 -8.271131586754480736e-02 4.346234752586233818e-02 1.586038085023236399e-02 -1.457938389749902780e-02 7.816028131409903656e-02 8.338256184194119125e-02 8.978315392233345016e-02 6.870814389109584919e-02 2.613595133674066762e-02 -4.546679864585576047e-02 2.536286332430808255e-01 1.851071313267236840e-01 -1.153714917992781572e-02 1.434593964008333555e-01 -3.137875006248376508e-02 8.714935063257980841e-02 1.227154173533712977e-01 1.083545562879562191e-01 -1.994148647597020485e-01 -1.390970381496294678e-02 7.538320219978925096e-02 -1.573267363084607517e-01 -7.302458662146001089e-02 9.920389537670130931e-02 -1.073465061406956959e-02
-1.337111779195620243e-01 3.251093698948617772e-02 -7.539827226313361441e-02 6.101367281066338855e-02 -1.146978117292143107e-01 -1.662284381319233811e-02 8.546847712847399636e-02 -2.516937384026495320e-02 -1.430754015162351567e-01 -1.481078524662287656e-02 3.199734933678795995e-02 6.625964932941215413e-02 5.965183042849128703e-02 -2.180775018330168291e-01 -5.882903220783461049e-03 1.971521536166254834e-02 4.976929183726732341e-03 2.900394303243528440e-02 7.594456924469851445e-04 -2.377443742174106811e-02 -2.992003104769213814e-02 -2.003096241469737651e-02 4.738311167460942941e-03 -2.942816149305959791e-02 5.231089955466092928e-02 1.268449101025713975e-02 1.465315537927080469e-01 -6.754026982352255744e-03 3.430224562108633024e-02 8.593672602073129663e-02 -1.379484923138875885e-01 -7.984405953156098468e-02 -7.401335931173363969e-02 1.859568828358628412e-01 -1.169903647254341705e-01 1.175760502819855752e-01 -1.233319907133718571e-02 9.437036948966778804e-02 -9.771111526108125500e-02 1.774345825218392736e-01 -2.639014657335144245e-02 5.889883205750479772e-02 1.070557830903159230e-01 1.574558427679788319e-01 -1.602193076301084221e-02 -1.155997191972626126e-01 2.348061294882828123e-02 -5.128766458894618019e-02 -2.675835615340843229e-02 2.503120745787726018e-02 -7.387880272168340090e-02 -4.320603840799115344e-03 7.868479613563207631e-02 -4.797807328646027519e-02 1.077643448998375358e-01 -1.003904398303403500e-01 -1.297922645142842411e-02 4.347539398226418772e-02 4.193362340250559456e-02 3.171799942577226833e-02 1.257971010835792214e-01 1.024340399088181641e-01 7.844925903225838382e-02 2.057734044803660040e-02
1.909365793837357328e-01 -1.086426147891691313e-02 6.649348986999366329e-02 -4.074388811177842573e-02 -1.454983582108286266e-01 -5.951992500648486950e-02 7.335675869644116276e-02 1.576839719413991592e-02 -2.756942363404298046e-02 3.293680279777511793e-02 3.445247858065893926e-02 -3.313117126547206887e-02 6.899094067497917558e-03 1.392586145056866342e-01 8.191365967564431805e-02 -6.184985927392990662e-02 -2.834768986291430135e-03 1.128703448232246977e-02 3.458767355739979232e-02 -3.500447987884604262e-02 -9.909778937054962433e-02 7.731581377552233791e-02 -8.515972233445048833e-02 5.811677070007612890e-03 1.501353676463419544e-02 -4.524173767546263436e-02 -7.839497562074602965e-02 -4.672475512870591374e-02 -7.156221278886019249e-03 1.026581006285638420e-01 -2.192986552332924430e-02 5.875353100955591629e-02 7.543486386000418376e-02 -8.577984148298137268e-02 -4.591533135825270895e-02 -7.036357413106936708e-03 6.203425890377193413e-02 6.693980855615692949e-02 1.178445993222706524e-03 5.775618824321673145e-02 1.504219651909851144e-02 -6.628987869221635021e-02 -8.132885808839807051e-02 2.117571517171678436e-02 4.267350768548049816e-02 -8.881518098340690504e-02 -1.735383171434400421e-02 -3.697739959618651095e-02 -1.207237430420731242e-02 -9.122428485760772365e-02 9.311665060310250763e-02 6.471476124913422279e-02 4.138557375969494773e-02 -1.490646174291405173e-05 -3.925745147942848873e-02 1.063240638328388360e-01 -4.966361021503420958e-02 4.148758444369085585e-02 1.007516213705299812e-01 -9.503812621298211860e-02 -1.691625473918630940e-01 3.484019114624665320e-02 1.423995107158454974e-02 -2.254375586472514084e-02
4.835100952054973561e-02 -2.621895748240067325e-01 -1.205198988779837832e-01 -2.239378816216340204e-02 8.937354349744972004e-02 -8.964398262899085645e-02 1.298169752380742004e-01 -2.278997594231567739e-02 -2.636201404339903048e-02 -3.437746985225401900e-03 1.743258392866163520e-02 2.978293289815164835e-02 4.404540928896445023e-02 3.504738939811487958e-02 -1.705780685683868508e-02 -8.271785428993090605e-02 -7.416170846808806116e-02 9.314573100165162226e-03 -2.677343162446816954e-04 8.190592419493901216e-04 -1.216641279908171058e-01 4.507930060313850018e-02 3.229091789909919324e-02 4.548823095088964930e-03 -6.954705087269359709e-02 5.162778515240755428e-02 -1.230536542248405474e-01 1.026735403969687016e-02 1.041706912261344681e-01 -7.771251883147697881e-02 5.641460934706414576e-02 -7.495033607769058248e-02 -4.590911671562749458e-03 -1.951389136810982583e-02 -1.806796719233640103e-02 -1.103536697138614991e-01 4.140774917984724884e-02 6.055914807244037329e-02 -6.033797943111107037e-02 -1.465044857717179294e-01 -4.791004123051746666e-02 7.267784442936625622e-02 2.568627089230152705e-01 1.205127471973709286e-01 -3.336653274902731670e-02 -7.228864266323757615e-02 -1.061108076722935660e-02 3.148055132244856336e-02 -1.113783523786090884e-01 -4.390063244312257529e-02 7.566013177382807653e-02 2.892580112603499246e-02 -5.084696468652315920e-02 -2.747397189199449891e-02 1.742475822678787867e-01 1.032044689273300675e-01 5.911066916742310773e-02 -1.262743086223041267e-01 -3.166391412987729082e-02 8.740906650394317245e-02 -3.158856260056656928e-02 -1.400254687671423914e-01 -7.236763758833961169e-02 2.525727399295978840e-03
3.089031602656478262e-02 7.217524022309497467e-02 -4.850545615595526494e-02 -3.684436164973556999e-02 -1.398206707516856488e-02 -4.628489937847374974e-02 4.356044000769807023e-02 -9.614463052334718332e-03 7.316000196411608092e-02 8.700202043284189363e-03 1.030043670641650477e-02 -8.790343662252338153e-02 -1.038687367970117514e-01 -3.491054482227930189e-02 4.947704661445976454e-02 -1.999004402012731843e-02 8.189451855661832036e-02 1.378553548926832184e-02 -1.019595573868231630e-01 -1.297227231621606580e-01 1.808727226182054171e-01 -1.000754304078237166e-03 -2.555347980377748601e-02 2.706236708315522613e-02 3.946593695739133989e-02 -1.226536529849426155e-01 -1.415923159706121426e-01 3.688488738254666610e-02 -1.153480080206798486e-01 5.239683744981142588e-02 -2.849705074934991839e-02 -1.342131387794276709e-01 -7.792464661129063636e-03 -7.629491042712840954e-02 3.438593249627776294e-02 8.344186133776283765e-02 1.036526941461751172e-01 6.218698632486412137e-02 3.662551252878055302e-02 -1.091779298529926834e-02 1.789547083693164842e-01 -2.290516513457818617e-03 -5.682798180591856763e-02 -2.177725403343701849e-01 -9.443134855852121368e-02 4.474340053754015389e-02 -1.125813434702326171e-01 1.494889581625327146e-01 -1.723901706455732707e-02 -4.143481820211949995e-02 -1.711601297449581727e-01 1.619092106744958182e-01 -2.784389536749073968e-01 7.196231322307902745e-02 -1.047622521199335632e-01 1.087296066517130094e-02 -8.719287663469402205e-02 1.922820831153968998e-02 -1.867083295022839984e-01 -1.323872251188152604e-01 -7.465633042916630657e-02 5.451833693719593255e-02 -4.621275342663809516e-02 -1.305715429185632694e-02
4.287573324642014044e-02 -1.562827254507964947e-01 4.307153582382598073e-03 -3.630015719593673168e-02 -5.064374285313206353e-02 -8.017856765759900917e-02 -7.318869106875214303e-02 -2.689848146653847985e-02 3.115706982365926483e-02 5.324250224835021250e-02 -1.318903628262866612e-01 -1.916641799484543676e-02 2.422003101648275564e-02 1.846881064411161691e-02 3.789569585379586047e-02 -4.085384767360795977e-02 1.311824225683244638e-01 -1.373780368316134112e-03 6.265129735161528712e-02 1.663835506426644406e-01 7.776691951962376448e-02 -1.596230522121530604e-01 -9.102302536658403442e-02 -2.647055482445567071e-02 1.250097728153136134e-01 1.806506306588676058e-01 -9.984052515730930388e-02 9.605406066281131638e-02 -2.232358654630875461e-01 -4.719718434692988553e-03 4.317214913063240761e-02 -5.735904003794656952e-02 -1.023676570405963014e-02 5.702457345927337828e-02 -9.978468496696639434e-02 2.418155786908823129e-02 -1.696199806855750586e-02 4.098403122729715742e-03 -1.641435414502057932e-01 8.878672127590506169e-02 -5.328052077596614339e-02 -1.058840113002215144e-01 1.019847906256906162e-01 -2.366558573797145765e-02 2.030379700119214759e-01 -1.254408983121445970e-02 -3.988177902012614642e-03 -1.583925024076338409e-02 5.074859565738376599e-02 1.133089604508599330e-01 1.050916820264135992e-01 1.347666307383582063e-01 -1.567277534462695882e-02 1.678108576830741189e-02 -4.924327942422083298e-02 4.891952343600836084e-02 8.118606857618648753e-02 -1.236043594627322662e-01 1.933757253727415304e-01 2.334048058761674371e-02 3.204526263596716579e-02 1.771217534972670260e-01 -1.319763677837557381e-01 -4.158480572526557402e-03
-6.865476152356386752e-02 -1.639205343232151002e-01 8.387323470928567670e-02 -1.898497215270192329e-02 -7.890026590872267764e-02 -2.995637334820624650e-02 1.207946179006233745e-01 3.596649462182975598e-02 -4.028157601433689228e-02 -2.340448384138574603e-02 1.225533889127579240e-01 1.288566951274398506e-02 2.073721511990589839e-03 2.520428343705436239e-02 7.248440945077878894e-03 -1.515594656440511778e-01 3.244814648895183451e-02 1.019018480702637251e-02 -1.634765785969235011e-02 -8.526234521413639245e-02 1.128002478958198690e-01 -9.307018031382725820e-02 7.251558600144489275e-02 -1.254639987130078300e-02 5.084858270488213511e-02 -1.122038120518154825e-01 8.154455084812363419e-02 1.104386821287180187e-01 -7.711249384693150133e-02 -3.837667560466949401e-02 1.099980868559670144e-01 2.338101682714959634e-02 1.040045446452939892e-01 2.721508731667098835e-01 1.064992922549977822e-01 -2.349216320625486520e-01 -2.090200391434127725e-01 1.420340118659168538e-01 8.780373923190826213e-02 1.793052994069161687e-01 5.865313673124698812e-02 6.084291431935436034e-02 3.274380685922153589e-01 1.922392036636459342e-02 -9.619794175187805496e-02 1.001511398252572516e-01 -1.303812748928490951e-02 -9.470269662300911939e-02 1.157856903018095185e-02 8.498674187006033387e-02 1.207368674067977876e-01 -2.649725312112566171e-03 -8.425467782309847831e-02 4.803675725196990438e-03 -1.556437644828659872e-01 -1.405329907668891321e-01 -4.212391700197072597e-02 4.834857872447093086e-02 -8.260580243791232347e-02 8.983655386611583138e-02 1.975679908374016955e-02 8.686145279837043098e-02 -7.541838223373695770e-03 -7.648014332296138029e-02
1.533495529148913572e-01 -4.167394844754324090e-02 3.766273566315946498e-03 1.493749573286073384e-01 -4.789892823747458894e-02 8.202263252119387782e-02 -1.551837387090543585e-01 2.865834990740791580e-02 6.017630793296695896e-02 -3.846923335304770091e-04 3.446277617655138514e-02 -2.020736516380253547e-02 -5.506818725158522249e-02 4.674303522406762779e-02 -8.172051820283578530e-03 1.328652801440585729e-01 3.809009116642191745e-02 3.666664064365722508e-02 -1.750084017991670668e-02 -4.574441707930218537e-02 4.552611947310553596e-03 -8.156849490789628426e-03 4.935485842486947265e-03 2.262274482984072063e-02 -4.619916053064948569e-02 -1.112450913819652276e-01 -1.153460870746827599e-01 -2.937888121343644118e-02 3.857724586021505937e-03 4.889972508887548662e-03 1.191322219764165830e-01 1.334801907366741924e-01 1.024741124152923344e-01 -8.573407939928090471e-02 8.447146963717440393e-02 -1.101598709989046743e-01 2.982818687133283880e-02 2.251492393942116921e-01 3.118969450975914159e-02 1.927663143155251002e-01 8.308057319505843252e-02 3.861396349090529673e-02 -4.293038712488774777e-01 -7.763960895360695613e-02 -6.756108166144697558e-02 1.236426806247225424e-01 -7.515564672281766249e-04 1.392633926256224841e-01 -1.047950934759654534e-01 4.774839229413472066e-03 -2.801707268438141663e-02 -1.218560558873376387e-01 3.009967715645881295e-02 1.359141001676115101e-03 1.395870205454933788e-01 -1.417756532918104662e-01 -8.348118927613382145e-02 6.156405870088296067e-02 -1.587394289544195036e-01 -2.040994654386661389e-01 1.158998912825678768e-01 -2.545255089315186584e-02 9.413417707814977775e-02 1.512946693960386287e-02
-1.446734343069705324e-03 -5.184976844903024795e-02 -1.017917437307149786e-01 -7.395925057651596413e-02 2.864760593057084394e-03 -3.643867262705862559e-02 -1.483638585417615952e-01 -3.479839696914617531e-02 8.413658655277179987e-02 1.452396090573297542e-02 -9.606803927962233661e-03 -2.280250679901068417e-02 -3.731379823006155793e-03 -2.149477678907180667e-01 -2.397259904541590436e-02 9.693838070600346510e-03 -1.359731672758759946e-01 -3.252048005868391628e-02 5.659318754795169930e-04 -4.315322073039436906e-02 8.384953893629749910e-02 -2.275104574600749635e-02 -1.739395963637214645e-02 -1.089466415350028722e-02 -1.653753512563192751e-02 -3.826228437837110585e-02 6.493223720542194710e-02 -1.839510797724031033e-02 1.875220802389617261e-02 6.703088048834537904e-02 -5.170117931792284766e-02 1.231436540387211426e-01 2.049888670442615371e-02 4.836863612294783898e-02 8.193802881327652554e-02 -4.895057502066643002e-02 -3.866773862437709874e-02 2.088974009763586437e-01 -4.694588715809701329e-02 -4.083565048545751558e-02 4.367207416695429584e-02 -1.608594844881984509e-01 -1.519878605209065876e-02 -1.709024124498097902e-02 3.724733898205914717e-02 -2.772159770227324710e-02 -1.906451622553264474e-02 -1.981134662847834349e-01 7.343007856294679614e-02 1.385286015461956732e-01 9.471972197571446039e-02 1.333511833414536760e-02 -7.507042213952744292e-02 3.203775663004066864e-03 1.234457714329612460e-01 2.341195549928647840e-02 1.318624576902188428e-01 9.818750521947380849e-02 5.175262190279583674e-02 -4.176658891042144689e-02 -3.828673659619480363e-02 1.232390400896896249e-01 -5.334661996478450192e-03 4.216124736061713230e-02
3.039968935119367888e-02 -2.055939443410556566e-01 1.280992159479181144e-02 1.235069461517105532e-01 -2.361711208368696413e-01 -1.277042088373483431e-01 3.427799538549424711e-03 -1.578018721223205592e-02 2.281239605345313642e-02 3.243096016140129684e-02 1.061993765347132856e-01 -1.894583179815051768e-02 1.973296397310377558e-03 7.571615777147837345e-02 1.832568243283139511e-02 -1.162573262480463658e-02 1.221830299287785526e-01 -2.966008055415375860e-03 1.356249406262294288e-01 -6.547819121850986801e-02 -3.645803524542066965e-02 -2.033097159497654627e-01 -8.072495452489614198e-03 6.443926502486177661e-03 2.319484951643860648e-01 -5.244494617246599905e-02 -4.442789040907909465e-02 -9.450560876675367927e-02 7.483512705216012473e-02 -1.045382795774868617e-01 -4.775204123860343070e-02 -8.915520523716352619e-02 3.390379688076983894e-02 -8.344247507141092091e-02 -9.974007023834761954e-02 1.139156892412937910e-01 2.428932103176790688e-02 2.149819704652772279e-01 -1.769009697593358632e-01 -8.449105205249331230e-02 -1.798982103387619380e-01 2.465904006625919617e-02 1.275872662721183604e-01 4.784368503013065876e-02 3.743303009856522451e-02 7.035645917025251661e-02 -2.020460672114598663e-02 -1.834454619343936152e-02 7.878493844067052665e-02 -7.122958403038254227e-02 9.987138172941384395e-02 -4.228285218581935567e-02 4.276219793198905023e-02 -1.772244693226663432e-03 -1.672396855216677289e-02 7.128425976204254277e-02 -3.419692260044447651e-02 7.104800653149619116e-03 2.428337271216259377e-02 3.922975128052334087e-02 9.961692986229680677e-03 -1.063259080959449640e-02 -1.859097572516282826e-02 -3.856726898367327655e-02
7.989330047501951027e-02 -1.162407160571894346e-02 -1.019765101325372236e-01 5.193744693070552476e-02 -1.564060947427509396e-01 1.213442039963258390e-01 -2.576584045577518141e-03 2.064279033985947764e-03 -2.243307377118202231e-02 7.277591429355849406e-02 -1.525460430258072410e-02 -1.257978263752099549e-02 -8.328344832550788404e-03 1.434509986404540194e-01 -2.470719192232337380e-02 7.709359153013603527e-02 1.006884801484745663e-02 2.851710779841582985e-02 4.253247879527906339e-02 -9.683952772331841374e-02 -9.115134820721928349e-03 6.363145473402317953e-02 -1.022541908681747283e-02 7.109242302038638883e-03 6.576845713997417353e-02 5.602799856020784092e-02 1.729103295766672155e-01 -6.879340345207006491e-02 7.769671116788820497e-02 -1.153002709322992897e-01 -1.040911240793510328e-01 -2.907089741400495017e-02 9.266432171449885680e-02 -1.374423129189137893e-01 -1.011271146107904084e-01 -1.576508036987620542e-01 8.921218700141092528e-02 7.923099151121344719e-02 -8.637793650304581572e-02 -5.103382879256264382e-02 -1.953217852699578108e-02 -1.434253535925729406e-01 1.119398313990526000e-01 1.845451675871800645e-01 6.179582634089136536e-03 -9.250077641186436883e-02 4.778189929380483730e-02 4.544038258211243603e-02 1.699147181000693063e-02 -8.783689991546700382e-02 -3.308466222671403029e-02 9.340084985338360790e-02 7.220319092646340642e-02 -4.570406373255054416e-02 1.911774283304852051e-01 -1.194939956581096176e-02 8.690955165101076074e-02 -1.697708577153871634e-01 -9.282220658544199088e-02 -3.491208433980769188e-02 7.882563444235606009e-02 1.805044609589452620e-02 6.228243469673645782e-02 6.235053926262787427e-02
3.981720623650572555e-02 6.649055141520231194e-02 1.881908590128567038e-01 -2.548725974328449120e-02 -6.154395926258988264e-02 8.210484008171328729e-02 2.584003651760274911e-01 1.178625609862125716e-02 -6.999640771107205894e-02 8.764401316570637201e-02 6.824210247394806028e-02 -1.023323294626370117e-02 -1.271673101338283325e-03 -1.967039857467239305e-01 1.887476652174304922e-02 1.442526852492659502e-02 -5.962398695034874796e-02 2.940421913861213793e-02 2.438679422365336302e-01 1.861655236696260415e-02 -5.700240720919685228e-02 -1.240416364755014128e-01 -1.823476721899519315e-01 -2.227766744304058438e-02 1.445500728558447578e-01 -1.001366070784110301e-01 8.978503612434214631e-02 6.442744223393320757e-02 5.919198856848680024e-02 1.383995994989959677e-01 -1.274671357109060099e-01 1.951097712539316131e-01 1.207580302593142113e-01 -6.686565412298244027e-02 -1.131276502927616723e-01 9.001309452947484080e-02 3.476346701213711005e-02 8.632986846002853321e-03 4.899207340891047896e-02 1.978775946160821197e-01 -1.845225685184693487e-01 1.317895709075780075e-01 6.793042511194775923e-02 5.801496180978390343e-02 1.232636677152516985e-01 -3.478985755787564887e-02 5.516984617528068735e-02 6.631055940559213435e-02 -6.226372923621985300e-02 1.551986441645943245e-02 5.319469571652316042e-02 -8.742221028379669814e-03 6.430273105997712235e-02 -1.145290200826445254e-02 -5.498212170082451139e-02 -9.356622057655604452e-02 -2.710418063147207110e-02 1.914184521439053419e-02 8.075200982191610422e-02 -1.243324440353304056e-01 -3.006257605964571256e-02 7.528453565880818821e-02 -7.787836987151978974e-02 1.081137074668832125e-02
