6.830559022168626315e-01 8.245613090529966271e-01 2.988043195496663529e-01 2.119880584428811277e-02 -2.584375279792875957e-01 -1.349990105252242278e-01 4.712402618326200776e-01 4.930267653616818846e-01 -4.219062691750852939e-02 -8.648152464375327142e-01 -1.952832570244231458e-01 -4.834592971084775148e-01 -1.238037674575877267e-01 2.661700906864243876e-01 2.728292563389232428e-01 -3.277996213248332014e-01 2.956478655967368363e-01 -5.240774627934990937e-02 7.320055885409611218e-02 -3.464657626337070973e-01 -5.113452241853948949e-02 -2.112013246862135540e-01 -8.384645221866630915e-02 -2.406328321762503664e-01 6.240449315795848495e-01 -1.444856910450854903e-02 8.116721444478670888e-02 4.865803980292776054e-01 -8.414509681038893907e-02 5.321615114626101484e-01 -2.043819041645809076e-01 -3.231122257394470343e-01 7.253576922988212716e-02 6.719940412007334718e-01 -3.510969116810779833e-01 5.554995054336544363e-02 -1.403015533830744288e-01 2.432844472659570767e-01 -5.794080505285054833e-02 -1.233712180138184233e-01 -3.433522139196036327e-01 -3.517002735318520701e-01 8.305378247687780768e-02 8.613818829075107208e-01 1.540096201430089795e-01 5.525914090845591709e-01 -9.090670770508797738e-02 -1.485580156822582931e-01 -1.170097242132827342e-01 1.139177518791929522e-01 -2.449814044228998400e-01 1.033677871626605071e+00 1.286822179928851229e-01 -2.652281368779515480e-01 6.165465236108635949e-01 1.023519720769483082e-01 4.276452823086352578e-02 -2.697199802327321372e-01 4.128142113775549737e-01 7.869714991705313301e-01 -1.720562945453072978e-01 1.454136017314349438e-01 -1.119628300139520125e-02 5.085526755251496001e-01
2.449501157620193326e-01 1.761256218785284267e-01 8.400573561246922616e-02 -1.666857740742123256e-02 5.529358610285224351e-01 -1.684119643641816544e-01 -1.472981056288247617e-02 -3.267046924244939032e-01 2.652453084539163619e-01 6.792792338155727999e-03 -4.857497348369184398e-02 1.529428020024728614e-02 -1.050253435674750185e-01 2.692537086477715946e-01 -1.290126337035978066e-01 -8.762958443381289875e-02 -4.660709655819313957e-01 2.237961179026627667e-02 7.725850499115168857e-01 -3.059462405529168594e-01 1.340993047202183042e-01 2.145944461915261781e-01 3.779030596604637804e-01 -1.169859073250462816e-01 -2.340593802722970573e-01 2.276375273224265361e-01 -5.238287594331584446e-02 -2.164931059959432358e-02 -2.853890855554231942e-01 -7.431680779966634565e-02 1.137991922264511985e-02 -2.717518594052526493e-01 7.300771913530759716e-02 3.037785018576731610e-02 -2.249083041459119803e-02 2.436823524835628196e-01 5.739759719255019960e-02 8.638256716895448360e-04 -8.225143887998104253e-02 1.287274630167537792e-01 -1.703612824705388190e-02 2.596215429376831363e-01 -1.144766004510050367e-01 2.005654396652775950e-01 -4.684251553886655678e-03 -5.698735150463703214e-02 -2.091040642091227530e-01 1.433518111883190782e-01 4.317563587087699245e-02 1.574538481320995054e-01 1.201618355929013893e-01 -2.805390674398804407e-01 3.978334266074405878e-01 3.984306699059061985e-01 2.277603287618606143e-01 -2.470330953152218012e-02 -1.004498699274743861e-01 -3.955475434176567440e-01 -1.306302492151818762e-01 1.019553551387961943e-01 1.376875088397336022e-01 1.612412163474356563e-01 1.597615320955685647e-01 4.936429312093681965e-02
9.050483969772195325e-02 1.906783893975025901e-01 4.424491224910002962e-02 -2.613184839002379856e-01 2.971644708348857716e-03 -6.792949887170410435e-03 2.831994301039210127e-01 1.283473908250784001e-01 -1.038498482191667627e-01 -1.845633916325416790e-01 -1.182799154643995182e-01 -1.659400691952209739e-01 -1.587632394102555244e-01 -1.657069855807050962e-01 -1.383892910971564749e-01 1.942050199742456351e-01 -1.486156465951485595e-01 -3.026858490655686545e-02 2.452303836439431173e-01 -3.200995083595165602e-01 -6.006902337934897501e-02 -1.659839157202971927e-01 1.145240465657921397e-01 2.686397006887578705e-03 6.496054080932518737e-02 1.036617433265963478e-01 1.186369980535494639e-01 2.215709086223711238e-02 -5.076900230633031412e-03 3.523611179641904928e-02 1.244575475541603027e-01 -1.237803168514302506e-02 1.228560613745402069e-01 4.570223169995082935e-02 -2.113943845046529352e-02 -1.057012989203308800e-01 -1.628027023109946542e-02 7.943255549213278782e-03 -8.821000430600067777e-02 2.343286091911195995e-02 6.942985170216896262e-02 -1.200301457533747562e-01 3.473316315931305187e-01 1.542975740081555247e-01 -9.851177210887322733e-02 1.219933486163926190e-01 7.120483651102055278e-02 -1.472556980902099966e-01 2.987259530101819549e-01 -2.129455878450601247e-01 -5.565104678640360458e-02 1.569066831430565023e-01 -2.128723192089782695e-02 -3.449916338017912087e-01 8.067233204589600859e-02 -9.936970709862549822e-02 3.101853787562772191e-01 -8.677795406550829760e-02 2.929522689521889545e-01 1.837217705033138970e-01 1.349619506474778741e-01 3.301570277982199958e-02 -1.948304539538792679e-01 -4.972613811744414601e-03
8.460010092788006197e-02 1.468880938281861004e-01 -6.708515558690006375e-02 -2.921541608543325175e-02 5.134867266852857770e-02 -9.757571539286588949e-03 4.693942930593838353e-02 3.973967178678177586e-02 -1.165604133954425276e-01 7.855891079536179988e-02 -4.819816030046377570e-02 -1.302587685826773756e-01 -3.020997602449000674e-02 6.275095118472251432e-02 -1.327427429944432608e-02 1.067985323605061543e-01 -2.059054305207624613e-01 -3.817461299339647979e-02 1.637392599330730059e-01 -8.800730204678715307e-02 -1.546746567155326546e-01 -3.223208540234568514e-02 2.811281665618484138e-01 -2.878814297823502691e-02 -1.868807417874974452e-01 -5.757536387189204213e-02 3.697740670212476544e-02 -7.265628444998019353e-02 -5.085466315667558357e-02 -8.086112186164291782e-03 -1.244383629086010488e-02 1.795437502031397778e-02 3.197381832009263403e-02 2.611825253860887430e-02 2.348627480944505130e-01 -1.968955845762146179e-03 -4.627226367733663914e-02 -6.847485355410456997e-02 -1.069455124243358923e-01 -2.966160583139590412e-01 1.359363050809043183e-01 2.423048489004229478e-01 1.869748646563341998e-01 -1.608887720149705380e-01 2.989307179277167145e-02 -1.370269259746479187e-02 1.958215221728284647e-02 7.417434324604961493e-02 -2.730560708995589600e-02 1.740819024945881865e-01 6.563728922390210663e-02 -7.457838332699652517e-02 1.369077972914342911e-01 -7.186288320975631194e-02 -5.711677328382932378e-02 -1.203221169279268116e-01 1.770174554757945329e-01 -7.796730481435575066e-02 2.083306237000391026e-01 -4.437545718019293706e-02 -2.382858176408664611e-02 1.301274613645630740e-01 -1.659121742459150062e-01 -9.285714008679930506e-03
-3.789464299428663141e-02 -5.095500078022256046e-02 1.169711203863424247e-02 3.294645621704855309e-01 -6.580926880417756197e-02 -8.723765557148820127e-02 2.327791116301852065e-02 1.183874079636613313e-01 -3.019938596745638457e-02 -2.803314937475414118e-02 -7.550522736895907971e-02 -1.964994119401509143e-01 1.618408463515346729e-01 -4.608886925945895451e-04 1.353494059377066405e-01 3.051467072281492318e-02 1.652651489094980330e-01 3.381051091861360380e-02 -2.118088430962539181e-01 8.955003035671187106e-02 2.656641821046527852e-02 -6.341666272103689550e-02 -1.225835541683583524e-01 1.037904538853902797e-01 2.229706076030238682e-01 -1.642706924311703731e-01 -2.609934047072678953e-01 -4.879239723315144384e-02 -4.345736273373829173e-02 7.825776024510655571e-02 6.568173297141825795e-02 -2.071331826536312315e-01 -1.107686790241375896e-01 -6.556092487975599681e-02 2.626369823130313419e-01 4.552556132627364610e-02 4.787613532276844414e-02 1.537844528527562531e-02 7.455255687607646731e-02 -1.914375033019108663e-01 -3.971583900603940093e-02 -5.668574292560094735e-02 -4.577234247268063133e-02 1.971959664506885146e-02 -2.597110349349169081e-02 1.085764079151747552e-01 -8.890181652012615898e-02 -5.036463885781819472e-02 2.349780211774471772e-01 -4.535740747996089284e-02 2.023839211632663393e-01 1.454048019300976935e-01 -5.616410854099990885e-02 -1.347669780122444927e-01 -5.465542591872894762e-02 6.320113877381938750e-02 1.535562526052922372e-01 5.157376836531502723e-02 -5.076286346956039586e-02 -1.531481980236647743e-02 -1.158613136455789450e-01 -2.083578730630603337e-01 7.316199899769232351e-02 -1.398007568152603575e-01
-1.221587525697088832e-02 -7.916825986720586739e-02 3.781246324786162460e-02 -7.984032802479158752e-02 4.132137268335912827e-02 5.566470222220052527e-02 -6.676720829749149821e-02 2.320459829513592948e-02 2.425828090260643277e-01 2.615049014687618328e-02 -3.903550875274370766e-03 2.330880978207431828e-02 -8.749475242535645694e-03 1.045748237499079941e-01 -8.580739003275776600e-02 -3.064497922760890392e-01 -3.187157589075842457e-02 2.929613652707428739e-02 3.506137109030250942e-02 2.888233196258842631e-02 -2.391102162526571873e-01 -2.959486878508168495e-01 2.069731561905574849e-02 -1.589142513866140805e-01 -1.620674239399607849e-02 4.389538819177755263e-02 6.957393064726551113e-02 8.506870596281256025e-02 8.223591965224825995e-02 -6.039373327213262699e-02 2.352018754160780101e-01 -6.957490269592377097e-02 -1.787836200339761317e-01 -2.378002744810862532e-02 -3.669173510251294568e-02 8.284527971420985182e-02 -6.913237453908040175e-02 -1.086931733591263438e-01 2.680123114764533174e-02 3.227801696961780931e-02 -4.991161292685813294e-02 1.664519405437244956e-02 -1.335466239731297744e-01 -9.550934014591239141e-02 -2.422955294080881422e-02 3.077419281990864328e-02 -1.022692014602388233e-01 5.118149202964372008e-02 2.587520107626538612e-01 1.511693596989495958e-01 -6.525564687897809912e-02 -3.141288576761235452e-03 -8.084373495939355114e-02 -4.788409024778744749e-02 1.634418654071168736e-02 -1.181898625312398088e-01 5.707438374866111858e-02 3.361762783164301549e-02 -8.062531466019444426e-02 1.670457824617990750e-02 -3.447574425924502250e-01 2.416380237052858093e-01 -3.174418638159745565e-02 -1.426528323103823381e-01
-1.597666476797086621e-01 -3.603627247517750092e-03 6.529249728895562821e-02 -5.786755076278546350e-02 -8.605978029907564164e-02 -6.042486393021646168e-02 1.471847415340951926e-01 1.224419938136206976e-01 -2.165413839255244874e-02 -3.309472968271052334e-02 4.007016845177448910e-02 1.596397524630368062e-02 2.805745718162883096e-02 1.209802744562061584e-02 -8.951922958375703454e-02 -2.905288370827354555e-02 5.761744727075641254e-02 7.826539018798486791e-02 -7.980370066800776541e-02 4.431096155060165742e-02 -6.157412096638103377e-02 -1.339897727186140364e-01 5.214307320695429036e-03 1.077896281593480748e-01 2.076575933872348498e-02 -8.928935778695976100e-02 2.978906749560780720e-01 8.016074140138459980e-02 -5.435586145840749783e-02 -3.156347459109909437e-02 2.282648041535173533e-01 7.548381499536649386e-02 1.141113074955573542e-01 8.922305969808420889e-02 9.107580419533332916e-02 -3.281661375895535832e-02 2.004653467440221659e-01 -1.144268816982904786e-02 6.821249266109198628e-02 -2.760329383290189426e-02 1.209496836030442418e-01 -1.229215939088901671e-01 -1.529627963765740895e-01 2.990139912561599195e-02 -7.520084670313879893e-02 1.461767799865777984e-01 -3.393436825216692571e-02 -1.103569201961534380e-02 -4.094536598309772568e-02 -7.914761223344272956e-02 8.591350075675512066e-03 9.719352752908694271e-02 1.173280238818481536e-01 8.261447195217488937e-02 -9.313942369185941594e-02 -6.929266570967144989e-02 -8.684231921385672515e-02 4.469115306312727311e-04 1.754070598179707507e-01 1.985296337706961636e-02 7.570717451654836172e-02 8.017137908389911083e-02 4.725969286774951879e-03 7.827438066193691257e-02
3.445482612687636990e-04 4.174529124901914245e-02 5.380884206676910669e-02 3.671225438075458036e-02 -1.794183379670941797e-02 1.692267799260211980e-01 9.016025967138724395e-02 1.410864667300823772e-01 9.548867101225630427e-02 1.215370633321090875e-02 5.208402969709401836e-02 -2.334392129124740825e-02 2.003543553056573723e-01 -2.042701054787256776e-01 -4.612870877827520560e-02 -1.173248862717180402e-01 3.314893206612092719e-02 -7.594592966895410968e-02 -8.664131556156842717e-02 3.587414184352821084e-02 7.902700851073829469e-02 -9.024448450615939199e-02 1.919656510253551010e-02 -1.707131546511165554e-01 2.028968550961988623e-02 -6.795157034927783168e-02 -1.078179995542335734e-01 7.281537110922574330e-03 -3.884583990930304265e-02 3.673382034964062237e-02 4.187413356987483570e-02 -5.865339608985510253e-03 3.286686861718703112e-02 8.550488054278025662e-02 2.604742044062138134e-02 -3.520501777130637805e-02 6.953256335608988536e-02 9.170791453923056447e-02 5.104404180678612235e-02 -1.278723783021489847e-02 -2.231129789686939480e-01 7.716566103628028084e-02 1.679824970357306213e-01 7.455310581348222054e-02 3.969905465643331494e-02 1.626557260201168531e-01 -2.420829098159847301e-02 -1.066534227854213333e-02 2.515534311793558575e-01 -4.403917872318688365e-02 1.467466154180198656e-01 8.844572919894987117e-02 5.479028002502950301e-02 2.873918379231963846e-02 1.086893685852070857e-01 -5.892779397890708648e-02 -5.525534513855420715e-02 5.311866037397178913e-02 1.988587534365807152e-01 9.512662224166250347e-02 1.083004731470680049e-01 2.263187838506167116e-02 1.379516008426489009e-03 -1.923605353168313103e-01
1.213294945600371794e-01 -2.040212873283292830e-02 -7.068608590578494277e-02 2.659628275838326061e-01 -9.059725970772578019e-02 1.551278583319839754e-01 1.579827175514081083e-01 -1.765272969449308560e-01 7.669316611268646444e-02 -3.096354993424848406e-02 7.811451359790318703e-03 2.404769073453432229e-02 4.115041790113056069e-02 -2.745179376945348637e-01 8.605488251460678695e-02 1.228588609325588776e-01 -3.261616293493823510e-02 7.138067140739791372e-02 6.527721459700761009e-02 -7.990788600741707826e-02 9.025294567624389530e-02 1.690445212210251597e-02 3.145916614525413185e-02 -1.696744099451238941e-01 7.217561024114742263e-02 5.549823320249086533e-02 -1.490828352029789083e-01 -7.830240077514459551e-02 2.630661867933654224e-02 1.977675908471151212e-01 -1.191806344254337652e-02 3.645741067191497070e-02 1.122415974491596802e-01 -1.568636441899736167e-01 1.103534428986532173e-01 1.074307014457456244e-01 -1.207979420158120376e-01 -5.994803921721617024e-02 7.010707382856269654e-02 3.541856213188911140e-02 -5.380072741644794515e-02 1.721160664487722286e-04 1.397386343160975375e-01 -1.060912490794004293e-01 -1.698984639037423860e-01 -1.448425103384962387e-01 -8.911971076641310441e-02 -2.969467399839005248e-02 -2.615078308596958945e-02 -6.937197671047257153e-02 -5.490157203823420318e-02 -5.461204152903845893e-02 -1.716224131374978305e-03 -1.106892378897629883e-02 1.043112135898354026e-01 -7.634557270625186298e-02 -1.023432364606209760e-01 -8.460740893906872062e-02 -4.701721715550512964e-02 -3.769925368385244543e-03 1.309167758756286382e-01 2.407262145598794145e-01 -8.825078972991838577e-02 -1.715948341575723179e-01
-2.330395226327377015e-02 -8.145819836881253856e-03 8.317360914259584043e-03 3.784983645317199774e-02 -2.424902388458523642e-02 -2.412419080411936853e-02 9.182789171550043150e-02 -7.444681630891687718e-02 9.816114983234845714e-02 -9.385674481507861461e-03 1.232654255143299099e-01 -5.568287289760673331e-02 -4.575200691292568948e-03 7.199202096913904884e-03 3.515724317815561994e-02 -8.583751794072359831e-02 4.255148779771171508e-02 -3.304958365575007967e-02 6.135712418470821300e-02 -4.883173110049478932e-02 1.166704793372321360e-03 -1.135798185846154940e-01 -1.213785640038489294e-01 9.772396135891835145e-02 -1.395050625115641652e-03 -1.817984863386245230e-03 3.080195768201629894e-03 2.119557156622534425e-02 -5.471603546171826399e-02 4.099295185183119555e-02 -7.634297092044761701e-02 1.300227339018328876e-01 1.392273143586016393e-01 1.880459440392536763e-01 -8.139096016063308847e-02 -1.287052878099781764e-02 -2.264298270187991083e-02 -9.664604940666970956e-02 -7.651589410599915486e-02 5.945010798006164325e-03 -3.315819842949835339e-02 -3.127686552057957342e-02 2.585861937615821504e-02 -1.541030487938324124e-02 4.257035113510352492e-02 5.042060985952779434e-02 1.927760366053110630e-02 -8.565077931028726443e-02 1.216761973246938411e-01 9.679244935414393902e-02 7.152558159155920914e-02 -2.213006568500996713e-03 9.045154479914604972e-02 3.125358935614063610e-04 -5.130763184653314157e-02 4.175396492913698715e-02 5.952881371170448688e-02 -1.598627970702418827e-02 -6.089073770741795788e-02 2.497172256427718923e-02 -1.252540503449548481e-01 -5.816236994442820774e-02 -1.417584705228297146e-03 -9.674361185643636993e-03
8.656337182073607639e-02 -9.358261604856918381e-02 2.948500182314878898e-02 -1.198949291820077534e-01 -3.325806750459837230e-02 1.413877445902400089e-02 -3.418816302798170781e-02 -1.426303153261216650e-01 1.125968067213500012e-01 2.176823124137734853e-03 -1.275539114400146001e-01 -8.573024034065863941e-02 -1.034288621762839006e-01 2.260414016752691421e-02 7.309166997286796474e-02 1.630092306484409170e-01 5.514500695919676704e-02 -9.240920020476491026e-02 3.695504789971941484e-02 -1.752623490907430359e-02 -8.245533309873917527e-02 1.732994827265351701e-01 -1.686743461800251087e-01 -1.060717362337335185e-01 1.197106991370294922e-02 -1.485925525796109592e-01 -1.026288375207461967e-01 -4.911868624774839986e-02 3.164772617773013719e-02 6.347056430563670359e-02 5.613735420216914990e-02 -4.401252966032948716e-02 -2.199306184778489215e-02 1.827856235830208065e-02 -2.695221376868668986e-02 1.078257867113087409e-01 2.461525024475426718e-02 -2.803146077282256746e-02 1.043711831986158800e-01 1.217938825988278267e-01 2.344536991602706039e-02 4.739592648006542980e-02 8.364366971486675295e-02 -1.381206567332933163e-02 -6.162822093245964861e-02 6.859792496345328006e-02 2.620167423072506177e-02 1.442542088667770304e-02 5.751583180296876430e-02 1.096560816533186794e-02 -1.348795140952467331e-01 3.236869460232136980e-02 8.828568594569846661e-02 8.500510118942573856e-02 -9.362209196474526041e-02 -8.573234994596090619e-02 -2.429322736045838593e-02 6.678383271985216529e-02 -1.325417845551634180e-02 -2.747761520312029179e-02 9.560603381259934197e-03 5.095945060589137515e-02 1.922092539830352054e-01 -5.269007409272730147e-02
3.084019428803732449e-02 1.083989693672719051e-01 8.492405815502854227e-02 5.141772693152860813e-03 -3.115090581900103323e-02 -2.781969278304728330e-02 -2.620833964096017793e-02 4.309113632495380208e-02 -6.233615758791036243e-02 6.927075570460232423e-02 1.621857164601327728e-01 -4.644948586639571775e-02 3.143440261923274165e-02 -9.369799141554065181e-02 -6.734840965758603915e-02 4.032931448188602913e-02 -1.421859718088093194e-01 -1.179975111313486258e-01 -1.295030917216726807e-01 2.259706270799960795e-02 -1.965548709474360112e-01 1.240392710495744344e-01 -1.236018788584361955e-01 -5.058281875244947934e-02 6.421905707320865742e-02 -1.718431105470827336e-01 7.663656045639241632e-02 6.769673917299610932e-02 -6.112842233750049453e-02 4.914997725188832017e-02 1.291449237848213139e-01 1.173822203632906291e-01 1.347007952537576138e-02 -3.322956357115144227e-02 5.198141909880851091e-02 5.200256840817411158e-02 2.453023091319666421e-02 -5.200543811925993631e-02 1.209319053833858987e-01 -7.080020116930821339e-02 -2.601532157249970140e-02 1.833374991641868387e-02 1.624417061076604760e-02 4.132238761163641028e-02 -4.083333989760231514e-02 1.532572726737911339e-01 -1.308194261939068237e-01 5.984936809815692704e-02 1.911229807341113850e-03 -9.403597050817306957e-02 -3.578037449990522333e-03 7.593951773719677389e-02 1.929246357622755037e-01 -9.656480438987622567e-03 2.136023688662185786e-03 -8.316190748367878471e-02 -9.021952128257670900e-02 1.104491878099457813e-01 8.347760011178273487e-02 5.110764729357136771e-02 -8.380213518912630818e-03 -1.140833407933959931e-01 6.284811182990610035e-02 -1.926146713383181802e-02
1.078318542898678428e-01 -5.780904538554595268e-02 -2.633925619275336721e-02 -1.861027278196546869e-02 2.026432238633154789e-02 -1.146364770934712451e-01 6.252626001721194038e-02 -1.373255819349265272e-01 1.429046925727759654e-01 1.821448131187523856e-02 -7.906077986102483246e-02 -1.431739919225625060e-02 7.133945486348435006e-02 -6.963789422608722413e-02 6.529023635042650875e-02 4.645768007997085752e-02 1.938509214818802742e-02 -9.115430581889095996e-02 1.335013978347245403e-02 -5.821827116189638544e-03 -4.963656632742902836e-02 5.263241727847931678e-02 5.570254360891250395e-02 4.982424837429434705e-02 6.033252020865648851e-02 -2.896225587602235252e-01 3.488035263979585160e-02 -7.026201167991674712e-02 6.376752439756713797e-02 1.280200808023980175e-01 2.113715828498053950e-01 -3.841880435646041064e-02 -4.689656326843993916e-02 8.236677085148888522e-02 -1.222342412462388284e-01 -3.745003290331756773e-02 -1.162054152160816173e-01 7.358104325333821027e-02 1.299747475017913323e-01 7.969747525195394755e-02 -5.586428399058863264e-02 3.009333771548894365e-02 1.304518843074037593e-01 -1.410987814850682073e-02 7.532217709215137391e-02 -4.473426172713850651e-02 3.395026610397434280e-02 -4.386193190267688793e-03 3.929580363753349542e-02 -7.445470382384693220e-02 -3.687349698514391649e-02 4.832826869289533721e-03 -6.829556997207036906e-02 1.225102367526300084e-01 -9.489995686153385179e-02 7.738972458625409390e-02 -2.691658968910900715e-02 -4.741539386662951827e-02 -6.785138657707255605e-02 -3.918016561112173252e-02 -2.144477789802253231e-01 3.530746804328178945e-02 7.332180314678554689e-02 -1.327197240583994631e-01
2.159554009090205659e-02 -6.118565857290805821e-02 -1.414558349612141941e-01 -1.286751514715046285e-01 3.741448272333874198e-02 1.659438558555169085e-01 1.019849336662819461e-01 1.081060897309713692e-01 -5.747068703568679326e-02 2.805476419074297637e-02 9.465000257909408909e-02 -9.520726303877587171e-02 -2.175430922004703907e-02 -8.780069243434605875e-02 -2.687086211766366237e-02 8.533740996148744817e-02 -1.357563697690693794e-01 2.403644029455821382e-02 4.939410001925288729e-02 -8.982182791499861152e-02 1.601743046726398778e-01 3.745953304046627935e-02 1.571595176605784794e-01 -3.480268602670846118e-02 -2.518516136658825039e-02 8.643583717841132885e-02 8.119412457415452200e-02 2.032753671633354825e-02 1.546281619037097876e-01 1.276984404117068733e-02 1.669059894263850707e-01 -1.464189287338341083e-01 1.499885645257541256e-01 9.015257553391539669e-02 3.435628971796859249e-02 -8.177881488278500310e-02 9.360260460904384905e-02 9.219295907668105527e-02 6.571040163509262767e-03 5.741080940442350872e-02 -9.469470588056459748e-02 1.188592825004668174e-02 6.898150832500349501e-03 3.375610934213815056e-02 -8.024297177500708256e-02 -8.094645857453612592e-02 -9.898190604820762337e-03 -7.467861083432753011e-02 -1.467074312332836694e-01 -7.389949256430027036e-02 1.237128273235368892e-01 -1.849438524497623235e-02 -7.601374755128161020e-02 3.441019580061345506e-02 -1.556421072271648443e-01 4.085028594516150469e-02 7.815640123607436873e-02 6.012539171524589054e-02 1.616819229255565468e-02 8.603382005995517667e-02 -2.208976390963084402e-01 4.111590090513207729e-02 -7.308634150341895841e-02 -3.497779140975592477e-02
-2.668025976273575434e-02 -9.013354918680885342e-02 -2.144772553582459731e-02 5.205389238026870286e-02 2.718102869998272053e-02 1.319116294544268875e-01 5.444938821605752044e-02 6.912089603553742134e-02 1.109430668188281788e-01 3.080130720217166829e-02 -1.679608423550959032e-02 -5.891248133767676594e-03 3.977046748034050033e-02 -3.231700785273564080e-02 -8.436876371944705688e-02 -3.092520306971729277e-02 -7.733435612338945830e-02 -6.694363246310024163e-02 -6.039203173040941924e-02 1.455894277336204808e-02 2.640557834268740175e-02 3.982209822490709317e-02 -1.946329197921636833e-02 -2.337206604082337491e-01 -7.977201832426424055e-02 4.852862394685165254e-02 1.254898476203186175e-01 -4.769806769814455803e-03 1.910489256900999300e-01 7.715216677390640543e-02 2.329289931880133557e-01 5.283475542014796217e-02 -3.537880876001896907e-02 3.177066883064427749e-02 1.301966880792453374e-01 9.474451325385437050e-02 -8.604247457275071564e-02 1.731495468638836466e-01 -3.336678826688558447e-02 -1.579755044470163294e-01 1.287611509996266224e-01 -1.331491945800655774e-01 5.017113421204216816e-04 9.902977462913169909e-03 -2.972732173334817138e-02 -2.447975376351302010e-02 -3.107898896046544512e-02 -9.046044679583958859e-02 -5.163665052979315821e-03 6.736101627717695772e-02 3.059152028727572803e-02 3.963588730952152112e-02 2.703309469747814178e-02 1.877293632593464781e-02 -6.617760934665997685e-03 -1.515859568163580307e-01 -1.525781601806086574e-01 -3.030062634642479227e-02 1.917415271448837943e-01 2.276441519208341827e-02 6.894180977295724655e-02 2.767526271472205840e-02 -1.008635858364283211e-01 7.720852526297371232e-02
-1.216525976112054208e-01 1.251163800046119212e-01 1.565049919243630960e-01 -1.380967706058846833e-01 4.079388946602111737e-02 -1.525371970822002876e-01 5.893422460109471600e-02 -2.223692640846834656e-02 -6.306737211382675012e-02 -5.524145971507594954e-02 -8.946795132791620156e-03 1.881632454145084872e-03 -1.061370388727923414e-01 9.270956148392688664e-04 -6.551401329993747358e-02 1.456398382864179317e-02 8.384243786400502607e-02 8.949811709947852467e-02 -1.850297125979563639e-02 4.609618230796060090e-02 1.002636763477087190e-01 -6.157564075440991741e-02 -1.714902836463087221e-01 1.451811526152684342e-02 -3.923242623944817042e-02 -2.781380365257267728e-01 7.077232578322169287e-02 -2.106873185702806683e-02 2.416582452643767920e-01 1.135525742486370310e-01 -2.086395887201060451e-01 9.188409800354369050e-02 5.520084240157083211e-02 1.523350428930568068e-03 5.290206157995316905e-02 3.605894166469747475e-02 2.341300980319018996e-02 -5.207987128379846370e-02 6.586984458350149396e-02 3.128741006825131593e-02 -2.598217785609386807e-02 4.370356204745847600e-02 -1.161966052999104451e-02 -3.967284972654956665e-02 1.112352084381037359e-01 -1.514036913926198897e-03 -1.123957661140217307e-01 7.304046024781403468e-02 5.738808479464362761e-02 1.591029590986525188e-01 -5.123379340654538039e-02 9.521309635911615402e-03 6.249589477369479722e-03 -1.391158241454189086e-02 -1.463743298095199555e-02 -1.599785680508533092e-01 1.698964853475391223e-01 -1.455197074340507657e-01 -2.011769243801524165e-02 6.641881193524837301e-02 9.604099783738173635e-02 1.192961310504601219e-01 1.958484026693494140e-01 6.367655712238873278e-02
1.610259658829591989e-01 2.244433930938943833e-01 -4.802313862684014396e-03 -7.280119585685251860e-02 -4.589945792555429060e-02 2.487713934644641967e-02 -1.655906809153577432e-03 1.090257570041457957e-01 -4.685887699666690942e-02 5.082266019245960942e-02 8.382365505330992284e-02 7.481292793793346829e-02 2.128177013509494064e-02 1.347285584448849188e-02 -9.377055575773575458e-02 2.805852813012310945e-02 8.183826227137706161e-04 -7.590434659609687773e-02 -2.941853461945918152e-02 -3.198733439547962049e-02 -5.781136687239283797e-03 -1.055499326717280160e-02 1.540467055376182337e-02 -1.390488324814507549e-02 6.671341701183786110e-02 -2.462622510697318884e-02 3.255966304695966269e-03 -8.593770144377635423e-02 1.471135211642738971e-01 -1.907389541842819530e-02 8.985359017558205985e-02 8.528344775712090597e-02 -2.386223994878049551e-02 5.955876423730209479e-02 -7.985143073463714380e-02 -1.439083244939251029e-02 -1.119332077459291308e-01 -1.108883618373257968e-01 -5.000878711800163523e-02 -3.125824932203870310e-02 4.138594994078786948e-02 -5.735894258050332900e-02 1.840095209746490240e-02 -1.225177079894472325e-02 3.062255918667717083e-02 -4.626532812574783021e-02 1.116433582983588080e-01 1.412814891273879714e-01 -1.388328514882974929e-01 -1.573598593256716471e-01 5.823129245415901295e-02 3.160216483504414003e-02 -4.499872728581172376e-02 -7.124993156143513695e-02 -3.715819805577581791e-02 2.158647384858312923e-02 3.014242389521256185e-02 -1.014294527535360285e-01 -1.633705658792598825e-02 8.338383010885622171e-02 4.294810667479967425e-02 -2.614154644000425964e-01 -1.214452705680009598e-01 -1.022375243542164719e-01
-1.755223539200096439e-01 1.764470846755830657e-02 9.183449041915359157e-02 -7.071024373617626479e-02 1.458410091319188237e-02 1.797316112489586934e-02 -8.756653696958120736e-02 -1.790655483806491768e-02 -3.948424387796183044e-02 4.764776724586646244e-05 1.402099138467808870e-01 -2.842010339043800349e-02 1.862728927640725299e-02 1.533145995467878886e-01 -3.357610432669540235e-02 1.199430886042161665e-01 -2.765783089360298111e-02 -1.114030631134649701e-01 -3.834121444282776597e-02 -1.829489928820188932e-02 -5.876134775949137107e-02 7.560657605842528717e-02 3.187270858312404864e-02 -1.295355051024871529e-01 2.527525187682086796e-02 -1.913611827388716768e-01 1.029466096545794268e-01 -5.481915110415917086e-02 -2.109126919522527621e-01 3.610352802362268299e-02 -1.774970399903116891e-02 1.511549890969737797e-01 -7.473512802899912044e-02 -1.106174293523134317e-01 4.289795158668598118e-02 1.886661259284945491e-01 3.395611672055647012e-02 -1.131273195287332695e-01 7.337518867788057897e-02 -2.412805739478081080e-01 -2.510515330555720265e-02 8.771999135994780483e-03 4.959907461090689446e-02 8.275492886461630060e-02 6.447549447272239720e-02 -2.658813298521596653e-03 -4.095828416969651137e-02 1.084782454796834328e-01 2.590520164951265469e-02 1.568978039163097804e-01 5.617416851587033605e-02 8.991555566949924541e-03 -5.141034817347159280e-02 3.996834921050637646e-02 2.336287649624730484e-02 6.250688337845877740e-02 -5.518019400492205073e-02 1.129091775243080270e-01 1.044451528634802867e-01 4.675506024591496307e-02 -4.518377219694153651e-02 4.882760750908148907e-03 -5.879922530920318052e-02 3.557980989649268955e-02
1.469610532780372125e-01 -7.585246818240015676e-02 -9.229786063084574263e-03 1.415885760224737736e-02 -1.850744221133185374e-02 7.978156180330395197e-02 4.226718007655912851e-02 2.968787285337488521e-02 9.437292942018193909e-02 -2.627780010573488659e-02 6.614221035896005775e-03 2.636671911059528754e-03 1.472231824343028517e-01 -1.258902567865347044e-01 7.487850629337426678e-02 -1.283217880213642914e-01 1.316518696224976970e-01 1.069119853643138718e-01 9.481208808631685914e-02 -7.355090132428639127e-02 1.350762975291004142e-01 -5.911924304715340805e-02 -9.161838698878202458e-02 -1.589180390810321320e-03 -6.047936190441958321e-02 3.335744439324168226e-02 1.099141923688008865e-01 -9.213522976278726295e-02 3.738492665818338861e-02 2.060824096489765819e-02 -1.868719409728707426e-01 -5.663264170728739277e-02 8.681039151981057023e-02 4.081040807570182616e-02 3.869242746930093291e-02 1.767643041005910465e-02 7.908565757597690871e-02 5.201850112814602328e-02 8.046203643547298820e-03 -6.387687224611884873e-02 -4.338366512366167993e-02 -1.489194882767559680e-01 8.661077440137913974e-02 -3.373454203745537144e-02 -1.004930256590350207e-01 1.684750645010788320e-02 -3.065810488729973221e-02 -3.980256583219409644e-02 2.595921670842309126e-02 3.779293792077765418e-02 -6.928209872912123937e-03 5.904023013500277889e-02 6.247135352262028762e-02 -4.831064044787231060e-02 -9.813812876876376601e-02 1.114880596675549423e-01 3.626948187367235593e-02 -1.449559199334884418e-01 -1.104184973984646406e-01 4.573358079864473652e-02 -1.045297766433823800e-01 8.657324944072497530e-02 -2.175607114098147832e-01 -9.918479753431646076e-03
