-6.068573668541812349e-01 -4.299384000392242333e-01 6.942823030527278672e-02 2.394971764451630028e-02 5.035530515856512235e-01 -3.989821158265923762e-01 1.279577901147248009e-01 -3.729079694452160088e-02 -6.103012804753402132e-02 -6.078897025325371434e-02 -2.377852364187544101e-02 -9.076696829313614379e-02 1.940074962901842948e-02 -8.497856557501314023e-02 -2.960582541220137531e-01 1.237814623156600485e-01 -1.886146318285817150e-02 -7.883319396488513986e-02 2.133774431516712589e-01 6.284193419257939617e-01 2.959229558775247626e-01 1.212048771991197788e-01 -3.025962310454239357e-01 -9.171370082762275722e-01 -2.103343287665594974e-01 -2.707504289947190723e-01 3.244574422221592758e-01 -5.847691947171284044e-01 4.072936315749518810e-02 -3.632857496071021375e-01 -7.655026510742657386e-01 9.548316398283629436e-01 4.955674667750071399e-02 4.690198583695316392e-01 -1.504201873219561947e-01 -1.522127273113502988e-01 1.338958899270243919e-01 -2.370205982449992144e-01 -7.318324995398650668e-01 -1.186161557365874031e-01 -4.894259798084094615e-01 2.218924617084487572e-02 -2.074243569676084420e-01 2.733221264446377141e-01 2.714268482774247482e-01 2.189715666139702699e-01 -4.275825005105817755e-01 5.539633222054847206e-01 -4.310545500528595864e-01 3.353634440627359381e-02 3.264727034049108578e-01 -1.134003816949139959e-01 -1.999281475959511500e-01 5.086009802221170828e-01 -5.278370645111605253e-01 1.247652984595800513e-01 2.416366238232234842e-01 6.809304746518304863e-02 2.461714251589704194e-01 -4.364244007794920027e-02 -1.337656975847726359e-01 1.738795082642451695e-01 1.146931761604504801e-01 6.437527377144851570e-01
-3.189234224226673575e-01 -3.107314735186625931e-01 6.895272727100432153e-01 1.135462841876810486e-01 3.732586863955184020e-01 -5.410852452194593321e-01 -6.958540696301829601e-03 6.190607693706240422e-01 -1.590881283081308981e-02 -7.158973745693025803e-02 -6.754862190239864159e-03 4.859518765216908759e-02 -1.218953855902204925e-01 -2.614619085594586667e-01 3.125507720597706651e-01 7.062539445580848230e-02 6.734717271413266301e-03 -2.964172422490704006e-01 3.730464634269923252e-01 5.668265107842220818e-01 4.346213982909177265e-01 -7.752299536357186438e-02 -1.347675949578067411e-01 -6.398458765950713056e-01 1.412170707454238339e-01 -1.074720698774321304e-01 3.404351103072831425e-02 -5.511524161595717786e-01 -4.773430309006539835e-02 -3.951552578548579997e-01 -2.453932732682108375e-01 6.798376323512482777e-01 -5.316766586758973900e-02 1.736506721216847385e-03 4.651396806982043830e-01 -1.361665532724759264e-01 -1.095762961201086211e-01 2.364067600532994140e-01 -4.618499679375252520e-01 -3.615671501872551596e-01 -9.530629930581299702e-02 -1.117439691205946578e-01 -2.865041153164297749e-01 5.628466669088226515e-02 1.048957158425594810e-01 1.866674423758553636e-01 -5.478568007634109643e-02 -3.340646988452988797e-02 -5.538870454136927135e-01 -2.352419891104475802e-01 -1.911717130439991863e-01 3.028896483990146660e-01 4.053803180481100471e-02 -4.828789590015927086e-02 -2.371219504563170377e-01 -4.217543493487634770e-02 1.662415447538452828e-01 1.158462209148062722e-01 -1.944893900953660604e-01 -1.264505514093814675e-01 4.742379533254592605e-01 -3.429966580282785976e-02 -9.056405967091958609e-03 -3.402332988148879522e-01
-2.430097393818614337e-02 -1.564861228335746035e-01 -1.176959418847143418e-01 8.771420296530736682e-02 1.928992685033983079e-01 -2.759189203818572800e-01 -3.978268397942799454e-03 5.227113969463596799e-02 1.194960789320934635e-01 5.905368206962523930e-02 6.310226833474552599e-02 4.640470370831756980e-02 -9.532999446345905015e-02 -6.158616684356668647e-02 1.108449408343001874e-01 -5.945046372793951622e-02 1.439271184023971362e-01 1.507037412615850301e-02 2.275526055890088606e-01 4.905446161054332066e-01 4.659773895798380999e-02 1.700344317740328792e-01 -1.547240010625877682e-01 -2.597505328141641590e-01 -2.320344800085166470e-01 -1.901115396630101428e-01 1.436495012803456761e-01 -2.023085825426252926e-01 -5.255361034905361647e-03 -1.361492053838336269e-01 1.069062257784100523e-01 -2.367523305581011039e-02 -1.813381221527348430e-01 1.499859990913003371e-01 -2.550480568670812631e-02 5.094999633565614611e-02 3.258971859999151583e-03 -2.583137197111101679e-02 -1.670095249449219943e-01 -2.186882296709256046e-01 -5.993457249007855953e-02 -3.847255958315436153e-02 1.823101389637766245e-01 6.364129167129463360e-02 1.971174394178902556e-01 2.208019642538958660e-01 -9.599439477244396668e-02 -9.961376295221661958e-02 -8.817952421316403722e-02 -2.777531241045795296e-01 -3.716496425575998436e-02 5.118953612149960974e-02 3.096218242457095607e-03 -1.609381128052982113e-01 -4.994278317691398794e-03 5.280792264689305321e-02 -1.693153756489040318e-01 2.784072294903610148e-02 1.778866745501168911e-02 -1.586921930936490144e-01 1.740081259521416845e-01 1.024990357142009367e-01 -4.182070401775409701e-02 3.788158716340239707e-01
6.154989402772271731e-03 -2.947101281384223448e-01 6.353773143660808309e-02 1.293608290628093030e-02 -3.315390112907436876e-02 6.858403059113668543e-02 5.031529923979512903e-02 -1.950718750382730016e-01 1.814411564553630382e-02 1.908507730176768058e-01 -5.096018731751442155e-02 1.005243971844941159e-01 1.148110054408697095e-01 4.430463971429336040e-02 -7.881090196703659234e-02 -2.241327070248827769e-01 -3.385403869869317139e-03 5.604892498760070257e-02 4.419390682224478423e-02 4.953519551760580952e-02 -1.310453503348734394e-01 -3.125370163832805748e-01 -2.047826876985382044e-02 -5.725836138130973446e-02 -1.342513349673895851e-01 1.688581917443260638e-01 -1.200545846281441016e-02 1.190051967534407756e-02 7.207045370962027186e-02 -1.244740223766919313e-02 8.827952662934798744e-02 6.414972073121873175e-02 -2.128046141263397958e-02 1.293723159994668581e-01 -7.599259243529435381e-02 -9.317399867881281939e-02 -1.109375623389108681e-02 -6.622910975856322047e-02 -1.904593695263896019e-02 2.142305629752182250e-01 3.813167112603307179e-02 -2.324315340165819185e-02 3.030148495186374066e-02 1.569649964047720864e-02 1.931484879701724292e-02 -1.263689053874523793e-01 2.090696156410262047e-02 -1.404308055118950460e-01 3.619039968496270965e-02 1.226029880290910867e-01 3.666528688042636208e-02 -2.383002170549169962e-02 -5.789929802724196051e-02 8.662076925700129548e-02 -1.749723214725687481e-02 -2.887012090861909019e-01 -3.520150734683661908e-01 -7.634082644994120981e-02 -1.587168854632051151e-02 3.545738446905778996e-01 -1.427400998025506740e-01 -4.011169596264900494e-02 7.170492055029700773e-02 -6.082893730092698431e-02
5.045833528869633072e-02 -6.839471381160067143e-02 1.803016859039653086e-01 1.288978332750041200e-01 9.983123836832875908e-02 1.923922874712709896e-01 -1.203528600297867901e-01 6.361630313704096616e-03 -1.744058344622368695e-01 9.392874486861074734e-02 -6.458869889490946592e-02 -1.237302566964156442e-01 7.028713481155150766e-02 2.586612835761784718e-03 -1.513290492531013665e-01 -4.666994205612278596e-02 1.594591898957672393e-01 1.144233174118304136e-01 -3.998204607055029502e-03 -3.523479156781186838e-02 -6.773737645622547598e-02 1.050317700754744565e-01 2.713979297054734952e-01 -2.034063278874782832e-02 -4.624730306640664063e-02 1.555397009040666023e-01 2.575433656930296022e-01 -6.474937474194946384e-03 3.098248030806937531e-02 1.672549747610492521e-02 -2.148915791179685161e-02 -7.141058506518091487e-02 -2.814646513135057523e-02 4.504142148612354235e-02 2.341688127789351426e-02 -5.851102797839204811e-02 7.656538576592997365e-03 -1.309394922187873123e-02 -2.236767629057676357e-02 5.013737012997562109e-02 1.688544545216270551e-02 6.942843491656672250e-02 -1.886830157494947535e-01 -9.820252742597374018e-03 -1.837623708433847730e-02 1.984949280902668922e-02 -5.457327343354329702e-02 -2.334835921867715602e-01 -3.781517750113964904e-02 -8.925733844736548350e-02 5.622157651226029895e-02 1.387700542178066029e-02 4.006257442872591251e-02 -3.420153233623359629e-02 -1.509246347356502094e-01 1.108727094843847683e-01 1.630925828303835534e-01 9.024879248033028378e-02 8.590572498307032234e-02 -3.193840720004538225e-01 4.229537735350548389e-02 -2.078451496363679374e-01 -9.523023827093704541e-03 1.391691293334072765e-01
2.517907434464898841e-01 -2.231992502078507801e-01 1.677957105433100504e-01 1.408668579640900698e-01 8.601366444341655704e-02 -8.742336001756442765e-02 -1.824853753860447847e-01 4.931406375431142686e-01 -2.593325503339769522e-01 -4.039702999129520661e-02 -1.246675284270330475e-01 1.747082251503294381e-01 9.177202396519021366e-03 -1.331452822258277213e-01 -1.557986201894946410e-01 1.059204096462468686e-01 -1.046691787350902125e-01 -1.297188391592680456e-01 1.638451872639990203e-01 1.190309065833371344e-01 3.092579407611542597e-01 1.415675597608521685e-01 -2.630134217693428506e-02 -6.354387231846643502e-02 1.595829306049930396e-01 -2.095171176505459532e-01 2.393074916620046427e-02 -1.019474729670591800e-01 -1.186057254975754066e-01 -2.448218995648562823e-01 -1.468727604632429351e-01 9.743318091417475790e-02 3.051855544414110513e-02 -5.115106511421684682e-02 3.367670583771572024e-01 -2.889662737762219158e-01 -2.178427248028054139e-02 3.792913710894697532e-01 -1.089867228301952262e-01 5.234861199810858338e-03 -3.366298369312730604e-02 -5.192495960641105301e-02 2.241213170591492554e-01 -3.310331316556971992e-02 -4.336976462158414342e-02 1.508319702581957522e-01 -3.105048331333168724e-02 -5.696198506367978337e-03 -1.040122509365403181e-01 -2.803105092798296449e-01 -1.531458104407139031e-01 -8.196646101635238213e-02 1.634476847461158455e-01 -2.066688965203108685e-01 -1.470959099096486034e-01 -3.013687694516811733e-01 5.823590086600002359e-03 1.316206669540942731e-01 -1.355573465500011787e-01 -3.938294563904458367e-02 7.355578753437097550e-02 -2.026551842332293130e-01 1.243632159086100093e-02 -7.103768886762995560e-02
-8.261967038035413630e-03 -1.115618733920956812e-01 7.998941654525784650e-02 3.211111281362528935e-02 1.060163794956992811e-01 2.788422979912068278e-02 1.501982080553332377e-01 3.608206383767544739e-02 -5.371627245316509206e-04 -5.169367112489021282e-02 -3.003833528433662997e-02 -2.692771118846607262e-02 9.580258974840194508e-02 -1.592103830510811779e-01 -2.808705701825227052e-01 7.457772955176648899e-02 2.503273192682570550e-02 3.961093823025849114e-02 1.409595934682716673e-03 -2.170322783157611068e-01 4.859315501046411467e-02 4.698128600130604959e-02 -1.783874811488815951e-02 2.543959519987813375e-02 3.529354155318145669e-01 5.767110794984587480e-02 -2.622204473905946354e-01 -6.320825948235775024e-03 7.833874025256185036e-02 -4.237415088888026038e-02 1.863296117732136659e-01 -2.400099645234867254e-02 -8.125619081611595851e-02 -8.592243713347051670e-02 5.517180785090790122e-03 1.998950967752906316e-01 -6.190163714729986222e-02 -4.885082420462824940e-03 3.668132659588913685e-02 -2.442597796700652843e-02 -2.160283398233763322e-02 -1.085264196977467864e-02 2.751713594177943034e-01 -2.920302195952319269e-02 -7.057981487830777834e-02 -1.013206384750675315e-01 2.330988979973364419e-02 5.191625433772578679e-03 -8.650885543798539357e-02 3.297661253678950410e-02 1.376352258439297316e-01 -6.933352866044879825e-02 1.683583006777322408e-02 7.232385475692380480e-03 -1.516776985489524388e-01 8.654128374312300420e-02 1.498624725116884555e-02 -2.954659117192303536e-02 7.361824998283605925e-02 3.555606024357654566e-03 1.535126718172600824e-01 -2.016393836131391837e-01 -3.611640608167528653e-03 -3.489381211202517014e-02
1.222804415939850869e-01 2.369231271801008551e-02 4.705774880773142682e-02 1.533896523689598848e-02 -3.372608409684185043e-02 1.088357446265026812e-01 2.433146722484341024e-02 1.002361564496245978e-02 -1.146292057086301663e-01 1.709785942357651967e-01 -9.750590278046478154e-02 5.443031226049041549e-02 7.218544794628606320e-02 -2.030762772428699181e-01 -9.375617581748778295e-02 7.608518478420399356e-02 1.602777220905406419e-01 -2.784150069928869112e-02 -9.572808103567578830e-02 7.094428607263177089e-02 5.473970434494666859e-02 -7.288659632526395260e-02 1.188311317707508308e-01 1.428837631681173503e-02 2.406086594841219950e-01 1.979703814758242975e-01 6.701260063210218165e-02 -9.420416272891500228e-03 6.652686841107983973e-02 -1.928459995041074959e-02 2.280515327305284237e-02 1.867953790983105031e-02 -1.677734611450207580e-01 2.177027006788775365e-01 -1.094412654750892971e-01 -3.045085339389674503e-02 1.120172920002581590e-02 -6.454063684595549204e-04 -3.049418251664354641e-03 -7.431624646755123631e-02 5.071223688931696984e-03 -1.246754973838991032e-01 -1.188611678493949574e-02 -1.301531574793321488e-01 -3.121288057365559018e-02 -6.374291828426817408e-02 4.284480187299270770e-02 7.781061873357383862e-02 2.497059605207685995e-01 1.334309358343746810e-01 -4.022551257635760547e-02 8.109107931175119077e-02 -6.359592478259039339e-02 -4.846149106422691956e-03 1.291232393699720260e-01 3.909524140189844094e-02 8.147153760852807181e-02 -2.913219700628473519e-02 1.241310449302413382e-01 -1.155570467520956601e-01 -1.594383612062006406e-01 9.377333561637385406e-02 1.210035043552772638e-01 -6.493108510493836305e-02
-1.753583932559089620e-01 -5.228914095595087880e-02 -4.372134259421682489e-02 -3.475035949884652114e-02 -2.279844175393726594e-02 3.105430716898339907e-03 -1.222220888853022339e-02 6.499550478317173141e-02 1.917454908624264057e-02 3.453852829193748003e-02 -1.047237528705685233e-01 -1.091442568196720753e-01 -1.923359674886838261e-02 -7.446485269841648935e-02 9.984259308080520312e-02 -1.094202935663564774e-01 7.655526888309499567e-02 -5.318629675388573952e-02 2.792731550952338299e-02 -7.667127963272584237e-03 -7.774527686064504339e-02 3.099176087279781888e-01 1.634932421893976195e-01 6.376252575914156430e-03 1.821679702301977066e-01 -2.922451321337446190e-03 -2.275203704364145985e-01 1.666716920203390948e-02 -1.304302993846188918e-01 -1.564486282777738380e-01 -7.587179296682747265e-02 -8.858283725377034956e-02 3.188276340944717208e-02 2.102053393295222339e-01 9.203580013435899362e-03 -1.338340679502815489e-01 2.782578991371078420e-02 4.365608306568782154e-02 -4.267538435997201424e-03 6.057058054501706507e-02 -5.360790886451425458e-02 1.729163173911432705e-01 4.404290284079000195e-02 -5.797499079584862713e-02 1.357507582901494418e-03 4.333058659432471177e-02 7.370932814219632867e-02 -1.237092019757300848e-01 -4.443329096957702312e-02 7.767927080245928817e-02 -1.486231050226640982e-01 -2.201225884773795882e-01 4.288392708228131595e-02 7.804267574174349187e-02 -7.700541929342609448e-02 -1.572690021563930840e-01 1.385994602145518007e-01 -7.774697966471294519e-02 -1.040894637760763908e-01 7.026533232607011514e-02 2.024008301285035449e-01 7.314616047227845419e-02 1.078752553141467813e-01 -1.406189867442090777e-02
5.334014326874835649e-02 3.107652858190966191e-02 1.769549639604245383e-02 1.355025855981012353e-03 -1.463203470729131095e-01 3.670075254729344982e-02 7.290117925982418645e-02 1.169211389697208114e-01 -1.892611292563481096e-01 1.063907112033881802e-01 4.244010124784085985e-02 3.584392558359426190e-02 9.237049648681154579e-02 -2.069156567201454189e-01 -8.091905028063320349e-02 4.121461568444844542e-02 -8.423753129011783691e-02 -6.711714463641930972e-02 7.347706782218611787e-02 7.808469034317244706e-02 1.181571708059684922e-01 -5.406738812531087374e-02 -7.514441412405968579e-02 6.958807763879286401e-02 -1.035299817806104999e-01 -3.452799479485921946e-02 -6.601004591558441714e-02 3.513644890792503445e-02 -1.766588948218967767e-02 -4.495383903828334589e-03 -2.072604768115087620e-02 -2.645873706094011707e-02 -1.238675758955577327e-01 5.240341361733255598e-02 1.072713581375703273e-01 3.179939346944214984e-01 -1.193144183551135031e-02 1.186762080437366723e-01 8.146919581212858086e-03 1.166363730428445211e-01 -6.636200393499520900e-02 1.681907363786395715e-01 -1.352385468463792040e-01 -1.749627247899621652e-01 -1.040720773889336481e-01 -9.650657623095278137e-02 4.631228401675356598e-02 -3.582270420010095525e-03 -8.181644970125195870e-02 1.094806598966617181e-02 -1.412653559053364538e-01 1.147330409967870363e-01 -5.105240543086306433e-03 2.587061034790428052e-02 -1.381535346541760412e-01 3.754911587542244383e-02 -2.367555398900088315e-01 -4.375883052110454696e-02 -1.882696038892653634e-01 -1.485036493722520778e-01 -1.785100087402539254e-02 -1.593590033500080078e-02 -1.374945228957651366e-01 1.344552975182094767e-01
2.156677027999400614e-02 2.918307341346257355e-02 2.829099530311949585e-03 3.973630047992031400e-02 -9.363084544000205289e-02 -6.584725744448108320e-02 1.495076915638969273e-01 -7.177824196778187504e-02 -2.049710150970646405e-01 -7.395685832001033799e-02 3.045348538722979573e-02 -9.611737333798316130e-02 -3.905644583632264522e-02 1.500685771674044877e-01 -1.298652831519775050e-02 -4.619635645291710752e-02 2.420879377321245307e-01 6.879966042215218680e-02 -4.205152856204802392e-02 6.840189233846082073e-02 -8.181530173718515320e-02 -8.344748360059092707e-03 2.480272317338029844e-02 5.546422839629697003e-03 1.134482663856226509e-01 -3.688237283073249329e-02 1.543009976620643153e-01 1.041377743218696410e-02 3.898231471969121602e-03 -5.062961195443460398e-03 6.135323881341040592e-02 1.065131445023131396e-01 -6.742702604800523969e-02 3.025456419324531673e-02 -1.339615112178733393e-02 -1.516812436295401356e-01 1.654765940449079986e-01 -1.553286579246799803e-01 -3.152489831133291343e-02 6.267783150740320608e-02 -3.003550519725984788e-02 -7.451456019638340311e-02 1.864292054988721248e-01 2.737969147634704281e-02 2.191096350311609042e-01 1.476544913942993420e-01 -4.149604421330076870e-02 4.274503699404224449e-02 -3.842358014626864882e-02 -4.137024957816187731e-02 4.942234894905254278e-02 -6.359991547483997976e-02 1.001068680730846788e-02 -7.316501362370556039e-02 -8.522775864353228370e-02 -6.163742716899701934e-02 -3.230063066966017138e-02 2.681261968228105391e-02 3.873610448274419915e-02 -7.014038728657042907e-03 -5.242945556920580036e-02 5.550218625922256205e-02 2.191294419020179893e-02 -9.090148066947416339e-02
-1.697433945348656922e-02 8.574748222886940940e-02 2.555332929776123196e-02 -4.667960194465795021e-02 -5.825764272173301894e-02 -1.313367413222626436e-02 -1.224120835175294963e-01 -1.322323750772595730e-01 -6.627444446119820642e-02 9.497455348755710902e-02 3.178245544830781560e-02 -3.094293310158217208e-02 6.913848565091873510e-02 -4.889575971047081110e-02 4.527435672677447565e-02 6.961646847744208666e-02 6.463679153348975831e-03 1.043370291798530330e-01 -4.336841685890945042e-02 6.685628767993284649e-02 -5.370828894527369252e-02 3.937927808125191859e-02 3.629566015817088653e-02 1.082370962192451443e-02 -1.165893404256204274e-01 -3.583776260767976285e-02 -6.554776118432520393e-02 1.604668726915774862e-02 -5.862023551307928015e-02 7.738722114716983791e-02 1.311784817399958281e-01 4.651330867373540401e-02 1.137230655490145811e-03 1.853119942440371176e-02 -3.993686339519938316e-02 4.467898694834209622e-02 -2.854120696175449154e-02 -5.358411653238844691e-02 4.939606514160144179e-03 5.512471721739415492e-02 -3.352297115076594697e-02 -6.172505131643018367e-02 -8.517372857840664613e-02 -8.787458328526150109e-02 1.524859685004782417e-01 4.070984684441774498e-02 -2.938420383744109673e-02 -5.114462221369507622e-02 -4.233883948850472589e-02 5.563340822151287973e-02 -6.383260454948339047e-02 -6.045617948422257054e-02 -4.354620975075224054e-02 1.487262365010734097e-02 -5.937710267714327306e-02 6.017781417078815753e-02 -3.729848452646015999e-02 -1.285998383074959429e-02 1.553906561170177170e-01 -1.777918713040258988e-02 -5.798927893120590926e-02 3.550557263477387843e-02 6.928919634728328281e-02 1.194407484299712420e-02
7.951946889468531482e-03 -8.306398312429155717e-02 -4.356873868516503157e-02 -6.685477124523470094e-02 2.203763701020567192e-02 -3.046562431552532826e-02 1.114872682692207295e-01 -8.876419204811890340e-02 1.762775673928644038e-01 5.483877522839727958e-02 -1.117831710056889638e-01 8.358321758777821631e-02 5.032207587565665219e-02 4.916889966247710991e-02 6.778256304617656658e-02 -3.377828353143828843e-02 9.380656144367624516e-02 -3.770109702479319119e-02 -2.119232648190124899e-02 -1.157965869644286827e-01 1.348438747662810333e-03 1.652381657195959100e-02 -6.968665247338351465e-02 -4.482416185436959022e-02 3.271688177812472759e-02 -1.763502825398074320e-02 1.122763799305714037e-02 2.697304693780710051e-04 -8.648689833622756618e-02 3.010601501739668378e-03 -7.278022724877514227e-02 6.488773773322259290e-03 -5.198229682362988380e-02 -6.488978374293251361e-02 -3.292903408024474426e-02 -5.765153739734022592e-02 -9.125990425158983510e-02 7.653960312009870648e-02 7.471140712817428593e-03 -1.153021622939560259e-01 1.409666962074544380e-02 -1.781844634291830654e-01 2.494667500025584544e-02 1.778287375089040723e-01 9.074998867894303045e-02 -1.016771223162658971e-01 -5.684695516040848967e-02 2.222693011726826345e-02 5.047701817620225961e-02 -1.540372790529326644e-02 7.433973054903202093e-02 1.375272552418132718e-02 1.467139354099864512e-01 -5.898055120362084847e-02 9.060072845139224840e-02 -1.070097206668668560e-01 4.763982854587987814e-02 9.070933885214904624e-02 2.022358183398091924e-01 -9.117342486457237494e-02 -3.659667599319893754e-03 -1.587994105668222300e-01 4.289889713425532741e-02 -7.444580940577155345e-03
-1.480670068185058197e-01 -5.603772991787516616e-02 -7.251770601066169497e-02 7.693066159258843406e-02 -1.295337775338660860e-02 -3.268643385252986699e-02 1.745698348208107875e-01 7.988358855391881549e-03 -9.269382982824020401e-02 7.164171167086508252e-02 1.037837211051420988e-01 -7.149062483642992794e-02 -3.768164078998358785e-02 2.849244216081825432e-02 5.725865276123925235e-02 1.127893119349609174e-01 7.920046182367766752e-02 8.244414100685799884e-02 -4.325212661068186804e-02 -6.995576918704025926e-02 1.656890768752700485e-02 1.712084720835605270e-02 -1.430839301162092625e-01 3.736574836195132726e-02 8.139170010804101796e-02 1.378257361428057368e-02 -3.867315974161548292e-02 1.224789421262992804e-02 1.310086067988342449e-02 1.149296939981509363e-01 -2.898126904878879726e-03 -7.998144849811286705e-02 1.164064402760716793e-01 -2.463141185385362697e-01 2.429497849041392307e-02 -3.187798037799258188e-01 -4.681676769059288368e-02 -8.745687860351902820e-02 -1.795596873600771581e-02 1.081396917276477524e-03 -1.056337447773880549e-02 5.800503894515557368e-02 -6.932619405428039339e-02 7.186352454680836055e-02 -9.154036877404261863e-02 -2.932527554704793260e-02 -7.004903284491950655e-02 2.592519628370846749e-02 4.718455406311439920e-02 -1.102806834427338123e-01 -1.326012462149954267e-02 -4.381441685889015530e-02 9.796619924275871971e-02 -5.268500267461354025e-02 3.592867466425218870e-02 -3.739316664336721219e-02 6.740921581585838929e-02 1.083524094789521802e-01 -1.015350015065744210e-01 7.504930783291403895e-02 -4.786261052832353757e-02 -5.122354045951318241e-02 8.033383907197443052e-02 1.519528820315255990e-01
-3.664401348893939203e-02 -4.045058694246445041e-02 -4.656965147749327766e-02 1.215854202819482005e-01 1.478464497234789343e-01 -2.521196690106380575e-02 1.021211466647256594e-01 -4.335323777609698115e-02 -6.471785147861663923e-02 1.881051428369637235e-02 -1.078791597998265683e-01 1.210709558682470238e-01 -3.015638893318721425e-02 5.700435198762048711e-02 1.234979437900468047e-01 -5.137367931765104284e-02 4.138783601054882300e-02 -7.494063770893406862e-02 -2.176738845354196303e-02 -1.216796079658884477e-01 5.276659955616758851e-02 5.253935207892231583e-03 -1.232084195697322020e-02 2.624154707249957974e-02 -7.612809385404875617e-02 2.036694981141979471e-02 -9.707544699639064634e-02 -3.255778457410659493e-02 1.184152174091283455e-01 9.732341528583099421e-02 3.111709849293001640e-03 -9.877327224055885372e-04 -4.997621563783179871e-02 -1.245345722409062633e-01 3.463988963158389639e-02 -1.375898231944464867e-01 1.769526897226458007e-01 4.386287068556091878e-02 5.350472558390559352e-02 -6.380955061891362481e-03 1.043199047304205207e-01 1.336058474492581305e-01 -9.558636948964142899e-02 -1.326070890473418640e-01 1.311637591578935502e-01 4.211821602332011666e-02 2.012653202270309541e-02 -2.090745811169195459e-02 1.663860108202053212e-02 -7.997518353066473962e-02 2.136043070358226159e-01 -3.973320400368951510e-02 -1.776047145976039077e-01 -8.048636175155347849e-02 -1.837896996702314822e-01 -5.174006361948826210e-02 4.135812067319131341e-02 -8.256985854979473349e-02 7.345128371254640125e-03 -1.093185379730763213e-01 -1.079877460530338784e-01 1.089753669220915044e-01 -4.924561383631632233e-02 1.224999938554245521e-01
-5.493860155124508093e-02 -6.900096705394953567e-02 -1.021611375661179433e-01 -3.061902825465813091e-02 5.645103667454081514e-02 -1.791095757559246215e-01 -2.768157567600729868e-02 -7.479907381731761007e-02 -7.407212867097959230e-02 -1.745575618922856065e-01 1.344235524203891419e-01 5.063900624449851201e-02 7.076121544531696617e-02 1.028010725953951154e-02 1.235027597293291979e-01 -2.626278628725757860e-02 -1.495815956104063101e-02 -4.701794237408040561e-02 -9.900324469436962149e-02 -3.312303721253171546e-02 -7.316337312133294919e-03 1.038689340660411270e-01 1.028181847981857466e-01 4.328572362867527668e-02 -9.500892577725235377e-02 7.431515588736102920e-03 -1.829530033389035470e-01 1.667844638496041552e-03 -7.757404199186669624e-02 -1.765306121224111957e-01 1.521226389953885261e-01 1.016909229193949799e-01 -4.347624791275672002e-02 -1.260598102745737747e-01 -1.272261320001320632e-02 3.417759996018189615e-03 -8.494469650913687164e-02 2.187984130398986649e-01 5.495753431409581419e-02 1.898242070990899949e-02 7.181486816330236167e-02 -6.718850316910186197e-04 -2.642102717011880486e-01 -1.350110179784483055e-01 2.292272931990552987e-01 -9.685033129314568612e-02 8.917484636722176894e-02 3.858671260688732729e-02 -5.823249743578590848e-02 3.079214320862494123e-02 7.836904628919262594e-03 3.378815699660806665e-02 -4.509361400866181147e-02 -1.513447228388005994e-01 -4.633992852381316196e-02 7.749087348999846026e-02 -1.615291867153221747e-02 -5.939054951595388460e-02 -7.560607603307728519e-02 9.214907889855329659e-03 -1.795677678184685044e-01 -1.724417037610834202e-01 -8.647790523605969337e-02 1.463140943428516971e-01
9.449157493621851422e-03 -1.759619249730255339e-02 9.623267416880638969e-02 -7.009309636754781914e-02 -6.211736598233275064e-02 7.546556981476768011e-02 1.511797333053792325e-01 -7.753785666261804599e-02 2.222450591861643565e-01 8.660189245676583325e-02 -8.068543007135854650e-02 -4.237307828235514079e-03 1.812662545615014581e-02 -1.189981433716654352e-01 6.196277401602056506e-02 -4.746748780320979126e-03 -4.687889431325837492e-02 2.487570498263323437e-01 -6.129512951264248083e-02 1.720479376583030143e-02 6.272341750030432928e-02 -1.271586186724351086e-01 9.339967897572620803e-02 -1.984226648386571822e-03 7.590160030348504228e-02 -1.604161812315434976e-01 2.127296231987881384e-02 -2.854456225346897399e-02 -3.062337424354927978e-02 1.422363862215789698e-01 1.116148137953837660e-01 -5.452335462611396927e-02 -1.730782346874724931e-01 6.722838162356883918e-02 9.267706061330165460e-03 -3.496752234769735790e-02 -1.965920970496192188e-01 2.752444556054109773e-02 6.526740471233095572e-03 9.480850391584992598e-03 -9.585392749878465183e-04 6.460466121664361350e-02 -1.711670256486240091e-02 -1.282867453317050599e-01 -1.215395482869737198e-01 2.481023915438829719e-01 8.673571302317083231e-02 1.119010443626801826e-01 3.964394034843827380e-02 -1.824736613477477287e-01 1.069313481988871523e-01 7.227952484639961483e-02 -3.568010535055596288e-02 7.672651129077601162e-02 1.418015943884649681e-02 -4.219286736929504095e-02 6.030736943027208835e-02 -4.775523093400086544e-02 -4.667785941668051858e-02 2.706238685229494720e-02 -1.636595000467610389e-02 2.112269044746550167e-02 -4.943293956507287951e-02 8.621569449842715616e-02
4.190072945792289866e-02 -1.667353976288571682e-01 2.118719807852349410e-02 6.380210818558093577e-02 -3.273555295283269578e-02 3.734345698574927964e-03 -5.372509768271131747e-02 -8.713868769762762867e-02 6.417457666287257334e-02 1.166709720693101110e-01 -6.004631895156360699e-02 -2.111317922504802810e-02 -9.575522308588272496e-03 6.441090541528213254e-02 7.149499292741139100e-02 -7.123433886238055013e-02 6.371620659208876436e-02 1.326398887474295601e-02 -7.642419396769678519e-02 2.869678956528467009e-02 6.875040627485658196e-02 -1.778725103190043899e-01 1.102830609938896256e-01 1.081308985182564963e-02 -8.579427361294204857e-02 2.120124507408522319e-01 -1.300064132841703343e-02 -2.628757601698648600e-03 4.852788146935599345e-02 6.944796389551846985e-03 -1.070479544883268588e-02 -1.003368722770829093e-02 -1.335459649016695616e-01 -1.373513767638399330e-01 -6.553866821969682455e-02 8.002093761346928957e-02 -2.943551129726196952e-02 -6.136285302264788549e-02 -3.043553694725393156e-03 1.023597120952882272e-01 -7.807515812153817403e-02 -9.016006504863201265e-02 2.714585461810556377e-02 -1.044944886097316783e-02 2.068869176378336783e-01 -1.051565194840555495e-01 4.772989338519231794e-03 1.167805707985835745e-01 2.621083218268300402e-02 -1.738267036998287773e-01 -3.147648183370597985e-02 7.661114154000973897e-02 1.660613118276214883e-01 1.920057946041173469e-01 1.086220623244435642e-02 1.847335680104336686e-01 4.174905857517978436e-02 -1.569259140049629742e-01 -1.036157395611453022e-02 4.598572215860495527e-02 1.167349891101529258e-01 4.885124727444065812e-02 -6.931006907782473470e-02 3.352977375302363533e-02
1.292572290898982568e-01 -1.024615006554445255e-02 -6.854330652703302662e-02 -1.645650424106968879e-01 1.299951566548320225e-01 -1.183463756258459204e-02 -7.845131139220141991e-02 8.624258710667087602e-02 1.809753889862259213e-01 6.423894039571978465e-02 -6.980112828313030093e-02 -2.408584852953645286e-02 6.989444663484935261e-02 4.590311606423474328e-02 -1.203305197587841852e-01 -2.699462858435135518e-02 -3.004597054430356573e-02 -1.617554790921160168e-01 4.413931152349940407e-02 1.246087477701949935e-02 -5.214283175384163554e-02 -9.342653382616153412e-03 -3.855840118984445869e-02 2.869073492532184591e-02 -2.937936111451832158e-02 1.305131669860123411e-01 -5.090590623198418263e-02 -2.524178525535495168e-02 -6.281129781953447011e-02 -1.347838105149134214e-01 -7.509805851435182034e-02 8.204883396878743032e-03 -2.325394769522972360e-01 -2.329571688238633864e-02 1.145375778528107541e-01 -5.146446251773392072e-02 2.671729435249615286e-02 3.284395035506269128e-02 5.817820861317407610e-02 -6.218613367105720741e-02 1.528776607245060648e-01 5.385508827037746582e-02 -4.682387277627182015e-02 5.155083701168337862e-02 -2.862717763558803724e-02 -3.340044730287804881e-02 2.482809595253950702e-02 -1.018413558108541561e-01 -1.185486259052439054e-02 1.123919956715413865e-01 5.939343961753058149e-02 -5.923653200841860755e-02 -1.088369105478843683e-02 1.388618248596463212e-01 9.485814070915333032e-03 1.542073249465911872e-02 1.202378345807639526e-01 -8.196270551189961673e-02 -2.290197034652235834e-03 3.953659896589613310e-03 3.866151604442252809e-02 9.682926153509870126e-02 2.166859000045991829e-02 -1.135736324635013839e-01
