7.576222128246363693e-03
-5.284400530677442476e-02
-7.541916040270569069e-03
2.424130822262812832e-04
-1.922809926566727140e-02
-2.001105841406092614e-02
9.875210892403776808e-02
1.145453738664558296e-01
7.324253663576066331e-02
-8.157743338334014216e-02
-7.639577379950272806e-02
-1.206094306118287995e-01
4.017915238790818050e-02
-3.257184044636224352e-02
-9.685700146202830263e-02
-9.158030578601032701e-02
-4.319025180611318210e-02
1.132018665668306084e-01
-1.022607427739501279e-01
1.189130468905715970e-01
2.415173240262897744e-02
-6.419888255908137720e-02
-7.673768510585116109e-02
-4.668056703061253948e-02
4.846486732587489826e-02
-9.831170638766401071e-03
-3.771146662364248392e-02
-1.105550674994264376e-01
1.124051456357014200e-01
4.304091611802879358e-02
7.989210779638697413e-02
3.709194604407015788e-02
9.635122628038836345e-02
4.896715130033756080e-02
-2.098708236308498287e-02
1.760723547575943418e-02
1.152696059480376976e-02
1.061204833083975729e-01
-8.176005147980461296e-04
-2.464763715627340049e-02
-1.249448515403547288e-01
1.629586925623878468e-02
-3.426614606095481491e-02
2.954252065458416038e-02
-2.718954487640902473e-02
-7.264315195603893160e-02
-7.099114292172947760e-02
9.172143671616235505e-03
-3.511823898911305836e-02
1.043111430166937525e-01
-6.164240256012409706e-03
9.667145619045346139e-02
9.109299798146876237e-02
9.576814448325000895e-02
-1.217502452466161372e-01
-1.080218293145655262e-01
-3.921130929010283039e-02
9.240480131270124853e-02
4.645218355928672910e-02
-1.449029771199213980e-02
3.674756912863985647e-02
-6.149754423277714599e-02
-2.976491870434344253e-02
-1.049543727666420179e-01
