1.791151287938170522e-01
1.789667184137793965e-01
-1.153806696795191128e-01
1.663438163924953889e-02
4.392324272524182616e-02
-1.630841672376422413e-01
2.616929935479627156e-01
1.638153865304364243e-01
1.279870941985276067e-01
-1.280610233751455496e-01
-7.252970611029703474e-02
-2.860775576701997669e-01
-1.001129002382703664e-02
9.121921006910618801e-02
-9.427868173447905009e-02
1.368742136413087229e-01
-1.569732704005551427e-01
2.025297750602053082e-01
-1.736417139597275783e-01
-5.278181566917509310e-02
1.349552258272865291e-01
3.176014083919932035e-02
1.133220567301007065e-01
3.689890912470909778e-02
-5.318777992364364521e-02
1.051382832979278446e-02
-1.200849966610050140e-01
9.403757251242456094e-02
-2.756958988084940443e-01
1.882163821241646939e-01
-1.386508378531697283e-01
1.036376580950285758e-01
-1.031311859436090106e-01
-8.789270747016261764e-02
3.933585254441015339e-02
-8.160087894927606222e-02
1.352766955964550787e-02
1.020884216751712231e-01
8.314176466137353227e-02
2.175134980692851674e-02
9.364568181089788501e-02
-4.084240334827023838e-02
-8.744424404243861249e-02
-1.362010567100329674e-02
7.269146534679998828e-02
-7.265240240092631085e-02
-1.632403111089149317e-01
3.931222698503249874e-02
-6.303136305431844555e-02
1.519809568123699217e-01
-1.801529328574922317e-01
-1.596226593982882080e-01
1.422002628659580492e-01
1.116902624332083011e-01
-6.271564068127703784e-02
-1.615804765155861300e-01
-1.320271942655316944e-01
1.483446392584985007e-01
-1.963998293081276325e-01
2.756002735820486244e-02
-7.051601857807957563e-01
-1.416327660876198491e-01
9.029322409217267753e-02
-2.024438542908136296e-01
1.156140995425360835e-01
-7.455035831998228779e-02
-2.206602937156735833e-01
-4.606352616806447947e-02
2.071193902978519519e-01
6.376069235906731136e-02
-2.003467899092103155e-01
6.591283571000997044e-02
-2.025978900983285425e-01
-5.176159838265077806e-02
-6.659477224124799033e-02
8.245436110046605593e-02
-5.013132886153836426e-02
1.499708599741251223e-02
3.415225587691795434e-02
-4.348794806764583742e-01
-1.416049438511437497e-01
-1.077552685662160337e-01
-5.513049673276156776e-02
6.001951195326076655e-03
-1.582084193962852992e-01
-3.142567887216429767e-02
-1.914269895270503605e-02
1.276104119908469670e-01
1.496016553659086923e-01
1.304410085665609342e-01
2.144118804035072962e-02
-2.854399299152771824e-02
8.016394673896203027e-02
-1.330772071243245813e-01
1.716340043831296180e-01
-1.559330664658613586e-01
3.542475311313738051e-01
-4.731635102175744983e-05
1.108447404529967761e-02
-6.779494135553314205e-02
-3.969020354336882384e-01
-2.346150099361698771e-01
-1.032694442577496152e-01
-1.991262050332948813e-02
1.041724618185995987e-01
4.559204273707596622e-01
-5.430823225695319278e-02
-4.042946504610358399e-02
-2.280041132940803517e-01
-1.042527339424477034e-01
1.384921852869337167e-01
3.249442316400784625e-01
1.003733876503684341e-01
-1.204615319044133742e-01
9.759551414858515239e-02
-3.292044894408514555e-01
7.584130915796315209e-02
-6.357273692480260030e-02
1.137372278628301231e-01
2.047942369567641585e-01
-4.195246103723004188e-02
-3.598786904018232147e-02
9.676390174777396713e-02
-5.587934994176069203e-02
4.716093458743201433e-02
4.556384212841323444e-01
-1.087323517901541275e-01
1.886178555159158665e-01
