1.345785368197837707e-02 2.579083105425333464e-02 2.920639794830847888e-02 4.266835343383717505e-01 3.010772914315039683e-01 3.986765430666146526e-01 2.837089280764861290e-02 6.911800914321697409e-02 6.227660823113467803e-02 6.948103234996876043e-02 2.572359563252424319e-01 8.876820989904582460e-01 -1.049877927928116739e+00 -2.181595507496841280e-01 -4.737303738119159890e-02 -8.739279683245546049e-02 -6.872447646156461254e-02 -9.028807729179677555e-02 1.108304343706447564e-01 -4.235489679484473469e-02 -7.415971548946961867e-02 2.700463704480288718e-01 -8.977192111557857901e-02 8.930156530197989884e-02 1.037578404806241243e-02 -1.524414874819773613e-01 7.037734028072550885e-02 4.214627206211549182e-01 3.275346393951011903e-02 -2.489181226828255100e-01 -9.107685377388674564e-02 -4.918199370219093064e-02 1.564885362544539693e-01 1.950879035174881704e-01 4.565087674993777850e-02 4.835786838126353987e-02 1.117790425260168696e+00 1.884203058196410319e-01 -1.235645217284771225e-01 1.446160174598652426e-01 -1.779702363688530908e-01 3.637386104941799925e-01 4.056264677961105014e-02 6.868044869660352991e-02 6.693054271123708432e-01 -1.564196674339414783e-01 -2.033587281194722263e-01 6.005500291562155812e-01 1.670958459005964514e-01 4.362463512330058690e-01 7.067952307474150153e-01 -7.047757677504250529e-01 -1.816955822823308059e-02 -5.725998740111690882e-02 -1.589488335602177657e-02 -1.521967799169504920e-01 5.627331331065358322e-01 -5.430678958214730373e-02 -1.292562119585908276e-01 1.095260237541395704e-01 -3.697260608167707990e-02 2.031689183458772544e-02 8.516896983905779261e-02 1.686506545362574938e-01 6.409790732155815074e-02 1.674072731870428765e-01 6.766723417550525588e-02 -2.155784133520776968e-01 -1.675344037189063218e-01 1.730642818629113747e-02 -4.500637140006033543e-01 -3.339580776527127648e-02 6.062854646815409865e-01 2.070643423827513152e-01 -1.332741117029770939e-01 1.380458777224738698e-01 -1.775641677525129636e-01 1.566700048382492771e-01 -1.589812203880289487e-01 -5.886662643199915695e-02 2.411293838554122437e-01 -1.879410157214304877e-01 1.905467889964049949e-02 4.861102318696812197e-01 -5.968241658564489294e-01 -1.796149173409690436e-02 6.467646354862343072e-01 -1.012075204389466104e-01 -6.444760554469887437e-02 -1.295945993219243531e-01 3.174581390305515338e-01 -1.866767493487766216e-01 -1.392674156755384710e-02 -2.677804136420038894e-01 1.469623472060856140e-02 -1.884052005932349005e-01 5.605499846302329781e-01 -1.175289641292041332e-01 -1.781363462352730798e-01 -5.718505911533774966e-02 -1.812764068701729070e-01 5.652292870558970478e-02 -4.798814190896752430e-01 1.510727021916661583e-01 2.832368013050980404e-01 1.035237148876222563e-01 -8.909079607052751426e-02 5.575268500645518266e-01 1.084526949603018542e+00 -7.088991493506228980e-02 2.526329078081352986e-01 -6.518193762768449695e-02 5.791214426372099516e-02 1.565222685776294642e-01 -2.784124075042396576e-02 -9.387459358607992688e-02 7.401172472147660164e-02 -1.211112891824162562e-03 2.122811726802980026e-01 6.579523999517884747e-02 2.441563213204366867e-01 2.558910474476867591e-01 2.241327628811546832e-02 -1.617062781266469518e-01 1.557107762549043983e-01 7.286840181077672111e-03 2.599298058805429301e-01 8.952705632727427087e-02
-5.171196953176102618e-01 -3.139093509047233277e-02 3.258861127328742668e-01 3.222848830723197833e-01 6.427596691809618103e-03 1.794701854691047871e-01 8.773522686559817596e-02 -8.261442598925414216e-02 2.749868781009573437e-01 -3.345142298283480115e-02 2.703286015575760426e-01 1.941952672520493375e-02 -1.273822708795340486e-01 9.452724877069680620e-02 1.515876111980019557e-02 6.663154620397450378e-02 1.029498399784304352e-01 -2.264163109431968912e-01 -6.518994731324001535e-02 -7.599582631102919095e-02 6.002559958622245145e-03 -4.427036254821251071e-02 2.692506532847198722e-02 1.631306933730487518e-01 -5.501959239873577268e-02 -4.719570515127673865e-02 -2.403665292498108688e-02 -2.024883521391243613e-01 2.441433088354830194e-01 1.134361046926364719e-01 -7.307470487780738481e-03 3.314162653693455279e-02 -1.972324143810694763e-01 5.157993626287210587e-02 2.649471360722049362e-01 -7.531428852851546063e-02 3.131558593957133735e-02 -1.952277019796749002e-01 5.983578494064104719e-02 -8.444746699343898266e-02 1.969746165151113892e-01 -9.225609720288020787e-02 7.989830752371480938e-02 9.026341102908111425e-02 9.978510014073528611e-02 -1.340952707079623718e-01 2.167712022712140613e-02 -5.285437811000349290e-02 -2.088910398976150662e-01 -5.886945066875185484e-01 1.144335085070280200e-01 -3.035580859585648161e-01 1.477503296869295824e-01 -1.055454948975785429e-01 1.096714478504622614e-01 3.180757833565218268e-02 -5.545209550378277230e-02 3.661170186138901911e-02 -1.086931720184429739e-01 -1.322749338291455412e-02 4.955360087832660215e-02 -1.474113552929403048e-01 8.032482799970644405e-02 -4.289937743957248500e-02 4.749617870516743140e-02 -2.972420489602075472e-02 2.255823196119845740e-03 -1.799608181630742709e-01 -2.742823413317435621e-02 1.582388661905083371e-01 -3.316039781214873972e-01 -1.271333365565170126e-01 2.046875134513010674e-01 -6.739217972072164553e-02 8.487463219025266625e-02 -2.645560595172263829e-01 -1.896340553716787669e-01 1.896308859274478398e-01 -5.142198440704199430e-03 3.957696882066306238e-02 -1.947916027606369227e-01 -1.527717548383822690e-02 -4.388515692375691973e-02 3.368811813526706445e-02 -2.405285103130902491e-01 9.000294774162105604e-02 -9.834108371465913323e-02 -3.409003440407201713e-02 -7.116393804216100683e-02 2.341167978107185424e-02 -2.217005860825058128e-01 2.022465190013664205e-01 5.918164241654499946e-02 -7.859005526555568055e-02 -3.105912312680710052e-02 -1.708326295730688144e-02 -9.033685519320802659e-02 -2.172121134981027379e-01 3.070572063895261050e-01 -7.021092391658802223e-02 1.490815276881949369e-01 3.022772383067216101e-02 9.477229355238436792e-02 -2.298572725556987176e-02 -1.020399702661180241e-01 -1.013951341403050849e-01 6.225549575640714622e-02 8.611728795068804287e-02 9.407076070435606285e-02 -7.851528028708239237e-02 -2.190972465108887435e-01 -1.316377686754732212e-01 -1.984611841830176589e-03 -4.008591941459824226e-02 3.594035073210546244e-02 -2.329887928154935339e-01 3.634109556239141503e-02 7.602508035179595357e-03 -2.116841296944831086e-01 4.410776461525882375e-02 -1.397397508981243763e-01 1.303336160226017948e-01 -4.874946330665277244e-02 6.226534351946858697e-02 3.734497482366465337e-02 -1.180133467194016128e-01 -7.466814187665122594e-03 2.136517052887467738e-01
-1.082783052586899081e-01 7.775878558375032279e-02 5.564304365793063673e-02 1.228594325560045802e-01 -2.201258652073829342e-02 -5.067796359939211182e-02 5.944349624889850442e-02 -3.720319414584809942e-02 9.071157583853903250e-02 -8.181366085758935702e-02 5.261175830428421046e-02 2.198656354994618922e-01 -2.389409021261995891e-01 1.738802575539667369e-02 2.967494307141171211e-02 -8.222490104788837684e-02 -1.999603801793778390e-01 -1.125154572539856235e-01 5.848450872756279229e-02 -5.528350825900202326e-02 -2.159280276104131799e-02 -7.447106820319182585e-02 1.024675051787699714e-01 -1.612554014793407195e-02 1.208429120600646722e-01 -1.600412077524961119e-01 3.503217209229937679e-02 6.828133665262203778e-02 3.984234159146236159e-02 -1.462081016580354942e-01 2.692636399568498935e-03 9.303654230864795774e-03 1.333311949931471896e-01 3.255561165966053966e-02 9.548175823614611646e-02 -4.020881399842530374e-02 2.311134512001571106e-01 8.095338761561773899e-02 -2.060480374810050030e-01 8.257945516267911623e-02 2.776072190230190889e-02 -4.747438542219567514e-02 1.434992776985278273e-01 1.303718230645110054e-01 2.125669232494659389e-01 -1.588155636773068424e-02 7.687833748254703503e-02 5.801535837953578079e-02 -1.442997104099518479e-01 -7.959513514235737330e-02 1.653559547684032571e-01 -2.041273401980530089e-01 -2.309536237838905742e-02 -9.293466130022297322e-02 1.440267760031312683e-01 -7.401849612932585865e-02 1.140460352877273181e-01 1.652616981307899746e-01 -6.864368228845332820e-02 6.170139894697104777e-02 -4.685306218749207309e-03 6.604581867410684592e-02 8.901015553867822061e-02 -2.929291057457340808e-02 8.038677144795422502e-02 -8.973528132406687063e-02 9.867500497608915067e-02 2.369762092682324850e-01 -9.623953320557958324e-02 1.184222039251850295e-01 -7.466470850667479564e-02 -3.536078060395885653e-02 1.586270291650602737e-01 6.323252129181196335e-02 -1.890849840163511680e-02 -1.795266661248314244e-01 -1.697304514440372558e-01 1.018232638577386689e-01 -1.221284636229595655e-01 1.057302746966933861e-02 4.209002059519126315e-02 -1.452511147436872652e-01 -2.355406703240781746e-02 7.294887549442657937e-02 -1.507039787481797288e-01 1.572182617033005270e-01 1.902862892060256383e-01 7.396548368701371702e-03 2.964170183602861108e-01 2.858772501852836420e-02 -3.026147164004415815e-02 -1.468362031160654613e-01 9.948119951178061027e-02 -1.164955576308772944e-01 7.486806083171045068e-02 -1.113500791648736749e-01 5.849705465237705487e-02 -9.268798529411106718e-04 -1.920703035677238379e-01 -6.488542748185761877e-02 9.509991146334820233e-02 3.695318467162188314e-02 -6.291953727937922569e-02 -2.597429895477667422e-02 1.687414645963851711e-01 -1.541178981943898754e-02 3.741528431810528521e-02 -7.449910673333730304e-02 2.284817921383261452e-01 -3.414531571335266413e-02 2.103941777028122406e-01 -4.867748448965824454e-02 -2.024751684736402768e-01 3.599474598533468350e-02 4.193363992530488998e-02 -3.329749465819351745e-02 8.403513706972434716e-02 1.361585643225536324e-01 2.330889735805323770e-01 -1.784383286124414242e-02 6.949025554000683169e-02 7.527384579778653717e-02 -1.378996561139148869e-01 -1.108507645829898275e-01 -1.317782656410748654e-01 1.524088133992295424e-01 2.427283201763153486e-01 -7.802496602132440173e-02
-2.909944294619677407e-01 1.453318320982066592e-01 9.925771551034495710e-02 9.474029494906249793e-02 2.012454669942804475e-01 8.882787265620782635e-02 9.195464134742632745e-02 -8.909253658803391318e-02 1.408778388670582915e-01 -8.352429494252056053e-02 2.314624019193377291e-02 2.529213731490446287e-02 -6.727458061736103778e-02 8.414614852400617573e-02 4.858305591712565319e-02 3.106979893580856522e-02 -9.098368764737599368e-02 -1.174664185073870104e-01 -7.357175600717393016e-02 -1.131924092725162950e-01 7.278211886830707189e-02 3.034995127185647137e-02 1.151747781718624464e-01 -8.622509116320199729e-02 -3.750498160310532236e-02 1.827780150094876488e-01 2.420045793744481089e-02 -9.126652734881701701e-02 3.327405674214532066e-02 -2.086173779361063241e-01 -1.307808593768160742e-02 2.025345943586421005e-01 -4.951207707134447356e-02 1.205021278162668880e-01 6.505531250922455544e-02 -8.210179392649173680e-02 -2.686093561420699327e-02 5.185711219371871850e-02 1.616464454246174520e-01 -5.847340418625653069e-02 4.299214274703163502e-02 -2.211881622324440022e-01 1.266002395868638143e-02 1.508674858766732296e-01 1.131828244540348805e-01 -7.814863065252306007e-02 -4.356644689005599591e-02 -3.295551309459703732e-02 -3.365458475023542784e-01 -3.363506052561658355e-01 4.421163257566834703e-02 -1.149809986614119262e-01 -6.261058036665080595e-02 -4.952897373029317013e-02 -3.064548219090332953e-02 1.283990543044206956e-01 -2.004986257339837208e-03 -8.473516623837272499e-02 5.033839174516846482e-02 2.804532965173220371e-02 4.268983805210671556e-02 3.816072153170383535e-02 -8.917236364177775002e-03 -2.012917045035786945e-01 1.085163343287920967e-01 -1.840245296338935063e-02 4.967731688922022437e-02 -2.786226888985743333e-02 -7.841609303158331157e-03 1.652891154825437137e-01 7.888649365334499119e-02 -1.580251532106776713e-01 1.989205461596920896e-02 -7.867814695770691813e-02 9.520499634146867285e-02 -1.915067807760258700e-01 1.239436240312244281e-01 -8.576005203892685114e-03 -7.310334507579424601e-02 6.258400057185500853e-02 -1.624687997899326372e-02 -7.606541552365309045e-02 8.471196518617331306e-02 -2.677197056846130491e-02 -7.723664194926907478e-02 1.703636061972117477e-01 2.119730152514394395e-01 5.867097563478489153e-02 9.274151761430858565e-02 -5.076670784638693396e-02 -8.775344014953531668e-02 -6.552517284756974834e-03 -2.474967150296565055e-01 -1.300923959152036069e-01 6.173442626340908818e-02 -1.367474773757152706e-01 -1.653922539051378426e-01 1.652133873933064878e-01 7.608813337263901910e-02 -1.768763804490270375e-01 1.436887404730811668e-01 2.812420592434429489e-02 3.904627131133434764e-02 -6.798857601886823532e-02 1.451978076776116178e-01 -2.016159432579027466e-01 2.633161227412205221e-02 4.660404606102201003e-02 6.598311129783411381e-03 -5.907617070399227149e-02 -2.834783067957651753e-02 -3.020626737328730577e-02 7.680540585931029673e-02 -5.728539065852041728e-02 2.809685479556849746e-02 -8.117080377394988999e-02 1.580807191079598439e-01 -9.073615671782181424e-02 -2.203165023200656658e-01 6.627873139569219474e-02 -9.376087155906788484e-02 -9.957296358406272918e-02 -7.601613449057556537e-02 8.188469133361954422e-02 -4.548821708590058271e-02 -4.151213076426472914e-02 1.250089409138517016e-01 1.236999607830884945e-01
8.613870831774164682e-02 -1.493036458710596814e-01 -1.074574054419180982e-02 -5.800817551696903218e-02 -3.319111982864417221e-02 1.525295888522031247e-02 1.466043507630351017e-01 -1.841701216511523395e-02 1.739085327526730951e-01 3.676345141443217168e-02 -1.692155019425144180e-01 3.517308015995538467e-02 -4.362380686261226048e-02 -7.561182561791399137e-02 1.038976488852211798e-02 -3.167975603038315768e-02 1.367746295551541535e-01 1.286056299239746181e-01 -1.894438080839778993e-01 -1.371198662033535631e-01 2.963919374309177679e-02 1.566820424688948332e-01 7.782952524859472476e-02 -2.050186044597262780e-01 -9.731418621070705988e-02 -1.849706198679634539e-01 1.066269393864567420e-02 -3.808285281561929470e-02 -3.705230747162201188e-02 -2.408248613140051841e-01 -9.987664211268502956e-02 -8.729626616769771419e-03 5.079548672193801712e-02 -1.506538469331055730e-01 9.963246649833745749e-02 1.738778984776807590e-01 4.373480905159395082e-02 5.048487057241963366e-02 -2.328821695120533025e-02 1.139609802606093014e-01 -2.247044424698482201e-01 -5.025512949575097060e-02 4.834871904806286452e-02 -6.076803935867573780e-02 3.163948108818408905e-02 -3.522386352512512503e-02 -3.916400841405365957e-02 8.869345609228555805e-02 2.776228736563167085e-02 3.103656894977880470e-02 2.005296266556137741e-02 -8.347642985051223485e-02 7.606687815380812345e-02 -6.174686558701932837e-01 2.087578309459435857e-02 5.660725298108901932e-02 -1.642929672751982928e-01 2.553209069783847762e-01 -1.079564559493699644e-01 2.218722839693598181e-01 -1.855169217938392179e-01 -9.117770450859717657e-02 -6.967766519062984498e-02 6.281014523102596524e-03 8.386231281604689114e-02 3.264759291057432039e-02 1.037964100356327940e-01 1.867130671217555604e-01 1.292556163234620525e-01 5.347593787956536615e-02 -2.280665856548799442e-01 1.392931826254230343e-01 1.331266528518245673e-01 -2.015118985484291858e-02 8.680426457673459661e-02 1.191325658738338900e-01 -4.337050251092403746e-02 -1.826426584735972580e-01 -3.009632403319234539e-01 5.107998777790415806e-02 -2.957446593110047567e-02 -2.343610386610079505e-02 -1.323617235319288765e-01 -7.083519287699499567e-02 6.917129368053950324e-03 -1.536931869540194839e-01 2.036650466266317835e-02 7.916094762853291555e-02 -7.408155530750588913e-02 -4.982552827877495538e-02 1.073745554363008184e-02 1.501080421240169049e-01 3.722607117544791955e-02 1.372738155749505529e-01 2.921101561982270556e-01 1.096142375783934891e-01 -8.471354789235220617e-02 5.053182523936194590e-03 1.646289704725380776e-01 1.145076667841893048e-01 -2.313386437780884028e-02 -6.907595189474745323e-02 -2.493139158325164556e-02 -4.464605572738642586e-02 -2.005449701556069053e-01 1.425254894534467021e-01 -1.351825577435302253e-02 -6.711709988844243024e-02 -6.262790144963820312e-03 1.350927629756684956e-01 1.055608765222454095e-04 8.771939612306124678e-02 6.540610556266679421e-02 7.131578720074342737e-02 7.687601020723099088e-02 3.432328698866413119e-02 -9.919537364405404956e-02 3.666333597032976621e-02 4.936365858809309975e-02 -1.136651102632164761e-01 8.233971114088764476e-02 -3.892678365306682098e-01 4.538310478106918899e-03 6.265770548437268883e-02 2.276928285887320769e-01 9.406098983004568259e-02 5.746804217423275019e-02 3.546059734117265605e-02
1.673295836487253066e-02 -3.755338934157464049e-03 6.805612796560749078e-02 -8.446330977730494294e-02 5.796253306209569328e-02 -1.175195148662701861e-01 -6.295489758676009462e-02 1.595344366682284465e-02 -9.677249974129144283e-02 -3.407392164766046005e-02 5.773020737142130904e-02 1.175150503272513920e-02 -3.201486339176624896e-02 -7.943017931617768479e-02 -7.753964416618844280e-02 -1.584300846057726947e-02 7.782474349185666829e-02 -1.105071573499463583e-01 -5.201415199066980466e-02 1.130282519342506141e-02 6.851074436188624162e-02 9.664998721780436453e-02 -7.724787953466485946e-02 -5.988187702272267793e-02 -2.403060535397913422e-02 9.335146973042622587e-02 1.225154696472112309e-01 2.835381650406449197e-02 6.920144031805982796e-03 1.297187575795713532e-01 4.893352647173324771e-02 9.288679310317920004e-03 4.124081886700937255e-02 -5.492242200108058553e-02 1.312713531023018132e-01 2.736729237866297043e-02 2.074852980468960828e-02 -1.174907481078008714e-01 -1.178541006586895090e-01 4.590547807089916110e-02 -1.559148226520201685e-01 5.314775312892450199e-02 1.740959516005480615e-02 2.313715722819192355e-01 2.750125027265900093e-02 1.418220348980945081e-02 8.335445283834137103e-03 2.397989801690031397e-02 8.948574937223915948e-02 6.523919304454170454e-02 7.952196747620652803e-03 -8.802445227830399399e-03 -7.371466157921380269e-02 3.089185339116167633e-02 1.262307093479821396e-01 4.365008505531493832e-02 7.280186001641002214e-02 4.590137301841611117e-02 3.209703219922188655e-02 2.050417400381931987e-02 4.016031512113478995e-03 1.873069181537917807e-02 3.007051937929695884e-02 -1.071609936585945916e-01 1.915766949974118116e-02 -8.696852638653002066e-02 -6.127204354200203873e-02 1.340210247932211995e-01 5.608111978786631951e-02 1.047245641525561266e-02 1.684541269347975267e-01 -1.097251876320740581e-02 -5.432722089971552849e-03 -2.627413884744586245e-02 -6.521575888742399407e-02 1.225005475937268745e-01 -7.009958610699029702e-02 2.238753573148257181e-01 1.323782681793781724e-01 -1.088301511590414328e-02 -1.793824933095898577e-01 -1.754654034055181874e-02 -8.185961977420884439e-02 2.434557043710552579e-02 2.702893767898179034e-02 -5.780971324261081901e-02 1.084742567009801401e-01 1.085865400022124200e-01 1.693524283135841579e-02 9.126586339433610806e-02 1.767630462583851328e-02 -6.850914305945238203e-02 -8.704855976022985581e-03 -4.774265935863124255e-02 -3.268841914889433764e-02 5.654897742065081306e-02 3.174821291502147314e-02 9.818630429277590277e-02 1.355847034365100512e-01 4.908651654620525134e-02 3.328117872430548518e-02 -2.576082369936049873e-02 4.869257207448247915e-03 6.147930136695748532e-02 -2.428757958110501491e-02 5.062255091727958789e-02 -4.032017494345893627e-02 8.163716088420439054e-02 1.537888706545958734e-03 1.580099431929202561e-02 1.389757650810153344e-01 -5.594551392802613043e-02 -6.478585779933862532e-02 -6.982701119565344616e-02 -1.451177330611587608e-02 -7.214378074758975856e-02 1.608273013667525786e-02 -1.527815756267726921e-01 -1.178703526547367382e-02 2.038078427651422719e-02 4.784544528118646334e-02 6.595615616078905064e-02 5.172521933196260607e-02 8.628032778375989420e-03 1.380249702412686130e-01 1.818419170723379608e-01 -3.260380029762231791e-02 8.623891387312349055e-02
-4.044648426886045256e-02 -6.036975506460184535e-03 1.048006356148614288e-01 8.956605758029489300e-03 1.329479049575219840e-01 7.373957304623171560e-02 -5.647810921171412396e-02 8.886377028289939306e-02 -2.328402725818082830e-01 2.885559884380237139e-02 1.244240965063734272e-01 -6.196874022555907968e-02 8.331929494641950040e-02 4.387292462624445277e-02 2.695329380061350574e-02 1.200147533870597749e-01 6.819721397616501646e-02 -3.030340855388963944e-02 -4.610679340442096208e-02 6.754776838198742195e-02 1.137784625291375362e-01 -1.230342195154620066e-01 -6.624790826716028813e-02 -5.645721286362418573e-02 -5.623899324982346154e-02 1.133538733073015253e-01 -1.400640988316003144e-01 -9.150116044964263021e-03 1.821257111558877984e-01 8.061613523079688703e-02 5.549497497511390182e-02 -4.891328103279601186e-02 -7.647399705241204881e-02 4.403044102689465601e-04 2.024474970129901408e-01 3.524179488480765066e-02 -5.618971397279576979e-02 9.558637648847299884e-02 -3.904684295707435554e-02 2.987358411883626191e-02 -4.040480977078723945e-02 4.748772847894110194e-02 5.697973022748274025e-03 -2.521357625060023366e-01 -2.802608830174935228e-02 6.110591113215689540e-02 -4.118670320868249302e-02 -3.947555102671104071e-02 2.369627265490353157e-02 -8.511401603623676426e-02 -3.091209309456660961e-02 -2.756477833215285542e-02 1.118113912914026897e-01 2.246626932897244008e-02 6.336166349714572599e-02 -2.620638832267039448e-02 1.311133416105021363e-02 1.616197672475976621e-01 -5.221999057433270724e-02 1.096067382464290807e-01 5.636115106631167659e-02 -2.993865955489203017e-03 3.927169959984632558e-02 2.899240450168841590e-02 -1.951014451083736279e-01 -7.878386716200003193e-02 1.557153864521393927e-01 1.216029776139716384e-01 3.524304261171765096e-02 -2.670132542950880150e-02 7.287331947634544116e-02 2.369979927505868472e-02 -4.120131331640356637e-03 -4.427437044703218944e-02 2.712168979399871491e-02 1.427512755161394475e-01 -3.322691940741896721e-02 -9.870506289977385231e-03 3.607496423412870357e-02 -2.286849799890541129e-02 -7.699354114656717374e-02 2.438378644842624510e-02 -6.745813459410217316e-02 1.720140509491596041e-03 4.254098055722807525e-02 1.070042767840460041e-01 -1.068957077923390064e-01 -2.840937849980163053e-03 -6.074569183646809367e-02 3.279579562996710884e-02 -7.322777362579362126e-02 4.970208185837930032e-02 2.637541932301118788e-02 7.713363530242120514e-02 -1.056203692389031668e-01 1.665103259054890039e-01 -1.238103558192232140e-02 -5.490678921183697603e-02 4.523987340858662276e-02 3.050870413643990212e-02 1.018433945436741372e-01 -5.293040167215415370e-02 7.961724302395448150e-02 6.773842787389834641e-02 -5.871885541939925179e-02 5.987310109257595186e-02 -2.130551063020834010e-02 4.901810820236568444e-02 -3.195092635312212631e-02 7.671612151795723089e-02 7.499735895157841337e-02 5.236763051389398821e-02 -9.450743537388681115e-02 -1.001081370500393614e-01 2.147113271074505697e-02 -6.349034665366241198e-03 4.802983332079590467e-02 -1.550482680752550933e-02 3.373485314089594983e-02 4.501246601862609470e-02 8.301913911079933373e-02 9.086884988406163099e-02 -5.216527172676281576e-02 3.377678929141834929e-02 -1.368167349177957593e-03 -6.268748186412705092e-02 6.430990961784056881e-02 -1.850139692058982988e-01
1.390392778074751607e-03 -4.811884615930681064e-02 -9.575570097314207302e-03 4.448595608800610008e-05 3.976716531522764275e-02 -1.273547514299649963e-01 -4.033618284687224415e-02 6.071686904399464790e-03 5.658652237072345909e-02 3.837666408969259840e-02 2.257646446412906946e-03 6.434346927041278454e-03 -5.127910325361268590e-04 1.364573673865988011e-02 1.005015354500113645e-01 9.692382035531479922e-02 -2.168598748228225265e-02 -8.504003128254014610e-02 -9.220790486450623769e-02 -4.982650302496891004e-02 -6.035102341620892687e-03 -9.909858470233778860e-02 3.101725865613207817e-02 4.235439762764072608e-02 -4.291848798518279468e-02 9.988568188681856697e-02 -5.142402118061682736e-02 1.738612862571804057e-02 1.631781968768278301e-02 8.755260423034819106e-02 -2.006345845337339368e-02 5.296406250831878215e-02 1.187001014002148636e-01 -6.135789912747196401e-02 -8.231913339259773477e-02 4.251692442674323558e-02 -6.936696572022464126e-03 -9.426491454840182915e-02 -4.039463378906429925e-02 6.211584882431880200e-02 1.197969353223868882e-01 -4.022840835068061671e-02 6.057741266495421384e-02 6.821927267144335671e-02 -1.996711958394603581e-02 1.059708953233649970e-01 1.347488318842064159e-01 2.528700218486119866e-02 -3.487994801941813466e-02 -2.160456347135183627e-02 4.970590010510952776e-03 -1.895747124545756404e-02 -1.437274991424708770e-01 -1.222398590280444550e-02 6.609446454959035100e-02 1.294844657792651628e-02 9.115533611529870461e-03 -9.093610403103261075e-02 -6.876456337386799289e-02 -5.234495859598557732e-02 -1.146639901521401966e-01 -2.078976086057581982e-02 2.215131727999745601e-02 8.034208533641848393e-02 5.949679882370428191e-02 -2.334255824388511980e-02 1.778680003373291074e-02 -1.555630990105288242e-03 -1.236330354849555224e-01 9.517347646410299206e-03 -2.120803487718172231e-01 -3.074348994984883732e-02 3.771338135587609663e-02 -1.422066962831808057e-01 6.255086655181725519e-02 -9.222199821295845590e-02 1.253628090514911086e-01 -1.166537562436330694e-01 -5.540182354932952219e-02 -2.671798625497446341e-03 -4.930101539223854384e-02 1.987554001010146537e-02 -2.728129499953340156e-02 -4.073831767178386770e-03 4.001209562866566219e-03 1.228834818332719472e-02 5.253237680978884577e-02 -4.462237729823629456e-02 -1.266901590239309927e-01 -9.113625282781026571e-02 2.739663713173147441e-02 -1.910490024916543933e-02 2.312199696862492215e-01 -1.326027301418450117e-03 6.571684116158517386e-02 4.533773429372491698e-02 -4.294245125454489859e-02 6.438946746362102236e-02 -6.554727932254506007e-02 -6.724309005943182073e-03 -2.307733419295178792e-02 -4.355720752855552630e-02 -1.137274847256964684e-02 6.315456906709124556e-04 -2.064307866968619759e-03 4.480400112976590699e-04 1.415140437467032331e-01 -7.933852300795170287e-02 -2.077567742177620011e-02 4.128954800452294682e-02 8.083946532615279845e-02 1.770992526102248971e-02 -3.748960982710400434e-03 1.037902506497249133e-01 1.593082977664644212e-02 -1.160062505129946450e-03 5.641520826991702764e-02 2.259485068075252345e-02 -2.238749138063139410e-01 -1.740479379249995628e-02 -8.080501938879086632e-02 -6.040324168744735239e-02 5.399735017549400773e-02 1.070581711473675562e-01 -1.534121983795741148e-02 2.696276794301952565e-02 1.157727576037938938e-01 -2.610945026794597376e-02
-2.810230264091957697e-02 9.120939830864568942e-02 7.917670275957763848e-02 3.673694960895457912e-02 8.851818116089356023e-03 4.397071216479545019e-02 -9.653316132457034904e-02 -6.812318552455880194e-02 3.535511573978526029e-02 1.866082337404996808e-02 8.144734486945624796e-02 -8.873309744869510921e-03 -2.846084645269664204e-02 3.882178036487789197e-02 -3.065063062014663359e-02 -2.637354528082896162e-03 -1.409232818283017580e-02 5.269664166186588394e-02 -9.836225725327790714e-02 6.381558065603247726e-04 1.257725002801123315e-01 2.994810496662390908e-02 -1.794659059212633592e-02 6.258480115563523627e-02 -5.190577862715220481e-02 -4.253801761101022594e-02 1.515977186715172786e-02 -1.063768137982842518e-02 2.220031366145813409e-02 1.581442341599485213e-01 -7.749052585596314909e-04 9.748289383861769020e-03 -8.330450482360918230e-02 2.196904143688451980e-02 -4.280105905648821929e-02 3.168220290831211261e-02 4.208083851349091534e-03 -8.097945627555154513e-02 5.263959763206546051e-03 -3.909513717687908285e-02 -1.393516468201653480e-01 5.372918511684945941e-02 7.681724787226792972e-02 3.286574220597898721e-02 3.621418845635842459e-02 -3.282448488636180439e-03 -1.622927658848595522e-02 -1.031959450185096216e-01 1.099348145043720221e-01 5.178973543837805948e-02 -1.940405167584257143e-02 2.323322568784056893e-02 2.233541995033425098e-02 -8.593530415358017344e-03 -7.982135391462327756e-02 -1.141233527952072169e-01 -1.831725809931881305e-03 9.864295725472170540e-02 -5.763806735606671287e-04 7.045104773834262590e-02 -3.596107909970219264e-03 -1.017823840314252826e-01 -2.799069644119029504e-02 7.516880488262640825e-02 7.644631371251967011e-02 -9.309511350056717816e-02 7.438402696607869513e-02 -1.371427506634269843e-02 -3.850053315867980885e-02 -6.411091725936768869e-03 3.941316365487165102e-02 2.681258319420516331e-02 1.326085623184325392e-03 7.115731240406698854e-02 -3.542546462397616613e-02 9.513892127485659711e-02 -3.955164237479472100e-02 -2.069223938761154818e-02 -3.022902578244396343e-02 -2.394527873273466154e-03 1.359948810532225424e-02 6.436824813074296971e-03 -2.915257411956486550e-02 -2.200311701146115059e-02 -9.344047147821950283e-03 9.573742385045412584e-02 -4.440938717499377103e-02 2.831154608556788257e-02 -2.859989402786293749e-03 3.243853548918943647e-02 -2.875088533971400725e-02 -7.001542229691050390e-02 5.165696971804530080e-02 3.271790927136937477e-02 -2.414586002739733169e-03 -4.074689391026651425e-02 -4.467665884959733102e-02 -6.721888448059464005e-02 -2.264524426370772767e-02 -9.317481217931061765e-02 -3.431181265427046823e-03 3.612822164254866214e-02 2.872581663074785449e-02 4.163859762571910789e-02 -8.964028366078710675e-02 6.963257014836307657e-02 -2.795954419381356873e-02 -9.421525552853285412e-02 -3.524760814140276421e-02 1.280809858718851280e-01 -9.747254851386544239e-02 8.911147077688671980e-02 2.278853110999605122e-02 2.627938927495178010e-04 -2.350153380523627503e-02 2.484687701146005151e-03 -5.297002593033188489e-02 1.661162288266473941e-01 -9.414133381087809449e-02 4.630630183256440047e-02 3.737331350232352134e-02 -4.046099250732240055e-02 6.511435341792208564e-02 6.793081231035270895e-02 -2.612814759160402359e-02 1.754858826922428561e-02 4.498842993209745816e-02 1.233130587357651603e-01
3.468544907297290564e-02 3.152199586547549393e-02 1.213375561878303616e-01 3.110464239880331508e-02 8.203018786365252890e-02 1.446809793670532085e-01 -4.936130751843768871e-02 -1.194042937656808641e-02 7.318943147747802858e-02 4.475789858171026064e-02 -3.760831869273460748e-02 5.991160861280648729e-04 -2.480220815266940063e-02 -3.857945853792557698e-03 7.511853576467418699e-03 6.447246597461693193e-03 5.352233896617146491e-02 5.380561664730699328e-02 2.664011622635866633e-02 -6.666825540055741801e-03 -6.614990968659040238e-02 4.501603599242970377e-02 -4.768479588847790440e-02 3.605083130003325365e-02 -4.519067235868116580e-03 -1.317589961684067536e-02 6.979601300042281853e-02 1.342471972814809206e-02 -9.951640918796589297e-02 -2.437912583338511935e-02 -6.326222840090052479e-02 1.529848444070592596e-02 -3.711857736779393402e-02 7.533014557743883399e-02 1.161759987025878516e-01 -4.221926857394768529e-02 2.560982670052602134e-02 -2.516446388297667591e-02 -9.482703070358641795e-02 7.005264510913973564e-02 -2.920288749309651703e-03 1.760894250453151752e-03 1.003195531773450194e-01 7.329838114352139888e-02 -5.472317199975174074e-02 -7.736279485379356224e-02 1.527535065129000669e-01 -1.609365871553718533e-02 3.661946639091753081e-02 -4.162681385014737473e-02 2.269840523303280969e-02 6.765486728685640716e-02 -1.165236400998834881e-02 -4.912258702426335923e-03 -7.419881375196266116e-02 7.530167306071880451e-02 8.466697883546661640e-02 -3.000692678942504937e-02 1.880011027722518213e-02 -1.451010105982673271e-01 -9.705055403739272502e-02 -9.176354068234937600e-02 7.863707002994946293e-02 -4.135888660872414496e-02 -1.043835934739005822e-01 -7.523974924529537589e-02 1.775345016980861210e-02 4.327082222906127734e-02 -7.676280548380882973e-02 -1.809647552995667652e-02 1.303668060575423615e-01 9.142996194655662878e-02 6.634282636268061528e-02 1.247109248541207055e-01 1.351659870866688262e-01 -5.365022776958658368e-02 1.742989148020198872e-02 -8.683938467709850784e-02 2.900507904616740282e-02 -8.278033399253637015e-02 2.367683158640493390e-02 9.566831696811411989e-03 3.776040580238101269e-02 -1.060280712472862208e-02 2.066190426798436564e-02 6.339344605624339102e-02 -5.363318774906807723e-02 8.679278928083396238e-02 7.680258557178051837e-02 -7.412429332610985522e-02 -2.296990009515987100e-02 7.766490347589972976e-02 -4.316619665736738665e-02 -9.329757282658716899e-02 -2.102203494397820831e-03 1.676975539729549242e-02 6.054051232252490727e-02 -6.571928728806002151e-02 5.930264243019932324e-02 2.461677705474139832e-02 4.043886695800611580e-02 -1.604806514064456846e-01 -2.428986868450803624e-03 5.169448395260120566e-02 5.170454340566332622e-03 1.858887817170887941e-02 1.004374838292310390e-01 -5.219327166331618785e-03 1.157851812619245524e-02 -1.243448272044061081e-01 1.418752776261327508e-01 3.258432887406489953e-02 -9.463875514262583277e-02 -8.252577814296273295e-03 5.235340864993431875e-02 -2.881055195069524844e-02 9.444914423693608063e-02 -9.460321225069479381e-03 6.872686129344640626e-02 1.075834926889161630e-01 2.222118511227905158e-02 -7.929555663406991084e-02 -5.931667454583312155e-02 1.584227583154577401e-01 5.111192340730361799e-02 -3.969726777593498429e-02 1.265288687428008652e-01 -4.926172049417008869e-02
6.046602786944445251e-02 -1.287338224514014973e-01 1.290927525906896689e-01 -7.868171117551382503e-05 1.122792721700067997e-01 8.958720380554865276e-03 5.939955942838354153e-02 7.747202529136171245e-02 -6.659973041897314372e-02 -3.092623775821298424e-02 -4.399884210854756311e-02 5.164333931828021980e-03 4.308306686940507890e-02 -4.479180765899282157e-02 -3.005004357588008865e-02 -1.314422778838419681e-01 -9.996678623646695905e-02 -1.785381899643083414e-01 -1.981706564212800531e-02 7.133887275045007470e-02 -2.120296718824006554e-02 -1.011427364106014526e-01 4.508247269223728676e-02 -3.076144540808669822e-03 -2.134051174040223486e-01 4.622582969562314542e-02 1.302189241899962269e-01 -3.385430185049320695e-02 -1.263057817576836717e-01 1.476559139728896852e-01 5.320111205271043503e-02 2.989718127423491786e-02 -1.504327614879557018e-01 -3.719620703532759698e-03 -6.505046594129171300e-02 -1.389835263140531130e-01 4.125269455236041556e-03 6.285908386943037107e-02 4.359246842000202848e-02 1.830633699024476063e-02 -1.105861101353443343e-01 -4.277201900908635807e-02 7.671935388019088253e-02 1.080220569985872042e-01 -7.177934221282079863e-02 -3.074504588474926553e-02 -8.747130609985152849e-02 8.603317416379120675e-02 -1.990748752632074195e-02 2.167168826088696279e-02 -8.626044253389588204e-03 1.591810215750173382e-02 9.648439333190578227e-02 -9.180035854697443654e-02 5.330364255456474659e-02 3.969102094032221639e-02 4.576328565910746382e-02 4.100494539267036942e-02 2.387241777089604139e-02 4.853813370332394489e-02 -1.018639407087114784e-01 -9.183352454219223526e-02 -3.056247239351305919e-02 9.619129945672774684e-02 -2.532092311150002661e-02 1.167467295673142585e-01 3.837542592948837983e-02 -2.152180485258968490e-02 8.605667004675122966e-02 1.694328724683898391e-01 4.458241060091751307e-02 1.981068679556582945e-02 6.047227546405939402e-02 -1.478970288466716632e-01 -6.079268989915077165e-02 -7.311428864204580491e-02 -8.623693146997953030e-02 -1.020616957929951080e-01 2.043552303008946969e-02 1.112250713126330427e-02 4.116933151239339506e-02 7.576723219948433563e-02 -5.864050609108547446e-02 1.074008887447600903e-02 -3.323691587431158029e-02 -6.699460156775381920e-04 -3.189768629026797780e-02 -6.909784576700667147e-02 -1.545406959125619761e-02 8.215516343184542380e-03 2.621772174200311112e-02 5.356024580645577654e-02 8.890843425326210026e-02 -1.298037117737586670e-02 5.487276822567266343e-02 1.314255729015248730e-01 -1.388083960255098205e-02 4.536529351460741322e-02 -1.127121546437600819e-01 1.866721405081498211e-02 -1.544875721148818992e-01 -1.645126066937402625e-04 -2.823670063676174749e-02 2.229130289468735787e-02 -9.756250972796268184e-02 8.012767935759076976e-02 -1.381311825816558814e-01 -1.132483869733115905e-01 2.784737467162759147e-02 3.559307551728515401e-02 1.696003974908510611e-02 3.240567799251461295e-02 -5.100666527328538008e-02 -2.541121619253260133e-02 1.044278323353836219e-01 5.506735157670029912e-02 3.602365684489774317e-02 7.761765875497367295e-02 -4.513989985987165721e-02 3.341911030032347629e-02 5.622946240349867286e-02 5.015080954310260908e-02 -3.951438271112693752e-03 -4.210913554240613976e-02 2.096309238494744112e-02 7.660785629395662141e-03 -6.394488824074433253e-02 1.261029364119991836e-01
5.134931441559856258e-02 8.016633452879227961e-02 -7.525849161337895554e-02 -2.897292373193904522e-02 8.863505062188160866e-02 3.062642588013840886e-02 -6.587301310905924190e-02 4.634120723058512276e-02 1.015791760744076122e-01 -6.743071742556065729e-02 -1.678493023047688409e-02 2.508190523491055438e-02 8.937235684888704748e-03 -1.652200600088931104e-01 -6.635183207791787996e-02 -6.118313118314512578e-02 7.769205526499256900e-03 1.034252400286529844e-01 -1.326909970977762643e-01 -1.830894696795379306e-02 -8.875816992807578076e-02 5.753688274186611468e-02 3.831118073301710558e-02 -1.530012990778382813e-02 7.874223045495006013e-02 1.597939710979205674e-01 8.884038552413196701e-04 -2.557852273122649886e-02 -8.450536862285693007e-02 2.190688019143488888e-02 3.330177836676712078e-02 -6.694470977684119806e-05 5.474867936473714475e-02 3.201363639777008580e-02 -7.348051109566738903e-02 5.942205910023981574e-02 3.683638964545616484e-02 1.804109438912885055e-01 -5.000301414241660469e-02 -1.014315260389751644e-01 1.931468860221138492e-02 4.149034441391131339e-02 -7.483019817869665524e-02 -7.280333509217452870e-02 2.852061414822300647e-02 -9.802929779594328485e-02 8.122390052580877318e-03 -1.156358195566729516e-02 1.039461443851444483e-01 1.194671377099710934e-02 -2.248658532000474483e-02 -5.299543740681629533e-02 4.036070008789652275e-02 1.876780191634915690e-02 2.372209989774829997e-01 7.800128727419017305e-02 3.023693634459441448e-02 4.292755707501921814e-02 -2.221937422561827413e-02 -1.175254290733182688e-01 1.015686467404975368e-01 -1.012050524288574255e-01 5.585833134042904324e-02 -2.423549075978036552e-02 4.414462028023070916e-02 -8.857722888871437383e-02 1.203119579844340731e-01 6.056901769266540697e-02 -2.108691197475064463e-02 -6.677192969727414884e-02 5.679068372253838481e-02 -1.038531640724691535e-02 3.469451470847745994e-02 1.869012664968753012e-01 1.086793327295351858e-01 5.979742275304331112e-02 1.655007888798051829e-02 -5.305860086700522893e-02 2.976807340171130564e-02 -5.002012181644019395e-02 5.804831225573170439e-02 9.387205699873557574e-02 -6.077837593439442548e-02 7.640972933096953218e-03 -1.592216614832616534e-02 -6.452573738062415687e-02 -6.177385840055103251e-03 7.388349590549649071e-02 1.297357894133757987e-03 -1.259203758362137660e-01 1.124527175558134515e-02 2.529228177037620012e-02 2.587003942602301640e-02 -2.068682391488450151e-02 2.856860942535930162e-02 -5.967020886235777088e-02 -1.253519729694497868e-02 -6.915011835017383091e-02 -1.504610397947932048e-02 -1.011811742695548598e-02 -5.445756104692444505e-02 3.219260879482831184e-02 -4.223112645895210626e-02 -1.230403053246842265e-01 2.943503191184346918e-02 -3.175978846178301174e-02 4.243621302277611473e-02 7.103889840027718949e-02 -1.426964586262981401e-02 1.272977943564861103e-01 -2.288663572558524359e-02 -7.124851042351122710e-02 -5.576938291529386083e-02 -8.653909247695093510e-02 -1.252366647633926244e-01 1.402741404228413369e-01 1.769211842043090857e-02 6.675082523526740252e-02 -9.930645390767658953e-02 -6.325623951482044031e-03 7.352853607745169634e-03 -1.433201274017412707e-01 2.219757774384920057e-02 2.918701019274799399e-02 -1.877848546180822462e-02 -1.774589103945561214e-02 -3.650726344488266356e-02 1.016740259893309239e-01
-1.115874779454427423e-02 -3.320961309662824774e-03 5.354236272482944953e-02 3.410081363072128835e-02 -1.917329518091703475e-02 9.043872929202236011e-02 1.391368439934456865e-02 3.516115934235318485e-02 -8.036775855806459201e-02 2.398508009977765726e-02 2.677940949575437560e-02 3.661538455883779630e-02 2.057129093975978290e-02 -4.207661014509919001e-02 2.487126927946247540e-02 -2.463487104870311709e-02 1.805148995660849076e-02 9.046408584001619513e-02 -5.122460429057731912e-02 -1.230976614911591209e-02 9.994374627409916001e-02 -3.825648704512197434e-02 3.382431242030382867e-02 -6.270681089160703992e-02 -5.862848066267429409e-02 3.939656863421300143e-02 -6.609162695333638260e-02 -5.422213890666004871e-03 -3.352519140725483682e-02 -5.190847696656116644e-03 -4.986565453533848419e-02 -2.740644834442424599e-02 1.000179824767563758e-01 4.627849217792585207e-02 3.033244250195247377e-02 1.603073430151568529e-02 1.547664734137791515e-02 -3.261176874942834508e-02 -1.231804598637498971e-01 6.322208797593199814e-02 -1.012342950160399491e-01 -4.150275172678975083e-02 4.003229258791281969e-02 -8.946333062388858726e-02 -3.706485960455878359e-02 -8.858183751088063995e-02 2.610197734818505561e-02 -1.213769151112105947e-02 -2.914273802420941015e-02 -1.034245496121120010e-02 -1.272285346204467267e-06 1.268138592158282729e-02 3.318513186412775512e-02 -5.019226361108444778e-02 4.531183440932647771e-02 1.669445931199623756e-01 2.204504814509862694e-03 -5.146252771453568853e-02 1.488183683914144975e-02 7.680995256964336104e-02 4.690198393656402898e-02 -1.323274544973788991e-01 7.013845614544886309e-02 1.399087721469161605e-01 -7.687580246163754072e-02 -9.631422966197816793e-02 -2.484192382138875055e-02 -1.556338611537960992e-01 -1.087472862565846132e-01 1.090745573055901946e-01 -1.707858844265985540e-02 1.510086641875372226e-01 3.708126713402742913e-02 6.921904448636254092e-02 4.767773149953102169e-02 -8.400364921872316426e-02 1.212095386669798970e-02 9.018279289172533020e-02 -1.868405527654989906e-02 -6.526182935412662423e-02 -5.803053788186651740e-02 9.566232680122913057e-02 -3.042845367688027519e-02 -7.621199123183527123e-03 1.075135092311079073e-02 8.017017392641306861e-02 2.197998990486993431e-02 6.559403563213857258e-02 1.919945809584849561e-01 -5.604754605503511206e-02 8.369719427034462769e-03 2.316296386030239629e-01 -8.134891587502088642e-03 -4.402215294087193781e-02 6.952657640869910893e-02 4.802989656706870697e-02 7.353906050261187037e-03 1.141769667584664229e-02 2.094549267864779640e-03 -6.796153863617053828e-03 -2.955456711908069703e-02 5.825232571829101064e-04 -1.181257572796501343e-02 1.686482513493334223e-02 -5.695346544850232728e-02 9.985692917847838537e-03 -8.309222528866475055e-02 -6.387070719134850527e-02 2.115873695730557946e-02 2.050195563116281525e-02 6.717546584523133302e-02 -7.295406749465713214e-02 8.043467003589436365e-03 1.283455092422833843e-01 2.604248482909931640e-03 -8.014243017613016662e-02 7.245464952645909451e-02 -1.082783229198815561e-01 -6.681264643219250732e-02 -1.074067065481898106e-02 7.590721691425844631e-02 3.048932959617405361e-02 4.037809767673702227e-02 9.066394392182614004e-02 -6.959753679936557524e-02 -7.144613515240529067e-02 6.641680003374139142e-03 -9.149235372087066720e-02
5.462447467653930300e-02 -6.533008940335176783e-03 1.177632126183032618e-01 -6.066903254285957968e-03 7.388022089368948171e-03 -4.340729960187093839e-02 -2.349357927495347720e-02 6.062162682912968642e-02 -6.333896012273816829e-03 6.130505467715189477e-02 -9.011998934926790383e-02 -4.053350794194711566e-03 -2.922884785589635256e-02 1.295981811167857010e-05 -4.265148940521099052e-02 -1.478010961171734826e-02 3.082327818751654999e-02 4.858859621395724901e-03 -5.274845332230246320e-02 -6.450794594629357184e-03 9.224207263012386068e-03 4.208313815856648543e-02 3.912543660940907830e-02 -6.823237229977667344e-03 -3.665718631086698626e-02 -4.201671886593935645e-02 -1.707028414993908352e-03 -1.050566263978793425e-03 1.975676393598025261e-03 1.055406130687026184e-02 -4.375993986080556342e-02 9.253859223633484343e-02 2.824618504405905159e-02 -3.308097876167667012e-02 -2.391623529553870645e-03 -1.658310212098175820e-02 7.585251429212192149e-03 4.479838650964824281e-02 6.068198336292244394e-03 -7.167066746928226449e-03 2.823851507760970214e-02 4.899437281819807311e-02 4.194416814891627904e-02 6.389834916940775877e-02 -1.611592680469907737e-02 -2.795024684030334664e-03 1.280334809840684776e-02 2.582104884778337051e-02 1.498679893989828538e-01 4.365572025790460942e-02 6.560423672067510273e-03 3.231856437192235504e-02 1.063680683844819147e-01 -1.592461007451014682e-02 7.312654668641142830e-02 -5.869786967366458913e-02 -1.066702710245686584e-03 -3.031322353375691912e-03 -2.831313211577770120e-02 5.290779254826984829e-02 5.991548769088907329e-03 2.176387968067829484e-02 1.702572356088668040e-02 -3.242826164250027510e-02 -4.287299418913837618e-02 4.470392389324778781e-02 3.641678334053637806e-02 -2.338627643995344965e-02 6.405086070645669982e-02 6.157763849174176241e-02 -3.288302147738498410e-02 -1.344448426066321631e-02 1.599366287443350354e-02 3.751768422383714580e-02 1.643646588161189193e-02 -1.147015231951245030e-02 2.625185359575791817e-03 -2.929282977694742593e-02 -1.908930233319328790e-02 -2.896686970041952719e-02 2.240357927550272465e-02 -2.751193146192469977e-02 -3.019737739732594045e-02 5.957647315371543927e-03 -1.634316885403046260e-02 -4.510636549371462023e-02 -4.880359047444961240e-02 -1.009550528160191307e-02 2.033480991548354978e-03 -2.727257857454951431e-02 4.049211211856997700e-02 -3.759401203135719072e-02 3.265336390709670106e-02 3.500253062519909086e-02 8.010610123022013362e-02 4.561077794048319645e-02 -1.749886580307959127e-02 4.761252850188159996e-02 -2.805420209941061546e-02 -9.686381656579216848e-02 1.433284417083774062e-02 -3.312748536060149823e-02 3.289312071483031091e-02 6.590779986372456711e-02 4.593789601801078620e-02 -1.170948227284719229e-01 4.284508687792425163e-02 1.284015528969612192e-02 -2.915313330329008610e-03 2.104636660371887388e-02 -3.798725336315994516e-02 -1.395896287082226336e-02 -2.828603480964307290e-02 -5.293963582120403411e-02 -6.185431282019288046e-03 -2.215101311263051320e-02 -4.308730906803216743e-02 -1.383936618216072625e-02 -5.276264901992468170e-02 6.831173369954307573e-02 1.051780654394587899e-02 9.218490500911087626e-02 3.527438017281018384e-02 -1.353675300802473789e-03 -4.876108549689743554e-02 -3.925398531002383118e-02 2.600443273831782795e-02 2.811769943483883802e-02
3.382252963898099013e-02 -2.774376186201899658e-03 1.572373441985030346e-02 2.400322042411825313e-02 4.429329674219313617e-02 1.145169047914044169e-01 3.028476225467618965e-03 5.516015204441261643e-02 -1.486738682386864498e-02 -2.302715934784914289e-03 3.243102625458522265e-02 -1.020849614464198335e-02 8.761247936994391583e-03 6.603069891835775841e-03 -1.194264396491841879e-02 1.246491531709795902e-01 -8.968377838050856088e-02 3.188531980326343718e-02 -2.766804958582058660e-02 3.432514183144932257e-02 -3.382748052029003485e-04 4.223443324157568485e-02 -2.738679452729618491e-02 1.913916546599819454e-02 -7.292493810937256127e-02 -5.182257006610696548e-02 -1.060515374422595219e-01 -3.270389282233474720e-02 8.969617448159239795e-03 -6.899204404887756929e-03 -3.932232424589948011e-02 -3.935843604770992293e-02 -6.506795024088071755e-02 -9.759299243842758931e-02 -4.470504041282714891e-02 -4.327364088337628395e-02 1.393560692368676348e-03 -2.534458254191730708e-02 -1.190071317013129681e-01 3.208589257043508586e-02 8.954090477790017238e-03 6.987646971820642323e-03 5.254058184518589636e-02 -6.079293670681170693e-03 8.816269833319746382e-03 9.783284528479749276e-02 4.461896561670768147e-02 8.209143063731913492e-02 -8.009056696523389474e-02 3.301804447477273835e-02 5.088356976182573620e-03 -1.631701134089912075e-02 -1.001964040740320194e-01 -2.668028325607275236e-02 1.658965698648882381e-01 6.969786423760025718e-02 2.794029959313861639e-02 -5.428417144756881446e-02 -8.120083340638907521e-02 4.952472699115542665e-02 2.530128334765993636e-02 -1.312638734901732940e-01 -5.633839991480468767e-02 4.608663427933528539e-02 3.962036802117963746e-02 1.361660133236334003e-01 -1.450881185927983298e-02 -1.067129989150198827e-01 6.151137799286517105e-02 8.079793266480903144e-04 -8.405069382583988183e-03 1.299919794779130083e-02 -1.203137379709910346e-02 1.033376993752238885e-04 -1.027029933329461631e-01 1.101667646865031342e-03 -9.521741283898450814e-02 -3.699117125272710638e-03 -2.789829892716041287e-02 2.560602069847916357e-02 2.836041045969083310e-02 3.714326338629216767e-02 -7.479480725582059175e-02 1.450238569996931993e-02 -1.487953095420122170e-02 9.284737933045855707e-02 -2.754044713610213913e-02 1.027297473425837909e-01 1.678550333029682207e-01 5.492476150518181555e-02 8.714334122447132958e-02 -7.537707688153381935e-02 -3.639142018209715751e-02 -9.769135501592203508e-02 -2.468851302686238605e-02 -5.609371192355693675e-02 -3.435423639028998416e-02 9.627609943303423734e-02 1.583264385544025377e-02 -5.928347151306357504e-02 -4.659303575273513603e-02 1.311986158898856281e-02 2.018854626783745526e-02 1.349388907085476152e-02 8.673980033012182803e-03 -2.107008825397975460e-02 1.571904018345918475e-01 5.997945224480965426e-02 4.560787388338587915e-04 1.274595611634077585e-01 -4.561051027655289164e-02 -2.255734996521801053e-02 -3.871105138559668285e-02 -6.316476634026711723e-02 1.410640660556148618e-01 7.000073749937074652e-02 -2.743156717137865477e-02 -4.624199401985785995e-02 2.256296732328236590e-02 9.209301988834736608e-02 -1.194926746091906911e-01 -7.743556143411993442e-02 1.169467092123794433e-01 -2.693300520081209556e-02 1.503610654976317573e-01 -1.948047831562057727e-02 -5.945346917833218420e-02 -1.290472582201483975e-01
8.222522994940828847e-03 4.862361512246272943e-02 4.102640959251938058e-02 -4.725798041716236519e-02 1.022131148394385958e-01 -2.517129470610544595e-01 -1.944236801521689872e-02 -1.025750201984034632e-02 -6.958130485455885084e-02 2.673924032776935425e-02 2.697037011664389292e-02 -1.787178122653159274e-03 -2.564431443533419716e-02 8.002115111571552961e-03 3.376432461421018799e-02 -1.449140108698947771e-01 -1.605106517306654212e-01 -2.354175799926179480e-02 3.753100174919188348e-02 6.038721717449499482e-02 -1.470794120653200546e-02 -6.458445269564910829e-02 -1.251656478591136878e-01 3.707838594145230343e-02 6.203333920537933144e-02 -7.964952074124741210e-02 8.847517178745148512e-04 9.619602618291480181e-03 -2.204104885023639923e-02 6.127688483564470295e-02 7.150046031705238614e-02 -6.574728596320664198e-02 4.466086328862628463e-02 -2.749068401567681189e-02 -2.040082075297362102e-02 -4.389154075305790742e-02 9.354865691695805202e-05 5.659169946859306938e-02 -2.083071221839385631e-02 4.748920986892461032e-02 5.535580656093426477e-02 -1.945405373986219474e-02 4.674451268844891094e-02 -1.139560068143485455e-01 1.315749807480598443e-02 1.357125691092954172e-03 5.355433908188736436e-02 8.105549738212514121e-02 -4.387500267391754305e-02 1.942946197420338666e-02 1.248702065951181120e-03 -2.533933604785999077e-02 -2.591919930599694347e-02 5.042091987947157350e-02 -5.023308583962749624e-02 4.702489829167159213e-02 4.531759006651888549e-02 1.110915903350039730e-02 -7.253387926819214460e-02 -6.381055672311464200e-02 2.966342887774686687e-02 -7.156751684294458682e-02 5.387568125987986234e-02 1.038122167334394053e-01 5.517904924546186002e-02 4.989209526163414926e-02 -1.732903015678572411e-01 -7.516781565420563175e-04 -1.986771642808915841e-02 -3.220220957870467693e-02 9.653088565867939952e-03 9.994644719620819975e-03 1.634623408762900590e-02 -1.310659431503602423e-01 5.773793422316339519e-02 -2.162632289577294184e-02 -3.971885707513532482e-02 1.176871320255067632e-01 1.778487729514570403e-02 4.005203026204019745e-02 1.344545180487161096e-01 3.452553862072824109e-02 -3.290755700192951605e-02 8.040639881708645798e-03 6.223220659799311334e-03 3.150731561107098649e-02 1.061898834174796330e-01 -1.043474609509776191e-01 3.290505703330352284e-03 1.931196163912313538e-02 1.912487734432366179e-02 1.653245956926920612e-01 -3.600537518038171569e-02 4.076138238387763679e-02 1.248415210000375780e-01 -7.804724681064842406e-02 -2.346764193172376500e-02 -6.908408439762485365e-02 7.989816375336725174e-02 3.713538594356513827e-03 5.821832382723352711e-02 -1.572167597591545007e-02 -3.174931429222801593e-03 9.155893364306186277e-02 -1.100095579447181726e-01 2.029253447901887761e-02 5.041037768032028549e-02 1.085031246938810562e-02 -3.491283030330616377e-02 6.651081680424419940e-02 2.857073282771640729e-02 -1.036773021094638137e-03 -8.196571009392434465e-03 1.057049442774658440e-02 -2.374209827059422726e-02 -3.072697167232894128e-02 3.079709723717159731e-02 4.096786657224242567e-02 -2.407033917599143633e-02 1.655358893020630884e-02 -7.226215828750008618e-02 -2.683226312444569883e-02 5.396506967572711061e-02 -8.847422869911709953e-02 1.333308537331041599e-01 2.258158187544103638e-03 -1.034559464724690431e-01 8.175417419062443181e-02
-2.966231923551766476e-03 -1.218739705274166918e-01 -1.719854627166615690e-02 -2.150945622647237529e-02 5.712930485906642097e-02 6.704326568312544976e-02 -1.124845616442594898e-01 -1.770131922568902658e-02 -6.184191211242108521e-02 -8.746760693828666000e-02 -7.283270082826703851e-02 -1.092334554047964465e-02 -2.585087494111684703e-02 2.484248123919230097e-02 -7.014241652261968274e-02 1.071715690451787301e-01 -1.967109507051553394e-02 4.422381144407969839e-02 3.189482608008267772e-02 -4.875707166405543469e-02 -8.269778471200257830e-02 3.254539086929381791e-02 8.739592533639076177e-02 -5.553894441922058861e-02 2.931871365233205615e-03 1.105776470977162945e-01 3.774595551694052975e-02 -1.279504676390538082e-02 -3.824659436900335746e-02 2.254477208909913197e-02 7.805745715980395849e-02 -3.117918138018371810e-02 8.929456509353632387e-02 -1.248315248904744712e-01 -4.664267132385505749e-02 -5.984161882505632801e-02 5.527571355821082888e-03 1.592447386439936607e-02 -6.771656515296269052e-02 -4.051317311255293180e-02 -3.413058541012058827e-02 -2.286944247037650882e-02 9.020625857281518167e-02 -5.644522256547385153e-02 -7.371875408820035940e-03 6.243842025894108527e-02 7.327493344613313087e-02 3.296254880479628641e-02 -5.504735671083507004e-02 -2.143311545855429434e-02 1.824788826853604787e-02 -3.445735624209357584e-02 8.111260772621294024e-02 1.044665034256265883e-02 9.866339495427532691e-02 -2.362729252412625047e-02 -3.209380573772427966e-03 -1.952488962676826589e-02 7.373172231007424360e-02 -2.980092271899154391e-03 1.249714911094226555e-01 -1.013128251696182938e-02 9.807633757798117635e-02 -4.918028947420267222e-02 -1.137105421332126193e-02 3.651458769425415529e-02 5.777006533539916222e-02 -3.809660999281513308e-03 -9.399480072225871105e-03 -4.669563534133238519e-02 -8.356712731008923700e-02 -3.677047982671207554e-02 5.652725863555979613e-02 -2.987828762139268027e-03 -5.397640315633406294e-02 1.730619385876983746e-02 -1.262064384317709287e-01 -4.069281239015319629e-02 -3.717657569119294653e-02 7.700273306475093060e-02 -1.875841221881972137e-02 -7.037226795789479350e-02 7.917172306897024558e-02 -1.089630873743902689e-02 -1.122377118728884069e-03 -5.004130991267430328e-02 -1.683178723162292306e-02 -2.160916632364087014e-02 -5.421503611697327252e-02 -5.567620050873767212e-02 -1.309304667557513631e-02 -8.753223997392577116e-02 -1.235049631168892020e-01 -1.073693878561297541e-02 -8.964156487722123312e-02 -1.042269621964031084e-01 2.919490122955654618e-02 1.781879355975426668e-02 -6.956400565308747119e-02 4.271928060820297940e-02 1.253223691468143275e-01 -2.930656219159417583e-02 3.001293687275281841e-02 9.144302697531485682e-04 -3.237954193078138726e-02 4.007665977797209705e-02 9.083216203777350062e-02 -2.354293933273806511e-02 4.875423901064730899e-03 -4.381481062448310676e-02 -2.273967139320051331e-02 5.278546026533398328e-02 8.740720609745779301e-02 1.668588470962776432e-02 -3.480195748054877580e-02 -5.372797855751855478e-02 -3.226275972384692187e-02 -1.457825550209195797e-01 -2.854705354539816692e-02 -4.375523390217893327e-02 6.222963816289559663e-02 2.255465685833971546e-03 -1.089070665659561538e-01 6.028870877322606292e-02 -1.323603259281565074e-02 -6.965488750331420842e-02 9.416842363273533745e-02 -1.000267025626447454e-01
2.506131744251934024e-02 -5.291613541913400137e-02 2.431025487217502654e-02 -2.409754594126985172e-02 2.978706917953249239e-02 1.265182685556509035e-01 -2.442964700566819039e-02 -8.039938779912657318e-02 5.239917562435019577e-02 8.670774822658651459e-02 -2.269723148200108662e-02 1.436846159164412336e-02 6.938968169977337980e-03 8.540994399802467885e-02 -4.833941156186071907e-04 -1.658296528418671256e-01 6.798769853918323891e-02 -4.454331259316129943e-02 -4.741909719437662624e-02 -5.842734123630858450e-02 -1.167984414242365966e-02 -3.238943692115629769e-02 4.326022527626528086e-02 7.697256073406018306e-02 -3.950953132953442110e-02 4.393263320828139779e-02 -5.524822132920211015e-02 -2.778309237960033262e-02 5.065387027006613280e-02 -4.181766836574513785e-02 -6.617795020867989209e-02 -2.313194452123126452e-02 -5.332095170457308575e-02 -3.374385989896402233e-02 3.750964270648549787e-02 5.654484408379702176e-02 -1.268320177059013149e-02 -4.127706561533692892e-02 -3.811787599577662333e-02 6.432131758737134886e-02 -1.251113170624162767e-02 -6.330814892034748731e-02 4.980788956263868666e-02 -5.344915664398779132e-02 4.407827327089187779e-03 7.744510547134399181e-02 7.324136791096756693e-02 -3.028279331339488178e-02 -3.159315790264059093e-02 -9.547592854688053549e-03 -1.068887931090785511e-02 -1.291468758557653626e-02 -1.464056917014055527e-02 -3.109990601449411779e-02 9.885270746907211248e-03 -7.162475778474791666e-02 5.290894791587451296e-02 -8.575908804484317846e-03 -7.516204594541524807e-03 4.017199470416808055e-02 1.748098863121921587e-01 -4.691672402667718816e-02 2.938363065827052228e-02 1.324780938767079405e-02 -7.071644271126283077e-03 -1.167602052360019460e-01 -9.958341077238983333e-03 3.005916574706930799e-02 -1.723842886561938181e-02 -2.583009663624115035e-02 1.044211543722286806e-01 4.075995569021695873e-03 -4.289568417828319366e-03 5.173347378018964236e-03 2.121185243987444916e-02 7.713725225019781029e-02 7.183382293257854767e-02 -2.500902968534545259e-02 -6.468286213008907215e-02 -4.421557159147835973e-03 1.034204392139115858e-01 3.208518316155137273e-02 -1.027749556197114500e-01 -1.795701424247327614e-03 4.509774158491020035e-03 2.780389125832150379e-02 6.513783855028681957e-02 1.310287614972713843e-01 -7.770650768929782126e-02 1.770522115108882563e-02 5.721311799202229154e-02 -3.507729188962667791e-03 -2.266659628587602490e-02 -1.585542194360500118e-02 9.710691030369789090e-02 1.417755926879609232e-03 4.841664632925229972e-02 9.056352502208256383e-02 5.950884192160255104e-02 -3.771418914184831474e-03 -7.637928213361321050e-02 1.728459315932074844e-02 5.660077599500317781e-03 2.591100991103533965e-02 1.612793889441885287e-02 9.428752274448726212e-03 7.494373113395459696e-02 -5.442912120189775244e-02 2.506158762735196527e-02 -3.077977560266283164e-02 -3.110469487302393310e-02 1.008993479061353130e-02 -8.013411962127234278e-02 -1.623166281009959799e-01 -1.044168640454516822e-01 4.855392520839007381e-02 -1.152383519995500358e-02 3.244831655751677368e-02 5.520757642472250148e-02 -6.450775637127115214e-02 -1.195991453889627965e-01 2.933117260078420968e-02 -2.509828369822476868e-02 6.343216457828888821e-02 -8.106903059004745560e-02 4.918019746325215207e-03 -4.109589166992727019e-04 2.319350739022622843e-02
-3.528967234062875893e-03 -7.561590107647540859e-02 -6.985719749560286018e-02 -7.806622866552682949e-02 -6.479790353615315877e-03 1.271432631936322000e-01 -1.754725018929728653e-02 -6.015161846609499291e-02 -3.307830301558890851e-02 -3.039508985047790005e-02 3.079495842115002185e-02 -4.285055085223408479e-03 -1.848054801188983576e-02 9.504638490096610146e-03 -2.985879714850802474e-02 -1.012654656840618339e-01 3.516020619715612416e-02 -1.462537715881440450e-02 -5.617481675344691144e-02 6.351110449951124191e-03 -3.224000770888383466e-02 5.017366748601860549e-02 -3.897102286104315444e-02 6.606180268183367565e-02 -1.928878087066080924e-02 1.601455637122513875e-01 -1.881077655883497610e-02 5.420589545987889411e-03 -6.202524484556331749e-03 -2.155101361324296763e-02 7.056706030317176637e-02 -2.655809363255223418e-02 1.138070544012920529e-02 7.380388176626177799e-02 -8.727288551978738818e-02 -2.110262216781868747e-02 1.404805330945798486e-02 1.406366465496708580e-02 -5.404015520065758027e-02 3.610420518113569704e-02 -4.037704425695840676e-02 -4.432201615904273091e-03 2.211363244882557158e-02 6.366497307181430421e-02 1.881135092134405065e-02 6.893216949959797557e-02 6.854683892807726664e-02 4.095641607084580388e-02 -7.068254641875675037e-02 1.121917068639580704e-02 9.616458273755512653e-03 1.788850345046146678e-02 -7.652312633444230752e-03 -6.294947221426837325e-02 -4.483800333907466545e-02 6.864496733556037233e-02 -7.065573307123708402e-02 1.578146172624139698e-02 5.276530005863715872e-02 2.134038631342689060e-03 -2.118796776990663350e-02 2.633820575579200879e-02 -2.355728822650188237e-02 2.093994049673277361e-02 5.076279587326164994e-02 -1.116430539724650312e-01 4.612419924985196318e-02 6.812574545583487129e-02 3.630581691484519036e-02 -3.926628643081941927e-02 -5.939451282395825926e-02 3.135346745783188643e-02 -3.096069694067938097e-02 1.297987405133657346e-01 2.081807313832145095e-02 -1.005754362230296822e-02 1.025621117447100307e-02 1.815356007321397569e-02 -4.603234793798681446e-02 4.975134913862972602e-02 9.582846522342097773e-02 -7.488737008028112374e-02 -1.068404775955755087e-01 -1.308806992189032355e-02 1.940345609975066901e-02 6.199070418576509839e-02 1.667318162835129680e-02 -2.195577261338144473e-02 4.147000595336381573e-02 5.756636583910908211e-03 -4.823329931035982843e-02 3.459252842290178043e-02 5.959078824133767771e-02 -1.840470464413816384e-02 1.031676586350459141e-01 -4.773433968598275040e-02 -3.291386368813251084e-02 -1.258474813195754015e-02 4.595228684014576043e-02 1.280906537395360215e-02 -3.880501118048369780e-02 -4.893942578171864982e-02 -2.242574088443058736e-02 -1.498547822063613782e-02 -5.713956261933288497e-03 -7.555076824124819235e-02 -7.648522209876208906e-03 5.778819260324248586e-02 -1.782821569967473277e-02 1.897453171967496133e-02 1.083270811383117357e-02 6.972984181895364175e-02 -5.379340358405665379e-02 2.218108239719214850e-02 2.714546307431890682e-02 7.213846777604389360e-02 -2.420806156830429545e-02 5.772184596965201919e-02 3.770214082887606011e-02 -1.485902015275554766e-01 -1.679842770077313030e-01 6.508738101415943375e-03 7.047862416213863945e-02 -7.353409498588439619e-02 -1.865866288456125011e-01 7.547701471665745065e-03 -8.755631963419883415e-04 1.152584430841382956e-01
1.421406416347419793e-02 1.520025109114631588e-02 6.816507183015641999e-03 5.462447730621213665e-02 3.168431847107927579e-02 8.452928127241037329e-03 -3.251724964653191635e-02 -1.383203046017401731e-02 -6.403965904566544243e-02 -8.802423876934332980e-02 -6.967184495989821313e-02 -2.163165007501650916e-02 2.417277576031749003e-02 3.436410756545950351e-02 -4.750470228582825971e-02 -5.115153746417552653e-03 1.122751147336266825e-01 1.869880738510337412e-02 5.323599010918150798e-02 9.325280128900560739e-02 9.374348873888890821e-02 9.373272861824223645e-02 -1.091616339510588785e-01 -4.436730684547548348e-02 -8.379565186165753229e-03 1.961363217839838177e-02 1.267283830202003275e-02 2.684531338820997370e-02 -1.644690692860699063e-02 -2.738603018015478563e-02 -2.659990286759270073e-02 -2.608791132833954141e-02 5.692035796925986463e-02 5.294328656822158696e-02 -6.250983514947747177e-02 2.479709224959505270e-02 4.388924564161170031e-04 7.251815011788920184e-02 -3.184528782177559886e-02 -3.979612081011386221e-02 6.089409623982856325e-03 6.166318572972383227e-02 9.009800427258150834e-02 2.936200219929436736e-02 -1.427765905887582289e-03 1.190391693684039742e-01 3.445680126115949204e-02 6.514185149257516183e-02 -2.312010163700894960e-02 1.322413141972033322e-02 2.530160617835686306e-03 3.080673329895356610e-02 -3.758396151561723547e-02 -1.094536074004881553e-03 -9.044641468487427116e-02 9.868027599044909559e-02 -3.208216452727786746e-04 2.139354421199270162e-02 1.408124619983815683e-02 2.880282638404371362e-02 -8.849172258436314997e-02 5.159505207703099505e-03 -4.982115210981411663e-02 5.975722009470937207e-02 -1.079489728259316605e-01 -1.978552717403122760e-02 -1.145632104910749849e-01 4.403877294439709211e-02 8.445879277532469809e-02 9.734737219764878421e-03 -5.486578246997136053e-03 -4.471649403502623958e-03 -1.984028176247697867e-02 7.393188906724292020e-02 5.371286683995235567e-02 -6.259068523068234136e-03 -4.640215834309487780e-02 5.976144617660104214e-02 -8.729188493876499644e-02 5.625264488883503083e-02 1.734707754594570495e-01 -5.421710698454720173e-02 -1.325651615000892659e-02 1.198378380041047186e-03 1.898343019802578233e-02 1.144778028982615797e-01 -4.937690029113957213e-02 -1.594103766220544838e-02 8.537842653949608007e-02 8.839416374289017428e-03 -2.236817344574047045e-02 -2.443747345036302240e-02 9.567940666542613937e-02 4.647251095827931340e-03 2.820950609298053524e-02 4.058756775908831105e-02 -6.396487976653495236e-03 -2.572262642515426093e-02 5.420305927452815503e-02 -5.739029295835284400e-02 2.714780047296994417e-02 -1.921026119741824426e-02 3.076274586064236399e-02 -1.934757811746759190e-02 1.595786223588290670e-02 3.530894692997735285e-02 8.065237672277663500e-03 3.422713013892553918e-02 2.022442929750894319e-02 5.336194073907422897e-02 -4.936099893799005683e-02 8.108097960767107759e-02 -8.826973532876052075e-02 6.440759143099192112e-03 -6.744668776249097830e-02 -6.991466101713850190e-02 -8.560090664393869841e-02 3.300042138240643491e-02 -1.283311786577776177e-02 -7.097352066144928251e-02 -1.309570255222534951e-01 2.396131238926874421e-02 7.838340355608432175e-02 -6.369816506959838191e-03 -9.394008587427615797e-02 8.580181556606070181e-02 -7.709039275003765068e-02 6.847319975696909700e-02
2.252452233694924796e-02 7.199757010098037369e-02 2.246058247687490739e-03 -4.153322624530195184e-02 -9.602065266260700893e-02 5.853132243002472784e-03 1.040730959828344536e-02 -8.722818255351391312e-03 4.198810601469785825e-02 -5.773905928325408221e-02 1.386468582517983578e-02 -3.889709107659988004e-03 -2.345959443870964181e-02 -6.493099819148570595e-02 1.277273873492667210e-02 -1.982962006835776309e-02 8.123741840513355739e-02 2.422377754562792321e-04 1.088633829144972087e-01 -6.838328474724494378e-03 -8.268474160454260258e-02 -5.256978027072414794e-02 -7.208562958754263436e-03 1.055005847318597062e-01 4.130756750020501272e-02 -2.486261671674136475e-02 -1.919227709732383713e-02 -6.847740835925948850e-03 5.699307028106742612e-02 8.022917084671234156e-02 -1.835327780129878197e-02 -2.293252153133648261e-02 2.073283552213720654e-02 5.615543510635985502e-02 -6.681780954825071450e-02 1.065699892697583549e-02 -1.882964413527396519e-02 -5.916830719371019010e-02 4.406103230555580980e-02 9.052111926275842324e-02 -2.597190678912439030e-02 2.437519824008804042e-02 7.224271338929813546e-02 -4.582939662923999485e-02 3.771839548534124120e-02 1.365597904502849173e-02 -6.460746763877614485e-02 3.748906504600020562e-02 -1.098006614022257882e-01 -2.308716984916215145e-03 -5.078656826038064308e-03 -1.095872119227526802e-02 8.474899302958610603e-02 3.764070365868842083e-02 5.054480670237046502e-02 -6.091081692699032435e-02 1.598010900427150605e-02 8.038743126010272633e-03 -7.613216991289181723e-02 -7.676619756180406984e-02 1.079543782048203449e-02 1.197419502000601488e-01 -1.101179105577542892e-03 3.192323953905707584e-02 6.368723382537597177e-02 7.384031572867084947e-02 9.877798361996995014e-02 -3.772609705199353458e-03 -6.014989340430761805e-02 -1.136066707019238037e-01 6.678307717789175313e-02 -5.394075365608561740e-02 -2.162550496350886670e-02 7.575284945715884954e-02 -3.056041018140382651e-03 -4.943421127017186625e-03 8.969092580831053430e-02 -7.718140870528450610e-03 -5.429808841221101835e-03 3.434340276003189363e-02 -9.837547536342686194e-02 -2.055633381249134806e-02 -2.580272201245228936e-02 4.218104114381930440e-03 -3.062039170298104952e-04 -4.285323405461834850e-02 8.405663929093330766e-02 -8.095360390017926344e-02 2.590586804751025818e-02 1.335500864800404607e-02 1.441963328566796612e-02 1.846295195164940686e-02 -2.009627400170186165e-02 -6.009261087736916113e-02 -2.972748433314435085e-02 8.144951486124868596e-05 4.914504793251581183e-02 -2.252688962977190956e-02 6.191643826828405195e-02 -4.169560006499407889e-02 -4.275448474613859767e-02 7.201265107757441608e-02 -4.515348913303808207e-03 -6.495312250061972825e-02 3.172594930620994264e-02 -1.269936341643100597e-01 2.202797707988929377e-02 -3.635971414923476214e-03 -5.073015673440786633e-02 -2.524888626930442762e-02 3.728697210231473940e-04 -3.747680274273035902e-03 -3.195450428397884207e-02 -4.188393157966456559e-02 -4.442056195828229803e-02 7.102222450635087281e-02 9.666875282702538930e-02 -1.999483559803326080e-02 -9.651409554857071083e-02 8.566454032186102130e-02 8.541009744742296406e-02 -3.873729803074263400e-02 -8.189831356040178090e-02 2.163665246023164374e-02 5.899462882383582282e-03 -9.301232506146543677e-02 2.298021735045559233e-02 -7.729605891533926354e-02
-3.761004741267773982e-02 1.109681611527969375e-01 5.052900799149238897e-02 6.519142684000760884e-03 2.239247783304284048e-02 4.407479573417562302e-02 -1.549701034327746196e-01 9.514120259489026663e-03 2.295584125985781696e-02 -1.662447147762783836e-02 -7.650366853627631192e-02 8.638498866122243033e-03 -2.593974508148440966e-02 8.000469564150677892e-02 -1.002304884651005340e-01 3.859657219629797267e-03 1.758589800937102599e-01 6.043220316343239640e-02 5.116637861431234773e-03 -9.022635738607606704e-03 4.250405454925265669e-02 2.764168708526586193e-02 9.387525623962804378e-02 3.489949752438781944e-02 1.374885534977783597e-02 1.168369092589875875e-02 4.212305276792106985e-03 -1.745742099771294478e-02 4.495631167036179265e-02 -6.269886886698063100e-02 -5.447627375609116057e-02 -2.670503573830644226e-02 1.198224847055192298e-02 -2.308622253508221117e-03 9.132287399170312125e-02 7.534331014625317291e-02 -3.343796521035739843e-04 -5.085754624707371219e-02 2.708676324347242606e-02 1.313223468955742324e-01 -4.612661491084433206e-03 -1.273596797647628953e-02 -2.132432237947590875e-02 -2.715630016618145876e-02 2.810177175608969281e-03 -3.216652071310762556e-02 -1.044964189783941511e-01 6.901790560740518610e-02 -1.175214076299997412e-01 2.690281950379837250e-02 3.010260577329376686e-02 3.574878395174267524e-03 -8.743106412177101272e-02 3.365129769829575124e-02 3.695317825356991825e-02 1.239051484610675519e-01 -5.559816657100175030e-03 1.143353017614734922e-02 -3.200716975696654264e-03 -3.718544007023149439e-02 -3.487362561293764346e-02 1.272635744659123547e-01 4.701941828379947730e-02 -7.553480594195556043e-03 -5.620369647387262607e-02 -7.547055727096957725e-03 2.743659754623213598e-02 3.433243939529775912e-02 -3.692543788197819726e-02 9.699698577099251373e-02 4.294504909509723467e-02 3.954021530067074880e-02 3.341776394198139270e-03 -5.491869160150440743e-02 5.555728701762650823e-02 3.479130095615431267e-02 -3.060737992152192874e-02 6.297014199635768417e-02 -7.174618514885391062e-03 2.283480009648516419e-03 6.033326403779882413e-02 -2.356687532509662425e-02 2.725425356572804339e-02 1.443604252993424628e-03 6.550311768471809258e-03 8.196094752569556274e-02 7.045774725213389648e-03 1.496734535575293401e-02 -8.161402239302632811e-02 3.431222158795151772e-02 -2.889861340775018439e-02 8.680895204987455066e-03 -2.331335759438109279e-02 -5.286987850202545802e-02 1.968551497468780040e-02 1.430552951349990665e-02 -2.785228147977278010e-02 -1.427497741624263704e-02 -8.187806893855226198e-02 -1.278574731955702815e-01 -6.030985163537608273e-02 -3.654146427455855217e-02 -2.332574551782571476e-02 2.391363959240552436e-02 -3.404416704883485995e-02 7.987435796774813856e-02 -3.889198254212337946e-02 -1.407459503072605242e-02 4.728958886805018774e-02 7.428367752029250981e-02 -7.136844474665543503e-02 7.772143473957124349e-02 -6.847295405791259393e-02 1.362652585977015274e-01 1.315865650195720792e-02 -3.901035828128771726e-02 -1.035924310917023111e-01 -2.141487734856330552e-02 1.462155815673680040e-02 -5.695680229498489844e-02 -6.276917956449377944e-02 -3.602269958497555154e-03 6.731347954511646137e-02 -4.465705750810027019e-02 5.752367782571401762e-04 1.057388716053443839e-01 -6.074087731736624307e-02 2.005503091161068424e-02
-4.849729628091616757e-02 4.879117489191213408e-02 5.189631619331494528e-02 -2.417669809735109240e-02 7.405587007772754596e-03 3.074445399651692598e-02 -4.326012237269530152e-03 -6.757437381146023936e-02 1.666545586332000492e-02 6.036587988954553174e-02 2.577511978509321178e-02 -3.176290412270912217e-02 -6.017173747151893098e-03 -5.890329344720144494e-02 -7.662818278036861823e-03 4.189354682530690294e-02 -3.895852242492936490e-02 2.088900279888014980e-02 -6.020364371141564280e-02 5.122254978932475056e-02 3.441678274717545338e-02 1.401105026758098573e-02 -3.064429942811921354e-02 3.942535535508162603e-02 7.100333120976708157e-02 -2.377213251328895438e-02 -1.652150346646629603e-02 -3.441137323527607410e-03 5.500179530904045211e-02 -1.246452067755657311e-02 -3.033532655080102905e-02 -2.031932447806928527e-02 -1.580549651672817982e-02 -1.764717498773045110e-02 3.023687721711412410e-02 7.837540489586940912e-03 -2.716954651924662414e-02 -7.291390298178757057e-02 -1.167607694902290418e-02 6.001756267949959894e-02 -4.543517695686190988e-02 6.650468135145494453e-02 -2.313305238902890401e-02 3.080861146558589239e-02 -1.229897679235717606e-02 6.833518349403043535e-02 -2.356081361001105892e-02 2.805027377823617399e-02 4.044405070837006014e-05 -4.106212639707022827e-02 -1.718616493348025173e-02 2.529715634848850227e-03 -5.561778295125234008e-03 3.177611342631755931e-02 -1.795681168842504574e-02 -2.706696133187812964e-02 -2.679113144360437343e-04 -9.215699563239740377e-02 4.724734782006449751e-02 1.503821729440741294e-02 -2.071576713641612791e-02 -5.295222538161589027e-02 2.273988635395697219e-02 -7.369989671305478274e-02 -5.384077723909010994e-03 -5.368330252211491599e-02 7.375962091493251660e-02 2.553238358748474712e-03 6.415730466105934449e-02 2.736241894814351455e-02 -4.549110432714433688e-02 8.317322473974018970e-02 5.925577435394420445e-02 1.755204791805509840e-02 -3.957488023497027912e-02 -3.371416691974703922e-02 2.920621822395911768e-02 8.359562130394579751e-03 4.471728689895513448e-02 -2.196822663657125793e-02 -5.415585639377821364e-02 -1.667419662018602977e-02 4.607993463131449668e-02 -2.080455440260693071e-03 -6.332926467247767394e-03 -9.773864663045177953e-03 -7.011148563773861309e-02 6.780501043220248103e-02 -2.317514271966271411e-02 1.542469215454503328e-02 -4.933820666230915274e-03 2.077382639881268644e-02 6.443312518066787731e-02 -2.817815972890245352e-02 5.094634070566517875e-02 3.516271888241554594e-02 9.340146668851997784e-04 3.441688424266949736e-02 -2.136934431866954753e-02 2.202977961712504137e-02 -6.881619575395084287e-02 -2.241554696625477211e-02 6.088601968036159301e-02 3.134967082334651906e-02 -2.482461428979768417e-02 4.740459979241315458e-03 -7.695569049211123391e-02 -1.032810396009373709e-02 -2.402927988924674282e-02 4.968485602838520337e-02 -1.882352704180545108e-02 3.019402720091236489e-02 -4.292462358597885080e-02 -7.169112799389561197e-02 -1.389304889086704145e-02 -7.151659203150116662e-02 6.773649712619023155e-02 1.006938625366642637e-01 1.181289972493936198e-02 -6.161455993535545211e-02 6.741440708449275392e-03 -9.134086948829825414e-02 -6.011829285937193151e-02 -8.917761274230552593e-02 3.144398736998080951e-02 -2.905889077236416956e-02 -9.810099187666078413e-02 2.272428623071164056e-03
-2.640375595953194446e-02 -1.518722950123009563e-02 -3.855296504278592218e-02 1.867255033909371101e-02 -6.504556351783559454e-02 3.701560936539399771e-02 1.168849517932673589e-02 -7.830263477867908939e-03 -3.286169650984564067e-02 1.252573166887831213e-01 6.866450052811923221e-02 1.198560391190727110e-02 -5.537744672258770179e-03 1.523966810857077699e-02 -4.486078304698513930e-02 2.345681046896489624e-02 -1.913717920732085631e-01 1.170144168060023929e-02 -8.146717449140665132e-03 -6.347646730969627726e-02 9.963796028860864851e-02 -5.195296372824582953e-02 -1.680481597473528210e-01 -3.574499249521190941e-02 -1.097332099349894452e-02 -6.017128081726464545e-02 -7.006750443411149942e-02 -1.071209988958618693e-02 -9.289799549033442294e-02 -9.354884696483509177e-02 1.716323097979810877e-02 -5.302977713666727488e-02 -1.727876305452665656e-02 3.762050389183902582e-02 -4.710538785700552761e-02 9.389732705644103505e-03 2.200122829305148093e-03 -5.135329805964774195e-03 6.249004127979029821e-02 4.240812743667331935e-02 -1.014369799898670078e-02 3.883932529355636071e-02 -7.688509329748345611e-02 -8.772990887194802301e-02 9.377717657384540941e-04 -1.806783179258174277e-02 -5.369978141137545652e-02 2.738915040394215156e-02 5.034326306139104423e-02 -6.130238699325593404e-04 1.834135374013420167e-02 7.694321482545718287e-04 2.678163454307780095e-03 2.450888551268246007e-02 8.608154708442755654e-02 -4.493623293991598489e-02 3.656206676200297184e-02 1.895508665624852027e-02 1.141612184405200736e-01 -1.620633254811928992e-02 2.701355184264982515e-02 7.546968423243050061e-02 -2.982510614394722967e-02 4.803451604479212073e-02 -3.600927920053217934e-02 1.319499648561467745e-02 1.023897390524531048e-01 -1.915151277458907939e-02 8.700173256027526891e-02 -4.755777414511169754e-02 -4.679488592225128363e-02 -5.497840368976117387e-02 1.451230392236171679e-03 -2.814213279824184441e-02 9.495108584320062495e-02 2.651840442486796262e-02 7.995330667747315920e-03 9.329498004447442719e-03 1.197823718275453642e-01 -1.843187502553815180e-02 1.957974551940353468e-04 -3.111796656081268486e-02 7.612371253463407969e-03 2.911440617852496544e-03 -2.050127364353620391e-02 -3.713072653668866158e-02 -3.586405903968616082e-02 -1.331038411839537486e-02 5.927406873147818278e-02 -9.701388709288880086e-02 -7.443252893995674392e-03 -2.623985394159916024e-02 8.182076539814744920e-03 1.570814453413989231e-02 3.101382929542547198e-02 9.187388183899350066e-03 1.211426172380461290e-02 6.488353847512767780e-02 3.514631960100535191e-02 -3.011569316911478014e-02 -5.298521228951786829e-03 2.742601866043665494e-03 2.732610997084375902e-03 5.451283764464547044e-02 -3.597019360939956306e-02 -5.699829179964135961e-02 5.047017550614157216e-02 1.558700211906152364e-02 9.139773221227573061e-03 4.129022749723873509e-02 -4.049565444020079147e-02 -9.218378983708366836e-02 -4.114993203933053206e-02 -3.013005961380226666e-02 -6.278571004253330479e-02 -1.091525557941339965e-02 -6.219228760591076488e-02 -4.976882134935872726e-02 1.779044878525950016e-02 -9.549771624803819747e-02 -1.244779880616573263e-02 5.447791293880890895e-02 -1.222106879142854235e-01 1.104943847906378201e-01 -2.202204897268653441e-02 -7.618025652222175370e-02 -4.498981998339895982e-02 2.236654156549711461e-02
-3.105812370031347473e-03 1.005378838467528985e-01 5.326198402478969640e-02 3.749442886458850821e-02 -7.535812036952237170e-02 -3.965357377813254897e-02 8.191826886260848706e-02 -8.105512724132357683e-02 -1.994361376534557057e-02 6.234114530416896144e-02 -3.244936919649784451e-02 -9.921379860358028879e-03 4.610896889063835317e-03 -7.838802733359756525e-02 -1.155142526834533612e-02 9.613675686138681287e-02 1.900510776291355550e-02 4.451937132330295588e-02 2.543305310183901352e-02 3.315809213232385338e-02 -9.231154168714612862e-02 -3.189299991259412353e-02 -1.778856320772228550e-01 3.033633195956659742e-02 -1.119145870808719578e-01 1.252572902837062289e-02 -1.955392432053175422e-02 -7.088401482035162036e-03 5.383085766008817441e-02 8.175584551366165895e-03 -2.002324272435061434e-02 -5.015930913140640400e-03 4.240841243877650768e-02 -1.609395414221526099e-02 3.577908278379283297e-02 2.256808877014025543e-03 7.330112631029396552e-05 -8.094592314774491648e-02 -7.629589818846722882e-02 -5.965811929920749462e-02 2.010764672240598558e-02 3.208268013294812010e-02 -2.115363148756166031e-02 2.414613384017723352e-02 -2.095809098307242074e-02 -7.504282732484974724e-03 -6.600022753160410260e-02 1.852323384137935514e-02 1.278510119934394076e-02 -2.823353308507177070e-03 -8.267136812733594199e-04 1.410062055474762491e-03 1.107995519577912626e-02 5.631566752949573873e-02 -3.247812485701374874e-02 7.021683009406191889e-02 1.175607226312697789e-02 -3.467013478466718368e-02 4.290408753639710082e-02 5.768696800477131348e-02 1.217974583756326057e-01 -4.509876561102691556e-02 -4.329410798867278434e-03 -3.832649040322472223e-02 -1.862430904954778116e-02 3.579076170231101223e-02 -8.381690120714051229e-02 3.471504396583501538e-04 -6.339810669470018201e-02 -6.793146020403172981e-03 -1.814566289559980949e-02 -1.434763596326237012e-02 7.137896001795657717e-03 1.000517791833131220e-01 6.106045515993216433e-02 7.552682514679863457e-02 -8.027768684032556001e-02 4.496997155627886072e-02 -1.319834740691998992e-02 -4.426357749497383115e-02 6.374249968878004102e-02 3.439475724796559747e-02 -9.175922659387573954e-02 7.134461116853527650e-03 -8.208113811160534096e-03 -5.200383916414229313e-02 2.211033083678385497e-02 1.832630005458865327e-02 9.497368992208351027e-03 -5.746838820374214341e-02 -2.766542764848923044e-02 -1.197944175285320656e-01 4.037641253020282650e-02 -4.425766241977694207e-03 2.034563112146036204e-02 4.546870599263583279e-02 -6.299345171058618256e-03 1.839612290242253340e-02 3.647435849050386508e-02 -7.211737308682466922e-03 -2.448294729229190392e-02 -1.601774372080164988e-01 -3.440577284671098718e-02 -8.712304171336215930e-02 3.364085780877369009e-02 -1.269373112957303609e-02 -2.706642817670642728e-02 -5.931686853527882303e-02 -7.269603646937612337e-03 -3.210065695050600548e-02 -7.897423749071319499e-03 7.456217861109548650e-02 -1.124985178322291529e-01 4.560014128644555159e-02 -1.536700669988420691e-02 2.157828588000500550e-02 -1.408359758798526269e-03 1.539768237006944665e-02 -8.471458295472409847e-03 -6.826455514828426441e-02 6.170007140731363637e-02 6.304499946549994849e-02 8.594680758794868980e-02 -4.236308383516728532e-02 6.406663633324806602e-03 2.191933371189819929e-02 3.414059710165225081e-02 5.251587422119878557e-02
