1.724924067596694810e-01
1.848458307471966544e-01
-1.414815650524693935e-01
-4.578203659844803236e-02
1.709093827724078307e-01
-7.862451598516329021e-02
4.942034066095783440e-01
1.714667108895557013e-01
1.398382615808496099e-01
-1.160857249311323947e-01
-1.199041465352137514e-01
-1.217093308762510068e-01
-1.858670081817789810e-02
1.019503863292163665e-01
-1.283379117623759391e-01
1.272886134013263837e-01
-1.708428395020232526e-01
1.536777001512967811e-01
-1.732730705204001687e-01
-5.332989264883802177e-02
1.785998767610340043e-01
3.184547370864362209e-02
1.132537745920186439e-01
-6.922485622147417361e-02
-1.110886014287468387e-01
5.831797548364742872e-02
-1.189000240808662928e-01
8.534751518880295817e-02
-2.468390150742509337e-01
1.842870286188476037e-01
-1.397832643885123793e-01
1.404473080795646256e-01
4.638638315452411204e-02
-7.798826960192845048e-02
-4.154999212080167509e-02
-1.383232057553391847e-01
7.374717528245462728e-02
9.585052332399900121e-02
8.890409972847077014e-02
2.682269722870812487e-02
8.785163183859510949e-02
5.430173538372606856e-02
-8.972800573972881943e-02
8.387069907141333006e-03
4.179667891821952502e-02
-2.981578556148356540e-02
-1.330565468538912333e-01
1.041889654433055534e-01
-6.174631253981163748e-02
5.312079314275328090e-02
-1.536039902526391276e-01
-2.109610857207063761e-01
1.083224669274081842e-01
1.147272453719163088e-01
-1.974500806700885819e-02
-1.559702623930974419e-01
-1.500382635603890735e-01
-2.042396030079460245e-02
-1.802110906493338827e-01
1.527483950973921450e-02
-2.956634851274032028e-01
-2.314399514021424631e-01
5.117564335470142084e-02
-1.450350854401287748e-01
1.052794479841380193e-01
-1.001694933952491651e-01
-3.200475204879816293e-01
-1.876798611902355182e-02
1.805747672117617719e-01
1.155246688912160424e-01
-1.817920084750978549e-01
1.033593637543094301e-01
-2.965445682101028324e-01
-3.937120529872286528e-02
-1.671196095366033474e-01
1.044695337196568652e-01
-4.933258406897304826e-02
-6.723904001255409657e-02
4.292852926849418521e-02
-2.698256464643879471e-01
-1.472269138774882913e-01
-1.137951741808146816e-01
-1.064002544099514058e-01
-1.428072778753014700e-02
-1.732000934885035148e-01
-2.387644909377866290e-02
5.665728470961360619e-02
9.159754484983100020e-02
1.641321333337700805e-01
1.268290582298895186e-01
2.419092259643649753e-02
-5.595528265767539533e-02
1.007671384422992832e-02
-1.348789176043035387e-01
2.095995557313746482e-01
-1.560578590289085632e-01
1.501845141026552088e-01
-8.857933285645769317e-03
-1.915033855857106379e-02
-1.050446692116514535e-01
-5.123270454855454181e-01
-2.883595494146310445e-01
-1.047366054254901258e-01
1.208499714390425944e-01
9.856146959492326221e-02
2.085474684204408069e-01
1.033538565066154796e-02
-7.133972133780973335e-02
-9.044962016053705034e-02
-8.082452352945708463e-02
1.690630376918310640e-01
3.201128929909031195e-01
1.128295547944404426e-01
-1.209179602446247143e-01
3.754376701407496908e-02
-2.543597356082291094e-01
3.815884337455601599e-02
-7.437044799476849599e-02
8.697368829877072383e-02
3.753697791628143182e-02
-3.585213235761860323e-02
-2.677611198372917278e-02
1.318469024317977800e-01
4.749329443899930753e-03
6.357836390463728060e-02
1.912725235661739409e-01
-2.630587429200460514e-01
1.739081282246061899e-01
