-1.967426470517794068e-02 -2.607547440485866869e-02 -1.009213773919554330e-01 3.911885102380787543e-02 2.880082073052274774e-02 -1.046553996463094223e-02 -9.381913128790403400e-02 -1.063307008104661111e-01 -8.182564142810701269e-02 6.767484711727621109e-03 9.601306440379049623e-02 -1.961846960538950191e-02 1.219282371885405114e-02 -4.459688041453777757e-02 -8.690895996399725099e-02 -4.781593958865205940e-02 -7.525100027986846019e-02 2.843655340029493939e-02 5.361832125393040105e-02 -2.376412188887935730e-03 1.309686458064388513e-02 8.101575153162215992e-02 4.851225681823164576e-02 6.609215859735997900e-02 -7.354700354786837535e-02 6.916218027034758131e-02 8.120787649217231507e-02 -3.548356438160130133e-02 8.632014784225186879e-03 4.042606000950164230e-02 5.908923067459901507e-02 2.179505996237146581e-02 4.263395051849135781e-02 3.395223336162438762e-03 7.228049669361780172e-02 1.354540787567354576e-01 7.381834054429416148e-02 3.527648927282887176e-02 4.398654320935809631e-02 7.539813890077652625e-02 -3.689941523514175814e-02 7.089192922955400711e-02 -2.607889737210725492e-02 1.103552538643715400e-03 -6.277764015865240632e-02 -4.027961266859078626e-02 8.733934427032520598e-02 1.272411303034195751e-01 7.991126184559733947e-02 8.677564661128284174e-02 8.349433894632201508e-03 -5.753522045801945373e-02 1.101877382023484266e-02 8.480603523882167261e-02 3.272377627949602658e-02 4.895248223172822544e-02 -9.148751411541101997e-02 -3.845202612669754855e-02 3.550448907422983427e-03 3.608884702960198781e-02 -8.761197542507009883e-03 3.374086620343602627e-02 7.980462012509229042e-02 6.419428765820088534e-02 -5.653436955475426434e-02 -8.108865850347365956e-02 7.828373064214323718e-02 4.957190199148266141e-02 -2.215229853694240802e-02 -6.417254978994378460e-03 3.932115030719090382e-02 1.497115646719914851e-02 -8.211466108492548877e-02 -2.170200054609749615e-02 -1.144968152731296908e-02 8.446818749206323751e-03 -1.764026883882620009e-02 1.192428289715244394e-01 -1.403895791631206702e-01 1.120699365410649517e-01 -1.327013769662230801e-02 4.045319100688639369e-02 -5.792223612977153574e-02 2.040038627657748613e-02 -7.479056820768174851e-02 -6.777355402415895236e-02 6.075796458177861598e-02 -2.637120881838548106e-02 -6.779784752745453280e-02 -5.001954379922220195e-02 -1.539733185326018147e-02 -4.665928591628221850e-02 -4.047241687705498830e-02 -9.190267158406920101e-02 1.136903807652470816e-01 -7.171668014003077310e-03 -1.504180904492477266e-01 9.523406843495645091e-02 1.388817701886399802e-01 -4.157274011652722923e-02 5.142177034830096305e-02 -9.895897153116753331e-02 9.315544790003364717e-02 -8.522514767541228622e-03 -5.988195732519683429e-02 3.073934017573613634e-04 -7.269942312973655396e-03 -1.532383023356906626e-01 -9.804461699456065715e-02 -9.810346640179964939e-02 -7.558179338009640702e-02 1.401126617023364801e-02 2.894272376054393605e-03 -1.898595730587422908e-03 -4.931281856967402238e-04 1.718934650270322051e-01 -7.535803895601994595e-02 1.968962574134539706e-02 -7.303792506393023964e-02 -8.070081769025179430e-02 -6.262622430674216756e-02 -8.621893633861212047e-02 -5.982542314423601459e-02 -3.553799161875272755e-02 1.883806303545932648e-01 -2.715211243517686723e-01 -8.688665612017709705e-02 -5.021557845978844026e-02
-6.356480127196109664e-02 -2.890949542332345995e-02 8.360482690782483628e-02 -6.838199152451939627e-03 1.283402621104863806e-01 8.978206767160774870e-02 4.911279536662990775e-02 4.918732394769480959e-02 -5.288670329327411351e-03 4.803970525857565593e-02 1.000355758546595149e-02 -2.152933585323367829e-02 -3.725469399600223053e-02 -9.741155152152213004e-02 4.355604372506025751e-02 -1.080658294513513057e-01 2.889130491067270004e-02 -4.977450812150705645e-02 4.962248676598977892e-02 -2.696734965771013619e-03 -3.917710600557335748e-02 -7.493174236259080891e-03 6.814855039447154095e-02 -8.164848974259951431e-02 -1.318255212694714913e-02 -1.677592450613762595e-02 -5.361996861422447386e-02 -2.364186433675874444e-02 5.533397969067014449e-02 -8.228653883986974948e-02 -2.121309128636564637e-02 8.103570415901140134e-02 6.261426267560857295e-02 -8.292078920508841322e-02 4.667281994505603424e-03 -4.456452388025630013e-02 -7.384531023343310352e-02 -6.632711434410428972e-03 5.446652687204120435e-02 7.343053110515912474e-02 -3.749198442935885306e-02 -6.206028303375538124e-02 -8.726867411972966115e-02 -6.113945619842819923e-02 -8.993477215646476786e-02 -4.784349523218874023e-02 7.295965295106878780e-03 7.195717634665460549e-02 3.428547421692994257e-02 1.348650734090886816e-01 -5.320873755380783887e-02 1.291716061775315810e-02 5.546071134960157967e-02 -8.877340201807577217e-04 2.891352051271368039e-03 7.019985762064474832e-02 2.931836745237121483e-02 3.355112737541277729e-02 -5.406875904547748558e-03 -3.424829986522127945e-02 -2.543893586671227419e-02 5.803782996852381582e-02 -1.288443758113418623e-02 -2.794318950660342610e-02 -6.635573626688792692e-02 -1.580687347739629517e-03 9.590490386308579696e-02 6.110730689625012285e-02 -5.071944217230933867e-03 2.490121232781297711e-02 7.281227227452205866e-03 1.063639499811050160e-01 -1.403883522557781982e-02 8.101581592549257638e-02 1.800113649057297899e-02 -8.266840330031286280e-03 2.130011454294856998e-02 -2.919463769961973265e-02 -1.191628632809271643e-01 6.924311528433518825e-02 -4.899296525875294905e-02 1.741732291330187060e-02 3.070979880240775131e-02 3.250740476793802930e-02 -6.725752410973737105e-02 -8.922016262761120475e-02 1.517158338285797383e-03 -9.417067965170670962e-02 3.549436515646691576e-02 2.314880261528358060e-02 4.777915791416593311e-02 -8.950457942803209666e-02 -8.044494918856991486e-03 -1.073524418828728094e-01 7.434789707501371359e-02 -4.347426100527499587e-02 2.301690591731949537e-02 -6.230354777915451947e-02 1.872592243851064694e-02 -5.432269203315528983e-02 5.663537266041174939e-02 1.469265639950212074e-02 4.612483975801280611e-02 3.449356209548751911e-02 4.796295070998741333e-02 4.966208836916401193e-02 4.214305454031284232e-02 -5.659232215400872290e-02 5.952633839043399572e-02 4.398146424405094401e-02 2.251601216687988509e-03 -7.372553185319923041e-02 -9.266678689317750517e-02 -3.300725175976101239e-02 -8.889321904302129040e-02 -5.461600644930841852e-03 -3.323144655418622251e-02 1.132588203281543887e-01 -2.762766341583074159e-02 1.113488182815649229e-02 -1.793598692637142500e-02 -1.092161820235054148e-01 7.224172529383326991e-02 -4.073488153640238835e-02 7.929395238206117524e-02 -7.279729544221905102e-02 4.346267065261157081e-02 -8.829321164662473631e-02
2.267501053207124015e-02 8.499092974454047766e-02 9.171931159650283799e-03 1.003685186282418512e-01 -3.372539447250846173e-02 -8.955071585958963853e-02 -5.482775498366621036e-03 -9.295310273402956902e-02 3.736162504396801226e-02 -2.434038875325809578e-02 -8.981842552414769087e-02 -1.699841264349776226e-01 -1.449190730493475077e-01 -4.692794284586766090e-02 -6.648525403619279239e-02 -6.574289263524338289e-02 1.443910391768059125e-02 -7.075470936092095875e-02 1.668706064157681607e-02 8.743082391907008866e-02 -1.043204652318185099e-01 -1.768781967866998525e-02 -2.028607579117759629e-02 -8.171043366498363658e-02 1.307410601093176028e-01 1.225112666322236560e-01 -1.007549219910880284e-01 5.350708900831618875e-02 -2.891381004463593890e-02 3.001501041190193092e-02 1.364403390422803779e-02 -2.040363210832111737e-02 -8.371830064761598411e-02 -9.568093631465339824e-03 -1.122374304473708756e-01 -2.640744078377472472e-03 1.711016610484875078e-01 -3.442472078610771258e-02 -6.826325570454033764e-02 6.079452106787083115e-02 -6.033730669928654561e-02 9.385612846321216007e-02 7.225250485284005764e-02 8.014023481158575116e-03 6.396469018835089504e-02 -1.921397454002960956e-02 -1.282723660934026455e-01 -4.007789110730962390e-02 1.423083199311565676e-02 1.431912230715443046e-01 8.595449591484391472e-02 -6.547827491993504778e-02 -2.748881604422187888e-02 -6.685313027042083522e-02 4.907092697593978814e-02 -4.650378946919771217e-02 1.595231994553584359e-02 -5.470074153006571765e-02 2.022454313557765088e-02 8.605145960877107203e-02 -4.933156574808435224e-02 -5.964835424739142050e-02 -9.408641158363270640e-02 7.773402184663913417e-02 4.021368535730363708e-02 -2.373812182053711833e-02 -3.860307774867661329e-02 -2.680587926863168408e-02 -1.380916448887790048e-02 -1.187231212701668938e-05 3.133868244101371131e-02 -1.826990175509544262e-02 1.960217057219119652e-01 7.538249774057363684e-02 2.238142538443445989e-02 -1.589853665746208825e-03 1.618129176271631761e-02 -5.722070513733542446e-02 -3.120509874736616604e-02 -6.263923311687390194e-02 -4.381733493570252186e-02 8.931538644222841022e-03 5.206163048388902891e-03 -1.067907587542438717e-02 -7.591492958679577074e-02 8.874971693965225117e-02 -4.305691537128340102e-02 5.524657130814308870e-02 4.881201367191023710e-02 1.345427190597695520e-02 -1.296129242469418706e-02 -6.260344799026115736e-02 -3.408585630484465417e-02 3.105437437344173851e-02 -7.324599104391879556e-02 -4.904935834340880957e-02 7.277247484205762174e-02 -5.220683961718806249e-02 -5.687350365895912918e-02 3.088799469855207577e-02 1.992464111604113838e-02 8.164974311021474390e-03 7.115952454040168351e-02 -6.932695572909854977e-03 6.537819776754331957e-02 3.657456329017203661e-02 3.958368130984853822e-02 -7.769536586587139082e-02 -5.478191049668353768e-02 -6.829595202177041191e-02 -2.836712875776200085e-02 -6.160271524211190924e-02 6.459690805304352246e-02 5.328685793452197367e-02 4.985058678285115424e-02 -4.816282234025712726e-03 4.751115653352032397e-02 -4.099470140224004827e-02 7.924992695065732895e-02 8.303694493898230999e-02 5.152993187137117764e-02 -6.798445495026986252e-02 -3.455570574794848693e-02 1.910581608369447959e-02 -1.285088169951874131e-02 4.207081168260914938e-02 1.180392567829711102e-02 -1.161795343303489818e-02
-2.042437661760737599e-02 6.914407807003822293e-02 -8.296245196353993490e-02 -8.273319009634239052e-02 7.286676011260383168e-02 2.653677940932498702e-03 -5.489058911608547114e-02 1.259105222364621107e-02 -9.594635242579767700e-03 1.408049580948634860e-01 -9.490860205050763443e-02 7.332468208909902196e-02 -1.764311880685329181e-02 8.433979306602530646e-02 4.962350863493010522e-02 -1.202583144797858689e-01 -6.834388944149900891e-02 -8.513385144536275706e-02 6.590596688549596460e-02 1.082435702636980329e-01 5.755788898659175423e-02 1.501466100325055293e-02 -4.773764417305279700e-02 1.510387302572389623e-01 1.297056432744445320e-01 -6.892759759585388724e-02 3.485227917822650984e-02 -8.844365429525372080e-02 -6.984404814539081630e-02 1.074669964436186093e-02 3.749092891204645894e-02 -2.503022679684974508e-02 2.609056138295787197e-01 2.092766074459461931e-02 -5.415978662621957762e-02 -2.419860157343259321e-02 9.075136185207711981e-02 -4.853934491183765215e-02 -1.281125157210621646e-01 5.841502971310587669e-04 -9.156537104907132296e-02 2.632415327019134096e-02 5.334810536659007757e-02 9.767383218313795135e-02 7.226114306784734397e-03 -7.669186199097810519e-02 9.868025030475832682e-02 9.732486635413496734e-02 -4.187604495629793089e-02 2.696114353041631148e-02 5.549877530791081509e-02 -6.463371702660568319e-02 1.108512651422621925e-01 7.490573834363511985e-02 6.248543572344860547e-02 -4.047506963828663429e-02 5.905587340573752869e-02 -4.833032203630607815e-02 -1.230510994945281655e-01 6.599843230981396192e-02 1.545702336857260328e-02 -1.528328576225158886e-01 -3.648353326257365581e-02 -6.190303511948503506e-02 -1.896111480068872826e-02 -3.119929526891106718e-03 -8.185523110617931586e-03 1.938956327397945226e-02 -7.124542497165414767e-02 5.321023650597660887e-02 -3.690911371088129861e-02 -5.531054245219713117e-02 -1.090583810863690190e-01 7.112377444915807256e-02 -2.356833805138839472e-02 6.605423519017166942e-03 -3.866207209139162215e-02 -2.688283004515973698e-02 -3.086338673512475927e-02 -1.647222740625543524e-01 -6.946216396523615874e-03 5.576165699462694303e-02 1.101907700597132000e-01 9.215527671341858240e-02 -8.380005898191174307e-02 5.767120356763203760e-03 9.666756408102321341e-03 -7.646899787988149788e-02 7.217066565471205730e-02 1.170466019506323160e-02 2.384617632437534274e-02 -6.688437200219331247e-02 -1.176301897344445568e-01 -7.541638813729810431e-02 -1.054878714147882042e-02 3.100522542028889827e-02 6.070497380898150219e-02 1.449362013038135166e-01 -3.809998105794685369e-02 -3.204022090785212801e-02 -1.304278523193573014e-01 -5.505118924594871836e-03 -8.505953418243217268e-02 3.179835911883822225e-02 7.557988701365976614e-02 -9.667314477094368641e-02 8.155920349805360903e-02 4.858504196841768874e-02 6.553833870515737847e-02 4.846947028494345139e-02 1.647863354081247761e-02 1.203211258893169787e-02 -1.130687803501944783e-01 7.792789397142149688e-02 1.111530127948061469e-01 5.995795497693844067e-02 4.733514377421889352e-02 -8.308599410920262940e-03 -6.227141564377061678e-02 -9.582689736250112056e-02 9.955598541285201608e-02 1.820303568809195083e-02 -2.767625198462983493e-02 -1.523602234034622874e-02 2.867051311438893052e-02 2.171518116214080432e-02 -3.717525193795712807e-02 -3.836204806123227201e-02
-2.415566886448648060e-02 -8.782374177025249751e-02 2.845336276845129159e-02 -4.215842447897232004e-02 -6.101755468668084575e-02 -6.516692102958061839e-02 -5.394330709756117032e-02 -2.893232170861899724e-02 -4.998330247635329737e-02 -2.639637520585977337e-02 3.502637065350090034e-02 1.187091607736906751e-01 -8.204741358557322839e-02 -2.918656606374437495e-02 -4.386361640217240759e-02 -5.951413641716954417e-02 -1.104088755498381334e-02 -7.966753284257008239e-02 -6.374914708998044577e-02 -3.783184622313353479e-02 4.203700629717793853e-03 -6.787711647266077286e-02 1.807745397185754957e-02 2.696594692258809031e-02 -1.052060772627817359e-01 -5.439500905206490211e-02 7.988735792022423621e-02 1.095780305458397830e-01 7.020839729988115341e-02 -7.754258738946867568e-02 -2.518310273972453744e-02 -5.272986828519226482e-02 1.631961321896903128e-01 3.611068939674095396e-02 5.966770295105115751e-02 -9.336290451411384528e-02 4.556054612497674461e-02 1.152839643106573844e-02 -8.566416555323169701e-02 7.987394097552358296e-02 -4.130936134802642296e-02 -1.985450314689128637e-02 -6.130944519012125615e-02 -5.551362556523435632e-02 -1.339938574239904201e-01 -2.783681261644755170e-02 7.330153084984835851e-03 4.277802839942167895e-02 9.180218452087222925e-02 1.249232985260670115e-01 4.295876572665290744e-02 -6.074901052032117416e-02 -2.961962782414385986e-02 2.974336832558503035e-02 -6.126122792555149799e-02 1.040321562455836235e-01 2.170453238833985193e-02 -9.387984103653391685e-03 2.616009519853482526e-02 -5.195522646643578601e-02 -1.052677078694905319e-03 -7.534833509028446286e-02 1.369546868479858993e-02 -5.861250582139750781e-02 -3.022623050149148352e-02 -4.521315905392724738e-02 -9.067723297474727939e-02 -1.823351024028855086e-02 -6.572789100538396941e-03 5.107320774280707520e-02 -5.949867266689888579e-02 6.959975377814579811e-02 -2.561253566266896362e-02 -6.200568020929963370e-02 -3.941946367225089565e-02 -8.410871432071338749e-02 5.912691675759216420e-02 1.436376147593941208e-02 -3.177549365812719091e-03 6.806687162338959096e-02 -4.797364116038359272e-02 -1.413850561794456062e-01 1.518334465856761503e-02 4.700149389113739834e-02 -6.690835966344481356e-02 -1.935582415758562227e-02 1.567741438220163208e-02 1.824640582912192416e-02 -4.524805396779035122e-02 -7.211793518993644958e-02 8.093854492587951310e-02 4.327742262494976150e-02 -1.753565256351807267e-01 -7.382160115998626093e-03 -8.339754947408108132e-02 -3.219794632939604480e-04 -7.044589216863275660e-02 -5.054546352541323256e-02 2.431269507802486310e-02 -1.897469203480577765e-02 -4.891146216519420831e-02 -5.304515494285672733e-02 -6.176186138440737522e-02 3.014828656992850006e-02 8.223711195418478836e-02 -1.433832348994481046e-02 4.068437294821852790e-02 1.057339907778381827e-01 8.749857720043324738e-02 4.399265173762104825e-02 -2.038961651687631969e-03 -2.450823432800123061e-02 -8.982326383512388712e-02 -1.206268512218974624e-02 9.637301978476742192e-02 -3.071660941763181257e-03 -1.325710580440239879e-02 8.358697399087103297e-02 -1.860429240448029792e-02 1.044750967505313384e-02 9.927514766873295898e-03 -1.666188424617929750e-02 7.017187656159400155e-02 2.864169943466452622e-02 6.976168405469607148e-02 1.636860115833262408e-01 -6.190572264603499963e-02 4.517094006147120283e-02
-4.859055800897059407e-02 -9.539639795613402695e-02 1.165480261018910363e-01 -1.130372258241458400e-01 1.510951997759633035e-02 -1.976084980409954506e-01 -1.643674648964461582e-01 6.250196140122656063e-02 -9.401031282532394673e-02 -7.817554267672961743e-02 4.321558722553219684e-02 1.148963528919321325e-01 -8.376712690836239650e-02 -6.180115651848643726e-02 -1.127277077223505092e-01 -1.246480658441055239e-01 9.777905880309090136e-02 -6.039312261450965891e-02 -5.702778479769257669e-02 7.512019611838467725e-02 -5.140935925945829682e-02 1.319402893126518650e-01 1.281178218083763587e-01 -6.893089435604276421e-03 -5.200056115627459119e-02 -1.480334718372168512e-01 -2.849951759877697097e-02 4.557977173216819222e-02 1.390444194105509325e-02 -5.214239338468979607e-02 8.267073936515278998e-02 -6.253565007781036744e-02 2.013592973635150996e-01 2.942891630275372775e-02 9.272922031440695989e-02 -1.346004565617046032e-02 -8.367533095583655489e-02 -6.542367731645164219e-02 -5.898617814671400228e-02 9.961042176233547707e-02 -1.064613173160926657e-01 -1.835460487286112441e-01 5.440674456695122896e-02 1.736969019072643616e-01 3.738405519221167650e-02 -7.493291877800536266e-03 -2.831909481610030144e-02 -1.951762439843871544e-01 1.034376520343327499e-01 8.761794923923442446e-02 6.975511257452912672e-02 1.265925881795591235e-01 1.229461587438068597e-02 1.401495445913423510e-01 -9.949662368883376278e-04 -3.613555586831333766e-02 -6.245314007387617328e-02 1.124717105148956564e-01 2.401618094398441094e-01 1.499874721100377950e-01 6.089148675901357582e-02 2.092107982268769789e-02 -7.763147857604016377e-02 1.150072602772218670e-03 2.855734801259655550e-02 -6.338763066249586409e-02 1.074633139605106619e-01 3.404462281957302411e-02 -1.078366353329943961e-01 7.288687216892095200e-02 -5.800676332185746020e-02 -2.023534294005157469e-02 -6.273991015639554525e-02 -3.948091111262904546e-02 3.829116062539117404e-02 -2.493896588759861310e-02 7.642078605535049252e-02 -1.554158754895707539e-01 -2.987981091026750691e-02 3.488165056353949300e-02 7.828980334716569012e-02 -1.183551646576205124e-01 -4.337082991244330804e-02 -2.223801357195908171e-02 1.017659260075495092e-01 -2.554343325201059722e-02 -1.297515079463006267e-02 -1.599973108139393640e-01 -8.396398588406372987e-02 2.640205231295901164e-02 5.619664761581765616e-02 -1.541978516422900895e-02 -1.303979283054335914e-01 -8.281325265369220145e-02 1.081901527209969474e-02 5.268556337679878437e-02 2.364678397899018514e-02 -1.211625928982230094e-01 1.118147465301442128e-01 -1.142267736774714298e-01 -7.343072509250411772e-02 5.810259941432734630e-03 -9.351198815543969312e-02 1.441314238444666995e-01 -1.463113730331784372e-02 1.166143669967195651e-01 -2.113007362647371934e-02 4.425188205667179853e-02 -8.349597800895705579e-02 -1.038201108378180582e-01 -3.047277542318992810e-03 -6.883859750431013669e-02 1.229275403144152595e-01 -1.131780469650687723e-02 7.720564755310732608e-02 -1.024806479050880265e-01 8.910154269476108085e-03 3.922385512396760893e-02 8.120298289336007336e-02 -6.247071137324856221e-02 -1.097797090041394974e-01 -1.643905077819391991e-01 -2.654549498536282193e-02 6.094414022828268523e-02 8.608715215790017916e-02 9.730836744792278892e-02 3.423653401551524696e-03 4.705316598858910737e-02
-2.357845987179078145e-02 -1.845183674868843720e-04 2.902089144950119673e-02 1.100543707499226642e-01 6.313905209325301748e-02 -3.891208448183123420e-02 -3.025852192344133731e-02 -5.083033479308370073e-02 -8.944512406712083752e-02 9.671638952095538977e-02 -7.252001319620726694e-02 -1.136251337532592949e-02 3.701045838572737667e-02 8.276526762875145715e-02 -4.358945047070635070e-02 2.820950257907372995e-03 -2.458960694923260047e-03 6.653211625124368089e-02 6.234569937323484155e-03 8.201444179879611995e-02 -3.284813696024115742e-02 7.896796788893187258e-02 -6.041953256502370639e-02 7.599130720547270235e-02 -9.468401866043307802e-03 -3.061984693830555396e-02 -5.344840712496120444e-02 -2.357907070199246127e-02 -2.991196246770749453e-02 6.685693104627726119e-03 -8.226335230736409043e-02 -3.191822799766817070e-02 4.194185086736128970e-02 6.951088210508742614e-03 -8.189175515908908576e-02 6.048098866196880558e-02 -7.365730639924353285e-02 5.661099963874567653e-02 1.202424341773996874e-01 5.466887574426509966e-02 5.612600262045676532e-03 -4.687237750371880257e-02 7.105373761984817849e-02 5.240686224418061000e-03 5.356417989073768149e-02 4.952796004262844526e-02 5.087301193178605380e-02 1.242343851714225976e-03 -7.838488017574812838e-02 1.668231756600890153e-02 4.964623316708184630e-02 3.039005110519558787e-03 7.520061432268985990e-02 9.140293762359856522e-03 2.607738220625726785e-02 6.157091435378463096e-02 6.982240975104948844e-02 -4.194845926149239762e-02 -3.623027811759230166e-02 -3.553743478618252849e-02 2.914548185623849763e-02 4.664195491933607191e-02 -7.238744169376734594e-02 1.007118193548959956e-01 -1.048242797135838789e-01 1.323485134201325859e-02 5.619505591976439035e-02 -1.416680522918247094e-02 -2.385386964936305268e-02 1.357796757535303933e-02 -7.865471490252216868e-02 -7.442445524709180409e-03 -5.582999064281025936e-02 8.525311982011300749e-02 -1.340011231412662276e-02 -7.314055295116047781e-03 2.137818451018669991e-02 5.209557964928764745e-02 1.757480752471932139e-02 -1.842651543247821738e-02 3.758268718812747978e-03 4.524123617401663161e-02 -3.945315228064671942e-02 9.523136019342239023e-02 4.137854436752591396e-03 -3.936979737051833628e-02 -5.123508203736437672e-02 4.636886914542526911e-02 9.147296811806693295e-02 -6.934318654185566040e-03 -3.777950096189417600e-02 -8.495332262728980469e-03 6.350054169630744982e-02 -5.706793670225263071e-02 -3.368390564747673205e-02 7.753582044823124908e-02 5.157695752972736580e-02 -4.907160641230431247e-02 5.462001791956896946e-02 4.459103600677184753e-02 1.570675390062659105e-02 -1.041405159245678558e-02 -1.051234006324944931e-02 9.076924977358494240e-02 6.052495046725307748e-02 -9.065091380826582890e-02 3.057781019005223477e-02 1.013458209466349957e-01 -1.232044470401333185e-02 1.622972481402376946e-02 -8.337747211881706144e-03 -4.101016827655848407e-02 4.288096441335065290e-02 -7.084275293313187661e-04 8.462899406000613800e-02 -4.061630837889224077e-02 4.107247690679952795e-02 -9.479450904332803463e-02 3.894867226251741421e-02 1.000799067418963947e-02 -1.133060785548062888e-01 4.367166418951315410e-02 6.775661845963558416e-02 -2.415719324607400187e-02 -3.571014552171461465e-02 2.163053065124363045e-02 -5.334711463321853420e-02 1.462175928853302366e-02
3.910410390772534571e-03 8.490248091696322996e-02 3.537547170388306156e-02 -8.150069204686699598e-02 -4.033125974871178132e-02 -6.287848942948175146e-02 7.886262663311570387e-02 -7.569115164223977343e-02 2.719282107680709090e-02 2.789859399708596172e-02 -6.950152669083528405e-03 -3.188715347280204979e-03 -3.822436266446126163e-02 7.225692919517782975e-02 -8.867922386800092260e-02 -3.107186057626006720e-02 -1.664738749666568388e-02 -3.522137406586069858e-02 -3.877422744766433060e-02 -1.242103416257292307e-02 -7.508791818907770144e-02 -2.419847537516968579e-03 2.722257612783542460e-02 -3.317924169385909339e-02 1.007228348461269157e-01 3.127718795252865114e-02 -7.635397034838725672e-02 -2.662413448162870983e-02 -4.479451266309810581e-02 -2.805072111148457920e-02 -3.725332376767018921e-02 1.732417705581432849e-02 5.757349340671625432e-02 4.495635381408676079e-02 -9.809413602226873738e-03 3.263730601060975400e-02 1.605608146155251478e-02 -4.020011751299735342e-02 1.047129073663673332e-01 -5.789290184857191768e-02 9.927384801393394909e-02 -1.997596386815907871e-02 -6.810681581104403859e-02 9.154376602373805183e-02 7.796146236063103419e-02 4.208948238719754931e-02 -7.311135468216477598e-03 -2.298417239618583130e-02 3.838589147565634515e-03 -2.499153128434039237e-02 -2.996541356810482337e-02 -1.485676784262545368e-02 3.342970205016392721e-02 2.917448529605481608e-02 -9.813612599844236117e-03 -4.354653004638042030e-02 3.995358821542975558e-02 -7.899523052551846863e-03 -1.361775287573548376e-01 -2.863395748397084412e-02 -6.078407610950931766e-02 1.126454880633150210e-03 7.136204063342618809e-02 -2.975304198868769338e-03 -5.979933638625867937e-02 -3.202309528268595246e-02 1.287889429322115198e-01 4.082941214500320631e-02 -4.581410606749945075e-02 6.060467936577026288e-02 1.674076754784066231e-03 -2.532729205100181513e-02 3.717068762734426074e-02 8.945794459509133489e-02 6.190495522999385491e-02 -7.080111649551223962e-02 -1.192338965169802492e-02 1.606012711142188951e-02 -6.101962190217871673e-02 6.003485848076133002e-02 -7.280452428087783728e-03 8.092331804749246238e-02 7.924947812961280480e-02 6.815342747644290156e-02 -7.529594474297841844e-02 -1.244658125322209430e-02 7.301721911805528209e-02 -1.321920253696937976e-02 1.779444940139038658e-02 -4.573310099618220492e-02 9.378488098501588542e-04 -8.084614264031486294e-03 -1.545828379613912529e-03 8.764554037218276125e-03 -5.034514413980257369e-02 -8.164440036717685034e-02 -3.196371924747327953e-02 -6.603841095498962088e-02 -5.984654525137521330e-02 -9.052196085769757816e-02 -1.224073181886228823e-01 1.596340731368539254e-02 -3.257665743045827511e-02 4.059030549785382080e-02 -3.889923326468711084e-02 -3.134127054295987591e-02 7.030876037415105528e-02 -5.441072096227572708e-02 -6.647065087130267502e-02 6.945955233751073543e-02 2.767867893318347317e-02 1.280054141651407185e-02 1.632817760808097721e-02 -3.734104887703686843e-02 -9.946994237085486634e-02 2.580934067677336657e-02 -4.073251805248042506e-02 -1.750443189933921159e-02 3.703025797958806736e-02 -1.591989247948209438e-02 -4.143443513424677205e-02 5.147393945707229995e-02 2.138438136567908168e-02 -9.181444386313156181e-02 4.095778046419510515e-02 2.950875861414591420e-02 -9.651747035076271852e-02 2.545901181883821612e-02
6.926525810657331583e-02 2.944261744481584120e-03 6.469226794405090464e-02 1.324583966414207004e-02 -4.150678932692637019e-02 -1.383865967280729359e-01 -4.211998600393724451e-02 -2.290450378464118416e-03 -5.095172999472847436e-02 -1.803405733905807246e-02 4.555035161745561723e-02 1.085279101601198531e-01 -3.925771546176056587e-02 -1.650303830685651355e-02 -5.172919575453769486e-03 -9.924515659280946922e-02 -7.945527555998464775e-02 1.348091540038177105e-01 7.691840411833149316e-02 1.916474209942515758e-02 1.050390142603541965e-01 -1.517860197394121057e-02 -1.023874677680244594e-01 1.095578499802843664e-01 -4.097114497606994810e-02 -1.126302061695898249e-01 -7.212555065280401578e-02 5.820605342143458927e-03 -1.563486236778864266e-02 3.943101656540490968e-02 2.849272688780251847e-02 -5.711687060572767649e-02 1.395573868478642079e-02 -1.061557953587799197e-01 1.361644834805963988e-02 8.698074708196426585e-02 -1.449516148536860449e-01 1.950226533753934496e-02 -5.586788503834458353e-02 -7.313210405907870360e-02 -1.387604349424298791e-02 -8.399478029534154788e-02 -8.758168834323812324e-02 6.824264487325325257e-02 -3.792442910603075618e-02 2.745711551062564315e-02 -1.924275751235460588e-02 -1.045415733844055617e-01 -2.170460887423940610e-01 7.773901819368834662e-03 -5.986737708800065477e-02 -8.249005996170416521e-02 1.151827919419160795e-01 1.013075057266972501e-01 9.411400590029966873e-02 -7.768354452710811431e-02 -2.882977825982755565e-02 1.494368710649066623e-01 1.912713873246860152e-01 3.206597707930133878e-02 4.789936298814227028e-02 9.877083269443044655e-02 -1.230455254323342823e-01 3.064951445574811903e-02 -9.104124599082709379e-02 4.822792988554393950e-02 5.344792353121763373e-02 -8.757569372748762182e-02 7.744534439286324123e-02 2.327809510822531971e-02 7.188561470658161312e-02 1.560545704553042631e-02 9.097353737906101190e-02 -3.807183098037413699e-02 7.806985884576173040e-02 1.214125181535231565e-02 4.580981851852131137e-02 5.913952520973618510e-02 3.972358341954207450e-02 2.631547876707794956e-02 -8.151138229020624126e-02 -1.198675017034939727e-01 1.945992367869731066e-02 1.057171973644282191e-02 9.044438390947591444e-02 1.367851048526191708e-02 -2.354152463558888825e-02 -5.345374436025147891e-02 -7.204876357851996982e-02 -3.618276651083104922e-02 -5.972637570167932224e-03 4.369795375050611330e-03 -1.967570994321137315e-02 -9.900770861937399636e-02 -5.451306091118735681e-02 1.028042030859518258e-02 -3.946176176029293596e-03 7.194068830392325031e-02 3.421332442235727744e-02 -2.669246744488083800e-02 2.468761073790184599e-02 -2.152088489646116539e-03 -3.572936114015266840e-02 1.047385367558082980e-01 -3.755241903793257990e-03 6.913301769411940578e-02 -9.269295727695554821e-02 6.819954535339781132e-02 8.319614116760754019e-02 -1.530828827038518691e-01 4.166844112489302004e-02 2.215939704351833905e-02 6.005927048538625690e-02 -5.724195785496540706e-02 1.459960887138116725e-01 -9.643111167904737380e-02 -4.743463876038862825e-02 2.523089379218660527e-02 -7.650963312813478800e-02 1.123863166150739640e-01 7.645942221107998593e-02 6.024390521289545858e-02 8.682251756677543397e-02 -2.982018191514323319e-02 9.228026937079938236e-03 6.582583309089735935e-02 9.137934468438319024e-02 3.937677589313256371e-02
7.918505060001528040e-02 2.273542348212332156e-02 1.246802236910251986e-02 -9.599599061492799026e-03 5.410151271470665935e-02 2.229833152098925284e-02 -5.874185939823429450e-04 -6.666449274392216920e-03 5.406293145059070521e-02 -7.905237600882429605e-02 -4.917666864305939023e-02 -5.466543600526772330e-03 -2.183669926605534550e-02 5.535259334824075422e-02 -5.677883597761237966e-02 -8.372490884500652375e-02 3.527356375288780849e-02 7.909276019415738268e-02 8.835486915093603011e-02 6.736845402150547224e-02 -4.175675640761061617e-03 -4.536768856006647560e-02 1.293110181989524411e-02 -2.294010815386451907e-02 -9.092964618953383593e-02 -9.819568387523770758e-02 -5.119930549122545665e-02 4.321382772880701800e-02 3.454113605128053760e-04 -7.355423435254972164e-02 1.624050658725086430e-02 -9.510357762663379511e-02 -5.273496305407191637e-02 -1.443090709234542274e-02 -1.068564405150116275e-01 7.760804800117614144e-02 7.054169135878873842e-02 -4.544338153481446152e-02 3.965022716237449896e-02 8.276687601831377028e-02 3.982260490173260975e-02 6.060580119720652102e-03 3.251881150857886815e-02 -8.198868477971152369e-02 -3.587685783342829671e-02 4.489502017655549321e-02 3.744852391077455739e-02 -1.438905900380690606e-01 5.667566231214994643e-02 1.757531672575916512e-02 -2.947287677426433522e-02 -3.585178420212492556e-02 -6.809552899478513166e-02 -6.323368108347161842e-02 -4.531429004552721407e-02 -4.721056985924237254e-02 4.456922672812371755e-02 2.681435877592801970e-02 -5.232828978117249480e-02 -7.134537686909105114e-02 3.342284935237570254e-02 -1.720320180731432433e-02 -2.841846120788737995e-02 -2.300955046146391930e-02 -1.052178694717797146e-02 -6.604357391431986413e-02 -6.022306490897994663e-02 -2.108412999804381086e-02 7.009066915111772378e-02 2.292322138661420650e-02 2.421215178311070595e-02 5.969539756974649031e-02 -7.064308446458515689e-02 -5.004693385284736395e-02 3.376483938684267036e-03 -5.746292624285959799e-02 -4.155084115860423893e-02 -2.546501228120740673e-02 -1.057139460623862486e-02 -5.411149050296498036e-02 -2.233081892261740142e-02 5.814646938103399526e-02 5.658783374930362320e-02 -6.224439343377214523e-02 -7.850966395125751063e-02 5.748660590694336381e-03 6.533379649164902658e-02 -4.612528113855474815e-02 4.229926628591122728e-02 8.198770592065200008e-03 -2.672829328677675618e-03 7.128468030080582774e-02 5.518603925555212730e-02 -2.710074293467970227e-04 -1.138362469995841536e-01 4.070909254291026069e-02 2.317890131899210185e-02 -2.816373939834175902e-02 7.052443735296179406e-02 2.347270685905635673e-02 4.392591303161459682e-02 7.358044373909808714e-03 -7.705804938674971905e-02 -3.556535474442772821e-03 -1.256401095751748763e-02 -8.746878707932595476e-02 -1.232336186766369059e-02 9.257353636603846136e-02 3.664962275872583192e-02 3.189455764918024822e-02 4.796708560225772244e-02 4.690211745090415441e-02 2.813318654255907506e-02 3.657621815018332473e-02 -1.401614661124605914e-02 -3.749600668278907367e-02 -1.764157925066675570e-02 -1.932839407726856876e-02 -7.667553791917437744e-02 -9.137700559590669624e-02 3.634823050939059441e-02 6.947994047021435748e-02 -8.122670324485702434e-03 -2.501348866955442271e-02 1.924951102935999053e-02 3.613292700559326415e-02 2.311885934595202946e-02 8.305330666135700424e-02
4.510788189679169891e-02 -7.746407188621104445e-02 3.054216487732664201e-02 5.018705420687218088e-02 -1.150814393984974093e-01 -9.425592874716025305e-03 -1.327116578472494444e-02 7.259878738951393295e-02 3.267063308155041673e-02 -1.789999347556167075e-01 -3.809902138583361880e-02 -6.504106295159345699e-03 -2.500131557563452234e-02 4.368593653700559437e-02 9.525888240900215465e-02 -6.218916079915048911e-02 1.012052199701636221e-02 3.702541943558005505e-02 5.108680921803780001e-03 4.539982921476867078e-02 -8.037067478492640471e-02 1.085488541461455125e-01 9.469884360191556383e-02 4.753529885459015919e-02 2.018923039803906250e-02 1.038261280258517549e-01 3.539601307118338952e-02 -1.043680060588399530e-02 1.306075098607541174e-01 -8.906890906939492203e-02 -6.528401264130122283e-02 -1.920101319737281889e-02 1.175817659806369514e-01 1.199288479273078085e-02 -3.134514871087913743e-03 -5.980905491455463380e-02 -4.055794121816529152e-02 -1.581229545334226008e-02 -5.532209032796098214e-02 6.198980394784952414e-02 7.696736167794969441e-02 -1.256072899921927277e-01 -3.931083761980642272e-02 -1.363114905871427585e-01 -6.459463554762501919e-03 7.457212343680856559e-02 8.592844544490503556e-02 -2.206025701109955856e-02 1.690519909063024906e-01 5.579599853849773888e-02 4.584947132451771407e-02 -3.135137394582518389e-02 -3.311097217720745250e-02 7.042218433711035230e-03 8.755932258179135314e-03 -4.280465127648586804e-02 1.401711204226506469e-02 7.501844487776977710e-02 -8.071013280208445828e-02 3.527105059172967044e-02 8.095322392854381599e-02 -3.380271489803029356e-02 9.628354549155994369e-02 2.495352135694516114e-03 -3.582582469760367712e-03 -4.690728171661457530e-02 -3.313088193720146318e-02 -8.400616002386047942e-02 7.679969698818536923e-03 3.436318183395058179e-02 2.783581557037597722e-03 -9.744168541282254015e-02 -8.476988739218396796e-02 5.485818162119926455e-02 -6.520134672326434455e-03 7.114251405012007867e-02 2.404059056852055412e-02 -5.766531501607296412e-02 -5.010864305234158378e-02 -3.169890707211318881e-02 4.470996933216735830e-02 -4.339267644769201349e-02 -6.746543590487423525e-02 -1.019484178280222891e-01 9.642136714522595020e-02 -2.480795899921931641e-02 2.117622906570275354e-02 -4.092687026972901404e-02 -5.314233684483472137e-02 -6.028319374703985239e-02 -7.031926250005825219e-02 7.111842658788400384e-02 -9.264040598408695981e-02 1.450269507153022393e-02 -2.883451549920572343e-02 6.191592623589963623e-02 1.858451792175397355e-02 2.006669543692837787e-02 -4.502487055965605223e-02 -4.556471624304444384e-02 -4.397701892001214599e-03 -8.605633940040391394e-02 -1.062359523776565673e-01 -8.968559409405614524e-02 -5.504469543583858163e-03 5.991026572378976844e-02 -8.065204712306346668e-02 -1.411429782772233021e-01 -5.375599692923314216e-03 -4.216833072603267535e-02 2.108291970372278348e-02 -9.048712330574745777e-02 1.057343813816080946e-01 -8.505451635486152226e-03 -2.677380873702682462e-02 1.890145219784809903e-03 -1.268766691279656078e-01 1.957185242899940614e-02 -5.603687383722390225e-02 7.789777685487689340e-02 -3.575057962807794143e-02 -7.458697261983911198e-02 5.968298185015528425e-03 -7.667262695451174115e-02 2.199251464604177770e-03 3.031957031501789426e-02 1.747401517945229880e-03 -2.073655952674800795e-02
-1.139532434752727613e-01 5.646734059148310336e-02 1.530556109129753151e-01 7.374125841036954787e-02 -5.572863609073577806e-02 -5.142204209611694193e-02 -1.086160641720663317e-02 -5.698146386405708065e-03 -7.198350579524474824e-02 -1.633631629698611976e-01 -8.114660302200374375e-02 2.729435736485273309e-02 -4.347095254446935175e-02 1.185595087205631032e-01 -1.778426452818101799e-01 4.475569939869385172e-02 -6.871545811928597702e-02 -6.886925610531087483e-02 -4.131244233022460938e-02 -7.446162990769890355e-02 6.765308149087902179e-02 -5.383434393236699589e-02 -8.576683448645475161e-02 -7.803569839490154258e-02 6.794538561374001417e-02 1.322326050616179915e-01 -1.413229254292636822e-02 -7.336338065955534671e-02 5.671960792884649799e-02 -6.197912077344970572e-02 2.809735835476499105e-02 1.055759513212380513e-01 -1.111214863303331274e-01 4.398250095558654815e-02 -1.028445663621692513e-01 5.406097027122853255e-02 1.431552414443108823e-01 -8.563711640806925818e-02 2.351495856403571297e-02 8.511208994821332918e-02 -2.542943037735705472e-02 6.537844845752088796e-02 -1.725648351940730447e-03 2.716453006347729904e-02 1.309430472496759743e-02 8.572217896806277881e-02 -3.437964971602126135e-02 1.082707073745495935e-01 1.874847516833006919e-02 6.046747025947383364e-02 -1.925589507771118892e-03 -4.404022602389223023e-02 -8.272556029269277633e-02 6.075416880519095286e-02 -5.618448409222134149e-02 -7.428287564882588012e-02 -5.105109771956119896e-02 -1.466458818115791152e-01 1.126003595385078326e-01 -6.021647756662072692e-02 1.551408116819252836e-01 -1.443839379040442183e-01 -2.475148903686723301e-02 1.254336239682646015e-01 3.148881789218853974e-03 -4.478681771768471681e-02 -2.056678215257606857e-01 -1.068546780183861761e-01 -8.145397593871585296e-02 -1.590097715137775425e-01 7.638890130259952393e-02 -3.376311088871983973e-02 1.611327793153262411e-01 -2.375987220859609658e-02 -1.389649136712995114e-01 6.255116343845047722e-02 -2.844047380396824351e-02 -1.893282062261246179e-01 -1.020880296680712201e-01 1.425771200088358504e-01 7.428489686838983530e-02 -6.664951812637014139e-02 -1.241353221204230250e-01 -1.406919232594203983e-01 -4.255698794879093916e-02 1.467229301149612086e-01 1.025959826604888048e-01 7.832771458386256214e-02 2.971080400242293029e-02 -5.102829749382412810e-04 -3.691353759826609265e-02 2.183003735337435414e-02 7.738388361837264529e-02 3.227955977549184369e-02 -5.288148399638278180e-02 -7.325073404519678692e-03 -1.308113971026829414e-01 2.726133248000940298e-02 -8.042610824110785206e-02 -1.568490778285121234e-01 -4.012942548773316097e-03 -1.496277412452414746e-01 6.570131653365722524e-02 1.598406497177793928e-01 1.142986894558854216e-01 1.242412984467095027e-01 1.740026255417858880e-01 -6.423508943053583831e-02 -4.393235354415072486e-02 8.343407032532913770e-02 -5.986042550552622687e-02 -1.740577283428460242e-01 1.607891642243869657e-01 -4.309078916964150657e-02 -7.590945015649060157e-02 -6.452034872967236934e-02 -1.181367209049844977e-02 -5.161266465532049486e-02 -8.358748690243825163e-02 1.093865118735339870e-01 1.269796091275141592e-01 7.239996905496980106e-02 1.091242491786319768e-01 -1.735429951952939531e-02 -2.720185150863439066e-02 4.325909720551837090e-01 -1.106390030420373038e-01 -3.565139100068707989e-02
3.233770486613513073e-02 -7.650435963256523031e-02 -1.006556146557660431e-01 -6.270659226262410846e-02 1.545959013818473116e-01 -9.716763722325674757e-03 1.525198884439479263e-01 1.134447407226857191e-01 5.549362530565903062e-02 -3.308948316694237946e-01 -8.508162602319867913e-04 -9.716883366990607118e-02 -1.138916673631969328e-01 -6.573038559520853752e-02 -7.064255632849091027e-02 5.077870638701317135e-02 1.332635793649872002e-01 1.601950340292172537e-01 7.013578906554626680e-02 -1.376024879799224443e-01 -1.080380970738419322e-01 2.690137482781743486e-02 -1.851537943819493368e-02 -1.300177366603055829e-01 -1.560709439913354757e-01 -1.935981310317672899e-01 8.710039030106289659e-02 8.409179723261668571e-02 -2.678005999982957866e-02 -6.522813530999878318e-02 -4.789726009489433944e-02 -4.101514858624068921e-02 1.987504306739907023e-01 3.490892536965917170e-02 6.110542365405986776e-02 1.969580085460706509e-01 6.426282201684004741e-03 -1.413338615912465394e-02 -4.670545518958962861e-02 7.681718474031018484e-02 -5.738053823093185180e-02 8.967863113769115879e-02 -7.682144994176085331e-03 -7.217581046992568861e-02 -8.856096938589629042e-02 9.675463642734785652e-02 -6.681459589083535433e-02 -1.471511138013464337e-01 3.851698143336952929e-01 -8.873674422577368381e-02 7.088506043515650779e-02 4.462243356156990470e-02 -1.314463735286958423e-01 -7.709027195166361091e-02 -5.789633666072663276e-02 1.027280316823370593e-01 -1.649601414578281133e-01 -7.917186318270963419e-02 1.213639419242235062e-01 -8.124798159468569342e-03 -9.856919825046508987e-02 -8.282858805844381389e-02 1.512232307604934878e-01 -1.416298839809304044e-01 6.021135297720875412e-02 3.324586606391799481e-02 3.631653894614900700e-03 9.726569888772546024e-02 -3.067918703019579391e-02 2.271424632517786701e-01 1.003728346901360258e-01 -1.333940678614361497e-01 -2.070205144090496163e-01 1.237445091534651598e-03 7.849533667019531480e-02 -6.632449293397757462e-02 4.904778626016335213e-02 -1.274096359409866985e-01 8.875220341266668034e-02 3.809848518438792297e-02 -5.786007000990140564e-02 2.677794224421808575e-02 4.350523088826177553e-02 7.412374678058716859e-02 -8.396398555046888368e-02 1.164891709566805017e-01 -1.572019405576169093e-01 7.542527686434136180e-02 -3.217201007219029629e-02 7.998843506917895085e-02 -2.962037954674535609e-02 -1.402324939523353665e-02 2.840954841652751917e-01 -1.310892485224716963e-01 -2.124180913837495771e-02 -9.352149393985452475e-02 -4.368042304359257000e-02 -1.839509359079401218e-01 -1.996544915243350996e-02 1.999381890628697603e-02 -3.163532813877990152e-02 3.364482042166074827e-01 8.483314329508739871e-02 -1.888387231777562125e-01 1.380859195007249907e-01 -1.727239258930829066e-02 -9.791487239273072296e-02 -5.224078598396245804e-02 -1.173427585253439959e-01 9.250359911695274495e-02 -1.822646354181802625e-02 1.848047083031695570e-01 -1.678494403709918648e-01 1.260011113540018823e-01 2.043836411466097222e-02 -2.756915808628469106e-02 -1.417979922355658839e-01 1.419723250243327406e-01 -7.257761591224192593e-03 1.686194686498322937e-01 9.395784414151771291e-02 -3.124412695146918106e-01 1.434588625180504597e-02 8.108735832562210741e-03 1.822344443102678901e-02 4.083459679018042535e-03 1.134537852538522601e-01 -5.513751074156651721e-02
6.659398777265393421e-02 6.407466680675831354e-03 9.106137009852394160e-02 6.112197007491554368e-02 -6.448747731911218251e-02 2.767229096425023391e-02 -5.045272744025913747e-02 -1.010971972441670336e-01 1.057810954510291085e-01 4.244731232748789884e-02 -3.811672513544648450e-02 -7.600354415028494348e-02 2.329269105303111154e-02 2.943728894506002225e-02 6.750208742009539131e-02 -1.365344511142425584e-03 -1.056842579365452617e-01 -5.391482054568744013e-03 -2.679825641109935888e-02 -5.726603510382480278e-02 -2.103430786471375321e-03 9.602153631750731666e-02 -7.495118591147247045e-02 -1.061103335001068182e-01 9.569081738114838809e-02 9.401601315767378619e-02 -4.457475945790712046e-02 1.101738755072055251e-02 -1.158212349096830393e-02 9.506739998886980236e-02 5.312160117575115414e-02 -1.099555468925203228e-01 7.138254801975391084e-02 6.945962851950281125e-02 -6.961645271976286964e-02 -3.953710519102313081e-02 5.951486196828569691e-02 3.749691862759862993e-02 1.878404075337659690e-03 -3.906399175158879744e-02 1.127945392092374616e-03 6.550900191298497655e-02 -1.237501623368456212e-02 -9.769606584257395365e-02 7.000304267509613321e-02 -6.445409208706873172e-02 1.204205643032048301e-01 9.308653775743959413e-02 1.121484927801417314e-01 8.053971576813956368e-02 9.105845261911862942e-02 -4.069575843824573685e-02 -1.172734454155661826e-01 3.857928444317193332e-03 1.819968192058857293e-02 -2.406036923228161567e-02 -6.705802721436039671e-02 6.130143487415670549e-03 -6.084715339485162466e-02 9.732445518952327623e-02 -5.891210205133386169e-02 5.726536993996095976e-02 1.968456196462648189e-01 1.154651933099266475e-01 -9.667024387603397051e-02 -3.201560146364530041e-02 -2.621046775298619194e-02 -2.530653356974459089e-02 -3.491409953831457746e-02 1.364275017980595001e-02 4.169712399560172866e-02 -9.139660759075912688e-02 1.014368942554135476e-02 -5.207147662841580399e-02 7.292536474134982127e-02 8.452795980595294301e-02 -7.249701338077180202e-02 -3.911474517510761528e-02 -2.788980441897176074e-02 -1.928257156082780963e-02 -1.112322822336690720e-02 4.118208809362945699e-02 -4.583233170978485288e-02 -5.582740825878557481e-03 6.358810987608151666e-02 -1.002246660187150196e-01 1.561553906347928726e-02 -5.673576344090022067e-02 5.469464472919488562e-02 -7.299574750697018083e-03 3.722909547540293601e-02 7.767367394710165962e-02 1.173336058056985293e-01 -3.585478223969334327e-02 2.523462539126584275e-02 -6.278972952891144488e-02 -6.579437372873143952e-02 -2.241471614520287176e-02 -6.235844199548835898e-02 -9.107919865094779577e-02 1.626747513324099392e-01 -4.051784857198795914e-02 1.867062601333492264e-02 -7.583488248159678258e-02 -6.540132369956619396e-02 -7.714143440082778247e-02 -1.545532713355510582e-02 -1.003990817305802780e-01 -3.206854043410656274e-02 3.890665551367020886e-02 -7.291231528073167933e-02 -3.228132209925812374e-02 8.874357711203792465e-02 -1.176303712751444325e-01 3.894113256738047923e-02 3.063036302454199764e-02 -1.798208808217414620e-02 -8.458653731814624530e-03 -2.270947513242592072e-02 -1.929987478015855610e-03 -7.125679217649499853e-02 -5.106913015131066269e-02 -6.586415591646999079e-02 2.132202268749819329e-02 1.241483670730753400e-02 -1.561333306279104327e-01 -8.194397876192019425e-02 -1.089811963222375862e-01
-7.291908741616627554e-02 -4.399768803740136680e-02 1.777864619791203263e-02 1.793046780614674165e-02 -3.476263351299447441e-02 2.835946152412603324e-02 -1.518275245443634694e-02 2.162904378952143492e-02 3.025018775774428181e-02 1.567625373264320068e-02 7.778302170310222308e-02 -2.917821397748643353e-02 -7.259129569440722629e-02 7.795993636145661515e-03 -3.547723531523369611e-02 2.974930110807280995e-02 -5.816939426651702300e-02 4.200011328427658008e-02 -4.340021999100199257e-02 4.900821119869949727e-02 -8.806432646726077007e-02 -5.228976065596768752e-02 -6.708346667818575193e-02 1.745256584515393963e-02 -7.215654456978920495e-02 4.509929148595243076e-03 1.084657874404659772e-02 3.770816028223307470e-02 -1.855831221441248818e-02 -4.529517116475007682e-02 -4.724011892374617438e-02 -4.106517728987080403e-03 -2.083562593067897831e-02 9.464183899696310132e-02 6.905281938142318610e-02 -4.907049234510472285e-02 -6.813551787951992178e-02 -7.169803991729191417e-02 4.956982194195707486e-02 -4.881387285923497604e-02 -6.209490464531245563e-02 5.241693816370510128e-02 8.131320564570548859e-02 -2.113452569944657827e-02 -5.386819990683730519e-02 -1.888058477420350226e-02 -2.864158503231475222e-02 9.813973361596682599e-02 -7.038328172670105243e-02 -2.720109801734033397e-02 5.620347523690748248e-02 -2.294957710748061000e-02 6.374715230807674604e-02 -5.223190251242646603e-02 -3.369570089940700230e-02 2.561598843468945383e-02 -8.321283842565810329e-02 -7.703556436808096930e-02 -3.602491526663541277e-02 1.924349292773804704e-02 -4.435236832576134464e-02 -6.537780592747349448e-03 4.634451932995158063e-02 -6.838056065418170182e-02 2.493285253966530737e-02 9.351121150044387764e-02 -7.390759094821144903e-02 -6.818640817639835816e-02 -3.871751274223600436e-02 -5.143690901441640151e-02 -3.777257575333588246e-02 -3.571521843282825237e-02 -3.821852032728693255e-02 -3.150435531005816442e-02 1.923008979226566509e-02 2.988720007554632099e-03 -5.360436400718824983e-03 7.872110144887412009e-02 -4.024691635002430878e-02 -1.694646357849082310e-02 7.573002968411562952e-02 -3.657044930936812627e-02 6.122931962695261215e-02 -3.325883020943062873e-02 -4.633464151540200859e-02 3.504695157033895056e-04 1.269109762871159681e-02 1.373012948890713070e-02 -7.876984110631854441e-02 -3.655329040412643588e-02 -2.338652531443860538e-02 8.354576899570723136e-02 -9.140918453592118686e-02 2.187295776681888460e-02 2.561389651173722262e-02 9.077538571709467541e-03 -2.023214203445126286e-02 3.003714472045275127e-02 -2.810338309235228121e-02 1.469822614615225349e-02 7.394085187664273251e-02 5.678328685632669931e-02 -2.003138594523684937e-02 -6.757498305782282111e-02 6.019168910390373939e-02 3.729613897851857818e-02 -3.135710810776957264e-02 -4.469454336989144017e-02 -4.829101594573348422e-02 9.761688268461540807e-02 -7.958018115605103304e-02 5.573997429886183574e-02 -2.167715190648994775e-02 -2.249154961862128311e-03 -8.212735561955343891e-03 -5.722216619612542632e-02 -7.323669967726917363e-02 -4.343211208317347694e-02 -3.078118238502713239e-02 -9.257168428640298596e-02 5.623042858364232094e-02 -5.682799698594970250e-02 -6.561314241276260117e-02 -2.350642138620302312e-03 9.995733633395581519e-02 1.466676338798046132e-02 1.387015181340317017e-03 2.214356119353933644e-02
8.036827582463045017e-02 4.936629018964642027e-03 -8.928493426648610731e-02 6.262391817783212467e-02 -6.390194304157451044e-02 2.551308811914587693e-02 3.931815111677661179e-02 2.254775360074772264e-02 -8.292990391574413256e-02 6.782937329727455056e-02 -5.776000310728898746e-02 -2.133718370296228128e-02 -2.993666368070068209e-02 5.101991664353026229e-02 -2.660183026205703224e-02 2.148538910925045300e-02 1.291018789942069978e-01 -1.608501304822200495e-02 2.831776603013316795e-02 -3.320565558662393058e-02 -4.219692839732718664e-02 -4.012418001522135430e-02 4.256844063961986308e-02 -4.520145546611567533e-02 2.248692629701727966e-02 9.046319922614801112e-02 -7.318291623967043691e-02 -1.860111799305965569e-02 3.573044259017890689e-02 1.826267057723744355e-02 1.644420900927352075e-02 9.291476517771742050e-02 -1.293382747870090999e-01 8.615240139282758641e-04 -7.791505733729416419e-03 -2.003308513241475880e-02 -2.485264539835987940e-02 7.802396851330284377e-02 7.413222722277369725e-02 -2.397922960199580511e-02 -8.718256966710000166e-02 -4.221451807196999195e-02 2.093415235456387927e-02 3.208369969239294878e-02 9.672359058386069408e-02 -3.776597397545979670e-03 -1.304083927897515399e-02 2.718065797374712156e-02 1.025056051204947805e-02 -6.043786407619511358e-02 3.423541906966004467e-02 1.347107470092265280e-02 -5.398397062078051645e-02 8.844102398104668195e-02 -2.898028194085086953e-02 7.253178973894756909e-02 3.342947453113458839e-02 1.314272807100290950e-02 7.508275068681961872e-02 3.803320616856991493e-02 -8.141374622076632444e-04 3.419162924332088543e-02 4.164781304212322038e-02 -3.465836449836701139e-02 6.973411496690672118e-02 -1.050770418718231514e-01 -1.032661177664279534e-01 5.209669233075499284e-02 -1.278777063758949895e-01 8.347460791522422208e-02 -7.673600120203923070e-02 3.159657938930187510e-02 -7.149226630077601397e-02 -2.603111735220128495e-02 7.553149471450443242e-02 5.643895969554639513e-02 -3.924702303099012607e-02 -8.324371317520987135e-02 8.117118329127492871e-02 -5.125490777650572316e-02 -6.334575756930528601e-02 2.804472076762682883e-02 2.379706367005787054e-02 8.282256598629699623e-03 -7.145145887491366476e-02 -3.758972792666193802e-02 -1.239479723929292482e-01 2.290996424559473693e-02 3.352873571338185754e-02 -4.781389859371224654e-02 -2.284264005909269427e-03 9.942901275642079817e-02 -2.553387918263332751e-02 -6.249058599369540501e-02 7.854886598985543616e-03 -5.514199369495553782e-02 -3.958875706451665810e-02 -3.834209865901057335e-02 -8.680918386412235510e-02 -5.858178017001328119e-02 7.720963892914627091e-02 1.431059493836845699e-02 -4.792214800730294766e-02 -7.297132160925397237e-02 4.714997493209250462e-02 -1.307276328094347795e-02 -3.454248206355680501e-02 3.518558951501776083e-02 -3.528682666743751528e-02 -2.534159499135454213e-02 -6.932943448104421369e-02 -1.118455827384433332e-02 1.788327734686008140e-03 -9.237472862523665729e-02 -5.997478973754520604e-02 1.724555927308560332e-02 4.436727754931995421e-02 1.831801257165952468e-03 2.565362390666833803e-03 -4.888857766561619661e-02 3.800898820901750692e-03 -4.316956279980466160e-02 2.280403717139537281e-02 4.052606617266225203e-02 8.089724873128500970e-02 3.173422171460664465e-02 -5.413740651182909203e-02 -7.895075307127552219e-03
-8.556695017628261624e-02 -7.654174738676661205e-02 -5.423838218971770153e-02 -5.391962235496370465e-02 -1.263325013622252913e-01 -7.008600573980296178e-02 4.834891842845653182e-02 -2.893495617741959763e-02 1.254744801043818948e-02 -1.191217720531130009e-01 -2.141246614260731117e-03 -6.902822206938763472e-02 -7.783640131197488987e-02 9.767072929845953266e-02 4.885975938668138396e-02 -3.996077079402465815e-02 -4.808872191657356278e-03 4.999999763991882368e-02 -1.074975548160059247e-02 4.964178406517491537e-02 6.988138834072214756e-02 1.914860848033543214e-02 4.724586397357102840e-02 -5.616119173903626194e-02 -3.667117906189722859e-02 5.658299623388912854e-03 4.214115119699933520e-02 3.446314080347728098e-02 7.506794801152709418e-02 -3.441649532543968049e-02 3.721462495887584154e-02 5.013324446498839543e-02 -5.846555943326216254e-02 -1.596518198604979927e-02 -1.579721180792888202e-02 4.938022384651231944e-02 5.704849833545036497e-03 4.985051294586950212e-03 1.948071614496789047e-02 2.052129689228129189e-02 5.708548307395253790e-02 5.512163944399647852e-02 -3.598661781887077526e-02 1.095729718771794314e-01 5.216464258309265987e-03 1.292853355481839162e-01 5.732588489616474714e-02 -1.391476161510196985e-01 2.120190143603540786e-02 5.093091234764932085e-02 -7.361796469068394855e-02 -9.017019906845114008e-03 5.625033743481053228e-02 6.543611329362278295e-02 3.844545365690776872e-02 -1.041291332912594181e-01 6.305325669439160174e-02 -7.142371762918843341e-03 -3.173471857758788234e-02 6.847953540457106525e-02 -3.341436192604277378e-02 -1.421340165887593522e-02 1.220156633720392292e-01 -6.119807719027377246e-02 -2.262570969718381148e-02 -1.174087657105775534e-01 2.959958676904174066e-02 9.229478664531401422e-03 -7.649985871021548756e-02 3.016012411383036523e-02 2.766297716929443443e-02 4.219459298301956457e-02 9.865180319826813773e-03 -6.489801891946278545e-02 -6.671777984528434735e-02 3.375988497155060775e-02 -6.704949382180010187e-02 -4.530976931173642114e-02 -1.184016133554144645e-01 2.070873979994721642e-02 8.645562147325783209e-02 1.545867148095620980e-01 1.141203025642044816e-01 2.883612610423154018e-02 -1.287054517445431964e-02 -1.399011833501785929e-01 -8.171010430433454930e-02 -1.353044089485898500e-02 -3.003501007988374980e-02 -3.996140479307305066e-02 3.558319858815903181e-02 1.712346574477547788e-03 2.404954299565462833e-02 -3.491861683113598597e-02 1.493956978646847648e-03 -4.551987830220947939e-02 5.637953298726796486e-02 5.732742613857790687e-02 2.620875893618814997e-02 1.048137737207456913e-02 6.042291646673868949e-02 7.418343162142559954e-02 -8.409677881341730277e-02 -2.176934893568957877e-02 -5.062282573533253421e-03 5.842662831850954641e-03 -5.376169648151899599e-02 -1.832900530913267323e-02 -4.774394984814233495e-02 -6.859976704742282161e-02 2.226120177439585538e-04 3.538051257016643081e-02 1.088599650777380690e-01 -6.347902104395304612e-02 -3.246937404104409397e-02 -2.720139300265470364e-02 3.534711916743127347e-02 9.544757502663411830e-02 -2.012486334347855441e-02 -1.179942784477440096e-02 1.345379837956713065e-02 7.785615572297179335e-03 5.638593243099461472e-02 9.204963475239399950e-02 -4.356501485208408991e-02 -1.198813672404056424e-01 -3.891160861332912391e-02 -2.236297217607300866e-02
7.205895955941095388e-02 -2.512308434679415975e-02 8.211750546703462661e-02 1.377371119461532345e-01 -2.112109568162064133e-02 -3.062574232277839176e-02 8.991439414868941660e-02 -4.725072897293124130e-02 1.939453079128217183e-01 8.910621931625860304e-02 -1.539657677460746776e-01 -2.862541377013739785e-01 6.116073329874176928e-02 1.077886406514353967e-01 4.419740433734791266e-03 7.536257572938548366e-02 8.485739056036192829e-02 6.088430940764124472e-02 9.520322943471011545e-02 6.179571556646559771e-02 -2.231196142342555255e-01 -9.877664445457944031e-02 8.491938675351679011e-02 -1.232830631669796784e-01 5.769695598228687973e-03 1.514464665735884563e-01 9.931656864197812781e-03 1.721858435552885841e-02 7.129012529020792126e-03 -6.009825314077741482e-02 -5.053367102736624344e-02 9.230428815078374483e-02 -5.636046628978051698e-02 -9.748239614876556824e-02 -1.134120436555685896e-01 -4.629021186827637219e-02 8.202578592979471728e-02 2.795511001047390563e-03 4.573650969360113644e-02 7.991125562328088572e-02 3.646752240147192736e-02 1.580703219827846451e-01 -6.425968044079991004e-02 -7.794130015273942336e-02 1.619756105914252897e-01 4.245759623630018798e-02 -1.139910044906029124e-01 1.268738791918984921e-01 1.654640778510741983e-01 8.809554958642913658e-02 -5.038779725533161502e-02 -6.509329400870590698e-02 -1.226093459067426408e-02 -9.044464093825300977e-02 1.351613832095779032e-02 3.690584054495273970e-03 4.881272744472141961e-02 -3.789162345396007020e-02 -1.680987458142690072e-01 -6.052251207939824545e-02 6.111910249190857097e-02 1.459842778344464485e-02 -1.432018923816816836e-01 1.121506658573097753e-01 -6.730736806409681749e-02 6.561542242157820948e-02 -1.100138877734554710e-01 3.605822989362027914e-02 2.307491557163582688e-02 3.533433949347044439e-02 2.851971662941308813e-02 -1.025077072054144667e-01 5.960206244558292898e-02 -1.248051261092321534e-01 9.288739915074513409e-02 -1.101285176449833814e-01 2.734310093597649288e-02 5.218636970251662455e-02 5.136854862875517985e-02 -3.038942327541968233e-02 1.740500648381148804e-02 1.584411438829636809e-01 4.281130991711458444e-02 -3.054896232814103760e-02 -4.939387230823358982e-02 5.013005441672081092e-02 1.386227017887553190e-02 5.275698347559292650e-02 1.369595896264962365e-01 -1.463594481193833570e-02 3.601448899493284173e-02 2.288216096734093513e-02 2.930827532138675570e-02 8.025139540504651336e-02 1.660174395562358518e-01 -3.974962041853677408e-02 -8.655576660727959393e-02 -1.208583571569713105e-01 -3.305462324954869247e-02 -8.870291042700574613e-02 1.386307923292905697e-01 3.115897830018142523e-02 -2.710946663813683377e-02 -8.132669111492661640e-02 -4.109400657665834150e-02 -7.835136276908963304e-02 -1.591771635829292986e-01 9.995250880991171649e-02 1.129774394125188271e-02 -6.861165097340315988e-02 1.349937221487756689e-01 -9.450032656894258309e-02 -1.276669158922863756e-01 5.740535282206781637e-02 -5.904032644026040860e-02 8.121936843315080701e-02 7.093000570256796644e-02 -2.910232470542092886e-01 -6.035652437333575288e-02 -6.904878802180486330e-02 1.503729935632299730e-01 1.307277260334799018e-01 -7.591744952407504521e-02 2.385862577174581445e-02 -1.138476957162858905e-01 -6.043019965728149007e-02 -8.702921074766194198e-02 6.127974221756035678e-02
-3.752228254428886800e-02 1.747908001506975201e-02 7.056265110443793453e-02 -7.525081598382649508e-04 -4.045827428604103354e-02 4.962557183387726611e-02 8.920643067299081908e-02 1.274408289522508189e-02 -6.169240538048200578e-02 2.360838222218145446e-02 4.855382739166022761e-03 -6.061764428299223212e-02 -9.646678456222188003e-02 -2.214009211202704747e-02 -1.252416013814423162e-02 -1.102302935691463620e-01 1.370310336344655600e-01 2.731551947903769137e-02 5.724117646116022584e-02 3.676486995377553635e-02 -6.610298205714494613e-02 6.385366250849160152e-02 2.601661789706689529e-02 2.789551453507409934e-02 6.196221532602960713e-02 1.395902860129686063e-01 8.809109046235329143e-02 3.254973866807812227e-02 4.973658315023949360e-03 -2.233930952483518736e-02 -3.472365513399938708e-02 -8.469302311855535226e-02 -2.292705542228859472e-02 -6.623485617308685902e-02 2.958459839556119506e-02 -6.749841032370249190e-03 -1.685776612156960133e-02 -5.685544771170584349e-02 -2.492630245413459886e-02 3.972661488652666495e-02 -6.664454042815766421e-02 1.288518173789007272e-02 7.075713140143376212e-02 3.652802015395643226e-02 -6.911047264867144213e-02 5.000344593363612034e-02 -2.244490267934844130e-02 -1.974003388965519384e-02 -3.102107119605582511e-02 -5.579590263542073825e-02 2.314386696374643587e-02 1.068669666888554318e-02 -1.172545495479561557e-02 -1.503169833587796218e-02 -7.841574077179538915e-02 -2.139890446547668482e-02 3.190820579047318195e-02 4.394991962871345331e-02 -6.180443913603664297e-02 3.513493092621906150e-02 -9.227914880761448058e-02 9.950998121248255668e-02 9.691270297471125950e-03 -4.264006889752448154e-02 -5.010723271073515978e-03 5.297743051841503036e-03 -2.602616354332354040e-02 4.686657609602361968e-02 -4.089762420799395587e-02 -4.251567295488282300e-02 -6.376312773345772789e-02 5.841890187673993984e-02 -1.499649031536828131e-02 -3.875618472107222184e-02 -3.731044329560426892e-02 -6.995415206388359841e-02 -8.449852537210401915e-03 2.141179936915335591e-02 -8.652831707101192593e-02 3.642477578276007849e-02 -6.227543285285242619e-02 6.119523774140964156e-02 -7.073319621516920008e-02 3.824249689235972166e-02 -8.393440533945945026e-03 9.082704668715038676e-03 -7.487942483001086558e-02 -2.998645047748894898e-02 -1.776262945408863328e-02 7.870669080384565253e-02 -5.721931928606623086e-02 1.582329081097364224e-03 9.634358862283792790e-02 1.759710865562392861e-03 1.942658170026622527e-02 4.280692693222182960e-02 1.783781558406708628e-02 -6.070000748920310885e-02 2.749585776175397789e-02 2.059249900847827039e-02 -1.148578138884828598e-01 7.943912231870511875e-02 -2.184295581223982818e-02 -1.680047410878669073e-02 -7.044110792439309265e-02 6.620173233705466120e-02 -9.849275724293456158e-02 1.046560889591075915e-03 -6.910035048595412899e-02 -1.966043486882873906e-02 2.752881601983097823e-02 5.574767854077303242e-03 -1.885626643859858453e-02 7.020090515197238701e-02 2.863394615707779214e-02 -3.961874896406576696e-02 -7.587699635211578308e-02 3.970552196314658389e-02 3.951423143370336871e-02 -2.688518994943153370e-02 -7.970495834461761853e-02 -1.448987830542376384e-02 -4.697650864427813794e-02 -6.183503029175146243e-02 -5.294156511728189546e-02 -8.234844651242506641e-02 -1.205864471817582190e-01 5.591873066866372144e-02
-5.563128922587397968e-02 -3.525591311966968372e-02 -7.483850631448608903e-02 5.463465243434514895e-02 -1.299571617234939747e-01 5.946994457714609161e-02 -4.530214135150297666e-02 -2.394466707568372252e-02 -3.386800916900038066e-02 3.149960580727695358e-02 6.724578310695888961e-02 -5.407513353814878514e-03 8.080601005403759141e-02 -4.787602896147506726e-02 -4.146848449433530176e-02 -6.062828495010275792e-02 4.239958147459021304e-02 -9.255950163596216029e-02 -1.327748886214468425e-02 9.404154646096488102e-02 5.083788968957289600e-02 7.651330277516459055e-03 -7.854836142550827849e-02 -7.457907116513148860e-02 -5.902817234401331464e-02 -1.617430342770131979e-02 9.035857861718232797e-02 -3.173823286459720450e-02 3.269272141998271364e-03 3.097900115684282252e-02 -3.328780817803313197e-02 -2.382115467051899513e-02 -2.003813629769542540e-02 2.971024677541564060e-02 -4.879150983200009756e-02 -6.433438232715021909e-02 9.211591368095835286e-02 9.211738091546754770e-02 -4.046044114561572758e-02 7.629076598958194066e-02 1.029706999562600839e-01 -3.048505568475327540e-02 8.872981491334923365e-02 -3.405035496942505208e-02 -5.292561941946855031e-02 4.231553976757166519e-02 5.832765645364330204e-02 -2.425313255013764047e-02 2.563854814560115065e-03 2.284817051363009430e-02 -6.931788162430338462e-02 6.518581586699855046e-02 6.971752554984565753e-02 -2.491848618324196685e-02 3.132995600086671550e-02 1.582274463907951470e-02 6.736820320231499439e-03 4.397342589635325899e-02 2.981572315157158398e-02 1.020660030631923530e-02 1.628868100769387955e-02 9.680805939467777843e-02 -3.422478337778910029e-02 6.917240071538323376e-02 -2.656885273315946067e-02 -4.039187970903093672e-02 -1.396001480049220700e-01 5.181096288209580819e-02 4.262981130706135213e-02 3.438707042587127449e-03 9.185142597017978416e-02 -1.761854828041660437e-02 -6.945177788209508374e-02 8.874396016769033058e-02 1.832742068983543929e-02 -9.219354419416402047e-02 -5.162213387940434856e-02 -5.536092599103954043e-02 7.861576370031855832e-02 2.192765746538840113e-02 4.785088873713779986e-03 -4.116109675657555686e-03 9.663736515835087693e-02 6.070095192821355762e-02 -8.844087548055637460e-02 5.779872707704308832e-02 5.836848012616739634e-02 -5.035320074257879780e-02 -3.982262497089193026e-02 3.286484351272961346e-02 3.331955808561468807e-02 -3.804457801643652826e-02 2.972816509250301650e-02 -3.122928637034122837e-02 4.678148756633507266e-02 5.171106999674377966e-03 -8.571791495276950834e-02 -4.241610510151047619e-02 -5.156750398540494752e-03 -1.286060882403440575e-02 -6.332438331913455010e-02 5.449388163953243491e-02 4.986691659649876082e-03 6.447061899885704606e-02 -1.031169613554402086e-02 -9.307126834075511723e-02 -4.022417412630147071e-02 -6.932127979793594949e-03 1.702313701080860123e-02 1.341627726320225866e-01 3.463020589868365251e-02 -4.612449319254887411e-04 -4.235551981513496073e-02 -2.503236584617686555e-02 8.780301244872679156e-02 8.012995048410356813e-02 -4.935034097296671363e-02 -3.561337753295074071e-02 7.066987715856325181e-02 4.625541725274646965e-02 -6.265670599998639234e-02 1.451885235541113157e-02 -6.022381360953109330e-02 -1.915817055846569944e-02 -6.030900287859377457e-02 1.060279279517778103e-02 -3.352026073658086885e-02 4.125390211115671085e-02
-9.137324523511426710e-02 -5.459016115853479456e-02 1.255562257771541124e-01 -3.671298476286747464e-02 -2.400618278367077849e-02 8.850099726718293341e-03 3.019187620983179027e-02 3.833242669020432702e-02 -8.644872741470591149e-02 4.635977063979804247e-02 -7.495402394640217347e-02 5.008831689287622513e-02 -6.957401183651043541e-02 1.722808783864639842e-02 -7.927151486263570024e-02 -3.244300740456235177e-02 3.546247021186722803e-02 -2.317006346914118886e-02 7.291062792873054255e-02 4.647281409312682687e-02 8.433808962556380018e-02 -2.613107886889786541e-02 1.022424623765467999e-01 -1.113413315216853910e-02 5.248671722300096015e-02 -1.887644935655271444e-02 -8.221087836732263177e-02 1.069170632105734091e-02 -6.861172229790590826e-02 -6.266509850699343576e-02 -5.182742053921074454e-02 5.944428610812867858e-02 -6.715978499621869102e-02 -5.045070554491035836e-02 7.379815401459846602e-02 -1.724943726604221284e-03 -4.142163744493179700e-02 -4.010157399191609240e-02 3.016870830547039185e-03 6.430552081273209486e-02 -3.993266397164519504e-02 2.717177346203773422e-02 8.209085749450392711e-02 9.784660408469614268e-02 -2.721266582378453064e-02 -4.661255579875484695e-02 7.619859524504903059e-02 1.295054620130986212e-01 -2.016912995092176586e-02 3.615291443373942759e-02 -7.842762800257713912e-03 -3.874285244599667138e-02 8.759757094277234590e-02 -7.615375623554837721e-03 -2.647413861172832634e-03 7.285334479181340694e-02 5.240118338211202653e-02 -3.142261820116334231e-02 -5.197851563515992757e-02 -3.619905158186474681e-02 -5.214361748889788546e-03 -6.724279490524447123e-02 9.966865590132024944e-02 -7.265893942025775099e-02 1.821593726001654798e-02 3.848922127441666702e-02 -5.588912938428369781e-02 4.363622282098219424e-02 -9.906680190077777476e-03 -4.713283849445431412e-02 6.686474834818474655e-02 2.805958649868972241e-02 6.627016818720432578e-02 -1.688767112996536479e-02 4.316649292994377551e-02 1.877859560877883846e-02 -2.455114572986420024e-02 7.096175447451689988e-02 -3.069408746199949953e-02 5.409028007436154223e-02 8.333141742452164491e-03 1.106131333832723398e-02 -4.538244655246243681e-02 2.861135541397286444e-02 4.343237572452575412e-02 -4.095391519091671345e-02 -8.531564717136409792e-02 8.112347535531712339e-02 -8.683573426290426556e-02 6.327722552809771084e-02 -2.001637144392647699e-02 -2.254888428376522827e-02 1.868135209117497211e-02 7.169990981868719360e-02 -5.912121025391388340e-02 -5.938248444640890911e-02 -3.630764421262063293e-03 -3.210142492315601337e-02 -7.989782273585394057e-02 5.355187080754053586e-02 -8.875989056339166766e-03 6.255166337589550263e-02 -5.240884258936122364e-02 5.467541326939424906e-02 -9.130208337722650960e-03 2.162031334058411164e-02 6.026000626235965274e-02 -7.054974575960235028e-02 2.280260559963881439e-02 1.122848343877068944e-01 -3.414916203936402272e-02 7.703585412042246450e-02 -4.997923544463789974e-02 -7.343989044764527574e-02 4.657848823816661959e-02 3.216285596929432944e-02 1.188091370725229134e-01 3.463133398601100227e-02 -3.376856295757209997e-02 -1.877422284430050464e-02 6.599379752312284353e-02 -3.273198778339247300e-02 -2.696228757616166496e-02 5.209141030637617908e-02 -3.189292108378995183e-02 -1.174603168771608773e-02 -8.197539713073932754e-02 2.087483979741517476e-02
-3.685172730688714149e-02 -2.148535907018898211e-02 1.844622618562546945e-02 -7.693942648245731541e-02 -3.500990098577842335e-03 -1.843407234994646690e-02 -8.113999599737328761e-02 -1.511100865060163029e-02 -6.373131393857137117e-02 2.964831781933500651e-02 3.569956828245263170e-02 9.525272622522829025e-02 -1.207939457644807424e-01 -5.229684297244449609e-02 8.182057215903765224e-02 3.924269020989496620e-02 1.087139446738499965e-01 -6.467310782789280343e-02 1.753060858077333875e-04 1.364174890095072312e-01 6.304671188542544658e-02 -4.242562208560555354e-02 -7.627300097227716381e-03 3.432905503209582321e-02 5.109162215660820877e-02 -2.185810839658375304e-02 9.604793725730255763e-03 5.464083359592475375e-02 8.109866589385035518e-02 3.294862533229201557e-02 -8.471311330043501675e-03 -1.747565062801310562e-02 2.815872976282656273e-02 -8.971748642884376512e-02 -1.968361237483801443e-02 -1.853661303083818180e-03 5.115068197721595045e-02 5.195362277967197073e-02 -1.013055621774469964e-02 1.151333514003605729e-01 -3.050874352831941388e-02 -9.956842737706368685e-02 6.447351880785227862e-02 1.186677052310754488e-01 -4.249451692218867566e-02 2.302723923469188888e-02 1.486853317713246470e-02 -1.357064675505789964e-01 -9.205639985340756393e-02 2.004373227252399109e-02 -1.276132128286401948e-02 -6.154655614844300321e-02 -3.064019357237991389e-02 -6.267183265703311912e-02 2.198592663861332480e-02 1.538660629371651350e-02 -7.102653819689935810e-02 8.260433118485741022e-02 8.666744312648255039e-03 2.436261246219087809e-02 7.314663494336853811e-02 -9.113745691595609433e-02 -1.041844213369058775e-01 -6.672969323148651710e-02 -4.466470554943733490e-02 -4.010899889450202788e-03 1.466885617506101872e-02 6.754555862644577927e-03 -5.858751167174479357e-02 -1.084972086513783830e-02 -4.452678201561388605e-02 -5.135455628863019178e-02 -1.174699590279389277e-01 -2.404070715428224467e-02 -4.060705640036860881e-02 -7.558016797702149514e-02 -3.106576288412060335e-02 -1.263811738960466668e-01 -1.686084830102167059e-02 3.453671443088730114e-02 8.324319559622721590e-03 2.786694897358104814e-02 -4.260941271345194264e-02 -3.574066513898904729e-02 7.742004866981572198e-02 -1.848966994082305859e-02 8.001562617104872321e-02 -1.514606116182227145e-02 1.199895606775255343e-02 5.588729006399642540e-02 -4.643704524625680286e-02 -6.124520947672960902e-02 6.814333953530746224e-02 -2.670663419623697105e-02 -6.255773214529411486e-02 -1.498450694910891806e-02 -4.777360523795216862e-02 -6.920312461242206226e-02 9.354348023367038689e-02 -5.930136674699913735e-02 4.469982892003591599e-03 -1.007259392115739394e-01 -9.719746666946815772e-02 1.093384375548848708e-01 3.426471840089212982e-03 6.946314184587197571e-02 1.039898203347493222e-02 6.375249498180547703e-02 -7.962817598224807003e-02 -2.817875411108018355e-02 -5.123660523181972071e-02 -2.057632250307242158e-02 -7.703654287644341736e-02 -1.069370945801998221e-02 3.479412027103494232e-02 6.955445795449120838e-02 4.712944337412865170e-03 -7.524954735759946389e-02 1.631035062738709490e-02 4.819568648426553192e-02 -4.138964916146382358e-04 -6.693160176064391620e-02 -5.061513950376785032e-02 -1.034638980081044463e-01 -1.318263909542521650e-01 8.053500050087046558e-02 -1.102839220315643826e-01 4.879808427130793991e-02
-4.819974571222471887e-02 -4.245970093871178491e-02 -2.862552546335230506e-03 6.806512237999370885e-02 6.166459608037378609e-02 -4.207157653632621550e-03 4.190484121657356981e-02 -9.335967615120303875e-02 5.219001747399875518e-02 -3.839064217170074650e-02 -1.144260435230663731e-02 -9.530116513131327294e-02 -1.168209726838418672e-01 5.513069156758451661e-02 1.558420514163695071e-02 -3.274977759087675105e-02 3.639432892158703248e-02 -6.975757098631593656e-02 5.683139504158900290e-02 4.007703874133558553e-02 -7.354790440581164372e-03 -1.328718136583339517e-02 -3.272161652581801611e-02 9.227626030569008320e-02 1.055972636332323106e-01 -3.576760504986867002e-03 5.694078861516405771e-02 4.443150887361013712e-02 5.316315480241469438e-02 -4.295300631977717887e-02 -1.678746212180069058e-02 -5.019640424532337275e-02 -1.080956255683693662e-01 1.729767861843152857e-02 -1.018753941386236483e-01 6.066399784160003000e-02 -2.168852718333749360e-02 -2.284867158821025923e-02 -3.690957273006671702e-02 -2.362039982096311632e-03 7.102459051165445347e-02 6.886487762340579022e-02 -8.153227001364178606e-02 -4.625669081834444391e-03 -6.152508764888969112e-03 -3.600573211833805326e-02 5.280205320980650013e-02 -8.012016832840634928e-02 4.598768946797723856e-02 -2.898374113874138680e-02 -8.155805807823728049e-02 -6.286459819837535157e-02 -3.912056433025628416e-02 2.819957786552178963e-02 1.184773933073721489e-02 -3.172496105457419530e-02 4.006586239818472894e-02 -4.949462618891629223e-02 -6.864054365804091173e-02 2.363949568421697903e-03 9.002430531695988780e-02 2.207711303751693725e-03 1.067811376241386001e-01 9.268823512671527098e-02 -7.505022968235368352e-02 -7.765823663548948597e-02 -4.696502446072031711e-02 1.414232046593780039e-02 -3.520467189285964721e-02 4.347741812984162735e-02 1.851415199221926114e-02 -4.746139495987642537e-02 7.522976801660333224e-02 9.210829145962648457e-02 7.706887973319685725e-02 -1.036448347497932743e-01 -2.795998775803442901e-02 -6.096148587292615079e-02 -1.189375083571136416e-01 -3.896716743032440505e-02 1.278941482410388998e-02 -7.187211145077546104e-02 8.888313715904362644e-02 7.233092698875419335e-02 9.609552214918076762e-03 -9.838089926272447494e-02 -3.738843082511895261e-02 -9.060160736615409383e-02 7.812846136304317513e-02 7.155350638167874699e-02 3.813868463617425125e-02 -1.992440609377116659e-02 -1.783391264764200637e-02 7.761309636143563784e-02 -8.350016246197936032e-02 4.110676156283151611e-02 -3.890048712578659390e-02 -5.884415228127118369e-02 -1.180165855292801373e-02 7.790833815749136082e-02 -7.185762676349682909e-02 -4.279281421131936325e-02 2.338425907730427161e-02 -5.626436752646558209e-02 7.372535998786682206e-03 -2.859605536787780330e-02 3.685091035180535629e-02 4.759549696221011122e-02 -6.578378658352314334e-02 3.052288701668915902e-02 -6.177859705397686918e-02 8.553340866043290802e-02 1.073698244329734097e-01 6.879696063055883160e-02 5.699830700928693039e-02 6.125486091438350073e-02 -3.141569134081973608e-02 8.282158642966094830e-02 2.067743993185170576e-02 2.592011569578498570e-02 -1.590340335600227140e-01 -8.962043162148367048e-03 1.496052329994320557e-02 6.128760950285308540e-02 -1.148726502128051899e-02 4.132221890958246574e-02 -1.526938109888613393e-02 4.710730406623930833e-02
5.679495754605582564e-02 6.594689602628067693e-02 -6.193195782683615092e-02 6.680453137604352998e-02 -3.692178576846055771e-02 -6.029443386102994323e-02 -5.078502959661097826e-02 6.508280558260808035e-02 1.520598016336036432e-02 -2.491822440578959560e-02 8.438774818496400099e-02 -1.958404858152645173e-02 7.769937606288193632e-02 -6.738727719501165503e-02 2.377579016102093420e-02 9.132462776119225356e-03 -1.125461627192061581e-01 2.862308580293648069e-02 -8.734232727589914813e-02 -2.998341449225202029e-02 -2.893656783376340191e-02 -2.462445445835514512e-03 -2.711605590784993067e-02 -9.960481075591094691e-02 -3.343190073602136242e-02 5.601364459899590975e-02 5.766433139923181350e-02 -2.261065007590815600e-03 1.068152245339937939e-02 -3.687407625816029738e-02 4.061475065051490391e-02 -6.029015440921060148e-02 4.100596747955698174e-02 5.348480327860086897e-02 -3.527814092271203822e-02 -4.665349817515165171e-02 -3.665270830401391039e-02 4.618350968629886255e-02 4.694469696287614097e-02 -5.288367200857997663e-02 8.087124703529773029e-02 -1.027907148000969384e-01 -1.071347479708849998e-01 2.905686164106379907e-02 4.011584105370103598e-03 7.645697798252348854e-02 -1.504559270995452572e-02 -9.527910714454193575e-02 1.133325762235733170e-02 6.612851852583100098e-02 -3.133395009750071514e-02 9.673036119996952786e-02 4.779865205342488134e-03 4.443899448665788315e-02 1.799213702456920264e-02 6.429868022944766615e-02 -8.641796259254510421e-03 -3.020354392632645935e-02 -3.327435334966385994e-02 5.076491414181685292e-03 4.135827441248027952e-02 1.480122124214559298e-01 4.939169275284630012e-02 -2.056099035857232929e-02 -2.172760106718459386e-02 -5.519725110132399359e-02 5.331438560488509226e-02 -5.379512911651752492e-04 1.154050956647961340e-01 1.234155281936324088e-02 -1.448373508752479055e-02 -8.340586872695490706e-02 -8.659646540275942050e-03 -9.550496800284628829e-02 6.934215686898073661e-02 -1.004964774263115840e-01 8.474722850857036027e-02 9.834299171536854678e-02 5.922007879318837847e-02 3.821669282826477276e-02 -9.957118979795578917e-03 -1.509599984832993569e-01 1.096009385334799913e-01 -3.277090912387703447e-03 8.538602140731938643e-04 -2.705344168667483604e-02 3.351761555538928378e-02 2.902153799708464751e-02 4.388251903076062499e-02 -7.702862277256397605e-02 -3.651196996213325156e-03 1.644718939048345901e-02 9.629593218029196267e-02 -5.322132343013902950e-02 4.841580152453899173e-03 -1.393074954580466544e-03 -3.442535082045444089e-02 -5.077635496860182646e-02 -2.786037051048769267e-03 7.783426420490721642e-02 3.608085830568971697e-02 -3.446238460809031984e-02 -4.549851011652313731e-02 -9.459470534386722751e-02 -7.802623119599799706e-02 1.902475555910499230e-02 -3.859440865285746619e-02 -8.918523751718002157e-02 -7.817234453920386683e-02 -1.076248942384030183e-01 6.966408429829439031e-02 -4.667275240924927127e-02 5.960211628356188590e-02 -5.444758487215136354e-03 -7.102169184956101666e-02 -8.939430217108559895e-02 2.676608298293238139e-02 -3.247311038981571391e-02 4.186779847919249592e-02 5.944841499922642880e-02 -3.547252445887776745e-02 -2.014668599597995227e-02 -3.768615135825131423e-04 2.151713868624712672e-02 4.103091870786522433e-02 1.086696708457773330e-01 4.697506574815183550e-02 -5.234228258922291217e-03
7.320084413240737775e-02 -4.672562298086275177e-04 -7.244692317066935006e-02 1.197567902929360245e-01 1.400315710149165060e-02 1.250318918016256049e-04 -9.106960680765255334e-02 4.727740716899125201e-02 -3.765177792386466965e-02 -5.545842419834285525e-02 6.491423277394742231e-02 1.331978487827596355e-02 5.771825573664026571e-02 5.779189066911942507e-02 3.351209478824472565e-02 -1.688673164857571601e-02 -5.452122494361771182e-02 -5.743719425021062176e-03 4.259549122905032653e-02 2.943294531109116874e-02 -1.286736034848002252e-01 8.722971101173761233e-02 6.621631975083423771e-02 5.494519314603783094e-02 3.565770034528497473e-02 -9.911860697355296540e-03 -1.863118023825815345e-02 4.363284962432187331e-02 8.660147393367222113e-02 2.816689257060169677e-02 3.460150769047544428e-02 2.756458961111390646e-02 3.824708072207755327e-02 -3.528824938702793124e-02 -2.464535537329382714e-02 3.276450012677704915e-02 2.734037092642287864e-02 5.801153577951061874e-02 -2.443884761281432758e-03 -1.043578320709933893e-01 1.048977783248168476e-02 -1.278155603971154464e-01 -3.054946307802180322e-02 9.331286428859902893e-02 -2.863446757713513507e-02 -5.632684353880988010e-02 5.171778937882223759e-02 -7.070584207498122054e-02 -2.207388511301467196e-02 -1.005108754886410716e-02 -1.251245719265780057e-02 -7.212709766248230105e-03 1.071525355262153562e-01 1.070870626991659996e-01 -1.046500951514827971e-01 3.072685403504132537e-02 2.281646657706806747e-02 -2.105088370011377538e-02 -2.855471352827649786e-02 7.891477281200728888e-02 5.441967185608777291e-02 2.288014801206196547e-02 -6.170475132056766482e-02 7.633064204250539220e-02 -6.877479910665765597e-03 7.355799438393377521e-02 1.288032940173055585e-01 -7.001525968838363811e-02 1.178077056073263684e-01 5.434089859475284279e-02 3.862259492930570498e-02 1.973452502330506550e-02 2.668677735801517834e-02 -6.944521684936880157e-02 -1.289453106328956877e-02 4.181912335957988641e-02 -4.097295377983748571e-02 4.250321287268445797e-02 -9.185306354033229148e-02 4.801709868328892655e-03 -4.058983973541467616e-02 -9.090268851094525024e-03 -7.629161553625468661e-02 6.554123717878709843e-02 2.805613277993291438e-02 6.336685217488881305e-02 1.107660717053177320e-02 2.662398934001381640e-02 2.859558851749675543e-02 -1.077540816515707156e-01 -1.554992357056412915e-02 -9.553172651454301667e-02 1.126786662174316944e-01 -7.747190017413742476e-03 2.799862525743606126e-02 2.954282986207485816e-03 -4.331374079990657489e-02 7.430427145503934461e-02 9.046786000989461007e-02 2.813075965707840034e-02 -9.027265048498200883e-02 -9.280650594029287229e-03 2.406468139520819005e-02 -3.459426541530166710e-02 1.104082370064484418e-02 -5.919094269117014528e-02 1.290849925889968330e-01 2.272871291563742860e-02 3.505038372986260531e-02 -1.245950331239403935e-01 1.020372707365441341e-02 -8.682356248091149808e-02 -7.752776274184519645e-02 -6.683743518036561193e-02 -1.336504526749873398e-02 -2.482275520458119070e-02 2.989463707676024221e-02 -1.489595881884235237e-02 -8.211220390442208056e-03 7.383575154156862483e-03 -1.348718727657354233e-01 -1.021109837296337308e-01 -1.899565456100305375e-02 2.708870925146401529e-02 7.120358741137966518e-02 1.885665299286222105e-02 6.025431754936005219e-02 -6.703180474128446475e-02
4.710324505973671055e-02 -5.055876018370458747e-02 -6.926130276787507978e-02 6.822253518724391563e-02 3.947712889073413250e-02 8.345497060189195626e-02 7.700278659173181821e-03 1.140379687861196728e-01 7.772038088199016703e-02 4.823869605081278211e-02 1.049311831586960397e-01 -4.058282513082368120e-02 8.160368199446282889e-02 -1.623810436548215816e-02 6.933885585426526055e-02 -9.509000190812041606e-03 -8.658854677006236344e-02 -6.312816542849170043e-02 -2.147557204509181403e-02 -1.400336149697939681e-01 7.626141541929089274e-02 6.198912814557031720e-02 5.051086136826606066e-02 -3.063479374176343931e-02 9.282154285516548697e-02 7.418955857220532746e-02 3.623351244133042603e-02 2.163016248745133416e-02 -4.039032712125716074e-02 -9.966295153475906998e-02 6.021375104834012643e-02 -3.949328096247214231e-02 -8.705353667109956561e-02 -7.698964594372757590e-03 -1.848165616943519413e-02 8.397377647890089114e-02 4.040491882904249932e-02 -5.933499241020027959e-02 4.065957667901588801e-02 5.990075427174675060e-02 8.403430271537321028e-02 5.975146942123087113e-02 -7.687283057727303803e-02 8.800940233579131189e-02 -1.316150305916677643e-01 -2.186634059828785823e-02 7.952235607580213084e-02 -3.935564465093694536e-02 9.470841212441286072e-02 -5.224528133491715409e-02 5.115887365386951463e-02 5.688694432342462221e-02 3.606578091414986559e-02 -7.635049293102542933e-02 2.394251176435413866e-02 -2.547247720745612377e-03 -3.615041803876720833e-02 -4.372858151981518643e-02 4.754732327397505343e-02 1.095434903851010972e-01 1.716501193144106749e-02 7.082158056381210320e-02 6.128629196832640486e-02 -3.680123720034493562e-02 -1.820577190701528876e-03 -2.039005961937521427e-01 -1.948478467481274887e-02 -1.954251564301525378e-03 2.161732914361748012e-02 1.531121476721947032e-02 3.022168028340833576e-02 5.306661680981978463e-02 5.377539086061633444e-02 6.792708693296378719e-02 -8.402093817762694428e-02 -4.080326958647121499e-02 8.617867770868654909e-03 -1.670668035810743968e-01 -1.992706677471365109e-02 -7.762585561306688253e-02 -7.624931232341702891e-02 -4.044664834614126320e-02 6.996973011601262393e-02 -8.349807864483176773e-03 8.557632680790586144e-02 -5.746437132225704764e-02 6.033572199431952443e-02 5.815827794571396675e-02 -5.687576136721914782e-02 -3.931184506193067391e-02 -3.786311933950706199e-02 -4.040093632304603277e-02 -1.011792218131969678e-01 -6.528104727064139214e-04 6.080209348693663141e-02 -8.651095105868121526e-02 4.392668470825143029e-02 -6.416103561924678400e-02 -6.174012316437604148e-02 -3.773075596137347859e-02 -3.543011112288026176e-02 5.645967895336633652e-02 7.251422940691089336e-02 -8.929182389400634745e-02 4.076355561106075054e-02 -7.761399493779755354e-02 -2.279874253496367437e-02 -1.649352961241078441e-01 -3.259866430957984035e-02 7.042227133159220491e-03 4.806529430337801168e-02 -4.212866221166439856e-02 -5.608581724674660540e-02 -3.215795225275804026e-02 -2.638238984971689170e-04 6.166754030529330438e-02 3.614403730559839767e-02 8.159301332950263941e-02 1.171936706060577316e-01 -6.143142853332111269e-02 2.487067144923127068e-02 -4.702489177165991574e-02 1.445039237179835956e-01 -3.199231390331015029e-02 7.267334442882961154e-02 -7.516902097959843321e-02 -7.763893774422288285e-02 -1.035160336302591716e-01
5.268935450165983941e-02 -1.685989481050845229e-02 7.090907907681441580e-02 -6.456837299088388771e-02 4.712457841417115600e-02 -7.316787884270893605e-02 -4.243263223850927274e-02 -2.914299070028148614e-02 -4.078957630783875549e-02 -1.215139886808225787e-02 5.332794768215894099e-02 9.490775209397631085e-02 -6.984429922365002763e-02 1.072337630370882172e-02 -1.151728623131658899e-02 -6.109680889474251864e-02 -1.385986812048928089e-02 9.998766627200272872e-02 5.095704107873298000e-02 5.218615377041149056e-02 6.125669275409618281e-02 -3.549040535595782142e-02 -8.414026273900046538e-03 -6.783584790132302089e-02 -5.283290593023503949e-03 6.650049242355504653e-02 1.715616750669201761e-04 9.060661056657404178e-02 -6.060645447707220523e-02 5.793675149248963402e-02 -1.238207970426843420e-02 -6.627392780401876460e-02 6.232927615668124033e-02 -1.950248282897608723e-02 1.024368379721300737e-01 -9.888773924953926653e-02 -2.617102364707797005e-03 1.831512946385222343e-02 -3.845432307086237012e-02 5.341227883621833122e-02 7.480229643816460605e-02 -5.380598373497401388e-02 5.034828711173520120e-03 1.750982856713262023e-02 -7.526761256229249492e-03 -9.672914627680272159e-02 -2.509628908194476773e-02 1.112996861649167279e-01 -4.584331938329432726e-02 -7.884928152548509317e-02 -3.636926950432446248e-03 -3.231494338512182901e-02 1.040360532874927690e-01 -5.410271351993272554e-03 1.870264259944324353e-02 3.901123592480327390e-02 -4.373730345760833138e-02 2.164270976581294734e-02 -3.422130735232745136e-03 -5.440775686001720485e-02 -3.843065611025240497e-02 5.948427513635996117e-02 -3.554218285583181369e-02 4.214053449539529456e-02 3.591051840393970351e-02 9.116010067362019520e-02 5.145060165846642580e-02 -1.013654718709841862e-01 7.390396456659723001e-02 -8.696861898613865438e-02 -5.164804367022530346e-02 -2.786719762685766627e-02 7.094296610717275298e-02 3.556860304401139594e-02 4.500758722800386052e-03 -9.148510084233871242e-02 1.682106298657085747e-02 -7.321932345813060572e-02 -3.766593855731781987e-02 3.255426227402032774e-02 7.626550897868506114e-05 2.569338141479446391e-02 -1.872022156420771744e-02 4.233504632937988565e-02 -5.330513058753600514e-02 1.671507988824714325e-02 3.820752065153843607e-02 1.264821028816831734e-02 7.047811471269539718e-02 -9.718494581786885078e-02 -5.343154916993054365e-02 -5.245010444107706116e-02 -5.555344958687185447e-02 4.771472099813138523e-02 5.486568451397346585e-02 -3.096799233145201141e-02 -6.871808764713654982e-02 -4.977737941093427626e-02 -3.738508499130483581e-02 5.557782083901301184e-02 -8.657378123176329154e-02 -2.035533825241339634e-02 -3.012714938039774693e-02 2.928792473048103667e-02 2.011858236313203430e-02 -3.442656249792777623e-02 -4.032443261664185596e-02 3.833160944279595528e-02 -1.107015463362354818e-02 -4.614984236897852476e-02 6.207798446440707107e-02 -1.322042234021148822e-02 -3.643304196148205998e-02 -1.352250843091387482e-02 -7.918153564367641853e-03 -5.465964011847948556e-02 1.841285900359372965e-02 -3.822380063090289465e-02 8.267750430438198031e-03 -4.772041950659303144e-02 -3.528107599298268074e-03 8.309400444018776033e-02 -4.421322700468770239e-02 3.638604161929702430e-02 2.357613051026040754e-02 -2.720078255095972897e-03 -1.011614684487197741e-01 3.946655070157536332e-02
1.050215082768033714e-01 -6.429461930553893867e-02 -1.201286598777372011e-01 6.728194127135870249e-03 8.374856581053891080e-02 2.383299901700036347e-02 -1.051570451271491707e-01 4.543507098572135278e-02 1.159487442673738655e-01 -1.022539363284375065e-02 8.357360025480536914e-02 1.859941402733937196e-02 -2.688102084100213712e-03 6.176954784809198656e-02 7.343713418439638818e-02 2.163813323065078703e-02 2.533670462865821732e-02 7.907680499045818823e-02 6.634913995983625357e-02 -1.726451723361733248e-01 -2.089620876197305355e-02 8.613613716498662309e-02 -4.221874921591248914e-02 -1.731429341738479066e-01 6.794821474145250340e-02 5.310651015699411476e-02 4.269549118416889749e-02 6.463394990269243079e-02 -2.428822008237530028e-01 -3.518044999639324127e-02 5.582135868340871998e-02 1.351931587545596725e-01 -9.102094548595569823e-02 -2.741630181073656872e-02 1.201557864387524655e-01 5.077169272388529914e-02 -5.555111891655542533e-02 -1.199205612909850921e-01 7.083150088741473061e-02 -5.865920350515688164e-02 -4.788386313773041608e-02 -2.488490833395850046e-02 -6.001931347537281525e-02 1.339950534437944762e-01 -6.635315176311412655e-02 -2.527826294051646605e-02 -5.669150219290276099e-02 -2.774398319213574118e-02 2.993983420079946584e-02 5.231095061497347855e-03 -1.011054268692127833e-01 9.883059600438578660e-03 -4.553514122590777286e-02 -3.680441781288247560e-02 -5.744633479396300813e-02 -6.661096460373404360e-02 -9.662211745836923882e-02 -4.939214400971744801e-02 -9.064689288029205427e-02 -4.366539626577547323e-02 1.034603308125082166e-01 8.051882506522772820e-02 1.074783317541318922e-01 -1.355588428197119777e-01 6.619920601952423989e-02 2.398592141259299482e-02 1.634442574597634312e-01 1.113121565213438940e-01 1.485177297771644866e-02 -2.144987960256280676e-02 -5.319909884126581417e-02 -1.520325666611540560e-01 1.181020220000302823e-01 3.607073846934696904e-02 -4.029962388029486448e-02 -3.338033158149552281e-03 2.562521225750753057e-03 4.720434340264011153e-02 4.882004147165355801e-02 9.124993193554638282e-02 1.274242308104504562e-01 6.868615386132995160e-02 1.327544159631913745e-01 -1.161718662625384896e-01 8.453895343673152596e-02 -1.729020537930087836e-02 6.285327160695994286e-02 5.823443473137954185e-02 -1.272292780622471219e-02 1.900897869950605445e-01 1.165467748014253555e-02 -6.780267673034195974e-02 1.941328695211818611e-01 1.447310626151656308e-02 2.459557781371073115e-02 -9.165317580777645676e-03 3.825294467886112409e-02 1.324253921968356756e-02 2.935164013597657551e-02 -1.610766911651559663e-01 1.011715091136656391e-02 1.026350958390794127e-01 1.636429465240563097e-02 2.010312074104640134e-01 6.639751021077873461e-02 8.289113155016429244e-03 1.857341176028453819e-02 1.052547090227358151e-01 8.390275446556259842e-02 -2.842244687818980958e-02 -1.052128779351150512e-01 -1.256315159869593190e-01 -4.655225518011452124e-02 -2.335984757283698920e-02 -5.124700846345522226e-02 -1.289211695341025699e-01 -5.454991225441577045e-03 -8.230872759068598096e-03 -8.877879965538472418e-02 -2.353935934116221582e-02 -9.634766182161122461e-02 -3.251083676052364535e-02 1.181918320520036481e-01 1.655441413301726727e-02 -5.476918714088502282e-02 9.097569455914238101e-02 3.028580484385275801e-02 -6.139109708119176723e-02
6.676894600822695647e-02 -7.004365182280641866e-02 8.391232045787101745e-02 6.547716935976194419e-02 -3.048196377207702812e-02 4.895999534964623652e-03 -8.793657912680235070e-03 -1.873643130879381821e-02 2.245439875756509787e-02 3.661320413239500804e-02 -7.705478772741251869e-02 4.448021310733548533e-02 -2.688018397918862795e-02 -4.656009654005702908e-02 5.270141388214027306e-02 -5.243334612772986014e-02 1.290013352714883613e-02 -1.989455507263869841e-02 6.901977721022488355e-02 -3.312165958281956812e-02 6.895144901423250205e-02 6.860487039990459390e-02 3.754330000993063438e-02 -2.625525441555289288e-02 7.922961357638960700e-02 9.797868191918602046e-03 3.976889548293689736e-02 4.732268111348443551e-02 -8.381079468231152074e-02 1.009562487255607072e-01 5.121780198639908771e-02 5.934399224487319630e-02 -1.557956411358198644e-02 8.943867011374571907e-02 -5.643734517745725016e-02 6.796414732264048630e-02 6.332144716108097093e-02 -3.332089975857499553e-02 6.721705932087448931e-02 -5.454032644882084169e-02 4.444242102351168150e-02 1.234358363260881497e-01 -5.273109160649674249e-02 1.556758821075702667e-02 -5.955261218736939560e-02 9.694060951057317799e-02 -3.702127006041717322e-02 -4.790633370973719496e-02 9.396927305222066429e-02 1.056718187019097394e-01 2.954545474120705284e-02 -7.503136962854289882e-02 -7.526885306964217759e-02 -6.121364489447388146e-02 -6.860591140923301412e-02 7.248138749519507373e-02 2.472900266197881891e-02 -4.149722364089378224e-02 2.874161497990209563e-02 -2.558373670392143345e-03 7.519705837924227365e-02 -5.954580060139950948e-02 -2.271079150189148424e-02 3.608959351536018129e-02 9.563304814189860226e-02 -6.736980448987145431e-02 -2.057407138104649924e-03 -7.967569892610370033e-03 -5.165826061583018297e-02 -4.107473023613504581e-02 -8.170856059128277227e-02 4.734808244934031463e-02 8.296825404752554423e-02 -8.297678270140038115e-02 -2.787470065902931601e-02 3.829102204211221050e-02 -4.043493088613449998e-02 -1.040028102418144723e-01 5.607460401179584220e-02 3.597499432488639182e-02 3.289013737456081277e-02 -2.672130724956249190e-02 -6.206231202714562051e-02 -6.260068635852929220e-02 -1.156011243223692767e-02 3.212425195697658081e-02 2.720674517502390255e-02 2.145604910259430592e-02 -1.363685646222871639e-02 6.195559236835232637e-03 2.761845722889787191e-02 -8.097972633645585810e-03 -4.547285201288178702e-02 -1.053958059566852991e-02 -7.432889452449331635e-02 -6.838183898490944037e-04 -2.405630941123823238e-02 -2.069320575752755034e-02 -6.795410090459723385e-02 -2.488097755807210099e-02 1.516548784325847873e-02 1.574942134015748160e-02 -9.284251779381819114e-02 -6.102647232695136009e-02 8.769082453614157613e-02 -1.971613855633064932e-02 6.124490802061218625e-02 -2.806584328985093930e-03 6.894736295345756105e-02 1.226055299613198063e-01 -7.013535375088456036e-02 -6.797909176546440557e-02 3.336879128197864364e-02 -5.287099901760384385e-02 7.421094693012103560e-02 -5.993691428307239971e-02 1.794632175934940399e-02 3.513258773055181333e-02 7.381990311312461306e-02 4.526101334937094461e-02 7.581521960783304398e-03 -8.801076404833983735e-02 -5.336926180879932036e-02 -6.453753109718982084e-02 -1.306173605681428679e-02 7.450752639865698690e-02 -8.595662408187684789e-02 -5.044903513204024997e-02
5.759187521126796910e-03 -5.885079110717875844e-02 -9.160796922562332301e-02 6.586803516125631919e-02 1.409570128802437733e-02 1.386265867553538589e-01 -2.370488682299461483e-02 1.517843839550783447e-01 1.165934326365377222e-01 -4.721209847034453511e-02 -3.849714880863852953e-03 -2.103601540534311143e-01 6.706501060942067494e-02 5.010746156209139324e-02 -8.904473710524175509e-03 5.792363210570847937e-02 -4.209954245602163386e-02 1.158131085741222373e-02 -6.427889319828757053e-02 -1.286699740934480474e-01 -3.436171233728063656e-02 1.853296482774815720e-02 6.015993052065979341e-02 7.832926131945246867e-03 5.009994780213145038e-02 7.043784979397611778e-02 4.885155918655217921e-02 -9.297905450664158133e-02 7.228850582901866217e-02 7.416836899347178935e-02 -1.554804295318990004e-02 -4.958188193580744668e-02 -3.542837915650184910e-02 -2.113659317162771244e-03 2.094614806247278513e-02 8.770260230992668604e-02 2.438088900546595342e-02 2.530741820247782870e-03 7.362559558546794003e-02 -5.020669264069689552e-02 7.755367650956966619e-02 8.829433195982464011e-02 6.347116172631131481e-02 -5.319179288115826604e-02 4.078458771959561635e-02 4.066902498303551911e-03 1.248445930605903975e-01 -2.955871453565303564e-02 7.988165144525526118e-02 -1.211402406354346317e-01 3.471576114228201032e-02 -9.187102532489925533e-02 -4.780050437077371095e-02 -6.301493885811101925e-02 -2.545199452292471257e-02 -4.203729604386097912e-02 4.447318155639902459e-02 4.567054655979851940e-02 -1.137432887337702231e-01 1.045929767957016893e-01 -9.172022585598475775e-02 9.864632328798726008e-03 2.470228500485984746e-01 4.800863046420110469e-02 5.145777816646669722e-02 -3.083781064403776084e-02 6.007764873539697681e-02 4.051513394606996721e-02 -4.975466286776955918e-03 7.590265714653680884e-02 -3.714768958422145356e-02 -6.187748814419938986e-02 -1.608582762163846686e-02 7.214354052977352272e-02 5.276867662155058231e-02 -1.037160059717659628e-02 9.864031985231629107e-02 -6.741714723513918261e-02 -7.828419687815496575e-02 6.931215169403449894e-02 -1.014015865263646066e-01 1.151267046037538766e-01 5.870567695532625391e-02 1.089462715064619808e-01 -1.030108535843280160e-01 -1.345635033087234089e-01 -3.740099589577250416e-02 3.005493559018327168e-02 -3.301762310291315311e-02 -9.219118776769109902e-02 -4.288326156142764634e-02 -3.591020897457297689e-02 8.063093420796597910e-02 -4.078865639029116003e-02 1.422390709575060697e-01 -8.470490854445100401e-03 7.513754555016793901e-02 1.127564488112308277e-01 7.966827178537301806e-04 2.261180075928425487e-02 6.125339459524045162e-03 -6.763327825344804534e-02 3.668051405271622462e-02 3.283117100880578870e-02 -5.945823247004920764e-02 -1.652398930428647730e-02 -1.646893097845431031e-02 -3.433043523266587904e-02 2.610518212751819847e-02 -5.013037642511829900e-02 -4.234675344432328042e-02 4.529185861924153733e-02 -6.950050690370720985e-02 -2.075393441261038849e-02 1.641893424184462033e-02 4.084943002387889099e-02 5.355733663123535271e-02 2.502226702897067043e-02 -2.444503608136588610e-02 -1.943703922874690697e-03 4.921909205142890181e-02 -6.236635388320604240e-02 1.819854591088912801e-02 3.659828713526003946e-02 3.865433039407751431e-02 -8.887904468447793693e-02 7.256332697654534203e-02 6.202516653802620655e-02
