-7.685387779082658577e-02 1.253203038243867751e-01 2.180045248202983899e-01 -3.972763157922323124e-02 -3.378779939059914361e-02 -6.444713922594459687e-02 -1.248373501589796625e-01 -1.421366184230441788e-02 -2.137234813575741854e-01 -9.319213037910289987e-02 -1.281951475747096156e-02 -1.458174321785890293e-01 -8.333515008151569370e-02 -1.335507160122714199e-01 -1.716125550360895480e-01 9.536841159764105486e-03 -1.225560008951363522e-01 -1.929700313558868341e-01 2.049153575244659908e-01 -2.384849619680870503e-03 4.789201922726355615e-02 -4.299740161087519524e-02 6.869243490192920853e-02 1.128573678850025158e-01 9.963749570183634552e-02
-8.988247732085777320e-02 -1.388343155937290380e-02 1.977628091548651879e-01 -1.821055940712434096e-01 9.688159109286768877e-03 1.391445782154835942e-01 1.084929281233643905e-01 1.640133432909810507e-01 -4.406607609059678965e-02 -1.715508721051143270e-01 6.545788234331882671e-02 -9.489305136423127618e-02 -4.195208685311207358e-02 -4.579862942528994257e-02 1.810081126497241066e-01 1.797352126847722234e-02 -1.309166376618853267e-01 9.539241332931029660e-02 3.866234817666511919e-02 -1.504046513341363300e-01 7.333721853324083606e-02 1.570255151266978511e-01 -1.569784243871530094e-01 -1.840462583079363890e-01 -1.242041601212449525e-01
9.955660489073103747e-02 -1.649013647010596217e-01 -2.663333772045999859e-01 2.540993933653296066e-01 1.733150436505637160e-01 1.441538900216549068e-01 1.333287394777088186e-01 -3.007029420833906216e-02 -1.458927147003523661e-01 2.527952212334185211e-01 -4.618133604751611943e-02 6.584979777775504250e-02 -6.741348457777773806e-02 -4.193362073307253107e-02 7.477744325387676583e-02 1.341543614903543125e-01 -1.915990515986884801e-01 1.360532009817054799e-01 -5.933289911180447684e-02 1.081831634543071463e-01 4.922877550069473113e-02 7.002931081802578339e-02 1.878827214087180897e-01 8.879584481795788076e-02 2.678458513897664095e-01
4.627641699541885922e-02 -5.352184988664936832e-02 4.079736928295728260e-02 5.172774719993260550e-01 -8.557064213789241161e-03 -2.349423330250915987e-02 9.175329792989266042e-02 -2.828084735311103826e-01 3.583443373456442205e-02 -2.310186974584656494e-01 6.546162406451754012e-02 9.014661456221020885e-02 -1.155179551951042993e-01 1.274650899407838434e-01 1.597064957549683695e-01 -1.270244886859359101e-01 8.657585264230767408e-02 -4.013863755690537383e-03 4.804646560276012307e-02 -3.159296558616415951e-02 -1.206469235384323990e-01 1.041322915311958253e-02 -1.146906934333735521e-02 2.815926185547026894e-01 -3.930705281168520027e-02
4.303302380011837097e-02 -2.832309666992867681e-01 1.483841578046926363e-03 3.209865628088003353e-01 5.870865985378508067e-02 6.651270286233590401e-02 1.333613675900900963e-01 3.931347796837910552e-02 -1.464781775604500902e-01 1.953644733585134519e-01 -4.687717901172189228e-02 1.211820806220740565e-01 -6.509183959205294689e-02 -1.230706159209940392e-01 -5.640630306720219311e-02 9.111710129776580402e-02 -1.807986058522083606e-01 2.579627292957886175e-01 -9.952584185347712609e-02 -1.404237029496686606e-01 -3.923349243509247769e-02 1.045562839740079852e-01 -1.122749386272323679e-01 -8.536208138760827124e-02 -2.319926999384929467e-01
2.624772522428637025e-02 -2.435240835640153090e-01 -1.301646509011255837e-01 -2.952689177935673495e-02 -1.946870409565667481e-01 1.204139234691901095e-01 -7.920837075165543251e-02 1.227326706893482056e-01 1.363014580013427179e-01 -1.927505157484202258e-02 -1.293193128128711233e-01 2.534211453231937500e-02 -1.736890378141147939e-01 1.400813058484355915e-03 -3.462302377680261389e-01 2.506747857698211068e-01 -2.820476627415231807e-02 -3.697844490113680882e-01 -2.519102071944542940e-04 -2.086666404748763193e-01 -2.226728429470613627e-02 -3.635147186367945846e-03 1.189919834640892071e-01 -1.035857800744032359e-01 2.761049642591469344e-01
-7.177060863099744316e-03 -1.363357119004757478e-01 -3.584090528577236756e-01 -4.548432270871705652e-01 -1.745161098707672109e-01 1.670473910670470033e-02 -2.532479100836024927e-02 1.237600124891792552e-01 -1.956580451812154897e-01 -2.217056574499728649e-01 1.324829578003678399e-01 2.141684460201243589e-01 3.237090687832097895e-03 8.637458363641235815e-02 -7.071146663573213420e-02 -1.159508044825183770e-01 1.934316635744322832e-01 2.349379459888893684e-01 -6.890376882006481185e-02 -2.731662276571506995e-02 -5.559390707417824484e-02 1.389674137239714502e-01 -1.926408876325056696e-01 1.411254930429125531e-01 -1.618087969975476048e-01
4.747445867507521511e-02 4.622617741448826340e-02 -2.062696476633996481e-02 -4.496142827456632574e-02 3.397531770537595176e-03 2.800554617731967344e-01 -1.228884753061554869e-01 4.282653042121638970e-02 1.259047392048073533e-01 1.835363430013252639e-01 1.603865211111038802e-01 1.849682391673951876e-01 1.430012949685511292e-01 -1.263852108711377431e-01 1.231925879394948908e-01 6.088693511813383225e-02 -4.424178470389951434e-02 -1.200114640953927891e-01 8.977292686515120357e-02 -2.170359689393652480e-01 -1.800931467735335939e-02 5.941749741362736120e-02 -1.624581804068669089e-01 2.628533111792337104e-02 -1.128617334747645945e-01
-7.442741992753926228e-02 2.263086448425882455e-02 2.170040638674830824e-01 7.890608807429176641e-02 -3.729719724738731618e-02 -2.499489279063935032e-01 2.133445642581269786e-01 -3.946963822775810815e-01 -2.638797817498695353e-01 -1.492176257872736556e-01 -2.368294167180804155e-01 -2.159857874739690986e-01 6.581105519334182197e-02 1.401752229185732612e-01 2.482862540329082435e-01 8.926398581913731062e-03 -1.275910376169811233e-01 2.071330116582860426e-02 -1.363195668972270735e-01 -2.298283859522254335e-01 2.486529663036631255e-01 7.886628144559498788e-02 6.029752810336960755e-02 -2.298004273467920966e-01 -8.029408760816818258e-02
8.543858039568248686e-02 7.746444868293150821e-02 2.068687710295539217e-01 4.781833496331581168e-01 -2.537464510754217639e-01 -1.899316125343925299e-01 2.722084924634295966e-01 5.175768641610401649e-02 9.349850243774550373e-02 -1.447802694562410342e-01 3.823159236579090625e-02 -2.410388659381504373e-01 -1.563447262502251078e-01 3.401015737553493568e-02 -9.963822036788860803e-02 1.667722516436547231e-01 -1.419552035658737665e-01 3.662994243389960936e-02 1.507723383660583838e-01 1.942705336494036095e-01 -8.391539343391926642e-02 -1.362438092043885829e-01 1.067476895972488266e-01 9.549673175040376827e-02 5.885209521135593980e-02
5.271397025005215842e-02 6.019951140958162278e-02 8.175804482632517689e-02 3.194719973189415474e-01 -2.124570000700611305e-01 1.881341872912828117e-01 1.534895002649510620e-01 -1.624058176866884362e-01 6.496086484758417656e-02 -2.201786083402797536e-02 1.549225385616889161e-01 -6.231444872969494481e-02 1.396160067634302504e-01 -1.341673724004026069e-01 5.954864853234261707e-03 1.887374377368888356e-01 3.746571410209761227e-02 -7.517587643013536047e-02 -1.028396256307618079e-01 -1.856530754761369362e-01 2.169219591664876268e-01 -8.861586365502951979e-02 -3.735642805274814321e-02 -4.661097189423859394e-02 -1.267890185253563451e-01
-9.089667712680908271e-03 8.002709059836170258e-02 2.160277416354522140e-01 3.438802915793420789e-01 -6.362134102542491010e-02 3.262159366738702770e-01 3.963160152942293846e-01 -4.908275798359731240e-02 -1.384123612867791397e-01 -1.444244194522209257e-01 -2.478735126430077762e-01 7.639495291351357242e-02 -3.866751279388511708e-01 -3.266656051902381425e-02 1.110764785921917464e-01 -1.168366423545696836e-01 -5.465914855456776439e-02 5.083607106007232979e-01 -1.503345163919485583e-01 2.881440139147928292e-01 -9.249773579392180090e-02 -6.486025922424822066e-02 -1.963133555717342660e-01 -7.289773929487421145e-02 -4.727841100013801395e-02
-1.558826442405666923e-01 1.218421145865304644e-01 -6.578779918962213147e-02 -5.903283740357937771e-03 -2.142318106859872062e-01 7.076476327938241440e-02 -2.781798201902216383e-01 -8.400966455483380169e-02 3.546697071147794644e-02 -2.361299741091055227e-02 3.575376253406377658e-01 2.461762925045891115e-01 1.221251700962966563e-01 -6.961954764689129438e-02 -2.147918608177895039e-01 2.703261905856448738e-02 8.346940599929478233e-02 -1.085487943408685596e-01 2.407411778242643432e-03 -1.407285674227257144e-01 1.654560970481814067e-02 4.886822868829431704e-02 1.295174668809186413e-01 1.831895058151800648e-01 -9.308002746283224049e-02
-1.172446354764148692e-02 5.643994584069130654e-02 -5.476148702739698157e-03 -1.976802354577313348e-01 -2.772261186159029681e-02 6.266766231152938460e-02 1.592732212365607913e-02 9.268765878069955277e-02 -1.892734192143697702e-01 -4.902662127234025391e-02 -2.570577539407242762e-02 -4.071159756448159556e-02 9.673386848835922869e-02 -1.091893058781230191e-01 1.985587550875907159e-01 7.463310961322520976e-02 -1.321630189384636299e-02 -8.343058183235017855e-02 2.255752690916940639e-01 -6.132679979661734282e-02 -1.665361761853936529e-01 9.507609864077704032e-02 3.529583235508626515e-02 -4.613112873807271273e-03 -1.558402966463685591e-01
-8.821550791468551339e-03 -4.615366512002295335e-02 -1.034006282621158929e-01 -5.581815290804137408e-02 -1.273010532845818797e-02 2.226164735069006695e-01 -1.229939792061564147e-01 1.877362300807796369e-01 -1.252709016377505924e-01 -6.264031462003906425e-02 1.928357546633952535e-01 -7.229249472279811184e-02 1.010844569784397073e-01 -5.153504734069500742e-02 -8.343035855922911748e-02 -1.746705033455300815e-01 -1.006120226280881984e-02 9.713493044378745944e-02 3.024565013097259975e-02 -1.629180032406988277e-01 1.907452257410044427e-01 -1.805011996334098673e-02 1.659572666566594967e-01 -7.275833757998534379e-02 1.509631481878466186e-01
-1.116390520539016912e-01 1.266931560721845096e-01 2.924272652937700001e-01 -2.523748504451756580e-01 -2.688399502137770597e-02 -1.970296953883919899e-01 4.802991761328100073e-02 2.194144148014378626e-01 1.385106052534919308e-01 -1.292760709863455260e-01 -9.083227955443852475e-02 2.287246324770282058e-01 1.143704905997028343e-02 2.116323509871122222e-02 3.797305032729553914e-02 2.154230356973486638e-01 -1.993697739115384282e-01 4.074645367520014771e-02 -1.693706426598807491e-01 1.193300282754534702e-01 -1.467818942694355255e-01 -1.365259778654494272e-01 3.055182631723935005e-02 8.754947436091116419e-02 -2.072690877936408937e-01
1.044583963861084874e-01 -2.047144911813985613e-01 -2.920315826002669590e-01 2.347870117467805717e-01 1.907000482815647269e-01 -1.552796351627927229e-01 -8.626985115715889163e-02 -1.753563160168682689e-01 -1.477975983208665856e-01 -5.830508484211330278e-02 -8.323967732285396381e-02 -2.705450212998685156e-01 -1.208328223216867392e-01 1.422710450936006711e-02 9.674667139741366384e-02 -2.772233170806985281e-01 -1.584631837082200456e-01 -1.977374837320905188e-01 -2.235781722165960939e-01 -1.305984751189613602e-01 -1.224788043108961111e-01 4.669594764583394862e-03 3.448588765323028910e-02 2.104545416049215245e-01 9.300264521900773740e-02
-1.268904968758473584e-01 6.866423059355789005e-02 3.221664095664545924e-01 5.671842083640698390e-03 7.648714152455426789e-03 -7.384450546388848791e-02 -3.000267249597549646e-01 3.234455760272066799e-02 7.056985303030718568e-03 1.433951764847821442e-01 -2.798451409536275442e-02 1.043824563121221738e-01 1.993217962655223496e-01 -1.811127104988706216e-01 2.537542645584163828e-02 1.832105935777083583e-01 1.574989738583412735e-01 -2.306300169027520990e-03 -9.983204572266479726e-02 -1.556117879503091939e-01 1.777663531574211753e-01 -2.089315812348816470e-01 1.091858838309744395e-01 1.976794775683753114e-01 -7.985428687207205001e-02
-4.110505786580967436e-02 -7.051468092026842716e-02 1.231883941637381685e-01 -1.510418760245748337e-01 -6.351241258075351892e-02 1.229018242674524697e-01 -1.776435522871652184e-01 1.542486829115806424e-01 4.861306571584854234e-03 7.516206809953671075e-02 1.057624817114363597e-01 9.108311470595149839e-02 5.630002020031898979e-02 1.120468846175131372e-01 -1.075561142380517844e-02 -3.781581414777274858e-02 1.411608351673689921e-01 7.616522296787346658e-02 -9.517658571369957965e-02 -1.185741678500253360e-01 -2.091915984694979191e-01 -7.392344409607042033e-02 1.557845058441116315e-01 2.098399891586577581e-02 -1.718977598588359856e-01
6.758948265349294660e-02 -2.826973289388370544e-02 -2.717506998665026319e-01 -6.373056213376733503e-02 -2.323109407411642902e-03 -1.266943130336044276e-01 -8.854551409222512215e-02 -2.715029859044719718e-01 1.446574736616846046e-01 -1.491271309519457133e-01 -2.808726553820843908e-01 -1.410772608939872552e-01 1.476754513729559015e-01 -8.043825931721948486e-02 -1.356675004161183662e-03 1.508140129924085693e-01 -3.178882976383199388e-01 1.236184064745858291e-01 -2.499629364676618157e-02 2.618172628487403508e-01 -2.158128829520600256e-01 -9.379503014121218230e-02 9.541160742439099007e-02 1.658008707663181092e-01 -9.442156796723935597e-02
-1.682643610514880303e-02 1.280615780720610886e-01 -6.256885406272096051e-02 4.444707246802847428e-02 -4.149449426485616460e-02 2.459603034632489305e-01 -5.940951654417041955e-02 6.865105752435227138e-02 -1.940144777059020220e-01 -1.039465367733244799e-01 8.641511491392403488e-02 2.499195562964153516e-01 1.526300831512663377e-03 3.746261809963637689e-03 -1.783976971141961188e-01 -1.150778729969006986e-01 -9.717237734611466893e-02 1.835281815975100816e-01 3.417567307327679408e-04 1.857827994146626083e-01 -1.800671255297520423e-01 1.776665095303776587e-01 -1.041424973486458488e-01 1.602682213978227519e-03 -1.202692990181366689e-01
-1.163551962515832899e-01 -2.144687073801553878e-01 -7.185089566770960778e-02 -3.005575538572147209e-01 -1.834776603295592071e-02 3.796686097215203060e-02 2.922365178710586986e-02 -2.743110078627208903e-01 -1.101185063720616641e-01 1.424678504074290974e-01 6.431920695757238626e-02 -7.176513096165784700e-02 -1.134150978701150003e-01 9.362115014984880024e-02 -1.100927715616738106e-01 -1.881522935977122668e-01 -1.247345704533070650e-02 1.794137054338909142e-03 1.421360114542306041e-01 -9.509344817519502224e-02 5.320418322137797362e-02 1.236014355552915167e-01 2.393419687597079515e-01 -1.806735321777513115e-01 6.838262476831452261e-03
-1.230372540191531326e-02 -6.114504717774085080e-02 -3.998970754941955086e-02 -1.757280917375091400e-01 -7.701630455542618492e-02 1.080798210666834985e-01 2.508220693849546601e-01 -1.367788105133306564e-01 2.272791490115542157e-01 8.194700698809227746e-02 1.614691425141256687e-01 1.532697727720243597e-01 3.403892454271838508e-01 7.951773827247346493e-02 2.705374449436293016e-01 -4.824960259196589552e-02 1.510116265198142016e-01 -6.803910739762662752e-02 -9.406616227612550618e-02 6.885276051708334732e-02 9.958008587969682801e-02 -2.608610895695740589e-02 9.148272922112699046e-02 1.165823033351862520e-01 1.972598671430655648e-01
-6.832854156781921484e-02 1.538270893588227217e-01 2.221365346519491857e-01 -9.973505919928024599e-02 -2.179911013574640510e-01 -3.571660003468045130e-01 1.734155291882239214e-01 -3.196387404433689294e-01 -1.840573830416055157e-01 -3.088693688947306837e-02 6.425271886047510816e-02 5.386877074103056662e-02 1.284966541077501856e-01 1.114778167648567408e-01 7.664026803484716432e-02 1.951335764417645724e-01 -8.306884058579632954e-03 1.280378894975700843e-01 5.489880901801681007e-02 -2.174430818052292338e-02 -1.189729974537956647e-01 -8.847673520222791577e-02 -1.293344562156242550e-01 1.189397174399614010e-01 -1.081749673906235026e-01
3.816135384746108944e-02 -9.562044347884759987e-02 1.810971349801771685e-02 3.913408153320260818e-01 5.151744330353686015e-03 2.771390415465711521e-01 2.721943320190755022e-01 -4.091555074681776927e-02 -1.671871732172188763e-01 -1.806578584526232767e-01 9.184700986791262400e-02 -8.285761633330088194e-02 3.209687465490835417e-02 -1.636518008513840024e-03 -1.560900268126186596e-01 2.622617440473229977e-01 -1.334515863200042354e-03 -2.134428864937000514e-02 8.327011025181001169e-02 1.263823997774233820e-01 -1.478297412765449959e-01 1.687720713279428630e-01 2.087875765147720886e-01 3.864080120298046817e-02 -1.291392965265032999e-01
-5.976020727488094014e-02 -8.130145803167972141e-02 2.866880093014799735e-01 1.392887701261163180e-01 1.062983146785808214e-01 -4.449471583236134717e-03 1.032313635369449673e-01 9.447023851091269908e-02 2.131883920944293020e-01 8.073056725211122386e-02 1.047326934283558941e-01 -3.835878399803849814e-01 -1.234420488510672154e-01 -2.901323679831061542e-01 3.917278189340767103e-01 -1.005801275638617404e-01 9.752605758775899358e-02 6.763235545836746021e-02 2.458458300051358791e-01 -2.128915793528088074e-01 3.875843068330545593e-01 -6.576176621318019500e-02 2.018175019655431557e-01 2.315424682296926273e-01 2.851622206232408696e-01
2.587289892873527800e-02 1.786684344281473658e-01 -3.707074504234164625e-02 8.574405502092506681e-02 8.124130852746296039e-02 5.532252826107750265e-02 7.246505509033109027e-02 3.750950430650713124e-02 -9.530597452530984934e-03 -2.848899367277986372e-02 1.705338590622500206e-01 -1.502200030952978438e-01 1.377848909440580749e-01 4.424780088398284905e-02 -1.017272209978646869e-01 7.611798598058285015e-02 -3.162721465717944352e-02 1.348692708194509926e-01 -1.087507755008549210e-01 -4.896868192615329990e-02 3.744032221670492988e-02 5.543487402604481418e-02 1.739608598039699139e-01 -1.477430862505854647e-01 2.551194232233272661e-03
-1.694334685007791580e-02 -7.600037482802118882e-02 -1.694873451465920555e-01 -2.413223118105395915e-01 1.450647384572963661e-01 1.356370202817857862e-01 1.296856475021381239e-01 -8.133130164056763534e-02 5.861805279624125731e-02 -9.678906587692273633e-02 5.334215589116617084e-02 -2.039088261416088788e-01 1.479390716355445945e-01 3.806154259286780722e-02 1.929293918312304512e-01 1.887249996122211115e-01 -1.627664920613901833e-01 -7.038627591293439290e-02 -1.518263694463068969e-01 1.233835465776533524e-01 -7.934905599592839698e-02 -5.575578088237939656e-02 1.212107829564137429e-01 -1.588001282205374065e-01 -6.765041086493756017e-02
2.692880510788633538e-02 2.042053187231860061e-03 -5.294978518158582198e-02 8.872321933975289843e-02 4.286277605737914831e-02 8.374044661382021304e-02 -8.210735468771701573e-02 -3.530697606643039554e-01 -2.155031606751045825e-01 1.342990962095624574e-01 2.679295868084738408e-01 -1.541282780841376522e-02 1.268863685702945887e-01 -8.461181279675235312e-02 -3.812393287752797177e-01 -2.869297586313738768e-01 1.498295471230324805e-01 -1.199128762392046438e-01 1.342506321310774631e-01 -1.786512323652775514e-01 8.325000972635067387e-02 -5.435242698236552455e-02 -1.240082668333520322e-01 7.180278902781851713e-02 -1.506536818141387679e-01
2.918451741988435655e-02 1.896794607776664532e-01 -6.725610803295585527e-02 1.194090736860829310e-01 -4.197460165920369884e-02 -8.727519357856802773e-02 8.909468843243022185e-02 -6.562959505747716082e-02 -4.713415825628006900e-02 -1.562788593266409287e-02 -6.247442350592315868e-02 1.556453682355662393e-01 -7.644952542648246474e-02 -1.046190016624081072e-02 2.465951798371519010e-01 -1.945029895230172834e-01 7.504823650481186326e-02 1.353090577509482619e-02 -8.427221316793637174e-02 1.344572833359723718e-01 -1.458942199301789533e-01 1.251956544312387565e-01 3.934338777620119409e-02 -4.379041967309853234e-02 -2.467417496541100732e-03
3.623839975177698541e-02 -2.473242665224805598e-02 2.238260051003127665e-02 6.596575581722810555e-02 -7.208233042683170888e-02 3.150213162762988822e-02 -4.171570977722546120e-02 -2.045541668509858191e-01 -1.737601548476335744e-01 1.039818761151373450e-01 1.910636329072924189e-01 1.090031877557196133e-01 -2.411345881050052861e-02 -1.343845061179378408e-01 5.697016593444776539e-02 -8.184985186136052582e-02 -1.758213426546917368e-01 -5.242586799898350802e-02 -1.568330498925379207e-02 -7.428087052013625236e-02 1.494220752054529200e-01 -1.096737051440086902e-01 -1.222012612474305399e-02 1.811257430601139751e-01 -3.405441424137675005e-02
-9.988987987155673043e-02 -1.093384798235474548e-01 1.608761888069068779e-01 -3.398512341381055429e-02 6.143638074067545030e-02 8.406892431760819295e-02 1.106875707395496150e-01 -9.515973106560549066e-02 -4.998459458304443243e-02 -9.361303460772125995e-02 -2.180844140056866498e-01 -2.726653892057915862e-01 1.825600790206623192e-01 -2.208597939719015024e-01 2.021271736072510483e-01 -5.055260621429558121e-02 -1.907529210621717319e-01 -6.349344478937263281e-02 1.487574063932940172e-01 1.072101101714074550e-01 1.236534150416088024e-01 -7.889720981704662073e-02 1.615154600640697768e-01 -8.354031803417137636e-02 2.148975921508740061e-01
-6.539438519792604987e-02 1.540514055017883077e-01 1.521034879198836509e-01 -5.477492810604517315e-01 -3.124152577575147194e-01 -1.653334257375247904e-02 -2.466189147074690224e-01 -5.950121689830355498e-01 -2.095916044961564084e-01 2.505602357073058450e-01 2.144682916087239377e-01 1.273280032080011115e-01 -8.416860654307489753e-02 5.327294716487576687e-02 1.585591539905491787e-01 1.845153270046933913e-01 1.615115647575975921e-01 1.242816742969004573e-01 -1.665462011527123753e-01 -1.547903647765751789e-01 -4.734524139634072905e-03 7.377770331131788730e-04 1.418805942653362032e-02 -1.178705014954647412e-01 -2.675159606245902100e-01
9.714591247082482147e-04 -1.082726518702046975e-01 -3.509389550315382411e-02 1.337285279432043616e-01 -1.009072797704307078e-01 -7.037604307744230181e-02 1.890020829349949583e-01 8.062604686015346911e-02 1.073174452933473577e-01 7.499513232899063242e-02 1.449488667108708162e-01 -1.798488925221016221e-01 -1.238268621392875912e-01 -1.757525173335052759e-01 -1.110860302250626930e-01 1.857277970639153730e-01 -8.287600589001926921e-02 1.661349482876155470e-01 1.398355916743976024e-01 -9.739718563011753871e-02 4.127330780631106172e-02 -7.793509017881083967e-02 1.720605432789901468e-01 -1.937369673703034645e-01 -2.018543998318015342e-01
-2.996019580650274156e-02 8.618444233244634822e-02 -1.598917886235424329e-02 -4.689592022923297909e-01 -3.461874666076534407e-02 -2.201388441272740804e-01 -1.370793851096389071e-01 9.611972255688841504e-03 5.658563466110152346e-02 -1.190166837660662363e-01 -8.920117224922945176e-02 -6.244259690613915281e-02 8.551754735571225063e-02 1.800181949567240119e-02 -1.700544254932194466e-01 -3.723086353747161181e-02 -5.798040804058476883e-02 -2.304933727728453452e-01 -5.803911678884220854e-02 -9.076137179789628417e-02 -1.153998060382762092e-01 5.060656920834653849e-02 8.816332019052899871e-02 -2.780995613895030916e-01 -1.389289822577353395e-01
4.833911463761642741e-02 2.752770268033993273e-01 -2.020289549853895514e-02 -3.027157955394097974e-02 2.416923638748097111e-02 -1.670722597318523642e-02 2.304705797255801325e-01 -1.714572059243910790e-02 -2.716502471582293854e-01 1.377930287810166521e-01 -1.496497537821711021e-01 1.913809809142511323e-02 7.208688273730007312e-02 4.568063855044328381e-02 -9.517546694535806984e-02 2.487786033604741376e-01 4.224131149744052120e-03 3.777551296532964953e-01 -5.850845171025564201e-02 7.854940406151865451e-02 2.364207906085310507e-01 -1.077520143929672075e-01 1.138355575515328025e-02 -7.385271547059855946e-02 -2.379982792806664693e-01
2.880559939599820068e-02 -7.332530559263210346e-02 -1.918365544016861213e-01 3.944221686322653131e-01 8.578616715030734988e-03 7.117406225256998897e-02 3.037781435430865762e-01 -2.572056547907621265e-03 -1.061432982669479469e-02 4.551390496604566793e-02 2.595815602610293885e-02 -1.770324522530532796e-01 1.075809269130320878e-01 6.294316577469090401e-02 -2.347587048426877723e-02 4.805821104438640079e-02 4.882874126573730905e-02 1.968411992659141289e-03 2.461494536756133888e-01 -9.832912957360975814e-02 -1.971988746750988689e-02 1.406536027474772632e-01 2.336098245686367980e-01 3.448548202863194190e-02 2.103757566207439811e-01
6.397833283752600575e-02 -3.534615495640461985e-02 -1.175151186624222993e-01 1.791115699420230134e-01 -9.647789434463796554e-02 -5.996390862948647316e-02 -1.854751347925601423e-01 -1.616897195826882613e-02 2.060075604734351584e-01 -9.273369864707627086e-02 1.837393657887356480e-01 -1.272683880100630716e-01 -2.020107993510797950e-01 2.093765718534044626e-02 9.928897628151926724e-02 -7.687434339075778500e-02 -2.178436945215355414e-01 5.994423016256619774e-03 -1.585535299222251837e-01 -8.793986807399604977e-02 -1.671595847725216299e-01 1.007626368584806781e-01 1.081739747246347055e-01 -1.509521460241907143e-01 1.360263159037992942e-01
-4.917854418820067491e-02 2.294488734706894573e-01 1.444931293512675963e-01 -1.958137208923411976e-01 -1.854547851473132836e-01 -1.298631958064048464e-01 1.617890145688999359e-01 6.442171060211027145e-02 -1.107324249371725300e-01 1.033887606528386127e-01 6.744516043270348815e-02 -1.294352192652040989e-01 -1.123202506805213857e-01 1.110659028717280172e-01 -1.248535305119752858e-01 -9.874519387994359909e-02 1.038176746415454821e-02 -1.668467733618516913e-01 1.238647712937871737e-01 1.231785057621608004e-01 1.493456744842310557e-01 5.332133041247805183e-02 1.791808443151165497e-01 -3.301497414296793512e-03 9.510024535995877104e-02
3.722717142292899964e-04 9.827184004567833531e-02 -2.844497815724501555e-01 1.750459251671386274e-01 1.372947162254700981e-01 -2.502765628167130316e-02 -9.849222421673674635e-03 -1.899575408219418005e-01 -9.225400207512965411e-02 -5.384621435552231633e-02 -1.030612912506570847e-02 -2.687092906239850129e-02 2.950835372109230637e-01 -1.579312721074770665e-01 2.276858221354036427e-01 1.631227102761439729e-01 -1.413250219934949758e-01 6.464806731429485753e-02 9.946394186847018482e-02 1.089163414998778751e-01 -1.301644974851232095e-01 8.706036319784203614e-02 -3.498401171129537218e-02 6.845947652322044441e-02 1.420686670831489695e-01
-4.337678017034055783e-03 4.735399853697709605e-02 -6.953750717333744003e-02 2.177463382097819325e-02 -1.079404420137664578e-01 2.289027306317300559e-01 -1.154749088175701377e-01 1.393070060506568231e-02 1.361715906753414584e-01 8.294439325772606786e-02 -2.483221218549837989e-02 9.616361837831885473e-02 -1.364938170271071116e-01 7.387582758788530102e-02 1.747321993116890959e-01 1.415574649724302969e-01 -1.298424807912799128e-01 -5.922175443856619870e-02 8.347457759047212378e-02 3.661423133939943619e-02 1.853044518678680364e-01 -2.976017738760592876e-02 2.382789110964653179e-01 -2.738769502189414631e-02 9.949801088955839701e-02
8.069464045642950334e-02 -1.281464318257703738e-01 -1.112420031534853415e-01 8.197094596364929986e-01 3.833223881502433317e-01 -1.803629456464799219e-01 -6.226589519241829823e-02 1.501680261115800712e-02 -7.129216261053034076e-01 -3.319714738591034858e-02 -4.344473815574702996e-02 -2.358497492269628903e-01 2.995955850839712720e-01 2.451404558460816840e-01 1.951475988983885079e-01 3.588282803761069784e-01 1.752332147275969532e-01 1.419372348071898937e-01 -1.136715388379619107e-01 -5.011746258422770245e-02 6.290894728017998316e-02 -2.427667410544828361e-02 -5.124596127894404801e-02 1.120524667689310611e-01 -3.305402629340375292e-02
-5.761556462629517303e-03 -3.498188865006030511e-03 1.662037906005405796e-01 1.074872037472756059e-01 -7.562517117748873696e-02 5.835506364037666011e-02 -4.478259697144316293e-02 -9.860358183081323336e-02 -1.305680867312627724e-01 -1.205467019665542594e-01 1.718945988044100204e-01 -1.113555216103772894e-01 1.269659798365446179e-01 -7.948286658657616188e-02 -1.184521690831936286e-01 -1.937665122135340812e-01 -1.455714000690687187e-03 -7.393853057576706134e-02 1.343181005861329158e-01 -1.341587547989739893e-01 9.429067018252300023e-03 8.630445331028441247e-02 -1.013555470415656856e-01 -1.697313475181576369e-03 -5.814267427487061768e-02
-3.969785945387170611e-02 3.977163929241845503e-02 1.196153833405498995e-01 6.143249002192438524e-02 3.283156102257850373e-02 2.381115694220252710e-01 -1.864250590797523199e-01 1.286435207611809350e-01 1.500634558748178138e-01 -1.712336641387192659e-01 -2.378277120451149085e-01 1.055288845517592250e-01 1.527515238390024510e-01 -6.830220552614488239e-02 2.270550162694430218e-01 -3.344793829818777930e-01 3.029391419374788952e-01 3.270131137561395340e-02 1.080612885222968361e-01 1.045162887776038274e-01 -3.076116812311400772e-01 1.163337233431707696e-01 2.074950086772441582e-01 5.146456423356762788e-02 1.458626757777917518e-02
-7.572109131656813708e-02 9.815574992891175354e-02 1.464227590879465801e-01 -3.164030599170495894e-01 -1.162388167051208593e-01 -2.565891869568795447e-01 9.443856786884908400e-03 -1.059666272625415205e-02 -1.366620200604597157e-01 -1.113985172136278470e-02 -4.907244891201675147e-02 4.279013274397548694e-02 2.414535192725033586e-01 -1.360744580087950573e-01 1.073471650843614567e-01 -3.845639253816584557e-01 1.367976709241991162e-01 -1.907201166488146638e-01 -1.714032655662136029e-01 -1.553790777685756970e-02 -2.467319186402871720e-02 -7.334631492644870521e-02 -1.205632806987595590e-01 2.148689164686132524e-01 8.941045494626588541e-02
6.139858288602659947e-02 -1.055435663898870863e-01 -1.382261083792415413e-01 -2.036461686752170097e-01 4.362492582320853102e-02 -1.197494756377583680e-01 -1.558557280015112623e-01 1.147894570555528168e-02 -8.025671588243647736e-02 1.749401852130718638e-01 -6.205405578635994623e-02 -1.827753304324645778e-01 1.491394297989750289e-02 1.064730427020097181e-01 1.236882225772016099e-02 -1.271704612612057639e-01 2.071277855325635853e-01 1.657057958535526065e-01 1.472453570829997463e-02 8.746995086885650528e-02 1.551361462901960364e-01 8.363672371806453454e-02 -8.734099635325869027e-02 -1.725875656207973008e-01 1.991254921357181740e-01
3.184832205075441292e-02 5.720072086030572600e-02 -1.671283170072626889e-01 -6.352382839010473070e-02 -2.383479978665843102e-01 1.737148375313720960e-01 -1.179931212726659379e-01 -3.236291747836675392e-02 -1.478993113647038837e-01 -1.725468061707374767e-01 1.480764687459141526e-01 1.848762940343752492e-02 -1.862137152575317478e-01 -3.939134469484253248e-02 -2.455434788930681844e-01 -5.751180482430718471e-02 1.206748081171793302e-01 -4.924275021274373415e-02 1.130783891352910853e-01 -4.906135050250233498e-02 -1.349869072852987739e-01 1.001015400238121911e-01 4.247900009714097869e-02 -1.116517511805633911e-01 -1.489307118160867680e-02
-9.537366680243467704e-03 -7.270565834757053425e-02 2.319846732445267623e-01 3.428549745729488341e-01 -2.750248392243555967e-02 1.460445292569872121e-02 -4.896732639306327489e-02 2.379871146962977413e-01 1.214031131953381276e-01 -2.008433941391857824e-01 -3.090826744178322774e-02 -2.105494421395067983e-01 3.027477953652371254e-02 7.642583656869522679e-02 3.072738746627243223e-01 -7.195402640744237577e-02 2.126611782548614993e-01 -2.694294170527418708e-01 -1.006682720748302423e-01 2.026676220328728073e-01 8.804777275783759460e-02 1.153729663206688044e-02 1.699386326393764191e-01 1.716805570309832274e-01 -2.186101830936859891e-01
8.182399818416605242e-02 -1.766936540578917247e-01 -8.805422614508939816e-02 1.906298428032702358e-02 -1.154388797153705765e-01 -2.075631450743910950e-02 2.405609409824046030e-01 7.918766658616069321e-02 1.255575515272369380e-01 2.007194500052972286e-01 9.900808668546923208e-02 -2.523914686587478973e-01 3.670920103616036601e-01 -2.000377575397253027e-01 -1.677268359988633162e-01 6.037349110455157014e-02 1.747640635006101478e-02 -6.494921743836926109e-02 2.787020633403072822e-01 -2.607073049077553439e-01 -3.599421210230448892e-02 6.510928499283004378e-02 -7.430725315622423166e-02 -1.362304704695299351e-01 -4.049497669001253519e-02
1.110052137509733543e-04 1.141124910249893404e-01 -1.776495510702104375e-02 -1.374766545916736027e-01 -1.329693550401468347e-02 1.711370443187875401e-01 -2.330129921074771196e-02 -1.935995071301898351e-01 1.188158360073439529e-01 2.201652965684241514e-01 -1.451894964397375254e-01 -2.019211775662121122e-01 6.439832964078276434e-02 -1.176983433304683441e-01 2.483005565818245386e-01 -2.570406889015824925e-01 7.739026566952460218e-02 -1.151203029605195327e-02 1.263778975465440768e-01 1.230779781154655306e-01 7.620700323464886516e-02 1.748680851761546251e-01 2.073917741926194769e-01 -7.125440303508641382e-02 -9.948528120050889600e-02
2.217166710004320196e-02 -1.313420402372460771e-01 -1.614412926190642306e-01 3.947319099460944863e-02 1.218868853829507271e-01 -1.667327715509646716e-02 7.327592284755773955e-02 -1.483539837977945197e-01 1.387893461354808844e-01 -2.063286014745799313e-01 2.639461125462951863e-01 -2.381143858921897505e-01 -1.103000945802903171e-01 -1.625322770478718204e-01 -1.342817906298408859e-01 -9.316259057138819022e-02 6.596421911259633952e-02 9.771523160634226768e-02 -1.710273378412187698e-02 6.162904999132104433e-02 3.888140717621541703e-02 1.253397012002608613e-01 2.235608034088382157e-01 1.939207649202838446e-01 -2.264810915102260791e-01
7.397478571853348395e-02 -6.453898577139523252e-03 1.419289837681529665e-01 -1.224993670150731073e-01 -1.285330026656409941e-01 4.474507957632038735e-02 6.694495959980795163e-02 -5.533013275285916799e-02 -7.859633823721341728e-02 9.974913955580111402e-02 -1.141358341637504215e-01 -9.572555484614454768e-02 -1.635789804117104840e-01 1.811675263593159890e-01 2.182042719044204604e-01 -2.518284909017933781e-01 9.726724232910045898e-02 1.131674926250215846e-01 -7.709772889833363396e-02 1.057166816449841978e-01 -7.497507902686624537e-02 -4.354973642814434498e-02 1.957063830915499736e-01 -3.220317330430588071e-02 2.563664367286240878e-02
8.872630773942577834e-03 1.503532598896038797e-01 3.220928317185394602e-02 -1.967605089468697430e-02 -1.452977372793588240e-01 -2.661095385926002255e-01 -2.939421287761869589e-02 -5.251576616534715802e-02 3.596433952246183563e-02 -1.951565153254831708e-01 -1.297911794618171466e-01 3.655120329245610256e-01 3.389087320181762009e-02 -4.349438121605183477e-02 1.580455849584424047e-02 7.143675647559162567e-02 -1.473400013718760837e-01 2.269953886018134109e-02 7.033413952951980685e-02 1.776286299375712530e-01 -1.604169001068192491e-01 1.229135903663380741e-01 5.561566877768911454e-02 1.418395124433606269e-01 -1.458593973483165440e-01
5.633488306181187733e-02 1.093808739082513699e-02 5.904530719281114032e-02 -9.157551192270901863e-02 -1.955923833448917071e-01 -1.647378141448695987e-01 1.298480630643762679e-01 2.112821695997003923e-01 -5.905043264404483822e-02 -1.116845174230425147e-01 -1.135665170835501447e-01 -6.307380204234694365e-02 1.165824851981122900e-01 -1.589300962478289447e-01 1.087405327403786620e-01 -1.562700347314633087e-01 -1.457793368847769000e-01 1.496869888776203028e-01 -1.237632348808130472e-01 -7.324593786885789937e-02 -4.146508987922645217e-02 -5.511422278390978001e-03 2.363688356065457574e-01 1.557736517187671144e-01 -9.441929232844939457e-02
5.542270768611381321e-02 -1.239793098466561438e-01 1.472382122994363440e-01 -1.041887251489932026e-01 -1.556251737495039922e-01 1.258054024019787838e-02 -2.782640979304730755e-01 2.697877761484797007e-02 2.708372882305600249e-01 -1.138859807528939116e-01 2.845143407078210562e-01 -1.029860500018280473e-01 4.182074202031960813e-02 -9.721121412978919740e-02 1.227570417630051564e-01 -6.300093121802720353e-02 2.416264366744333703e-01 9.187983509723114672e-03 -9.530301239372279687e-02 1.101483647456144438e-01 -4.334830355633564197e-02 -4.869227220171635541e-03 1.542414277612038920e-01 -5.009095774284098856e-02 -2.313516279365567668e-02
1.305896483672673858e-01 -6.783150994217877761e-02 -1.262813686738869547e-03 6.833607795142621066e-02 3.217304189479923415e-02 -1.975931721224806759e-01 1.880478689003746151e-01 -7.359929649041965782e-02 3.660475045699616153e-02 1.213645454422198344e-01 -1.681071328078668492e-01 6.460351995206226050e-02 -8.454779925371616600e-02 7.959199214347581486e-02 -1.242634919724036335e-01 -1.711597752501216665e-02 -1.736476734974084224e-01 -3.436081739528906026e-02 1.005418713577794082e-01 1.412461816440463425e-01 -1.938903807927302714e-01 1.871302589941052086e-01 1.534630641520604855e-01 -1.283023500498448877e-01 -9.732944399245387068e-02
-6.870005772133110089e-02 -2.052124091275590867e-01 -1.997016951166916132e-01 -1.957513025831477960e-01 -1.355796850319483139e-02 1.534631533270854886e-01 1.610330129049340753e-01 1.536182903791332433e-01 2.480401964567112705e-01 1.933065576509890582e-01 -2.618817205384215141e-01 2.884534709000096883e-02 -4.690646870176972717e-03 -3.672566532664867101e-02 -6.221100069084342654e-02 1.933425564067989821e-01 -2.579579585632467698e-01 1.091939598712165227e-01 -9.886588571074704512e-02 1.358780923319568013e-01 -2.323021569751562709e-01 9.088144238185852375e-02 -1.332122030955452952e-01 8.837047250508689097e-03 1.363999581666376637e-01
3.612708543403296557e-02 -6.460482715045626212e-02 -2.923466241692782019e-01 -2.424362138270897415e-01 -2.205285510688865247e-01 5.603750920953406295e-02 1.762449210912442055e-01 1.090005010578541378e-01 3.360343361629795633e-01 -1.050070821254905362e-01 3.195083465183113508e-02 -1.763110836438306350e-01 -1.809229337171430751e-01 -7.629630668118142500e-02 -1.186047858169883146e-01 2.821036406677210895e-01 -2.149385889183596382e-02 -1.502440203586287160e-01 -1.544983271271312408e-01 6.025282822619140721e-02 1.911857573940021482e-01 -1.373793151075271557e-01 -2.103224708102860718e-01 -1.188304768006929052e-01 -2.751074012768576615e-03
5.962109581982318399e-03 4.937202018587576180e-02 -1.428345802898430827e-01 8.185247749270543882e-02 9.327212664411556331e-02 -1.707300793432846020e-01 -2.284665948239462119e-01 1.380483837890167376e-01 -1.812850140787306275e-01 1.212610562864895880e-01 -1.720596718543847270e-01 1.469263459096172841e-01 1.299410166802555944e-01 2.073794798592602795e-01 1.664928828538861927e-01 -2.328636654633841063e-01 -1.276913192228427973e-01 3.428254864690271631e-01 2.178705948901248635e-01 1.399207260049132318e-01 -8.250890736073955567e-02 -2.385715553000410105e-02 -1.870964652944821435e-02 6.233976947232781375e-03 -1.347838200617507143e-01
1.042025443384366756e-01 1.555320339015528464e-01 -5.034275139945759703e-02 9.509786673420368708e-02 -7.066642310843843436e-03 -1.455143976280577622e-01 1.562600537633509479e-01 1.881872595109349289e-01 6.271922441734384401e-02 5.233514361991891545e-02 2.617698125420962144e-03 9.836433123441121196e-02 -7.422616055952840908e-02 5.771225352428296235e-02 5.953449962285654873e-02 -2.336082368142475829e-01 1.775722373679979871e-01 -1.417527855882997345e-01 1.290548604917081676e-01 1.278904235690287994e-01 7.863320721874787755e-02 1.484802585696645694e-01 2.145075973640643840e-01 2.611856246027139533e-02 -1.994735894638643425e-01
-5.436232434360961738e-04 -1.775366143824126663e-01 -2.378489156391251080e-01 -2.902021063360951114e-01 -4.792612917607431133e-01 -4.579362155298953574e-02 -9.313665356841888121e-02 3.664086917776607742e-03 -1.777500570657386814e-01 -1.108747012709665192e-01 -1.435539987953948771e-01 -2.507747264855060207e-02 9.681797133675737466e-02 -1.185928453737740973e-01 7.914292139292620695e-03 -8.103483274285337712e-02 1.644329280024418305e-01 3.982727620126304616e-03 -4.272774095586347187e-02 -6.241915618659353571e-02 1.073934816314529445e-01 -1.081932494848277145e-02 -5.362166928489786599e-02 -1.890226370556582214e-01 1.356618722324397230e-01
-1.175894330190663667e-01 1.486351874458853584e-02 2.721405759395684743e-01 -1.666522273860078784e-01 -1.518479432572773513e-01 -2.077717467722897948e-01 -2.569984484962996585e-01 -3.002217597673892749e-02 -2.951188544061288804e-02 2.074915790644904848e-02 2.717258401677129509e-01 1.564566606647456171e-01 -1.554979673019322162e-01 -1.133619986596832718e-01 1.097677775038182757e-01 -9.947138372780749138e-02 1.511285749443637806e-03 -2.074015785177303062e-01 -3.539765877787973830e-02 1.516123228730190675e-01 -7.529264791709248950e-02 -1.517650320140024878e-01 -1.264832546817720171e-01 1.562849103531607498e-01 8.976332460633468235e-02
-2.226010633267593367e-02 1.579650820312915593e-01 9.154378649492414532e-02 -1.242779483375832245e-01 -8.334949636901851922e-02 2.578187005461669012e-01 1.752732675183979461e-01 3.363601856617177699e-01 1.569398474319361469e-01 -6.445030763601251704e-03 1.397928387202466427e-01 -2.677291666209726806e-01 2.038225307633617644e-01 1.716280661842520955e-02 -1.994011091489936160e-01 -7.642568793391261994e-02 1.090181366046001632e-01 1.892910371305969175e-01 1.781182202262358572e-01 -2.469682159778750774e-01 2.062605983901091289e-01 1.395959273258339135e-02 -6.678266663644234769e-02 -6.727979875401635113e-02 -9.678619591692522173e-02
-1.342897124082408598e-02 5.250050559154006979e-02 -5.129419119185111425e-02 -3.064784948952156141e-01 -1.259170737420445552e-01 -1.345567645058466932e-01 -2.272128518067133840e-01 -1.665198717852564569e-01 9.577653777744522812e-02 2.583972712820550854e-02 3.428153192823941292e-02 -1.003117777238919650e-01 -1.412935528607898172e-01 -7.456762673656762430e-02 -7.998055529372574690e-02 2.642226512563753404e-01 -2.337617072143584052e-01 -4.748809081948485861e-02 -2.327944504311491025e-02 -3.471518940040203838e-02 -1.577557525169321073e-01 1.473160105786061602e-01 1.454278940415284216e-01 -1.579123912337796476e-01 -1.264364713233800397e-01
8.677952696447926995e-02 -8.228115345841972850e-02 -4.445104171147058053e-02 9.527023306745242837e-02 1.150236498007028985e-01 5.702435754470709661e-02 8.280042675449808542e-02 1.552728947471804510e-01 -9.029599382475164693e-02 -2.536870429649440428e-01 -1.463891993905710454e-01 -2.207442730278099535e-02 4.873426489177090648e-02 1.192459311191264720e-01 2.054306104982987491e-01 1.446594329946278845e-01 1.152555651828263278e-01 -1.326050240574089545e-01 6.497374853971472908e-02 1.762252071532466671e-02 -1.360616079238624598e-01 -1.778468590618659945e-02 -1.605945403999038401e-01 -1.817516315224102230e-01 -1.013349551588802466e-01
4.990227417223256495e-02 4.394537109880249093e-02 2.027032500114203384e-01 8.953387946866110669e-02 1.322681519758373558e-01 -3.388926044476980176e-02 8.139128454191116302e-02 1.845531929929757342e-01 2.146563215965268875e-02 4.951043269952976750e-02 -1.437963798421772708e-02 -9.765696787511748966e-02 1.300515110915579919e-01 -1.136332813276312408e-02 1.845613764293565356e-02 1.637856531332047838e-02 -1.535265357204200487e-01 -9.598752898586129789e-02 -1.924910450986792310e-01 2.568715861566214786e-01 -2.215201204997561124e-01 -8.131205211215564166e-02 -2.096329889319544504e-01 -6.334774866232961710e-02 -3.966412318926339220e-02
5.881558668701356019e-02 6.098883573580499151e-02 1.811976380426323294e-02 4.111704136378964425e-02 1.088876174867196012e-01 6.797479456604769987e-02 1.004957485955348118e-01 -2.773189574887973685e-01 -5.890633114271590781e-02 1.495887322777730843e-01 -3.353404841069945741e-02 7.996513976737411322e-02 -1.763463294858270414e-01 -1.058035306590411895e-01 -1.139765686091615965e-01 -2.747466253239110867e-01 -2.395458535264568534e-01 -2.209939023535325425e-02 -1.582517517464679946e-01 -2.339032078627275024e-01 4.765794621785556656e-02 1.792787035650297012e-01 2.734376467983246073e-01 -3.010311682315779391e-01 5.050240090270163851e-02
2.827252266071539344e-02 -1.601072072739879656e-02 1.312459752710595229e-01 -2.367680218608534878e-02 4.777149181949726792e-02 -1.882567039936589304e-01 -2.176664419022410202e-01 4.729184317186438564e-03 -9.605252110604330096e-02 3.892687594313237742e-02 -6.836668316830639414e-02 1.757835232525405411e-01 -4.519427411218258223e-02 -8.501869000041404820e-03 8.077288053805652124e-02 1.576491968627931339e-01 -5.259644336849023799e-02 -1.538717665068061770e-02 -1.537391672451514923e-01 -1.100524367081967270e-01 3.899501626081502276e-02 -1.106695650892402932e-01 3.973223844627551959e-02 1.650952956924076898e-01 1.292283424417391829e-02
-4.368867837152660277e-02 8.352391010404153909e-03 3.159206200213557358e-01 -9.824521376403730355e-02 -1.574447684359431276e-01 -1.868501246569346796e-01 -3.469370581332471837e-02 -1.797578165137568573e-01 1.755403272209410739e-02 2.098293038968220003e-02 1.175610805253302221e-01 1.173342245787378085e-01 -1.031601892697239613e-02 -6.736285075695190583e-02 -1.183578405154426388e-01 2.285164702736905418e-01 -1.224269722798501658e-01 1.423924994756221585e-01 2.228521746508091428e-01 6.491332883786307684e-02 -1.185432159933583612e-01 1.424326508919155077e-01 5.566348629758659239e-02 3.189601816961970537e-02 -1.685037186808190091e-02
8.642030244496216873e-02 -1.378476734892919719e-01 -3.047176117588580868e-01 1.750805213014395290e-01 -7.002931036399486289e-03 -1.718750560556275842e-01 4.730243978475620614e-02 1.482404060498243858e-01 1.086527462230283819e-01 -1.505464066428559289e-01 -5.804631834174037858e-02 2.167993875837173623e-01 1.462719686142118225e-01 1.995077459501287676e-01 -1.537751638006421284e-01 1.777992917486195465e-02 -9.641082837061819288e-02 7.813363792836916510e-02 1.076844589470122848e-01 1.880564015771475084e-01 6.580186472595588032e-02 -2.200964520359879883e-01 3.800296671148953309e-02 -9.702512560867909697e-02 -6.422510868765958676e-03
-5.209968312355142683e-02 9.478301883862655375e-02 1.446606400855771912e-01 1.334091714626694791e-01 2.054685893264878993e-01 3.377256435912369490e-03 -2.045037319521110508e-01 3.973416533896636377e-02 -3.312942503491277113e-02 -1.516028733484120223e-03 -1.562695776082804744e-01 -9.897949890310350773e-02 1.283558829415966038e-02 -1.588034677752294677e-01 1.037671346276351353e-01 -1.557935733927855726e-01 2.047269031067174561e-01 1.728390435371201239e-01 1.574186949399283275e-01 -7.486733616438107780e-03 4.450683871565692951e-02 1.642425498086537705e-01 -1.122133369026883098e-01 1.066275419037956834e-01 -1.871097733404854593e-02
-6.973856978922528260e-02 6.576372848487470855e-03 1.289237295197840152e-02 -1.073027254704450456e-01 -1.550765559905702140e-02 1.728128133819976930e-01 -7.337367228005599318e-02 -1.500571534101329818e-01 1.927206448892553325e-01 -2.535020821653527490e-02 -5.926282061132696205e-02 -8.570109280306657806e-02 -8.301657394330484718e-02 -2.031950720397809051e-01 5.657969224889789622e-03 -1.508555109008477557e-01 -1.580863348332637794e-02 1.449409332926935301e-01 -6.481434170570396502e-02 1.772502749293534408e-01 -9.367991651060952885e-02 -1.231027610855755725e-02 -9.920477351553173839e-02 -1.594786681766405811e-01 -1.713166555268739732e-01
-6.402361387550134508e-02 1.462916581329432308e-01 1.623490610341837559e-01 -5.222434031744416227e-01 -7.147437992594782297e-02 -9.966291205753186055e-02 -1.176873838676865125e-01 -3.927977820906426998e-01 2.323299307896069532e-01 -4.441624170710453678e-02 -8.814400144433184869e-02 -1.600961735973407130e-01 4.087481590884329218e-04 -2.921342353187813407e-02 1.807688190905600567e-01 6.199508790543444003e-02 9.471152779437086444e-02 -2.412538001592600956e-01 1.171607142367309673e-01 -3.528286315973482024e-02 2.103064607242309259e-01 4.093374625504344611e-01 5.845819331744954786e-03 -1.087665538578089786e-01 -1.653779850080408786e-01
-1.323799853054652247e-02 -2.668456879309624372e-02 7.264679695100999257e-02 1.705405114993691074e-01 -8.315540978338643863e-02 -1.796593001815697532e-01 -1.770615241924649585e-01 1.871159078882760896e-01 -7.439565467041682478e-02 1.662918860792005626e-01 -3.648774402294985286e-02 2.554295646892026234e-02 1.163308693129651815e-02 7.809394738980753037e-02 -1.040163930268088316e-01 3.654346723057958629e-02 -2.264535354316352944e-01 -1.488805451574044987e-02 1.517247759382010230e-01 6.899699402389160297e-02 8.985429279153422932e-02 6.273324686157763508e-02 -2.185165533968269902e-01 -1.570922833840363575e-01 4.469284473128865703e-02
-3.685870755230025164e-02 1.315518515008301526e-02 2.190976296138762158e-01 2.895718617099448874e-02 7.250131248773002135e-02 -2.640503851068363161e-01 1.118125168231571265e-01 7.383610818661107134e-02 2.751473574055893767e-01 9.936527002066293524e-02 -7.493130201117187417e-02 1.455528065960518813e-01 -6.254350099915681298e-03 -1.507298648771744354e-01 -7.095210711645891233e-02 -1.782904507669827998e-01 -1.767004531067535578e-01 -1.798128909314150592e-02 -7.949357039556081972e-02 1.042627601352087291e-01 -6.987950569588879945e-02 8.954003570156289504e-02 8.067885930343102197e-02 1.838532071097422615e-01 6.649649829307154036e-02
5.196147345946117158e-02 4.458267807221822504e-02 6.904344132948342372e-02 -1.052895586048784166e-01 7.980102723494383876e-02 -6.358238667374549458e-02 2.170796383970310384e-01 1.149469400175473360e-01 -1.612444913528905677e-01 -1.558274231197963045e-01 -2.898288123538988459e-01 -5.877057397745980016e-02 -1.586097790026810839e-01 -1.042904285171435408e-01 2.226288220249822980e-01 -1.405947275885472414e-01 2.036644672595560868e-01 -1.489328417990053999e-01 -1.444621344135657570e-01 -1.922869769601572298e-01 2.055767126311626447e-02 -8.851097093574743224e-02 5.385375915507110978e-02 -6.729951355639619825e-02 1.438337074913243266e-02
-2.364431940406764091e-02 8.278510729473496921e-02 -1.267741717635348098e-01 1.759042003744022975e-01 -1.846718297457986269e-01 -1.217733874358803772e-02 -5.687852423873458740e-02 -7.997898958215904353e-02 1.500254678470833158e-02 1.449241341031731918e-02 1.056952718053384560e-01 1.627991005373528866e-02 -4.162066659696820464e-02 -7.010908233265574548e-04 1.189542654402534622e-01 2.773187925014372612e-02 9.043725409938906112e-02 -1.097510816830234021e-01 -1.498955132796759848e-01 1.159793549795865297e-01 2.177660571492571751e-01 -7.906721806518633711e-02 1.746132951376380693e-01 1.296160021375523941e-01 -1.610393206379257813e-01
-1.534897250922307443e-01 4.972764641323219187e-02 3.207956064502861526e-01 9.099509341995706824e-02 8.616372081252259008e-02 -2.766978668257727425e-01 5.601069152552947544e-02 9.451477472835168037e-02 1.758260390685314478e-01 -5.673155288249753098e-02 -1.657747853207809929e-01 -7.922642482185762725e-02 -1.409369759776808728e-01 -2.003296467561641869e-01 -1.459450659070585521e-01 2.655212966297362254e-01 -1.630342972534929435e-01 2.269708689359866416e-01 -2.072831187566400446e-01 1.135509677865337644e-02 -2.339329349894197184e-03 1.905115895859278430e-01 3.655718664713107635e-02 -1.083639160966312215e-01 -1.324126810023896483e-01
-4.228260936073393456e-02 9.722760964475712919e-02 3.597851974092030475e-02 -2.228525456041906827e-01 6.379992088830017949e-02 -5.192627669178348504e-02 -2.221056448155515062e-01 1.317697961888839205e-02 1.631578349529460431e-02 1.453235429541919477e-01 -4.226915824355727963e-02 2.157083050948252825e-02 6.674001527501308151e-02 2.911835302909001125e-02 -2.028501786643349680e-01 -1.222715771364602799e-01 1.528781529559983254e-01 -2.829189063088561815e-02 1.938044570645464926e-01 1.267174660354298266e-01 1.666428339612830989e-01 -1.556054469410975971e-01 -5.473399394227213693e-02 1.298311198476234107e-01 1.331728866576851848e-02
5.748474676277618052e-03 -4.630053066881124890e-02 6.202097281017877883e-02 1.961583410247892956e-01 -2.937760799069674689e-02 1.188104722296638022e-01 -1.156494588100457910e-01 6.981487757789538173e-02 -1.733665786202321368e-01 5.210178297667348440e-02 9.609030794472037118e-02 1.445967308309644428e-01 1.682619274596332537e-01 1.148883550808514620e-01 -1.612221017441224091e-01 8.437997392455402756e-02 -2.074974902547668254e-01 8.592228893623951591e-02 -1.203313910895755096e-01 -9.798232291696672147e-02 -2.069737346090566588e-01 1.168679250412759524e-01 3.138532717735856292e-02 -8.841862885038069553e-02 -5.819054565450218486e-02
-2.460273439150654010e-02 -5.565001576611061651e-02 1.008826954298674972e-01 -8.948733204972422750e-02 -7.748464774881733130e-02 -9.719549910699108730e-02 1.771503492596764595e-01 6.884993346950572801e-02 -4.690233449618644995e-02 -1.820973964624145458e-01 -1.683009982865345255e-01 -2.067953810003891058e-01 2.170479544928258508e-01 -7.764417411748020248e-03 -2.959328801200075687e-02 4.456106684433654846e-02 -9.225696741765795905e-02 9.981674051100157541e-02 5.688195564431349632e-02 -7.982120328597824832e-02 -1.743124045346382545e-01 1.579546490130035452e-01 1.270922909898855868e-01 -9.798992738596709606e-02 1.086478902390018431e-01
-8.645169896226434503e-02 5.472026898725639021e-02 -4.408576964764093775e-02 -1.244761582553292334e-01 -1.233534460299303831e-01 9.725588845465381327e-02 1.101820938097976682e-01 -5.630518567764930538e-02 2.433223067902332837e-01 1.144004187820438362e-01 -2.127326349933670591e-01 9.061185290202268539e-02 1.555008232148606673e-01 7.551979827926265376e-02 -2.675540276667484965e-02 -1.210046741891710881e-01 2.425008790126943758e-01 -2.072136881323546620e-01 -1.989717964623544388e-01 1.461227159529647768e-01 -1.184012112683107687e-01 9.384618971815564259e-02 -2.303610362859021543e-01 1.766606019503260197e-02 -7.096977292576038543e-02
3.301847127808679727e-02 2.040572898716919714e-01 -4.385251427201054819e-02 -3.020324468903635706e-01 -3.262040547507449872e-02 1.717328365596325346e-01 -5.565370902714007056e-02 3.226852340204601766e-01 3.653111179243349882e-02 8.506355043585163422e-02 1.521619677697577944e-01 4.501479521252731153e-03 3.210007239853791827e-02 -8.727419275871310667e-02 -8.162893519616605531e-02 -9.331702550765293147e-02 2.561280510113106076e-02 1.501642349655321791e-02 9.915200304109841878e-02 1.529152664543062534e-02 -1.882619381999630914e-01 1.009242222766423835e-02 -7.218369321222001256e-02 2.640530470034000224e-02 1.685632780773600736e-01
3.783336036018211668e-02 -1.211261997704396326e-01 -1.500298855483032101e-01 -4.706781531076160291e-02 2.544562529515380089e-01 3.605731995051773831e-02 -1.489500825346560808e-01 1.793582913014669933e-01 3.106684686826559350e-02 1.878597556464498830e-01 2.225264516002897208e-01 6.072187958739803416e-03 -3.424628078408199772e-02 -1.865697406552768028e-02 -2.270884177396614023e-01 -8.801316161817561434e-02 -1.602771916436249999e-01 1.844609079546983832e-01 -4.716441497560777685e-02 2.388744982292905286e-02 1.261891251544650094e-02 -1.775862423661952461e-01 -5.720786323104405657e-02 -1.736758167561099631e-01 -1.597943593185258138e-01
-3.442501582223357615e-02 -6.030436167876041670e-02 2.645273049875457305e-02 7.160241761147986828e-02 -1.539228946327672598e-01 -1.545988966529176500e-01 4.086476074909058120e-02 -1.405365636948980035e-01 -1.131704315512952475e-01 -7.335232690032429670e-02 1.924147275935081391e-01 1.544675693084378021e-01 -1.295160744459597779e-01 -2.330962033232523642e-02 -1.725327255414173949e-02 -1.529314578384305678e-01 5.085764539995761557e-02 1.787431798911550407e-01 7.086883170112494301e-02 -9.699364921953376739e-03 -4.756301997930692527e-02 9.139626140836363058e-03 4.218226462480645367e-02 -4.304182412501587202e-02 -8.480296633581868582e-02
6.143196887018451818e-02 -9.655385542343944416e-02 -1.849750166867996509e-02 5.030691532733787968e-02 1.598845462164557585e-01 -1.370262329403883206e-01 1.335357399489052466e-01 3.012594248443127842e-01 -2.524634274140242773e-01 -8.824775431137615866e-02 -1.973930316824465403e-01 -1.732064526956685405e-02 7.448394695804820553e-02 -4.754478426582482709e-02 7.414856755457007766e-03 1.385282453343013864e-01 -4.449500382277497140e-02 -2.942027590120658773e-02 -1.222179373230103949e-01 -1.659721498865151801e-01 -2.065586666739728516e-01 -1.400470944464900225e-01 -9.276755443103926191e-02 1.076458048778124871e-01 -7.626019563504851662e-02
8.864645830596749876e-02 -7.220580122898379027e-02 -2.485433632961424055e-01 -2.213302353042186088e-01 -2.863810249923566878e-02 -1.868511561238439811e-01 -7.911050678257787808e-03 -2.371671516555657055e-01 -1.673227862277587574e-01 8.434524052879034672e-02 1.994718677711907473e-01 4.158373369902936684e-02 -2.003493898190259748e-01 1.557386218032153213e-01 -1.650378424991827131e-01 2.485290988187072170e-01 9.242690497927096016e-02 -4.462918761136645818e-02 9.318368100395775511e-02 -1.721957150019028104e-01 -1.571269454658267561e-01 7.198036845453426036e-02 -1.204462594578024487e-01 1.713363122066565158e-01 -6.627128671412893524e-02
-3.117589558790140325e-01 -9.023781298748767554e-02 -4.201977910394617821e-02 2.643787797619439606e-01 5.071832898907386866e-01 -2.968725528071737285e-01 -4.054450097414544207e-01 -3.753193603984487925e-02 2.972032700730329324e-01 1.970630373747395137e-01 8.514500140489189572e-02 7.940799454986657846e-02 -4.048459573894355734e-02 8.904445985447292933e-02 -6.167341104987475453e-02 2.017213794960658890e-01 3.382237765138390029e-01 1.315671579333569929e-01 8.610203337391887646e-02 -1.746170730701773408e-02 2.426687450333853135e-02 -3.522000981625458133e-02 8.625666836921898339e-02 7.454580503136055969e-02 -1.664358136641867214e-01
2.892133999918820517e-02 7.224021311311837334e-02 -1.848563478200445087e-01 -1.649444959570681435e-01 6.295575783036529149e-02 1.960634104142800968e-02 -1.353563533886965320e-01 8.253766285848568307e-02 1.700970000749120192e-01 2.004362471638108656e-01 -1.444852155574243568e-01 -8.487257724079683152e-02 1.251019086142575731e-01 1.710805847717983275e-01 -1.668203047267316497e-02 -6.338482260276723235e-02 -5.452111230427691968e-02 1.398776788206101684e-01 4.118217141807082107e-03 -2.438539855763377506e-01 2.288371101295345045e-01 4.366904666499288323e-02 2.843772250212838262e-02 1.755400356252961869e-01 1.678223407240961029e-01
1.369547772047891541e-02 -4.717168097307496144e-02 -3.718569950023434961e-02 -9.717220010913814321e-02 1.314488851575619163e-02 -2.373966376416314361e-02 -3.460803586308700552e-01 -7.480332380774815104e-02 6.286470513024702833e-02 2.285444187928731552e-01 1.960010638807732908e-01 1.834128170324484958e-03 -6.790037637250587003e-03 2.229128720305401379e-01 2.990253517316021278e-02 -1.148920342805367506e-01 4.851920789833010644e-02 -1.890985448164838878e-01 2.203832798589086261e-01 -1.218166607360549880e-01 -6.728724431916033484e-03 1.361707269111698052e-02 -1.351767959701591082e-01 -2.570994615396988703e-01 -2.518592174798124361e-01
-1.614346992660346466e-02 -7.599148211465646396e-02 6.149455027771297960e-02 -7.107662636980203660e-03 -1.196428871915298231e-01 6.110814060192607195e-04 1.123341764979515073e-01 1.110856123603535389e-01 -2.032106265537011666e-02 1.167916693326202793e-01 1.399231884001014281e-01 -7.006526862551940016e-02 -1.011520291299295438e-01 4.765312808108080472e-02 1.441860224208239005e-01 7.846317172206536406e-02 -1.346345418677599159e-01 -3.948968285141520734e-02 -6.089457431973428758e-02 1.699054053601093961e-01 1.931757718290648684e-01 1.867280517129365491e-01 1.864221318914456027e-01 -3.008745451191304279e-02 -1.108765239751584655e-02
-5.730712753696758782e-02 9.752390351066372864e-02 6.248484015688598320e-02 -5.938843428182145195e-02 -5.105408672624949656e-02 1.006143017546558271e-01 1.580364603352386599e-01 2.725955255266651056e-01 -8.201176757854787558e-02 -8.569837249998980833e-02 2.010293177524471314e-02 3.914540567479631028e-02 -9.705953687026389054e-02 1.033236426975652766e-01 1.814840762518983297e-01 1.768169108003543599e-01 1.197993975499188901e-01 -1.364108982607907701e-02 5.598193281245879976e-02 1.071536491647375189e-01 1.350813483882203903e-01 6.186416355917000176e-02 9.740532035814024325e-02 2.357507164440784397e-01 -2.319255222407204109e-01
-9.408767470289290669e-02 1.448989564193103041e-01 5.820238345449561118e-02 -1.546169952275005255e-01 -8.808884397344154960e-02 3.271047705173910081e-01 -4.540297975270751185e-01 -3.812181642356290423e-01 -4.641423434982843155e-01 1.733692837908451245e-01 -2.685350906193014961e-02 -2.371588453494555271e-01 1.032970719491047018e-02 7.804465081425683570e-02 3.227762212237356848e-02 9.225508411768543193e-02 3.279054721975987324e-02 -1.519052978739657001e-01 -8.292595882487693859e-02 -1.500510041215350199e-01 1.012296629199401637e-01 2.317488648308490412e-02 -3.615721994694913802e-03 -4.501329126096745986e-02 -1.889198961391179710e-01
-5.312474662460776875e-02 -4.409069480746501124e-02 1.602640750386165047e-01 8.610859029798237363e-02 -1.866963792242245790e-01 1.106447383576184273e-01 -2.366941647547058866e-02 1.597740173797873864e-01 1.117657648798500297e-01 -6.440092778253787842e-02 -2.126470650857008315e-02 -9.368940808392620112e-02 1.743903312340817358e-01 -1.719061843074504714e-01 -1.092692562048340338e-01 5.811109653196468855e-02 1.387551123378817641e-02 1.489589947074026477e-01 7.459190311279161045e-02 1.805549107146611765e-01 -4.350371267029553429e-02 6.295523265305914828e-02 -1.731227108730623299e-01 9.141879768690798491e-02 1.735128178465553117e-01
-5.424543344513976795e-02 1.295209169577790295e-02 -2.105512030533338574e-01 2.018763883307736831e-02 1.961902942272817849e-02 2.134390312340284437e-02 -9.750440877364256742e-02 -3.921188844944862306e-01 1.389207757860997094e-01 4.501675120191946100e-02 -1.442665724240047576e-01 5.363394622101781695e-02 1.143410999687605456e-01 -7.674462094662244660e-02 2.879818634566179078e-02 2.087062326982040694e-01 1.913330122434628855e-01 4.296579666667140786e-03 1.569497897295073774e-01 -9.063040767398750086e-02 -8.289835122817071356e-02 -7.732379376804813208e-03 -4.143440076096274738e-02 6.321334852370520674e-02 4.073898203031180165e-02
-5.659637753303689567e-02 -8.639080932087526976e-02 -6.245753089704551841e-02 1.636262064777221081e-01 -1.832365735593982914e-01 4.598074777953711084e-02 -8.806043516357732470e-02 -6.459777914969098978e-02 -1.051652131329583045e-01 -1.493501188291375681e-01 -1.013944850447075774e-01 4.105001247541319176e-02 -1.341396310587958940e-01 -5.596622876464835139e-02 3.104559911479952417e-02 -8.885536112067728143e-02 -1.873523956085881015e-01 1.254221752068126194e-01 -1.901780259556081487e-01 1.012412222571331122e-01 1.310308661218017867e-01 1.269606798881824095e-01 1.799168104815280500e-01 4.206500547136421408e-02 -6.956059807955189411e-02
-6.565093873663939428e-02 2.161332768885424749e-01 -7.581387009112548758e-02 -2.535657790705633796e-01 -6.402595984280544383e-02 -1.819349659572608302e-01 8.846825741576451463e-02 -8.418562618177363732e-02 1.150533391158354291e-01 1.823053688273317541e-01 3.034099879673723410e-01 1.371293546355055737e-01 2.259042668976611601e-01 -8.562623753922232045e-03 5.153455505481235877e-02 -9.822276942435347047e-02 1.056358994357509823e-01 -1.289866377332013654e-02 6.944412953193565552e-02 1.494749480496312954e-01 1.676315740883716973e-02 7.681908405717496890e-02 1.851116876382212506e-01 9.528018005561944559e-02 -1.800298464256802067e-01
-1.047904570468807285e-02 9.651113001336253383e-02 2.810160210693034115e-03 -2.615903236271523991e-01 2.102647688521156466e-01 3.313240724926106995e-01 1.899799394955283827e-01 1.023915552281440683e-01 -8.082798727166817798e-02 -1.991217135433609731e-01 5.080108324258574004e-02 9.282071991418932438e-03 -1.906743072204852840e-01 -2.297009585009171864e-02 -1.937193648520510736e-01 1.034292266333553811e-01 -1.382857543020805102e-01 -7.795693652852549171e-02 -6.360596313864662343e-02 -2.381805563985886498e-01 1.305091535911966638e-01 -2.429797468699203267e-02 2.420168362906598980e-01 9.867446486121633775e-02 1.410000024496902739e-02
1.140223072734525833e-01 -1.128813807424707411e-01 3.568657986321790432e-01 -7.478990068331081709e-02 1.705557254342297546e-01 1.056680286292436682e-01 -1.079578911974316546e-01 -1.279228925903500291e-01 8.364675625977946449e-02 -1.626860672189154589e-01 1.234707407369718506e-02 -1.515542160616562550e-01 -4.532437613676889437e-02 1.693324381341237694e-01 -1.282431326528557236e-01 -1.885058193475011024e-01 -2.734034728122676228e-01 1.234667788545329853e-01 -1.720056312087248351e-01 1.770132979894395164e-01 2.117528775395381146e-01 2.088247961128712749e-01 1.304800947247227172e-01 -1.688027397018528608e-01 1.651367987056219788e-01
-9.921757755962107295e-02 9.890654494121049745e-02 7.647631563793677589e-02 -2.600982237394928731e-01 2.623565126581159923e-01 5.115219934128673041e-02 -1.537803978011950123e-01 1.441901394101885725e-01 7.212709057938286594e-02 -1.481867428419587907e-01 1.341767072657214233e-01 8.881051631404872013e-03 -1.037164381737199492e-01 -7.865001672619920114e-02 2.170423992067974650e-01 2.650435618377205427e-01 -5.231531934324395311e-02 -2.990030359066778165e-02 -8.731262284852009392e-02 -1.114655459375299973e-01 1.588834519418929336e-01 -4.838520729550747912e-02 -2.485449811811694387e-01 -1.783032844693996088e-01 -8.737111938452597759e-02
-5.669962842623158493e-03 -7.233368761580638573e-02 -1.487166996710027889e-01 -4.613126107721561842e-01 5.936299117112001089e-02 -1.486972019580758975e-01 -8.533572620955380550e-02 -1.184418215275409025e-01 -4.261887017665726973e-01 -1.694120757495811563e-02 8.135495656725870439e-02 -2.297679419334490714e-01 -5.579421594071102414e-02 3.191298533687250694e-02 -3.918718915548535797e-02 -6.632040546351776478e-02 -3.137548830792456084e-02 -3.519594872666078483e-02 -7.566634829375926130e-02 -1.438900430173755685e-01 3.612580836724942346e-01 6.375815719187738484e-02 2.433200703576479940e-01 -4.559985456474542967e-03 2.333807636258993234e-01
-5.966514077039499625e-02 2.601539983936859701e-01 1.784228507208461267e-01 -2.127373945261208099e-01 -1.429509783617690932e-01 1.886975112725358950e-01 -9.413292010700628765e-02 -9.664967836683253932e-02 -2.052550253703874228e-01 1.399910215583174411e-01 -3.011330152525185447e-02 8.454507689779215684e-02 2.094826730616057564e-01 7.846923099672493962e-02 -1.779268293879056606e-01 -1.592835912909118523e-01 9.543133306576767616e-02 4.566886522283152700e-02 3.413720058876030649e-03 1.133462777178577963e-01 1.267934533320530244e-01 1.473468428619882087e-01 7.906469882723193843e-02 3.617974973962069518e-02 -5.125865427987685852e-02
-7.798320902815818190e-02 1.259403666117487330e-01 1.613079566173457047e-01 1.737289287478924193e-02 -2.875478128802323383e-02 -1.207729365028753499e-01 4.601541728354176936e-02 1.201633231513568253e-02 1.887041907247154482e-01 -7.128153726764588360e-02 1.106227894797305045e-01 2.331563174207299804e-01 2.393847114201547166e-01 -8.238958617986370803e-02 -2.128147078290769656e-01 1.851742295653908965e-01 -1.609572820333972920e-01 2.081678751629653309e-02 1.897884071461725108e-01 -8.987005953734829300e-02 2.150767926377781386e-02 2.386047363385710579e-02 -2.222846229855375000e-01 2.528629887303621843e-02 -5.937188667164738226e-02
9.739704424369596825e-02 -1.855105853734199603e-02 -2.561034163546163089e-01 -4.695909874867359307e-02 -8.530973129162866542e-02 2.716966288990331768e-01 -6.826728959599681623e-01 2.040981028260374641e-01 -6.425246253825814269e-02 -4.762433212709556857e-02 2.666867247866691049e-01 1.415446602687016053e-01 1.645439188321810298e-01 1.506164703743020916e-01 1.614342975644204869e-01 -1.231960077564765027e-01 7.055656245028774087e-02 1.804726524993207903e-01 -2.516300121986629335e-01 1.191588634723303036e-01 4.748183658808622504e-02 -1.694769717918807317e-01 8.889571043970556988e-03 -1.287584151075870653e-01 2.051616193508654651e-01
-4.842617694309178655e-02 9.695992392839278273e-02 4.975108363767041797e-02 -1.578520023948987994e-01 -1.788801987262176318e-01 -1.741652856827554108e-01 2.412721905143808687e-01 -1.223097894653459444e-01 2.026751924672313965e-02 8.341693925424370493e-02 9.046499097102983500e-02 -1.281673951375174314e-01 -1.467412757560524091e-02 1.947347984961274869e-01 3.783956502584152892e-02 6.132755542746428506e-02 1.133483037888663864e-01 -3.148158918501122588e-02 -6.575372025562226108e-02 4.277652367852800147e-02 1.960497627084966388e-01 -3.611018643185363169e-02 1.895678649885843281e-01 -5.455714311846247139e-02 2.227350731250672955e-01
9.447526839662973019e-02 -4.928943827364790087e-02 2.203882292339882643e-01 2.873542840217584438e-01 5.744602357192653622e-03 6.138080953205023171e-02 5.975063484747569764e-02 -1.337973928745028740e-01 4.622416254163140559e-02 -1.403728288370222343e-01 1.803251565746053497e-01 -2.270831061899415693e-01 1.833107775003094964e-01 -1.687780569070528591e-01 -1.520730309082984621e-01 -2.689862112355004969e-02 3.185163509626360301e-01 7.017798117080047138e-02 1.587702318990979744e-01 6.690622186618562506e-02 -1.324495731801998699e-01 1.510432815647054228e-01 -1.552580898329006254e-02 2.042062389287357116e-01 6.079235674021534613e-02
-2.069240843015319326e-02 -1.702960121675733685e-01 -1.989047633383976901e-02 -2.194228875425802971e-01 -3.316953269978181046e-02 1.832338328817955664e-01 2.009285616802803376e-01 2.519245660869605663e-01 -2.589667335839356821e-01 -1.823773894537550067e-01 -1.491137372161389363e-01 1.142055593282312320e-01 -4.062593647817026171e-02 2.386170055172799967e-02 -2.158978252392841982e-02 1.634570181422236312e-01 -2.463601465160423776e-01 1.207923350258539724e-01 9.524929588427526184e-02 1.467871766411965768e-02 -1.308005157758971304e-01 -1.117910025132411340e-02 2.100380241337197751e-01 5.557496328999830815e-02 -1.406845802613812535e-01
2.131260644931189802e-02 -1.334195379005212179e-01 -3.915324635168660611e-02 9.263673042011334735e-02 1.570489613987937350e-01 -4.062922777911948669e-01 -2.892481442212660459e-01 -1.504800075967011597e-01 -3.536569915196073888e-01 -2.420620176384474104e-02 -9.233674268832684287e-03 -1.421690526469880644e-01 -2.444752865139666886e-01 2.669661601816508134e-01 9.483544322570405805e-02 -1.826742866589435299e-01 -2.095103441602963190e-01 1.608314897964109036e-01 -8.378358084155099195e-02 -1.038999630850198919e-01 1.516575020435069754e-01 3.533617342662913330e-02 -2.898563286698134685e-03 -1.472814900886273426e-01 -1.368659887157097355e-01
3.691561202583616003e-02 3.773016790373896756e-02 -1.180240322148125576e-01 -4.126419916969446128e-02 -5.628658891551736876e-02 2.151629552410719570e-01 7.013928961052159905e-02 4.228402608578277211e-02 5.155410111606229667e-02 1.934146703659980482e-01 -6.202047432152594381e-02 2.566539368083879322e-02 -2.608129311239874015e-01 -2.404566615393050333e-01 3.629565041016693389e-02 -3.489009987018480002e-02 -9.533496106900403444e-02 -3.314854030051849199e-01 4.013419763069742130e-02 -2.492359196734116600e-01 3.693615987303868753e-01 6.145677738454280448e-02 7.116219566823929477e-02 3.902822123958799017e-02 2.305849360233779566e-01
6.865360410616741516e-02 -1.814727670468323784e-01 -5.465066105174988531e-02 1.245687545267257501e-01 -4.327184140904345722e-02 2.481329350720943017e-01 -1.622092807317324428e-02 2.519749231712065662e-01 2.071985080829324283e-02 6.391749266002876018e-02 3.194934262667609159e-02 -2.778702619009560948e-01 7.122617579495649220e-02 -1.813192272917330816e-01 1.470981806449695728e-01 2.354698871818786399e-01 -2.758492695314894716e-01 6.967991104917542478e-02 -7.103242136570520060e-02 2.520672506806340696e-01 2.072634090818497796e-02 -1.332355002362369256e-01 -1.614969945644037508e-01 1.249108083204214098e-01 4.810274764161697608e-02
-2.298224232339981035e-02 9.259464144201312585e-02 1.292336382841610121e-01 6.694257190476662900e-02 1.459446970967980817e-01 2.043773174846036100e-01 1.697198487050665394e-01 1.564227130233376284e-01 -2.864044876055060578e-03 -8.056843357796669713e-02 -2.803336926417506966e-02 2.748117625839617897e-02 1.619928691072780036e-01 6.488026905228347352e-02 -1.283637693091451426e-01 1.313539197596442498e-01 -1.685502225082065667e-02 1.600897949571875867e-01 -1.534877250759432987e-01 1.661796991871242147e-03 1.479251151252045093e-01 -6.902642647446081969e-02 3.156253919622038773e-02 -8.078033715904825440e-02 1.160292106237529458e-02
3.891369730572498409e-02 -4.445099800292968972e-02 -1.675205648498641064e-01 3.232948039777347460e-02 5.410128511598130685e-02 1.003623187212455414e-01 1.618085601183792965e-01 1.695777908215816976e-01 -2.450562755653114821e-01 4.635222201929709712e-02 -2.690525755063202448e-02 1.099577163207327152e-01 -4.047598457248081233e-02 2.444564930382492601e-03 -2.230455398530157285e-01 -2.098161637359166609e-01 1.816045581310770374e-01 2.182625636634222266e-01 -1.386597674507091156e-02 2.182994451185391593e-01 -1.896838503021478495e-01 -2.702461191883322456e-01 -7.202791044272224830e-02 1.703763661706850230e-02 1.561520723405380173e-01
-1.720073152644279943e-02 5.041550333751840945e-02 -6.502042934894498860e-02 -6.707052806314678373e-02 9.711085364325310054e-02 -1.926991252781496411e-01 -1.269572116346351365e-02 2.316258225564314308e-02 -8.759258489141184822e-02 4.700348812621214789e-02 1.695095880130684518e-01 -3.714860753923252545e-01 -1.897059688560817081e-01 -9.695340591194168134e-02 8.327197175743236701e-02 -2.468408565827683587e-01 -1.948738878955560139e-01 2.750799035067718612e-01 -3.119777694965693640e-02 1.444347522657755123e-01 1.534770951549263573e-01 2.513715383561170857e-01 1.623680584308000996e-01 -4.754714743458357540e-02 1.281003848442051340e-01
-6.958308923491582365e-02 6.765820753726695114e-02 3.679276267342854005e-03 1.217397753310470454e-01 -4.566936606129086765e-03 -1.396110812788197153e-01 1.717042311432875057e-01 1.736352255696319014e-01 -2.421070115504987685e-01 -7.545883766852519436e-02 1.549670522342361800e-01 1.199075824610167790e-01 5.517370326755894477e-02 1.937400614126477405e-01 -5.857088998158556381e-02 -7.663193374350024678e-02 5.092931438660231597e-03 1.304447053943548762e-01 -9.680660355443923559e-02 -1.347724980197918254e-01 1.460318482938478268e-01 1.058455709890224333e-01 -8.094961002388981197e-02 8.282276958243653397e-02 -6.916923769310288905e-02
-2.057738864637004630e-02 7.289335907471659881e-02 -1.994882903298763610e-01 -7.142982633335269449e-02 -1.513973393279964032e-02 -1.010794446270561614e-01 -2.085994372996381463e-01 2.993413529475690282e-01 -2.521818287741958708e-01 -7.342013776753016085e-02 2.143957843895851756e-01 1.021941953226887106e-01 1.042370566097877427e-01 5.478703401854095878e-02 3.431553277108805727e-02 2.132020412483349170e-01 -7.688262729179776156e-02 1.742669730778556580e-01 2.042214167968426086e-01 4.367104378754385618e-02 -4.973403629539500242e-02 -1.962965026802781787e-01 4.136928754209486664e-02 4.674240417324579920e-03 -9.810673163024248578e-02
-4.290149463499721982e-02 -1.265531763569708867e-01 -2.421564164235082139e-01 1.662595310831936901e-01 1.458193794197741866e-01 -3.688397113254291565e-02 2.262822721448366492e-01 -2.667871332316453237e-01 -1.023888110320035905e-01 -2.955277756535253375e-01 -1.264874362193417479e-02 1.811710368923555303e-01 1.388643405898261785e-03 1.517710984910687795e-02 1.134320364192644703e-01 1.259378316374581142e-01 2.268699247381488621e-02 -9.055380436355917051e-02 6.738176137031243185e-02 -1.803102371690502026e-01 -3.974855577020204589e-02 1.617699888481285708e-01 -2.969645119457418533e-02 -1.573427849248062727e-01 -2.487599634740416676e-01
-4.833707446100826699e-02 2.167621414033775104e-02 1.222236666430632640e-01 -3.032362716645403689e-01 -1.797999402817991310e-01 8.607960102319989204e-02 1.721938736106536916e-01 -1.457781367606738043e-01 9.317945236313780744e-02 9.933085018026825697e-02 -2.644312885245188663e-02 8.455694466525692787e-02 -7.501492412300121704e-02 -1.717132062417575100e-01 8.999519125059904368e-02 4.496107138554220235e-03 1.506085218006552040e-01 1.724281407832828628e-01 -1.492060301443098869e-02 -5.860553657446685577e-02 -3.278431822956417475e-03 -1.590449088720870263e-01 -1.296230574681247749e-01 4.247651095119392428e-02 -6.729524306996569061e-02
-8.311834240540073859e-02 1.008331511659226465e-01 1.009571482245776863e-01 -2.758448949138431749e-01 6.441116602617656672e-02 3.106450958519514291e-02 1.952460835292041119e-01 -2.664447456117943203e-01 9.785820076506114573e-02 -3.102446792657297808e-02 1.230923954928228592e-01 1.580779263202728990e-01 1.082212743343514971e-01 -1.019592955732254724e-01 2.875065150816538129e-01 -2.194943709583349611e-01 -1.459031158458922450e-01 -1.018669646702766440e-01 1.226778794373187820e-01 -2.628589936171999986e-01 2.061988695552089412e-01 1.788169743429294800e-01 1.582441278338612423e-01 -8.505801393669623622e-02 -6.669139132387987001e-02
4.418816730170550822e-02 -6.456916554091962634e-02 9.738718279357461800e-04 1.580122841879660067e-01 -2.313753838284689224e-01 1.713233238586938101e-01 9.762401498847718406e-02 4.503001875621791272e-02 1.710584741038167766e-01 7.013260334883192337e-02 4.831628562900405766e-02 1.458641310556469672e-01 1.817138185204913714e-01 -1.959142881320554974e-01 1.066177809069314697e-01 -1.734800923268451367e-01 1.644869856824129339e-01 1.761072676028453132e-01 1.128521239686997718e-01 -1.862795480009080684e-01 -8.772460457036483639e-02 6.654986130111578517e-03 3.918701192298041508e-02 -8.480473581996347474e-03 -1.737975166291297058e-01
1.014670869313830243e-01 -9.009974365896396276e-02 1.185923827804847841e-01 -6.526952965325456546e-01 3.701147342472763113e-02 3.039186232808125387e-01 -1.044581031443151120e-01 -2.248231076265695960e-01 1.539594582766314335e-01 8.251387714826667608e-02 -5.168407409689142890e-02 -2.072900949587261343e-02 1.590241682778874635e-02 3.079875249287500685e-02 2.189321809341298886e-01 1.574879073400030638e-01 -1.558860000656375477e-01 1.957327915042491595e-01 -6.122602945903039134e-02 -9.094690230329581515e-02 1.140091348847515201e-01 1.663577605628948908e-01 -1.553046518168431089e-01 2.578925340643060254e-02 -2.519600955807940051e-02
-7.116282887759203812e-02 -1.150313070390953651e-01 3.156354987060625006e-01 2.906002106947151997e-01 -1.201440245504234589e-01 1.511055246665950376e-02 1.467033072100749624e-01 -2.542652378995380325e-01 -7.600393372930890068e-02 1.566894292705010572e-01 5.536399385987878646e-02 -1.046506393735280732e-01 -1.025239439653062162e-01 2.709491473975682296e-02 -1.715184440584369696e-01 4.464314142404319785e-01 -5.422704961116828204e-02 -1.838413695731400468e-02 -5.061126815938012113e-02 1.964878290626063118e-01 -3.462034176878956426e-01 -6.579051562135734832e-02 -6.373779256438308338e-02 -2.301281569367633895e-01 -2.230913248820838857e-01
-4.619785826214405089e-02 9.746070052706222453e-02 -1.347882081652669248e-02 -2.096045516442785195e-01 1.768793114396397803e-01 -1.716311755971832997e-01 3.353649615627604663e-01 -1.865014676640869562e-01 3.380296562424376372e-01 1.749896609998705665e-01 2.726831433155901818e-01 1.865756375667968758e-01 -2.671006602905729929e-02 -1.682499895113791222e-01 -1.004981705052271877e-02 7.317162300843768619e-02 1.396859760946890239e-01 -1.517967736658059619e-01 2.694148759235690666e-02 -9.419143275213162636e-03 -2.919508739183209953e-02 -1.008220959290422603e-01 2.008850555942886529e-01 -1.202794169649429173e-01 1.611557614966931673e-01
-6.995050075162309589e-02 3.575769901251044103e-02 -2.542794507354664141e-02 4.495674196173994608e-02 -7.727127676256821676e-02 8.050274237318692794e-02 -1.152737061342452018e-01 1.768514587764603851e-01 -2.939467958403261562e-03 2.475235190507610039e-01 -5.900964524686433399e-02 2.743444897587148934e-01 -2.067381834126382767e-01 1.690414982554641274e-02 -1.832133914881100833e-01 1.416603474537471950e-02 1.229778634526514508e-01 2.614442179114171982e-01 -8.354047599738542718e-02 2.276671005426675245e-03 1.754799073249662944e-01 1.031859295982732877e-01 -1.754269772949378428e-02 9.982182142974992123e-02 -6.220961030562686261e-02
1.084606601387636121e-01 -1.711740750178259579e-02 -1.466983874646729247e-01 1.787581927638745849e-01 -2.266009817291814721e-01 8.097924691803766450e-02 6.556548260189809518e-02 -1.391267693804295880e-01 -1.321703377261817386e-02 3.195631000859155274e-02 -2.107043464725549264e-01 -1.284847743402421361e-01 5.847160754532513410e-02 -1.042870163839822728e-01 1.846229682211394107e-01 -6.796784311942680179e-02 2.082647597086735858e-01 1.117342107935473741e-02 1.585575811077264974e-01 -2.180375049611171512e-01 -1.503866642489871397e-01 1.853179731315898054e-02 7.495059740641077384e-02 1.357764453260113524e-01 1.253713199413443169e-01
3.351531933815281999e-02 -5.637233933269348435e-02 -8.378363909173157376e-02 1.150704926146982332e-01 -3.426307821249461455e-02 -1.813661717548531449e-01 3.292132674776893086e-01 2.586031224592364244e-02 3.135101644655630820e-02 2.609466134494831894e-03 7.733582987020003185e-02 -1.158486182641114831e-01 -1.111636984326758865e-01 -1.196199860464813719e-01 5.572158114529696810e-02 -1.346802359231107915e-01 1.955775723598036236e-04 -9.268494815944582077e-02 -2.923814499924633561e-02 4.237149851177950122e-02 1.079098091576807944e-01 5.596889864068056025e-02 2.411851155787902712e-01 1.043191547138189873e-02 2.044388274968939878e-01
-5.043063727219624509e-02 7.146098712171858325e-02 -4.431155952250843966e-02 -4.846304314046973594e-01 2.775412738361115669e-02 -1.933413543267604451e-01 -3.358134498057113726e-01 -5.414022621485818920e-01 3.648426178322370372e-01 -2.784287117360845776e-01 -1.591015244468491074e-01 -3.846603219778418903e-02 4.114917071449867431e-02 1.734313722658194779e-01 3.299835621416076226e-01 1.757672518143371110e-01 1.271815544026395073e-01 -2.617088037856644123e-01 6.873078857274993181e-02 -2.158030210620787426e-01 7.938812611926847340e-02 1.121844849759704027e-01 -9.810283531269971269e-02 1.908249280570078477e-01 -8.618660756297266690e-02
-1.138148403532775604e-01 5.708458448006176189e-02 1.973622627179849320e-01 -1.710545260370638920e-01 -2.184121140725427471e-02 -5.487284855451936977e-02 -1.819456975941192434e-01 7.199572700826931126e-02 -2.700328867209362271e-01 7.238947301949773261e-02 8.594536704949282124e-02 1.515060463294118920e-01 1.020461199428254057e-01 1.057996775480008200e-01 3.873882707467514452e-02 4.349693034946602171e-02 -8.412956232670094903e-02 5.010150758261157355e-02 1.562403958739803089e-01 -1.854084338953356781e-01 -5.470424924629333809e-03 5.079598383771363052e-02 5.188796641303329571e-02 -7.205994082314291782e-02 -8.052460440959439969e-02
-2.675543498296723693e-02 -2.562763643388853933e-03 2.961648806392931307e-02 -3.044736546195749294e-01 8.880188969775860974e-02 2.833615524357250282e-01 6.251399061055303019e-02 -2.202117890246517995e-01 1.094290284365796312e-01 9.704472708163899841e-02 6.458922005383006815e-02 1.737665164437556808e-01 7.674960301335970181e-02 1.271578550496662574e-01 9.438225592125379718e-03 -2.737174913696679632e-02 -1.173525004177048969e-01 8.937967623311496301e-02 2.292186193712048570e-01 -1.378922684381285457e-01 -9.915950901544139107e-02 5.966099844271011490e-03 -1.513650263392116724e-01 2.547331383671653238e-01 -1.861527747046890641e-02
