-5.922457876962641254e-01 -1.994337274849571351e-01 1.994274993709559407e-01 -1.584147886437586861e-01 -9.362083723201501673e-02 -2.184760527787871776e-01 1.205634784916772145e-01 -1.350190785875898802e-01 -5.890392205827381655e-01 4.719391672421645034e-01 -2.646087863884320490e-01 -1.876340440725066117e-01 7.259329170360100114e-02 2.183223624437467814e-01 -1.415264263936372169e-01 4.079933427888646769e-01 -1.559140870205233953e-01 -3.014255736511069483e-01 -6.432247760979406537e-02 -2.469621874092680081e-01 -2.005229679246008090e-01 -6.446010891698772394e-01 -6.900248164879217994e-01 5.463029928755157999e-02 1.831167289595630743e-01 -5.655044274477327715e-01 -5.510690268278976012e-01 1.337786200967175376e-01 -3.303888527831237432e-01 1.113457803661380474e+00 -1.129165422842229594e-01 5.082554989613054242e-02 -6.666926972302663623e-01 -3.337845250205119518e-02 -1.104823917854068499e-01 1.878898061285699528e-01 1.237428597070628772e-01 -1.424399476870423231e-01 1.781410609767209996e-01 2.682416490748641968e-01 4.757715683473581758e-02 1.146822111599611199e-01 1.633289131448175668e-01 2.015709443051904581e-01 -5.188329708408001735e-03 3.738605654106109261e-02 2.368520678226208528e-02 -2.688733307231928882e-02 2.988147960916918700e-01 6.882323812680184449e-01 2.741323217272861879e-01 7.165378328447798151e-02 -6.116232973395105965e-01 -3.126223726087608012e-01 -1.348531136140183884e-01 5.548099992774186973e-01 9.274061820646305465e-01 -1.694577609055601397e-01 2.324005100682136060e-01 -4.353324426915922835e-02 -3.423437830406476923e-02 2.163233108018986633e-02 3.321040601906100065e-01 2.487073052804840145e-01 -3.473250404277172798e-02 -5.059794696702824696e-02 -6.348422891890277697e-02 -2.029149374016460672e-01 -2.171522172168909304e-01 4.551988582354477009e-01 -7.963868752601962475e-01 -4.093212498655403320e-02 1.000298225545836361e+00 -1.841033833640833006e-02 -6.582456900686698420e-01 6.860765875850840523e-01 -6.675524400510933765e-01 -2.269918921331130490e-01 -7.438793615857376418e-01 -3.463608199005238086e-01 4.171220671368500166e-01 -1.224406432943068307e-01 3.863377588204680024e-01 -2.039290085439910138e-01 -3.082324470905183356e-01 9.410977380057797270e-02 1.016089765439292802e-01 -1.782171147846768611e-01 -6.355614633915523948e-02 -1.255304111135076228e+00 -2.115906649644848092e-01 5.551865636249565805e-02 -1.110561194714367456e-01 -2.532838946937409075e-01 1.472791861127583368e-01 4.437026983090561205e-01 6.697719981861032235e-01 2.181751037989928914e-03 -3.969773847772246900e-02 4.603667198301692465e-01 5.094195116943361912e-01 3.506308158622557514e-01 2.084598491639999829e-01 2.740136150173898000e-01 -6.839534425306732779e-02 2.376724240273203059e-01 -3.840441393490227808e-03 1.849565019210354655e-01 -4.019233551159927531e-01 -3.900457500148160617e-01 1.911954599079957184e-01 4.976081333293810166e-02 9.958004428598936364e-02 5.524504995158132648e-01 -2.130008225588920778e-01 1.084925458719926822e-01 -1.297573399625034651e-01 -2.014962789913961050e-01 1.396138444794518818e-01 1.114453711769975708e-01 -1.126138345158483739e-01 3.678240526819007410e-03 -1.861942197694448908e-01 1.991270490447763150e-02 1.585344251235981661e-01 -5.995166955378436469e-02 7.266808177554934245e-01 -4.952740161680857511e-01
-6.039046843723174796e-01 -3.613890053550375403e-02 -1.022703007064991454e-01 3.757049687988650577e-01 -5.327992025697680933e-02 -5.240909601215606312e-02 6.520839507526218770e-02 2.430444008332374450e-01 -4.848908293323534457e-01 3.180769635397825978e-02 -5.257697641194414295e-01 9.481063444650231209e-03 -8.155620630947564564e-02 -1.822031668479250632e-01 -3.467454131391629613e-01 8.707424569481626853e-02 -1.717027070037820125e-02 -3.338971422302329239e-01 5.484550819639265329e-02 1.272286480273008419e-02 -1.352822513357160306e-01 -2.380035982495521951e-01 2.706667143958795246e-03 3.252788355118598623e-02 -8.967129124735542800e-02 1.322620032966629056e-01 2.501217420558077276e-02 -6.490863515595843292e-02 -1.944332655490711992e-01 -4.435704587080774308e-02 2.206710113701141063e-01 1.357154570582881636e-01 -2.065086789955986324e-01 -4.875300831713175881e-02 -6.701916258269062510e-02 -8.210883357528607485e-02 -3.236312832582522447e-01 -4.202894031358635901e-02 2.454358158428756806e-02 -2.013971445494600609e-01 -8.082954337930654820e-02 -7.545656977486088490e-02 -1.951707580538595554e-01 4.423953981660461166e-02 1.577128014834083269e-01 -4.094519639696941188e-02 -1.091978392172546358e-01 2.736899438017204034e-02 -1.520976442484545388e-01 1.509533248264901401e-02 -1.114275272625750574e-01 -9.369446689054883315e-02 -3.910750993223271327e-02 1.913619883260084809e-01 8.106941864342069592e-02 -1.978941223326117355e-02 -7.093377061941703865e-02 5.145802739189027086e-01 -4.785377987355363683e-01 -1.145913695177254582e-01 -6.649440010026415326e-02 -5.753872479252191904e-03 -1.705094075855793367e-01 -2.585759006143301120e-01 -1.297715474390931933e-01 -1.126723781446151706e-01 2.544486495504830192e-01 4.704044304551767593e-03 -1.230952427485187128e-01 1.655836331280961249e-01 -2.739079299651822064e-01 1.518930438681739825e-01 1.397997560920272997e-01 -1.017197795298061674e-01 -2.260439897355524530e-01 -1.696236901839131561e-01 -2.636919970872063645e-01 -4.572529080241593408e-02 -3.052721387370279649e-01 -1.398463754163146999e-01 -9.398661376694410208e-02 1.017238345587027637e-01 -1.559894913593470323e-01 -3.734637850576732476e-01 4.053243276661434025e-01 4.652107273879575733e-02 -1.139332645360904700e-01 -5.851802620332194893e-01 -1.783942955324610002e-01 -2.233180004227310889e-01 -1.622245731684389750e-02 -3.453463301044557565e-01 -9.434884152530088886e-02 3.678393248958602979e-01 8.040042495522846389e-02 -2.522123141174982264e-01 3.148042137274795760e-01 -7.678313345459818716e-03 -7.516113767333974793e-02 1.298276401645291796e-02 2.063993347262436662e-01 -1.293246715752587039e-01 -3.391259888401521386e-03 2.657195590502814397e-01 2.991778913781797944e-01 -1.112506435131269678e-01 3.549454779543060462e-02 2.429963364571148809e-01 7.501340192735168888e-02 8.364719656149373350e-02 -4.116352291408149899e-02 -8.112794314341048585e-02 9.139059795949280862e-02 2.198398993266049636e-02 -2.971178931047382954e-01 -7.371839299277768709e-02 2.019789349343190377e-01 -1.332954687362834789e-01 7.030074904844822725e-02 -4.409061405280402697e-03 -2.169833186008670867e-01 -8.062819601907481037e-02 2.721660416197902582e-02 -1.506497412399114555e-01 4.854884796652406131e-02 1.681836084713107249e-01 1.110513748998324807e-01 2.731683972231268576e-01
-2.260981118797766032e-01 8.280613909733826328e-02 -1.012677883605620222e-01 1.915906624364822203e-02 -7.190212833824227712e-02 1.059489755946846183e-02 4.882261163781732860e-02 2.225979671739214752e-02 -3.516507457915142298e-01 -1.189944955211568985e-03 -1.428570859713522434e-01 -7.600614589788165509e-02 2.798734940497357021e-02 -4.445023901227932589e-02 -1.923062003096128181e-01 8.469476477229483102e-02 4.158547874588602866e-02 3.117465060102803803e-02 -6.353307209370370745e-03 -4.628036222066846811e-02 1.419736263436092716e-01 -7.422373117467305492e-02 -1.537033899980219109e-01 6.466012180084669547e-02 -6.663978251732105736e-03 -1.905970160863073026e-01 -9.650087006885542384e-02 -4.428089000967257854e-02 -9.099740014351095918e-02 2.244040894985751544e-01 1.680066848913524744e-02 -3.617744592112679958e-01 -6.057315150824888611e-02 2.765504875097396162e-02 5.832828644098569937e-02 5.362184078165282974e-02 4.220509858693828609e-02 1.281109888787243800e-01 7.046042554100272193e-02 -1.580949127548174904e-01 -2.402337775495318531e-02 -1.220388827444057050e-02 6.512783033649088837e-02 -6.951800124148864446e-02 1.534095402344892445e-01 7.136310141197284296e-02 -1.046419427525413087e-01 -7.881997662587449105e-02 5.085433166197106739e-03 1.681750058472693543e-01 4.122870113118320967e-02 1.197443565508837654e-01 -1.814846556027384372e-01 8.871333822280902393e-02 -1.140945315152995521e-01 1.515884111739250473e-01 1.732351166989295754e-01 1.962629015064167592e-01 -3.844746590140028786e-02 1.144480669085904713e-02 1.365316154910392044e-01 2.604258900605366939e-02 1.616432687803992241e-01 1.532453916893781742e-01 -1.594122629621952669e-01 1.795083593218304296e-01 1.754807317921036058e-01 -3.115093749865737241e-02 4.539927821146791387e-02 -1.577303586450521100e-01 -1.933711353265931132e-01 -7.152352470711317856e-02 3.135913650873597969e-01 -3.384669025199429915e-02 -1.264886464658098453e-01 7.752171452808158392e-02 -1.726788547014485586e-01 6.304439153139741736e-02 -3.147618786073534958e-01 -1.352539126002390846e-01 1.777111972417066976e-01 5.575624553490617780e-02 -5.383123131372259673e-02 4.735115196829314810e-02 1.282783060905787198e-01 4.194182969702485442e-02 -3.552524343309080429e-02 3.656587054288896327e-02 -8.160126979837552252e-02 -3.301566200599481138e-01 -1.751513992427929656e-01 1.347259282055571772e-01 -1.202021986293960037e-01 8.352903678075726535e-02 -8.519421839306093314e-02 -8.048907760387086219e-02 2.602292661960105558e-01 8.197028668530360884e-02 -5.775764329631155602e-02 4.651295848879682948e-02 6.129054737783502099e-02 3.487245891357661220e-02 -5.251279143237967684e-02 2.657659408887876884e-01 -2.764879916814180771e-01 2.226220721110236389e-01 6.993702395934245364e-02 1.338166430420376085e-02 7.284121603311621840e-02 -4.452751785601571227e-02 7.997651430239617609e-02 1.071744956912940444e-01 -2.835142684922979661e-02 1.637946775506417540e-01 1.056459021467953500e-02 2.083217728649286449e-02 -7.347511791225570799e-02 9.444717811365879734e-02 -7.628723028724879174e-02 -8.352228780517644002e-02 -3.265754783161468888e-02 5.278547659275890924e-02 -3.307641626379222849e-02 -1.258292445857211173e-01 5.494091211888296397e-03 -3.335259338098034432e-02 1.679675946093146244e-01 1.038744372655328319e-01
-4.731527509656383024e-02 -2.122207365846464633e-01 -4.891032733346361433e-02 8.002145387148290601e-02 -1.563093122862119211e-01 1.923943435128698254e-01 -2.171217243067803324e-02 6.890679246264171109e-02 -3.240489372260239032e-01 -3.278243384906997376e-02 -1.883034430289161343e-01 -6.976095972356098629e-02 4.843134887809996680e-02 7.224472602652577680e-02 -4.020839566207620730e-02 -6.495954860642725454e-03 -4.251777546524964507e-02 -5.540997327680056289e-02 -6.702126022269057348e-02 1.445642119045982277e-01 1.806852735478523542e-01 2.071162198091105466e-01 1.002226200777174420e-01 -5.437145177405453000e-02 3.391802043059446992e-02 7.109678836623156695e-02 6.466202470670594227e-02 8.950325548870430303e-02 -9.209922506272667786e-02 -4.874204405931231721e-02 4.179465885230036759e-02 3.064736393007819887e-02 -7.345313089451892263e-02 -1.738205244154426843e-01 8.820587193245982283e-02 -6.246988672931678283e-02 2.307781041782091397e-02 -5.155163207322404489e-02 2.433147797612203456e-02 -1.633858583043394652e-01 -6.380099196517337312e-02 5.625824804468260165e-02 -3.779093973324332278e-02 1.573352843266019596e-02 -4.468000435930659375e-02 2.634526591040918173e-02 -5.508507576796092819e-02 -4.404184895501818756e-03 -1.059892958343626318e-01 8.386231945532751642e-02 -2.384368924682394100e-02 -9.576385673840734358e-02 -1.021520459610040787e-01 2.163965802218671686e-01 -1.706220024356240039e-01 6.557963978888556311e-02 -4.056851109705451180e-02 2.440156585241881615e-01 -8.119369390566835145e-04 1.340995346682148370e-01 7.742619129870428885e-02 1.202060104495237258e-01 -2.800660614729120687e-02 3.311689635691400513e-02 -5.296570749356384333e-02 3.332000746881479819e-02 -7.321168483944208438e-02 7.647182505032384947e-02 1.673582172515998834e-01 -6.361821319939107988e-02 -3.046328000580891815e-02 -2.969304098614683821e-02 7.709945021479873428e-02 -4.695987836097312990e-02 5.685039102837145114e-02 -1.209012682807993622e-01 -5.112401556053958185e-02 1.391427812886567583e-01 -1.749789785662362596e-01 -1.386639638392334617e-01 8.390153218403986757e-02 3.918221776934208145e-02 -2.902175991391973270e-02 -6.692919619019238597e-02 2.376560002037672592e-01 2.412836350848294314e-02 9.345852163866250062e-02 -1.666104246767418084e-01 2.295520318801186066e-01 -5.298376140020813474e-02 -1.573152438742715931e-01 9.340448904549576714e-02 -3.003725607658719321e-02 2.249066833553316769e-01 -1.780347826786465304e-01 -1.397545149149860000e-01 1.414237239637876342e-01 -7.378162597809457927e-03 -1.916728186476673867e-01 -2.635404057674372441e-02 -3.540043160781155412e-02 -2.735379089495708696e-02 2.129130618755279217e-02 1.875485882341911548e-01 6.119480685630330347e-04 -6.574856426642634866e-02 -1.834582076784673985e-02 -9.512742961656639462e-02 2.052107273498950391e-01 -1.555014100538714972e-01 3.219378729226357594e-02 2.982808930260306621e-02 -5.019483699899000145e-02 -8.377771052176563593e-02 3.037778468171464102e-02 -1.670273782715462896e-01 -6.594638349207436467e-02 -1.578333123980175112e-01 -7.312902450269040400e-03 7.822105459594383414e-02 5.326742951090193690e-02 -9.696976093272271363e-03 -2.627000431678711695e-02 7.756181198017575440e-03 -3.172186087619366379e-02 -2.405871604223330240e-01 1.533437257811376062e-02 2.946470279870572195e-01
1.077210186898388683e-01 -6.081086694619286526e-02 2.994298819696314395e-02 2.194910634298116170e-01 -6.356973399274139236e-02 5.243408485215821785e-02 2.372448072518134818e-02 -5.515229922461231116e-01 -5.218669157519401774e-02 -2.338256434273782575e-02 -2.710307525932360850e-02 9.028612134466702799e-02 -1.119806034758145663e-01 1.503433924213105621e-01 9.674537524764394159e-02 2.624864623606348868e-01 -1.309692759428091047e-01 6.368621549028348483e-02 -1.293037384910905585e-01 -1.449803887119599233e-01 -1.040424917248425479e-01 2.266363768119069588e-01 4.083263103292406743e-02 1.023927954268486623e-01 -2.015584546779921812e-02 1.968106308722090692e-01 -1.402032957761768089e-02 1.689039697331346998e-02 -2.188955232235434700e-01 4.843961500024696054e-02 7.044815482138865048e-02 6.617488752632955107e-02 -1.512546232715731021e-01 -1.803256241149848449e-01 3.798289392008745435e-02 1.908858721816559800e-01 3.675485600197168079e-01 2.065348059824895499e-01 -1.232144761475592459e-01 2.351329200830289679e-01 -5.039516425756090240e-02 -4.674850280338163633e-02 -2.421490845684976141e-03 -1.453887131701664948e-01 1.022501065661830522e-01 1.294345929103259130e-01 7.049176492595897459e-02 6.353564625163128643e-02 1.131455274744526916e-02 -1.114072108017476366e-02 -1.720037372045660762e-01 6.652523838755459995e-02 -7.271845414641847638e-02 1.561547630756389693e-01 1.297780869645511759e-01 1.591857570632808083e-01 7.275116220228194930e-02 -4.629228950528929687e-02 8.553842772083658508e-02 -3.511101252780091109e-02 -9.652091885597417764e-02 9.822949691549670570e-02 -4.363991303034157193e-02 -1.157051647403207484e-01 -2.948786188563408753e-02 -2.670647884928327789e-02 -8.729650713758167757e-02 -3.735672810380913367e-02 -1.187829440241248979e-01 -2.335100310743143115e-01 1.908337713063783941e-02 -7.557934845048294714e-02 4.106740912509386499e-02 -5.508870071915941214e-04 8.097969799627114940e-01 2.571039920998797676e-02 -1.282849031278154297e-03 9.647328555641591918e-02 -1.048992374188209842e-01 -2.461384585658933088e-01 8.679868210773473980e-02 3.519354184785201262e-02 -2.141165806214310185e-01 -3.222994662185855175e-01 3.796677772681709279e-02 -5.060720616843755737e-02 1.406494253387215732e-01 -8.247833482671035332e-02 -1.913938069548195009e-01 -9.879651458120089491e-02 -1.525233045694678047e-01 9.996456655122137880e-02 1.584432000849461397e-01 -3.152704061528787544e-02 1.425290175896674061e-01 7.149178636095017414e-02 -5.396466472144861339e-03 -7.580004544858912063e-02 1.379575528986954902e-01 1.588463537416115734e-01 -3.685899916039870328e-01 4.861205435563670588e-03 -5.774446894914146006e-02 -8.191586330774908165e-02 -1.081312643312305616e-01 5.785015270910267432e-02 -1.096047590119230142e-01 2.399041072680400122e-01 -4.240619351552551430e-01 -1.233731596894351301e-01 -7.621016559688786884e-02 4.026050394891823175e-02 2.520668653071841177e-03 2.096408953476899817e-01 -4.009556500472937213e-01 2.620644663754346793e-01 3.600110291089263920e-03 9.495915122388730312e-02 1.051361007821442484e-01 -2.624702210088868393e-01 1.242973246789473712e-01 -5.504842964603819111e-02 1.879214004130601301e-01 -9.399393588076310202e-02 -1.276128053750689439e-01 9.715967169079184340e-02 8.914857440472681582e-02 3.244389576092757826e-02
3.403659349718964749e-02 -1.991120431947127623e-01 -1.255167826347169946e-01 -3.205351947989794337e-02 1.541372350009929601e-02 9.829266387551414963e-02 -3.590623386679855228e-02 3.100784526621664164e-02 1.985776192299636839e-02 -3.898793745691839230e-02 3.426275496840235080e-02 5.144814019593569460e-02 -5.673537098478247109e-02 -3.719089931593712317e-02 -1.594807643360513991e-02 -1.634977054688257353e-02 3.895604282377410077e-02 -1.616241679512791518e-01 -5.425960724246907396e-02 -2.440194056454167704e-01 9.071997580142017459e-02 -1.227467633232297989e-01 8.602662713182709572e-03 2.411129749242095846e-02 -7.603807214258011260e-02 2.564498278881398568e-03 1.566033600200490011e-02 3.686322107601187892e-02 3.752338368623670678e-02 -1.666340896657272572e-02 6.677714113463938117e-02 1.291828775455229270e-02 8.921209982926076032e-02 3.415006947120197145e-02 -4.205242368988987289e-02 -2.577950261135082341e-02 -3.016612552661523949e-02 1.120340999080340905e-01 -6.671019398872242781e-04 -3.375756835133100764e-02 -8.442098902970694707e-02 1.568028029627975273e-01 -4.398007803664606002e-02 7.462796547626257115e-04 3.881476883557734986e-02 -1.352465334812199549e-01 1.651063225696403347e-01 2.137808480550221907e-02 1.893098447378238278e-02 5.484022585045849295e-03 -4.065041658706715355e-02 -8.556833812182261523e-02 3.960252976524071544e-02 -3.890136536646035537e-02 1.363767324106062578e-02 5.193312831531310403e-02 3.418139059925003921e-03 -6.359099355990167901e-02 -8.289096442577127688e-02 -3.708088300555952704e-02 2.348225757260756497e-02 4.392881179791507246e-02 -3.763708626121541334e-01 -1.060508441675473146e-01 1.656281936742359448e-02 -5.270761593358893465e-02 -1.887938334706640992e-02 -8.414677855138073814e-02 8.549717301347561915e-02 -7.140233070847690211e-02 -7.697423110822079056e-03 2.165894425886186192e-02 2.159087523308735393e-02 -8.744338538243948133e-02 -5.916817974628664489e-02 -1.125497348984023926e-02 1.044210097009338860e-02 1.699730486799198165e-02 8.064661826910396458e-02 -1.933060229610381042e-01 -5.203038743074907269e-02 7.393068915706298150e-02 7.962722505657754803e-04 2.396895387848503589e-01 -1.225945986372135865e-02 2.885420965016485817e-02 -7.361298710585094385e-02 -5.329748348801208180e-02 -3.591316592442117539e-02 3.194630669248012950e-02 9.059770708595850375e-02 -1.918836494669399692e-02 -6.080125266224802733e-02 -4.286524405056420239e-02 8.166765332696435120e-02 5.517616039986509430e-02 -1.026932267859553653e-02 4.565803680947538162e-02 1.854855873555668333e-01 -1.608473091550278733e-01 9.264519666904463824e-02 -3.323189726925143694e-02 4.149456348466525057e-02 -2.524073739475631278e-03 6.870198302682574421e-02 8.732370683627446034e-03 3.534597200220724461e-02 -1.086279518368966912e-01 4.874918394554301343e-02 -1.091617945688528046e-01 8.296572050905678952e-02 5.551253859690738479e-02 1.129880256837132307e-01 4.808186890216264303e-02 1.322801589153400209e-02 7.205745815729742987e-02 -4.351291789880337713e-02 -8.577848507554960630e-03 4.349954207221652658e-02 6.378898986670411206e-03 -4.482579821904567052e-02 2.460550582191013691e-02 5.709095011423551830e-02 1.206032345795111926e-01 -7.985765803716297906e-02 2.118087707820348262e-02 -5.624550944557949080e-03 -1.435682490854607862e-01
-1.061170963787246707e-01 -1.349999467730261249e-01 -3.341409606990480147e-02 1.481576628748060565e-01 -4.650469315561608225e-02 -2.151201989772603962e-01 3.182942511320291934e-01 -5.950589806057932085e-02 7.517066047867815293e-02 -3.244029238737347609e-02 -3.382405699513217623e-02 3.110023291795251804e-02 -1.068286395289026660e-03 -1.019873966195714021e-01 -2.864247702433843079e-01 4.372833497936026020e-02 4.282757234752943704e-02 2.414901114953292224e-02 1.497481926113665152e-01 9.628631763540575206e-02 1.427932358824775816e-01 -6.462001523984882423e-02 2.589335902897482028e-02 6.331335044593761063e-02 9.567625716649214018e-02 7.169800255091630936e-02 3.440422913896271084e-02 -1.181816146626810532e-01 1.051675341321527540e-01 -1.540467351519352879e-01 -9.133860937468453456e-02 -8.578983037695998848e-02 7.892120771794687573e-02 1.956222239522688311e-02 5.376661433464754308e-02 -1.021078545786843206e-01 -4.584532796637316721e-02 -6.251740315106113499e-02 3.337334129042845987e-02 4.003837339116871064e-02 6.707610291419788262e-02 -1.078315669501349501e-02 -3.893851598397474884e-02 2.810714284595384679e-02 5.663756895919767193e-02 1.731672633752530666e-01 9.615560979619086623e-02 6.603781725541682697e-03 -1.088369115931140871e-02 -9.953305085960809095e-02 1.622524617038739389e-02 -4.440984444944057891e-02 1.834511091355061352e-01 -3.621029083138079668e-02 1.830224987088808486e-01 -1.032084753878191596e-01 -9.127739012416000164e-02 1.171911751687280956e-02 -3.467810092959462964e-01 9.334934466586704283e-02 -4.939563889695856164e-02 -4.209437400467219009e-02 -1.521523998660359762e-02 3.259729463963496193e-02 6.841374416296464034e-02 -5.038926544043739741e-02 4.220326628991299261e-02 -3.454369281738208647e-02 -9.930704809888714346e-02 -1.385028458248201422e-01 3.278113075507303742e-02 2.746259517568023362e-02 -7.761943456509719230e-02 -1.536725965559705698e-01 1.128123603436034239e-01 -7.221232171797974109e-02 5.334327772199621426e-02 5.433136734780948107e-02 7.906498120802035734e-02 -1.232703183351721854e-01 -1.527326610053860723e-01 -4.665826057766198770e-02 -2.232731473213356022e-01 -1.144490933659634418e-01 1.336567133345067659e-01 8.524690190670311529e-02 -6.428484087931243818e-02 8.814081531355398569e-03 -1.908045780158419136e-01 1.058592903007522928e-01 1.245270584301411826e-01 -2.628967322076573576e-01 1.391838400535326710e-02 1.792945670880009834e-01 -1.807659264158159931e-02 -1.360771407121320331e-01 -3.263714855418346078e-02 -1.129681569350719957e-02 -1.077976909450347187e-01 -7.770363897921948870e-02 -1.220809719446370178e-01 -9.342557639745906195e-02 -8.488853614155682237e-02 -2.015059553130843159e-02 1.162926815811531761e-01 -8.401464069112389577e-02 3.834838979230613398e-02 1.204253062914012185e-01 3.389763254297496753e-02 8.105607200225208031e-02 -4.299882697471322374e-02 1.136934719693424439e-01 -5.872134661776218928e-02 2.069215243679865118e-02 -1.417061276676815640e-01 -7.908159329321207132e-02 6.730914024685866193e-02 7.777231608718192246e-02 9.513939085510200386e-03 -1.858938610988746225e-03 8.740440898900589742e-03 6.205717102168629984e-02 -2.333276891822194318e-02 1.177919075627815787e-03 3.406040346712205236e-02 1.431719593635470411e-01 -6.274548359515891294e-02 -1.553707111848757760e-01
-8.602432397442171322e-03 -1.988214485341633850e-02 4.369345281067651271e-02 -8.628952480141695996e-03 -2.029585708402097469e-02 -1.219326193825471111e-01 -3.263696417614609518e-02 -8.088301588503378839e-03 1.362157425493160361e-03 -3.545233534721625029e-02 -1.036621830403097744e-02 1.782564356683024806e-02 3.884425840693780246e-02 9.198833201693534800e-02 -2.221217333259670190e-02 -2.506063178447268808e-02 -5.305007622973977738e-02 -1.123722074745126115e-01 -1.615200986166167585e-01 -1.662108176951269944e-01 2.055218384971337353e-01 -1.500281039613042241e-03 -4.074251062961061908e-04 5.984631423149552182e-02 1.394031902223694663e-01 1.448589456497576249e-04 1.287061773134401399e-02 -2.207359299871736180e-02 7.912872983928552484e-02 -1.772482464888544204e-02 -5.924010436689258058e-03 2.872032119160797259e-02 -5.116605778355540896e-02 -2.868413635575429721e-01 1.065493994779241616e-01 1.156231498974760880e-01 -4.161442422159390350e-03 6.647636453729699468e-02 -1.318575217019164574e-02 -2.095610781701765738e-03 4.507894801779709082e-02 -1.320999857590802497e-02 1.036344603789661617e-01 -1.364388234499948338e-01 -2.290983541112375649e-02 -8.137234965847506274e-02 2.091926037687255949e-02 -4.814412851035118623e-02 -3.177522754656185531e-03 -3.303844084270619787e-03 2.483432226743178747e-02 -8.439500155677409632e-02 4.868021753807854485e-02 -2.979793965245608120e-02 5.631956966231307926e-02 -2.060330854593855898e-02 -3.859634070593970581e-04 1.480773496279707072e-02 -4.802012664327510311e-02 2.156591655578945707e-02 3.256645617244258162e-02 -1.470841629981247539e-02 -1.308740987693395551e-02 -1.909991254163602159e-01 7.093566335841883230e-02 7.689342353465553753e-03 8.709611770715006140e-02 -5.345041661177299397e-02 5.198252117924028609e-02 -7.980931090627006730e-02 5.418750358993297718e-03 1.529110524835940090e-03 -1.974748551242514957e-02 9.540620898218088453e-02 -1.942922825150413327e-02 -5.610692495127647672e-03 9.531344736034773682e-03 2.372877601707335318e-02 1.806232758465380756e-02 2.533708160249357327e-02 -5.759407815270887326e-02 -1.626084933585433268e-01 1.117888082008272749e-01 -3.023546392161912538e-02 3.572834363551693516e-03 -3.690562022667930736e-02 -3.023074204208230434e-02 -2.118276916597388367e-03 -9.230499266459016175e-04 2.103622079726916519e-02 6.754618006363869928e-03 -5.163098483700348518e-02 4.120991227189837319e-02 4.531416214623607691e-02 -2.114255132840265131e-02 9.143604203489617138e-03 2.089510856888534066e-02 -4.201730617694069553e-02 -1.105859356566589041e-01 1.298331875341177666e-01 6.220004319128370762e-02 -6.223182957346303640e-03 -1.139887908357176821e-01 1.077705860946013249e-02 -8.560092280763549610e-02 -2.585944496067775836e-02 5.852334631622051371e-03 1.224070306438792971e-01 1.479110496755864645e-01 1.222670995367559355e-01 1.741838807509717493e-02 4.322525386011560888e-02 4.279128478439923888e-02 -1.293337144626157675e-01 5.008498666746211830e-02 -1.258561327544062136e-01 -2.156242106330719891e-03 -2.090800844359328239e-02 4.667297749239097959e-02 -4.228730585968261098e-04 -3.052401132140179427e-02 6.666458390710404414e-02 5.425743327545540402e-03 2.959407511905122121e-02 6.782974150978700323e-02 -7.955675957799243636e-02 -1.882786451810010767e-02 -1.530752742468141081e-01
1.606631340287476223e-03 1.305621829068164506e-02 1.622376688057554014e-02 -8.263345224624119023e-02 1.013141678338152912e-01 -4.866152397087133985e-02 -7.129056158486674066e-02 2.836327921108780167e-02 7.889693465826903840e-02 -1.494893452553377675e-02 3.480862402779929393e-02 9.348023971193726578e-02 8.415654516463191848e-02 4.384340444835848477e-02 -3.243476637742441493e-02 1.692113850785367107e-02 5.356696429995907310e-02 -9.346788228417284017e-02 1.240417452767418882e-01 -8.334924906265370539e-03 -1.497695998383826235e-02 -1.297647035258824855e-01 -6.820183459813550231e-02 -5.589900945829602563e-02 1.801470152895519924e-03 -4.462603942977742127e-02 -2.395610095128590869e-02 -2.718166724630096884e-02 -3.494618398152350702e-02 -4.031735297525644579e-03 -2.733781239947916455e-02 -5.334314988887436937e-02 1.416585229587042456e-03 -1.693834381848511109e-02 -4.571888045444596343e-02 1.280157972048244497e-03 -2.743085431027321788e-02 2.815050134760220882e-02 -2.245822638715906303e-03 7.097954013193158440e-02 1.515024205835531317e-02 7.773509928627034271e-02 8.847488028764956269e-02 6.078685912714684031e-02 7.657908783430314448e-02 -3.845803014100039607e-02 8.812223770232248399e-02 -8.512622715122439288e-02 3.113366351859291406e-02 -4.677890882005976414e-02 -5.642880728661576334e-02 -6.298226684425541934e-03 -1.696289670522106502e-03 -8.856213326984178902e-02 -1.300841504392045989e-01 -3.940240666528433550e-02 5.330069908687339562e-03 2.611632735227742419e-02 -4.786936667619753893e-02 -6.366769434324762167e-02 9.635731830408790499e-02 3.561066203771621336e-02 -2.479587829990821668e-02 -7.830004427364570252e-02 -3.706502638723207371e-02 5.263092060528044847e-02 -1.952830488060906811e-02 5.133358687545259980e-02 -2.256504918025677847e-02 -1.546881453989826238e-01 5.268519476745513012e-03 1.578033573545416929e-02 -1.345940972751954665e-02 1.568530866399723070e-02 -3.059403711468826337e-02 1.340293092755148914e-02 9.516380812678732967e-03 -1.526700144650630295e-02 2.511447118946344426e-02 5.716695431063574528e-03 -6.563827487283395434e-02 -7.167781757065302961e-02 7.132937064024535458e-03 -6.331179166539339931e-02 -4.601404826341878168e-02 1.636707184527582543e-02 1.072914694108027117e-02 -5.212046269686181066e-03 -5.126188747950339436e-02 -6.849480267069298772e-03 4.657808250869221274e-04 3.338653976441977034e-02 1.662372890535773751e-01 7.082488373134850773e-03 6.613620995855858109e-02 -2.309298432988627151e-03 -1.113045564378882697e-02 3.738757558428500161e-02 -1.011724412952087482e-01 3.016631134731124347e-02 -1.493724954852949927e-02 -2.297735663040587767e-02 -3.139974484441175606e-02 -4.370240546229110790e-02 -9.868586738948817438e-03 -1.072630160996702366e-02 1.822884458376082192e-02 1.703456629125332453e-02 2.436939800177774160e-02 4.650676578586711296e-02 5.646966952606102819e-02 8.418049088605544794e-02 -1.131459272394228499e-01 -1.393382552440680482e-02 -2.857656206050549624e-02 4.860110779545403874e-03 5.545968337812753326e-04 -4.652639036011888690e-02 -7.028877114013248883e-02 2.633849829794948638e-02 -8.302777019079790599e-02 7.832907623358965898e-02 3.105373731782197846e-02 2.527236871660765161e-02 4.758246482947601358e-02 -1.262091947727538577e-01 5.988375057776687722e-03 -5.854158839191118957e-02
-5.215668025971080535e-02 -3.526778380446643751e-03 -7.793393232794690317e-02 4.250089495456425143e-02 2.992043540888734629e-02 6.185151492238665644e-02 6.487638609758243635e-02 -4.558102447810059160e-02 -4.278772101525751825e-02 3.446692538870839342e-03 -4.982186200522168568e-02 2.390573612623386746e-02 -9.237784747262270391e-02 -5.183531444360919144e-02 -4.370189317954528002e-02 9.522365377859315361e-02 6.656315544330650147e-02 1.497181702617433330e-01 1.785138025233042880e-01 -3.933624192839644401e-02 1.354676300873026151e-01 2.079294904747184813e-01 6.471599389301591065e-02 -8.111577660357179032e-02 -4.234795524065160244e-02 7.317471028938296596e-02 4.720844422350984997e-03 -3.213009647299183008e-02 -4.218872295587035998e-02 -2.461943984811169189e-02 3.781871620964942504e-02 -1.037513238509305859e-02 -1.676359787737344417e-03 5.305113401890993591e-02 2.031274165002324439e-01 5.673049061768019319e-02 8.303558503494073637e-03 3.708346331485306430e-02 -1.385337776657303080e-02 1.133653867545470102e-02 9.458705662230072753e-02 6.903479454505197493e-05 7.209994163259295097e-02 6.343400183719431762e-02 -6.616983242224154516e-02 -7.917763855622611535e-02 -1.019092411101528289e-01 -8.862317516107894033e-02 -2.446141667498564695e-02 4.083755430439418160e-02 -4.992968430320740558e-02 3.447638093886131599e-02 2.008101450874921409e-02 3.718324561450445792e-02 9.091451770777964070e-02 1.274484600197646200e-01 -7.668175540319062226e-03 2.429515459998403057e-02 -7.706878143088326250e-02 -1.347835450779623530e-02 -4.070438935513295831e-02 -7.506337014182730416e-02 -1.488115336433313285e-01 1.337408923087533008e-01 1.930933992446760492e-02 -3.791676501301735613e-02 1.389714933329783408e-01 4.917577058575499371e-02 1.138354087161255190e-01 2.425193521049251177e-01 -1.569840147257598991e-03 2.710661735851635501e-02 3.167745612167506553e-02 -5.296085706286240286e-02 2.417165048891817616e-02 -2.522948072754833959e-02 6.674519882767739401e-03 5.684939458492973413e-02 -3.395392426979695899e-02 -2.351915495792684593e-02 2.127428350209749353e-02 8.798798338759408755e-02 -1.165959154399254516e-01 8.637610278974511280e-02 5.359916189109099199e-02 5.625463748423525923e-02 -7.077675840589089939e-02 1.766537367551108354e-03 -6.663102032668759278e-02 -4.064000361208748580e-03 -4.432121169271104055e-02 -1.306028322518315923e-02 3.266433283110229541e-02 -1.842727982129716002e-02 -4.260659298949422830e-02 -2.297110714906247173e-02 4.235399137077070116e-03 -1.656923429253951210e-02 4.941438710601017692e-02 9.861905491606638707e-02 1.127021735684056963e-06 -4.995902992447296201e-03 1.026022008251558371e-01 3.939202339294151957e-04 8.555506875282936630e-02 -7.678207902671366214e-02 4.010695549112500841e-02 -2.669191195661583041e-02 -5.045438990638621661e-03 -7.141954875758729782e-02 2.260021094983852979e-02 -1.981675843457163938e-02 2.499504971092352673e-02 2.787877869032411027e-02 -2.749166074059613066e-02 -8.165475969009419743e-02 5.539880452787851461e-02 6.851827016524887626e-02 -4.382558405753407549e-02 -8.279847749774763010e-02 3.709014827901482153e-02 1.209425808470016191e-02 -6.959054004029067986e-02 8.293084573912561097e-02 -1.132559575096498961e-01 8.531878105506308929e-02 -5.802384599613935601e-03 4.238281754369994936e-02
5.153730083210755590e-03 1.152695194809287560e-02 -1.182074188627916383e-01 -8.796656596466524702e-02 -1.133367065665186885e-01 4.739494820730014157e-02 -5.484702765672179459e-02 -2.768578872624716681e-03 6.097016510702966702e-04 9.459190933238185994e-02 3.819904803306829050e-02 -1.155090241342695938e-02 -5.556408068711188308e-02 -3.600503241049914788e-02 -9.850550119831710805e-02 -1.092136011389791515e-02 -3.021528722519115084e-02 5.643811713359636606e-02 -2.898848550333225915e-02 3.110626799935564332e-02 5.190195779010230853e-02 9.334692085738437173e-02 -8.803845898600068734e-03 5.242582902265187361e-02 -9.718839663619603664e-02 -2.414275836593940058e-02 -2.489701810227350556e-02 4.758653738190605359e-02 -4.207186393839457486e-03 4.703338557001980613e-02 1.822318573948228382e-02 4.349885362338810207e-02 -7.429316057955547004e-02 -5.314596634084652743e-02 5.171315201818642293e-02 6.213431807272311660e-03 8.903159827512210347e-04 6.495478742816081230e-02 9.333626669849082180e-02 -2.116761411739735005e-02 4.095583730950794893e-02 1.178561506866922792e-01 -3.864486294299224189e-02 5.883881695362815079e-02 1.561210061802540683e-01 -1.055461417791899031e-01 -3.085682704890623657e-02 6.152839024492516747e-03 2.211865635520999032e-02 1.429512503685438467e-02 -5.029750086260877801e-02 1.260452120366532813e-01 -2.384014305742849366e-02 -3.766824129951117095e-02 1.106123468814734605e-02 3.556575912353178437e-03 6.036007793230457885e-02 -8.708327809186369251e-04 1.209345554557475638e-01 1.270584456184470634e-01 3.504665813483233416e-02 -5.061502518372490433e-02 -2.910398352077412862e-02 -5.804414406922151284e-03 7.547316019730641867e-02 2.107466074060732400e-02 1.230477628263657447e-01 8.114469995941512226e-04 -8.855528439400148222e-02 1.182047558661505904e-01 -7.066996283796519139e-03 -3.313615196963959342e-02 9.998089105349982145e-03 5.758068731322597833e-02 1.604224158673588085e-02 4.460872853908359227e-03 4.080334286452378875e-03 -1.007769407681997735e-02 -2.217029987607866889e-02 2.283607270340287654e-02 1.605048911211889515e-02 -1.803172060874593322e-02 8.430964415731247164e-02 7.133249995113962946e-03 -8.676232848143104748e-02 2.894184280394757709e-04 4.411599237129037424e-04 4.279216692360447022e-02 5.424475836263161627e-02 -4.110292575140763599e-02 -6.779828625861862579e-02 -2.113708598029800240e-02 2.567087914769708781e-02 -4.705295613479845707e-02 -1.198202541393021507e-02 8.084142673258529199e-02 1.552001519081577796e-02 3.339902776049482463e-02 -2.576216374001907838e-02 1.879874780738441387e-02 3.510436317487517638e-02 1.440453482651830597e-01 7.088348250457580935e-02 -4.710618628821749629e-03 2.055738093795537319e-02 3.790739508328296731e-02 3.252981934410104775e-02 -1.258936719222387805e-02 -1.350590577859067110e-01 -7.474091489495146567e-02 -5.401544082559783105e-02 -6.172348621166250798e-02 5.732719187642178194e-02 1.046972995268646324e-02 3.998999370743495409e-03 1.109105247137891492e-01 -1.087589618918517187e-01 7.240555428060409249e-02 1.481082976316155930e-02 4.973966622825207011e-03 2.534507082503829542e-02 8.546704596382036223e-02 -2.592053698891010755e-02 1.831069542474155279e-02 -7.029213542412819649e-02 -3.793740807475326059e-03 4.215803613670540337e-03 2.449951579521484138e-02
8.276103162770027943e-02 1.636684465700131638e-02 9.658796642599694338e-02 -7.957656697502801801e-02 1.003778250737173555e-01 -5.741032596289818990e-02 2.166988311973903902e-02 4.627995991834020495e-02 1.031730242129536707e-01 -1.524032391591221940e-02 6.933048811718828253e-02 -1.260456565240361364e-02 -4.375470453961786965e-02 -1.815637675060827703e-03 2.562098826842451604e-01 -8.231974574719597149e-02 -7.254609014622188934e-02 2.840574435393455541e-02 6.696021777031747890e-02 1.769504356885667415e-02 8.832393481993931761e-02 5.481513059547055144e-02 1.638894447636708371e-02 -6.190617803271240577e-04 -5.539923274491775906e-02 -2.418726566333708264e-02 3.066575286644228088e-03 -5.339820162291920164e-02 -1.041434767102581010e-01 3.546418389204102767e-02 2.348285290510031958e-02 -1.910080219437546370e-02 8.946360291536677167e-02 7.918784690465441312e-02 -1.997946180197185395e-02 2.318492595457515709e-02 -5.828276210700600313e-02 3.334927522411628396e-03 -4.277450413616878250e-02 -2.132511093407990499e-02 3.837456436057954529e-02 -2.005616231229966767e-02 -2.176330612024668376e-02 -6.438840571357065667e-02 2.582407938373310757e-02 -1.147995644999027093e-01 6.360376073279537523e-02 6.687256894652051156e-03 4.001530363456951012e-02 -7.311381531253867763e-03 -1.034829883613352930e-01 3.930687833323681657e-02 -8.271566869191294968e-02 -3.051987325477309096e-02 5.127215546653773881e-02 1.222161106216314574e-01 2.169329706319364851e-02 -9.445955614964142433e-02 1.888934419349570237e-01 -8.201266241596956441e-02 -8.916277342756845359e-02 -7.262629431316985906e-02 -1.836708100760849061e-02 -8.737947252320856298e-03 -6.565518806910791705e-02 1.062517148762657897e-02 1.207046895919563871e-02 2.338815597788703252e-02 -1.538571256784731708e-02 -2.093499948551745538e-02 -6.970155160387929080e-03 -9.721221145808754682e-02 -5.100275422761798433e-02 6.195539243032265747e-02 -2.518201559744345092e-02 2.540440429564276223e-02 1.177889420874154471e-02 -4.243924109102210906e-02 4.454535320767787077e-02 8.449327282551623991e-03 5.450408427290926068e-03 -3.039315400095155689e-02 9.285692517423543846e-02 1.251160066003797772e-03 -1.475352061960414074e-01 -5.267563596799700043e-02 4.479757101885616100e-02 -7.022889472494020513e-02 -1.905656052036027240e-02 1.511489671157976132e-02 7.091527310932063677e-02 7.046803066848418562e-02 2.086871317107323945e-02 -1.646257892548737833e-01 9.354457725260285905e-02 1.194902115119549635e-01 -4.825859909343536286e-02 -5.604695177284316210e-02 4.282954642292207542e-02 8.652901639477843243e-03 1.013660883539344859e-01 -3.965773317383602947e-02 -1.718300189667449577e-03 -5.241171127617970382e-02 -1.408079597236681357e-01 -1.222208156499853399e-01 -8.528585873742337842e-02 -1.441009706343010510e-02 -1.711593163763906744e-01 -8.027437651191694779e-02 2.065616474915569697e-02 -9.379049114682661351e-03 2.564154696072056677e-02 3.052697869809174736e-02 -7.803727960125608244e-03 -4.994735353494539343e-02 -2.759487413675069598e-02 -2.706062861022958538e-02 -3.262024140529874022e-02 -1.517253121662681947e-01 2.366935748287365970e-02 4.204544428306928455e-02 -9.457742658150065582e-03 1.989412062775671938e-02 5.884083035072772833e-02 -6.253747002617952855e-02 -1.547171179403778254e-02 3.245992763787629298e-02
2.557461915060139576e-02 2.984935204216927068e-02 -2.512516982656310544e-02 -7.856529121390957993e-02 3.165640490181141631e-02 9.881060689245860229e-02 -1.081750499910910795e-01 4.224706577255363249e-03 -8.590034918465881686e-02 -8.570701548652557428e-03 -4.618363343390733539e-02 8.812009219341818134e-02 -3.654524444759081614e-02 9.253133092634049928e-02 3.987820226888707381e-02 1.777187078041020038e-02 2.048863280997416658e-01 -2.010162176359904171e-02 -3.711645997263396390e-02 -6.251233209817357202e-03 -8.715965219296868682e-02 4.182129570281913067e-02 -2.572037832191787637e-02 2.695855070663965777e-02 -4.226362764059955757e-02 1.849688954866750626e-02 8.667578782301307502e-03 2.482812255039173327e-02 -1.518797689535361928e-01 4.007266552085587963e-02 1.527031742318401761e-02 4.985056876536231481e-03 2.672216227289246973e-02 -3.954011598946890332e-02 4.424958987228403556e-02 -7.252145126847366063e-02 1.797549497353804343e-02 -1.508922307890719072e-01 -1.201354939267224725e-01 2.051574887784184814e-02 -3.416507392365496915e-02 -2.645016106415858104e-02 -1.144315788202730916e-01 3.284185290371743893e-02 -5.031747632554048333e-02 -3.387269426287826263e-02 3.863166339578618519e-02 -4.674328960998710460e-03 -3.259934824034647211e-02 2.485923478795659669e-02 -1.674638824961089886e-02 -2.545957633831352068e-02 2.246443804887444246e-02 2.969331275339960260e-02 -4.988235609750365368e-02 3.492283928110990338e-02 2.749367563105145629e-02 6.945763364583193433e-02 3.911441972178230503e-02 -2.007147862337113967e-02 3.536917087400176518e-02 -2.574195132505270253e-02 6.793985882484059047e-02 -2.180066211145138474e-02 1.000683746539050428e-01 -1.819077834347713682e-02 -9.202493091079182175e-02 3.910284435919384599e-02 5.416510609585006158e-02 -5.275958865719707069e-02 1.463873207346298852e-03 2.009611325269820836e-02 5.566955261416954570e-02 -2.169827052518977922e-02 -9.142528555477717755e-02 3.109310915584176035e-02 -1.987807528529474468e-02 3.931791859828467559e-03 -3.464862316532076741e-02 -2.708730354227280659e-02 3.782296235000661561e-02 -4.207229745920914449e-02 1.106323529875801320e-01 4.533172151508509107e-02 1.718043811589648341e-04 2.131375903640431169e-02 4.209987264420982783e-02 -1.148854742026331026e-02 5.734024358156214474e-02 -2.378821598881094429e-02 6.520455403233002545e-02 4.518053747011568227e-02 -8.022719965512367657e-02 -3.129359050066295167e-02 1.905892547440134199e-02 7.004278338707739526e-02 9.015021591121582254e-04 -8.328114277208283414e-03 7.605950079976883660e-02 5.361704499356706455e-02 -3.806580013198439250e-02 -5.960968749789364446e-02 -1.295060254345466455e-01 1.641788900826037650e-02 2.992491588450625628e-02 4.440605970083175494e-03 1.657125870747717250e-02 -1.674684764514778809e-02 1.098542849633686175e-01 2.731393613991232872e-02 7.146349314055046482e-03 -6.271595907143932835e-02 -5.782306683935661655e-03 -2.045242407527297565e-02 8.956104347437844615e-02 2.475428648556204578e-02 -4.237104361218994170e-03 5.246178127973855077e-02 5.878931802700166492e-02 -6.826561371841718961e-02 -7.038502905742576032e-02 -6.317351695807499334e-02 -1.580355442766197271e-02 -6.789231191719662106e-02 7.427612070899080980e-03 -4.557681604093638539e-02 3.936920253525378471e-02 2.855734973840742819e-02
1.474398091008202738e-02 7.022526137776277655e-02 3.128923976023521153e-02 6.713914769342585465e-02 1.816560628436355851e-01 1.830005905543372405e-02 5.918782661952348007e-03 -2.949030696835537591e-02 -4.368208424899625714e-02 1.056245247624937149e-02 -1.005462104819758867e-01 -2.109878439917201118e-03 1.869674116878043040e-03 -1.879545907725243409e-02 1.071076955870260278e-01 -1.286518477525111503e-02 -4.519578863005174751e-02 -2.403088218688307492e-02 1.298422509266144720e-01 -1.176368665997072904e-01 4.031140048312576579e-02 -3.928895635840040299e-03 5.235039166667184579e-02 -2.342817374750382625e-02 -5.829328606619690878e-02 6.035620016436952368e-02 1.114132992270026878e-02 -5.314593640453618359e-03 9.077802655486107153e-02 1.121716191166737507e-02 6.556484022018652102e-02 -2.098121191309764225e-02 6.265117066239929422e-02 -2.002920134254057849e-01 -1.019964639401351597e-01 -4.398892996152215656e-02 -4.630758582917428312e-02 -1.361906898603169602e-01 -1.998348231334747815e-01 -7.081997908994855373e-02 -2.472562714687793692e-02 -4.280937167037655866e-02 -2.446755380684931258e-02 -1.173028911904951954e-01 -1.354027430817169031e-01 -1.645772897542921720e-01 -6.112272503433340692e-02 -5.610646303444372096e-02 -3.447898321145768247e-02 5.426523220642762158e-02 1.507896325823635843e-02 -3.743849282234464060e-02 5.529115051478374759e-02 4.869262511651075570e-02 -8.291434460995106281e-02 -5.131140380574686355e-02 -1.891283441374102398e-02 -2.979442880837460117e-02 7.658517020637461981e-02 7.379875900476490225e-02 -1.290904944842523328e-02 6.840492892295245431e-02 -4.681390856884968046e-03 2.968279190452573213e-02 4.913485692412397805e-03 -5.646132480332782984e-03 5.928429558770108299e-02 -5.489563863508684777e-02 -1.117629403724994808e-01 5.394279229122051281e-03 -5.927385289086383596e-03 6.762604504616953616e-02 2.000517566277086254e-02 8.467981809686482564e-02 -5.332871495801371625e-02 2.260024754988422188e-02 -6.626759150529233471e-03 6.151265276518876057e-02 -3.499892542567724363e-02 3.371950933230198622e-02 9.099213815469714417e-02 -1.341454736044128855e-02 -6.945342097446330354e-02 -5.741916970211488613e-02 5.510513066009002647e-02 -2.248833446503910663e-02 -1.565463563247194989e-01 1.145498565705507371e-01 9.919253445867254326e-02 -4.751622137218713439e-03 2.893090023307193920e-02 1.056610791167828488e-02 7.734742953250801911e-02 -1.117201319581768992e-01 -4.250443543363884025e-02 9.338586854722672262e-03 -2.885947824300520454e-03 1.061256853314238163e-01 6.045826016223596749e-02 -4.645786143337435337e-02 8.232773174612612044e-02 -8.898258719387761029e-02 -4.848010330481360847e-02 4.375553744089773905e-02 4.710861735784009630e-02 3.929574446985253239e-02 -5.142917378453375730e-03 7.175444606109533663e-02 -3.670831983820870698e-02 -9.906072012075169131e-02 2.006077328702559736e-03 -2.731487543574206631e-02 -7.008952912213143281e-03 8.021741309001771680e-02 5.447621189976059597e-02 -4.388496634270538238e-02 -4.580020569224079081e-03 1.660554585782716627e-02 2.723678167697714952e-02 -7.072307211873109234e-02 -1.288888707346184936e-02 -4.976921608913663364e-02 1.372258069378424865e-02 -3.289250489671467076e-02 2.135579942233587630e-02 1.147095308621732396e-01 2.053698501410377436e-02 5.669263153641244946e-02
8.012668378062021493e-03 -1.535363249859446888e-01 7.456937221232078083e-02 -5.331279242005991514e-02 1.728029046249865974e-01 -7.449142302934776139e-02 4.312118253329941947e-02 -7.113379735339159238e-02 2.953107370928394551e-02 -4.165110929501882747e-02 -2.542229506763112393e-02 2.138763815888264364e-02 4.764116035203928151e-02 -2.077718563510401809e-02 8.873421760539929037e-02 -8.527919529124176889e-03 -1.032567111352093447e-01 -5.587122904157534181e-02 -7.063794494238247526e-03 1.232131388925379878e-01 8.425176692065730610e-02 1.167152894967897619e-01 -3.119885394645620369e-02 -4.779230688682329503e-02 -2.510750294172539240e-02 7.769977441890836556e-02 1.803009330037619318e-02 6.253580487067667351e-03 3.979582087569805832e-02 -8.151781690872671876e-03 4.420218606434754560e-02 -3.486746570679057078e-02 1.008947457370772821e-02 1.702855873099747008e-01 2.753005271025172132e-02 1.381038572864777825e-01 -8.387913419748116786e-03 1.280804136697332452e-01 6.197289437401559686e-02 -4.542831489966974584e-02 6.937529964167327146e-02 -2.518267673253491226e-02 -1.006608856813229619e-01 -8.550389013367784563e-02 9.458319617218741149e-03 4.344368312075447963e-02 5.113229145922118524e-02 2.053097798164256124e-02 -1.346278755510062902e-02 -3.064768272626286483e-02 -3.582911654355714487e-02 -3.219594756879594344e-02 1.625641532076938162e-04 1.911866442598437674e-02 2.791636729754187404e-02 5.480328965389631019e-02 3.381480641683152219e-04 1.397944375504852309e-02 1.301141432525695363e-01 2.281913468583829374e-02 -1.908675350006937147e-03 -3.828462298992637430e-02 -9.089732371572453035e-03 7.376488864143287971e-02 -1.997010120973896630e-02 1.931274998342841567e-02 -5.127831802619607637e-02 -3.112624221339280531e-02 -7.740759267534826071e-02 1.309385289764564697e-01 1.243883706246314697e-02 -9.121153268508043477e-02 -3.551326853759708552e-02 1.656551686011425648e-02 -1.877951568832596924e-02 2.636517571782760402e-02 1.976626413030226764e-02 3.771217848881962958e-02 -4.752649827589979468e-03 -9.331312198602581542e-02 -1.385698961134860727e-02 1.860859353626184622e-03 -1.687584023164182684e-02 -6.086900161568989387e-02 3.602759585504653611e-02 -7.130840702701836658e-04 -9.167059660303629454e-02 -3.006811961225579546e-02 -2.805109441120615457e-02 1.806692242835256437e-02 7.835896403889446027e-02 9.918513886137120608e-03 -4.577918243533928705e-02 -9.355238139337834768e-02 4.418055573377602935e-02 2.907883775043404104e-02 -5.230113860482236976e-02 2.717181442916510696e-03 -5.200119141490503610e-02 -1.682510408993885542e-02 4.603222988452077002e-02 -1.226729077852893937e-02 7.417198230075240650e-02 4.295250772351106444e-02 -5.273052137968416847e-02 -8.578680135298433207e-02 9.261750161956809613e-02 -9.751264471790359323e-02 -6.415669299658063873e-02 1.262653042160601924e-01 9.611864615890580721e-02 -1.455893387861074972e-02 8.665289216150072471e-02 6.396730552310501972e-02 -2.099555377857343502e-02 3.170115748309652350e-03 -4.329760235197056134e-02 -4.446962364821840236e-02 4.878711926544987421e-02 -5.988793216191290458e-02 -4.474387079093778558e-02 -8.849938806135108221e-03 5.724769034566957321e-02 1.765612121046911467e-02 -6.028429899400713707e-03 -1.722795984887721121e-01 -7.680518581343009910e-02 -3.100307405347994469e-02
6.586878952177464830e-02 9.614116867616695483e-02 -1.206409416371830023e-02 -1.468543524987609046e-03 4.317813906877374791e-02 7.361885912790154529e-02 -1.141693806274114188e-02 2.444485387604774032e-02 3.975767363860045062e-02 -1.503265442131872798e-01 6.964903278631223715e-02 -7.718222205358289678e-02 -4.689042462018892105e-02 9.421868613944432702e-02 6.425014139769061328e-02 3.129000011350601285e-03 1.460951082534175938e-01 4.358212403057976775e-02 5.691732740772993855e-03 -1.942944743743988956e-01 6.649221436866743773e-02 1.251642060144044118e-02 -1.425815589293977052e-02 -1.396584227609147695e-02 -6.606418180094687786e-02 -2.282921070352004339e-02 -8.019337743255614687e-03 -1.297609570939126655e-01 -4.586791718580513627e-02 1.032982656258840150e-02 7.171030966230175496e-02 1.217712570220257258e-02 -2.200390304115307921e-02 -9.770742921648783996e-02 7.032077333590586177e-02 1.247083762955371461e-01 -1.078880749660273974e-01 -1.617085371649600034e-01 8.823012993594223086e-02 -1.127652430550689089e-01 -2.340768071466656219e-02 -4.003722979970680829e-02 -1.313736952684748938e-01 -5.555319315666033125e-02 3.445928728927212005e-03 1.276222386240470352e-01 -3.844072306681314138e-02 1.789167993692350467e-02 6.563318966241111271e-04 -6.010105717535945552e-02 1.734022767016341407e-02 5.368001820256201873e-02 -5.107171338802440896e-02 2.107529590469871608e-02 4.322159291023668776e-02 -6.005652356818646370e-02 -1.582708896633845674e-02 8.173010298794590456e-02 2.495485920141313207e-02 -3.970552397395457622e-02 -2.688086507936195135e-02 -7.164872775738899413e-02 -1.697280385079739107e-01 -3.015811180925646179e-02 -4.744187071966439462e-02 -4.533633773393264815e-02 8.008601768368751872e-02 -1.272057276443925612e-02 -4.183588887979263621e-02 -4.998607265342849132e-02 5.743707881206833003e-03 -4.070392900519967383e-02 -1.475387923535464996e-02 4.224978057428860345e-02 4.592820415548370082e-03 -2.754369744345979494e-04 1.495678081408208585e-03 -3.505718320644761726e-04 3.310911875270158844e-02 1.243049724531119227e-01 -9.262528842138112450e-02 3.488617084378142080e-02 -9.388128924874868456e-03 -5.232476961537319698e-02 -7.547897684349623437e-02 -1.117053927078808517e-01 5.297275352318325109e-02 3.153009810102294641e-02 8.414746052065022464e-02 1.914125609190833743e-02 -2.092076315463857819e-02 3.061654516948476151e-02 -7.270754973150007905e-02 -4.271092447943265064e-02 1.418600822221607605e-01 -2.827615152933337511e-02 -1.725086641272640048e-03 -6.818962912510194430e-02 -7.603347052766730972e-03 1.227933484146764981e-01 4.713461210979950217e-02 5.183171074904755621e-02 1.582919694548715339e-01 -3.138382312395364415e-02 -4.563865758522295257e-02 5.651412059165004942e-02 -9.592781657942082638e-03 1.793061842153832741e-01 -7.028166493179759111e-02 -8.501243460594384155e-03 3.362839108827870606e-03 -7.573667527293477530e-02 -7.221282833309462801e-02 6.836605569518741654e-02 -4.670458935139396028e-02 -6.983046977358212115e-02 -9.278363414444942836e-02 -1.113622052877024683e-02 -1.376837714059291617e-01 -1.686966135596854738e-02 5.038047118945124248e-02 -1.378642120532529332e-02 7.869223407534689518e-02 6.457122856451888437e-02 -6.937926460466391221e-03 1.388322288030450491e-01 -6.515837003716769271e-02 -2.939868161192007653e-02
-1.617386025604531860e-02 -9.160862241975716025e-02 -5.293500709705212248e-02 1.163017215354960471e-01 -3.723725612505589255e-02 5.227493294840310223e-02 -2.865554253955843178e-02 1.454908319781046851e-02 -7.241255477557521567e-03 -3.896554993596826333e-02 5.842838582129426805e-02 -7.250825250986644988e-02 1.017360623271803231e-02 -5.386067349117820008e-02 7.709868050057361311e-02 -8.347483834649033207e-02 1.273568856522917792e-01 -4.163189110053286401e-02 3.406724244517914113e-02 4.832086134055879612e-02 2.004267867178292223e-02 4.561826723548435825e-02 -2.007268186744055188e-02 9.123748105236749104e-03 1.917611278424857790e-02 -3.143878275431079283e-02 1.884682215923442691e-02 -4.392373565741348324e-02 3.011790065489214612e-03 1.118424038680383009e-02 -1.360460692613792710e-01 -8.034256123854451037e-02 1.047782091596901055e-01 3.035709062533969646e-02 -6.472740545980619487e-02 2.207132631619232455e-02 3.621069957977483128e-02 1.509501201681212323e-01 8.047409020140126878e-02 -8.142987759134287518e-03 3.137687579537192656e-02 -6.948046946713609673e-02 2.982288703439588129e-02 4.045806569498486965e-02 9.897317529476863662e-02 -1.368051213990838927e-02 7.760314495445187755e-02 -5.752293566495125798e-02 -3.263534523818114458e-02 1.289973496117879405e-02 1.626580296809266440e-02 5.654966385106262317e-02 3.183256291536935845e-03 1.222371075374086707e-02 7.448779859287006644e-02 5.620919383898620447e-02 -8.684068214047985235e-02 6.869341366165965246e-02 -2.938165555057636186e-02 -1.247886894430090717e-02 3.667049086939264124e-02 3.790971462678327519e-02 8.359332157105998917e-02 -4.730995423569341052e-02 -2.517256485600549709e-01 -1.038570049940873256e-02 -1.799105926961560575e-01 -3.575384622687068081e-02 8.140314850195558283e-02 7.470730435056811836e-02 -4.237035779966397825e-02 1.106235855026883180e-01 6.729265302743657300e-03 5.726651199508187712e-02 -3.364404942560249995e-02 9.611991055284133459e-03 2.512870741271736215e-03 -3.841234123479562307e-02 1.758621226564185958e-02 -3.298653748058626850e-02 -7.642660921219476822e-02 -1.434730423059170645e-01 -3.665229676834527023e-02 -6.390961951586074385e-02 -3.737056051828878400e-02 2.191726098735363379e-02 -2.510894846705529967e-02 8.134743580452049108e-03 2.923089230912545231e-02 8.600111191499792279e-03 2.329916945402352446e-01 4.893928352462809800e-02 -4.751456811235623551e-02 5.526442881064462520e-02 1.952141151070042185e-02 -2.626001313597117748e-02 -1.034527026583872272e-02 -7.675670385404137486e-02 3.607277361119971826e-02 -1.214432703770885885e-01 2.670933122279220071e-02 1.363074000163451427e-01 -2.766711451732957808e-02 -8.070459819236731891e-02 5.475963769364819433e-02 -3.063669839444821061e-02 3.712777773196102027e-02 -4.811319880332443066e-02 2.578311340385419648e-02 1.906867009691633153e-03 -6.089582057785170727e-02 -5.610516277289361725e-02 2.710163488298180344e-03 1.296269102365318893e-01 -1.383127914611807958e-02 -1.073986415828881991e-01 -4.330969335124184444e-02 -9.375978653764810433e-02 8.615158507682844913e-02 4.665776670488515354e-02 3.847882758358058680e-02 2.515679577056325472e-02 -2.715667562411817545e-02 -7.643426004950978903e-02 1.124062712565211397e-01 8.548474298263983740e-04 -1.913607743258476102e-02 9.092177432312174845e-02
5.423723631401321937e-02 1.224768645338659675e-03 3.124128837998268321e-02 1.334970825847799861e-03 9.818332582053571067e-03 -4.392302156472473185e-02 1.325779517871170793e-02 -5.947752471634918997e-04 -7.656152845700690303e-03 2.493984399770727764e-02 -2.314277051776017936e-03 1.150641905110701552e-01 -3.440976495709088118e-02 3.401293308064464241e-03 -1.349102460190721442e-01 1.129616973868292212e-01 -4.164693596254128230e-03 -6.150427087891310873e-02 -5.175758790078078403e-02 4.561204278978616550e-02 -5.526235763947846824e-02 3.204729328696897389e-02 2.585382003634126291e-02 1.531326885655692055e-02 -1.032694263389579564e-01 9.597214765531927524e-03 -2.348726902406010966e-02 5.130683708681844923e-02 -3.171261305302423839e-02 3.851849004757928931e-03 5.601025627321939288e-02 -3.992259465877911334e-02 -7.646341427711339511e-02 4.139716681599054510e-02 2.100321917142543987e-02 -2.130641001187289635e-02 4.844448285806829402e-02 7.239472096336647955e-02 -8.979097649589673491e-02 -9.055860177634563954e-03 2.149676400051269212e-02 3.868373651779292988e-02 5.217452983727320984e-03 5.762067055303518592e-02 2.321873068245213986e-02 -6.099113255333719202e-02 3.567868686357185577e-03 -6.649384358098699155e-02 1.796483053198294141e-02 -2.305737431526973941e-02 9.809320283208891600e-02 -8.769560572457860137e-02 9.403450793560174867e-03 -4.944804373921623392e-02 -5.704762268151857690e-02 -1.444740614959158162e-02 1.669945882772082280e-02 -8.118985342293968954e-02 -2.713550546965894442e-02 6.769924423914427947e-02 -1.047388927632438571e-01 -3.451227603796837295e-02 5.570247455312098139e-02 2.998355320497875925e-03 1.111751383946237536e-02 7.941489165566695263e-02 -3.614305703784203433e-02 -7.382908074249074429e-03 -8.908980232921243081e-02 -2.534752770560239066e-02 6.545779395989767720e-03 -6.172802529492844859e-02 6.609357290433710841e-02 4.183738782802440270e-02 -2.820133248649314694e-02 -1.489172670993181048e-02 -9.877504645430395386e-03 -2.757001555157177763e-02 -4.453156166414550671e-02 3.409821497237403021e-02 -8.757166722750843457e-02 4.574591889864888100e-02 -1.549804880268482871e-02 -6.268811063645572321e-03 -1.781430290269548147e-02 3.049274258702244778e-02 3.210129925004925194e-02 4.124621165485926194e-02 -8.199399250157098085e-02 -1.965847304856426642e-02 6.432714917590417678e-03 -4.583404329678841121e-02 4.375222188833435139e-02 8.092359015136850464e-02 2.574559065594242066e-02 5.290866413843681171e-02 2.045302105558941333e-02 -1.829383806749419056e-02 -5.926519418427535213e-02 3.975803870644851329e-02 3.496058777182158017e-02 -6.682016098233915791e-02 -9.088144234793688048e-02 -4.110318699481833524e-03 5.147535954327847607e-02 6.881503252383491809e-02 -6.437704981127526094e-02 -2.101540795968946315e-02 1.029391580865759437e-01 -2.206753102234927308e-02 4.050302024041085164e-02 -5.294264508746284598e-02 -6.597859095748952185e-02 -1.317100037379647336e-02 -5.414765969612741862e-03 1.296364879590421355e-02 8.039186519498564554e-02 -2.140861026660400429e-02 -4.424916867006301047e-02 2.474441654790496270e-02 -1.322329529302678497e-01 6.894002139868714470e-03 -6.713023750612162090e-03 3.319662593834169645e-02 6.178589589847962443e-02 -5.441384237941587765e-02 -2.406742570109201076e-02 -1.368210068319077044e-02
2.743940149889038602e-02 -5.785934164681831929e-03 -3.417803198661170661e-02 6.708269341212683146e-02 3.530921155987778309e-02 5.505121240186084536e-02 5.401870266150448491e-02 -4.415337502199533082e-02 -4.974117795541195541e-03 -1.948532988806712940e-02 2.264664466659130002e-02 -1.235858846974139669e-01 6.977642191105283553e-02 -8.080517818145574460e-02 2.391987584240994752e-02 -3.372230017064245522e-02 -6.425811862533209462e-02 -2.781217213259097598e-02 -2.757658479852387670e-02 3.931517212129804345e-02 -9.893870943934253426e-02 -2.076336823343768404e-03 -5.108493510446326935e-02 5.706554654811390841e-03 8.565223865682505822e-02 -6.365559805479714672e-02 -9.588835054673228164e-03 -2.131860465852943379e-02 -1.818880793450496774e-02 2.142888664390268580e-02 -5.875323745079179781e-03 1.098374245716240635e-02 -7.165568828338872431e-02 -1.623759636512212556e-01 9.911028313446200444e-02 7.831689272695045723e-02 -2.427803654069987660e-02 9.474277772232370110e-02 1.332528789864166896e-01 1.887705992973811447e-02 5.647327143487041595e-02 6.875976140569546591e-02 -3.265231325168833909e-02 1.812406201729017952e-02 1.538673445861222372e-02 4.146693361656430404e-02 6.362676097533306874e-02 -2.890681354396215305e-02 6.507016965587577792e-03 -3.307202379260519576e-02 3.079630861967747393e-02 -1.004164744284727490e-01 -2.373946880714538146e-02 -5.739382070370784190e-03 7.666664196125642927e-02 2.394205108709080571e-02 -1.791127341561690040e-02 3.128103659499564815e-02 8.583685740794907981e-02 -5.660361472636384755e-02 -6.186415434070852842e-03 -1.319929731058900983e-02 3.373067451344426843e-02 -5.598117123439465964e-02 8.079876424554913172e-02 -2.267211785015131945e-02 -4.042611707276901750e-02 -4.926700627098087870e-02 1.008146602504221417e-01 9.700696019740759346e-03 -1.543680709689681380e-02 7.177082593261482901e-02 -1.311462201798518044e-02 -3.372990234117696773e-02 3.974283052477418227e-02 5.618460722398339532e-03 -4.336856657981147910e-03 4.801566950054501209e-02 4.512140487125093635e-02 7.002792872208757347e-02 -9.205366765131955953e-02 3.437935910505107544e-03 -7.609744961600474478e-02 -7.104346488971787638e-03 -3.823339506758611367e-02 3.610764349214900387e-02 3.876452355210804890e-02 3.402773945302690894e-02 -6.152852735180473764e-02 -8.007017200550151960e-04 1.287314751971575799e-01 5.892318788406656488e-02 -1.186828302524457479e-01 1.111784729552782285e-02 -3.761503240780172258e-02 -2.163200999606188987e-02 2.060081383570505978e-02 -3.775440964603605370e-02 -5.865601689768610086e-03 -1.743137323195663446e-02 3.707404397335652829e-02 -1.221784515220089712e-01 -1.530037752602814681e-02 3.078734125424733084e-02 -8.397990867448254515e-02 -2.744839197728430116e-02 -4.035328132292446274e-02 6.209291196303537430e-02 1.841849187025160336e-03 -6.817902120904884011e-02 1.206198489720292219e-03 -1.369881259942714626e-02 -7.461910295036172647e-02 4.909868616587419188e-02 -7.375076411416102429e-02 7.578482960272243940e-02 -9.984891731946389515e-02 5.242833618254825329e-02 -5.364258558082494327e-02 2.208085748384462990e-02 -9.603937237723346454e-02 -6.142646785501451601e-02 6.762795980496213999e-02 -6.032815809409240032e-02 4.058634692075448192e-02 4.261821621730814240e-03 -1.705563261137563874e-02 1.274056192072356153e-01
-2.667432838826074015e-02 -9.872695851545301715e-02 1.969474615521830951e-02 -2.018515732228429865e-02 7.749267920904445717e-02 -1.428359427462180115e-02 -9.144485912308658593e-02 4.541037714290552946e-02 -1.265152487730439659e-02 5.461421570301158886e-03 -2.768728095136300735e-02 -6.610217478880932307e-02 8.133618927200254867e-02 2.979308787733907227e-02 8.369365404515997919e-02 -9.479403510573752856e-02 3.456736001812065612e-02 -5.347077736475856075e-02 -1.026641236256991691e-01 1.797312440587590585e-02 4.254562057639902327e-03 5.760471250001261700e-02 -8.211348347533041492e-02 -8.903032553152696871e-02 -4.917837777440857427e-02 -4.012631500972395349e-02 1.172942064858420105e-02 -2.915985014143069806e-02 -4.838385480647328790e-02 7.802512377349374133e-03 -7.154241710093889317e-02 1.491787092507146318e-03 1.345789550993924943e-01 8.245887823894275381e-02 -2.218144919421057709e-02 -7.017093480236746839e-02 5.111148487499262566e-02 5.753725709486388375e-03 3.363293753016659282e-02 6.930700190503297220e-02 -8.131566353728512941e-02 -1.351923204165567938e-01 -6.498065788976178925e-02 -3.020204062241252027e-02 -6.571617177814051414e-02 -7.233907954262477902e-02 1.122431737704057408e-01 3.310217798441826564e-02 -2.422057597164924136e-02 -2.258420247418415142e-02 -1.512055728994451433e-02 3.886280154178156990e-03 8.907474580381286033e-02 6.283103130913654522e-02 3.266660807697878421e-02 3.567070828891283352e-02 8.727716830602283080e-03 1.299615709253975904e-01 4.767293661835948597e-03 1.474668429926710017e-02 6.122582857436347642e-02 -5.920329183320761218e-02 1.559797282213883363e-01 4.669655080947805736e-02 3.175015133907118647e-01 -5.089974644766392942e-02 -1.022363663217539104e-01 2.259990909055655667e-02 2.491630531529155645e-02 4.587479256930489940e-02 -2.671193103778643496e-02 -4.881909623959585637e-03 -1.921779864978770055e-02 -2.207966035036922070e-02 -8.953816371226872017e-03 2.557648279591346469e-02 -1.948077476495548195e-03 3.247731595293682633e-02 -1.849630695727620677e-02 5.200626944879448849e-02 -7.498401281846127364e-02 1.040107644504232320e-01 -5.900846363029753350e-03 2.525357467341634091e-02 5.867947924984850266e-02 -1.013773665021011072e-01 4.978487160782599230e-03 -4.271925898110388864e-02 -6.155688143083792863e-02 4.332231227290215918e-03 2.296822668229776213e-03 6.924756980701360365e-02 -5.464547217821907887e-02 4.102882802671137946e-02 -6.016604130422638363e-02 -2.404939740673384813e-02 -2.930968336832203217e-02 -3.181451973509929858e-03 -5.562259116280171556e-02 -8.205982481114133462e-03 -1.037434100608448408e-02 3.521252236816768688e-02 1.170314873565680980e-02 2.493443271134431968e-02 7.457954124285258446e-02 -2.096921256511422374e-02 2.886680017539481821e-02 -3.365085750688994598e-02 -1.256974064107757583e-02 9.468186323617749922e-02 2.360062231706813729e-02 3.683993690371464153e-02 5.246991799783850413e-02 -1.820680038655190028e-03 3.297990067481362808e-02 8.708454415387677228e-02 -9.754399558004851756e-02 -2.088521729236135840e-02 4.661826525814168759e-02 -2.263571772943447774e-03 4.220402264941631315e-02 -1.046302815257493940e-01 -2.284588654740309435e-02 5.234373145777487801e-02 3.053806458040749308e-02 -1.783998384441434770e-02 7.624570754377825443e-02 3.063884778664176245e-02
-6.483700444872211345e-03 2.869245792104793691e-02 -5.967102281467110553e-02 1.529461317017422051e-01 1.285588952039098953e-01 4.181646594561037877e-02 -5.545442231881131390e-02 3.284946844378296843e-02 -2.535174735080801198e-02 -4.395421909159516471e-02 1.169107948595054097e-01 8.290461230046414220e-02 6.611524352514192016e-02 1.141996445229898766e-01 -9.190589933295391367e-02 -7.978353276273098676e-03 1.411067390595654725e-01 -1.738034538813017227e-02 -7.003214046263804560e-02 5.136366328028443839e-02 9.518522999111399263e-02 -5.966923828455338724e-02 9.049494951444915503e-02 3.669197833285110094e-02 1.408804558714950826e-02 5.980213604537793805e-03 -2.103485799841134027e-02 3.285233197323493559e-02 5.835399877076901526e-02 -1.344032947955553850e-02 -2.516035853591729390e-02 -1.717973608811149480e-02 -4.964638876701824369e-03 6.844868871924919551e-02 -4.574574196028187434e-02 2.188875338367660128e-02 -1.874777420401724931e-02 -4.167832977324358729e-02 1.719756905373283074e-01 -5.410047753638426264e-03 -3.260046831876394630e-02 3.575842890048720052e-02 1.489286223934874753e-01 9.427751387371853531e-02 5.970585098282237685e-02 1.104798390489740989e-01 -3.572348568796791801e-02 -3.485089978970187102e-02 2.204623171835832021e-02 6.707960746000310448e-02 4.083743038034412520e-02 5.307764193528292929e-02 -3.371220127056902965e-02 2.316223330407228900e-02 4.485326658853142773e-02 -8.263850778992785917e-02 -1.052291231318191501e-02 -8.435720973960815494e-02 -6.731921994619546878e-02 -5.329819738038719251e-02 1.230237663661341505e-02 -6.177997676963079693e-02 -4.772157550271782095e-02 -4.771060299105877450e-02 2.818660033429021966e-02 1.196728883587617510e-02 -4.759645549251653555e-03 -1.370309007855021258e-02 -4.765629932442216193e-02 3.296127720842526032e-02 2.915995152224949553e-04 -3.303843089095985508e-02 3.438527466569826080e-02 -1.502279011741262937e-01 -1.216064454231683030e-02 -7.048384251325760970e-03 -2.443385382452623739e-02 6.556944706611636531e-02 3.516302171033750673e-02 -1.142801528471414502e-01 3.504085960282316004e-02 1.069809291485333824e-01 1.288911345250525753e-01 -5.332132483155973407e-02 4.326227979583651545e-02 1.710346556234588339e-02 -2.595351469610614539e-02 -3.313194035680464000e-02 1.780006997990973491e-02 1.106643248352948139e-02 6.552711065882266261e-02 -1.910571369591916114e-03 -7.330294998426382935e-02 3.160299044932483176e-02 5.552423221754835408e-02 -3.621154348428206465e-02 6.097259794037254016e-02 -7.662022763647464985e-02 -9.781377816998178265e-02 -9.504088199816235335e-04 -8.411711315411768419e-02 5.843188852713538523e-02 1.794795999876169128e-03 -7.600961826013846734e-02 -4.489848365155523630e-02 -5.824866273073357054e-02 -1.446672102291478995e-02 9.204728766183074840e-02 -6.134102756004285867e-02 -2.884591939972454278e-02 4.564176577911986145e-03 -1.173257456802638959e-01 3.653970238012586164e-02 -4.322565998011867485e-04 -2.773331461793984362e-02 -1.124043606318578803e-01 -1.185048869839344376e-01 -2.055851557664572365e-02 -5.659753460635761485e-02 1.439095758685611341e-02 5.727226043969654845e-02 1.270484977870639798e-01 -7.207209481964941059e-03 1.475536282892889531e-02 -7.291737000353960829e-02 4.164050851416866567e-03 -3.534370339857220277e-03 -2.447202369763038995e-02
-2.287337623898917302e-03 8.825445824637709802e-04 -5.996872409758992675e-03 -3.673358877288082614e-04 -6.416982098730157624e-02 -4.261001100218073795e-02 -3.927191220950743827e-02 4.368778532298558254e-02 7.820035755579307635e-02 2.793757205847963859e-02 5.910468424738553328e-02 -6.855442022437005511e-02 1.696270422128543648e-02 -8.314249516418599495e-02 -1.343752859611450079e-01 -3.539616985846562314e-02 -9.038500947826215437e-02 5.225004881159139164e-02 4.201813281278509588e-02 -3.577713923130056844e-02 -3.326701994964358783e-02 -8.226981815959252820e-02 -1.300760890075374279e-02 4.606057869377670061e-02 7.721498031317140798e-02 -4.657902123918705728e-02 -2.567030981151277591e-02 9.154256739309602625e-03 3.080148485821702746e-03 -4.801620145728428823e-02 -8.284051488208746261e-02 1.174203453648850620e-01 4.772110138182895228e-02 -2.488007485914934397e-02 -1.347409864194337899e-02 -7.059521999577791918e-02 -2.160027797258494420e-02 4.184736341315681285e-02 2.490499605021362362e-02 -1.050236573324873565e-02 -4.143750272878905794e-02 1.115746300629359283e-01 4.457560243375751491e-02 -7.532031669822665532e-02 1.125612212624844399e-01 1.917327611553361344e-02 -5.346242367119866806e-02 8.189442594011992274e-03 3.871481610488956837e-02 -3.915935100761180204e-02 -5.613026035479137810e-02 -2.842504282420033404e-02 -6.919381049958282792e-02 -6.419506148589872174e-02 6.754037456046060872e-02 -1.566582589220971017e-02 4.762544929717856673e-02 -5.847661070673898509e-02 -1.093936847492636699e-01 5.038297490857716887e-02 -6.943342445501339555e-02 -6.564543724892800414e-02 1.307351323635200756e-02 2.370879927769117129e-02 1.462541350553765163e-01 4.009444064704247718e-02 9.451754677643593727e-03 6.443941894201241083e-02 6.604686767011230808e-02 1.407812836593598863e-02 -1.794652307388478613e-02 -2.886715641602057361e-02 -1.448047112996081985e-02 1.865652722088833454e-02 4.439462649360500363e-02 -5.318987578146937983e-02 -1.023351244018545596e-02 -2.129382650851946793e-02 6.485860134940160671e-02 -5.429130820373562899e-02 -6.220978728537590596e-02 1.213615755675185592e-01 1.318698226702181425e-02 5.230427935149662561e-02 -1.840693623080006877e-02 -4.857055552449564273e-02 -1.676267668458638477e-02 -1.153347454687554631e-03 -1.211954699279173819e-01 2.619664505556270132e-02 -1.635236939192551489e-02 -5.247731144098471967e-02 1.071973177787422932e-01 5.622462074561547507e-02 8.185779648105849515e-02 -9.872268584998682150e-02 3.648113555000261077e-02 -3.589231841456412553e-02 -1.860625534654428495e-02 2.806876686221622744e-02 -4.883151075538646330e-02 -2.343093128630991534e-02 -3.999137365816174405e-02 1.647319560966898841e-02 -6.259327754214201456e-02 -9.337884065084430755e-04 2.295246130020455692e-03 -8.001444314614768183e-02 -3.033864729926070807e-03 5.561626966151980538e-03 -1.045179335529284118e-02 8.625884399128791111e-03 -8.476166532537951492e-03 -1.667952406854393901e-02 -1.188514316439430538e-03 -3.901585377538144966e-02 -2.320035265757052628e-02 -1.110248479641174346e-01 -2.709154282437981759e-02 2.031538114837697431e-02 1.101258052476672689e-01 6.217029170269188637e-02 -8.822775318220345622e-03 -3.803994050044260528e-02 1.171477309861197608e-01 5.060694198160293339e-02 5.584172657662934275e-02 8.778017308416785625e-02
-5.391743758846130954e-03 -6.870056875951800063e-03 -4.531126673374756553e-02 -2.960758449396716507e-02 -5.141148739591814426e-02 -5.302802965958552939e-02 2.184097232113639195e-02 -5.039078058057488291e-03 1.430217885704671704e-02 2.153069157767806274e-02 -9.026579202617797393e-03 -1.432600023664738209e-01 1.971858031204552081e-02 -9.425464762448886730e-03 5.309217943842039350e-02 -6.148054380070903935e-02 3.453646884930457878e-02 -8.872336522050498775e-02 3.093054421076008031e-02 -5.643341973454404914e-02 -1.224206518720025311e-01 1.287581280086405079e-02 -9.303568734877722818e-03 5.688213689590322641e-02 -9.103050982948149294e-02 2.699083491538067231e-02 -1.140829935238778757e-02 4.494621436386028734e-02 -6.064093512326033941e-02 -2.752772324161796222e-02 7.357809610054823202e-02 -6.998424071381990214e-04 4.848388312608679224e-02 2.132317328113726013e-02 7.859362558264901266e-02 5.954823887326150117e-02 4.600119031349433896e-02 -1.189313092567602925e-01 -1.333752962377515172e-01 -4.093568218677990506e-02 -1.862533509124945095e-03 -2.314857675017518643e-02 -7.272278495593199887e-02 -4.742999976648885202e-02 8.563045280184072156e-03 5.504755535283723661e-02 3.946361965795154580e-02 -6.893354775585382177e-02 1.778233845469187960e-02 -3.735127572277453095e-02 1.294078956924846757e-01 -1.714590973976918772e-02 3.351647021671370213e-02 4.100694321039555917e-02 -5.881829516419107007e-02 2.453841190558190069e-02 7.402281068288087129e-02 1.022099749205297725e-01 -4.200917554716750157e-03 -8.806716311175834255e-02 -7.297718972879860266e-02 5.784924362284544347e-02 1.615787966988484758e-01 -6.214501549079843451e-02 -1.645648433889497775e-01 -2.831694617460668584e-02 -6.835545586167567078e-02 -4.176553556998539862e-02 -1.286355671504268439e-01 1.488281464239680184e-02 -5.653279474825120615e-04 -7.491419192581050268e-02 -3.607427423112701675e-02 7.853562065495639510e-02 3.539655347508513517e-02 -1.976772285291883771e-02 -5.837744436181525540e-03 2.260565529422155912e-02 2.376612481906817745e-02 1.186012990972990094e-01 4.447920539649354715e-02 3.445064159248681368e-02 -1.202969259468314595e-01 7.621506814533925145e-02 -9.684644888108814853e-03 8.324097885881515113e-02 -4.223976071993721521e-02 1.132323789293812610e-02 3.414754063397663908e-02 -5.903931785787006926e-03 1.347045646247036106e-02 -1.445255557866570971e-02 1.598651533483059495e-01 -9.407939782907676074e-02 -1.033579507818992438e-01 -7.256005120496508698e-02 2.308222976605094415e-02 2.721981017926712945e-02 -8.331216780619337195e-03 -1.133411725424088856e-01 -6.649610995231437782e-02 -7.176209390534410426e-02 1.190537619338138085e-02 7.624633309409788173e-02 8.014467055495603717e-03 3.897502664679757672e-02 7.144181282726197457e-02 -6.513723685573981348e-02 -1.027560931202998670e-02 -4.125812092332160202e-02 -3.242073649101084865e-02 5.278369073206742867e-02 6.950414906429910888e-02 -5.505028971524248554e-03 4.357591459112104826e-02 -1.063502836785433087e-01 -7.426387024515360147e-02 2.490566330352306929e-02 -9.531426992293831613e-02 7.838833137718741184e-02 -1.365632152964192138e-02 1.280752305491375184e-02 1.016178862704670074e-02 1.033726540457384144e-02 -6.227856661525712351e-02 -4.004680801120109185e-02 1.053878579409655430e-01 1.285106631892257191e-02
-3.216581390020719494e-02 -1.728828721192658333e-02 9.205040063971759584e-03 4.317849722369818816e-02 3.368487124774433017e-02 -1.258713718003394710e-01 -5.663489078218969519e-02 -7.853784474284556880e-03 -8.714656629366811583e-03 2.998197768825469622e-02 -2.910558249413443613e-02 7.189087676116720504e-02 -1.071089181119738026e-03 8.063586470806055617e-02 8.249066451204124795e-02 3.767312090387478409e-04 6.328512660309013049e-02 2.837950865187855581e-02 -2.524386314306527671e-02 -1.968299271227238328e-02 1.950097340353995970e-02 -1.646735682916035393e-02 3.964441310482717112e-02 2.350805886212068568e-02 6.560197315269832019e-02 2.187457584907402316e-02 3.625910776147160675e-02 6.687346069312961883e-02 -1.137023632813632078e-02 -1.050035519140762354e-02 2.427603177615760693e-02 2.310257991798575147e-02 1.717454170378716061e-01 8.521198649168998385e-02 -3.729721777104326452e-02 -4.185416400340255527e-02 5.847598945672411591e-02 1.019198718539971737e-01 -3.300884983975701514e-01 -6.536471706959502692e-02 8.030154422748321530e-02 -3.780206608078690023e-02 -4.307284923347200548e-03 -6.349745926318564604e-02 -1.257138195974875083e-01 -8.962614471155359863e-02 -8.709525022191348664e-03 2.137677162803529318e-02 2.407162929299758256e-03 -1.502517878231828495e-02 7.881049537224375789e-02 -2.147519113330218637e-02 -1.315554039493344735e-02 3.705890543892179003e-04 1.255802437851521181e-01 5.603171985092792601e-02 1.245639976810585144e-02 -1.478016386275238410e-02 -1.049973497149055413e-01 2.429096521854670621e-02 -5.495702381823076854e-02 -4.082937989294559492e-03 5.497552592699123802e-02 5.896735822492358420e-02 -9.568811125079595969e-02 3.254675951737792672e-02 -7.924121085786076102e-02 9.385358038481839138e-03 2.778391677332844520e-02 1.783725846708875129e-02 2.318039223244178215e-02 1.058985750896553613e-01 -9.376001314613437859e-03 -3.645547932479144965e-02 -2.289959724059552684e-02 -3.504670653021322874e-03 8.951668900729731551e-03 3.726650692446488444e-02 5.233841415077240128e-02 -4.078834345675756701e-02 5.528022716184029933e-02 -1.054552578396324679e-02 -1.215041005871782265e-02 5.288823517637183773e-03 -6.482788034227557339e-02 -7.793139996446926676e-02 2.269746547815943219e-02 -4.527872937687411892e-02 -4.028241366835668552e-02 2.316159664896376424e-02 -4.991836149992054383e-02 -5.306251380831589898e-02 3.512031329832090119e-03 -5.882833742654441922e-02 -2.192282939741899833e-02 7.099714346751258287e-02 -2.465449445518918745e-02 -4.490696330743613324e-02 -7.597027959237263872e-02 2.493437607556464250e-02 -3.124973724631617891e-02 -8.590991559795267685e-02 3.065087748281864269e-02 -1.753651393149928406e-02 2.602404057273898647e-02 -2.272773924088411848e-02 3.978852983057515336e-03 1.672991133427093741e-02 2.316523506433061999e-02 6.200290060431667277e-02 2.588605370313062232e-02 2.244756458602554378e-02 5.256466404643261869e-02 -1.077535818361109905e-02 -1.195740440620528776e-02 -1.218205860353558691e-02 9.232239024025376550e-02 7.730880682995944220e-02 5.770181886658250388e-03 -2.743376563910164285e-03 -1.567229538510761869e-02 -1.078885712167960281e-02 -8.920620830169970206e-02 4.622846403310516133e-02 -1.159394031119231026e-02 1.229984475704893297e-02 5.061608461332849085e-02 1.424460114984983823e-02
5.879236257752660936e-04 -2.811417999312611476e-03 4.542197987870080778e-02 -7.213277214268713766e-02 6.496225527490728791e-02 -2.066113862110448285e-02 -3.221801594889125986e-02 5.471391597684160772e-03 -1.989016051914507116e-02 1.632289487754513824e-02 -1.776006753427669324e-02 5.008076196664817958e-02 -8.785588263914748119e-02 1.658615519560955513e-04 -2.696963588200721341e-03 3.217907186048529766e-02 1.557210881684865378e-01 -6.757173016350168614e-03 -4.373672207279456770e-02 3.277376324315741524e-02 -2.483736500111814217e-03 -7.711325608871144599e-02 2.583421507957768537e-02 1.046955397682112522e-02 -5.488738769065194117e-02 4.460250356348239437e-02 4.570456430755554141e-03 -5.608582111185020369e-02 -5.538842099015453546e-02 -3.269170138651686375e-02 1.521568974741803644e-02 4.011264828865036824e-02 -1.438672637804422338e-02 5.119127960144510131e-03 -2.455034820273329851e-02 -1.315466099454587201e-01 -2.405840741990707826e-02 -5.166733884075855321e-02 7.779271870000409317e-02 1.965131772779436445e-02 -7.728970104218834021e-03 -2.257946566948416944e-02 3.166509417230147644e-02 -9.168982545721029997e-03 -1.415044323838033635e-01 5.196429351121086698e-02 2.062892102529608612e-02 -5.804290309816060450e-02 -4.904243595754759731e-03 2.937551366179909362e-02 -6.013144385104547684e-02 4.151343520038738855e-02 -1.541739115023463280e-03 -7.068369322330457158e-03 -1.219745644814356766e-01 -1.045593835167181462e-01 -1.446346490277885914e-02 4.087198404860124118e-02 -2.469716016278987111e-02 -8.715971344130539478e-02 4.992900619735694823e-02 1.056608246145060784e-02 1.863522020715125890e-02 -2.044407521800511909e-03 -8.052715721818540229e-02 -1.592120415935141253e-01 -9.254630201620124563e-02 2.819831524169345849e-02 1.764416031053752665e-01 -5.509090033448850801e-03 5.302464944944226821e-03 -1.572297184902940459e-01 -8.929079551607866511e-03 -9.486221798749210066e-02 -2.899517176225788542e-02 -2.888667936920310403e-02 -2.439270927867498787e-02 -1.511048183474497653e-02 3.589571051132351125e-03 -1.258498550073579823e-02 1.146500525455839692e-01 5.289633299239387791e-03 1.079411103413305956e-01 -3.406450366594291485e-02 2.003157398689006316e-02 -6.464800381604225363e-03 1.548735298616215825e-02 2.383326147594961100e-02 -1.425215565283806385e-02 -1.189376422255110019e-03 -4.496580643393394833e-02 -1.835144817108224843e-02 4.748778834524124137e-02 -5.472216772722800909e-03 -9.147982871846279881e-03 -9.422152509645488616e-03 3.589811324829816214e-02 -4.294425289133688844e-02 -2.796835937215755991e-02 -3.287820851259329324e-02 6.627685839499733965e-03 -1.287784913352191529e-01 -6.247178103256737641e-02 8.943947175586695886e-02 -7.247981953520894749e-02 5.962962642408040775e-02 8.149405295420555917e-02 1.744338271742594797e-03 -3.321670848363259682e-02 2.316937835519631075e-02 3.424139623442309238e-02 1.589455955214897145e-02 6.724131166729283016e-02 -1.742395944009922371e-02 3.103087048307004436e-02 5.108879421485022776e-02 -1.095519552756566047e-02 8.722531111731768316e-03 5.319509499570717476e-02 -7.272956758047498249e-02 -9.910721959321922014e-02 9.031395811245929162e-02 2.071917131787984548e-02 2.519830727955814365e-02 -2.871791857678555535e-02 3.268547403060546169e-02 -2.531096783394692212e-02 4.303219716169518622e-02
