-1.496063714417252000e-01 -1.806027031997172461e-01 6.969301678489975282e-02 1.025496983348683777e-01 -2.142024640905047794e-01 -1.970183564448851343e-01 1.768129932679487482e-01 -1.440139799672729426e-01 8.503269178077782486e-02 1.297705269836108288e-01 1.246939995351720454e-01 -5.518292984885964786e-02 -1.772369259382144402e-01 7.590472190345823322e-02 1.625315671061995648e-01 1.100569701497564057e-01 -1.474589067819916111e-01 -3.835585918352810153e-02 -2.785855896634132495e-02 5.092415199634633960e-02 -1.241152961533804749e-01 1.985680982966253061e-01 -1.014914119591734387e-01 3.568712926936092739e-02 6.944625911763121877e-03
-8.996896678207949583e-02 -8.093595676682852069e-02 -2.059535932523785459e-02 -2.854788671438544534e-01 -1.010332271588228054e-01 8.573349042616024152e-02 -4.958444989062569391e-02 1.361490998219635207e-01 -7.311668576257029928e-02 -4.630392992442518008e-01 -2.914893925706462663e-01 -1.710733924197198330e-01 -5.433379164210989237e-02 2.685695858542024306e-01 -3.125412743219682654e-01 -6.437276104387469611e-02 -1.197677478504892423e-01 1.866876624782618788e-01 -2.535410414239518823e-02 -3.199983258525779251e-02 -6.754344086890348708e-02 5.014169623495984968e-02 1.073973350926869796e-01 6.577129102969225816e-02 1.305064157502439370e-01
-1.042276972261166335e-02 -2.000920508325131075e-02 -4.420837247660843600e-02 4.874196270907315415e-02 7.038494357192238982e-02 -5.678253507885283602e-02 -2.475571963780210383e-01 -6.899200476848035835e-02 -1.324099867415894638e-01 5.142166688649311146e-01 -6.761810151195654095e-01 1.642811668125353231e-01 -1.127945498395037799e-01 -3.514374034949287462e-01 -1.505135551861771226e-01 2.424821683859359478e-01 -1.074003688791846378e-01 -5.652495751039225969e-01 -3.876527021669296524e-01 -1.139184593075258378e-01 -1.893247329594281991e-01 -1.302377161849373743e-01 -1.436783660065840962e-01 2.065903016114322976e-01 4.855086981528725643e-01
-9.007858403535186700e-03 -9.689109464495937810e-03 -4.444017799311748146e-02 4.266349355095811618e-02 1.933800031182803525e-01 2.242529320739046206e-01 2.651076896154102580e-01 1.395830680343168040e-01 1.207538080840617201e-01 3.130776529878956382e-02 5.170884171360862203e-02 -2.171185839772909743e-01 1.422818421286576318e-01 1.469382659484846053e-02 1.925038652420575924e-01 2.342697419174406270e-01 -1.246585850691535186e-01 -2.904522321652875938e-01 -2.191835841466951429e-01 -4.124784165159735977e-02 -2.368974676614568342e-01 -8.053018878572111572e-02 -3.447579614073332799e-01 -3.739930054154563810e-02 8.558699006629362505e-02
-3.051287778947576329e-02 -1.747884482726963853e-02 -2.161775671029307067e-01 -8.314940254942636277e-02 -1.947723902046845923e-01 5.676287753277111520e-02 -1.079080011060105371e-01 -1.225299977365435916e-01 -2.437180690009779771e-01 5.537756143147742199e-02 -1.636584116274381606e-01 1.284342468559785122e-01 -6.332721003104628543e-02 4.912445778292743280e-03 -1.103830350493441720e-01 -8.647530739789210941e-02 -1.432168006303120578e-01 2.156173117179997212e-01 -1.882285951199413540e-02 1.870203172029916983e-01 1.872774183369614875e-01 -1.014330643276119409e-01 1.655618052412761824e-03 -8.054412629068037621e-02 5.066696887973159980e-02
-2.006426007446317564e-02 -1.044521225309234386e-01 -6.324928241627218728e-02 6.242932263472676917e-04 3.163204698800118481e-02 -8.123023982642486873e-02 -8.772113301459368018e-02 2.370406548636296712e-02 1.606234220693021283e-02 1.449033628150933617e-01 -2.757643806704269118e-01 -1.336163767606628749e-01 4.612143207393417654e-01 2.647875270903923134e-02 -2.823345553100571961e-02 -4.840474285494212464e-02 -5.970442442706996866e-02 -3.506178176075921971e-01 -6.549292919908447641e-02 -3.568171957221835666e-02 -2.825069110841043063e-01 -2.162642076796038593e-01 -9.706883259018504739e-02 1.091981162658845067e-01 6.675651436638475877e-02
-4.742916504635107805e-03 -5.231378180193368976e-02 -1.436372360850506624e-01 -2.684615105170908012e-03 3.762043469186703848e-01 -1.492803955079916034e-01 5.659323496655817298e-02 2.777061928752925790e-01 1.607125333657906385e-01 -6.709039797104618397e-02 3.662259080823691143e-02 -1.636519362464519678e-01 1.564230056247791802e-03 -2.648838138861973057e-01 1.094595855881741464e-01 -2.715726440495075944e-01 -7.519659988031947295e-02 4.275801716452277967e-02 4.347894991649737390e-02 1.579889414964028016e-01 -4.588656232017566602e-03 -2.618830346879851279e-01 2.717385859124701181e-02 1.893543498203490438e-01 1.510056523506793646e-01
5.153606242982269187e-02 4.887657088995316090e-02 -1.882616834754880508e-01 -4.273644499260721014e-02 1.419785819897546320e-01 3.361298618051878906e-01 -1.267548572992731604e-01 4.608855222686781411e-02 -1.208945778810703864e-01 -4.164527575886168287e-01 -2.104352918798362698e-02 3.557751188690989608e-01 -1.136135793731779670e-01 -1.001741078437475702e-02 -3.596807442612619254e-02 -2.960576535646969876e-01 6.702844652135117598e-02 2.474600079518336215e-01 2.210764332117904629e-01 -7.534649005669402481e-03 -1.200952332567374603e-01 2.962740922680435207e-01 3.246467659041255560e-01 6.236245522425450105e-02 3.770043260190088924e-02
6.764220120799219194e-03 9.890485284022391965e-02 -7.708799292325677066e-02 8.779983040183811371e-02 1.820284966471482626e-03 1.713224239946318506e-01 -2.966466449110258252e-01 1.519421942373148926e-01 2.060844113390045418e-01 -1.649985712000194837e-01 6.410509283080384479e-02 -4.974846259167310658e-02 1.906801654445150485e-02 7.286948594904536780e-03 2.383973469785020116e-01 8.167810679402183471e-02 3.867841880502884133e-02 2.892706244826519502e-01 2.875255222285273971e-01 1.437801755707297791e-01 5.259620417670730907e-02 2.085823968156319194e-02 -3.210935739689926849e-01 2.084864925170049066e-02 -2.367608105645031269e-01
-1.059479027929642880e-01 -3.223449734581999154e-02 -2.040344514739180493e-01 8.812686776766512353e-03 -1.401943418000417829e-01 -6.689895065290578369e-02 -8.233306486840437366e-02 -9.718494882342468277e-02 6.004303842696025184e-02 -2.016070922774653995e-01 1.211472839995219042e-01 4.339849076303293335e-02 1.498869399071814934e-01 -2.023026645152231351e-01 -9.579651532882459131e-02 2.960381985679920447e-02 1.126440698563272863e-01 -1.653672371915526351e-01 -4.441685316363442465e-02 1.719236507590489182e-01 1.888256758379389388e-01 7.338944379596330780e-02 1.628567066517373416e-02 -5.277458810500896408e-02 1.542299767193204274e-01
6.327674407535553193e-03 2.065375979238199405e-02 -3.854579111871991176e-02 7.424761229516824157e-03 5.913128290064315062e-02 4.252352648794394813e-02 -2.113026008667955868e-01 5.003785827746456277e-02 -2.241450644325979347e-01 8.365288398133186032e-02 -3.697124274479559047e-01 4.581767908960562678e-03 3.546950324616436612e-02 -9.211830311249380454e-02 4.467360768670475268e-01 -3.642584597683565240e-01 -2.476485630449898889e-01 -4.114280802302046069e-01 -9.855562727539333989e-02 1.890058386743579399e-01 -3.583481736917250304e-02 5.607944109273556299e-02 -2.489396719600070751e-01 -1.157659505272502776e-01 3.568666219103703852e-01
2.186715012027588487e-02 2.337906302121808139e-02 2.198965556749960804e-01 8.141716738390918084e-03 -2.154862124374651855e-01 1.289863130221066134e-01 1.269486287678069369e-01 -9.333284167103435280e-02 -1.031835944963743062e-01 -1.498269652713277444e-01 -1.083901085969154188e-01 1.163447292144472872e-01 -5.210922993507563494e-02 -3.223926181786949674e-01 -1.366688677708608468e-01 -1.100729116275605962e-01 2.336373997357835738e-03 1.072051049217679214e-01 -2.037718763348871087e-01 3.253257275790418790e-01 -2.381111748466293310e-01 -2.009897398938470248e-01 -2.390875751197692189e-02 3.091882012803887081e-01 -2.927437341362473799e-01
-7.737887028700395076e-02 2.830036341226701418e-02 -2.459084780014403060e-01 1.029944807188295230e-01 -5.709077549812469066e-02 4.797375760918893423e-02 1.683675981808359368e-01 -1.040231931484217193e-01 3.494525777910404557e-02 2.981725952602163818e-02 -1.236797430621063981e-01 3.996253796777327755e-02 -9.843393309577622152e-02 1.453155579055473712e-01 2.988125120825942463e-02 9.985433024033192606e-02 1.113356749063224294e-01 -1.042085228787692497e-01 -3.130327130646366474e-01 3.003738569422061966e-01 8.416230355603447968e-03 5.287128563728847597e-02 -1.026229792801525292e-01 1.048380351040146957e-01 -3.046099598105675987e-01
1.147345508231074063e-01 -4.441359205799874643e-02 -5.058078231556389914e-02 5.625857443607828329e-02 1.722599950597055174e-01 6.390765789851271701e-03 1.240040351216177145e-01 -1.263072619560732246e-01 9.381118538417842351e-03 -8.930421110404312968e-02 -8.689966574965100887e-02 1.175046402862068157e-01 -1.417120789560814553e-01 -8.422518476430863876e-02 1.360037370871695211e-02 1.217786654308611882e-01 -1.061587257700072756e-01 1.682014342179529998e-01 5.335832804712504346e-02 -1.781653180439838891e-01 1.228520376418685278e-01 -1.418164939530975645e-02 1.587323920589710224e-01 -1.059128106085406862e-01 -1.526257621379878693e-01
6.266676085211542180e-02 -3.918644605224560346e-02 -1.673900544495867670e-01 -8.973658963116085130e-02 1.011906670997573116e-01 -4.376432116474501116e-02 6.677534493884443312e-02 -9.717619691348210187e-02 -2.068732259390769768e-01 4.485691603667329441e-01 2.842210942360398063e-01 -1.929481247189220594e-01 1.927498975935088565e-01 1.053127393562229702e-01 -8.543454748918737074e-02 -1.146047823467994525e-01 -9.064315746039815214e-02 5.552031759639194930e-02 -9.707203711772799393e-02 4.286650039696213166e-02 2.773673508985492753e-02 -2.091691549820950402e-01 -1.304865489634653986e-01 -4.284229517238326290e-02 -1.818600947586764827e-01
-4.093500052243106424e-01 5.515636692925673934e-01 -1.529591707267763945e-01 -4.122449217800755461e-01 2.674918571954517099e-01 -1.291761054405331510e-01 2.710362436131807939e-01 -8.494486644082971383e-02 -1.982040786311554392e-01 -5.797785650308123068e-02 5.824492709255937178e-02 1.923757447004536408e-02 -2.571466495682242850e-02 8.207986353421187209e-02 1.480835276453036087e-01 -1.127972226210522261e-01 1.323919566900647569e-02 2.741962482691100433e-01 -1.425779966999450588e-01 -2.700507282035506662e-02 -1.680230839797144105e-01 2.154033901169482776e-02 -7.517636498471594320e-02 -1.606364122716089429e-02 -1.881912882491891884e-02
4.753595158925544295e-02 -6.400382169772513008e-02 -6.509409869635950086e-02 1.283999323757279154e-01 2.353019947405480816e-01 -1.438587540318501667e-01 2.363224281135275495e-01 4.187238476729247122e-02 -1.838114447577911606e-02 3.379086295742867591e-02 -2.843458587699395079e-01 -2.519149642415618451e-01 1.377974057361969207e-01 -2.597665475509548100e-02 4.179705660770227094e-01 6.566170590026071396e-02 1.627154443316208496e-02 -1.813270081534937017e-01 -6.665604159976051823e-02 -3.143184231239507399e-03 -1.310903595181622805e-01 2.436736155237908541e-01 4.554972132408877106e-02 -2.117391932622506856e-01 -4.870264933470411922e-02
-4.640966137314686546e-02 -5.909495236388517120e-02 -3.303558782755026957e-02 -2.700767181683284487e-02 2.207593752545343457e-01 -1.905483659236209548e-02 -5.043504903680182637e-03 2.281230743776757608e-01 -6.134089564670735378e-02 -5.766592002700129255e-02 -2.459234570607313763e-01 -1.094945574494749808e-02 -1.408306171076324220e-01 -2.808789855761200660e-01 -1.032026247271916608e-01 9.527556788971729140e-02 1.752208394432229199e-01 -1.340782033022037967e-01 8.913665097201288467e-02 1.202929234812568776e-01 -3.108333243360571901e-02 9.506938319044742902e-02 -1.400835992230297922e-01 2.297756219166374458e-01 -1.968508089623188101e-02
1.704895413966175943e-01 7.390510220652907192e-02 -1.763873239667153037e-01 -9.458516882856898844e-02 1.364050402056050659e-01 -2.079138871633644803e-01 2.307557474592078772e-01 1.213094237305884227e-01 1.153307867613403981e-01 -1.016878482745832771e-02 -3.173132252816036614e-01 8.871202615005389924e-02 2.405395596616132503e-01 8.242604683100941687e-02 -5.615572629649284025e-02 2.044289342816257848e-01 3.094290357965284732e-01 -2.581059337594316938e-01 -7.682783918298663473e-02 -4.775564317818669496e-02 1.247144761869391954e-03 -2.485130483405665058e-01 1.962892955987947108e-01 -7.794618685599874475e-02 -1.764028834472357865e-01
-1.033491046876999914e-01 -1.323041893329230181e-02 -6.373209456185195687e-02 -3.490099930451360469e-03 5.008265707450931803e-02 -2.307001262443864886e-01 3.126199667766296764e-02 1.157175806071271684e-01 3.353593788372678103e-02 -2.363227581091456864e-01 1.535391623164876207e-01 -1.534218464894163136e-01 1.172168049049411714e-01 -3.974315215398782630e-02 -1.058503604729995745e-01 1.562198304763841028e-01 -2.316265993713730598e-01 -1.207989902789301517e-01 -1.794234731891998225e-01 -5.562950531357661182e-02 1.304860481272738515e-01 -1.155532830207959827e-01 -1.555570730978439453e-01 -1.912184110058282316e-01 1.219933853237553240e-01
2.688130443055841701e-02 -1.782398487552613181e-02 1.332779442063411479e-01 1.358869474961623032e-02 6.670127899640036773e-02 2.978090908790920199e-01 -3.037490251093849167e-02 -1.042463138756643676e-01 1.122608344165988148e-01 7.587616684369481723e-02 1.044509441529979099e-01 2.153981095625896180e-01 1.367905481102364706e-01 2.060186222368566300e-01 -7.733059178545728662e-02 -1.081815729395050052e-01 -2.402520704209545888e-01 -4.334980229806254665e-02 8.390618335432808994e-02 -7.663216923084845145e-02 -7.221182368877725188e-02 8.356188078662503405e-02 -2.592725732197650318e-02 5.829222826827654830e-02 1.567172411693520950e-01
-7.446193418424514043e-02 -5.901421899550302747e-02 9.421388817298925744e-02 -7.653862312158861425e-02 8.749236300366565466e-02 8.080431452102726508e-02 -1.489015020797892774e-01 3.474011644960126738e-02 -1.819029673658129898e-01 1.701049691097547834e-01 1.929400892136774182e-01 -3.225242889425058469e-03 7.196292755626398918e-02 -4.547149947409304116e-01 -9.177680798768575454e-02 1.647041882949985270e-01 2.853442058464462083e-01 4.598736905431264482e-02 -1.572129754849797556e-01 -2.890089833921724582e-01 -5.275549441457822591e-02 -3.521055754290330908e-01 -3.723974646712874259e-02 -7.013318786648237158e-02 -1.116551536608008377e-01
-1.232560499814331842e-02 -1.660140909345298593e-02 1.212275846653949191e-02 -2.142871572269757982e-02 -6.275873009155536961e-03 -2.570283907008166779e-01 1.568802055963080255e-01 -2.902976855515854715e-01 4.478666326564541278e-02 -4.754904903106706160e-02 -5.750356350056501364e-01 -4.983076421021849778e-01 -6.466636376115481206e-03 -4.900545202305529868e-02 3.296448131644714175e-01 -1.518408365883549271e-01 -2.059161778073693994e-01 -3.540460636532422739e-02 -1.508931480492276545e-01 -2.160921188370508728e-01 -1.015970296903439263e-01 3.397277705057141078e-02 6.140754525557051875e-03 6.702896591154426653e-02 -3.047373167728472960e-03
-2.882083942392715467e-02 -9.201151561654929978e-02 2.870245622229834065e-02 9.894268890839950925e-02 -9.390131710072248394e-02 -2.227259867368220625e-01 3.665528806629917979e-01 -1.300456843678346186e-01 1.860358352336938526e-01 -5.375848133822505592e-02 -8.427141951130495690e-02 -8.637105140613605958e-02 -7.254567748474270716e-02 3.076786120517474576e-01 -4.232888922108823948e-02 1.810270685769059876e-02 1.975420147387674241e-01 -1.292998260711867575e-01 -2.359651164370909493e-01 -1.280609163184045218e-01 6.590489624507590849e-02 1.038052788662515921e-02 -1.577266976909200147e-01 1.355475115995029983e-02 -2.210603547005126068e-01
3.709801908398487058e-02 2.059838618253921963e-02 -3.347328711258502898e-02 -1.798496385191972469e-01 1.168667390777232279e-01 -4.529877959850632518e-02 -9.725658311864998629e-02 2.787245077828799378e-01 -2.913909997553025266e-01 2.790745376641310879e-02 1.245916887283146507e-01 -4.324866121220041076e-03 2.776451206305979164e-02 1.838410589895725367e-01 -5.547942095942953733e-02 6.360164091014267919e-03 -7.699594640566845283e-02 -7.839505318417089308e-02 5.536646884533848872e-02 1.180054698477532443e-01 -2.042233245342732761e-01 -1.441918739990862286e-01 -2.600313054638276888e-01 -1.062350224330716186e-01 -6.317560666243937639e-02
-2.777003890945985431e-01 -3.859682056144101425e-01 2.136537907875613648e-03 2.294993753328630759e-01 -5.443567964650414953e-02 -2.674031795150586532e-01 -5.004355317555076593e-02 8.335361580721627195e-02 2.065944071629801926e-01 1.022151833262630038e-01 1.913434606745871291e-01 1.768485446263584338e-01 -1.245217127441154981e-01 -1.293101220984178568e-01 -1.053822490904070784e-02 6.650983112632477545e-02 -5.471809585555115901e-02 -3.056561504212694860e-02 -1.427249188507782041e-01 1.673763900228534759e-02 -9.430654490408714452e-02 -1.210800969412289402e-02 -6.198902119053315701e-02 3.000918372299856696e-01 8.330628735212360081e-02
-8.559782538690417081e-03 -9.950265856010893917e-02 -4.917531369218575837e-02 8.469771308002843613e-02 -4.972697591954909624e-02 -5.474816204149837023e-02 -4.199955632314381626e-01 -1.677942019849269772e-01 -2.017100311497901366e-01 -1.049916572411799393e-01 4.544142469846377402e-02 -1.622691529414525824e-01 5.027436475413048916e-03 -1.173869906854340533e-01 -3.438063587526465903e-02 2.796464614872193888e-01 -2.308203941580510565e-01 1.168607957681119108e-01 6.771075724402488005e-02 3.380704255448764572e-02 -2.060159605863976992e-02 8.183618670889157565e-02 1.176038691192705793e-01 6.553160436040286752e-02 -3.302024184606749402e-01
-3.196353064635883146e-02 -3.358140235550396285e-02 -3.333548089586554908e-02 -7.956110819560882619e-02 1.067304168526667374e-01 1.296929182773025879e-01 1.505273574554651973e-02 -3.568773748155835979e-02 -7.959395310731944007e-02 5.734483860278587197e-02 -5.111843011936539026e-03 7.107978998605326074e-03 -6.287585172116567922e-02 2.450695518003674356e-01 1.023115213735515672e-01 7.538687137367501350e-04 1.700329177858359575e-01 -8.794879433125116219e-02 -6.876187143863203566e-02 3.369589975400006376e-01 2.051685684884129723e-01 1.516511301679275558e-01 -5.854340549181675374e-03 9.303389814988170803e-02 1.029964561790776001e-01
-1.938350874196823059e-02 -1.809705976476432276e-01 8.911116966942869699e-02 -2.383685367011338097e-01 -2.001365351043977170e-01 -2.789186587112666427e-01 9.483135871805133121e-02 4.226125516097287149e-03 -1.620139352287520984e-01 1.008164197616160662e-01 4.056527675528810023e-02 -1.377925400453757498e-01 -1.037897989856347188e-02 -1.623564379448319550e-01 1.322481577086459248e-01 -9.997160208316963059e-02 8.397650132678947943e-02 -2.763734163253485088e-01 9.146450715271046972e-02 1.530509201202631120e-01 -5.242463550557008994e-02 -8.699273688982815667e-02 6.280451614278882710e-02 -2.476143837690604199e-01 -2.300911153637405226e-01
-1.204733790169053298e-01 -1.249353790416816573e-01 -1.686852978154547433e-01 -1.212670865267934384e-01 2.340436922261506514e-01 -3.025470846149195571e-03 -1.030961377765378106e-01 -1.551794251662689805e-01 2.239615015681459542e-01 -7.810739990169213165e-02 9.879791851220139087e-02 -1.952862460950116064e-01 -2.159773639466690820e-01 2.636219485669895682e-02 -1.487802453360818344e-01 1.136703329415954394e-01 6.842702117240452575e-02 -1.402545265690235132e-01 -2.296752114598148709e-01 1.364995382448447314e-01 -3.188838442535447681e-01 -1.549910687684334931e-01 1.833751032844887774e-01 1.368688837652846102e-01 2.767344798498682645e-01
-4.817554829905285052e-02 3.873249723065368133e-02 1.680270519903358239e-01 -2.632893384613126109e-02 3.228585101348339925e-02 1.303766786067076799e-01 1.488742488257615570e-01 -6.980940083296401089e-02 9.034773497607057058e-02 4.065278945303942709e-02 3.944222975380252266e-02 3.975063033274701257e-02 1.398798942711773630e-01 1.274032998406027517e-01 1.827241631689081325e-01 -2.345867390874660507e-01 -1.775948800794789895e-01 -4.285150286391707641e-02 -1.306679981412562364e-01 -1.386769465836380777e-01 4.812506476945580675e-02 -2.222463396636729649e-01 7.603644248751723067e-02 -2.826262274860197668e-02 1.816496753063003566e-01
-9.609268879096263816e-02 -4.626608020166868285e-02 -7.980823920976657521e-03 -1.209292787804052693e-01 -1.095955918544276320e-01 -1.046894108483684277e-01 -4.039415507482307238e-02 -4.322602069900070842e-02 3.795678550700139486e-01 2.980965985256973094e-01 8.979483800845383668e-02 -2.474393669956359842e-01 2.074362412094994113e-01 4.627920341414566013e-02 3.090304594928587265e-02 -7.369160815834117917e-02 2.792691127863121750e-02 5.916572847281779263e-02 2.090077142092914841e-01 -2.221091068315667327e-01 3.192498227102454345e-01 1.711735242214641184e-01 -4.234317154575019393e-02 1.920603767905042572e-02 2.646201553011642282e-01
5.330728658051370888e-02 1.018816126506635750e-01 -5.063120707965658440e-02 -9.558295995997417860e-02 -4.601020414381846169e-01 -1.159459041200838619e-01 -3.387375968678856819e-01 -1.011640073303542858e-01 -2.093310019267656183e-02 1.971879637950844089e-01 2.359301362210545483e-01 -1.487709943629840770e-01 1.951382720521541436e-01 3.149133491825379383e-01 1.059343286939084389e-01 6.289524263680591754e-02 1.417384327160400026e-01 5.626368279468164230e-02 -1.193779821278108944e-01 1.417483381406921261e-01 -6.981346296392344775e-02 3.244714616311569766e-01 -1.604856693837239112e-01 3.550603780645151218e-03 -3.596430229918428090e-01
3.518530118398183887e-02 -2.829593585854912148e-04 1.509567960121719066e-01 -3.553117766703434710e-01 1.974544212011510869e-01 -9.538013761688880765e-02 4.882182578768162057e-02 8.953263583625650779e-02 1.655255458653172307e-01 7.083656298538133778e-02 -5.501661924877002119e-02 -2.035945798841709846e-04 9.611676884372789831e-03 7.577009986895308358e-02 1.140124899191207186e-01 1.120409347983946785e-01 -8.800991638627353453e-02 1.009463817773491728e-01 1.365602570782331326e-01 -4.997038639257592174e-02 2.181280445031128293e-02 1.197389029901975016e-01 7.381794097445543157e-02 -1.211290855246170695e-01 -1.606669834683819020e-01
-1.441247990578192473e-01 -2.125623016353512737e-02 2.260970737155542643e-01 3.537920115206501515e-01 -5.645313422853329849e-02 3.220115198833248260e-02 -4.322768428972083993e-02 -1.825435088324436905e-01 -1.464632413502167940e-01 -1.114345993862438794e-01 1.702146285635119938e-01 7.230139781915621844e-02 -1.431004850691771912e-01 6.670139165342504894e-02 -8.909728355404447631e-03 9.626869437213750325e-02 -2.166895452673236744e-01 -1.230871660570121984e-01 -1.007079436853149518e-01 -1.577016685083420522e-01 -2.052317367718720087e-01 -8.528949271610597460e-02 8.203635358230172703e-02 1.426013995512696690e-02 1.587563149486593064e-02
9.331077409827480407e-02 4.107683944320628631e-03 -2.078753847227370888e-01 -1.857928617973151064e-01 1.289936500249320717e-01 2.644472241845772231e-01 -2.528723947562759936e-02 3.160407117565970925e-01 6.736737031524037134e-02 -1.580534833996513899e-01 -1.647715513622920180e-01 -1.671963452838305109e-01 -1.446054671758040255e-02 -7.235949578208783484e-02 -1.811685414144233452e-01 2.460697749487785468e-01 -2.221035881163621259e-02 5.069906013426560276e-02 8.170920257720129531e-02 1.378723144610209672e-01 1.021373639720678517e-01 -1.350259278802708740e-01 1.607439038512948337e-01 1.440452282120084360e-01 2.015218561032463551e-01
-5.828506501007350155e-02 1.236577042615555205e-01 1.929110456822814013e-01 5.875247420273219112e-02 1.057717458778374559e-01 -4.821086203989161795e-02 5.182723786527497489e-02 -1.426148916666758470e-01 -1.963910456372059132e-01 -1.593807925619611654e-01 -1.437498883136646977e-01 2.918807108679763451e-01 1.035742418727235957e-02 9.299706734522879270e-02 -1.021641671196664436e-01 -1.900687674603162847e-01 -2.390017125609950610e-01 -1.349934513770961186e-01 -3.294184377658668922e-02 -5.538147831143377942e-02 -6.650535211743692499e-02 -3.258414823630910451e-02 -9.841195300123682654e-02 -6.727742619735756213e-02 -5.669938469171032641e-02
-9.394007078031756108e-02 -1.151534988656731512e-01 6.327181301945467018e-02 -9.135060815190530759e-02 1.551229417165208013e-01 1.481349503569183990e-01 -2.452933039313975605e-01 7.066384276049804403e-02 1.162055814098480744e-01 1.691030869823804406e-01 -2.609161824979325250e-01 1.985692616900389673e-01 -3.988545755326206553e-03 -2.424399568210630629e-02 -1.644043642935054950e-01 -1.349228220643848286e-01 2.109876121705005769e-01 1.431478252455509470e-01 6.419505763303376411e-02 -6.608614431587214733e-02 9.740810368274580022e-02 1.897888341700594839e-01 3.600356399229864279e-01 -3.492763821180244199e-01 -1.629463138964180047e-01
-4.633640243866803121e-03 -2.216758651991723728e-01 -2.492371953924535088e-01 -4.789777052013376862e-02 -8.349907854133274687e-02 -1.375278206005296419e-02 -8.593868793551061314e-02 -2.044332165478799090e-01 5.706462640434464828e-03 2.832039514656812251e-01 7.672877932084547214e-02 1.583073477523022979e-02 5.272680453025208741e-02 -7.664918583993714229e-02 5.359775801056703565e-02 -2.395918630853456355e-01 1.999708051019625787e-01 8.634696714383992278e-02 -7.844350437687880317e-02 4.902665510944888283e-02 -5.382270265999499620e-02 8.642689832642340420e-02 -3.478123959646309965e-02 -1.876874809758963814e-01 1.074209931036596982e-01
-4.874294684894742158e-02 4.820399648646771229e-02 -3.516953922849506975e-02 -7.113352958369278944e-02 1.317565700206600092e-03 6.037807433035357468e-02 3.695359513843025218e-02 -1.186712256735809323e-01 1.618193791363919387e-01 3.290972656258110002e-02 1.765011516937902702e-01 -8.553544529969438204e-02 -1.471285486606632720e-01 1.629077341192847195e-01 5.229032637857080612e-01 2.067756639293122090e-01 2.058169302861280470e-01 -9.035755288627365933e-02 3.092667529488474232e-01 -1.481196056960786163e-02 1.233038884641526334e-01 8.613906751406159856e-02 6.219964741898605098e-02 3.631096730260291450e-02 -4.575334601419305675e-02
3.127788740961540657e-03 -5.629703387232792150e-02 -5.267502990679824582e-02 -8.648769089886780559e-02 -7.650644494190991796e-02 -1.447464894012704534e-02 -2.728019151800653019e-01 4.507627496133025102e-02 5.718895761953059209e-02 1.360917452178641018e-01 1.337247915730508940e-01 -4.559133733714321873e-02 1.578605561636745591e-01 -2.717888658939499602e-01 4.081558680299556680e-02 -2.044382316772945796e-01 -1.819489751909277378e-02 1.524598140611998776e-01 -1.534230681691204634e-01 -9.834844775001938544e-02 -3.001635761736993202e-01 -1.379239824626140587e-01 2.425098858112890998e-01 2.571510161613552170e-01 -2.700752141309540333e-01
-1.373052394421653104e-02 7.983060391201028672e-02 -2.897991865328653285e-02 5.382586096526554426e-02 3.938110640340480167e-02 2.503203240244950001e-01 -2.025514010883386617e-01 7.672555943460512839e-02 4.129682025287094438e-03 -5.674584369626485547e-02 1.361424218997523694e-01 8.247615361626779718e-02 -5.394225384795381384e-02 -5.445415345647111605e-02 -8.695901379352100058e-02 -1.340124666723839231e-01 -9.964917926657519687e-02 -4.160722208320425525e-02 -6.093796107368695814e-02 -2.590077606817722256e-01 -2.651202890424153580e-01 -5.417583895278552109e-02 -1.066245375000381274e-01 -2.094582704589806332e-01 2.851227161182858794e-01
-4.440569537705192638e-02 7.706017956221443421e-02 -1.243440992205756823e-01 1.058151303388678716e-01 3.171726224256523480e-02 9.533983181659479167e-02 7.727028349508704985e-02 2.096206562992409816e-01 2.480557434814486747e-02 4.916886044361588881e-02 -1.379623230706299719e-01 -1.076537702815825032e-01 2.028950959448910796e-02 -1.099037606714461518e-01 2.172464380513977056e-01 -1.083648771595585314e-01 -2.411501574537777970e-01 -2.137849971173317043e-01 2.195472244622558369e-02 1.292728558690239837e-01 2.300424581951159009e-02 8.354508736310245487e-03 9.973979811597673273e-02 1.546469025067408187e-01 1.676131709835019246e-01
-4.802380452997964677e-02 6.411264648580740355e-02 3.124421337682621869e-01 -1.567286543870573812e-01 -6.073368409882742291e-01 -5.643220122351653156e-01 1.326464316699178976e-02 3.513449900039506968e-01 4.143569830587462421e-01 -3.679364201347004246e-03 -1.923981686266606761e-01 1.619193163102906896e-01 2.443874569328765844e-01 3.753438856012768915e-02 -2.838635722956883711e-01 -1.380680449144540411e-01 3.325616293241108745e-01 1.582909220969229425e-02 -1.110801635314272867e-01 -6.136259111012575679e-02 6.430348533370125463e-02 -4.545936666120175412e-02 -8.981336504668062382e-02 -3.118594679026225405e-02 8.191451318601085385e-02
-5.437283222292017132e-02 -1.020954500992684033e-01 -1.972972725234028724e-01 -6.436342939864887758e-02 1.996351542441503757e-01 -1.794048176307430631e-01 -8.556713452740845327e-02 -2.856496248559617923e-01 1.052136183751259946e-01 -7.511436805960250429e-02 9.801527535659419754e-02 1.355079580714747475e-02 -7.626016658506768429e-03 5.486263837773243390e-02 -1.853432557660641411e-01 -2.260007888246173546e-01 1.163654312015294789e-01 5.049266023370571621e-02 1.271551784665419793e-01 1.443519769722464985e-01 -2.765423083462719700e-01 -1.951529975318264110e-01 -3.770243423308709124e-02 2.041006165144582385e-01 1.066598830911351381e-01
1.979650276190026217e-02 7.768536093272175938e-03 -3.953626203809009615e-02 -2.362239887635050606e-01 6.862341822773986022e-02 -1.365248982451350845e-01 -1.776866638044443947e-01 -2.777243900635877338e-01 -2.040918081999038708e-02 1.438446656446752958e-01 1.978720167178006084e-01 -1.820325960166090662e-01 -4.669578702166611583e-02 6.390040457742160451e-02 -1.804431947033080519e-02 1.273766720226945925e-01 6.024568863065279251e-02 1.071645231636780965e-01 5.345323380799394536e-03 -1.131567817805108067e-01 2.335669026663446946e-01 -2.159164441815183688e-01 1.447424414227740375e-01 2.589052506424055489e-01 1.093477400554613843e-01
2.752101875422970079e-02 -1.179849576140270390e-02 1.805142195619991374e-03 5.362205629850232136e-02 -4.966737544371067209e-02 -1.821437144336031100e-01 -3.725567149516201271e-02 -2.657794612996874362e-01 -2.557302670208124740e-01 2.524181911323390426e-01 -9.232864338968715945e-02 1.456237193106846572e-01 2.882529203738352086e-01 -3.107834162611188278e-01 3.136905840851060834e-01 -1.408016996676457189e-01 -2.078125135425288039e-01 5.385258614739689420e-02 -1.904009064008545249e-01 9.953209263655436734e-02 -2.341896808260285623e-01 1.097032499394964139e-01 -1.368962005319441719e-02 -1.436630990774358796e-01 3.262691436675523859e-01
4.490469051752979390e-02 -6.847216134457154157e-02 -5.557166929641304404e-02 4.526561875828741255e-02 3.040240160181122420e-01 3.200227138310484526e-02 2.816324453568920805e-01 -1.115286380368360197e-01 1.315204934471017051e-01 -1.913991712724537678e-02 9.145666321225133510e-02 5.553432567533008075e-03 1.158149310638640905e-01 2.476686589891526902e-01 -2.261143638916243981e-01 -1.229237771340004892e-01 1.476238572010414307e-01 -2.508553883136127038e-01 -8.336512629641873451e-02 -9.605993252475729383e-02 -3.618733283370628717e-02 -5.595327130411286570e-02 2.856823888027277270e-01 2.637029332825840955e-01 -1.239695838746893569e-01
-3.015896738108704914e-02 2.473049923443501955e-02 -3.742179569098824654e-02 -4.723274527963896435e-02 6.820075196599616196e-02 1.354231242898749632e-01 1.033822322409037875e-02 2.065316485432887872e-01 -1.937409718031836148e-01 -2.970939085640441069e-01 3.815502912006497049e-01 -7.540239726474950999e-02 8.276943658484027522e-02 2.326767580534513102e-01 1.435101743515596884e-01 -2.239470359495601415e-01 3.983493153016418042e-02 -2.442693843130462894e-01 -3.732712753207932943e-01 6.491147749634407216e-02 3.045372168900782259e-02 9.478881321542645400e-02 5.957414354744115792e-02 2.227735509503214473e-01 -2.714851387852263917e-02
-1.560067851663338862e-02 3.379412629952222025e-02 1.031653625215336739e-01 -3.055626606312717222e-02 2.288274173755582563e-01 -1.374008970137224339e-01 -8.935421588846458041e-02 -2.213949672287794657e-01 -2.852348442217768620e-01 -6.334736277501415436e-02 1.474300280088480797e-01 3.624144065123751646e-01 -1.894851065561564962e-01 -2.141358103130527601e-01 -8.004909388268648118e-02 1.229266451409322947e-01 -2.005869270822226436e-01 1.207871656507847058e-01 6.065248771309712100e-02 -3.182289731101229924e-01 -7.408064529460894887e-02 -1.665630897671202815e-01 -2.672258078404193132e-02 2.549332173186625305e-01 -4.104523531911725975e-02
-6.592695809159412196e-03 -4.842147354686963945e-02 7.954399075020421317e-03 1.257528251146009246e-01 8.378553361496010599e-02 6.501822302002573106e-02 -4.239339704476708694e-03 -2.174691490113882519e-01 1.974833322709692307e-01 2.439108869293272197e-01 -1.467258214975272479e-01 -9.102040379430366424e-02 -2.184346574461726864e-01 -2.335937972679033026e-01 -2.169034563599512785e-02 -4.611506333894173082e-01 -2.048585914716156021e-03 2.030877226352781062e-01 6.152737876414518525e-02 1.211098569011538340e-01 4.952042830669792922e-02 2.602587788707402122e-02 -1.257056553703124191e-01 -1.993679123992212268e-02 -2.371923412404891574e-01
-6.282391738625700550e-02 1.359928422335750509e-01 -4.032331965363455950e-02 -3.342435516396131089e-03 1.451389067055204318e-01 2.863982733385194712e-01 1.345253944741787444e-01 2.145486526989304477e-01 7.581073915851114370e-03 -1.965533646439604487e-01 2.204475520037150749e-01 -1.995205878863115234e-01 1.341896329799665000e-01 -7.444445773243145437e-02 -1.531040525556680298e-02 2.380286308391594500e-03 -1.508829029664307542e-01 -1.434140679691318920e-01 1.351233812678583612e-01 -2.602158405609606984e-01 -1.914852234560638911e-01 1.819674147945566922e-01 -1.075845640444452606e-02 1.691319006196183028e-01 2.179059253052096079e-01
2.898512346576351956e-02 1.448441392982561526e-01 5.909382262704567651e-02 -7.511499557008713933e-03 -4.516718275830989421e-02 -3.656926881403697177e-02 9.799854269850774569e-02 6.740329233485062299e-02 3.295511037415017608e-01 -4.306723946927292629e-02 2.124663344226656037e-01 2.040839434801094143e-01 9.888461947383138384e-02 2.749388554211074434e-02 -3.144033344820575393e-01 2.094525113468003186e-01 -2.293153312239555597e-01 -2.520062393801313361e-01 3.696193392070738770e-02 2.117029211662217192e-01 1.831784992456970962e-01 4.428097587516953704e-01 -2.281471400755710477e-01 1.644004684898864310e-01 2.293284912047979796e-01
2.236182261629920953e-02 5.454797526104560729e-02 1.485376737429322247e-01 -1.344481525755868989e-01 -3.723867333964434589e-01 -4.024823335169462613e-02 3.948506343127363150e-01 -3.418506676954511381e-01 1.651843977829128562e-01 -1.887707692183634156e-01 -1.382634960641998534e-01 -3.304091642103338528e-02 2.568493178130597521e-01 2.376021144582317890e-01 2.031899073726605998e-01 -1.272084626640614946e-01 -2.172039750632255850e-01 3.163813650240454023e-01 -1.776379140997910167e-01 2.475440442183347578e-01 -1.063993173617022031e-02 1.874144883352832358e-01 8.104086045659938953e-02 6.281232049289305064e-02 -2.780738216724173810e-03
1.497828065732945690e-01 -3.106593308849171092e-02 1.684396235658033869e-02 -1.017637762389723421e-01 -2.039167304386606538e-01 3.547192997082036087e-02 2.112830340167239085e-01 3.392124180135472900e-01 -3.771255971749022939e-01 2.055285252899993406e-02 5.473624249651606183e-02 -4.429292567872768899e-02 -2.017211066120607743e-01 -1.154970413228050413e-01 -2.927864291469225999e-01 1.978460951001043133e-02 -4.349151533599821359e-05 -9.530353389805354403e-02 -5.479207737929583238e-02 -6.928265691537266457e-02 2.905581702103342268e-02 3.160975291735333426e-01 -2.246938833360773158e-01 -8.063647632168027823e-02 4.544262113869478731e-02
2.814888875260641160e-02 -3.135678393820966192e-02 -1.047667889992196476e-02 -4.768775899393717932e-02 -5.381580012594384954e-02 -3.317178583618839438e-01 -9.881768086284263564e-02 1.055815856482816423e-01 -1.986983578435162490e-01 5.928638830207215438e-02 2.334459285406454143e-01 -4.537593673830887520e-01 -4.109030718360210943e-01 -4.371994314752251087e-01 -1.382296313820757516e-01 1.224285909186012822e-01 1.707697798814235557e-01 -2.053516575095545027e-01 -9.090512143045567650e-02 2.536766935832220349e-01 1.704154662382521279e-01 -1.512196089284232048e-01 -2.161366013074488696e-02 6.529031312545967303e-02 -1.323167958915514586e-01
1.487630478525116609e-02 5.340520719196614058e-02 -7.914287664423015622e-02 5.700303900208550378e-02 -6.862769747499210260e-02 6.828160236779931558e-02 2.075951578834134836e-01 3.282403239665275807e-01 1.617989429247684852e-01 3.394007666894995889e-01 1.932758877857255753e-01 3.190881624978721409e-01 -1.916391171845099328e-01 -1.964682834411974888e-01 -1.081603255280704778e-01 6.641879542942920323e-02 1.215810005396869148e-01 -2.963488561823148237e-01 -1.294669586895836610e-01 -2.098180160336342581e-01 -5.056220638892645197e-02 -8.292861849983726441e-02 1.162397197857419073e-01 1.656633359035141959e-02 4.846624173033739491e-01
-2.141515495448497244e-02 1.141771097675836621e-02 2.241629144194540457e-01 -5.328534476679856052e-02 -2.634309497918834175e-01 -3.292248914017825712e-02 -1.350115127407557070e-01 1.954388432164491304e-02 -1.685456980353871315e-01 4.626341974589405492e-02 -4.700276918952163430e-02 -1.304617526111958858e-01 -7.317746400722979772e-02 1.910252883399957136e-01 4.461755602222020750e-02 -1.070050435749628215e-01 -1.294690691825934881e-01 7.236262777618582623e-03 -2.275721662459398095e-02 -7.575680495467168596e-02 1.973793694292437229e-01 -8.111822996757431237e-02 -1.184752294313421300e-01 -1.704132778623496103e-01 -5.785425440680683901e-02
-9.934395194293682216e-03 -3.197269270658071455e-02 -5.111980237736722145e-03 2.347382573463230038e-01 1.583733149482199343e-01 4.836468581223778845e-02 3.075750838171411039e-01 6.368794799062728329e-02 7.321802950606882965e-02 -5.948828884498889857e-02 -6.222573190627062739e-02 2.529910443061125780e-01 -7.013282264619759288e-02 4.491269537048780958e-01 7.315465467812262701e-02 1.139735238150841982e-02 -2.291863528063207978e-01 -8.372737525473948617e-02 -3.260082452993431912e-01 2.826923188527433184e-02 8.447387854028705345e-02 2.406837962750720261e-01 -1.859950354373677769e-02 -1.590181904665816937e-01 9.625609727225324652e-02
7.844143158348335088e-02 -1.507439642003013391e-01 -9.515552773358230965e-02 9.784463432647600226e-03 1.492513482077044429e-01 -4.868007261030670753e-03 1.253314894270632640e-01 -4.033513275889206301e-02 -6.407083559181835086e-02 3.258385224375400790e-01 2.015352295932339999e-01 1.124003958062569503e-01 -5.015023423961761928e-02 -1.436986174707943487e-01 -1.645845056706118914e-01 1.498575630535703695e-01 1.346264989719448968e-01 1.408034372230461406e-01 1.102009998862050477e-01 -2.282869305447228769e-01 -2.675133474049333103e-04 2.775242876351125543e-01 -2.217067264938610630e-02 -4.034796949983246450e-02 -6.801140998857049813e-02
6.410466303008182862e-03 -2.106537484970082488e-02 -3.419582053104157360e-02 -1.959086664854499393e-01 -4.467764001553205938e-02 -3.684201925729718718e-01 -3.048962695801723521e-01 -1.144462316064016015e-02 9.246041941039070955e-02 2.106815393264171304e-02 2.402808976776944772e-01 1.933603484423242758e-01 1.410810269645511872e-01 2.676668304272232790e-01 -2.474891643798460827e-01 -1.854604536894970956e-01 -1.015404623479394530e-01 5.401362821639991117e-03 -2.233386399470198569e-01 -2.053641918351121753e-01 1.164397059107779020e-01 -8.033696515911463443e-02 1.537959687708269629e-01 -1.052408166843318976e-01 2.266719949243037324e-02
1.695197182220845866e-01 2.071637248003385112e-01 -2.073665714046001585e-01 -1.579666062536118076e-01 1.688417649150528443e-01 1.699302352552445883e-01 1.365537197768742217e-01 -7.181237023538573905e-02 8.169563919951453035e-03 -7.124900784514072612e-03 5.791736160826845004e-02 -1.592849649154873537e-01 -9.422510717061308161e-02 -4.748538444975797940e-02 7.386268855589563087e-02 1.723044262070004828e-01 9.076000833295072567e-03 -2.217460877697190191e-02 2.054427063911795290e-02 -2.731921088912590001e-01 -1.714666632945016089e-01 -1.106111394969551062e-02 -2.321194133032911389e-01 1.988984151740349204e-01 2.153953342191402553e-01
4.729734248902679045e-02 -1.757561934681693000e-02 -1.926766437538793286e-02 6.791970472092469756e-03 1.059209265520297261e-02 -8.929831377889276001e-02 8.860615752266937095e-02 -1.053768150537447851e-01 3.049701028812179526e-02 -1.704527974822920011e-01 2.560309999019767455e-02 1.669627360975575736e-01 -4.989419519241811152e-02 1.645648312788880463e-02 -1.953093036204098243e-02 5.605744114895439695e-02 -2.011112550705119462e-01 1.717500016508323457e-01 3.069702658506811010e-01 5.605376935681135459e-02 -1.056528398059875390e-01 1.408842863469333684e-01 -3.849314536176137030e-02 1.550870128226609634e-01 -5.732854200013326462e-02
3.086098958521718560e-02 4.774780897246679034e-02 -1.336363722595333182e-02 -5.467401177459974004e-03 2.226958055750936083e-01 -6.680944521235485101e-02 1.516379075548893694e-02 1.068758049925276482e-01 -1.600889418885393864e-02 1.120750536841721434e-01 2.644024643913689410e-01 1.063353437892712722e-01 2.235037118304797621e-01 2.052194717506009569e-01 -3.131925726448884784e-01 -3.125618699084789509e-01 -8.647548310182554682e-03 3.543086096400291374e-01 2.174334538990514432e-01 -3.606164995797415951e-02 3.531516764621014937e-01 8.011268455749843975e-02 -1.986278766235925752e-02 -1.077781490915470514e-01 -4.042441785061012260e-01
1.146164028525995882e-03 -9.668149602433574394e-03 6.062607842972659450e-02 7.868850750420230966e-02 -6.954845232486971118e-02 1.314124902755420266e-01 1.053188783334844947e-01 -4.631931230260513677e-01 -1.231539376867849499e-02 3.472187772401377770e-01 -3.686439620960461627e-01 2.073479166004946472e-01 -2.725278803416086304e-01 -1.976079143636033930e-01 -8.911834710733081144e-02 2.194100520469802473e-01 2.073223946628194869e-01 4.912863474344925790e-02 3.575674129250178135e-02 2.449862115923903405e-01 6.662586724062864729e-02 2.033365155042579087e-01 2.262218807982239455e-01 -4.093572930210900157e-02 -2.280218290552494531e-01
-4.108888928280381159e-03 -5.802037517301813357e-02 -6.489423587410696193e-02 -4.432373842111850260e-02 8.073257659799194796e-02 5.866393166181049952e-03 9.807153868873045438e-03 1.222195680053357082e-02 2.323414520407211109e-02 -5.446827893291879968e-02 7.748487560144902420e-02 3.024405700117401286e-01 -4.295697187990986723e-03 -2.636915552516878036e-01 -1.090387905875344621e-01 1.404248855981618804e-01 2.543469910685357549e-01 -8.848944100177674743e-02 -3.200881850990846406e-02 -3.318148996854583532e-02 1.789046977737155930e-01 4.728202814768932283e-02 -2.183463562962673910e-01 1.721585789469900346e-02 3.054268434773725876e-03
-4.067010046866366413e-02 -6.984348907647847104e-02 -4.810615092847522756e-02 -2.401214844854412164e-03 7.151179724383496805e-02 2.631349692781817171e-02 1.814412245869705675e-01 1.729092358582584310e-01 -2.527488249366624876e-02 -2.460611132029350279e-01 1.419121325927162336e-01 -1.206216025293750521e-01 -2.653960289722234744e-01 -8.313390984882652879e-02 2.017745897965327329e-01 -1.306156839541952885e-01 -3.590325755332942625e-01 -5.778554985918264719e-02 -4.415134498708712940e-02 5.409574981948821887e-02 1.470326960148108653e-01 -2.116991358140801194e-01 3.221081987552992243e-01 4.822338725525164571e-02 -2.503148316901522563e-02
5.982615737254323718e-02 -2.450649292977925137e-02 1.126291358368055190e-01 -5.519285861685830491e-02 9.616550362455194081e-03 1.392761275827539280e-01 2.299396332254022013e-01 -9.411497812299680910e-02 -4.595389637298297747e-01 -2.020355637313772101e-01 1.574043095571753259e-01 2.203701709636755532e-02 8.356234444001410522e-02 -3.220268734884796924e-01 -2.064643695490371578e-02 1.154262161124343204e-02 6.392281341820632568e-02 -1.066207283684871415e-01 1.571430124388844829e-01 -7.210477246252440520e-02 -1.803600166759051493e-01 -1.682657521374611442e-02 -3.543961863786351026e-03 6.893472819892049186e-02 2.745093013495263357e-01
-1.500275938738860997e-02 2.444687236770460778e-02 -8.779893529142679398e-02 -1.156209818744284440e-01 -2.100782445564630119e-01 -2.046264485418571311e-01 -1.807961030155463278e-01 -1.719568921144526696e-01 -2.784752570471866195e-01 -9.010234422055209136e-02 -1.111008027377577562e-01 3.780963963141508594e-02 6.039789931808459827e-02 5.859713080320498590e-02 -7.341525581367878972e-02 -2.663683310644451296e-01 2.828999258245750714e-01 -1.115837364827619999e-01 1.700816321809689446e-01 1.790712600902402418e-01 4.325882404574264012e-02 9.411369375378844659e-02 -2.209345648766471992e-01 -1.389793189595366352e-01 -9.116306047036071281e-02
4.080176611644698893e-03 5.004246258997323282e-02 1.424092236834504088e-01 -4.912559281497795582e-02 -2.232954820546886876e-01 8.317861819705560378e-02 8.165901761612531784e-02 6.214522633070652252e-02 -5.485922568819369127e-01 1.323802741669366512e-01 -1.787848150692669322e-02 2.595371489671844389e-01 -1.681957623233817090e-01 -4.624340575179349266e-01 -3.934699957402894993e-02 7.862438593906349860e-02 -1.993608022352190978e-01 1.601633139711361731e-01 -8.691479093464364591e-02 -6.530870239429557855e-02 -6.489582935915459705e-02 -3.555785818713270707e-01 2.664659666699568594e-02 2.778147538446703035e-01 4.378484844091039274e-02
-3.506026527373364704e-02 -1.500565276790853837e-02 1.316079974881978754e-01 -4.038839972862812849e-02 1.866924401965984748e-01 -1.037064076782028971e-01 -9.231490705905501248e-02 -1.015405779515047152e-01 -2.270011708443634146e-01 -2.423574372788354567e-02 -5.175125844390513624e-02 6.948990611399931405e-02 -1.468013817602888405e-01 -1.431431841866378507e-01 -1.472686353524768899e-01 1.445766290787806885e-01 -1.331537214449595233e-02 -8.629808692889634480e-02 -6.801303551790081892e-02 -2.292959772943698460e-01 6.075084112467579039e-02 -9.346694380035022731e-02 1.053404688855710536e-01 1.118523288101239271e-01 -1.455131345748819638e-01
-3.906104146241543701e-02 -5.185838382011508790e-02 -1.898903841634266842e-01 5.755134438368308958e-03 -9.129767868664739883e-02 4.145119933892110059e-02 7.486570246744521373e-02 -4.893188533367839876e-02 1.778561588063671400e-02 2.542860747244895525e-01 9.770792858200164077e-02 2.924345087034090351e-01 1.343076323096251690e-01 9.613647404150080233e-02 1.372124089383120749e-01 3.686995200330250855e-02 -1.642328548178704772e-01 -4.973119676541370993e-02 -1.805875527579196838e-02 -2.235947683353279453e-02 -1.686892572492255660e-01 6.294252685017667770e-02 -1.369352320534835132e-01 1.367208079246095276e-01 1.281077856456581954e-01
2.701019294964946554e-02 5.629746649181342072e-02 -9.483873570744318429e-03 3.548899626201912905e-01 -1.349449957790198025e-03 1.022506264571512308e-01 -4.895710713563438538e-02 8.487624864827952864e-02 7.667896095632416309e-02 -7.951251052534684394e-02 2.882813862885174050e-01 5.039349701318292934e-02 -9.127857243063171311e-02 4.983661206549715866e-02 2.374338081587890753e-02 -1.635482949869191197e-02 2.587981209920067194e-01 6.261168696719104920e-02 -9.340545433405866849e-02 -9.994822151397507459e-02 1.816990562408617449e-01 9.163422856228228830e-02 -1.891670109213071035e-02 -6.254720823221084081e-02 1.785202084307554171e-01
-4.058389364256136458e-03 -1.975556125538009689e-01 -8.686295464722655624e-02 -2.165684627906896975e-01 1.561768368356037176e-02 1.116896035989334707e-01 6.064232652462032969e-02 1.019201215721110138e-01 1.670342031949279271e-01 2.522906584895491799e-01 2.873238905539621593e-02 -1.603436219432149146e-01 -5.893218469981301687e-03 -1.733306907859703261e-01 -2.316924659672770781e-01 1.155200977389795325e-01 7.835757582715477051e-03 1.743383570772214647e-02 -1.317561143578750427e-01 -2.243008641292026650e-01 -2.280115778684676797e-01 4.338599531176130786e-02 4.096641760354277628e-02 1.747299903998435211e-02 2.381602928950044273e-01
1.177415515773589175e-02 1.454184104928161331e-02 -1.697137351504433497e-02 1.034168868493608034e-01 -7.460790216886058202e-02 -4.035617251355086421e-02 -3.100403635473128472e-01 1.797375516378097171e-01 8.815868898030027045e-02 -2.434153578921191829e-01 -7.719771599092151160e-02 2.328846206450953422e-03 -4.608669531100914596e-02 -2.332220971797903941e-01 -7.165561693658793752e-02 1.902854215306127306e-01 6.470533203631041730e-02 -1.923341352952256667e-01 1.927879147541014873e-02 -2.838114000550425592e-02 7.954035672490704367e-02 -1.471982397314202662e-01 7.178504636301447084e-02 -1.935761776585223637e-02 -5.416125903739066327e-02
-2.948512179342440125e-03 -1.148645312422218040e-01 -1.371512542627853146e-02 -5.150867995825362394e-02 1.355816903901705117e-01 6.655935939303671278e-02 1.140315970795634654e-01 -1.365952865805370176e-01 -2.644462341522421100e-01 -7.887821310123270535e-02 1.365123439980361342e-01 1.489675195478909475e-01 -2.969228514355564119e-01 1.049043111502784703e-01 -3.217890108482556605e-02 -1.388706528811355090e-01 1.335216469867568471e-02 -1.592522975956167652e-02 1.997477506586330942e-01 -4.737246885143338998e-02 3.138160646380433461e-02 9.723440432097096853e-02 -7.169664197172699593e-02 1.283445100575545707e-02 -1.099207296896578638e-02
-2.467252949988555377e-01 3.176565953726196434e-01 -6.819755134881920478e-02 -5.595110392863945903e-02 1.925614534662462574e-01 -2.370204744907603855e-01 7.779045555788016708e-02 -1.086701657155944439e-01 -1.574307363667325904e-03 -8.959948960956552744e-02 1.113903937563133495e-01 6.313614174928051936e-02 -5.218830260658423315e-02 -2.027778601727752983e-01 -4.028166310210974654e-02 -6.152093386363606531e-02 -5.690906343370172316e-02 -1.295237412413484043e-02 4.059897735865275470e-02 -1.117545148987767953e-02 4.772012980058152470e-02 -1.185632686814159231e-01 -1.826452870064009248e-01 -2.390600388042558519e-02 -2.073035147678501181e-02
-5.554081561926427907e-02 1.416518154507968863e-01 2.130912634047611165e-01 1.909267679963707887e-01 6.350207581403116697e-02 2.514851197881303735e-01 -1.868715335611286499e-01 -8.435877096263100228e-02 5.924933262102231174e-02 -6.416264051970474447e-02 7.077019452463505222e-02 1.031258341750369290e-01 3.090330206142690161e-01 1.917842663062046815e-01 -1.165861121285335228e-01 3.979112840590676159e-02 9.241779166324055883e-02 1.980543973801383584e-01 -8.057688246711768032e-02 2.779935486580323301e-01 1.648380469155166089e-02 -1.681607800286432919e-01 -6.472983500895659881e-02 -2.050120713557140872e-01 -1.044291752433301329e-01
-6.157713353916697586e-03 1.052937944381041602e-01 1.432981700540831432e-02 1.600760774619591764e-01 -6.258384828087469598e-02 2.055525665834807003e-01 1.264741443646562880e-01 -1.292807242416119384e-01 1.681916510192476566e-01 -1.587665348360223494e-01 -1.004738781622735999e-01 1.122863354215120242e-02 -1.691327033197586593e-01 -4.132769431809502070e-02 -6.751238454386814317e-03 -3.301840978428371431e-01 -8.024032469166682280e-02 2.391906915082894769e-01 -1.461083388696553242e-01 8.131287378776376473e-02 -1.753197889777086127e-01 -1.781385359288964187e-01 3.243526030283906958e-01 3.356155041762234337e-01 1.657423508333762951e-01
-1.081115019267840476e-02 -1.111719211888047426e-01 -1.193354373677220914e-01 1.021723831506150676e-01 -9.638080373088646347e-02 -8.010408058753427929e-02 -1.240565226102761653e-01 -2.001860379992368988e-01 1.118436668017791097e-01 2.692108782769914166e-01 -2.818664132452873283e-01 2.331111878392979134e-02 -2.264325570429916445e-01 -2.263092813445064314e-02 -1.347375239102673317e-01 1.718620240861903348e-01 -5.994949280536471942e-02 3.231427498726972131e-02 -1.566192432897078879e-01 -2.697974046287816008e-01 -1.704148425586451410e-01 4.677340491460907357e-02 1.033682743948004246e-01 1.314654780378226306e-01 -6.360841229952160503e-03
1.535987331214162810e-02 5.253415512917396918e-02 1.614323448334796518e-01 -1.328597596213706711e-01 -1.344665838871876018e-01 1.310468232782740217e-01 -8.753368494341984274e-02 -8.838356431069922803e-02 2.413287918978136160e-01 2.183188410871662877e-01 8.090736750890939466e-02 -2.314802240994451032e-01 2.841106938475683186e-01 -9.216458395798611536e-02 1.043955337003026063e-01 1.821983505862825037e-01 -1.602289428248111491e-01 -1.220181913975151716e-01 -6.856382109546688142e-02 6.179170768348495046e-02 -1.649575249192676285e-01 1.885874736723494316e-01 -4.519259579213764089e-01 1.062850506792891447e-01 4.259601890458381696e-02
-6.064592173072329978e-02 -5.188858839613535306e-02 -3.537297245997934880e-02 2.168653565419202400e-01 6.925463297192169243e-02 -3.790128835028257204e-02 -1.501235136208915744e-02 7.523718855773363356e-02 -1.165538961472815244e-01 1.712061091942956303e-01 1.156117849784732282e-01 -7.794708279957157648e-02 1.569602356840861523e-01 1.558817587326209730e-01 1.248994361148774018e-01 2.500634795130634580e-01 -8.025074454712738392e-02 -2.460678629125947203e-01 2.765745677471681888e-02 1.636328605321428764e-01 1.562725661431359214e-01 -9.506760076232916024e-02 3.114783271830405195e-02 3.346040291193467242e-01 1.343403278666738532e-01
1.764257784294835305e-02 -2.499462694503040185e-03 5.686277852160832175e-02 3.939379413153538956e-02 1.247541828195909558e-01 3.037082448124154080e-02 9.764024502824648899e-02 -2.879454675085669213e-01 5.529341140819340333e-02 2.043740268335306753e-01 4.281399792385878755e-01 7.230550305128306821e-03 -2.099073102641400290e-01 3.924857997284372790e-02 9.520815565663404145e-02 4.417895759631813857e-02 5.668777026364172494e-02 1.389546604814794473e-01 2.028394748330088204e-01 -1.505771582989875179e-01 6.897159209990447182e-02 -1.158217000905174127e-01 1.351300964152182815e-01 -3.750940298501189707e-01 -5.562763069729776549e-02
4.689450473732720281e-02 -1.641842871274321880e-01 -1.259957753731233941e-02 -2.394774550768191679e-02 -1.206810980748664608e-01 -1.376889055648503890e-01 1.675304883877802298e-01 -2.821082399049806844e-02 6.584068755691845076e-02 -4.274474920634417641e-02 -1.554591379914106175e-01 2.354303520266743943e-01 4.874752709812136403e-02 1.888404400903978264e-01 5.792549914367035348e-03 1.094581635427789162e-01 -6.293294904795830591e-02 1.433508106248023994e-01 6.815818399282740081e-02 -9.466902966413547060e-02 -1.410757248608625163e-02 1.082718381072595715e-01 1.999840021294568490e-02 1.657943770951327278e-01 -1.343837826725251261e-01
1.698071781020710908e-02 5.428117942947473240e-03 2.005344704371831224e-02 -1.581761114231549914e-01 -2.338752275441239037e-01 1.632401317988490252e-01 -3.626809887365449736e-01 1.294168026775158464e-01 -9.107096505841377754e-02 -1.544054129841796741e-01 -9.804352389571564796e-02 1.237480684651853617e-02 1.131601862837807865e-01 1.050850254000591094e-01 1.159739463183009772e-01 -1.994264985469437479e-01 4.579283054824819649e-02 -8.387531472279287359e-02 8.601406561944532903e-02 1.252831742563315642e-01 1.440503026507423123e-01 2.555397290237915175e-01 -1.747826663259819946e-01 -1.978079174945028273e-01 -1.688938280477838422e-02
1.992597237790022513e-02 5.502962623810425669e-02 -3.979380898967423835e-02 5.064214044301521694e-02 -3.060171707711590861e-01 -1.845089597328834485e-01 6.772963554588559698e-02 2.043349764497208888e-03 1.145770278452928337e-01 1.176234698881018122e-02 -1.347942530645716841e-01 -2.444066864848181697e-01 3.792266901792771816e-01 -2.741775078501102469e-01 -2.146656579188905289e-01 2.827250488048319021e-01 2.343029248315729451e-01 4.823274228888528581e-02 7.194205221522380345e-02 -3.083284026004001199e-01 -2.226969050765492675e-02 6.382566907960883495e-02 -1.712489678713939034e-01 1.737034816407414251e-01 4.385954990923238705e-01
-7.687329733249313388e-03 6.478816244441326644e-02 4.646718984309744505e-02 -1.427632107190859034e-01 6.338269371697211052e-02 5.507415941865623915e-02 2.977796778700443625e-02 1.370765759091674418e-01 7.426321572761577366e-03 3.534285597142027696e-02 5.689665828791250907e-02 -1.206893159223097617e-01 4.003854873623822336e-02 -1.786886623831168419e-01 1.417450261421487057e-01 -1.702863994515917689e-01 -2.861561519101071260e-01 -8.880506770510782077e-02 -2.031564161112630329e-01 1.482318143981122549e-01 -3.961860262538551003e-02 1.565859706691149697e-02 3.534793464630094084e-02 2.725976205508561234e-01 1.460903989369841394e-01
4.146242221236814962e-02 4.895250837824100670e-02 -1.200255262495839303e-01 -4.424178476004501231e-02 3.188965313315048067e-01 3.239647555826607461e-01 -4.375650668499191098e-02 -4.512138342173895728e-02 6.718024258427046647e-02 3.035613401522819776e-01 6.468640806945157029e-02 -1.368678914098138966e-01 2.006307077468464928e-01 -3.338187100491449844e-01 -2.557843746482353353e-01 8.494464720947207670e-02 3.653175808158035803e-02 -1.316093339775225024e-01 -8.902502306378437882e-03 -2.374115164500530673e-01 5.041409352467647320e-01 5.913037408526845146e-02 2.993631647948518104e-01 1.631280157255235730e-01 -4.176873977268680954e-02
2.487610442093561580e-02 -6.614459843113493567e-03 -1.891726303716206176e-02 9.386096655454621851e-02 1.585222405534263967e-01 1.179043844717751061e-01 -4.539158083814207739e-02 2.952971095564474457e-01 2.473517028537600970e-01 -1.487875011215591681e-01 -1.283566249068133491e-01 3.856431608072971029e-01 1.784498223920468613e-02 5.951364626498853450e-02 8.413700640082029392e-02 -1.065160503640450312e-01 -4.888977050795235979e-02 -1.925254604975176476e-01 1.010659035589777793e-01 -8.364084776997914028e-02 2.881192474529581035e-02 -8.437343290558317610e-02 -3.446186082831206171e-02 -2.313837428837251312e-02 -9.322272732768492609e-02
1.829461350648774187e-02 1.633112527325152052e-02 -6.395436802936228793e-02 5.444726343219909170e-02 4.409328528785413925e-02 -2.149752709782281057e-01 4.977193835295427859e-02 1.138719729567376354e-01 -7.947016070570521451e-02 8.950874785787286958e-02 2.451724833807832626e-01 -3.632754629057147883e-02 -1.992906934510476069e-01 1.195028012576818260e-01 -3.664882484560392784e-01 1.094903017520541255e-01 -7.548589857336295006e-02 -2.754577112224787863e-02 2.172939727997947046e-01 8.088113329776203120e-02 1.491129226361001259e-01 -1.207069071141958772e-01 2.972870818463178577e-01 -3.910006060758464685e-01 3.131927311921109958e-01
-4.528352492996912809e-02 2.945653810905543221e-02 8.033176016223166072e-02 -2.060616343985285925e-03 -1.122931511960392342e-01 -1.059922348472660918e-02 3.791812444293749668e-02 1.367167143775022964e-01 1.926608724071455225e-01 1.924282584579342925e-01 2.785260486688438397e-01 -2.707034242936386462e-02 -3.379583243379847115e-04 -5.486313776692503105e-04 2.025466479442492723e-02 -1.385339026705766641e-01 7.275855613580238523e-02 -1.668743804379142770e-01 6.454907166895477999e-02 -2.514857599741657790e-01 6.896022262398701641e-02 6.758327443608246055e-02 2.027398499803200471e-01 1.192565517798961222e-01 -2.568899347742834571e-01
-5.823156460699169257e-02 -1.176206383498925312e-01 -2.198761059902095468e-03 -4.976460871999063840e-02 6.908560453811977975e-02 1.181819575356701617e-02 8.220335598218361794e-02 1.290753248038959689e-01 -8.950672305712481513e-02 -1.049983954043097328e-01 1.260951877218630668e-01 -1.224425562284501695e-01 2.492552672643839617e-01 6.992584020548626988e-02 1.796682017313785962e-01 1.882624967659471404e-01 1.326197765279907466e-02 2.186046863258871154e-01 1.254310863458166780e-01 2.241330868244923169e-01 1.487325938192702868e-01 -1.743421498026468675e-01 2.060704288159911912e-02 6.539750815728614941e-02 1.991902185096515177e-01
5.191467810987671072e-02 9.930614270878108940e-03 -1.386037664783988099e-01 3.761515720698230952e-02 3.904978099806628161e-02 -1.653546612242169367e-01 7.961122620646450196e-03 -2.186079718772684644e-01 -2.160486207454938648e-02 2.545951772625117387e-03 8.037714682568526670e-02 1.739065338057412813e-01 -2.022270640254779372e-01 -2.320180425039527483e-01 -2.181358496836921235e-01 -3.696686782393045212e-02 -2.092908609194225056e-01 -9.209212155202209371e-02 1.242567544122148426e-01 1.504643146742526694e-01 -9.126290893227988199e-02 1.441349916975115664e-01 -3.600234416205367466e-02 1.052998252899333687e-01 -4.485695013770142625e-02
1.449455666580294969e-02 8.506787280718082489e-03 -1.525537137889105832e-01 6.013246116036918831e-02 7.455001343796141544e-02 -7.015690433642672585e-02 1.993424040934357044e-01 -1.267128846727665591e-02 2.850272150294283491e-01 -1.022019495882889491e-02 -3.384242858420221656e-01 -9.012835814061599671e-02 1.673852206814087048e-04 -2.241312514992343241e-01 2.052864959432330327e-01 -7.121285201134046339e-02 -7.716394591900799238e-02 -2.577897722710007500e-01 5.034891056421209043e-02 -2.402734401966966776e-02 4.747620534052677393e-02 9.614625853549484125e-02 -1.421449048389436254e-01 5.348027744258081889e-02 -4.336009281334861354e-02
1.084915141969493291e-02 -7.074261265948901534e-02 -7.347279662587330451e-02 -3.948315741470220103e-02 7.310376430136041048e-02 1.449517873350252561e-01 3.539007155125864501e-02 -2.388253670009311824e-01 2.674291822694536969e-02 -1.799772939333655897e-01 -3.275996395022886132e-03 1.279005649140242118e-01 3.571179246699682924e-02 3.252012820196630016e-02 1.151662070255475706e-01 -2.609345987391652882e-02 1.359893301449504044e-01 2.357250024904390673e-01 -3.708734052259789193e-02 2.112468972305784065e-01 -1.678444545677513014e-02 -6.658291017437163728e-02 -8.529907931786558095e-02 1.725061684752134672e-01 -4.782135468137885259e-02
4.607205854052542730e-03 1.646558647528146013e-01 1.107854252743963458e-01 -2.414854154329255931e-01 -1.518855615998823405e-01 2.229974921146974376e-01 2.880700077124936226e-02 -1.269064379485916605e-01 1.900133215146385390e-01 -1.358458908137735177e-01 -3.905270312603624505e-02 1.115158410406555251e-01 6.482513542733411849e-02 6.780755457873297032e-02 1.482105562834367188e-02 6.055485826330609528e-02 1.216388530033226389e-01 1.467923898603273603e-01 1.030145283696233399e-01 -5.750408901070471618e-02 -1.816578601033878582e-01 -1.402202321680449948e-01 6.433183985527037019e-02 1.421532598397957925e-01 -2.461114391374331911e-01
4.505734008558915510e-02 -5.045097236670933322e-02 -7.426762443472995079e-02 4.278449022500754179e-02 2.518089924521618173e-01 5.670921223381416437e-02 2.074104695453566141e-02 1.617665966231432995e-01 -1.807830073631536139e-01 -8.827696511595718373e-03 -4.462770338506328455e-02 -2.016872846200100378e-01 -7.472485500085666865e-02 1.630227996881971064e-01 -1.029552770528900929e-01 -3.246510470645793539e-02 8.077141228417143715e-02 6.914902713026233050e-02 2.247029852648472215e-01 5.927309440167854993e-02 -7.900001669600550946e-02 -5.437832522313869321e-02 8.614005879603597524e-03 -1.653847881308568024e-01 -4.201249498347256472e-02
5.325307796735902210e-02 -4.249107970390806482e-02 1.014888656303477577e-01 -8.744055269457323698e-02 -7.343564057760502972e-02 -1.140188535816735044e-02 1.411427989744430955e-01 1.996504073950615965e-01 1.629108166210963549e-01 7.725405179394714827e-02 1.163173424823681357e-01 1.671744074032318339e-01 1.043669551152810876e-01 -3.630163402698922872e-03 -5.102982219009896681e-02 -1.159737865424632225e-01 -2.193000419506032639e-01 1.004469885747579783e-01 1.524895266160988458e-02 -1.926202490031685421e-01 -2.817166199636968460e-01 8.672056192050743573e-02 -1.705092208987220859e-01 1.917921970396457565e-01 -2.563498396900255535e-02
2.716205216386206531e-02 1.409383450565349916e-01 -1.506769300714109472e-01 1.205680672569433842e-01 7.746049582705347158e-02 1.310730140645234021e-01 7.247091693177705116e-03 1.467245725925890240e-02 -9.310479546427610775e-02 -7.184740133489521396e-02 1.278914587921848312e-01 -1.706040142737969556e-01 1.397990588531085876e-01 -1.466675430084677378e-01 8.382074987708836022e-02 8.305562016193343555e-02 -2.343221613404505022e-01 1.204573572220376809e-01 1.777848555478331871e-01 3.993999453102887315e-02 2.325343347287697066e-02 8.460313765433484512e-02 -1.502217464789409040e-01 -2.263102364019834167e-01 -1.182232057111543833e-01
-1.985819561486072346e-02 -1.240609053660014782e-01 9.034468356256721011e-02 5.972068210878776068e-02 5.041867995968848243e-02 5.328817756053690763e-02 3.547916744258612365e-01 1.805638645027828615e-01 -2.839184253553524995e-01 1.859497761351430051e-02 -8.740316225255619423e-03 7.191864579576176530e-02 -1.110147308294079233e-01 -7.920952614902300459e-02 8.073161048006333163e-02 -7.285997199007010483e-02 5.443335129820169732e-02 1.922456225416394882e-01 3.964398133381321077e-01 -8.192736468231619218e-02 -2.041923340619740124e-01 1.725196058102094754e-01 2.198847165740872855e-01 1.791281250678865844e-01 -4.459002404930240485e-03
1.008609086050967080e-01 -2.088129483207594450e-01 7.325171763773505318e-02 -6.930358118984245377e-03 -2.694083199712285492e-02 -1.862642169848754414e-01 -2.755356121696750371e-03 1.258392190825492196e-01 1.730462907803555495e-01 -2.116145632854589675e-01 1.207532822290076496e-01 -8.624555414446261059e-03 1.527427094628890925e-01 -2.728610719714348321e-01 -7.361503755267430338e-02 -2.631337089322093314e-01 1.969120164553500030e-01 -1.324080551876004874e-01 4.113321516591165183e-01 -8.220248523459570966e-02 2.567775448123075233e-01 -1.527536485926564713e-01 -3.198137917818828502e-01 2.751055050176428041e-01 1.516246292284281413e-02
-1.647695073838883750e-01 9.412588144657751954e-02 9.441645376041334081e-02 -9.227669963689115462e-02 1.337268360345628647e-02 -1.009418711090309890e-03 -2.261780109763995503e-02 2.948904050471810520e-02 1.685924759074117554e-02 -7.766466845405318314e-03 -2.295432816443118001e-02 9.663917381192610456e-02 5.859112943927242273e-02 5.500853970836097617e-02 -2.540084441843796018e-02 1.157917991050041139e-02 -1.382950827600627208e-01 2.136801725096044435e-01 -5.784543136310248829e-02 -6.976864300537280461e-02 -1.527210374148508382e-02 -4.938220400212867123e-02 -1.492299289451949097e-02 -4.091536705440822902e-02 -1.787562708492961283e-01
-7.151517420593560270e-02 -5.435179198062630584e-02 1.303026329165463126e-01 -1.602151291930953292e-01 1.575104992905675128e-01 8.270923147260784633e-03 -5.368486986302163644e-02 -1.611706766805507396e-01 2.948638326467468151e-01 -2.617527591873039516e-01 2.363313618648096026e-01 5.513950275584684341e-02 1.368209050594243123e-02 1.877235638388343938e-02 -5.502742414437270663e-02 -1.415234117140354020e-01 -1.609711693759104389e-01 4.079514203315890986e-01 -1.943433245475335025e-01 -7.494635429480096811e-02 1.119949279835776856e-01 3.808307485578873997e-02 -1.319915279180675430e-02 -1.469548900890962073e-01 1.368799910385283813e-01
-3.107469186260249702e-03 5.957567226222103968e-02 3.848778988501514592e-02 -1.142008063977426394e-02 8.646669909520102171e-02 5.681072681422302817e-02 2.585553557497003996e-01 8.012560570438477525e-02 3.321683246812263124e-01 -1.030503967045732772e-01 2.828411923740499767e-01 4.811578645068795290e-02 -2.859196739761884487e-01 -1.687719641414985317e-01 8.436906958390535949e-02 -9.992677297348011300e-02 -2.744769095965998718e-01 -1.295069136378721765e-02 -5.499759063543380178e-02 1.687434243520594956e-01 9.614450110994107734e-02 -1.091697564975542822e-01 -1.736110155509906511e-03 -2.472405490849823029e-01 -5.370465152566498285e-02
7.798986252096817839e-02 3.077284386212285061e-01 1.916836342353712627e-02 7.648150845496580474e-02 -1.753573518991627667e-01 -6.942949981126858572e-02 -6.972183326992020813e-02 9.257846807585902449e-02 1.529274352936331183e-01 -2.058097658369202956e-02 -9.699774227715994568e-02 6.964510409758338516e-02 -6.667797257729840554e-02 -3.352923596484617963e-02 -8.588360573432393674e-02 -1.237364015010577051e-01 -3.022400440616624384e-01 -8.005836166858362746e-02 -8.098237013979818488e-02 3.306133167059552291e-02 -3.158895842185195646e-02 -1.302313908789889084e-02 -1.482524405580418481e-01 2.542552652543589309e-01 1.453285890948407579e-02
6.958379195920262605e-02 -1.319522123553849326e-02 1.108841933924342299e-01 -5.822845651863173960e-02 -1.231690967758395788e-01 -7.192739524206484547e-02 4.817751054596879079e-02 -1.266389377475002354e-02 -1.712673625157166146e-01 -1.682590234355758607e-01 1.306906503276409892e-01 1.182867354791332370e-01 1.687944987426215904e-01 7.950208422889361304e-02 -1.771454632156342635e-02 3.102592921672317136e-02 8.849986306307865147e-02 8.539607842546607930e-02 -8.874919115296742156e-02 -1.109614379920790261e-01 -1.740776150015093185e-02 4.728499939699691568e-02 2.100630462159488662e-02 1.231340871101337664e-01 -6.902336199930177163e-02
3.967197512858106762e-02 8.858288563072365396e-03 9.293126406107167503e-02 8.208341114869731336e-02 3.635394369722956542e-02 -3.994238741335550541e-02 1.170290176668529747e-01 1.505802956945902216e-01 -3.386292512366004259e-02 3.418805930514722674e-02 -7.102990562048880352e-02 5.191749085768547489e-02 -5.697752014294651252e-02 1.275118430982833118e-01 -2.078148029687901244e-01 3.524443999963310092e-02 2.659309832943368770e-02 9.694555907935847872e-02 -4.337701294145720338e-02 -1.134570010732931363e-03 -1.636739478104952961e-01 3.145722891401064869e-01 1.933523974384167565e-01 5.446516637091714658e-02 -1.511093485232245237e-01
-8.034129647161904197e-02 4.846311064601718094e-02 -3.585360946917496433e-02 -1.241783681150016028e-01 3.915547519535689247e-02 6.601620566142989144e-02 1.134791277738875781e-01 -1.416878628095013248e-01 2.089928615989002439e-03 4.792426867508374488e-02 1.629405498254186679e-01 8.352561840967000217e-02 1.489707917458695519e-01 1.977172356720287572e-01 1.958933289832602009e-01 2.150497860308209219e-02 7.364016204658040653e-03 5.317884352751468119e-02 9.237125852497797551e-02 -1.107512164882557826e-01 2.386912167676563390e-01 -4.301266618178958834e-02 -4.477715796664800268e-03 -9.374812798055293106e-02 -1.344537742808670638e-02
-1.935833644416794924e-02 -1.742096955954977947e-02 7.075831648925458295e-02 9.156143870327472511e-02 8.236414908329466045e-02 1.280219997000864307e-01 4.103478723997131539e-01 -2.157032551682679378e-01 -4.274713314708723788e-02 1.331062662735824909e-01 -1.171200189297660205e-01 5.474594257416274222e-03 3.942875445614881791e-01 1.903027111306604402e-01 -4.405778691812354750e-03 -2.232451017990910447e-01 2.039370735362031617e-01 -2.011241532135941701e-01 -5.249137730317381123e-02 1.643594810182803789e-01 3.340200080890419754e-01 -3.875772687253900561e-02 -2.416113946107495136e-01 -1.281892430137544503e-01 -2.183283449095700657e-01
-3.543940078844143998e-02 -7.328451941362311428e-02 2.250614706142448906e-01 1.645329286722117812e-02 1.126629737789662383e-01 -2.784901820683761686e-01 1.163476727924921961e-01 6.668516267705695832e-02 2.515911945353249690e-01 -1.223525653978150933e-02 1.033267085239778366e-01 -3.107562610332391118e-01 -2.172618471451296385e-01 6.689020390213183676e-02 -1.177451141538377183e-01 -3.892907483185465561e-02 1.980760966961477854e-01 2.519487096700231410e-01 2.850795282377646331e-02 -5.821385980399869375e-02 8.511804909928952223e-02 7.948941437543749489e-02 4.759431795357621509e-02 -1.166978373403928654e-01 -2.437554214285272969e-02
-6.865622298949985471e-03 -1.140689119438651616e-02 7.363108939200449510e-02 5.071672230782200280e-02 -5.636719422455509915e-02 2.208591366290307556e-01 2.099448706696559475e-01 -2.505775280079026723e-01 1.294344106542490436e-01 7.711492779654439966e-02 2.114801094900115586e-01 -4.269144848219682403e-02 2.030818075380430854e-01 -1.443619022877792590e-01 -6.573645933937413699e-02 -1.888376277877286957e-01 7.209920500280581068e-02 -1.252506056286731111e-02 -2.386348630128135029e-01 -2.186292477584105554e-01 -7.663289081141665127e-02 1.584023646351660208e-01 3.618386706414328247e-02 -2.977735721979272721e-01 -1.643029164525587615e-01
1.018819663020998773e-01 9.376624525208315797e-02 -5.021415984627060070e-01 1.309247656787924097e-01 1.040968113053162003e-01 1.182803479921060025e-01 -8.895985599757526285e-02 -1.458667435569792337e-01 6.107253760334113019e-02 1.790890674607375360e-02 2.466694469493959097e-01 -6.799977866060649689e-02 -1.039816114951029324e-01 5.655742722606565270e-02 -1.586126333350179607e-02 -8.821580568156223157e-02 -2.208325597651603078e-01 -6.375183833817105183e-02 -1.013785261041462993e-01 -1.630589248118477774e-01 -2.230479000570355919e-01 2.436304334971827468e-01 -1.499671291213432178e-01 2.275590396142257443e-01 -3.932026778417797852e-02
1.814089416517480208e-02 5.766055909943092889e-02 -5.964710712908438683e-02 -6.993213813141035268e-03 1.361382987571038983e-01 -4.948098067418732482e-02 -3.052062424676163510e-01 8.563257007458967285e-02 -2.450381463373793034e-01 -1.243752593706468935e-02 3.415881663326342244e-01 -1.528777988605836136e-01 9.871260588056791907e-02 1.239045784129147870e-01 6.717129219793585015e-01 -4.425111519806423227e-02 -2.485421420578303731e-01 -9.721806007516185094e-03 -8.079509973742358964e-02 9.738672317740112994e-02 -1.357078697003332168e-01 -6.486688066442024281e-02 -3.028502864442030873e-01 2.515527906481354048e-01 -2.666629144180833726e-03
-4.803881773025324604e-03 -5.218914243783617096e-02 -3.339710268990977449e-01 -6.269559823459069925e-02 -5.482160967617124431e-02 1.239504076463110172e-01 -2.128593167472319636e-01 -1.657897085157886141e-01 -4.643399404518727125e-01 -3.324363082825796539e-02 7.059179607310773347e-03 -4.724303675330231850e-02 3.204656087366989509e-02 9.873302192790096854e-03 2.196506007616557954e-01 -9.976902086793833224e-02 -7.807751231091955568e-02 -1.133900318926655271e-01 3.281454620653729282e-01 -6.471184028317773784e-02 -3.005453714388343633e-01 -3.697315275999184525e-01 -1.443123552775111250e-02 -2.099467647827649441e-01 -9.684134172100679339e-02
3.222709717522328349e-02 2.915709525577627262e-02 -7.746983278509954329e-02 -2.817417368546857107e-02 3.456492303693121243e-03 1.693291891947848113e-02 -2.801990991837692291e-01 -1.247630759200270140e-01 -5.409925191035829667e-02 6.053855545521816262e-02 -8.290129587487521379e-02 -1.164575787675150159e-01 -1.021087673477054647e-01 -8.539710107886505641e-02 -2.256392186539878386e-01 -1.220047623530556985e-01 -1.112125629485827133e-01 4.742249342374711685e-02 1.757738589533344442e-01 8.009817320183014455e-02 2.319808373692110182e-02 1.540825176683885411e-01 -1.452175037579578054e-01 -2.624450962525887165e-01 1.331841883430157081e-01
-4.581388438750987752e-02 -1.924064890596950683e-02 -9.297432633237108501e-02 7.320293566480159508e-04 5.522209497447767845e-02 8.462967762478308675e-02 4.775529684502797904e-03 -1.362609750647842399e-01 4.592188675106693291e-02 2.217197606276705424e-01 -3.039066719773143577e-01 -5.308350379179543888e-02 8.382984075608879149e-02 -2.089639295487342174e-01 -3.958416510048163445e-02 -1.884317145089116005e-03 -7.028187260842411188e-02 8.766308000843960058e-02 7.322859229315759055e-02 -1.552993469319819686e-01 -2.537939818101259126e-01 -9.629291606988013563e-02 -1.146450288996411077e-01 5.864567663132438935e-02 3.594186277561223219e-01
5.814199117229832542e-02 7.230716582468015019e-02 -1.723343724480242145e-01 -2.661984922215356875e-01 -3.037129576749798485e-02 6.994493801806819788e-02 1.147431899052376442e-01 3.666435591514161010e-03 -6.419112835787026128e-02 5.119877458413957250e-02 9.551257272605025161e-02 2.481635038721834510e-02 -6.749184849062185576e-02 -3.215956285906768769e-02 8.997625961316420284e-02 -2.390784967276012585e-01 -1.251507466614621422e-01 1.834470698716186288e-01 2.741504991292706070e-02 -5.500886687421925776e-03 2.126671770138769124e-01 1.763590018399514292e-01 -1.934925727694834785e-01 -1.473331272817546451e-02 -1.608338463257049378e-01
1.719976105495431007e-01 -3.663163399810395043e-02 -2.343481316464892938e-01 -9.636291539959231101e-02 -2.468506120697621653e-01 1.244524917899778177e-01 4.552755345139376103e-02 -3.337613394907539693e-02 1.632686646410409226e-01 -7.576804672295912868e-02 -6.268189058798513680e-02 9.358274576215139251e-02 1.172039340155379000e-01 2.062790958064355529e-01 -8.295035542104832460e-02 -8.909185660287907704e-02 1.204079306336666433e-01 8.530973599373287142e-02 1.722793390630195098e-01 -7.492640481384020557e-02 -2.910202840341286623e-01 -2.064022964235807112e-01 6.870972385575166430e-02 8.299117098376539159e-02 3.319429467075687978e-01
-2.966668902927208432e-02 1.611064345450930468e-01 1.947097924531694113e-01 -9.376568281295083462e-02 -6.683168603080133496e-02 -8.024590404336852389e-02 1.551302510678936042e-01 8.037986588714934877e-02 8.661741330312153209e-02 -1.611913464841660815e-01 -2.405207947655133970e-03 -2.774388056811688541e-01 2.232712726218209764e-02 2.078363882565139598e-01 -1.306553286852056017e-01 1.593879991687237596e-01 -2.612993351867894387e-01 1.355654554377350995e-01 2.046953342665282782e-01 -8.274878329159754409e-02 -1.271716664772296612e-01 -1.616429044545167615e-01 -1.649200936501835774e-02 2.108816472479316806e-01 5.914466870661885811e-02
5.085958420098968431e-03 9.836761224117329672e-02 -2.228542008016992926e-01 6.120229647540474660e-02 -3.820687113712708388e-02 -1.359773198610375322e-01 -1.506705838241396422e-01 2.420809119203057302e-02 -1.073290171721473507e-01 -5.249236741946677887e-02 9.634721773286626656e-02 -1.651245783691133451e-01 -1.583726426987022429e-01 -3.570403550182276731e-01 6.252185579131151749e-02 -4.004048443701124782e-02 2.397187886421292824e-01 9.792319033155841637e-03 -5.215323596300011078e-01 6.945581113806517659e-02 -1.723690787831937132e-01 -1.231082125819682321e-01 -6.006136090008810241e-02 -5.435376232846718392e-02 1.914754679314687458e-01
-5.067162903471870983e-02 -7.813177252682493301e-02 1.905213969340549193e-02 -4.492285350983615116e-02 -1.138333332434899037e-01 1.160110268084627583e-01 1.451836706052276882e-01 2.029430361912005487e-01 -9.425338334964727949e-02 -2.598458063892459258e-01 -2.173008773177841427e-02 -1.607796251258560849e-01 1.410151383432047545e-01 -1.180770463596677589e-01 1.494715706201077410e-01 -1.012466898587961739e-02 -2.456540197349688370e-01 1.826585094138379961e-03 -1.606847279321342858e-01 -2.739907095259750403e-01 3.213341966098501867e-01 -2.744919453314639823e-01 -6.284804125576606837e-02 6.984155394513727466e-02 -9.087589828270938030e-02
4.006055594320881257e-03 5.596736829616772574e-02 -7.054091612395926858e-02 3.717281345340847087e-01 2.096901215101444338e-01 1.137364161166563720e-01 1.530706568491165265e-01 -2.945622500276024458e-01 -6.168710780046637171e-02 -2.727919773350030372e-02 -7.452036032329718840e-02 -1.839202487017316603e-02 4.440454187622160376e-01 -1.079102678937300247e-01 -2.454408113914687550e-01 -1.328073483271482447e-01 -1.075850634837801079e-01 3.879981466552362424e-02 5.500026885807640653e-03 8.140424731540701897e-02 9.774452339263407785e-02 -8.800601676325074674e-02 -3.272199106848384109e-01 9.071044627666415006e-02 -3.378958395112884039e-02
1.734108890922751202e-03 -1.253888726315651077e-02 -1.243027431396951238e-01 2.682751182980027543e-02 5.262070242598545361e-02 -2.556107051736171698e-01 2.539452193606339114e-01 1.222214189510576754e-01 -2.870702939165257206e-01 -2.172559373127364857e-01 5.564700426903252950e-01 1.952589766970437846e-01 5.382101901295115176e-02 1.775889730040940140e-01 -2.337747813108172756e-01 3.908935591157590150e-01 1.968555333191985834e-01 1.822180173480934529e-01 2.049983370392007842e-01 3.655627406002428387e-02 -1.166190821016737378e-01 -1.387004692000121109e-01 8.207957955256249202e-03 -3.030513321019400741e-01 2.590794836317509287e-01
1.100370992878068471e-01 4.594201629216315003e-02 4.007082616159807209e-02 4.945787571322118881e-02 8.617183559962150741e-02 2.465491784158395719e-02 -7.615175884501045045e-02 -9.606410570703509400e-02 7.610998923736325174e-03 2.630811967575913402e-01 -6.249400195396575403e-02 -3.877488760474523954e-01 -1.248079145120647993e-01 6.038137285520856629e-02 1.645026616198848601e-01 1.380578966328940282e-01 4.921147990391678412e-02 -1.021631059906631528e-01 1.319211229337939328e-01 2.090151568972377083e-01 -1.736557258889490640e-01 -1.402796431686488265e-01 -3.378124316322925896e-02 7.754983744618652863e-02 3.700024452539236175e-01
-1.738994209451417625e-02 1.491954517246744105e-01 -6.436430039976853701e-02 -1.036841049166213891e-01 3.261382032353021126e-02 4.757823393255069394e-02 2.101325502269433543e-01 -1.680956568148356534e-01 -1.778650547475754962e-01 3.288294503768053878e-01 5.682552467956231146e-02 -1.074600435323119912e-01 -1.342269444406485601e-01 -4.608832125613573222e-02 3.211581229244776098e-02 -1.698945075327989995e-01 2.139451532309107062e-03 5.243941326520509816e-02 -7.501866364382153707e-02 2.162740264825576686e-01 4.632951311949335960e-01 2.913466231517258462e-02 -3.973868753939646670e-01 -1.528936717382778365e-01 -2.154611099220422529e-02
5.943190836825067852e-02 1.006723626371595764e-01 2.069359463251537173e-03 1.407993601931949168e-02 4.485289165434876678e-03 1.638557611104045353e-01 1.024785020502959748e-01 5.400645909778344078e-02 5.443639100754184279e-02 3.659080454907994162e-01 3.490226345133611852e-01 -1.028209033102315956e-01 7.534066033176938480e-03 4.599147909377884758e-02 7.534507378943533507e-02 -2.227431477629499348e-02 1.835900547375649283e-01 3.187576574849926847e-01 1.508697521793724884e-02 8.813541854195655612e-02 5.067563951599577537e-02 1.349498085229812738e-01 1.861763602482795488e-01 8.038244782081147011e-02 -5.776359319105570100e-02
-8.605722533490605536e-03 8.808917139940306007e-02 -6.044891687977555633e-02 1.884707060521886024e-01 -4.867666556728729443e-02 8.387139313470519386e-02 4.581666888392161435e-02 1.734901309360598054e-01 7.138718539256251605e-02 1.615938607081445766e-01 1.647370467938782390e-01 1.840477646409779955e-01 2.573842303264410256e-02 -4.887614394915774929e-02 6.531332007794665717e-02 5.354064189882155184e-02 -2.230015246018513669e-02 2.070239163045361208e-01 7.911886123344039068e-02 -9.992501211368261249e-02 2.759726821636672156e-01 5.831275601575963870e-03 -2.952391878827246852e-01 4.733103954746225445e-02 1.666592571623818839e-02
3.033445272043210419e-02 1.297392810732916901e-01 -1.269236079729453917e-03 3.343161289480480608e-02 -2.287303115773761941e-01 -5.347797703601973873e-02 -7.540846373232819311e-02 -2.028131074972835124e-01 -1.742453819446193597e-01 -9.604320944057018195e-02 1.266507934895567122e-01 -1.210618829507338484e-01 1.910296310567025924e-01 3.753350931200022389e-02 4.031899128622757483e-02 -6.664961777619671235e-02 8.536367807900682725e-02 -4.093437302629267527e-01 3.265382523713591945e-01 1.654135621468096062e-01 -1.642406167607746437e-01 -2.542101608145693747e-01 6.742185265983310916e-02 -2.417535158680597929e-01 -8.743832665749694895e-05
