-7.478388582073199897e-01 -1.552400585511472253e-01 1.452160988123047114e-01 -3.080653461908395285e-01 -2.637319518725848022e-01 -2.301928513700195189e-01 1.449148759063222658e-01 -1.899487988215009526e-02 -9.681312093058817014e-01 3.265789520129120382e-01 -5.869040549934594342e-01 -3.482928645773854526e-01 7.195320652682199447e-02 5.782488666044126591e-01 5.436819645212727370e-02 6.732167243435365211e-01 -1.623615334921888476e-01 -1.546971583842501607e-01 -1.241979261909746113e-01 -2.614779588339822269e-01 -2.441986153960598038e-01 -7.720762245343726349e-01 -8.862215980491296996e-01 1.016837339363338977e-01 2.666915829021765938e-01 -7.935143142494485158e-01 -9.159025764899251243e-01 7.008480403860205266e-02 -2.060293386165412965e-01 6.962598589127007020e-01 -5.075820740484808524e-02 1.004268251345267066e-01 -7.725646256598361905e-01 -6.354981272872245457e-02 -1.245624980352709604e-01 3.966583629146390177e-01 1.327147977832151826e-01 -1.308922046404410455e-01 2.409218425727997215e-01 2.116375001955986823e-01 5.056131877447996026e-02 8.454406204381287315e-02 -2.645425590080164452e-02 1.706562817636038398e-01 3.069376277911740891e-02 1.680525342128029453e-02 2.026858461809595280e-01 -2.864769507758641032e-02 8.617780199203490810e-01 1.137781395262128514e+00 4.623295482199853978e-01 6.433023597764099544e-02 -1.002825957225703224e+00 -5.401309351945361437e-01 -3.164501374361356617e-02 5.812254756161988611e-01 1.063178859063231396e+00 -1.198976408248751818e-01 -6.753087790455425399e-02 -6.828666403892827419e-02 -4.280498029944485722e-02 3.704875492715307278e-02 4.976561414170924125e-01 2.737985297464972101e-01 -4.624440935972015665e-02 -9.347436481017183663e-02 -1.112926567299069025e-01 -1.906460649236297877e-01 -2.576778026071311345e-01 4.076003330365146615e-01 -8.073843474991557745e-01 2.197741269612776480e-02 1.022664788502773314e+00 1.381161339944110208e-02 -9.087298936748317013e-01 1.047329155043127180e+00 -9.840848436196683036e-01 -2.704085479227368305e-01 -1.094330217502831992e+00 -3.260063739336355182e-01 6.873297812460341660e-01 1.483651380392952707e-03 3.286775113432343076e-01 -2.074024819605133629e-01 -2.289307418110862469e-01 8.453024653069539374e-02 1.381726942898924837e-01 -1.979719387659190921e-01 -8.290905188033166617e-02 -9.383787647722743319e-01 -1.964293638963375555e-01 7.592896242739810564e-02 8.774000040823118352e-02 -1.169977015437043272e-01 1.513206924349156102e-01 3.770657960497770800e-01 9.213419946224811197e-01 -1.151315490389778588e-02 -7.399833702982147599e-02 4.878133751711075106e-01 4.778124115749284861e-01 5.969919482895315044e-01 2.011375267152883950e-01 7.229521130490985659e-01 1.525337250889307987e-02 1.727631982831684121e-01 -2.415097537913543299e-02 2.865007597327835498e-01 -4.106381190012531879e-01 -3.280542546225870271e-01 1.639134129644133075e-01 -8.022314120573239768e-03 1.087851536993964391e-01 4.505745968648180999e-01 -1.166931992757486602e+00 -6.446836468192321343e-04 -3.814323542924819566e-01 -2.308038795874709781e-01 1.744654878575349621e-01 5.992209080300469476e-02 -2.633626857644761898e-01 4.056333649089731257e-03 -2.544948977098597798e-01 3.800368600146593334e-02 1.846629245938223030e-01 -7.029390509776116402e-02 1.150859733017883579e+00 -5.966080129328853454e-01
-3.765864404754621364e-01 -2.748220403889058416e-01 -3.139622427417002037e-01 4.404017485128824960e-01 4.382214477641585559e-01 -5.681701425316523085e-02 4.821109563979606577e-02 4.021657054889515859e-01 -1.190541686439354312e-02 -8.604731344212011119e-04 -1.671456941982918110e-01 1.876502436333455093e-01 -6.108189928765404841e-02 -6.194959162947992759e-01 -8.421762508767643984e-01 8.120436391757450412e-02 1.013980726747868016e-01 -6.251477862157430732e-01 1.307437515589987553e-01 -1.627546761134483488e-01 1.021447870020915014e-02 -1.479762463189292221e-01 -3.875596219715323615e-02 1.548053798605317395e-02 -1.818741334558116318e-01 2.536052212276620477e-01 -4.242658633718762035e-02 -5.701359251575682102e-02 -3.134135395108698652e-01 -1.768533935840873317e-01 1.288588601789041888e-01 8.261489069029084864e-02 -3.450856075175173787e-02 -2.136276480717199874e-02 -1.937241970957024467e-02 -1.666577953431318815e-01 -4.867526997868608651e-01 -1.305148884816721699e-01 2.054981420053594576e-01 -2.070645459199162430e-01 -1.127643449337354248e-01 -3.372989939873240195e-02 -3.708451934134958106e-01 4.386943309897703425e-02 1.411550132171618122e-01 -1.489555133419996624e-01 8.688998904727142369e-02 5.678568847872038361e-02 2.922663059833872090e-01 -1.051176117973774138e-01 -1.957383233498528885e-01 -8.135245185346381969e-02 -2.427719518375240360e-01 8.201214774375230332e-02 3.805706632999609172e-03 -1.767029468507037293e-01 9.832445130173546322e-02 5.193403534896027240e-01 -1.670356022845002897e-01 -4.977708861903777648e-02 -1.793007857470872990e-01 -1.270845412558128246e-02 -5.499597950406384106e-01 -2.410681767655588614e-01 -1.370725749784964254e-01 -5.927064262391395361e-02 3.445151590716528101e-01 2.546170610529600586e-01 -3.184023283833214545e-03 2.970971417027562511e-01 -2.683268014333844431e-01 7.694914985963810516e-02 8.528485451712108922e-01 -1.540451209905597807e-01 -2.286122305485868145e-01 8.470609824462806137e-02 -8.772574428546667802e-01 -1.395853189689692624e-03 -9.132151535298722866e-02 -1.435218620238302295e-02 -3.428455081522226444e-01 1.588230722673496520e-01 -1.903226066294378960e-01 -1.608482496409917861e-01 8.503065403117805732e-02 1.077601935753341560e-02 -1.920601508553443915e-01 -2.673077419660976894e-01 -1.891880425138449950e-01 -1.706829465792950584e-01 6.105185386058405161e-02 -8.831347575819000761e-01 -2.485549400271052367e-01 4.845320846737250498e-01 1.767947043206222479e-01 -4.702471236496394424e-01 2.887475574030050618e-01 9.500577570748000578e-03 -1.448500628474405465e-02 -1.475581940629236942e-02 1.936067035717604357e-01 -2.593485610843305755e-01 1.145994043933008383e-01 5.219723432140307429e-01 1.411430863911981581e-01 -1.202470706396982780e-01 -4.628693264446896369e-03 1.981599521017434751e-01 8.271712539491687943e-03 -2.040299996650133674e-01 9.776584988153036448e-03 -2.615904784661315929e-02 5.195955145123810903e-02 1.754016625241352212e-01 -2.828449072676258447e-01 5.981188447008449482e-02 2.964828528338969704e-01 -9.734926830412236887e-02 6.202633655723011757e-02 7.756743034945783044e-02 -3.913554775318420775e-01 1.286499320692107984e-01 1.786801130232743284e-01 -6.877125273388905169e-02 2.135455341427212606e-01 1.990741413148539862e-01 5.249176596978540055e-02 1.038448112674155710e-01
-4.702985754591353929e-01 9.770178668211622341e-02 2.536242547205371789e-01 9.676664337239969382e-02 2.100536173721682109e-01 -7.340543036917827890e-02 1.288648011127067339e-01 7.393407560752035534e-02 -6.407782004677875509e-01 1.007096279854473031e-01 -5.847670124930149926e-01 -9.408696472387755028e-02 -1.646944843040333561e-02 -7.158536283557176416e-02 -2.829759025042090093e-01 4.799292882778826569e-02 4.024681686021024940e-01 -3.112629996416140243e-01 -3.950912951795201161e-02 -6.937131840328154830e-02 -2.031454416131344420e-01 -3.113511987190401009e-01 -1.510178013222036875e-01 2.432916770477587531e-02 1.576885127816079757e-01 -2.375658769916296764e-01 -4.122777989457999670e-01 1.536963185779965067e-02 -5.798712418795008983e-01 6.937917748737977564e-02 5.215216340246810189e-02 -3.230592707153552290e-01 -3.759728554916618726e-01 2.217684277643092172e-01 2.435899862763908283e-02 -2.757227212497578850e-01 6.853552851465000151e-02 1.944793070979246863e-01 7.742671855889951549e-02 -7.715841121567669492e-02 -1.738445870182970046e-02 -3.925861226753842720e-02 -2.202214365046164524e-01 -1.026393249498354365e-01 1.002375699272819026e-01 1.118057013730078819e-01 -2.197429962571109396e-01 -5.578069032440072239e-02 1.946029176100255165e-01 4.024114777581071223e-02 1.647656083875158328e-02 1.003641598878564217e-01 -3.132721740149976841e-01 3.091223906622955070e-02 -1.837312934463138370e-01 8.887943517786024705e-02 5.613334694141809411e-01 7.250327860081598463e-02 2.068566678517422264e-02 9.975589505583673522e-02 2.193881375508096795e-02 -2.536083891899446052e-02 3.809456601897543981e-01 4.016620995882232148e-02 -3.460346722013817652e-03 1.508755141684040291e-01 4.908503219238397053e-02 -3.186128977911896476e-02 4.365886278247862323e-02 3.469939228899001082e-01 -6.148696913031067579e-01 -1.285080346123484429e-01 6.316273779028720448e-01 7.184564357113336353e-02 -6.276249282240622396e-01 -1.428292236997009135e-01 -3.982695218072692112e-01 -4.428227640423203215e-02 -4.087053389915554225e-02 -5.635526302434432089e-02 -1.865985504194387912e-01 1.377781920027120258e-02 -2.376945732624282954e-03 -1.730298773473289142e-01 -1.002736390064297434e-01 6.234578779379844338e-02 -2.204108320330458448e-02 -1.402691568100940256e-01 -1.086839969112055743e-01 -3.590353356481574276e-01 -1.943546027733517312e-01 -2.389118490612074930e-01 -1.254390860447125999e-01 2.418088006438149085e-01 -1.005117288304552270e-01 -8.753753002615248524e-02 8.177655605134639405e-01 7.220724698403591102e-02 -1.651258034617135995e-01 2.688484189904274402e-01 3.892153691341352917e-01 1.628713734317362161e-02 4.990213057321536000e-02 3.098888620918708314e-01 -1.192547382644975999e-02 1.290225026802950259e-01 7.279691061718732148e-02 1.752229790308688362e-01 -1.232318122906008034e-01 3.558270209104903714e-02 4.788154867814885252e-02 1.812657195512414054e-01 -9.638765669929738600e-02 1.662113284697589732e-01 -6.435447780225665992e-01 -3.462545948309863481e-02 3.990338275409201912e-02 1.587194204255241714e-01 -1.285983480048932537e-01 5.145275379245471681e-02 -1.131803546625673035e-01 1.608102926756685980e-01 -7.594488338274350825e-02 -2.921353115448978022e-01 -1.318907530315983033e-02 -3.150315612993183877e-03 6.997782954314999415e-01 4.586339189200359934e-02
8.330908820741007859e-02 -2.664527644435121800e-01 8.832466746317001183e-02 -1.522320190397574192e-02 -1.246329021283609645e-01 8.337495908292143210e-02 -7.739827202709999299e-02 -6.479095349596057651e-02 -5.729720325629941192e-03 4.875595575643409257e-02 -1.165966245527955691e-01 1.608669595517643255e-02 8.918494517765954144e-02 1.627753003682576652e-02 2.897729969119456836e-02 5.825430025097103753e-02 -4.321966519231070641e-02 -8.269819110967395470e-02 -2.292840508825532211e-02 1.808901771788479773e-01 1.054383002377493606e-01 2.875402992801712188e-01 -6.222417924052742189e-02 -5.304559299747791529e-02 -2.814265823357615937e-02 -6.778797725455162904e-02 -1.377102882273087969e-01 6.410439236268899998e-02 -8.455059397324429793e-02 -5.070452219874312799e-02 -1.617961722650209933e-01 6.153665249062293535e-02 6.883720047766572758e-02 -1.522260456226482428e-01 -7.356830701587276089e-03 -4.440066502202968945e-02 -5.225810947840765774e-02 -8.677264527857819765e-02 3.979108735548036319e-02 3.431754703046691751e-02 -3.569658618056211624e-02 -2.095827004820281780e-02 2.058020674407241152e-02 3.123628222776428723e-02 -1.803899888502879731e-02 9.175425922154284430e-02 -9.370094315588824163e-02 1.114535327517589096e-02 2.216177435423918526e-02 5.778037618101179718e-02 1.648846053675390513e-02 -1.146507268010743263e-01 -9.844380794802698453e-02 -2.245043672574668220e-02 -7.713923793022943454e-02 1.532364228459846267e-01 -5.220339445799016681e-02 -3.074201018662687732e-02 1.032037582192259356e-01 9.489266522473630006e-02 -5.152653845398198762e-02 1.844320390310422997e-01 -6.888445311038317309e-02 6.926045554529637605e-02 -4.660550235749142539e-02 -5.361715505779516416e-02 -2.511985272328196364e-02 7.478293905228338041e-03 1.428247462908577847e-01 9.246082937618385622e-02 1.432995628191824355e-02 -6.897881267145633544e-02 -3.069789423474826584e-02 -1.780188303845089276e-02 7.656718395367957675e-02 5.478264594168909263e-02 -1.500180986524425782e-02 6.971217448945186967e-02 4.652066922583791841e-02 -6.025860762408614957e-02 1.951003509526195740e-03 -1.805885303474915812e-02 -2.208989977083550965e-02 -1.792167662744187095e-01 4.180747271817318589e-02 -1.117706667788411282e-02 7.504954702317589987e-02 -9.410419378430841253e-02 4.964991700980349310e-02 1.224326288445994580e-02 -1.618259878679468855e-01 -3.631195895460370172e-03 -2.240142139669991372e-01 -1.648382135988938138e-02 -2.385534414485117605e-01 1.497704556381896923e-01 -1.458205544618429994e-01 1.710207278376006668e-02 -2.646430479810382153e-01 1.589523655434172192e-02 2.321318035083868025e-01 -3.014545928030279084e-02 6.006279361014877499e-02 1.083200429725099910e-02 5.247496233718844383e-02 1.180908965665136562e-01 -3.705443762253807054e-03 -1.785995988694926151e-01 1.159855562546649455e-01 -1.147306630104469871e-01 1.305742582748566083e-02 9.321022751936226813e-02 -1.093035982764118536e-01 -2.402426888791066861e-01 -1.172224667320286191e-02 -1.976352574607393719e-01 -4.035078452722906661e-02 -1.589811222950686664e-01 -7.722666295587968244e-02 1.291601940783078106e-01 1.075604384310387962e-01 -5.830149994271922875e-02 -1.246173791696830874e-01 1.564706595868327679e-02 -1.195354606120466456e-01 -1.968275311420250029e-01 9.971508531949350995e-02 8.395549500283536193e-02
-1.655696418029938555e-01 2.850497574499253825e-02 1.633422057763371862e-02 1.184507503739255264e-02 6.709410624783737620e-02 3.780880317360769266e-02 1.837091310594308677e-02 4.633805792503263576e-02 1.638900312967572206e-03 -4.091991443391140154e-02 8.146740472046880288e-02 -1.588472914021116233e-02 -4.955460897848960183e-02 -3.624634189802640460e-02 -1.372396572227745082e-01 -2.273143972987856642e-01 2.320996056380362216e-01 1.357483576584665556e-02 -1.335785378480005281e-01 -8.680674351189196503e-02 -2.633838323665809167e-01 2.126798483005203078e-01 9.509484259737857603e-02 1.077740095660804781e-01 -1.197193028603235100e-02 1.034370536960603632e-01 -8.719940847137047646e-02 1.070758273260405263e-01 -1.187903864973302859e-01 2.296684818688044527e-01 7.038734894210535095e-03 1.212874712598089044e-01 -1.572654244778101673e-01 -7.462213527508911037e-02 1.289652109803888225e-01 -9.560819309627474616e-02 2.057583843637295629e-01 1.066338332310290821e-01 -5.411789757970646847e-02 -9.221011793732970807e-02 4.454566176879000416e-02 -7.598341520473594901e-02 8.034350435027565185e-02 -8.638256230277041592e-02 1.083517092460579839e-01 1.296276882284913834e-01 -1.448932710659286138e-01 9.382510608658603535e-02 -2.976480602903134806e-02 -9.060986630125297467e-03 -1.003243113429336426e-02 5.706668827079718759e-02 -1.547678038368535680e-01 4.336219736831854049e-02 -1.290686672661869872e-01 2.794193006265000001e-01 3.954528865107728025e-02 -2.051896322155586164e-02 -1.683719239421156144e-01 -3.815678700831408310e-02 1.067061827213945657e-01 1.258423008395861964e-01 8.770679548575201212e-02 2.977426156113041622e-02 -5.162036138667615293e-02 8.309052903221171571e-02 6.341406691791218186e-02 4.956873441290707977e-02 -1.565184505188686043e-02 8.130080304975387251e-02 -8.670566497090731461e-02 7.457563690245491705e-02 1.805841663205183523e-01 -2.340977080130006785e-02 -1.647212862076687379e-01 -4.970756841709149387e-02 1.203741436053269373e-02 3.512621487015865629e-02 -3.276329960198715030e-02 -1.832617197864012115e-01 -1.669376716432907637e-01 -1.730524448390098613e-02 -2.703161320290721481e-02 -2.918347188845923368e-01 5.089837509741545335e-02 -4.015000980339779313e-02 1.537473617206872867e-01 -1.424377288727219082e-01 -2.929499551714248931e-02 -1.337125155879082539e-01 -1.526054488874103721e-01 -2.570153545658077077e-02 -2.373138656482122813e-02 -9.206760723722569317e-02 1.010954724898769086e-01 1.084588049231376972e-01 1.657371748949123050e-02 -8.331116418306269700e-02 5.762035610669331842e-02 1.852218086750483939e-01 -3.629486007782405099e-02 -3.066444608142782427e-02 9.649947217633006447e-02 6.416572441287601847e-02 -1.610554513902086871e-01 7.966836373199949473e-02 -7.223811925202243411e-02 1.613283523103742068e-01 -1.109636301823937465e-01 -1.700968822970206351e-01 -8.569220010444350555e-02 2.774093390631873421e-02 -8.448841923447324154e-02 2.714023127483599085e-01 -1.414056650379621471e-01 2.162080361350451618e-01 1.932886813753227281e-02 9.467390577177579869e-02 1.250878239495047117e-01 -1.330451173745520466e-01 -1.354779619055067885e-01 1.197431594755725692e-01 -3.885934486295157808e-01 -1.025421502890881131e-01 -9.588682185143268533e-02 3.811943055751248338e-02 5.033847385825195725e-02 8.965534549114255458e-02
-1.933769352394855978e-01 -2.124364980075629517e-01 4.417991305553137793e-01 -2.850030636326643108e-01 -6.623685434232838565e-02 1.070637664434785918e-01 -1.269549646718052260e-01 6.474327396842272098e-02 -1.264607505614468996e-01 4.648295222994278109e-02 1.156107427184576986e-01 -1.309774087730276315e-01 -5.117130553165371437e-02 2.033633434083823716e-02 2.420358595638232857e-01 -9.765969827740593467e-02 2.727918711881780478e-01 1.650532767992207162e-01 -7.488674745657790399e-02 -2.171865806037377999e-01 -4.212389588933673074e-02 -2.457008828030563530e-01 3.505955019886427410e-02 1.392662413004903607e-02 6.885918109233597761e-02 -1.187117299522522373e-01 -1.783369539428510397e-01 -8.074118041562572748e-03 -1.027847781383060301e-02 8.042681860200007193e-02 -7.666144621495403488e-02 -5.237941806767063176e-03 -5.035030703016023235e-02 -9.076175204535241736e-02 -8.650388201785784437e-02 -2.260498334868952797e-01 1.336979426574297913e-01 7.894248882509884158e-02 1.599041053011735630e-02 -2.154908754530880655e-02 -5.890626350107234371e-02 1.654923483017806396e-01 9.769795707161860188e-02 5.507095138235199722e-02 3.652500537995927252e-04 1.701410920240443991e-02 -2.832051394199533445e-01 -2.116812283752029025e-02 -1.140729580394534842e-01 -6.300747715346037559e-02 9.587613143109970093e-02 -7.564679533528456679e-02 1.073366529541500136e-01 8.443425635716780842e-02 -2.430769201724647666e-01 2.491373666016201416e-02 1.411777654204378861e-02 -2.677326581464252175e-01 4.998794239622268015e-02 -5.876650152232316959e-02 -3.798012961099554025e-02 4.390145163215398993e-02 -4.378036488824542383e-02 -4.639607778984508601e-02 5.188392925035503062e-02 9.178633966476933137e-02 -9.486989809880198854e-02 -1.933075070158190023e-01 1.323357063424696611e-01 1.242778887392282788e-01 -1.226224850470693378e-01 3.664743547557311465e-02 -1.362726616266615731e-01 -1.317738149326358188e-01 -1.009344335441917373e-01 -4.381242876922231827e-02 7.182623952259914457e-02 -3.700122684388985894e-02 1.050081382408768887e-01 -1.290296132372551197e-01 2.791691437822579891e-02 4.116952053392847546e-03 1.382767249882755484e-02 2.300592770260728726e-01 2.859577088719467836e-02 5.130135559750513552e-02 -5.625679368855317219e-02 -1.090268449963728153e-01 1.099175098950188889e-01 -3.683693888984377468e-02 7.457662596534257726e-02 6.919778121068209664e-01 -1.067082649356988350e-01 1.293490990572199462e-01 -6.790614829623277567e-03 8.888679785328780503e-02 -3.929690711967450539e-02 7.331240098859920229e-02 1.736867515422678976e-01 -1.342440574743158366e-01 5.631308467546787544e-02 2.801957294035695850e-02 -6.937968311555295364e-02 -1.590986128548649570e-01 -5.183437150846340741e-02 1.410140098068303760e-01 5.791704307107829741e-02 -1.406124223066391732e-01 -9.248537067805612938e-03 -9.646651733269399898e-02 8.821325691289197413e-02 1.127192878508489482e-01 4.648759070346360905e-02 3.149722005797554736e-02 -2.075263823764849080e-01 5.510387708160460751e-02 -1.160014335471912517e-01 1.161783329670688925e-01 -2.370825717331350151e-03 3.687258973132245821e-02 -6.176588344364984662e-02 1.762165171071209679e-01 -7.886273111674946268e-03 -5.863492655489303124e-02 4.045428258216136885e-02 -8.091699982381346523e-02 2.165443580470263196e-01 -1.123503058541232835e-01
1.016730447785596653e-01 -1.253378843951243327e-01 6.989962170219587989e-02 4.065434493179082009e-02 -7.068777769902086228e-02 -1.489773757268780252e-01 3.536914640465393389e-01 -1.380460209839650884e-02 6.980465208576451530e-02 -5.753399666052017025e-02 -2.422440376063517663e-03 -1.720467372422142260e-02 4.000858106913484508e-02 -7.598291467347219330e-02 -2.392419964790692966e-02 -2.567323272185208574e-02 -4.630318831051725287e-02 5.463136827337454482e-02 2.839867123250610081e-01 7.758809480778933176e-02 1.930544715715276360e-01 -1.294421278641351425e-01 9.821234462301304743e-03 4.013502621942197784e-02 1.598535519861655763e-01 7.749967686406331480e-04 -9.952559426066477644e-02 -4.596450368303727635e-02 -1.058645133315027076e-01 -3.199828005521139496e-02 -3.202071259124582292e-02 -1.356282227902512183e-01 4.821085885255772807e-02 -6.650210868234740502e-02 -3.048889833660359261e-02 -8.058273884543269705e-02 -6.486921676058908515e-02 -1.384914360701924030e-01 9.548623019380723942e-02 6.142044759946231614e-02 9.376943816473455595e-02 1.326417359802237184e-01 -3.567276880235449588e-02 4.920008460868933314e-02 4.307472863241035982e-02 1.022488242390495183e-01 -3.016127180944278008e-02 -5.607189379624295811e-02 -2.004124710947316132e-02 -2.472687040801336070e-02 -1.610288388662218517e-01 -5.083348551206132854e-02 -1.575558524905124047e-02 -2.406369530490738359e-02 9.651452683606041860e-02 -1.055128339190117420e-01 -1.441068942307260070e-01 -5.528920100141580113e-02 -1.148622683699023206e-01 1.623862659090055671e-01 -2.410871744891306817e-02 -4.109181892311643963e-02 1.150326443370896928e-01 -5.007168795610055650e-02 6.557226118026342199e-02 -7.333866065356919872e-02 7.923930414961131985e-02 8.137672454060105795e-03 2.315725355158324700e-02 5.066636153981542157e-03 -3.504036860990161067e-02 1.585059431283350473e-02 -7.795279074986265211e-02 -2.269229122516501496e-01 8.159206128109822154e-02 1.082591715258855031e-02 4.688435267766889736e-02 4.884644858507387888e-02 2.964226623844018818e-02 -1.599346539675869650e-01 -1.092779891022016836e-01 -1.762186276524855058e-02 -1.949990707399208434e-01 -1.222060032452208095e-03 5.728554548579146283e-02 6.316853604048405790e-02 -1.182507218771892826e-01 5.547496923559345344e-02 -4.500548790935168103e-02 -5.269498635407061232e-03 5.147248788455473928e-02 -7.717662763178487206e-02 -3.150929538583265715e-02 6.469797425516633435e-03 -1.902813920705657622e-02 1.163017434059692747e-02 -3.979002604436118751e-01 -3.375866585268397224e-02 -2.093801865949115881e-01 -1.129034994283371757e-01 -3.275298682089627933e-02 -6.020310207679727132e-02 -8.283064175985031807e-02 4.962773695911694427e-02 -4.475514518337298311e-03 -8.003261054718747991e-02 -8.831243494586686615e-03 -5.199562727241073545e-02 -1.544445652183495249e-02 -3.450679725435058798e-02 2.500968791638078642e-02 6.400371571196233900e-02 -1.275559585540103347e-01 8.100712934011959632e-02 -1.102198760610716977e-01 6.577622034915625582e-02 -2.797206298469137316e-04 2.494569784023943082e-01 5.017600504913848763e-02 -3.753433814323820644e-02 1.136292354204212519e-02 1.979381952816034948e-02 3.873900693210941687e-02 -3.078145726817314853e-02 1.731995005285802414e-02 9.762057439656697533e-02 1.148783447671690092e-02 -5.702496426137586977e-02
3.459928080494773309e-03 -6.060873172911887541e-02 6.411803567262987225e-02 -6.279567357370446825e-04 -8.395095521954407114e-02 -9.105314739179093397e-02 9.797764164825661926e-02 -2.114784320539616312e-03 1.451766326725772646e-02 -6.255990294422174303e-02 4.604224964467654863e-02 4.888682899508540319e-02 9.390885935124003436e-02 -3.161451088600544801e-02 8.143426737930761772e-02 9.268085079134633086e-02 -7.404684994804890119e-02 4.482492512638119875e-02 -2.440825111262052427e-01 -2.378010229953970989e-01 2.630075433512598093e-01 1.029795235551982241e-01 -1.088699123307582985e-02 5.452769045254780150e-02 1.845271004132886250e-01 1.767415532774357922e-02 -2.423410761936631852e-01 -5.617292000314608007e-03 -2.091719841340981476e-02 8.493261874447058379e-02 3.769301743745846062e-02 5.201184986644667024e-02 7.924055535059584821e-02 -2.684709440923259138e-01 5.350903349327532782e-02 2.029672935621923760e-02 1.472459877955286690e-02 6.507342122044347532e-02 -2.240839810097280168e-03 -7.059102297428121453e-02 4.760016522888946972e-02 2.776991853209906727e-02 1.015306846813458092e-02 -2.748912730086942591e-01 -8.905226760180794121e-02 -5.869780515028036327e-02 -1.501182041712193112e-02 -3.964149197599792229e-02 -1.314158044372559786e-02 1.654683240332474256e-02 1.054063487532220025e-02 -1.377544744238385632e-01 -5.268726829110682852e-02 -1.384589772156028485e-02 1.366253067116308673e-01 7.426211668411782790e-03 -8.004943857595413215e-02 -2.929587972474626684e-02 -8.250359795111940342e-02 -3.058387866113845832e-02 -8.535867298169904499e-03 -3.427351176781647402e-03 -4.563560026292715760e-02 -5.206491722397317556e-02 -5.727054376974208272e-02 -1.016184337284484623e-01 7.971097668672390280e-02 1.350191574643360981e-01 2.936543695246004310e-02 8.497899247416507151e-02 -1.328465424671996242e-01 -3.674249152051153183e-02 4.607933200235765636e-02 1.228719235146512601e-01 9.215313094760529955e-02 -1.180162354878596526e-02 -1.770773866798558416e-02 1.367400359245687091e-01 1.778866240209017431e-03 9.543904751326884317e-02 -6.517196037680711429e-02 1.354066227126269895e-01 5.843745961217676477e-02 7.181069833751500819e-02 2.686089678707938577e-01 -1.071224314546743855e-01 -4.214751602062992430e-02 -3.412626361704017286e-02 1.127671741334735581e-03 -5.393362995110454611e-02 -3.266970659002863681e-02 2.922388217601250629e-02 -1.975200002285481399e-02 -6.695579757661154763e-02 -6.605709413957802471e-03 -9.723777166252352278e-02 -6.155982673725175491e-01 -1.662005611698097463e-02 -1.270034604486258156e-01 1.932400293929309454e-01 2.285085755137362257e-02 -2.863678775622261960e-02 -7.587191792284910495e-03 1.064052478546212155e-01 -3.149900385422406846e-03 -6.047069218272681929e-02 -3.706211023742862765e-02 2.388217213674671824e-01 -5.411568118176731702e-03 3.226714319283397470e-01 1.238847271149137591e-01 -5.308017257516347599e-03 1.269986742878308761e-01 9.505381027627823887e-03 -8.642566006367985443e-02 2.145123373044230050e-02 -5.854168988091472403e-02 3.264528913502397905e-03 6.421188187127407909e-02 5.440553009408851184e-03 -1.872816783242184091e-01 -5.425198953747691066e-02 2.438494347308958754e-03 1.805952081152864264e-01 -1.810071201564279926e-03 3.584448713022534566e-02 -1.148733834004700416e-01 -1.137753249557166835e-01
-1.375846557610402865e-01 -1.721998557992178713e-01 3.378962037993019432e-03 -1.994767354104313162e-01 -4.094267464243893373e-02 3.373922240266682276e-02 -1.330867320538004217e-01 2.178802459311426631e-01 -3.031423077309495021e-02 1.263416180257767585e-02 7.271820383423460710e-02 -9.547902625378527214e-03 5.972195644298173428e-02 9.978211478169676796e-02 2.196753182138504179e-01 -1.069511608454380563e-01 -6.610860158424192168e-02 8.501747349955472710e-02 8.620962318724938178e-02 -2.409738086940093130e-02 -2.511428753619312504e-01 -1.523008218086302212e-01 -5.126977705794740631e-02 -2.471319286684135752e-02 4.185460569784223844e-02 1.012577759193637600e-01 -5.161966895292978419e-02 5.190086607117345985e-02 1.428547305112561339e-01 1.342504213123819345e-01 -8.494883172141630412e-02 -4.949683294625353835e-02 -1.225511136041725069e-01 -3.260710248083596718e-02 -1.229087146175607270e-01 1.170764657484166422e-02 -1.852693738148460806e-02 -6.345396174439622838e-02 -3.685493682832888945e-02 -9.465114304635867046e-03 -3.227631293312925934e-03 1.151078478637438118e-01 -1.256333897886838524e-01 4.845650266159533953e-02 1.271908033733612151e-02 -3.187197577578592539e-02 1.814487716431460729e-02 -1.004559091123525226e-02 -3.856714194396799328e-02 -5.249691762975528669e-02 -3.678513674075210849e-02 -3.108491495700878987e-02 -4.996881979042896993e-02 6.836947054594608164e-02 -1.402204441452550854e-01 2.453684647360615534e-02 5.194207484814618303e-02 4.989164514361664471e-02 -2.244059499126105708e-02 -1.375135017705649276e-01 2.906871599380574100e-02 1.010477659636075526e-01 8.483221886936906375e-02 -1.073575020782300236e-02 -4.241036122653582541e-02 -1.266574528349283767e-02 -6.462690010898194948e-02 6.826562496973856420e-02 -9.336930230836737454e-02 -1.257131540043522067e-01 -5.005043634179465878e-02 1.312497689660868661e-01 2.625804061531830311e-02 1.398741751642960662e-01 -5.165257605896460269e-02 -2.762014960311569983e-02 2.643534226129403558e-02 1.445993997951396104e-02 -4.086697752337226791e-02 1.358900671318101494e-01 1.725549794397429268e-02 1.336027924725733951e-01 -9.199057557751530445e-02 -1.316539410004098909e-01 3.679186643755270186e-02 -1.704633780349005395e-02 -6.715345936868166721e-02 -2.718493876324913280e-02 -4.176901250418246087e-02 -8.451104890124171154e-02 -3.309129269563623743e-02 9.157757970372240597e-02 1.291050363071180318e-01 5.070244360813473510e-03 -5.780976748524184472e-02 2.954847722238455876e-02 1.047239379320011876e-01 2.711242614131116960e-02 -1.852088745012021032e-01 7.243946694299199796e-02 -7.498243969674187048e-02 4.135493866799879598e-02 3.924308074964535063e-03 -1.380887045777159103e-03 -1.026553938674108629e-01 1.809937187878160256e-02 -1.978761492760923446e-02 -3.360031695940032034e-03 1.029577762483531167e-01 3.518023349458038879e-02 1.551500367572054284e-01 5.943011287797360376e-02 -1.773433923008390367e-01 -1.870273228123152109e-01 -1.027238810238154665e-01 -8.638505350789275894e-02 5.602081176160468579e-02 -1.154477312974270670e-01 -7.779316798953102297e-02 7.921917547694468098e-02 1.025381730801538244e-02 7.915695033022440708e-02 1.266918406836699817e-01 -3.569397437374421944e-02 3.698057754952648046e-02 -1.269545220893182336e-01 -2.083167904037320703e-02 1.639086110161526791e-02
1.090806368695004386e-01 -8.380471933699515721e-03 9.475604533798389489e-03 5.236949098267542485e-02 -1.906280995947264370e-02 7.176285918421686921e-03 8.898300379266348148e-02 4.548589247914514022e-02 7.736951594885989152e-03 -6.598758768497635374e-02 -6.645595330150246005e-02 1.842791395706772362e-01 -9.148316018029030439e-02 1.025593363151966822e-02 4.493770693995174925e-02 4.592267130404685538e-02 -9.163705752507969593e-02 -3.461313916319778278e-02 2.414460306280938051e-01 -6.051171114111865423e-02 1.691829609639435850e-01 4.977661529534636170e-02 -4.752434548539251347e-02 -5.544219769249634361e-02 -7.546239308994549810e-02 6.241483544854115051e-02 7.353747488501371186e-03 -1.275500551999370936e-02 -1.449982495229316243e-02 -3.618682051933057309e-02 -1.243709771807429698e-01 5.242025898979283359e-03 9.477869835985754110e-02 -3.925999678038486623e-02 4.983134578122921238e-02 8.994198141962478354e-02 1.753392441665397594e-01 3.189014109963864835e-02 2.093681834258645860e-02 -8.417867549938251592e-02 1.509184193496617143e-01 -4.350246706732403823e-03 -3.182724359411235465e-02 8.604855750060229347e-02 1.986282047857654276e-01 -1.735214974932288920e-02 -5.709553945566548522e-02 -8.311530891820485822e-02 2.442214370405810034e-02 -8.588563724088038240e-03 3.192208960618345137e-02 -7.497129026303835098e-02 7.708804110168987478e-02 1.841297555445549350e-01 -1.125152491351881917e-01 1.887951749318178274e-01 7.246158844549129008e-02 -6.569640034143649568e-03 1.749604331754977746e-03 -3.698286372850324161e-02 4.265622431022943195e-02 -1.044870830576024728e-01 -1.684638114373930573e-02 -1.872130030410254671e-03 9.584675714987267447e-02 1.019417696321363656e-02 5.334570389429597881e-02 -1.122637375526420664e-02 -1.099949051229192204e-01 -2.586005090774684198e-02 -7.822430978172915939e-02 1.133967071865925463e-01 -4.122595667066836916e-02 3.042319087514872358e-02 -4.689496858488497594e-02 -2.667755443841301685e-02 -1.375328292551967514e-02 -4.298367901796394663e-02 -7.948826813770341893e-02 3.323880815924608045e-01 1.084841851902142579e-01 -4.717928091702514037e-02 -2.782517338560779388e-02 7.224699419552370327e-02 1.391035658439692367e-02 1.500113960049139980e-02 7.697748356360231692e-02 -1.039214166710141218e-01 -6.138908240991200471e-02 4.432603114001698597e-02 -2.302307580319052499e-02 -2.418651278026689999e-02 1.573277302607843653e-01 4.172730527851687549e-02 8.391435826539504761e-02 2.267300353839770549e-02 -6.936362930529696436e-02 -1.393493561692592947e-02 9.899075749714317252e-02 3.776139277106833891e-02 7.654342781749660929e-02 8.453055867997533168e-02 1.460324263672479680e-02 -3.051683034350303678e-02 3.353732780005160702e-02 3.882818790898624056e-02 1.108540688614193664e-02 -6.915829256513636447e-02 8.933042288126433195e-02 5.801942428993740047e-02 5.735928717184674008e-02 -9.174580124364263567e-02 2.323651520229062448e-02 1.008772240056192947e-02 -1.293085926073732628e-01 -2.261255540945983356e-01 -4.068280798185657660e-02 4.640156940986985695e-02 -1.733145259122327933e-02 1.146242829823909681e-02 -6.264274308905656841e-02 9.569061948284303745e-03 -2.642031821546693936e-03 4.529831550009962016e-02 -7.514131166830266551e-02 1.692461466287128180e-01 -9.155319450953819382e-02 2.075594816566931830e-02
-9.298047269271088322e-02 -6.831913373143572166e-02 4.516421336073604687e-02 3.715207257396429402e-02 -3.455203717704894567e-02 1.086233405340662761e-01 9.474491089556580370e-02 5.369831993800685405e-02 -5.226327887269947153e-02 -5.389901182592177209e-02 3.012890610320499707e-02 3.830154931889950820e-02 -2.758445395983182696e-02 6.021260107753693622e-03 6.603117013900962340e-02 8.480320532350410501e-02 4.168055595844452621e-02 4.126359122022047431e-03 -8.398483352059109069e-04 2.820260954175684426e-02 5.438823366421235289e-02 2.161706984645373267e-03 5.507486964671317459e-02 4.156779902161659296e-02 -3.657420294804716865e-02 5.433639020110610229e-02 1.095687226388823710e-01 -4.640343986430543050e-02 6.943991144484826239e-02 1.834816278337858542e-02 6.817240954397763009e-02 5.775203463448998903e-02 5.551417012822407876e-02 7.729206077618744342e-02 2.315876520140076195e-02 1.001407813495733268e-02 1.104741872276026882e-01 1.362926851401499162e-01 4.591998271875375598e-02 -1.989985889402134511e-03 6.127865112925259816e-02 1.939185428779748310e-01 7.636972599897867697e-02 -8.962428669468569531e-02 1.026305755596441591e-02 -1.125515614561876793e-01 1.130879641220513820e-01 2.619330325084720523e-02 -2.049397254090841100e-02 -8.383713558481760073e-03 1.732845977088285638e-01 -1.955800066228121636e-01 2.067265390040215478e-02 2.774979918078030947e-02 6.086524493126050685e-03 1.015476386872129072e-01 7.955892402377255646e-02 9.480003669255972210e-02 -2.610255745071079006e-02 5.436262433903876062e-02 -5.367335943709860419e-02 -1.150082550640441417e-02 -2.136537729919045156e-02 2.664799642275237912e-01 6.896299382094508990e-02 -2.569033647806065815e-02 3.069319975718451821e-03 -6.925892916560970336e-02 -1.017144417597642542e-01 7.476068989762972572e-02 6.764691209960538298e-02 -7.244450034732291543e-02 -1.470105303114861012e-02 -2.043951778573351030e-02 -7.092886340719672944e-02 3.645238934871631448e-02 -5.541636255070453432e-02 4.969917291819432592e-02 -5.169057169986422846e-03 1.579858823738521378e-01 1.124580754808175431e-01 9.970019135813555644e-02 3.909813269464895019e-02 3.852712297196490832e-02 -1.707471580580376680e-01 2.514896098278934441e-02 -1.270229431153711563e-01 -1.836841139715424467e-02 1.177613216134454355e-01 2.703581842721050621e-02 8.378584090063241618e-02 9.091725566926228685e-02 1.717666522987906785e-02 -4.326978513976693225e-02 -2.477451640118426834e-01 5.967067647821300280e-02 2.679601010954165141e-01 5.824552639613637256e-02 -3.696260196146535643e-02 7.710378290236591381e-02 -1.473697134264440323e-01 -1.230929749539862519e-02 2.056785252357178073e-02 1.081833633071496953e-04 -1.569181911036273969e-01 3.002611832931071159e-02 1.386416612407357085e-01 -1.263039098629227253e-01 4.918192105466279856e-02 -1.089606352943277151e-01 5.832023437451060166e-02 -1.905188376632666394e-02 5.656572386527183166e-02 1.154687581563970840e-02 1.696709643818935034e-02 2.937074189062554019e-01 2.024723008257704737e-02 1.127703496630241831e-01 4.012108056817288715e-02 3.981687793704427603e-02 5.205110998697860814e-02 -5.972575588875542879e-02 -1.067339414761503055e-02 -3.348970903882503292e-02 -1.018928686717848614e-01 -1.272538950611291735e-02 -3.466927659323227467e-02 1.777711453992529556e-01
6.521005142338884286e-02 6.189063883302732549e-02 3.700763520502362708e-02 3.728389544159788072e-02 -1.892646763989653050e-02 -1.816777205025600639e-01 1.495017888800893591e-01 1.594510015143272286e-01 -3.226249961585580389e-02 2.241580193793819842e-01 3.177908816247725782e-02 -1.063884345267854664e-01 -5.031584329394356986e-02 -2.447475155296596760e-02 -5.198878296623787474e-04 7.927002422128787140e-02 4.082293259031192362e-02 -1.961241685603487550e-02 7.457207328460229920e-03 7.676612412457910206e-02 9.805417922540282660e-02 -5.250911170536341072e-02 9.468286884328642669e-03 1.704175077949194889e-03 -1.351819974883092801e-01 3.666285877729732676e-03 1.849525714269551965e-02 -1.437916505836538128e-01 8.210071988025063883e-02 -1.072547582795926706e-02 2.694653624721912721e-02 -4.559880162204982268e-02 1.199720608681792422e-01 -2.965115543918318483e-02 -7.039513781092715528e-02 9.703913568697165523e-03 1.061280164793639569e-01 -3.044075674650858435e-03 -4.294836536611128242e-02 -8.501214236986086303e-02 3.694388884014118690e-02 -2.328072981583377901e-02 -9.056416572119076192e-02 -1.028890502933225981e-02 -8.408860803715956234e-02 -6.601113237851827242e-03 5.389387469000211928e-02 5.214771595585495842e-03 -2.099796106425680375e-02 -7.863610256917837743e-03 9.824322044195410442e-02 1.632138540808330263e-01 8.230085031045047961e-02 -3.008660232438941859e-02 -1.167849131602084062e-02 -3.803187197207165936e-03 9.141783799150779433e-02 3.499408259559120367e-04 1.269204203016725471e-02 -9.839099879758742007e-02 2.161335227925390012e-02 -8.163318639757091710e-02 6.559133642563606814e-02 -2.268932465021404957e-02 1.106737994391378127e-01 6.169540893059638487e-02 1.850578833046286412e-02 6.940005101484106667e-03 -2.027253286528720583e-02 -5.944445556565362138e-02 1.131170785872380029e-04 -1.326392544970115828e-01 -3.943425855507181992e-03 9.368042460696718310e-02 7.272486295117586499e-03 -1.208415585148975117e-02 -4.896398244046973325e-02 -8.551630593548775403e-03 -3.782623700854596122e-02 -8.889989351086771685e-02 1.223446636631043555e-01 2.082929521042900523e-01 1.874474291486150426e-02 1.551576065300154690e-02 1.646788367652262663e-01 -1.075930429165839058e-01 5.547960287133661683e-03 -1.884130288973137612e-01 8.172067377472835847e-02 4.725092725363773394e-02 -9.969703503327545513e-02 5.477787890869560000e-02 1.435905338084237509e-02 -6.234104983374687270e-02 1.055255300928682749e-01 -3.677029243019034471e-02 7.498666095137020149e-02 -2.239161521789828635e-02 -4.562768357629266164e-02 -3.400123685708634352e-02 2.002639751647114497e-01 4.485169084544415180e-02 7.065223484101058882e-02 4.307897340004525344e-02 -7.986691301139003940e-02 -7.029754431361279199e-03 -1.475984335627612276e-01 -6.979517533650865524e-02 4.060500373244192718e-02 3.896452205652216338e-02 1.716495550021941707e-02 1.149696211250411104e-01 -5.230731395323541533e-02 -3.798699784439774768e-02 -5.245740452438096835e-02 1.848181825029473480e-01 2.741101516584315209e-02 -1.156117751013776285e-01 -5.777938215859809712e-02 -2.208343083619490332e-01 -6.185446883778590588e-02 1.621787013840614300e-02 -1.246794792024719621e-02 -4.368811702015523712e-02 2.590242637958608748e-02 -1.235102321036265077e-01 -7.133470884905906972e-02 1.056311576940739960e-01
-1.518246663359367095e-02 6.693817388889497511e-02 7.051612307550379766e-02 -3.528637511540243243e-02 -3.399401661927650697e-02 1.991066813608215538e-02 1.267993316895854039e-01 2.343161984220177767e-06 2.567938248461603887e-02 6.096253898521722392e-02 3.454877214486403586e-02 1.350721054848794955e-01 -2.709108386164476787e-02 4.226006667320186816e-02 4.521166268614982414e-02 -3.642408792440635784e-02 -2.616938220441804991e-02 1.807578834133770698e-02 -1.204772726473868627e-01 1.253324369356179635e-01 -5.081185309393115856e-02 2.631019231604596331e-02 5.188759938791273618e-02 3.041587851430802708e-02 1.571968802917070307e-01 4.013483780482334992e-03 6.582587873571671411e-02 -8.771984848853600636e-02 -4.474562351005138133e-02 -2.826517221071107172e-02 -5.153471478062502525e-02 -8.519684545126436637e-02 4.141425680420923044e-02 -5.867103605275339473e-02 6.786325114207776565e-02 -2.663440539291207277e-04 -5.764425127661630677e-02 -7.019130766061081050e-02 3.062639090770699624e-02 5.274751367697095433e-02 4.138033537055632594e-02 -1.042568182786478836e-01 5.685916342277926028e-02 9.321566309988467067e-03 -8.438112460288008099e-02 3.465060926686657633e-02 8.230608517074470415e-03 5.722502424712626150e-03 -9.546827800854629231e-02 2.234147597550760478e-02 -6.041497201717858402e-03 -1.020373789237942058e-01 1.902361961509019955e-02 2.973105436692684289e-02 -4.984130599261103745e-02 -6.670548929965325335e-03 -2.927031793920475272e-02 -7.213997127699735279e-02 -1.433479815053463058e-01 -6.654168604934014575e-02 -1.198404329668192325e-01 1.868300930548757663e-03 -1.791722016896444419e-02 -1.467726435358382778e-02 1.520731587755039423e-02 -5.291714487666744626e-02 1.216933404509522865e-01 -2.275175656428491885e-02 -1.001082972917046766e-02 -2.546360207874136597e-02 1.232096100093954885e-02 -1.345688277804263366e-01 -6.551089154545390592e-02 5.466020810551374537e-02 1.999121291799706504e-02 -5.354315260037514207e-02 -7.921991480059811103e-03 6.342423590760833119e-02 -1.850879772679397267e-02 -7.792612949644081577e-02 1.770840148787821214e-02 2.799762420019229203e-02 1.258944217140700039e-01 -1.114662155458322618e-01 1.214716841132854747e-01 2.086329900773309376e-02 -1.137103876903083760e-01 5.869760439790788070e-02 4.440573924426452664e-03 7.412890061368630767e-02 4.131308886241696898e-02 7.434506608849027198e-02 9.299566400338339645e-02 3.048353328988962982e-02 -7.823837246405666856e-02 -1.367100341178262464e-02 1.778777986403164146e-02 -1.617441428712519322e-02 1.184400147143349347e-01 -2.128324629382028210e-01 1.413459092178639132e-01 2.634006429671786539e-02 3.954199651862313342e-02 3.606496543687508216e-02 5.369113642148188453e-02 3.271040610642480390e-02 1.571907422220153450e-02 1.715558232665278515e-01 1.067000473080399192e-01 -7.317802763336446470e-02 1.206545834481634605e-01 -1.074508976294402673e-01 -2.971732112068439444e-02 -1.531333642889254332e-01 1.992149701705808393e-03 6.582381157791038911e-03 -6.474278059651371320e-02 2.328241424865665557e-02 6.504736612514845639e-02 -7.437943496120578979e-02 -7.067624232174445076e-02 -8.180057970116130783e-03 2.115912317009051302e-02 5.166647957216558527e-03 5.180860924171728360e-02 2.051188520884121916e-02 3.968185708660035976e-02 -2.009174758916602854e-02
-5.028505932021635171e-03 1.436678289732514768e-01 4.511191820073178621e-02 4.115206796464108974e-02 -1.749309208719321664e-03 -1.262184000074275392e-01 -9.103061281218939593e-02 3.083016884063410554e-02 1.471815931080792950e-02 2.200359590714396074e-01 6.788833733423951800e-02 -9.808296950272163417e-02 4.386855279223696169e-02 -3.774141370315941407e-02 -4.139973462201981466e-03 1.857356944880146285e-02 -4.980034057268262898e-02 -1.381825582592230688e-04 1.120455967370363459e-01 -1.053643488076715651e-01 1.972887606419697071e-01 -2.845443925139411537e-02 2.787197687332894011e-02 -2.767259493230420433e-02 3.264100325250394313e-02 4.941687096456759409e-03 -1.262779310101152241e-01 5.084585570306346392e-02 -1.463568698533509495e-02 2.841838368330895995e-02 1.589362916018529498e-02 2.959618741853345739e-02 -3.929137786803775512e-02 -1.839476592507923169e-01 -7.331102624624434572e-03 2.199530561332786738e-02 -1.736279951526753171e-02 -7.633174033815524895e-02 -1.577581959933504474e-01 9.094555179964505689e-06 -1.794969113217606202e-02 -1.910943326289075983e-02 -5.836433804510243045e-02 -9.310501860037269373e-02 -1.462411799380915756e-01 -1.271781438505554529e-01 -8.907428431327391039e-02 -1.134298270367221084e-01 1.766139820030130161e-02 -5.440134860333679934e-02 -2.942808346017310173e-02 5.878648541755036872e-02 2.900841304415626917e-02 2.013503898799230349e-02 -9.046746956598449366e-03 -7.056800980027329306e-02 -2.830669910705173667e-02 4.336694725905149844e-02 4.472862686567072310e-02 3.457237450573764220e-02 2.755202935999343308e-02 5.447534519100737105e-02 -9.104239020130285021e-02 5.085012721650118001e-02 -2.169193770650878345e-02 9.053638693399003456e-02 -9.259098296831071162e-02 -5.354228791629090517e-02 1.859990291205580390e-02 -4.471600010376425467e-03 4.931119371773639085e-03 -1.474797501801848945e-02 -4.052432970007718155e-03 1.653970680581606234e-01 -5.197022546564303985e-02 6.046559209667597135e-02 -5.342039265727051983e-02 -1.554603396413724858e-01 1.518477788722743561e-02 6.399855896483505613e-02 4.760569596442777024e-02 -7.692757550474220440e-02 -4.629545449361204684e-02 -2.474043712866099420e-01 -3.336071628944321105e-02 2.969092391418850022e-03 -1.684052943338530117e-01 7.923865514668600174e-02 1.920508132815852698e-02 -3.334031644845190934e-02 1.146617919771949871e-02 6.503456210577598928e-02 5.412873240327350371e-02 -6.625239994333508020e-02 -1.301324114540190202e-01 3.148303933776842867e-02 -7.851895719630032355e-02 7.342866903810124635e-02 1.869744960227324171e-01 3.453162158096094447e-02 -4.611685681774493201e-02 -6.414445809075260130e-02 2.923250919888197019e-02 7.733096548389813141e-02 5.163495699140768780e-02 1.567382403585353481e-02 -1.654601102416581454e-02 -1.547750069843528142e-01 -5.561072998972810960e-02 1.481275873094702218e-02 -7.602497686653079956e-02 -5.071510872056359670e-02 5.822565735970307299e-02 7.752611872056879017e-02 -2.801040248645516803e-02 -6.456535977261476655e-02 -6.628650568147623386e-03 1.248109825338437895e-01 1.507284712540623572e-01 -1.590379369359554984e-01 3.455610339533997377e-02 3.874153334198667670e-02 -2.515096225988329437e-02 4.357401812285142256e-03 2.413910909617748846e-02 -1.071399482587770055e-02 -4.056343111781769706e-02 1.857586598367620689e-02
9.667375502965160072e-02 6.712807492389983276e-03 -5.537290486833261471e-02 -5.704394209997199622e-02 1.742669190486140565e-02 2.272109737353898067e-04 -4.586321238205109951e-02 4.889730727337072633e-03 -7.193395887681280909e-02 3.395583325319764811e-02 -5.418101821825653530e-02 -9.655900081327099815e-02 -2.349387992326555305e-02 1.400175035508429422e-01 -4.516405131913116267e-02 3.912178793510190378e-02 9.858784824474924741e-04 4.979065197803218649e-03 -9.081026840412358137e-02 4.006383099537438874e-02 -7.891169269642527018e-02 5.640245368478149363e-02 5.332080201098993860e-02 -9.767628718775085706e-02 9.942651208722129430e-02 -2.842886272991078378e-02 -5.040413935296739895e-02 -2.431937981372267119e-02 7.176876574387051899e-02 -7.809177007405140869e-02 1.478061925683656075e-02 -3.582048766283707497e-02 -3.570934586384959947e-02 -1.463866822238014303e-03 7.969726533922829453e-03 -2.145332401879492326e-02 8.951128132398443460e-02 6.366914215261641752e-02 3.684997327275849055e-02 1.315332379095245918e-01 3.146752928338986122e-02 -6.743120709483432784e-02 -6.904886153999147125e-02 -1.679820299638175307e-02 3.873182629599351140e-02 -5.472140706625586506e-03 7.342234238158488156e-03 -2.736876306451717714e-02 5.523679378002322587e-02 -5.300728054351926816e-02 -5.378198445650331228e-02 -2.136682882339950851e-01 1.054546466370001739e-01 -1.284665750410810547e-01 2.874479800169100693e-02 -1.297327564060239864e-02 -5.288367154600212561e-02 -1.231669902722881266e-01 1.742350892211282087e-02 2.783037922471460687e-02 1.127311323285625812e-02 9.008605189660338908e-02 -8.956389899684438771e-02 1.756841651428787260e-02 7.787709522943091212e-02 8.519514678007635011e-02 -8.678432314603945485e-02 3.280800206975108962e-02 -1.012966582154873202e-01 8.246550475634774335e-02 -9.998937707109996353e-02 4.152082486634649933e-02 2.371224566781755805e-02 3.823933345699027930e-02 -3.610503153013199656e-02 -1.049020296356101669e-03 2.182817062790917695e-02 3.159263763933852637e-02 3.598623100744299808e-02 -3.041541479539302748e-02 -8.641999155914918684e-02 8.972632897957642795e-02 1.541470514440267982e-02 -6.973362152790597845e-02 8.150031356831553830e-02 4.837881804374729450e-02 -8.266488799187396430e-02 -5.296734529989836730e-03 4.012570839713626783e-03 -2.540663868646896462e-04 1.077512211766158828e-01 -1.326207060644838016e-02 -2.625083445086372549e-02 1.561652998188172575e-02 7.996798448736269771e-02 8.919689622393676270e-03 -2.477462971616014361e-03 3.621568129421017228e-03 7.999491184453001117e-04 -2.953246572972079154e-02 -4.571756443691727539e-02 1.315371536521174889e-01 1.238536320296811620e-02 2.093936189668305428e-02 4.626076446105343437e-02 4.311846766025827227e-02 1.161826935603483685e-01 -1.160849153559577462e-01 -1.477800044464481488e-01 -1.116426838466317954e-02 1.278736126197543288e-01 8.861656886859747839e-02 8.218668743978070623e-02 9.931464024927937062e-02 -1.026956517194974744e-02 -7.253925371556547985e-02 4.068447079813989481e-02 -1.049188307224827379e-02 7.247558205459350353e-03 -8.198325399202778530e-02 -1.521386603886654663e-02 6.481399231940933314e-02 2.399375761947396615e-02 -3.075419194490486285e-02 -3.926169491236440601e-02 -7.642651932603929110e-02 -4.101919579338986904e-02 -6.609665685874957335e-03
4.217652498281540541e-02 1.483446482839109182e-01 2.182751325994610261e-02 1.289331174284273074e-01 -2.479830316685167901e-02 9.209833300425228353e-02 -6.870470504769550513e-02 9.061579176470796471e-02 -5.582177780977434084e-02 -6.910586107637289865e-02 1.284134353355529390e-01 9.671636663309800264e-02 -3.054687946098743473e-02 8.696102241385695111e-03 3.409421157206121017e-02 -4.006964735964915758e-03 9.286266162643501410e-02 2.358293634372965811e-02 7.526150973669699928e-02 -1.093659648204385326e-01 -7.210020401034568371e-02 1.041062036251151623e-02 6.005652563050740272e-02 -8.020333873614418629e-02 -3.578165660303592177e-02 3.541599245927445905e-02 7.611268063077412938e-02 -1.501251913338483845e-01 3.335606149960945038e-02 -4.425106115608693630e-02 1.968319610821804913e-02 -8.863477965210857235e-02 2.599392226407552797e-02 6.329800681635769366e-02 1.317226915849181446e-01 1.277490546658592574e-02 -3.644624764520216186e-03 -1.873910401265077852e-01 7.791507121133264824e-02 5.579204754714885139e-02 -8.554831457104263015e-02 2.077212593931305681e-02 2.561166029340907271e-02 -3.602821969640273431e-02 -3.958959910840743196e-02 7.917905190047086483e-02 -8.879427215369055382e-02 -1.422086688706998558e-02 3.684509033618379309e-02 3.600129593046946797e-02 6.489824425213013004e-02 6.007090891282000633e-02 -5.254975136926504781e-02 -9.750098874828486140e-02 -3.307045245768967107e-02 -9.630464192071027524e-03 4.422163089584036158e-03 4.836841018101324663e-02 1.385860854536854481e-01 1.150843006178885013e-02 -4.037693044761118955e-02 -4.418380013877262064e-02 -3.352715920776454944e-02 3.236026603198836893e-02 -1.535128823966804279e-01 4.635373701763066852e-03 2.546911394698712916e-02 -4.254304884092803551e-02 -5.026373069413854651e-03 -9.525869277139558874e-03 5.706214807204740801e-03 -9.587113379634064347e-02 -9.546374317254878450e-03 1.527566233435348197e-01 -1.576536437361718800e-03 -5.278508732244201890e-02 4.177005515508386280e-02 3.680870443358643523e-02 3.638740409703970709e-05 -9.898218762102231616e-02 2.645386199940422817e-02 4.276505054629883146e-02 5.191644890146152741e-02 8.089198089469440411e-02 -5.253708578033145643e-02 -8.152454599060963980e-02 -7.253642647338687244e-02 -1.209758893348270026e-02 1.282525602879187598e-01 2.406278548719549895e-02 2.755630799758681734e-02 4.950591778703318513e-02 2.112708846808634272e-02 -2.950794479408219359e-02 7.851407794297182718e-02 -1.379961177183065303e-02 1.147722791326540592e-01 -5.793702647179009568e-02 -7.240537362978502478e-02 -4.003666177444470398e-02 7.780247172670289035e-02 1.331085130796779703e-01 -6.123595262978492881e-02 -4.314623816337448403e-02 -3.291576252916988965e-02 -1.692943642437555463e-02 -9.795883692187812297e-03 1.270643175035696126e-01 1.310506071821571084e-01 -1.168366145524751959e-01 7.900151582858007393e-02 -7.023861692865306094e-02 -1.210634731280495480e-01 -3.371582027406128178e-04 1.035076261364965139e-02 -2.777749902789204434e-03 1.866085424467631981e-01 6.838205884069217810e-02 -6.587367262609750140e-02 -7.448735059474551057e-02 -1.284422511542619152e-03 -5.020081483588446913e-02 4.358221848582836955e-02 -5.330838940322465275e-02 -4.962600192592882264e-02 1.089220040519086052e-01 4.964779339721053786e-02 1.954183987138992037e-02
-1.587885555068353771e-01 -2.573116774069110213e-01 -3.790065569660443223e-02 2.100859676340023283e-02 -4.170487509536704128e-03 1.121789699986432964e-01 -4.366651285889550094e-02 8.604034288709530229e-03 -1.855626929353270532e-02 -5.071614950526345811e-02 -1.417604634322952584e-02 3.106482171615883997e-02 1.947039167028082399e-02 8.133861461593991371e-02 -1.599892666942998032e-01 -7.624157340685076834e-02 1.307832406227895684e-02 1.846591097888736557e-02 2.679424642401117412e-02 7.247850163902108678e-02 9.906390100529749443e-02 1.097987424109361267e-02 7.428310534962401235e-03 -3.521692680808570508e-02 -5.538541894285474443e-02 2.901494857605572270e-02 4.903333745412159772e-02 -3.190243569902953113e-03 5.553101228559224889e-02 1.702861058155281590e-02 -6.726664433483141303e-02 -6.707372795810200017e-02 4.119760263107064696e-02 1.229461971801079634e-01 4.026800775665622528e-02 2.721750803402530131e-02 8.137857766834174361e-03 -4.243869033982534261e-02 -1.787060826516156387e-01 1.337705427021689680e-02 -6.439531914993003314e-02 -1.610424093347242666e-02 9.532701308035523499e-03 4.013839017768543183e-02 5.119382002579633134e-02 -1.988017736605122987e-02 9.072475674236861465e-02 -4.334222858217157831e-02 -6.150788846881747457e-02 5.003093127412174684e-03 -4.228879822871860206e-02 9.725946170078250685e-02 3.186308256534112898e-02 -5.040047180261376762e-03 1.683921206064668483e-02 1.203572675435752998e-01 9.230101453276799012e-03 -5.979972056058902030e-02 8.169429922097938557e-02 7.046158876113524372e-02 -3.590879898426257294e-02 3.383668263706723911e-02 8.190783252650943314e-02 -1.070930085057660540e-02 -1.419466992494455293e-01 -8.074910535953154500e-02 -5.072433827872427359e-02 -5.491729477268373488e-02 1.540458261060283218e-02 -3.667171053832485317e-02 1.143265037225794055e-02 -1.099615709341085629e-01 3.864658517167175039e-02 9.406980336504915108e-02 -5.461958211578014921e-02 4.106167582477272988e-03 2.481572803844947842e-02 8.128881284851206812e-02 -4.069477320510828805e-02 -9.156002065380206565e-04 -4.792030529211101231e-02 8.713896562455485106e-02 -5.007838389776408244e-02 -3.589643646991728249e-02 -8.656166101531220791e-02 3.603539369021976219e-02 -7.096500560595814244e-02 5.019422143925460211e-02 -1.151545675664645413e-01 -7.816831513353104596e-03 2.115749440041056473e-01 1.568694215032234371e-02 -8.015780942366482198e-02 7.684754551044236520e-03 8.844083950602774080e-02 -3.958443719016343371e-02 5.440727160325575795e-02 -4.693471711462533086e-02 -1.166984435387252196e-02 -1.435829996840274903e-01 3.273607554754415228e-02 -2.873396608922395429e-02 -1.096278394582472226e-01 5.000769384796580758e-02 4.985242938898047822e-03 -6.224524060844093681e-02 4.657464183408322606e-02 -2.887188200565000626e-02 -5.481011174775693093e-03 1.010124156754346053e-01 -4.103147856048333653e-02 -3.115464442253874922e-02 8.547922853355972850e-02 8.720727428171456963e-02 -2.211016810393860721e-02 -8.578494857100554816e-02 4.455500441688578506e-02 -6.203328480624130913e-03 1.215300262138178655e-01 -3.414152984811223701e-02 -3.960690813981141561e-02 8.417445445209952026e-02 2.148345906744887346e-01 -1.440795512406462323e-02 -6.560635540405822252e-02 -1.337562308625165654e-02 1.371817443170181760e-03 -1.366520736380367161e-02
-2.356122877968467103e-02 2.354071145971730825e-02 -1.403461164994357011e-02 -1.075916454675956285e-01 -2.201956324966619638e-02 -9.591760674499029068e-03 5.217938512279576835e-02 -8.216324035935564096e-03 7.327112338088743841e-03 1.039090406584032150e-01 3.943319100538065537e-03 5.256516456900181544e-02 8.872160507315896352e-03 4.463111740725823895e-02 -6.103358566162306320e-02 -5.622637563365604635e-02 -1.396741760595273940e-01 3.179837589529584119e-02 -4.991851845086042738e-02 7.198203163519249770e-02 -5.398557050895472220e-02 -4.035439008259556620e-02 2.407425562458335999e-02 -6.544671289086909961e-03 -1.079521712293623481e-01 2.687188973642316153e-02 -3.074110527001073113e-03 3.424388565731380923e-02 -8.728657364920666684e-02 2.812043760535051784e-02 1.081041290633298485e-01 -4.427689312752898509e-02 -7.137197400276898722e-04 1.381048899503038441e-01 -3.368437422208901688e-02 -3.630192067092411889e-03 1.705684260437625999e-02 1.142269881756209776e-01 -1.399871371269495735e-01 1.206784244768782238e-01 -3.571293837631172446e-02 7.547139546554038070e-02 -2.911147938096168147e-02 -6.109690642628069768e-02 -3.577846236405857888e-02 -7.481039582157524015e-02 -6.481760076495161893e-02 -6.133594274814300334e-02 -2.446087012150749071e-02 1.217885094287694554e-03 -1.173092498038031707e-02 -1.895732159140276624e-02 -3.760207190352694157e-02 -3.147063440101992293e-02 -8.139539521827908464e-02 -1.223118289909839729e-01 -2.994927023850186415e-02 5.444092770768483962e-03 1.133721590253960743e-01 7.725681792350778954e-02 1.580485602241388926e-02 -2.859411887698713392e-02 -1.370396260581252523e-01 2.382774106810512868e-02 3.175147276526201368e-03 -3.232770310086580806e-02 -9.850100892974957001e-02 -2.546631290986594784e-02 4.240942060446555029e-02 5.538696174152069052e-02 7.328113477598598158e-02 -1.064752007502372255e-01 -1.434783299979792981e-02 -2.703636021974943713e-03 2.368125652577194110e-02 -1.025734558999099981e-02 -1.202812299964887012e-04 -2.699401609596384019e-02 2.529198803208469390e-02 1.194257519944354334e-01 1.541371709963390959e-03 1.046327878821268036e-02 3.083082882608452046e-03 -4.058872247987756893e-02 4.496711557783299867e-02 9.072394526498885059e-02 5.102141338689935614e-03 4.893786216105393272e-02 -3.858322513382182045e-02 -1.521729050413870871e-03 9.770520871768917023e-03 -2.264036549600512756e-03 -5.234771951437831340e-04 2.756709878114214571e-02 1.445502196100771075e-01 1.202098575093580278e-02 -7.584483500013254609e-02 -6.358523210174497897e-02 -1.498918561507048275e-02 2.017938546124838917e-01 -6.670305892139317960e-02 2.462047029826430582e-03 3.297759923391097026e-02 5.390350430189737307e-02 1.730920300398756384e-01 6.012935031185570600e-02 -6.790746040098195879e-02 -8.454636744223549549e-02 1.598968506793967473e-02 -3.415756107880073278e-02 7.628961613779138007e-02 -2.777950383570829129e-02 -5.571196074632191186e-02 -8.324005895786053613e-03 -7.112852336854852409e-02 1.759216979359227301e-02 -2.220279388255111050e-02 -2.689824269529651063e-02 -8.996230874552630860e-03 7.458040638929526456e-02 -5.834062350227417482e-02 -1.195742012287819983e-01 2.411483556319998778e-01 5.633132561474263333e-02 -6.626298658180869439e-02 6.265699810948575921e-02 1.433073513522594399e-02 -1.715800853405325954e-01
-3.321233023711720606e-02 4.215136574888575516e-02 -2.579983902455282307e-02 -1.145055574921412661e-01 4.504940239869808377e-02 -1.357403512220742986e-02 -8.593565288006387243e-04 4.107361652585032885e-02 1.981347187537852578e-02 2.509599743462304078e-02 -6.924198655978015815e-02 5.950005382340903259e-02 5.776971254124237815e-02 -6.943678037915358356e-03 -6.187014631287859889e-03 3.971565073112197364e-02 5.646770825548610984e-02 1.156847481091844917e-02 9.055870610677728416e-02 3.504756300449802381e-02 -7.409619820871136964e-02 -1.946440942622249676e-02 -4.728937028862895131e-02 -4.265142095710217768e-02 1.035563288887079714e-01 3.923172998083199886e-02 4.044443163710680772e-02 1.486382393879467044e-02 -6.960211328008279741e-02 -1.315822123241509184e-02 -6.493085195850639701e-02 1.003922142601402917e-01 2.399657849550070748e-02 -5.948317821560510782e-02 -7.392609486799749108e-02 6.122454736290998401e-02 1.248524615439695062e-01 1.356490927755398535e-01 -8.899659487951469897e-03 1.206081499734397433e-01 -8.826129145044568636e-03 1.380955573304876727e-01 1.280381667692587211e-01 1.020483979331749357e-02 8.077955849552471979e-02 -2.209709401066005732e-02 2.973012661631222603e-02 7.376535196782653793e-04 5.785534632735689527e-03 -1.951952034621299778e-02 -1.753142780209544088e-02 3.581368506689216330e-03 -8.695808312314584620e-02 2.164249434873230862e-02 6.869691949453349267e-02 2.373354835841008995e-02 2.962479082471351083e-02 1.012962812660298112e-01 3.235090184243528261e-02 -5.231574238566815555e-02 1.959526088956089346e-02 -9.272268859106713723e-02 6.155043683415728495e-02 -1.345993163002027759e-01 -7.420986692359017589e-02 -5.195280668012329517e-02 -5.793662188033211341e-02 -3.734160070034458958e-03 1.052847554032928373e-01 1.107949739807929934e-01 1.095025411801246219e-02 -5.548555677690021615e-02 8.170899541329587623e-03 1.094350437598545604e-02 5.540156439556421369e-02 -3.098889994321836483e-02 -5.418106505579536880e-02 9.505444107482052818e-02 -4.377259573066932113e-03 1.088199001559847640e-01 -1.840682897676220939e-02 1.716374838305124995e-02 2.668418314281408715e-02 -1.844256614508179432e-02 1.270568464573535172e-01 4.977787486876471962e-02 3.789735820985869197e-02 4.453713206645940753e-02 8.771965903175650558e-02 1.094310360345585563e-02 1.128370413214142276e-01 4.422990471251538741e-02 -4.250976015056862761e-02 4.331116276163466533e-03 -7.737389351886307665e-02 -8.573380578589467893e-02 -6.520387687880048466e-02 -4.632775106976599888e-02 9.383499876041506704e-02 -8.709445404594072515e-02 1.421942050414284342e-01 -3.052677915486572482e-02 1.570899794783995815e-02 -1.144393698758307265e-02 -8.589993525341142744e-02 -5.005086183660922144e-02 -1.299408761219557895e-01 5.420255624586962917e-02 2.010880579113968197e-02 -9.051784290772448005e-02 9.815738964103220068e-03 -2.231848333623264943e-02 -9.752730338785069175e-02 -3.618343733676609997e-02 -5.026159287499755435e-03 5.294583767742519140e-03 -3.122515862176291485e-02 6.461767983606667154e-02 -1.239556028317473912e-01 9.513645787560195966e-02 -1.853739444283506246e-02 -3.325737466771185730e-02 2.171023685647890666e-01 -5.966655025160757381e-02 -3.462721445384922547e-02 -5.231962986671607856e-03 9.249702347432947266e-03 -6.995873093368978890e-03
-3.322952548233857467e-02 5.982508091069024120e-02 -2.058079154676217132e-02 -9.568541544123808362e-02 -1.413150529809317248e-02 -3.815504093534905633e-02 -7.767158804526390348e-02 9.690952611850892073e-02 2.166667275667712514e-02 -9.225478769804904000e-02 7.088619828650921315e-03 1.282613251720900530e-02 9.896074828599324413e-02 -4.875093700474245756e-02 -2.042131044247863514e-02 -3.323047921260577353e-02 5.153066164067172938e-02 -3.758460869823902067e-02 -4.551063966468917726e-02 -2.315195067411222885e-02 3.863568399446438983e-02 -6.842871218189003346e-02 -1.135683203479350215e-02 -1.379148877144366903e-01 8.557966056157538873e-03 2.209439560738554048e-02 1.333555948951646412e-02 1.446226161887276436e-02 -1.659716958395257569e-02 1.237219485495244346e-02 6.848347198064053294e-03 5.641742786486446393e-02 -1.245972385930005366e-02 -9.715572667911610838e-02 2.149528418693642806e-02 7.487895400960190885e-03 -3.765678149170181843e-02 9.053810427969370689e-02 -8.546469737240120629e-03 4.184245285995547708e-02 -1.690625192683084532e-02 -1.220992379106865394e-01 -5.763419441082344788e-03 -1.257360917025860114e-01 -7.994846230130571441e-02 -1.374975253265771080e-01 3.452032746896797205e-02 3.772590630596427824e-02 -7.837493792930779260e-03 3.800102715374342743e-02 -1.869015927175959879e-02 1.117920102687831353e-02 -1.935426770275223626e-02 1.607671364557465565e-02 9.403603632337189516e-03 -2.109623644766071490e-02 7.054863344930834002e-02 -8.821764467378462315e-02 4.388987774559151289e-02 3.666357109404795589e-02 -7.784382738322517814e-02 -2.814204192847657993e-02 1.283573674882858007e-01 9.906668281908320717e-02 2.376057051716500557e-01 -4.668857837467418892e-02 -6.288560026715868390e-02 -2.495719275869230300e-02 4.974739986986830703e-02 -1.493108611124512319e-01 2.450084209077452863e-02 -1.936220348364155533e-02 -5.825899414083096639e-03 -8.320487902846401829e-02 5.651106556998576613e-02 4.653926732946789963e-02 2.940767998605355732e-02 -1.208795372434445098e-01 -5.876535408095719809e-02 6.738392396222252223e-02 3.842677453371654006e-02 -1.044277460831537913e-02 -4.911278141120884594e-02 2.449047309915010698e-02 -1.155596161221545022e-02 -4.989725882895397480e-02 -5.350415566949542900e-02 -1.003175072802854201e-01 -1.286782016731863494e-02 -2.163633369337910825e-02 2.565439345745406784e-03 -5.370377598847950358e-04 -5.055089749097465418e-02 7.034372557993559538e-02 -1.656769593827950651e-02 2.511647149072299828e-02 3.022173934168168388e-02 -1.327116493804675508e-02 -1.507995533868444482e-01 -4.842359360375354110e-02 -4.019865616985313778e-02 -1.121612225113419598e-01 4.753861101662801986e-02 -4.325100008119207168e-02 6.557548406781030237e-02 9.680364434848398592e-02 -4.244305336278895308e-02 4.413158438251760934e-02 4.921308137253968713e-03 3.580102707126911477e-02 1.767353140378418591e-02 2.316059579915806521e-02 4.720542217847124855e-02 7.575053571352394211e-02 -8.680657702364381542e-03 -3.356122399335323414e-02 -3.666038661050754349e-02 -5.106489021873730771e-02 5.623994305710406511e-02 -1.675389874271459301e-01 1.544284135788540069e-02 -1.073609504753995220e-01 1.337430307108909144e-01 4.157476646098961365e-02 -1.135433313628932128e-02 1.073514770210858560e-01 -2.395660892876893058e-02 1.993484856909232342e-02
-9.672244574237572404e-03 5.401793938890981500e-02 3.646282618993076929e-02 -1.811648130122447964e-02 -1.182502818463822443e-02 -3.488316799503071719e-02 3.774910665386373848e-02 -5.514536292713327625e-02 3.897202015799564739e-02 -2.053563313354588721e-02 -4.503671898028673015e-02 -5.731054068915961835e-02 7.396459242448473470e-02 -3.822354811384617163e-02 3.656565288218591864e-02 1.129578022750601929e-02 5.442902218232022193e-02 4.255187116375402229e-02 -8.478830816012090932e-02 7.702707836287789323e-02 1.700354104306858183e-01 -2.923084196301296844e-02 4.067977236884334595e-03 -1.678305734527323458e-03 -3.347007102966288034e-02 -8.100280193865322387e-02 -4.533674556405602185e-02 3.865761139756875020e-02 7.774214738414159456e-03 4.192935870531927511e-02 2.189150592423710906e-02 -3.985459027046716479e-02 2.577045615119423483e-02 3.943191114751749826e-02 6.355887808722920918e-02 4.969707038357087242e-02 -1.206343291582337614e-03 -5.540119911868111174e-02 1.489478495879394682e-01 -4.820426843097986441e-02 -5.568777239908261761e-02 9.608691944018685205e-02 5.007677112340262748e-02 -1.354822409856984390e-03 5.969121552325677357e-03 -6.300142450069733981e-03 -1.126248203564382717e-02 -4.546886667742115057e-02 -1.124179201493307823e-03 -1.176053728547231739e-02 3.463610608941753571e-02 2.762396030019790769e-02 -2.846387125057533302e-02 2.224274868832126426e-02 1.776059100744320843e-02 -3.478129447788629036e-02 4.163973204660881972e-02 4.360319809720043793e-02 -3.074572250970672438e-02 -6.685150373574946792e-02 8.537280661171499016e-03 -6.783402304522788417e-02 -3.464428655058958417e-02 2.257329514250653452e-02 -4.864147312556752270e-03 -8.610484173022674159e-03 -1.828587658578561398e-02 4.621671994905188555e-03 1.245202884350646994e-02 -1.618237861571885858e-02 4.019754161139410531e-02 -5.213401646025884323e-02 2.317215232149634138e-02 -1.156739117348651730e-01 1.685675651847602999e-02 -4.032535669717857737e-04 -1.116602674943599841e-02 1.770685473730485848e-01 -2.943411589805691037e-02 4.608971899594642430e-02 -6.313927057563518616e-03 5.949670801966630562e-02 1.155539579693426883e-01 1.764488159474989978e-02 3.895561342149686523e-02 7.020108949263650922e-02 5.190176964731805197e-03 -8.078751558635919108e-03 3.535188392466998702e-02 -1.748425167439072309e-02 3.757379663443496942e-02 4.631714614627462784e-02 -7.300724407122344273e-02 -1.782027801479450779e-02 1.081613957114226920e-01 -5.312495415433301366e-02 -3.809051465386575908e-02 -1.191615742323138549e-01 -7.024923345822198240e-02 4.673484366876976687e-02 -7.477596089207282082e-02 -1.241626093664401770e-01 7.645106428226823569e-02 2.314420620127770681e-02 -6.389903390376494574e-02 -3.369229405052853732e-02 -6.038756884725930002e-02 1.485594309111381087e-02 4.975456267522354592e-03 -6.767622034510156759e-02 4.777171045054642157e-02 -5.305586099686071533e-02 1.095587011364282937e-01 8.585659345152611699e-02 1.727031696328361690e-03 -1.794951194847536347e-01 -1.144250903626043286e-01 5.542132471341082445e-02 1.610942255983083011e-03 1.333876740289398899e-01 1.710537800503549033e-02 6.912488351352784333e-02 1.031596781290419623e-01 4.358923244844462030e-02 3.946297342987244855e-02 -5.886475434599765938e-02 2.742029379249914106e-02 -3.316291946595132517e-02
-3.718720864963952211e-02 -6.691788999068620791e-02 -3.773081211626454212e-02 -3.143588069728003864e-02 2.129833726280638134e-02 -3.764208036811976521e-02 -2.018787422412703925e-01 -3.163216813001351602e-02 4.319293262870805422e-02 3.957846405373377507e-02 -8.242151705581689247e-02 -3.799596466187563776e-02 4.775742363973827648e-02 3.322415899571525694e-02 -6.748932781456259966e-02 -2.039571486397739886e-02 5.669900490645038774e-03 2.308582253549567621e-03 4.826535048868474398e-02 -9.987478972361518714e-02 -8.984391833613864994e-03 5.410124154289994852e-02 4.273751802331532401e-02 -4.421569591319930714e-02 -2.464635575861533895e-02 -2.107845069534500931e-02 1.287802023904657638e-02 -3.124727925863235098e-02 -2.460012783039763895e-02 2.074273899606986736e-03 2.102084986638210959e-02 5.733229848247301669e-02 -1.046763808803304052e-02 5.033304034836821872e-02 7.592570177399796984e-03 -1.461698599707395539e-02 -1.690207842035802363e-02 -4.932736129901636735e-02 3.355685249600987713e-02 -8.538225720295651230e-03 -5.047161169998246044e-02 8.714206637996225677e-03 6.807491939798460123e-02 -6.468771709781895307e-02 4.834211772892634158e-03 -5.398268519272297200e-02 -2.522611544402772119e-02 -7.151641614495579669e-02 -6.862154549063331777e-03 4.126596473309936119e-02 5.563182035665730635e-02 -4.197558879727645437e-03 -4.343183826231586386e-02 -5.210929205001034806e-03 2.261072113327252178e-02 1.134301641426217755e-02 1.777170329438080123e-03 -1.245380948642255126e-01 -6.284892069915842816e-02 -1.527942104383749576e-02 -1.155069184849208397e-01 -1.104127226572948761e-01 1.612779997764282602e-02 -7.393609725621802867e-03 9.193704318185515201e-02 -6.970701462077860677e-02 7.225875083517108166e-02 -4.647935580546958337e-03 2.735119276433290933e-02 7.030689343774401689e-02 6.947014525106402771e-02 -5.013367385011948535e-02 2.914430240655286122e-02 4.491681792601701084e-02 5.945916372477758755e-02 4.576179098833019557e-03 -2.811337588710233031e-03 3.972530956050616263e-02 3.310192382977236725e-02 3.360215160381904015e-02 -2.207711023780709395e-02 2.016148794899656413e-02 -1.975691152020722305e-03 2.190865227016256314e-02 3.266285628633555649e-02 1.981741042577863168e-02 -3.866820816854128155e-03 3.213565366474271240e-02 4.206196788083627763e-02 1.673888036665381607e-02 -4.987464216084305096e-02 -1.786383373890570656e-02 1.618444561544026827e-01 -5.164065737116156109e-03 1.122468818055884499e-01 2.561264056908141989e-02 9.805934804169313262e-03 -2.488796199870665568e-02 -1.062274413745409873e-01 -1.945384577352169894e-02 6.246331283079582103e-02 8.891871336578040241e-02 -3.406310341064867214e-02 -2.878708377071323606e-03 -1.051830011757862310e-01 -8.901351551255864969e-02 -6.146631126209457091e-02 -7.883068281664737387e-02 -3.977501541324982709e-02 -8.758004551411959285e-03 1.719172031726609248e-02 1.248228875060866105e-01 2.859415596214898159e-02 9.956632395270534341e-02 2.117184000678211733e-02 5.341938410649263447e-02 -6.740015416667562154e-02 -1.138508259135894984e-01 -9.893373478039466096e-02 1.270033334642745315e-01 7.709260239481594175e-03 -7.790954606762896806e-02 -6.292150239467658723e-02 -2.131822338129657143e-02 -9.790932894208265180e-02 -4.476620858897576057e-03 2.718287019478302438e-02 8.045850725633131584e-02
-1.019824380063302088e-02 3.356814566709986902e-02 -2.661929082342101571e-02 -1.339113121127600246e-02 2.313802518974577074e-02 -3.728157640959684632e-02 5.601451562488322933e-02 1.818178373730559025e-03 2.547388898983897129e-02 4.507412592781358252e-02 5.669516633507884484e-03 -7.548041173560214069e-03 -3.785746515282106817e-02 9.789788768202179175e-04 4.558737311845822981e-02 -4.916493748928612434e-02 2.386900902998321042e-02 -8.879177845981972225e-03 1.084882717356701609e-01 -5.345492865475931499e-02 -1.863756880370601512e-02 7.711734125425778741e-02 -9.805555155698825881e-03 7.602370214635623125e-02 -6.289868502692322338e-02 -1.931343053637745930e-02 -1.763059063463967915e-02 -2.632217861076155754e-02 1.669867512014864760e-02 3.629409915105385326e-02 4.206829512473861388e-02 -1.350808861405352890e-01 8.646835372088589391e-03 -5.531323718720906890e-02 6.351159447961286786e-02 3.178530076383444952e-02 -1.615778417356236382e-02 -7.981274860703584106e-02 -1.021513858238677214e-01 -1.498210217677781696e-02 -5.563683251559264908e-02 -7.376689236553790607e-02 -8.433481629461903051e-02 -7.688836346516539355e-02 2.304831556200176435e-02 -6.222409567240102385e-02 7.457498196546342994e-02 -9.965479528271722898e-02 2.539539482440605900e-02 -1.671382057033914820e-02 -1.947433688401027999e-02 9.610613160744151118e-03 3.375038885030497149e-02 -1.502962893579375993e-02 5.014277879229610962e-02 6.874486869993449989e-02 6.536958234732639407e-03 -4.146149528362938486e-02 4.641873008287630831e-02 -4.753730469521107865e-02 -1.879963853585637362e-02 8.381949216592192442e-02 4.002591375779919469e-02 -6.437990006080367145e-02 9.623271098356820166e-03 1.291313437970090759e-02 5.986790082358523640e-02 -2.682002177168869850e-02 -8.886381810097558620e-02 3.307671742095411038e-02 -1.118552433558812204e-02 -3.964884570262072055e-02 4.502967839409559997e-02 5.835862172983329738e-02 -1.597244394388547045e-03 3.306288042516972170e-02 3.311940711403722065e-02 7.040735288789035096e-02 -2.197945061618635735e-03 6.238941888712130901e-02 -3.260000149738256914e-02 -7.037681247175876179e-04 -1.080470202131268431e-01 8.991149105471343828e-02 5.816936319176115033e-02 1.052590507052956863e-02 3.614682296592558377e-03 -4.708578685098070010e-02 4.012667301049457902e-02 -6.944614427055223471e-02 1.892681165269579496e-02 3.146795260890918045e-02 1.238537133982550893e-02 6.593247715065468639e-02 -1.697017704990485543e-01 -2.568210326820424480e-03 1.979579941462978124e-02 5.375776919410545779e-02 6.638873021375513162e-02 -2.672836210266697071e-02 -3.349166973752381454e-02 -1.403222964455989319e-01 2.257744279840183041e-03 -2.992413563612819041e-04 6.353305555663382731e-02 7.018991719858379275e-02 3.135038207963740386e-02 3.655775052829345062e-02 -8.838695964550060194e-03 -7.397574722315668205e-02 -2.983732303398719393e-02 5.939721825377598796e-02 5.121091922410163366e-02 -3.634155957303818185e-02 -2.096961913554266921e-02 -2.930986935957181905e-02 4.163693403735456433e-02 -1.593628956993689560e-02 -8.095307784079304458e-02 7.173779781227396235e-02 6.394170810944316274e-02 -1.108940753285444537e-02 -1.397987474684563372e-02 -4.020831377433121273e-02 5.885912805331603576e-02 2.731311391023637583e-02 4.858192673830890457e-02 -2.486921994611204778e-02
4.701050451879066477e-02 3.269567402879020035e-02 1.567880615633276964e-02 3.508440599573525026e-02 7.500327300369367609e-03 4.946979871110437910e-02 4.193815194472200886e-02 1.859297784625775843e-02 -2.916271249281577813e-02 4.456312327286227754e-02 1.493638694112204603e-02 -8.865363706633531959e-02 -1.246661893329803483e-02 -4.015415167853737116e-02 -2.681882195340754352e-02 -1.620250103781035317e-02 3.697064680953354721e-02 2.480870062155219116e-02 -1.865987256785579806e-02 -1.098674823861853500e-01 -3.497614129166672775e-02 3.526372414473838424e-02 4.617713739727133393e-02 -1.489347792143097017e-02 5.908097254205530585e-02 -3.204374783825191236e-03 -9.803505337921779653e-03 5.119129704822417831e-02 3.810730594637657537e-02 -2.788680632079966817e-02 5.547355943447550286e-02 1.534297021981771703e-01 2.599503757291073570e-03 1.717546281718654866e-01 1.238646151375495316e-02 -1.427404865995654873e-02 -3.879407473528825867e-02 4.428176414876886652e-02 -2.828726602182093930e-01 -4.283911549880495967e-02 1.206928013014454265e-01 6.759050992427192983e-02 -5.223021848404451467e-02 -8.073764773515176851e-02 -1.635486189065323004e-01 -8.399100061000906725e-02 6.096076221434635137e-03 4.784354878538038536e-02 -2.030681283366945252e-03 6.869996650693236014e-03 -3.903106378638551005e-02 5.706322552088994964e-03 -1.289732005497737713e-02 1.593285130950632122e-03 3.112510348457362547e-03 5.690598106010533175e-02 1.447781038451478874e-02 1.159561686171560252e-03 -1.464948730288641310e-02 7.149042234731263490e-02 -4.489186745534369527e-03 -5.238980343500927034e-02 1.255227073091483639e-02 1.271096542866615407e-02 -2.804659207788190098e-02 5.783661397173263385e-02 1.585343138562599410e-02 -1.887297926946094120e-02 2.685663179909525411e-01 2.827419404573454018e-03 -2.008351952087556944e-02 -3.282884284530795949e-02 2.218306983591838977e-02 -1.640394868815024387e-01 1.461956174124963252e-02 2.581174799050085442e-02 1.131921193389316232e-04 7.726397097654551238e-02 -2.219550799826187568e-02 -3.150014250721563241e-02 1.150790392103764603e-01 2.203459498458681595e-02 -3.106355187921636465e-02 -3.197207804342431375e-02 2.831277697472438237e-02 -1.017628397004642221e-01 3.610608092235338684e-02 -6.544675957382420362e-02 1.168170269350807082e-02 -2.722547057769115694e-02 2.519945436163101640e-02 -1.640285615477038786e-02 5.613005061299853465e-02 2.185584527450714493e-02 -8.140544478007433193e-02 3.763508136934965581e-02 -5.176517479040632736e-04 -4.163176296093702711e-02 4.243020679975111759e-02 8.586820030833519982e-03 -2.792457233173847864e-02 2.438869514779769265e-02 2.228884305041774205e-02 2.332688080429871596e-05 4.476053200271119109e-02 1.052853314263797919e-02 1.708668021005404006e-02 3.144320064035972112e-02 1.341259097155468247e-02 1.481862029973685969e-02 -2.271967423165171737e-02 7.460629923759688406e-03 -2.438781440754657359e-02 -5.545806562837912734e-02 6.321765867232285140e-03 -8.388834181219814723e-02 3.166249168385544543e-03 1.266217714989108512e-01 4.425508344274549366e-02 4.086101791348236041e-03 -1.336762166533097748e-02 -1.919507822926186380e-02 -1.762564197244866418e-02 -3.534097250802861745e-02 8.438389835874944567e-02 8.763088541263866493e-02 9.198964390950598079e-04 4.081221543939761442e-02
6.749513375118505742e-02 -4.865495630285465484e-04 -1.730398572525669934e-02 2.009151553006319549e-02 -1.778984470649669705e-02 1.996624622185939196e-02 -8.938828656616124024e-02 7.902349421995337464e-02 1.034316178147727527e-02 -8.631563413081003167e-02 -2.040661553375323900e-02 -1.123917264275007266e-01 -5.249664700547278934e-02 -9.214973204768309081e-04 7.507781533106577809e-02 -1.287833186433730293e-02 2.209311762271832374e-02 3.866720590828100212e-02 -3.510017801853221667e-03 3.948198235755659424e-02 1.020764061030093872e-01 -7.022712434753614064e-02 -2.184087740678970768e-02 6.242410394545067076e-02 -3.123287985591768900e-02 -2.797746931876195827e-03 3.001490374914130010e-02 1.835950292318577412e-02 1.752757413755754931e-02 -3.650836736965517443e-03 -1.744315921424949289e-01 -3.661163953504293495e-02 -3.149956116200094882e-03 -1.003412414673410420e-02 -2.498990370543330980e-02 4.079305891485177082e-02 2.462499615562122393e-02 3.252144650110563862e-02 1.023434552504317967e-02 -7.365950616822295079e-03 -1.977254453122685024e-02 -8.133440395682967755e-03 -8.287952474649376566e-02 2.833690422614323912e-02 -4.523491989697583926e-02 3.678339650768973346e-02 -2.363604173030958711e-02 -2.347378248198773998e-02 9.139585760736810335e-04 5.889798375619457321e-03 -6.373532031461490166e-02 1.142056986203348889e-01 1.323675089134471704e-02 3.482562233431795579e-02 2.241492227308000684e-02 1.891993943432607184e-02 2.162542206689933161e-02 1.429836602946363104e-02 5.941759611934063767e-02 -1.847902257289093728e-02 -6.115394281036771323e-02 -9.273177448279641341e-03 -6.396697852073690571e-02 6.772919647571358504e-02 -1.622050698142566555e-02 7.248904738096127731e-02 2.287308259404518054e-02 1.763383252298053247e-02 1.136236129218707452e-01 4.913372047042516289e-02 1.326794731903429767e-02 -8.871766660504197544e-02 5.269876234283832513e-03 -8.687443297901195627e-02 8.704296445658088813e-03 1.389293950323000192e-03 1.220635309505475712e-02 9.564153889837910538e-02 -6.697012066716742651e-02 1.111280521161723753e-02 4.192358857464038163e-02 -4.094725012764697386e-02 3.084747729735764707e-02 -4.856323857445409009e-02 3.375601181843590481e-02 -1.579950606443817143e-02 -2.685107890164817671e-03 5.488125049909377967e-02 7.940410982809844101e-03 -3.283890422742342247e-02 7.677710775954086492e-03 2.442063420750344507e-02 -1.774128264369527821e-02 -4.225758950884399290e-02 -4.435442416470998257e-04 -1.893408080321468730e-03 1.361702437355112594e-02 -3.924108869846304470e-02 -1.013403170543699522e-02 2.385916099279813962e-02 2.769011897863372235e-02 -1.247054749567221843e-01 1.022342365360765920e-01 -3.810706029978608300e-02 -2.129378482400487438e-02 1.410329346447143292e-02 3.710244312299156716e-02 -3.630680567483788451e-02 3.877140952034855564e-02 3.956798053146187710e-02 3.119971320888479532e-02 2.635826232292971458e-02 6.141771531494917558e-02 2.636051736269954052e-02 -2.744012868047906659e-02 9.860290374203560526e-02 -2.779836504116257531e-02 6.658746934782465432e-02 -2.485987283424691968e-02 -4.138331013170724187e-02 1.598968304054374651e-02 -1.198708165874616365e-02 -8.813471363865268970e-02 -7.320911557475341322e-03 3.928852837711151180e-02 6.719146626682738488e-02 1.503215678421297892e-03 1.833297816042093326e-02
