-6.581344077815273752e-02
8.630013453544568836e-02
1.943180911502099054e-02
8.386770395990348140e-03
-5.091238618396319582e-02
7.835389917134071014e-02
-6.319627430361548885e-03
9.908112137049403245e-02
1.808079907022173138e-01
-2.446547570130198218e-02
1.945062463452268686e-01
-1.216106493765047591e-01
3.098637971079003586e-02
7.197141715672353279e-02
4.521281697041582004e-01
8.282917744142505312e-02
1.271964606928372432e-01
-9.413340740857685518e-02
5.337203576324588139e-02
-2.065777291890399589e-02
7.216517520640852723e-02
1.092115145436507034e-01
-9.775098920632263599e-02
-5.105257726829497134e-02
4.706530475392096263e-02
2.372221039315742519e-01
1.377906764292762543e-01
4.045246234295900301e-02
-9.879160368754688615e-02
-1.039855126397838808e-01
-1.275296395322165523e-02
-6.255910357142455136e-02
-1.507772864712008352e-02
-3.793060940387665836e-02
-1.885048856516085419e-02
-6.167962273152840375e-02
1.978418130087031268e-02
-8.839398975597301256e-02
1.048169376774834571e-01
-1.165696579859143572e-01
-8.481219327824639220e-02
-1.826782202100900310e-02
1.685540618363336463e-01
-7.398037893638235996e-02
-2.924708373680473192e-02
3.940716808652065806e-02
3.678402383677848581e-02
-7.581043724394513628e-02
-1.302932699152599058e-02
1.649521328729008918e-01
1.783703224882144875e-02
5.623077773270909741e-02
4.253063293814649537e-01
2.319256702974409057e-01
-1.363686130656584505e-01
-1.629022528173630418e-03
1.567903386019525169e-01
-2.001333187169478112e-01
-4.310254720168424369e-02
-2.826506571627886849e-02
-1.549601590532577733e-01
3.904033067984312433e-02
-6.883473632312013708e-03
5.836802143200849058e-02
2.367437219006471583e-01
4.465712866581036944e-02
-1.135474935108106570e-01
4.166994484619341299e-01
1.200988137865871691e-01
1.671598693866432894e-02
-8.708774725598016422e-03
-2.642813444316522223e-02
6.034389837111868438e-02
4.796459659794822389e-02
1.637313721190887805e-01
1.811511758510808978e-01
2.536673181583051218e-01
9.547800259834207659e-02
7.548350545545819135e-02
-1.602423379948516025e-01
-2.583973545482751155e-01
1.129092202168258535e-01
-7.571714452021752195e-02
2.326878697706303081e-02
-1.259855862896835932e-01
-6.935195981000460974e-02
6.879068692160549003e-02
1.192308309895848684e-01
6.043787180747026144e-02
2.158942501087252330e-01
4.374740132854150476e-02
4.241788006284729490e-03
3.253544647934517725e-02
-1.369512243333163848e-01
-1.191589560806785714e-01
-2.115932418544377164e-03
-4.078253897907811905e-03
-2.834806307670962103e-02
3.086818025609276706e-02
1.677924203001948927e-03
1.406932055578445813e-02
-1.617573595279303555e-01
-1.544800564404128981e-02
1.806038732907221667e-01
-1.198625763872693678e-01
-8.837473199836759497e-02
-5.555598004907782300e-02
8.944256634632258350e-05
-2.573367168144075762e-02
-4.827614497506789275e-03
-7.620710811553013664e-02
-1.073227901600741149e-02
-1.061490245949017752e-01
3.466109304531286156e-02
4.081025563335403950e-02
-5.131283822651577786e-02
6.966099939487561954e-02
6.573826018053374742e-02
1.764209033694796522e-02
3.494209030608309147e-02
-5.335595186659198436e-02
-7.542129540183745151e-02
9.502971543270034849e-02
6.676853302406723922e-02
7.044101390497201076e-02
-4.310022848999399414e-02
1.168635578530432539e-01
9.002369989450799415e-02
