-1.463351169991951861e-01 1.575193580442527941e-01 8.705845577357133880e-02 -2.733448439866966728e-01 -1.719327868981996577e-01 1.118645723204915281e-02 -1.076627327855984723e-01 8.477851579562228901e-02 -2.442571962988469569e-01 2.325122552332721526e-02 -8.275500588877292285e-02 -9.730344288450255841e-02 2.083674622347155003e-01 7.027405167345930626e-02 -1.114006690254956550e-01 -4.588847770428240366e-03 5.413081567225130897e-02 -1.106336962324408896e-01 -4.295933300768550039e-02 -7.648841902126893300e-02 -8.264544477300834677e-03 -1.020870161908699891e-01 4.758271484090537736e-04 2.471161895420574961e-01 -8.397880689809734955e-02 2.010230026061959885e-01 -6.217150714037174286e-02 4.738683840201111247e-02 -3.714152343490347008e-02 7.570952346547803191e-02 1.788360032135694333e-01 4.155771725330639765e-02 -2.975291051266533704e-01 2.218391051399973626e-02 1.892246064912450274e-02 -2.197504987605011784e-01 -5.695461332612879179e-02 -4.830867550756259843e-01 5.430831640062095539e-02 -8.979960538530006031e-02 -1.746533061656599037e-02 9.107492616230734861e-02 -1.809815435979253984e-01 2.277064164191603957e-01 -2.581576974234993382e-02 1.099096997581648916e-01 4.707646592322678458e-01 -7.447907885959195728e-02 -2.940720999277936509e-01 -9.828290827295638188e-02 -7.982030254995137186e-02 9.800293124934771061e-02 -1.264373884587861874e-01 1.306222638715698880e-01 -1.100182423123757802e-02 7.352405987201648951e-02 2.667213206478614707e-01 -3.053813466146680644e-02 -1.085774556507363015e-01 1.014718142547427898e-01 1.839199706618571684e-01 1.642034673865434002e-01 8.437157613147590329e-02 7.963334165091033590e-02 -3.823923265348642270e-03 -9.222528787224503269e-03 -5.220600836836684217e-02 -1.072075965190104480e-01 2.971394671258074244e-02 -1.376772338459999467e-01 -1.984832503699129336e-01 4.041656002697981143e-02 1.049488143305167126e-01 6.307453759646595992e-02 -2.567971248601992260e-02 8.764286152750816461e-02 -6.869123450135639075e-02 6.728874412476142097e-02 6.235529027755960102e-02 1.108164309654269541e-01 -3.494981515124991750e-02 1.371114907810010997e-01 1.120570764684303000e-01 1.191584086962377970e-01 -1.476205515987431549e-01 -1.614486355612338997e-01 1.173839955386381251e-01 3.073185301743785458e-01 1.342041069044481172e-01 3.654532253006654435e-02 -5.790152177278172843e-03 -6.141500951912400724e-03 -4.402246184148478000e-03 -8.832416131744044718e-02 1.186814040325070291e-01 -1.304689527827385953e-01 -2.944271792310925936e-02 -1.520859312205760303e-02 -1.387746142147498404e-02 -5.054294922968969456e-02 -2.236088450518086690e-01 -1.480684539351977413e-01 -1.792375003478307791e-02 -4.008544919715158195e-02 -8.433280725201587613e-02 -3.669176315613607159e-02 -1.150938431881521201e-01 -3.099839430772570025e-03 -5.563550910734035154e-02 -5.710906085308262853e-02 -7.892630492272897924e-02 1.146793467490782176e-01 -2.535983528347155944e-02 -1.121749514900545197e-01 -1.515140543062154510e-02 9.080961239952020647e-02 -1.804089862534156291e-02 2.426452990223480488e-01 -8.834817755058216315e-02 -9.662894060368595883e-02 -1.056284052706440157e-01 4.228423784560337087e-03 -2.214935287170068379e-01 -6.630217658470931308e-02 9.057264375836328318e-02 8.427653714282641595e-02 6.296179355250661192e-02 -1.395591042085050359e-01
6.390645740784736684e-02 -9.534617712697385228e-02 3.484378713388659732e-02 -2.644498714898297492e-02 -6.658648027010206916e-02 -8.274943716658324580e-03 -2.762694024498863615e-02 1.131493098816963583e-01 -5.087257414386447442e-03 4.776931127318617687e-02 9.708024271206040778e-02 -1.825869003979410307e-02 -7.601633032298329984e-02 3.337406237488825273e-03 -4.810563877429675783e-02 -6.340452116528663695e-02 -1.422485733624206938e-01 -6.754934981321472631e-02 -3.199871454462129006e-02 -2.130876897230486733e-02 2.591346907052385212e-02 -1.461761355027813535e-02 -2.278423718889501653e-03 1.505934543217040365e-02 1.109179178126503372e-02 -3.299516009321151050e-02 1.067268204683311239e-01 5.839695565900521884e-02 3.863748496450269271e-02 -1.022886980216791836e-01 -2.686722948656153007e-02 4.227925993454460796e-02 -4.804029558838941727e-02 -4.704671550145719805e-02 -1.301310576524803697e-01 -1.290014654713509019e-02 1.387222068752725322e-02 1.040190160595691610e-01 -4.592709946750916233e-02 -9.814442830575717536e-02 -5.426440968500641227e-02 -8.647120042887095070e-02 -9.590834597606968936e-02 9.848766278494994197e-02 4.923450594947887532e-02 5.443069176469394338e-02 3.623220976030607637e-02 -2.660914815492310299e-03 -9.808117342758560994e-03 1.861403666662623801e-01 -5.242289004179388756e-02 -5.342177520648114936e-02 1.113265538892591472e-01 1.809939845618383295e-02 -7.105434369194522926e-02 2.087793027407824215e-02 1.134532935282875181e-02 -4.723559459307451885e-02 5.638591379385755192e-02 7.777772891770257102e-02 4.941874278032507006e-02 -9.568829587078553356e-02 3.337824936315324231e-02 -3.625604672086574221e-02 -3.869395258792451137e-02 -1.156235267719669807e-01 7.897673071175499715e-02 8.608534561283712194e-02 8.695984561137475380e-03 -2.803686216207186901e-02 3.247297425963729944e-02 2.646055063569550253e-02 -1.873766724805904782e-01 -5.712783953912600049e-02 -2.838520162782455850e-02 -1.237231597387178188e-02 -4.490292248897948674e-02 -3.302408705001552008e-02 -1.535576621640962203e-01 -4.753895868545555091e-03 1.216453378468562302e-01 -6.156727058653704149e-02 -8.927139183060484040e-03 7.604890830134380941e-02 5.648165599294760475e-02 -1.259429506959112433e-01 2.325977493848952263e-02 2.075067549659718232e-03 -6.484290387658182830e-02 5.065696318574382760e-03 -3.724597779281058757e-02 5.938040581982138855e-02 6.302934485170368084e-02 -1.130981968595582299e-03 -3.897887500801734684e-02 3.969856901650435643e-02 -6.452343046049029140e-02 2.050911908095712569e-02 1.389560027880301640e-01 -9.110380828572522613e-03 6.057120099673426322e-02 -9.162912910966623803e-02 1.025681342547311165e-02 -6.267812396994526525e-02 -6.844066666299941648e-02 -2.736886654086522971e-02 -3.100783715994586721e-03 -2.901730605338164598e-02 -2.236034967067442383e-02 -6.319948889295889938e-02 -1.075932699826252503e-01 1.009532457529285221e-01 -9.339652784457599943e-03 4.699310259777065429e-02 -1.156059865378536583e-01 -1.985494094787252500e-02 7.147203665958082319e-02 4.145299824416988355e-02 8.398835329240739167e-02 -7.611068444679011669e-02 7.902826216287814343e-02 -1.574796630821576407e-02 -1.021992645851934646e-02 4.277588342401984767e-02 -3.653495525472300748e-02 -1.042183602750622502e-02 -9.267772107502780798e-02 -1.010193896347538894e-01
5.087585197814317034e-02 -1.530744033873862771e-02 -6.331497791696306943e-02 -1.109945695566263990e-02 8.166962354407028557e-02 3.074434943440179299e-02 5.972386397612142184e-02 7.777505249595269288e-02 -4.806716281376336580e-02 4.614839186729881304e-02 1.819822998089656585e-01 2.178834326679265931e-04 -4.690309536644726718e-02 -6.136018979518803595e-02 6.447831203401409306e-02 6.512261178267843287e-02 -4.793613903720018304e-02 -2.426613521843257876e-02 6.373479020314064269e-02 6.634241170550209295e-03 -4.639923641898145712e-02 -3.268787870363507736e-02 6.248833265006963761e-02 -1.268974694160806410e-02 -7.909495232252941599e-02 5.816333665065054337e-02 4.382548175290112286e-02 -1.045943573448881482e-02 2.971071997317898533e-02 3.686188488644073086e-03 4.555804867273876950e-03 1.456692522430519734e-02 3.079178936267749564e-02 -9.875010416066426142e-03 5.349241412368754833e-02 -8.474081862249641106e-02 -8.805352545873902301e-03 -1.267930591954252451e-01 -1.532956212596749655e-02 -4.144326876190373987e-02 -1.109524247114978268e-01 -3.194087858790687490e-02 5.072911031987515501e-02 5.676140691572715419e-02 2.949624380659214562e-02 -1.948571813150367857e-02 -7.939101393583099242e-02 6.544559990828127671e-02 -3.197140523150844571e-02 -3.791448570948491303e-02 6.489764525209468227e-02 -1.025406059972521211e-01 1.539462449848437962e-02 -2.769974028877918507e-02 2.874085811604382840e-02 1.180533657241113754e-01 -1.345813076411968567e-01 9.642339972603522491e-02 -9.018778315244703470e-03 -1.021493358546280011e-01 1.381348284608947428e-03 -1.061344466382240920e-01 -6.747194287826917269e-02 -9.165553585958705063e-02 -9.413602070499560437e-02 3.105285444933948702e-02 2.965229299771465071e-02 -7.179309366275996029e-02 2.697587629708966817e-02 -6.085930206467805165e-02 4.369997146686803446e-02 1.158796565436519092e-02 1.001848833729773042e-01 1.771402469560131449e-02 6.817554993640846661e-02 -8.346305325413969078e-02 -5.846967106831961469e-02 -1.170706376300487128e-01 -9.165858311625356414e-02 -4.478192514272653912e-02 5.284548048600064968e-02 -3.796879405954280834e-02 1.315274615249615447e-02 9.433834085350560617e-02 -2.301037191715961730e-02 1.067758078697490613e-02 -1.401712494167809686e-01 -2.219048652878454365e-03 1.706569101419021933e-02 7.195355410685205788e-02 -6.063707641293339390e-02 2.040161711165216010e-02 8.308042720746398879e-02 7.491159852272299968e-02 -2.338872952137131811e-02 3.847870010566037391e-02 -2.163179290792844114e-02 -1.021002152982754402e-01 5.446800579794772862e-02 -7.116248442609079961e-02 5.310734934429812981e-02 -3.224807455486251168e-02 -9.502692251374855736e-02 -4.084409473266056162e-02 1.600167352521770364e-02 2.742246241092348175e-03 -6.169919175590810739e-02 4.776890873039325858e-02 -4.711928248642389266e-02 3.379046716561822511e-02 -4.322557632493979202e-02 -7.898554957657052955e-02 -2.653503049400019950e-02 -7.037930209733264664e-02 6.646365719014046651e-03 -2.101317968017977697e-02 1.107116301425366614e-02 1.048881448792071402e-01 -7.669374104393461566e-02 -1.161110334624944063e-01 -8.593149374777870426e-04 -9.408514059687350314e-03 3.668438666108919666e-02 -6.735909681825591466e-02 -7.309645437721128125e-02 3.211835364296648093e-02 -2.468960864954250489e-02 -8.283817612674108932e-02
3.180871818208898943e-02 -1.550611050830753845e-01 -4.346048497968663105e-02 -9.606936405759018693e-02 -2.540191650308052437e-03 1.073831058559562707e-01 1.158637486694705232e-02 -1.035567840462954525e-01 1.051216994049991235e-02 6.809275751636466312e-02 -1.379704486872194713e-01 -5.790387122143626081e-02 4.517492902742144961e-02 1.334833517997059855e-02 9.024616244371690132e-02 1.076071939953444773e-01 2.841302412658322507e-02 -1.175053445297173094e-01 -9.874813963958931073e-02 5.075420181356626176e-02 -5.408920697947475209e-02 7.564385546759885837e-02 -7.850512723533951964e-02 6.136732142693761098e-03 -4.225228541429502244e-02 -1.033149028028134270e-01 -3.892294804309986284e-02 2.231513522570078428e-02 -4.107202399386137431e-02 -5.057266646523568554e-02 7.765833526145952525e-04 1.442490122327742263e-01 -3.038799073159340579e-03 9.890460263872796753e-02 -7.772178875349330940e-02 -1.468992344395738531e-02 5.254407616065989717e-02 1.165502313055293143e-01 3.894990089783787607e-02 -1.319561102254290666e-03 -1.450829331380950942e-03 -2.450424192609094651e-02 1.014306239837485801e-01 -3.700437263424979917e-02 -8.434489193216440639e-02 2.066799952648985458e-02 -4.811749622599663379e-02 -3.619665117547127969e-02 1.255117628695641141e-01 9.071606592249470413e-02 -9.304822525179574227e-03 -4.377358211502940799e-02 -8.329323586716343153e-02 6.730235945743330561e-02 4.554620536281269588e-02 -1.505189592257411176e-02 1.155112141433654871e-01 -4.933322465070344442e-02 8.788122748565052600e-03 -9.566551528727082476e-02 7.203713328295970053e-02 4.641456093854481879e-03 7.094220989541841216e-02 6.004131573640907049e-02 -7.543988864429060359e-02 -5.418637371477356274e-02 1.011622934722191253e-01 5.135523289990684415e-02 6.274622798884861574e-02 8.768913979773630685e-02 -8.289970498149956679e-02 -1.064869975756927573e-02 -1.492691491085918788e-02 6.325685163036453423e-03 6.187080590877948316e-02 -4.699982241562333796e-02 -1.087081491479389012e-01 5.319719663413415706e-02 -7.254261859299940274e-02 -5.963883704196654839e-02 -4.667359312810196587e-02 7.071432364392423245e-03 -5.337862799096675798e-02 5.429979785140311155e-02 -9.437467303451465075e-03 -1.232484011605459451e-01 -2.313845447341941752e-02 5.017670250460788683e-02 -1.521163118045020446e-03 1.105332264203237186e-01 -3.068735837323965931e-02 7.341034682249471255e-02 -2.809220622039494339e-02 -1.651665254248525228e-01 -8.170643222250775772e-02 -6.641366117289737581e-02 -1.365719859162868935e-02 2.598325691839355189e-02 5.975341304335853032e-02 8.077562234326214619e-03 -2.394524627748959023e-02 -8.496365799366316710e-03 -2.021006206797303778e-02 -7.588891917219911520e-02 -8.734955654257953173e-02 5.268125741538012136e-02 1.547789120993460499e-02 7.107106695987654155e-02 -3.223321908726529961e-02 -7.804686918785860850e-02 -1.331876930167822520e-02 -1.807912239992198050e-02 1.671468747792115989e-02 8.347268879847635770e-02 -5.641486868703519952e-02 -1.535750535943563623e-03 -3.338049140396066872e-02 3.585045075596088315e-02 1.140532197987055019e-01 1.769991701493932035e-01 6.729030116081599622e-02 -3.547854924544588395e-02 -8.832571328920252318e-02 -2.439221860218346999e-02 2.739499620772683358e-02 1.122557003878279364e-01 1.394765114283948865e-02 6.000042876381949525e-02
6.615720018389897525e-03 7.003424089227933136e-02 -2.689099922361662745e-02 -1.069021285432191631e-01 -5.222680890492724208e-03 1.048211880995303684e-04 2.457102259889639567e-02 3.819018819344251279e-03 -6.089082101651305430e-03 7.937494685880418233e-02 -1.507882685682703783e-01 -8.502510542318698905e-02 6.392809026780113535e-02 -5.263950864726509721e-02 1.410157586170749690e-02 3.445754021007858825e-02 1.230339503226709347e-02 5.009219902601111558e-03 6.384836143797829877e-02 -4.469219183991448782e-03 -4.485443059647941516e-02 -6.070227843907279042e-02 9.698109525300903366e-03 3.620103393039527523e-02 -2.642089113717056847e-02 -1.455513607015305466e-01 4.178570710159701385e-03 -1.304254659908501979e-02 -8.842658746270569414e-02 6.540184001124073332e-02 4.342714524080085181e-02 -7.314419518621760076e-03 -1.020252616543793067e-01 1.326626030046117177e-01 8.294262275128218287e-02 5.179119078902295892e-02 -6.961386307204744939e-02 -1.355003441237747908e-01 -4.842606827419197735e-02 -3.714122233010259955e-02 -4.882145137451439354e-02 -3.065003051775508011e-02 1.263641097020923310e-01 5.235171493121035247e-02 9.827453279627692412e-03 -2.782685829376905021e-02 -3.849375805162397191e-02 5.783792585408965847e-02 -1.139511592507376492e-01 2.138572408489647358e-02 2.446711674101496523e-02 -4.417732831035041385e-02 8.331108438619300172e-02 -2.095329364496220648e-02 -6.079314510447556344e-03 1.028933139879597281e-01 1.558080779379969194e-01 6.332671128778324943e-02 -5.315391926000782169e-02 -2.998875297223728420e-02 4.820383188288882709e-02 -7.492906692579205663e-02 -9.566653098582617032e-02 6.201479214921867822e-02 2.700973064597070056e-03 6.845727276808081900e-03 6.468765984225073595e-02 8.450680978438884772e-02 -4.143272807556787340e-02 3.435068762476289894e-02 -4.142773018565883147e-02 -7.586544839109118747e-03 3.217674061009628134e-02 6.828046391393073622e-02 8.791766585271698631e-02 3.659569951788446684e-02 6.598386318875434919e-02 -5.040566689522637395e-02 4.089362081251245173e-02 3.840829137872802529e-02 -7.497790463210221579e-02 2.086729315528229253e-02 -1.013381788842113856e-03 2.915890588858699450e-02 -1.980147002167710613e-02 -2.330175713973263452e-02 1.325346861482236682e-01 6.211619536338839481e-02 5.665687815736443478e-02 1.050609179705027652e-01 -5.028705017697793211e-02 3.069158135971171084e-02 -2.507531226190555344e-03 5.635843940825654291e-02 6.349549548594572712e-02 -1.076888443824603192e-01 -1.199982608930037081e-02 -4.862216148218980599e-02 7.144508749854656948e-02 4.873882773668570395e-02 -7.035299587559724899e-02 5.991103266642759662e-02 1.408419687005148593e-02 -1.417284650884446939e-02 -2.307854672998134113e-02 -6.810314679878953781e-02 6.902708166410909119e-02 -1.838807072478073137e-02 -5.082145071648291185e-02 -5.127654617047187197e-02 -7.691550406481234559e-02 -1.863725460447679741e-02 7.570884830014421030e-02 1.049784863921976175e-01 3.267931932479795076e-02 7.972677389822834665e-03 2.429885192079092246e-02 1.296433870981835400e-02 3.917797197876768389e-02 4.173043571527255968e-02 1.357122628115664358e-02 -6.537951679495607529e-03 -7.981460370389344139e-02 6.994752326006064072e-03 -3.194021216730194568e-02 6.260147271355287826e-03 5.247204542530837200e-03 4.986794033425522715e-02
-5.130415307189666735e-02 -3.073160606080380108e-02 -1.017897659791534015e-01 2.354465011686062911e-02 7.144320373631533883e-02 -6.624020904488329975e-02 -1.025211270790951298e-02 8.781445704499490912e-02 4.427514171224999212e-02 7.600959432221045253e-02 5.338884210372013550e-02 9.887526407710595100e-02 -6.586598049772672547e-02 6.048663739612247098e-02 -6.959214896004375754e-03 7.399355379356503670e-02 -2.555418772700877861e-02 -3.091310002779227781e-02 -1.248836676765867765e-01 -6.046639234019476894e-02 -7.794517256268073541e-03 -1.253690070789122146e-02 4.905250947995822008e-02 2.599842623122053040e-02 4.370875689697298339e-02 -7.895976822480615942e-02 8.212726948104727420e-02 6.821070214947820565e-02 4.443003907546200226e-02 1.002881712944653919e-02 -3.397265654565191639e-02 -3.472170416437340978e-02 -6.273009748282160070e-02 4.374130190054600908e-02 6.671107262938916205e-02 9.882371767133571461e-02 -6.025303447531348694e-02 -6.766572742916612121e-03 -5.647188292623880890e-02 4.191397391165704173e-02 -8.956864544465922146e-03 9.530666588171349263e-02 4.045136004734339180e-02 1.262649509956857360e-02 5.597504403397814132e-02 9.234019657121936286e-02 6.944710177114327143e-02 6.939273891734529243e-02 -7.771655863529058905e-02 -1.664671061017922171e-02 4.842630935798261649e-02 6.366983181471935760e-02 3.063526419205230347e-02 -1.227243975985579287e-03 -2.747569535242783134e-02 -1.040682244246510235e-02 -9.725256346117476525e-02 5.381593359715566849e-02 -1.015688558687673909e-02 2.491293534455497546e-02 5.875614514150350604e-02 7.824644168507688402e-02 5.873171000522511842e-02 -1.809105366886963953e-02 8.631986861830539788e-04 1.531211362488322236e-01 -1.183031496234916158e-01 2.940763838778057832e-02 -4.178844433453109825e-02 -6.680462219830632375e-02 1.224853588678564004e-01 1.009056682822316170e-01 2.610580887731059167e-03 1.033640983887631343e-01 3.002697613362686688e-02 -2.790460973215461854e-02 6.965730204786678426e-02 -7.258764462303109004e-03 4.282658509243420647e-02 1.431922960933085026e-03 1.265972573421421214e-02 -6.615513082027972558e-02 -1.519603303010357356e-02 -7.463245585540931315e-02 6.600034385790147506e-02 -1.404186038320052454e-01 2.894174865406229022e-02 6.473909078958801910e-02 6.441280448278108306e-02 -1.162630816248350907e-01 7.924044392858306529e-02 2.506376739451295424e-02 -3.329967908574777563e-02 6.068765440869509573e-03 5.660822655870734882e-02 -3.635040745778526233e-02 -8.157201736600050435e-02 -7.298666609907832059e-02 1.561884186598478177e-02 5.609074315579536812e-02 -2.570985593870451363e-02 -3.430416233867512876e-02 -4.812287736914073327e-02 1.047038118270208207e-01 -5.636753198921633928e-02 6.379600309569279093e-02 -3.915894885271656994e-02 -5.830736138535849884e-03 4.907505768400971524e-02 6.169086310932929418e-02 -4.613632386677213315e-02 1.183553538269069422e-01 -6.145510555723919521e-02 3.116361183990384170e-02 -1.612584034792477125e-02 3.333943355493861754e-02 -8.778505090641711833e-03 1.049600686433807967e-01 -4.209262012813588805e-02 1.160914902634898188e-01 1.012288075005964016e-02 -2.128325103621789977e-02 1.988816314279503172e-01 -4.550079447986014880e-02 9.201801421055069707e-02 2.960019901553355079e-02 8.878998001608226498e-03 1.294382653109495997e-02
-8.376216035795452930e-02 -9.518804601780705976e-02 -4.366409687030892856e-02 1.119424881038293476e-03 1.050276671400843381e-01 -7.966888302254979126e-02 1.518020184973516498e-02 7.948172044367011677e-03 -1.152917820359463177e-02 -1.178229212287695282e-01 -7.253388677608142709e-02 3.410389737011990802e-02 -1.490364703683196568e-01 -9.036272057131236948e-03 5.760461103100854297e-02 2.541021177859857996e-02 -1.704479889991255409e-02 2.203129737346843156e-02 1.241621240443076257e-01 -1.338028706902384332e-02 2.161065330462513898e-03 -3.905715687251204438e-02 -1.081262687274162776e-01 2.284261389364996078e-02 -5.901845118880848229e-02 -5.465369833158965213e-02 -5.421875505422952234e-03 -5.802841834884808758e-02 -1.854989128606954890e-02 -1.345868384296108611e-01 1.011165895073003716e-02 -5.538470664850438097e-02 4.838383684757677217e-02 8.246960042916637312e-02 -8.380191698474684370e-02 5.758563343936019818e-02 1.750164442026087147e-02 -1.150276015670297636e-01 -2.049761023299341220e-02 -4.357629529424389414e-02 -6.667302768931306078e-02 -9.826577777940319336e-02 -8.885053921945050559e-02 -5.494413706633167332e-02 -2.671818374557730774e-02 3.275701464796733353e-02 -4.113779719861292150e-02 5.790057835782191215e-02 -8.027498655547059270e-02 8.863835292249920561e-02 6.208263450694991199e-03 2.703191852633857889e-02 -8.224483979288384206e-02 5.021219683897458486e-02 1.129860093464021970e-01 -2.102413497863134251e-02 2.337330544336863394e-02 -4.045336872540607198e-02 1.706116172524568819e-02 -5.560960833176910485e-03 -3.041464398343157738e-02 -1.575640432058937612e-02 5.276071443067110317e-02 -9.175477545379638611e-02 6.445675070186354660e-02 -7.221802285864274695e-02 -2.470853406692240933e-03 -3.785707763246856650e-02 -1.024502319999298500e-01 -4.342696827063032700e-02 3.974253413623853731e-02 5.995504432567470843e-02 -1.162376032327336849e-02 2.918837177458170201e-02 9.082333425290856077e-02 9.589333615821334089e-02 -8.988524289441796045e-02 -5.853122523778836461e-02 -2.777505471355814354e-02 3.007170349545643800e-02 -6.969859713301007620e-02 5.920935957335917571e-03 -4.244722451269052066e-02 1.070544114723686047e-01 -1.304286994765202767e-01 3.963869093817595779e-02 -4.933818607781190885e-02 -5.197050349035461231e-02 4.407843316462569522e-02 -4.693554699413397813e-02 2.314900372005220669e-02 4.942348668987009419e-02 -1.387445747286273137e-02 5.513826446708645912e-02 -6.424191584180079240e-02 7.796383809688399447e-02 -4.588670602436066732e-03 -1.423995546733752317e-02 -1.025528123361462013e-01 2.313367432712395144e-01 -4.472060277213117663e-02 6.699718234340312772e-02 -5.511292240967029937e-02 1.356844576288007143e-01 6.146323000379094043e-02 -2.232432691538039499e-02 8.773559466778983740e-03 1.306362009123319401e-01 7.684503083163349291e-02 7.341795608911821924e-02 1.203275234237211229e-02 -2.131147235718693772e-02 9.371660299629719013e-03 1.005330271259432112e-01 4.250088753446606277e-02 5.895572034431064562e-02 1.265386422107272688e-02 6.699397654137358160e-03 -1.711112520628857089e-02 -2.986894764415165202e-02 2.631969536216669653e-02 -2.777249102255562041e-02 1.706328168753187269e-01 -1.005394533328236584e-01 7.623795693267604312e-02 -6.034200879258255594e-03 -1.956872148031399417e-02 -5.798538800950740410e-04
5.038728221215049013e-02 2.291017545581705839e-01 -2.889992640185667927e-02 1.198723059302245764e-01 -3.567156955609880609e-02 -7.710018880897835658e-02 -7.584687223638031384e-03 -3.940494167642637213e-02 -7.575830462833011043e-03 1.043511249668348101e-01 2.046798231717333605e-01 3.261208583306782899e-02 1.124765770832679007e-01 -4.831225329305332411e-02 -9.681971320002881465e-02 -1.981967478422103426e-03 -2.400859736477791440e-01 9.003567364543932361e-02 3.676306354920075986e-02 -2.241424144203772728e-02 4.243842785984617422e-02 -2.101848138392682294e-02 -6.684519620337345258e-02 -7.736714938964293041e-03 -5.555599089834275389e-02 -1.325441355981953340e-01 -5.846080407835129583e-02 -1.243813789945242936e-02 1.187036791830783783e-01 -2.037189286058943907e-03 -3.420187353845142303e-02 -1.122254346732770997e-01 2.549736245628765260e-02 3.035373004330223917e-02 5.293048074050581142e-02 2.051989379169787131e-02 -5.956553078120642442e-02 -8.675256660152937116e-02 5.398652566820116155e-02 -3.301856958110102472e-04 -2.390265684905298546e-02 2.449350678667470971e-02 2.146637479024421716e-02 8.356199488367736794e-02 -1.124250251432581810e-01 -1.087542190440558554e-01 1.015936023188578480e-01 -2.417574594868999310e-02 -1.680335543572344381e-01 -6.543303697045908807e-02 5.329970901779415571e-02 -5.511087982747404218e-02 -3.391956498601513686e-02 -1.359514376024111293e-01 6.290511236560687724e-02 6.420939071849261770e-02 -3.355712613370762792e-02 -3.280938311770462829e-02 1.557401406710601233e-01 2.082863326317965433e-02 4.720874531538802460e-02 -7.282219364583609328e-03 -3.861432143184199278e-02 1.203880705537690166e-01 -1.616779651415814201e-01 -7.647496150203875187e-02 5.099985626652141918e-02 -7.129797960892399721e-04 1.066056170354410249e-01 1.469350463687568997e-01 -5.185609267557819528e-03 -1.089882971043537735e-01 7.930860439022603681e-02 -3.052663141911768352e-02 8.035000239221719298e-02 -2.284806294409886043e-02 -4.175816024500933477e-02 -1.285453333682358597e-02 -6.872370085068248494e-03 -7.354313555776309866e-03 -8.848837207030889329e-02 -1.141036793766398577e-02 -2.182612762153153529e-02 9.375590650493051403e-02 -1.029356402294398162e-02 2.784985608564539972e-02 -6.537287905781220820e-02 1.741306356089369553e-02 1.958847839962113702e-01 -6.649467647659326741e-02 -1.166300248968060588e-01 1.415750291675137718e-01 -2.798927535656635726e-02 -2.377571919782503485e-02 -3.849456359508688502e-02 -7.748438665219294086e-02 7.340512976974207515e-02 7.686274408744402098e-02 2.365804462915393341e-02 -1.088672261876875573e-04 1.442641744298376050e-01 5.005749273961028478e-02 2.359897147570925655e-02 3.831871177112176896e-02 -8.664915588218713438e-02 6.974411950119129011e-02 1.089790052793697950e-01 -5.187585395017589585e-03 1.184317244176534278e-01 2.622854959254166882e-02 -1.551044709855239345e-01 -1.617213822378659252e-02 -1.276886738575979535e-02 2.049599076784048776e-02 2.174136450555084338e-02 -8.743823611593655454e-02 -6.316728473019896095e-02 9.863448867198736092e-02 -7.247890022557423872e-02 1.628695915514665263e-02 -1.018593069301826637e-01 -3.877077801603524831e-02 -4.300981665746759358e-02 -8.730020897234857385e-03 -3.180772610069892981e-02 -8.807765827020659632e-02 3.880222318255148049e-04 -3.057246719842652768e-02
-1.164852554258322959e-01 -1.014957275828447802e-01 1.136469489388893528e-01 -1.053552411059689026e-01 1.023866871350948178e-02 -2.925523500009760691e-01 -5.040640902520568400e-02 -1.658582344996208935e-01 1.123115290830385554e-01 1.260624600756088398e-01 -1.723628849329561785e-01 4.324924995103022335e-02 -1.258628073222214372e-01 -2.654031824245263807e-02 5.705160883735562079e-03 -2.481437674409351646e-01 -2.977803202320643550e-01 1.314962013201256275e-01 7.202341637352988046e-02 -9.069483481371169720e-02 3.746310898246711044e-03 -9.195935139713727613e-02 -2.070346984460088788e-02 1.094104569253339515e-01 -1.143040526439857568e-01 4.691893114125105999e-03 -1.475123694204760194e-01 1.004059481004209997e-01 2.087099219721378143e-02 7.106475401929927826e-03 -1.516162236646532435e-01 2.540382719120693467e-01 1.268082050176784666e-02 -2.689715655576032510e-02 2.949418724335062247e-02 1.543948529330924080e-02 -5.417473035082179950e-02 1.228047199163786601e-01 -1.596963473788388377e-01 2.453376447209862921e-01 6.293299972563103084e-02 1.706678635070400449e-02 -8.547711547391782794e-02 4.725493412657234132e-02 -4.428001865581652208e-01 -7.084907267527322527e-02 -7.999915963874845715e-02 -3.555734515268228757e-02 1.893109004533432282e-01 -5.704883835646600010e-02 -7.581429071136626743e-03 5.046598868875994126e-02 1.093040544680764017e-02 -5.156215955595794265e-02 -9.065129704028286953e-03 -1.632222680621274805e-02 -1.958750726391685348e-01 1.206037575662315536e-01 -9.289983540346728741e-02 -9.428269264515776876e-03 -2.029550678627745075e-01 -3.297347159109441372e-02 2.100715219294389535e-01 1.221387376783252265e-01 8.448897624497996028e-02 3.092995111265151378e-02 -1.610651541034676948e-01 -3.792114164490107547e-02 -1.120255982847779691e-01 -5.756799651450042465e-02 -2.923305775388858607e-01 -1.386464368363862429e-02 1.359932884204375914e-01 -4.299793770349037009e-02 2.096428519844836247e-01 9.805297692839454182e-02 -2.855696761425267211e-02 2.842484731386800759e-02 1.338617822449387484e-01 8.400515436890325371e-02 1.371366721233103769e-01 -3.219115186748276736e-02 -4.314124720034321486e-02 1.517564011676889903e-02 -1.067050885165120137e-02 -1.511099650730693966e-01 -9.112693294672462307e-02 1.130092478400891581e-01 2.125309747484238621e-01 -7.340152990681260425e-02 -6.985000629460154029e-03 -2.639891477789811300e-02 1.835048937421977222e-01 -1.648451238687865528e-01 5.855314839010091615e-02 1.471303030330350405e-02 -6.298250155147259999e-02 -1.008272018684469862e-01 -3.151005435488042628e-02 -5.882790402742352209e-02 1.489139856901922909e-01 4.395030519191305690e-03 -2.080511613398769877e-03 -1.933990186327550209e-01 -4.958185082142488494e-03 1.270887934537438119e-02 -5.124973549512152476e-02 -9.904943149671188718e-02 -3.361762856314254866e-01 -1.723385034360729387e-02 6.149680605696567805e-03 1.778894385769394237e-01 2.522088359714536043e-02 -1.668767404790244269e-01 -1.414688604263409852e-02 -1.315025959099548336e-01 -5.347334862344076817e-02 7.127754215795947812e-02 -1.354084169486717837e-01 -1.930956383028974155e-01 -1.281444127846188830e-01 2.537008889112372656e-01 1.244332930866983052e-02 -4.563478595711203262e-02 -1.363971921635300788e-01 -1.622429744438498023e-01 2.768193118247081266e-02 -1.581138770712579855e-01
-1.002736644264299315e-01 6.682562098684205476e-02 4.616451969194726446e-02 5.605764643991206775e-02 3.018268054271034881e-02 3.318663691343447936e-02 -4.019221428141581814e-02 -1.727354284121621619e-01 9.701539895263408542e-02 2.280623279127051012e-02 -9.897168302430240164e-03 7.362342432650025199e-03 6.094888481231399910e-03 8.022318661594997347e-02 1.280084430403191087e-01 -2.150305140287719734e-03 -2.740468895923598575e-02 -3.467360996851300003e-02 3.756642878825015072e-03 -4.223250806828349191e-02 4.133419642990393723e-03 6.514489159999031775e-02 -3.853869498269328620e-02 3.562591527349182746e-02 1.192487265869474067e-01 1.138319744440265402e-01 -2.834030416307393996e-02 -2.473931934832960047e-02 2.286852043667487132e-04 -1.922415675502905583e-03 -2.779058790330768414e-02 -5.353144516116174062e-02 4.649068299155809103e-02 1.680230107504566972e-02 -5.105151596712349284e-03 -4.634970042220949021e-02 -5.611170791082512738e-02 5.831040563699641660e-02 9.088379805140538170e-02 1.179044741444604527e-01 -8.884241434915395030e-02 6.982094465466777422e-02 4.972243703175234508e-02 -3.917332067176593907e-02 -7.324275961671410096e-02 1.204338197600262478e-02 8.847883309828892540e-02 5.480648781611096448e-02 8.288095836660760996e-02 1.363064145027609309e-02 8.538277589672557677e-02 3.232528678896080809e-02 -9.449248823480170534e-02 8.033959704765127052e-02 2.968657924999689932e-02 -4.626258313987190174e-02 -5.238950973593121951e-02 1.173289288488699872e-01 -3.437024846092069652e-02 -7.479408407649219825e-02 -4.905472699778162110e-02 1.320905748538670280e-02 9.769147018730406709e-03 -1.031436506066866210e-01 2.767246319429509174e-02 -4.912511185808778047e-02 1.809753141259788645e-02 -8.621138418709160811e-02 -2.842803531167766712e-02 -6.397417035924359008e-02 7.099671303223117902e-02 5.881527703335349966e-02 1.307688077743143218e-01 -2.480740540304108774e-02 -7.480808318175670435e-02 -6.333821506847003846e-02 -1.886092383119871568e-02 1.018412241190235629e-01 -6.743415693240596698e-02 5.338494326188977790e-03 -4.465708622514423520e-02 2.008160778104194945e-03 5.199246384096815367e-03 2.148836498737127440e-02 -4.580443052280330773e-02 -7.291535355076839142e-02 -4.685807716208707091e-02 -6.875267987481209486e-02 3.932359844604572940e-02 -1.570937337657562494e-01 1.174054345953143459e-02 1.054104046899464152e-02 9.985304796428941254e-02 -5.382963425083009401e-02 -7.038312264299781407e-02 6.535175787027128202e-02 -1.561684256869908839e-03 3.331413890829418561e-03 4.659534127171464229e-02 -3.557060484885782303e-02 -2.805499655235242987e-02 -1.289410591095033025e-02 4.312285014183751819e-02 -1.001287363276346098e-01 2.409328757118608250e-02 -1.457108711112168470e-02 8.881951733740903188e-02 1.048085372297479917e-01 1.181115794849427192e-01 -3.638770169710091318e-02 2.804705504021368090e-02 -2.691343212162567583e-03 5.514784912070885836e-02 -5.769153979026302170e-02 1.210066092896204017e-02 -2.428849385432615970e-02 -5.566115085557433485e-03 1.204076947255978795e-02 -6.737285920674863926e-02 3.946015669899690932e-04 -1.112695937804523000e-01 -1.415016022225190906e-01 4.962975745401659866e-02 -1.620075723292218328e-01 -4.375207755069478871e-02 8.235172385447230015e-02 8.124471672442419579e-02 3.562379430736251767e-02
5.323995216347782861e-02 2.352612461889436180e-01 -1.257178840029236633e-01 -1.895910182982446235e-01 3.651060504738297408e-02 2.971421923455790093e-02 -1.442473736184990418e-01 -1.685199413919276912e-01 1.420716784099576024e-01 -5.541321363304203655e-03 -3.068296266649175319e-01 -1.312208390500100609e-02 -1.825921837764441502e-01 1.002440458827419251e-01 4.697374968135041573e-02 3.595523394311907206e-02 4.886773658878220544e-02 -4.920928067175002474e-02 -1.070341411716186492e-02 2.323888269889533287e-02 -9.153099382191046129e-02 1.326424517017325000e-01 -1.776550766511125062e-02 3.264594674523956224e-03 -7.872367221523103586e-02 8.052415176489259585e-02 -9.103623261388665844e-02 1.624475528152607984e-01 -2.040207698752824136e-02 -1.323778655309970353e-01 8.006529193364557428e-02 -1.818542701469037792e-01 8.749842454415807103e-02 3.872620873970435747e-03 9.282995290018832002e-02 1.206875089026860498e-01 2.253611499531396958e-02 -1.023218545832144666e-01 6.583093491346663807e-03 3.089475695930168353e-01 1.639005563431354118e-01 -1.614139013831012992e-01 1.093477009805670919e-01 -1.425468888707810133e-01 4.890762327131079057e-02 -5.372437852024035398e-02 1.490173286328711488e-01 1.546687043410853724e-01 -1.173267162987709084e-01 -8.710430885056702488e-02 -7.341656006754347652e-02 -3.026992574921403070e-02 1.457367031002374247e-01 -7.459319435678965493e-02 -2.197076634241059978e-01 1.160067072220183348e-02 1.739074294763072459e-02 -1.285637398138078646e-01 -4.425986545443792025e-02 -7.707354175149952469e-02 -2.515918265575702306e-01 -8.928230659860492135e-02 -2.123523303090111836e-01 1.276206817225710721e-01 1.738768910018942751e-02 -3.981816847445280444e-02 -1.127612806848210247e-01 -6.217624673628652232e-02 -1.023646831968408888e-01 2.955305644899043280e-02 2.181864712204168721e-01 -5.816161731859702949e-02 -1.576932726929830830e-01 -1.195044074382591998e-01 3.117439136693697221e-03 1.159670423444383314e-01 4.995217725299729017e-02 2.489512995321501998e-01 1.731734198168358718e-01 -1.580199259583685290e-01 2.001018480605305239e-01 1.341235495877783068e-01 1.674694114238809428e-01 1.202429629368467409e-02 -6.764025918866370390e-02 -1.846493751316759802e-01 2.227667782159111209e-01 8.372080417730579094e-02 -8.596351325647579034e-02 -1.080648723402583555e-01 8.069151112759415101e-02 9.939558655060465320e-02 -7.889712814810256880e-02 5.277211875382812473e-02 2.397102127628357102e-02 3.322955140679287322e-02 6.527895534792647805e-04 -2.853630775148044973e-01 -5.527773693367851043e-02 1.495983316146836939e-01 5.637457722056871817e-02 1.362896949719825945e-01 7.444465428210145230e-02 2.204244535586472389e-02 7.349404735725549587e-02 -1.096191070912338195e-01 -1.236937270480488182e-01 1.649227613639632148e-02 -1.321710611098425858e-01 -7.679599224527154655e-02 1.485686257120084619e-01 -1.168667775630901906e-01 -1.624603104323395567e-02 1.359816739876844316e-01 -6.255354404318819173e-02 -1.861016161884427866e-01 1.075906433837517939e-01 8.467432210374664951e-04 1.708657361769524707e-01 -2.287927042336304895e-01 -7.737089318635891055e-02 2.182346018670414545e-03 -3.498325645158518737e-01 1.568576813073096488e-01 1.479891040332923478e-02 -1.374097067514918058e-01 4.510622656838424518e-03 1.098905510590825370e-02
7.263756431146481396e-02 -6.939766637584071467e-03 9.967428967289458652e-02 -5.526587435596413272e-02 5.906731989651541753e-02 -1.508249382943651351e-01 2.129230509831724419e-02 -5.079837199752355523e-03 1.092068345758546999e-01 -3.156123082069223901e-02 -1.649888041126597663e-02 -8.427384129058494364e-03 -1.189771222646917037e-01 6.952013963669070873e-02 -7.693983002060750254e-02 -1.088593982111432795e-01 -7.145464311041047067e-02 3.955806447355489364e-02 -2.745761729435513415e-02 8.330435752319334530e-02 -3.280319519769472891e-02 -1.530494384385398983e-02 7.199416125569283419e-03 -1.388667556095026998e-02 2.669959172711333997e-02 -7.264287758626553071e-02 6.542890299702126822e-02 1.564937005415243179e-02 1.052886140419550913e-02 -1.543583290848569121e-02 9.793243500090138831e-02 -4.640068373252728695e-02 8.620075144223806121e-03 -1.458913802298147586e-02 -8.511598728130892466e-02 -1.262406709985875765e-02 -2.804430646582555323e-02 6.940504206415401556e-02 7.026509343587086787e-02 3.732070539501466250e-02 -1.753021159587655683e-02 4.241276093018556820e-02 -5.553265616410923283e-02 -2.312739523229445995e-02 -2.674278177456554731e-02 9.326715940038331210e-03 5.819301435921205717e-02 -2.333814752468458403e-02 6.998753319512170112e-03 6.528322238876216321e-02 4.086225246617675860e-02 4.423706518893522760e-02 -5.567198653243776024e-02 -2.685107968930108835e-02 -4.985794851564613606e-02 -3.381230083284094551e-02 6.282498494442997905e-02 4.968698258713344362e-02 9.914043160423045842e-02 1.067952993616319013e-01 7.824537631586346922e-03 2.979725193555790574e-02 -8.203295918050872507e-03 -2.403542181482712804e-03 7.321705825646900208e-03 -5.924635041550392611e-02 -2.578737649607599700e-02 5.226629136129685993e-02 2.462020099791829841e-02 -2.891653799714885911e-02 -5.495447540495247002e-02 -3.943609598195329038e-03 -7.244116558825308694e-02 7.798975978602525061e-02 -9.319740719504476800e-02 1.399100449504126625e-02 -3.983907022181637503e-02 -8.635839349366608575e-02 -2.949909382559460364e-03 -1.358552842597448315e-04 -2.854153514902289454e-02 4.280031549553234282e-02 3.889850762559348557e-02 3.466033629435400637e-02 -5.675146523490157829e-02 9.865060224934986410e-02 1.050772087993922729e-02 -2.782563675129767072e-02 -2.195305068842603666e-02 -1.229117348713456848e-01 -9.949240219138588692e-02 -2.538597998409808376e-02 2.743121603073148812e-02 -8.080214828737908306e-02 1.142934771842500224e-01 5.836496507655213051e-02 -6.716038573541210921e-02 3.713139336648353661e-02 4.564315487832987933e-02 -8.720258801258774436e-03 -3.948871209202712076e-03 -5.872673414151954874e-02 2.025794736520915990e-02 9.017739122485614323e-02 -6.448082419032440116e-02 5.681698715511613457e-02 1.788320775702079840e-02 -1.737676838103875340e-02 -3.890983610145856003e-02 1.050407939095407070e-03 -2.869005052213940976e-02 -3.050688856302217339e-02 -3.288594595200085985e-02 -4.477167448994723992e-02 -2.631598664303047216e-03 4.089768740947626047e-02 5.435857709351750444e-02 6.178820713089369643e-02 -5.289660019608895952e-02 6.096874019924075627e-02 -1.325893375733716746e-02 -2.998460980777803778e-02 2.698759691787898721e-02 -4.834685914324242384e-02 2.871244938082997966e-02 1.284156211133615777e-01 -7.534190936474201294e-02 -4.774336362718876320e-03
-7.821210598689516680e-02 -3.291338666800474461e-02 6.592017432472846439e-02 8.120226868187210845e-02 -3.043801652971882959e-02 2.966703826138135727e-02 -2.751907648871893333e-02 6.787579873930932794e-04 -1.397801063773736370e-02 2.895616715904435548e-02 5.703960771235144084e-02 -4.190801578539894712e-02 9.687892258857039307e-02 -8.246468163052105005e-02 1.267040922991198061e-02 8.729412080068670032e-02 7.802668399871968974e-02 6.841108360814648903e-02 2.939147861778054413e-02 -2.216602946498969981e-02 5.960518039342699304e-02 -5.144015527321586789e-02 -7.255890041134031854e-02 7.355202657085216367e-02 9.451002572425956476e-04 -6.175406251553947762e-02 4.817774770301794934e-02 -5.286187606781837800e-02 -1.849982529787713367e-02 8.858728252315274665e-02 -8.488145424571321568e-03 -7.671944550949592878e-02 1.635191533203169886e-02 -1.799841329478639104e-02 5.170561886246376887e-02 -1.860452417745884698e-02 -3.892622292429961939e-02 3.160535923952482312e-02 1.013422025208973593e-01 3.772211183433878817e-02 5.583454696848049598e-02 4.314957682990526455e-02 2.809008608281937658e-02 3.448213341629995099e-02 1.969636098170872342e-03 2.724392446063189643e-02 1.570880932411562042e-02 -8.390413097239793339e-02 -1.079097550146146519e-03 -1.251238981126390204e-02 -9.223157582406843469e-02 6.389591331436549233e-03 3.046033949813396757e-02 -3.080800598247638092e-02 -4.629614785948377859e-02 -6.040705421580096733e-03 8.906435556455968849e-02 -7.471395026038120390e-02 -3.593311550842088337e-02 8.272652417840223316e-02 4.516771879631450298e-02 6.091549506974108102e-02 -5.018619377457423508e-02 2.181928348798401612e-02 -1.088424523968189589e-01 -7.425900756837429395e-02 1.006757014413235257e-01 -8.080570316570390155e-03 7.257046086896501436e-02 -1.027135753136071764e-02 5.295331827487453902e-02 -1.228587294678346910e-02 1.246017557184333005e-02 -1.949984058470912232e-02 1.127901949173504559e-01 -4.072921721462300498e-02 2.470298546781311139e-02 -6.511927504269765521e-02 -4.230579106668282130e-02 9.397477770182117995e-02 -6.196461857289657649e-02 4.941294222109116757e-02 3.050499454816116979e-02 7.624895268483307398e-02 -8.873327173986146968e-03 -2.528701363338273483e-03 2.064471684491078762e-02 1.117470473356393240e-02 -7.003747792327785771e-02 -1.082931924842021410e-03 7.219748622047621189e-02 -3.399762830713867756e-02 -8.924917262645283567e-02 7.268139788600426476e-02 1.994538461375893953e-02 3.840503579448314997e-02 -4.724654167674639110e-02 8.848852479202361752e-04 6.942538102792437937e-02 5.721042234213132710e-02 -2.270974389842558144e-02 -2.192446253536916093e-02 6.348553899198115802e-02 -4.485058042678526091e-02 3.413447477921206785e-02 -4.943424591989153960e-02 -8.239033673002756075e-02 2.301231854739398466e-02 -3.206436258800073741e-02 4.427038588143950015e-02 2.924387503133986810e-03 6.960615749562193422e-03 1.569342653255016012e-02 -1.591211884292705395e-02 2.957783560614249754e-03 8.215344578198377490e-02 6.365228734063889220e-03 -2.630138111010457344e-02 -3.003668742333130692e-02 -8.293374916949942249e-03 1.825916147401197842e-02 6.314916474444115524e-02 6.388154447667328262e-02 5.091887936861586028e-02 -5.884945335923031512e-02 -1.477605326534243806e-02 7.893239611672764333e-02 5.421357923767577101e-03
-2.880084255106075269e-02 9.112400337597716116e-02 1.005519561576938455e-02 5.266082634576017829e-02 3.569903225504550415e-02 -3.617150531519398859e-02 -1.786967985284326765e-01 -8.344989523397890185e-02 8.929640842590402805e-02 -6.024930164891777878e-02 -5.525356121894869216e-02 1.227844410530017603e-03 7.702517092826313694e-02 -8.872485464638454888e-02 -3.364442804515065805e-02 5.567844693130825223e-02 7.405184691876654478e-03 -1.044925239078685168e-02 -3.645421478937409948e-03 -1.085558157340326124e-01 1.238604901335534081e-01 -8.693610594352126075e-02 -1.055019853109772365e-01 -7.243299916302960162e-02 -7.688444238788194607e-02 3.623558219406889519e-02 -6.310203070994414853e-02 -1.195792346707150455e-01 1.084002549508393531e-01 4.531741289976465303e-02 -6.170295602358880083e-02 2.063403083175406605e-02 -2.025077639266625179e-02 -7.004722922851198963e-02 -9.895990221342690352e-02 4.105843123656666149e-03 -7.740385312582255539e-02 2.164529474257262734e-02 -1.232269096636940953e-01 -3.071075214455113757e-03 1.118482548848651059e-01 -2.667125421556358969e-02 -1.077809991060950656e-01 -1.134254766489900881e-02 3.117367120190736498e-03 -1.919805055002731312e-02 -2.438920835949177912e-01 -3.977655918379116584e-02 1.682355924169890438e-01 -9.831253676554317644e-04 -8.900049052250691428e-02 3.817968157884958635e-02 -4.481784526581238104e-02 -2.191551367696623065e-02 9.590829062070897748e-02 -7.242981224926801909e-02 3.924960451057680350e-02 1.355475171003182044e-01 -1.213821312747310199e-01 1.820387385824440455e-03 -5.004551542909582013e-02 -1.275830567657209869e-01 1.259926572350385243e-01 -2.069428231888943356e-02 -2.627648391593283630e-02 5.372216028878899069e-02 4.194664906436676444e-02 -7.482152683719904551e-02 7.027419795651120016e-02 -2.103518116504165744e-02 6.342129803943774569e-02 -1.065101413101432817e-02 6.281454571386375918e-02 4.288137835346322868e-02 4.856280295241793138e-02 -3.426086048293253833e-02 2.241207269598013627e-02 -4.660494997231333369e-02 7.072349975269286246e-04 -5.054955215737589463e-02 -1.226122336057700463e-01 -1.492050229929321389e-02 4.865062962878648894e-02 -1.316126735251743098e-02 3.602007996417675578e-02 1.824668710993962092e-02 -3.321523215769007359e-02 3.722037418643162759e-02 -2.667401324290194324e-03 -1.268881422737676012e-01 -4.581008384260619980e-03 -4.631005261537944617e-03 -4.443992861465768940e-02 -6.642479522088896859e-02 -7.076456764498770258e-02 -1.192109103637249284e-01 5.020804197032454480e-02 7.926840304761442746e-02 -2.780231672328062689e-02 -1.546071746843438455e-01 9.179316567104649216e-02 -8.069888939905622838e-02 -7.473491988618261028e-02 -3.530570061935103116e-02 -2.903363539006881613e-02 -3.348250272827740966e-03 2.755267477959342029e-02 3.666859024800166872e-02 -1.836770756693976644e-02 -4.027949911562535290e-02 -1.187343516990609221e-01 1.583265946190412499e-01 -2.730427951762598102e-03 -8.449726185202766082e-02 5.550516740616441569e-02 -2.495602462264059906e-02 -3.853490217235898407e-02 9.476274212552830700e-02 -3.202471440696266769e-02 -1.316592546370371365e-03 7.531908560714152545e-02 4.787907527800754071e-02 -3.009574518663025652e-02 -5.544916684956566200e-02 -8.925805209985659960e-02 -6.780369945876466020e-02 1.048810309302470635e-02 -7.088245729916273219e-02
3.845151529217282621e-02 8.317368758996333822e-02 1.275344104810306467e-01 -3.391148884814471770e-02 -1.098163883518387361e-02 2.898416674342377611e-02 -8.710854833775939429e-03 7.234510745983045721e-02 6.919538934325410173e-02 4.107849748933019296e-02 3.283420617057093011e-02 -4.161514431934745101e-02 1.425730720051747724e-01 -7.754033353031161702e-02 2.110048433042632787e-02 -5.633960722270731775e-02 3.505699399715628273e-02 3.568851068354558093e-02 -2.705379920011055303e-02 -9.649890745371794698e-02 1.502715439499073269e-01 8.164102105805500983e-03 3.341382685865965096e-01 1.130839142530097041e-01 -8.623699372958770759e-02 -1.630538581212576110e-01 -1.355964552284371905e-01 -1.472780504701790873e-02 2.584386089717199964e-02 1.178933534346510853e-01 -7.811794054401190179e-02 -4.388075484994326259e-02 -1.754567027380399616e-02 3.127116762413687662e-02 -2.318036901549186402e-02 1.036977072165485292e-01 3.046993007114937382e-02 3.695484370512792244e-02 -1.404621193900189025e-01 4.308512029004363253e-02 2.182878480212756545e-01 6.457165450375673688e-02 6.083679896319016400e-02 9.640530859416215903e-02 -7.481549333771204957e-02 -9.437863849765398827e-02 -7.379057215757759379e-03 -1.592344531105424066e-01 4.475450908769562641e-02 -6.356898765789402439e-02 1.247880981529783488e-02 8.085453483905005734e-02 -2.505073220601413894e-02 -2.161414754078024025e-02 -5.804272522117601835e-02 -4.297341896993461807e-02 1.093047356030355834e-02 -1.935025063023135539e-01 -6.129682853543048926e-02 -1.011521695825889217e-01 3.495452650691787799e-03 7.354311558383698488e-02 -5.670425102461638250e-02 -1.514439449126285704e-02 -5.109730701669816522e-02 5.159728155422009521e-02 -8.344428587897881333e-02 7.231662109193688626e-02 1.209735135937354544e-01 6.984710367634663908e-02 3.841021851188338582e-02 9.322079798484579627e-02 7.134366573912304110e-02 1.751231995503401973e-01 -1.136526719261927859e-01 -4.119623784973307917e-02 8.342044979020585282e-02 -4.610542734525390624e-02 -1.046237852333714666e-03 1.593459044265114477e-01 1.071719411029586205e-01 -2.143236750847041933e-02 -5.523955700804592667e-02 -8.187058625932770728e-02 2.616584970892775822e-02 6.679780940856590299e-02 -1.418726276690718269e-01 6.346245863267824250e-02 1.077253306970386015e-01 7.739729154609770179e-02 -6.345758926287395352e-02 -1.328810209926628572e-01 -3.417817988769653731e-02 -9.168571584297523225e-02 -9.469132633768839735e-02 -2.407854505065691597e-03 -3.349398210090048789e-02 1.472454284468095731e-01 7.125190972220170338e-02 2.237943024814013915e-02 -4.747752334039029992e-03 -3.244314065363019129e-03 4.385624123424162329e-02 2.096804241245800449e-02 2.834640997904390447e-03 3.272395789196536064e-02 2.936379858381383753e-02 -2.020113864899424766e-02 -3.007426085364266199e-02 -1.627240612913025408e-01 -3.603627374722422755e-02 8.637693351374846340e-02 1.892539319644898077e-02 4.463561851158859978e-02 -9.528229343493543543e-03 2.231090944101476320e-02 -1.586972727016405099e-02 -7.072359943322599485e-02 3.688025787190557514e-02 1.156682232120790077e-01 2.920074144202449568e-02 -3.498795077294039602e-02 1.800605340122611309e-01 1.304750914028197650e-01 -4.085278192463850239e-02 -2.119172226442648244e-01 7.298941287335213544e-03 -5.853213532914837425e-02
2.912084209785273901e-03 9.525793013605540760e-02 1.610236928583510529e-01 -3.297505890977875387e-02 -1.999918962412170972e-02 -4.928377143165491026e-02 -9.430930052609777514e-02 8.602000164023208828e-02 -9.892780229633638123e-02 2.288037804321976440e-02 1.163544905331298090e-01 1.038167085385586497e-01 5.239783853008970343e-02 1.476263728502671090e-02 -5.684301259418985536e-02 -6.628437197747122367e-02 7.428830625122270770e-02 2.237946947208983503e-02 -4.167815922431794551e-02 -4.734789506151238642e-02 3.235520006439823737e-02 -9.261872681639717053e-02 -1.336261924775180299e-01 -4.802789121043921083e-02 -4.487581923247623006e-02 -1.296359218714605022e-01 -6.593241897131239815e-02 -8.545302511770642984e-02 1.247373070349867413e-01 4.369917273527510609e-02 1.473326677505250488e-02 2.183636396559661755e-02 -1.935266333177843578e-01 3.862756689547037353e-02 1.169941783631220540e-02 1.094220746749883927e-01 1.661237469836712374e-02 8.688964093015089096e-02 3.651904009488599750e-02 1.995465111958311388e-01 4.169866285595862088e-02 1.234709961543785511e-01 1.021746386899622661e-01 1.834920220611072905e-01 -4.633596399356712525e-02 -1.070411494108565106e-03 -1.039351120576468765e-02 -8.882686571663986341e-02 9.000228136465314444e-02 -1.318363144778874896e-01 1.811999522207906679e-02 -1.685392818076415083e-02 3.065312167367845869e-02 6.073105529045519368e-02 8.401226027229050097e-03 2.918186465030408322e-02 3.834315968930973356e-04 1.390393774237395352e-01 -3.415232760297887138e-02 2.447961126865595347e-02 6.598268810604869528e-02 8.659958289204672255e-02 1.763165525096642774e-02 -4.552301923011211650e-03 5.270486616261383511e-02 -1.452289314644733542e-02 1.253087961137628638e-02 -5.791737441610783632e-02 8.893779374696701712e-02 -4.758653055759941297e-02 -1.945169114673452743e-02 -4.492168879426286510e-02 -2.859813368603488642e-02 3.770839653509352324e-02 2.067344669465851631e-02 4.079864902097592866e-02 1.136092261686271337e-01 5.010337070810534643e-02 8.112246613760880354e-02 -5.454088950407917635e-02 -9.879470504222266636e-02 -5.757898695699531499e-02 -1.703681123932082597e-02 7.158590045650412015e-02 -1.101553681283160523e-02 -1.082873465335193047e-01 2.239120503161886461e-02 -4.961655829157782943e-02 2.028283455177006811e-01 -1.360160492459466276e-02 4.769037217218183300e-02 1.267585816780468846e-02 1.633191927510342298e-02 3.990443957297099692e-02 -6.785712220629422364e-02 -1.633033610178384609e-02 -4.464997441814155810e-02 7.587188661085340902e-02 -2.741681415557837079e-02 -9.885385482325551032e-02 -4.407808569098813772e-02 -6.489282614840694279e-04 -4.177633782888954227e-03 1.198606597984821220e-01 -7.976593719610858280e-02 1.733541166287765403e-02 -1.807506302840798185e-03 -4.261431576731243565e-02 5.601668715047507068e-03 -3.423389046466358962e-04 -4.663262513184152774e-02 -5.112778568596724506e-03 -1.397555648776338810e-01 7.944474492836621493e-02 -6.434983934783314319e-02 -6.844394140689991080e-02 4.135746787808756292e-02 3.496715076141626577e-02 3.405804978202298799e-03 1.069388481957883781e-02 -5.362512870039408408e-02 -4.026074673026496659e-03 1.287053671563515196e-02 -3.173331202234879606e-02 -7.866947407909469225e-02 1.220334867306924892e-01 1.013011608547114001e-01 4.676782270086719123e-02
4.108062775250159032e-02 -5.676243906772901644e-03 1.266575478867030258e-01 1.055880004878115702e-01 1.144123410806101582e-01 6.641947523836790046e-02 -6.251060146054440714e-02 1.998299378616541500e-02 -9.737845874155455494e-02 2.163793210302352235e-02 3.200818488553160146e-02 4.898084594008206283e-02 -5.424485997630012352e-02 -9.347235032755850381e-02 1.466243072669483338e-01 -5.126656558687290449e-02 -7.008539190482997172e-02 -1.318593628307236296e-02 5.058242786039628819e-02 1.881370809196155833e-02 6.912601811986530086e-03 -2.521757026239800428e-02 3.014126686890083312e-02 2.902602523846442573e-02 -7.651077508675563355e-02 -1.007858380699507006e-01 -5.933829302467490824e-02 1.297932565880553779e-01 6.733374670623909486e-02 -9.462161036926224067e-02 1.141312482022376201e-01 3.439056433607491636e-02 -8.277907411475072044e-03 1.124235720973357222e-02 2.634358041688941374e-02 5.016269156110533117e-02 2.814613968376639477e-02 5.613101062389943413e-02 1.270082327945952320e-02 -5.436126943185726201e-02 -5.956203931665174020e-03 -4.700800910014818479e-02 8.603540097549647325e-02 7.284876126537179197e-02 3.810355213744872488e-02 5.776376183433348105e-02 1.798553099614276854e-02 -1.773649669491615330e-02 7.611387569177220647e-02 -1.083157141374493752e-02 -1.653210565273297017e-02 -7.475562225501315716e-02 7.454627371598865349e-02 6.924070124896149203e-02 6.782758940516091933e-03 1.534175848868080463e-03 9.057418074036351074e-03 1.011735382582150747e-02 6.644733615007823724e-02 6.624751480824341010e-02 -1.193419208931641683e-02 -1.400798188580572139e-02 -7.088854740304302571e-03 9.432351916818483561e-02 4.667732285983210855e-02 -2.598701504253922434e-02 -4.513141594056928330e-02 1.235382045952496642e-02 3.434832958806617511e-03 -6.799589656917695568e-02 -3.134339112156295931e-02 2.380750050403550311e-02 8.230647232596173535e-02 1.147680922658892988e-01 6.113967253431535492e-02 -1.125801604911154663e-01 5.219766252900995968e-02 6.544709398401180045e-02 6.445526169755685930e-02 -8.926203092068159262e-02 -3.218679683798662122e-02 6.744134086536060502e-02 -1.047616826538415175e-01 8.799926241928822390e-02 4.210842826629026397e-02 4.865723337611219113e-02 8.272298934205445098e-02 1.115030641638517228e-01 -1.125989061637539257e-01 4.337873121382004871e-02 -1.885315127890417261e-02 4.898042520950519202e-02 4.898639356326616595e-02 2.220346136459680486e-02 1.991227413287324083e-02 2.244221530444242066e-02 4.564337761678831373e-02 5.681757667004001811e-02 2.235897333175574861e-02 4.686695739725055959e-02 3.126480882408401614e-03 5.054065674650119744e-02 5.385444403598520918e-02 -1.409400832029790440e-01 7.318794474539964956e-02 2.543216132323487116e-02 -7.452500248547156737e-03 2.497857662558924854e-03 -5.690939896364807793e-02 -4.078850308952922804e-02 -2.650440773952178128e-02 7.211709884437635110e-02 -1.813773169561384152e-02 9.161452453865494283e-03 1.873999624170225031e-02 6.251595975084255075e-02 3.780745740135258381e-04 8.037675667206577168e-02 7.666411555182632565e-02 9.826339735478835380e-02 -3.411902082828016658e-02 9.830123627918589679e-02 5.212045223314532710e-02 -1.682908708104653359e-02 3.197654546407026344e-02 1.124690025041332198e-01 4.080957478519439685e-02 -3.703745547839142060e-02
-6.288006461055804797e-02 9.496095665993216361e-02 1.833591608335262890e-03 6.275819732278137275e-02 -2.412910712860048476e-02 -2.411804815366114935e-03 1.495943145080729127e-02 -1.972064320646276653e-02 -4.687561483001540658e-02 -4.559253134386402270e-03 1.084252508540247822e-01 -9.286596395011775806e-02 5.045474608835170960e-02 -4.158892743300145189e-02 6.722488436267273770e-02 -1.977928236062623940e-02 -1.414202861083187490e-01 3.463601798864108378e-02 1.307758087681830383e-01 6.398879545189477269e-02 2.158919923569692020e-02 -9.338622106531974110e-02 1.442494379240848723e-01 1.177089487935840256e-03 1.159314838994434382e-01 -4.360672550366424122e-02 8.127525308203691068e-02 -9.589332495940708356e-02 -1.080795011897051593e-02 9.955379485765557257e-02 -8.833853239348737896e-02 -3.260743056392428202e-02 -5.920254099856067653e-03 7.654415239408889071e-02 -3.867629798771440863e-02 9.751033941070186284e-03 -3.278878763990158984e-02 8.781094065072553301e-02 -7.625820378323467340e-03 -3.104120075838963655e-01 -9.176449306154785268e-02 3.920425878914363983e-03 9.368641063227860222e-02 1.765507196449182248e-01 -5.366395502963888786e-02 -6.091298274946679858e-02 -3.922350394652755756e-02 -2.856781602032423123e-02 6.918303717470694614e-02 5.340810371005050988e-02 1.991887966426149348e-02 3.330526072405556176e-02 2.707101177583110321e-02 -9.543432771612167520e-02 -1.364580049652627108e-02 -1.336805038999365758e-01 7.255697444618031122e-02 1.188110263962092183e-01 1.424828432928954784e-03 -6.314949764450533687e-02 -4.556804000630981094e-02 -2.909298329277607703e-02 -1.172868952846151287e-02 -5.207646135336290588e-03 -4.183670713418935483e-02 -7.780736652606767834e-02 4.448563448798784764e-02 5.245761488638057968e-02 8.739783434319035871e-02 7.790355675301112448e-02 -8.514243674795253514e-02 -5.703086141212146409e-02 -6.306919458642000487e-02 -3.929251113829838882e-02 -9.838731990845868414e-02 -5.302778849535002420e-02 -1.017874223222549335e-02 -5.431047306195836699e-02 -1.157510620731797973e-01 -1.848052431533475821e-03 -9.718824761495778453e-02 -1.157307413494984838e-01 -4.822122416962119906e-02 2.486294151992915133e-02 -9.537044285745539807e-02 -2.109457421374177563e-02 -4.087580228015678940e-02 -2.653585811691807142e-02 8.368574444764898890e-04 -1.001818510247633187e-02 -1.288451125072929138e-01 1.104606182306830386e-01 2.137927160963657910e-02 -3.604840387497810356e-02 -7.636105079822096131e-02 -1.022338925454723407e-01 5.612415522563039133e-02 4.316711518845602058e-02 -2.710005067773796003e-02 -1.626758964154881651e-02 1.945862378478913635e-01 -1.032999091664727268e-02 3.588848597655995565e-02 -2.429072312460489949e-02 3.703419231751537994e-03 -1.401049339917399654e-02 1.075637248433767568e-01 -7.373206779897309437e-02 3.559274819885899221e-02 1.478579887239271293e-02 -1.810587991350463832e-01 8.440768204148127452e-02 -3.349153771398780122e-02 -1.454024546137215324e-01 9.353714766273539538e-02 5.683156923207052097e-02 9.257946179299407496e-02 -8.297029327324043080e-02 4.062277696708549435e-02 3.037185909431807523e-02 2.137675433417357898e-02 1.064542034455599750e-01 -6.248806637940834685e-02 -9.089194337243686195e-02 -1.148205060576393405e-01 -1.720395253379653211e-01 6.647895204604062011e-03 -1.238293135329005066e-03
9.487167489476676374e-02 5.732169606394109385e-02 5.168427637630394061e-02 -3.250667312934879538e-02 1.019180074248479152e-02 -4.311003928609185958e-03 -2.640089852623083919e-02 6.921192742621140592e-02 2.205814939119486034e-02 6.090285666512124108e-02 -2.162369686348186715e-02 -1.258268099822826801e-02 1.880554252859514483e-02 -2.225223711151391032e-02 8.330077111919977073e-02 9.106612997334650669e-03 -3.007877748786303568e-02 -6.190086642203838224e-02 5.742842523995306259e-02 -4.890117279795310606e-02 -6.651458839096617559e-03 2.586302842527094317e-02 -8.512864078048767991e-02 -7.872224495460940219e-02 -3.917726574173534260e-02 -1.168945250847826245e-03 -1.072598178482083164e-01 -1.117754372573319041e-02 5.488265506691354656e-03 4.119888866629252411e-02 -4.963118786468821708e-02 -5.495669476892856703e-02 -2.159426781467204542e-02 -3.849794591668807830e-02 -1.805719147629081950e-02 -6.847695601142252120e-02 2.702039546534149364e-02 9.019320416134147048e-03 4.767563008322694279e-02 1.008569657961496668e-01 -8.105118102433500615e-02 -9.049409075473199837e-02 8.360248892495666939e-02 5.693082921187449241e-02 9.300191096741149133e-03 5.842119287554340540e-02 3.011993047374278767e-02 9.175642291069684153e-02 -1.222507377714009552e-01 5.204502710149360584e-02 -3.818491329739404083e-02 7.469599267983872970e-02 1.148278935046055105e-01 4.590637794700727636e-02 -1.111926205580398008e-01 -1.431358636233952090e-02 -5.067373085285323264e-02 6.929848512581771036e-02 -4.661758480977003932e-02 -3.746115358239491405e-02 -6.775788151012397675e-02 -7.763254580193741650e-02 -2.741840231168261866e-02 -2.968931743334513734e-02 -4.099867987595966212e-02 -9.850452333983762687e-02 -3.281091840917627067e-02 -4.398790625259486192e-02 -1.742613763358457149e-02 -1.074119922230253911e-02 -2.401948897796016887e-03 1.042372708232656986e-01 -1.655551370245263859e-02 -4.865198830629139520e-02 1.458485369729379914e-02 -5.344344300672251857e-02 -4.504657740028340795e-02 -5.617709290713206183e-02 4.141370470307248995e-03 5.408276718022760748e-02 -1.786021888910309732e-02 4.603452320711685225e-02 -5.474654233216922792e-04 2.791023351810187694e-02 -1.039851807789013427e-01 -8.889636935172029464e-02 -1.684359848600722187e-02 3.518483826149012422e-02 -1.155060072184779657e-01 5.671815984855619469e-02 1.229097885456422942e-02 -8.827764740618473938e-02 -2.419521181081743869e-02 9.028209083800890766e-02 5.941117887467569497e-02 9.574007770518283555e-02 9.977724887466173781e-03 1.447879144615950298e-03 8.463393242633553484e-03 9.777068364423023572e-02 -1.348230242893015407e-01 -2.399389420247413293e-02 2.526503082161004471e-02 1.062959120976790656e-01 -5.980559325982778146e-02 4.021988236628575714e-02 2.779198084358532397e-02 7.078752392123367765e-02 -4.042781523534529596e-03 6.257536438560425129e-02 1.103048867087934870e-01 -7.714119502329338900e-03 6.377603811138442269e-02 3.032083619273965094e-02 -4.138916724335076763e-02 4.642159925202617859e-02 2.882876136852705745e-02 8.417901339379946224e-02 -4.087998803191756486e-02 3.064553467269122422e-02 1.403120910407116770e-02 -4.435254896641265682e-02 8.003755248885337237e-02 1.223384995516835355e-01 2.826089886099697468e-02 -8.016905793065734476e-02 -6.467042444060974726e-02 3.392852368124351509e-02
3.359348998636436240e-02 -5.573075316715114108e-02 -2.811055479043251919e-03 -1.443623371828093097e-02 5.393297030378662454e-02 8.114775967017925917e-02 -7.123496178484066930e-03 3.597835617477169318e-02 -1.707708831847429623e-02 8.364572755358237743e-02 -7.761451536049389366e-02 -4.432594803705296876e-02 5.155551664042750531e-02 1.292788911159475050e-02 9.977577378202180658e-02 9.368135198061605662e-02 -8.400538007892108250e-02 -5.529207589022538949e-02 4.740384086031157462e-02 1.886663950033604445e-02 3.197796962025096883e-03 4.740650204308813342e-02 -4.790432413223750206e-03 -1.429143960244209574e-02 -1.198678754183885586e-01 -1.687907676620848882e-02 1.374651606335171479e-02 -1.112346818785447805e-01 -4.934333802110752593e-02 2.018853211918673202e-02 4.503961105118105095e-03 -2.365286721746686152e-02 -3.614078481807449922e-02 -2.039222080689870320e-02 -1.892530503816333698e-02 -2.716260965065197541e-01 -5.238112492220458466e-02 -1.479485360834652307e-03 7.344391451923631964e-02 -1.733241630829710986e-02 -1.459518964770427189e-02 -7.964748072515524802e-02 -1.147422852823825647e-02 1.447125723788743878e-01 2.663475131142902658e-02 -1.864834813586031814e-02 1.548894462143522999e-01 -8.859478135010045996e-02 2.637186275706758856e-02 6.485141207043405853e-02 3.417596037038301421e-02 -1.719579683934694403e-01 -1.347700825149159842e-01 6.422412921439733802e-02 -2.351160602368244923e-01 1.247174272546836861e-03 8.753311159885686019e-03 -5.226766099442173297e-02 3.832329518053072866e-03 1.411718836628281584e-02 2.592454877074796063e-02 -1.352002764158989345e-01 7.130769126396208080e-02 1.195880747810440514e-01 1.033192108494087880e-01 6.133527866643310317e-02 1.177125256522186109e-01 -3.094428030808512101e-02 -3.145549669862759967e-02 3.037385825491350361e-02 2.095411337542439460e-03 2.795870475503430333e-02 1.250583338484469176e-01 -5.687618565033652346e-02 1.418594507137706066e-02 2.001816659706405141e-02 -3.152914588674896740e-02 -2.775816201669525918e-02 -9.740488417693707324e-02 -4.266880497108297560e-02 5.077993666661504563e-02 3.516075031293262876e-02 -7.875413700045472143e-02 5.992917364861935318e-03 -9.431789746105087580e-02 -3.975074333026747814e-02 8.994402843738431852e-02 4.150071602320068442e-02 -9.434639078882042784e-02 4.991248860276333021e-03 -9.576266423666439376e-02 -4.455327011334435372e-02 9.114298915282598168e-02 4.821133856013356395e-02 7.508990990050003200e-02 -1.200131474157438254e-02 -1.203453183057881931e-01 4.538138723691848703e-02 -5.684282399020170601e-02 -9.610103829466616621e-02 1.861652654045527489e-01 -9.915806155711398562e-02 1.168881768650747444e-01 1.130097840784436702e-01 6.340452437945165443e-02 -2.943596234981036772e-02 -2.323894083596554916e-01 1.066513827288869190e-02 9.643261883915075008e-03 5.855331352657633381e-02 1.043873463778086375e-01 -1.068849756099321188e-02 3.039384330545476243e-02 1.209429614776497686e-01 2.386135842412557065e-02 -3.180154317380486789e-02 2.512372600329395439e-02 1.900160428634882145e-02 -1.044572710831842832e-01 8.784145616355513997e-02 9.530941851555936595e-02 -7.320357759196849390e-02 -1.811297667496324787e-02 -1.870877443144771529e-02 1.504226069506491015e-02 -5.124998760356647837e-02 -3.937936979618482380e-02 3.765768504101042746e-02
-5.392620601593352964e-02 -8.619713704076137351e-02 1.976047794536149940e-02 -1.182294885903205917e-01 2.838204136206045822e-02 3.309671754442293501e-02 -8.395921188137317470e-02 5.637935509114151006e-02 -8.942307512876399023e-02 3.411480851455419433e-02 -5.340310093376969547e-02 8.510906610485632906e-02 2.991825743486816944e-02 -9.646144825923137767e-03 -9.329899345014329437e-02 -8.824816486390991976e-02 -3.272692223499254482e-02 -3.876094987540967335e-05 -1.113751278336560513e-01 -2.637402858634737418e-02 6.408340365963122003e-03 6.923893599379984942e-02 -6.022161665935401448e-02 -2.610404446147149976e-02 2.588849285526848704e-02 -3.234778276526348306e-02 -1.831223936359664128e-01 1.276836769617438472e-01 -3.148904408179546699e-02 1.201083188363604413e-02 1.199090351021554063e-02 2.374112674248974198e-03 -9.348361574087844447e-03 3.891049988038474544e-02 -5.566233940749866320e-03 8.747654964791873669e-03 8.172097033142979028e-02 -1.604463694205208457e-01 1.815415667559325263e-02 -2.192624568087088721e-01 -8.144458725404839228e-02 -4.714713103694859880e-02 9.153570933665251819e-02 9.108201733753418933e-03 7.793104782213178261e-02 -5.258429041018368444e-02 1.086661531084358312e-01 -2.644887281828884468e-02 -4.514696436178738947e-02 -9.374396176183817653e-02 -6.886563996377841057e-02 -5.148962350370100277e-02 2.843491561788938360e-02 8.244870210780270992e-02 1.028926220037080508e-01 4.615447754938863806e-02 -4.271191773558356830e-02 -3.147244735155887985e-02 1.895165079950087567e-02 4.265826588211260595e-02 6.712968342771620522e-02 -8.237636104399169434e-02 1.795261739280300251e-02 5.014255347467844875e-02 -1.219624137672474656e-01 5.994601487356505248e-02 -6.089625336939257297e-03 -3.243927686012116479e-02 -2.693393691564460735e-02 5.475420982418283816e-02 5.737236129761300041e-02 1.187425594771038088e-02 1.185678658585007650e-01 -7.289130061496999768e-02 -1.338251698431149571e-02 1.422155831647340524e-02 -2.196336477306390367e-02 1.605278865662262966e-01 -3.659970771304649206e-02 -1.236883646241518191e-02 -1.036814045457954414e-01 1.382728160512907145e-01 -3.692065077811863133e-02 -3.441266828248708276e-02 1.559348547716011002e-01 -3.257574487887154868e-02 -6.850430630916858055e-03 1.949431174130119293e-01 4.807213803714836808e-02 1.346691975473958067e-02 1.436322632470852234e-01 6.529270248606046378e-02 -1.609349609382988433e-01 -3.806259393856548795e-02 4.895600846307887610e-02 -9.374719232727934948e-02 -4.432316917449272142e-02 -7.885205789273604104e-02 2.233259946699545778e-02 3.092363059820217239e-02 -2.084131616249634139e-02 -5.454918721121354563e-02 -6.541387197853157365e-02 3.923370775692624352e-02 1.869736384872270479e-02 -5.164550768235249417e-02 7.635243084523044010e-02 -9.047814938989493308e-03 -1.805587976024287944e-02 -1.668987952514294250e-03 -4.885502414326164250e-02 -4.833889571430467769e-02 5.034620863068772073e-02 -3.472605076208037239e-02 -4.842984869037979256e-02 -4.343532698011891291e-02 -5.547487579053859280e-02 1.896342828881992376e-02 -9.937288450456564781e-02 -4.530467715578726656e-02 3.116589092507959791e-02 6.768503977635739743e-02 4.976912163035612791e-02 7.344888013785248054e-03 1.233919512699061249e-01 -7.517331088514412306e-03 1.256245837686357780e-01 1.060426069220553186e-01
-1.158437414313618352e-01 2.083483886088422984e-02 5.762168704364471761e-02 -3.603256928460308456e-02 2.017505537077639299e-02 5.462716105968758867e-02 -7.630822161012786042e-02 1.351530121457462930e-01 -1.273248380147106729e-01 -4.472384196456971606e-02 -1.846467512093498062e-02 7.075971957861355854e-02 1.480075266759842967e-01 -1.242952387359325117e-02 1.185893734943833933e-01 2.639791289530132173e-02 7.762898803432029260e-02 1.238270838385666373e-01 -1.382211121536208454e-01 -1.261250247558143023e-01 9.672609039563349886e-02 -9.001417729979938748e-04 -1.054044407588958926e-02 -2.345449006316708326e-03 5.685408341575805963e-02 -7.489791852561271390e-02 2.123907801191442513e-01 1.760539176877308765e-01 -1.361167770172905800e-01 1.257645485932846752e-01 1.070474942851113165e-01 4.947549918711752898e-02 -1.533288428792572156e-01 -1.435826925209670799e-02 -4.950714505981485686e-02 -3.581168556834784522e-01 6.532847282076099070e-03 -3.791497462336618912e-02 2.955879786000979378e-02 -1.417879032236214198e-01 1.753723566057425465e-01 -6.124271777819245005e-02 -1.462879483479852770e-02 1.228636259645972811e-01 3.533394231017026460e-02 4.447973309750161836e-02 1.932794966990400987e-01 -1.192997525082044180e-01 2.171704105557775155e-01 2.068899391701636836e-01 3.405798846699837484e-02 1.813120029681883003e-02 -1.386616605915837186e-01 1.567710021637896689e-01 -2.372005807805784849e-01 -3.516337632504649979e-02 1.882782532516296889e-02 -2.503477845819074114e-03 6.895498674616074020e-02 1.166189058983638921e-01 2.823225344479384780e-01 -1.070173508535376822e-01 -2.203993800683138812e-02 1.119476350164946704e-01 6.748337486217810544e-02 -1.764638017038210743e-02 1.195674223840558479e-04 -3.734422431853528374e-02 1.300095764002885679e-02 -9.636715377449937836e-02 -7.933455053072277496e-02 9.577431556552599978e-02 1.613409273327670590e-01 -6.279084869197726348e-02 6.103198590109164962e-02 1.646906264610081827e-01 -4.502383283381952012e-02 3.489994201589468048e-01 -4.264629560303814099e-02 -4.239309770530468729e-02 -5.977461206788667325e-02 7.477093330859786724e-02 3.252029320291355968e-02 -7.463949475835110481e-02 -9.879440878177742080e-02 -6.634046109996090575e-03 7.210497695028159071e-02 3.803277878231917097e-01 1.992572744568730514e-01 4.806748486855957209e-02 -1.958575990836006891e-02 -4.527521881999582026e-02 -1.664401254060429158e-01 5.893188526638615948e-02 2.339707967982246686e-02 -1.161686665705271709e-01 8.329245579198384097e-02 8.029384184852089712e-02 6.514251001723253554e-02 8.714033446739861966e-02 3.332784049538908139e-02 -1.281659477948625912e-02 2.857896541042224264e-02 1.388717584944389460e-01 5.236990770430315079e-02 -9.204113088200963078e-02 2.963592870743566102e-02 4.830723915407283270e-03 -3.544798270905189647e-02 1.461332214350370973e-01 -6.758168961253409324e-02 7.758875573732509912e-02 -8.861159837155710428e-02 -1.237971196139680125e-01 -1.867066286457637614e-01 -2.896764785248704538e-02 -3.000968297424141257e-02 -2.662692618781606346e-01 -1.123338580469386006e-01 8.722916407269808159e-02 -3.415197167911718928e-02 -6.306631606306097038e-02 -1.858352211466334780e-01 -1.352806309570716847e-01 1.987880946705584267e-02 6.474729942192102017e-02 2.096108691726282763e-03 -2.174613156263965549e-02
6.317913015469905913e-02 -1.874286530626629310e-01 3.152893514524112567e-02 -2.232089527982080226e-02 -4.323327092147117440e-02 -1.715395006208790887e-02 8.572681268575749192e-02 2.226461869344001712e-02 6.139821260624431058e-03 6.982912549903361188e-02 -1.285753012752082480e-01 -1.588265455207560628e-01 1.069784871256099917e-01 2.956119776220434564e-02 6.091298462240913453e-02 -1.717000293941644273e-01 -7.247575624269450567e-02 5.611549121426028658e-02 7.091882809100351348e-02 2.687870268304719343e-03 -4.696128815782791427e-02 -9.266178469180867683e-02 -5.574590442470811480e-02 1.043537797343325052e-01 2.377375177000420198e-02 -1.179901320250219439e-02 -9.190828581084438398e-02 8.941242727745890573e-02 1.304062209382204386e-02 -1.221247653526238725e-03 -5.859830688688279915e-02 9.147743425028335984e-02 1.828303623787402160e-02 2.771269869426621485e-02 7.367095492966817261e-02 -9.480401473560592929e-02 -7.689884491149880097e-02 7.182749128679717654e-02 -1.842334225340442055e-01 6.840468053283405014e-02 -4.244495027005395354e-02 -2.495749040894236839e-02 -1.539771026112914942e-01 6.318245547650009654e-03 5.980559101362478702e-02 1.494348649569740214e-02 9.568523392644624759e-02 -2.648246886049666210e-02 7.640725045475484090e-02 1.812532867099179643e-02 -6.339668986345300267e-03 1.553072347163363294e-02 -1.285411163454651673e-01 8.294781895725067411e-02 4.607759916955136287e-02 -1.342432637663672490e-01 1.693782492732329725e-01 5.407523568909503725e-02 1.015247882667013879e-01 -2.164190575067115535e-04 -1.865054117750558349e-01 -1.191797908086490027e-01 2.600857899576865528e-01 -8.080463576631630174e-02 -1.237497647508874615e-01 -2.210233733856586946e-02 9.397428282116819520e-02 -5.659526820792907392e-02 -1.433040087869928148e-01 1.071618025088877241e-01 -1.281800458063474535e-01 1.093943807427639851e-02 6.534940959140772554e-02 -1.244649049353284583e-02 2.078182658810276140e-01 4.931766296928933452e-02 -1.539809244164620228e-01 3.754456350120503882e-02 -9.318192670096367425e-02 -3.390141698516144220e-02 1.440978523979647916e-02 6.155380256728659044e-02 -2.044715997726235732e-02 -9.693015173511630722e-02 3.507377083258579609e-02 1.277836014846666646e-01 4.961685054124256866e-02 6.355578507260434273e-02 1.069140962089982876e-03 1.125792511067144099e-02 -5.840467578789968611e-02 2.432923305582519041e-02 -4.154432088848228344e-02 2.516600148239713647e-02 5.498346391688402335e-02 1.454585416775557201e-02 6.119708106488801896e-02 -1.276406674091637092e-02 2.293970725873678562e-02 1.469185337211976854e-02 6.674721416541526398e-02 -6.950712040548093218e-02 4.250398491581487692e-02 -2.391128325449340397e-01 9.117456791827059648e-02 -5.104749045058701784e-04 -8.069332193450039215e-02 -2.243741552747157558e-03 -7.094943196909760108e-02 8.013880725107080938e-02 -2.305353435836721490e-02 2.505948793890666604e-01 7.295146574716835502e-03 -3.230717935908227617e-02 5.753133012941168654e-04 1.638332542487662691e-01 2.631258517647286355e-02 5.482599463275684634e-03 -1.113725734270930023e-01 -1.031464722047775867e-01 -9.436210919642007422e-02 1.067509109633011238e-01 1.380873911677881760e-01 9.564869413137125354e-02 -5.952041073639949970e-02 -8.976734781778492045e-02 -5.781228429078297260e-02 -1.190479457888807269e-01
1.234596123990833044e-01 -6.713215825186408248e-02 -1.406332493989072459e-03 2.876028720801393837e-02 5.918927777439132731e-02 3.237205161816828630e-02 4.564400576091435374e-02 -6.127318461312109693e-02 1.084879412563372406e-02 -3.246493514735288716e-02 -6.205366384757262863e-03 5.222888576804553956e-02 5.796725026654774016e-02 1.279094865619538092e-02 -4.292219386001599329e-02 3.166349282042483365e-02 -3.015254297956904833e-02 7.520884976399906663e-02 -1.544164357623684612e-02 -4.943638485073287986e-02 -2.142212431533441555e-02 7.416341188779199123e-02 2.247870662934024072e-02 6.410678080448106719e-02 3.034471021400042892e-02 1.141391529000997454e-02 7.136974788278552251e-02 -5.710924125644072785e-02 -2.623636265923580402e-02 6.943900188294709064e-02 5.170447927403669375e-02 -7.051405691207186799e-02 6.161421610867540838e-02 5.345988343888371380e-02 -1.723727443921557051e-02 -6.507571879309807794e-02 1.504124945311445874e-02 3.110395225371893196e-02 1.975978089076904295e-02 1.127323755738940253e-01 -3.145782831383030220e-02 -7.927826275963997804e-02 5.802201673549952678e-03 3.249687733987084021e-02 5.450506770216549321e-03 4.126142019489552337e-02 -6.632758403637353459e-03 4.121739504958867040e-02 -1.003408683451603167e-01 -3.018906920200906119e-02 -6.869946813154348408e-02 -3.097382545181319793e-02 -6.135977321043070698e-02 -3.756944030837870707e-02 4.449951772871348771e-02 -2.546707182445039422e-02 4.401099716425617078e-03 1.820097242089976919e-02 -7.721804683943472858e-02 5.511394256684885862e-02 -6.530724633752668521e-04 -2.123354558069137643e-02 4.335094673460972159e-02 4.206832948000215067e-02 -6.427029420824828532e-02 -1.555484854059470921e-02 5.297590124974926873e-02 3.752473157165631124e-02 3.827200476022980108e-02 7.567729173412081345e-02 -3.368884481714345264e-02 6.640296638173967536e-02 1.126769763057138135e-01 4.901042282509454617e-02 1.385254885798496011e-02 -6.370696233437526945e-02 5.728713059916494370e-03 3.851074860903373059e-02 -5.906906196365038775e-02 6.516945729100167943e-03 2.549379856931036602e-03 2.153323943735378863e-03 -5.633380540811643022e-02 1.318991529397501574e-03 4.763361099821877831e-02 5.560183065417846626e-02 5.934372627639230430e-02 -5.090757143749995162e-02 -5.776444222808446022e-02 6.257003724806144140e-02 -3.006913509083133235e-02 -6.156000819902424093e-02 -6.515612864136438587e-02 3.082307557051879032e-02 5.942818985339330673e-02 7.450215006510081152e-03 -6.304334498346897409e-02 -9.547747796651316621e-02 1.144232017739034608e-02 -6.129388237785050181e-02 1.250956078099354878e-02 -7.907996748023636557e-02 -3.516307366224710740e-02 -2.248793700607008492e-02 -4.419922913819426119e-02 4.095194364288422956e-02 -5.978202862036598869e-02 -5.027705710340663048e-02 5.345465015971076483e-02 -1.257719596015996130e-02 -4.808241307344524040e-02 -4.686304401532910557e-02 1.889746592401941394e-03 -7.686958796519454806e-04 1.093858638760352303e-01 9.439810276499248365e-02 3.656191801183520523e-02 4.650140571477592855e-02 6.319342725718460341e-02 -3.515352933201324175e-03 3.542931659490775737e-02 -7.379730285019110714e-02 7.794990346226786382e-02 1.256965589483094621e-02 6.539373005183546361e-02 2.983133467923015925e-02 -8.746604601185713895e-03 4.857072788986541850e-02
5.905862914530850966e-02 -1.176594725178408719e-02 1.455454971516460718e-03 1.339432913505053842e-02 1.654087653911906833e-02 3.825737701680267944e-02 1.424455706086325685e-02 9.965002300673131072e-03 6.899305371151059907e-02 -3.145987371017063688e-02 8.389035810085990197e-02 -5.444411175000490877e-02 1.592197695702978616e-02 -4.710214268284233091e-02 -1.264449938232796999e-01 -6.710019337895006819e-02 1.435545644320332936e-01 8.731246591963540138e-02 4.449181199824307070e-02 3.165625546202426033e-02 -3.120191152711949967e-02 -1.039741348800784192e-02 -1.379297764194983671e-02 3.201410630158261963e-03 8.451072412319389493e-02 -8.911363619994693008e-02 -5.405307483853172973e-02 -5.094407892024266360e-02 8.939473777745664262e-02 5.460165369059893914e-02 -4.664061292565566119e-02 -1.069096370600110084e-02 6.234130436669483438e-02 7.000652394665471401e-02 5.076351083639904678e-03 -8.975150613890309215e-02 -2.606129438883017166e-02 -8.129545100573714461e-03 -2.897174930237675014e-02 -2.420261551779297540e-02 8.802446931259899632e-02 -9.370869719762249528e-02 -1.183965990478780261e-02 9.383367579230787736e-02 -5.446409000263040256e-02 -1.078658657796767867e-01 -1.899881693467357913e-01 5.429088851825944473e-02 6.847241559918117171e-02 -5.576801434769004806e-03 6.238462691348667377e-02 1.062209638602708284e-01 4.158865054658338750e-02 -2.381980752009880617e-02 9.001458734042175336e-02 -7.703124563421429039e-02 4.912733519459728387e-02 3.270595366222012190e-02 -2.414763084220213768e-02 -5.488779497135448313e-03 -6.969805781826086954e-02 -3.517877581314478308e-02 -8.303335345908256782e-02 7.590375482568541277e-02 6.121445608228366642e-02 -7.552209811355067859e-02 -4.572208682667182333e-02 3.045832284383982735e-02 -4.777622935117997738e-02 -6.050516407221246881e-03 5.388026381701112311e-03 -6.077730990077102879e-02 -5.878256942579728611e-02 -1.313441822319104391e-01 1.543319654296863158e-02 1.792120977044691504e-02 -6.496300823996415362e-03 -1.056357588261092884e-01 -5.632087305833249902e-02 3.325989655880832313e-02 -5.656380667454883465e-02 9.255770452750261557e-02 -2.226156522743812094e-02 -4.851176695835823782e-02 7.892527487406421349e-02 -7.866814666208080120e-02 1.721509450044133444e-02 1.240418677052592261e-01 3.808933961639160426e-02 1.079802001539665463e-02 -2.427979717760170297e-02 -3.021215326826521760e-02 -4.233417306547555825e-02 -4.110385254643911940e-02 -6.518243755256675209e-02 -3.854296217315618389e-02 -2.694820380935146475e-02 -1.206460154118376045e-02 -2.954579251623403943e-02 4.442402736243902805e-02 1.948408054069744599e-01 -3.633018530642703747e-02 -1.142268037079341575e-01 6.803490872201783946e-02 -8.535839185419606678e-02 7.276956223900764471e-03 5.653900629486816043e-02 3.762207832800947612e-03 7.988645725054981106e-02 2.301662421841278033e-02 1.074444714334377333e-02 8.889362420152042976e-03 -1.519172846315859811e-02 3.526002121913207610e-02 -3.776293448121770605e-03 3.075298726806767122e-02 -7.313194024951054362e-02 7.643799185154677434e-02 9.145687698143163680e-02 -1.041462955735356216e-01 1.291803841196240976e-01 4.342327001593043745e-02 4.713385068884138468e-02 1.061777544776583843e-01 7.431381414477009062e-02 -1.422208552481716848e-01 6.440498700367032481e-02 3.529702733977907545e-03
1.277060286472531392e-01 2.677876831587105641e-03 -1.659926809263946312e-01 -8.298499260117199461e-02 2.990378306681402976e-02 -4.361499853565795753e-02 -8.781028029336952756e-03 8.210894333194086736e-02 -6.304802993688389534e-02 1.201928654470946385e-02 -9.429478394468014668e-02 -2.353108899722363562e-02 -1.084681416243706183e-02 -2.391806197478663076e-02 1.118546094486846249e-01 7.473055274929821246e-02 2.383520475124297766e-01 -1.730660480431654713e-02 4.715016305941284458e-02 1.819367999737980107e-02 1.122219409147956343e-01 -9.087302941220633257e-02 -3.009354179865930332e-02 7.721109148627018637e-02 6.297067955005169505e-03 -7.899040289460815267e-02 -1.516920318933118184e-01 4.862155589135659650e-02 5.381523246554268530e-02 1.506656630579503164e-01 1.139140603533994184e-01 5.407252119117807870e-02 -7.513380475750464083e-02 3.932812914915465724e-02 -1.040106526685953547e-01 -1.104117232776447716e-01 -3.935092934484000354e-02 8.848576959136723874e-02 -3.814554479613030229e-03 6.210596502227933718e-02 -1.712576961446426738e-01 -1.983735648957541189e-02 1.110118640265803092e-01 5.135246830826031839e-02 1.185287923811083471e-01 9.395870828187279089e-02 9.240851678028660920e-02 -9.579908863199235181e-02 1.251497683502249270e-02 8.444128234311740200e-02 3.492935695549400504e-02 -8.111006232165660643e-04 -5.965546804328063224e-02 7.277900564207413769e-02 -9.481297786611596681e-03 -1.227636105099479263e-01 -1.616624117298817997e-01 -4.594555630397083312e-02 1.250939600692826670e-01 1.910709912313619807e-02 1.294920892377438848e-01 -2.362785420491319774e-02 1.710661143581978239e-01 5.832746152871356310e-02 1.362144718831964640e-01 -1.982851394563897932e-02 5.624060553105596910e-02 1.339033291532377989e-02 9.170642808428036002e-03 1.610244852345743202e-02 -3.415700540234293398e-02 -6.283451867344821973e-02 -1.011387058590157845e-01 4.007366551175715885e-02 2.170113156511151511e-02 3.044137675384064878e-02 4.053619423031738084e-02 -4.477654196810203213e-02 8.172845350077205528e-02 -3.893655921267717007e-02 -7.576479084996437519e-02 -2.686524624998429603e-02 -1.884426344600587458e-02 4.003355301718113275e-04 -4.173263877189722221e-02 9.944203749548931326e-02 1.410832881394268601e-01 -1.381050844414362100e-01 9.248315948580282039e-03 -3.898974315514028982e-02 5.864004467704790613e-02 -1.140112893772329550e-01 -9.079497474669194490e-02 2.619206614881068249e-02 7.811813944718265512e-02 -6.341675882277216306e-03 -7.074150195883810444e-02 4.059466080592007142e-02 1.157792144899148605e-02 3.743690042861806677e-02 -1.382092019203399746e-01 3.260882606193189065e-02 -6.096242437309340456e-02 1.243806752490138195e-01 -1.349573626161904571e-01 -5.225614172322042006e-03 5.161696764181365055e-02 1.222003188202678697e-01 -1.500469824263784835e-01 3.302647300215271614e-02 3.383658450174245602e-02 -1.574771472042713061e-02 7.942774878911519620e-02 -1.324037108660279238e-01 -1.118144869991207907e-01 5.315658174649456197e-02 -2.838336050968391644e-02 -3.430558965137028155e-02 -2.234344875693051319e-02 1.849607146139352065e-01 4.034891824036205416e-02 1.569834744675940863e-02 -3.276261334932421554e-01 4.431073988947602932e-02 4.141422041930116482e-02 5.001211199281514752e-02 -2.619943291840476363e-02 -7.973495578656582261e-02
3.038308362239132421e-02 -7.257805461025236549e-02 1.788612516826530163e-01 4.285397218221667637e-02 1.474002813487176045e-01 -3.295128168975096361e-02 -4.256477325251578972e-03 -9.166830708920797877e-02 1.003787699156352860e-02 2.735707427680247189e-02 -1.124783961859310705e-01 -4.274156297223025841e-02 5.205178155460905842e-02 -8.114219524711782650e-02 7.608524441377598202e-02 1.498881291353964251e-01 1.081695032531367201e-01 9.347647223957815388e-02 -3.278085652263829086e-02 5.857783333071698434e-02 -4.692398190757129939e-02 1.021224590795394467e-02 4.245981896073654227e-02 -1.116681943007437894e-01 2.908991485634207161e-02 -2.070048617385450429e-01 -7.407888110152051342e-02 -3.800507137545620917e-02 2.412283663012488449e-02 1.777450251628540090e-01 7.510396642088666697e-02 -9.708127404429684609e-03 4.734426564106781338e-02 -1.025446080214340722e-02 -1.120660159291129582e-01 -7.265335745926010391e-02 -1.893436785527342903e-02 2.225105447641768930e-01 -2.469201580490886644e-02 -1.043797404076620000e-01 2.959956377775269099e-01 -5.144142322475694570e-03 -1.156063001687843671e-02 -8.619528669540738042e-02 -2.348980839385499675e-01 7.483523561622248965e-02 1.406597901395965078e-01 -1.011853058833998564e-01 -1.382437481340153262e-01 7.964081203654278796e-02 2.115364442943788205e-03 -2.716413644580457573e-03 -7.478153326951488856e-03 1.928524558626214802e-01 -7.186827752838842454e-02 -2.417164980825654008e-01 8.371086201023771045e-02 3.184877718490038423e-01 9.011449380892132266e-02 -1.755048705765253556e-02 -9.752294761325887296e-02 -5.070161049488142863e-03 1.735319053692823688e-01 -1.972109550770884817e-02 6.069667733626284839e-02 3.338519999767257385e-02 -3.071311876281827488e-02 1.710395987836017123e-02 9.852774439090604408e-02 4.353985672328242185e-02 -9.490694744311228837e-02 5.046955758947532095e-04 -4.380647101737557281e-02 -5.651573568789691054e-02 5.689390245717222683e-02 -7.109024006333646527e-03 9.272814815709838621e-02 -2.294079660703809698e-01 -2.128877101248402917e-02 -5.962321170831123840e-02 -2.301142544629409398e-02 -3.654075505128556028e-02 -1.466213047643851741e-01 -2.392170725884831123e-02 6.854312301710738242e-02 -9.109847718768912528e-02 6.168953093845591651e-02 -2.187485883844340201e-02 -3.372043253771050964e-02 -1.979778645877341287e-02 -1.593867702630786809e-01 1.887012928053359573e-02 -7.680166830789658672e-02 -1.239494520890388751e-01 2.149350341125459349e-02 9.952778484952823357e-02 6.457748553057242324e-02 1.047280856290491585e-01 -4.042681126573385852e-02 3.635711965936661710e-02 -1.662694257734370074e-01 -2.391574631037447773e-02 1.026978715868261671e-01 -3.476250638775447988e-02 -1.549812453186233396e-01 1.562201600233608101e-01 -3.669246563517208903e-02 3.292079936573022534e-03 -2.696493209038168248e-01 1.994136103860824627e-02 -1.229536418259776463e-02 -1.605170057862131613e-02 -4.956364824938321034e-02 4.937020212625627125e-02 -2.971343846275120715e-02 -1.948414706168805077e-02 -7.429943002702302235e-02 -1.053105556862407588e-01 -4.385665381102352850e-02 2.142589021205338062e-01 1.931017904361255477e-01 2.968360433286833938e-02 1.923067246908110040e-01 2.722695317574926055e-02 1.423041872695977594e-01 1.138129531252137089e-01 -1.560494690154524619e-02 -1.796794909202024115e-01
6.322583552516974903e-02 -1.604115339506284946e-02 6.683180437374747207e-02 7.008266978566520325e-03 1.027960317540779767e-01 -3.889079473019290117e-03 7.043995297308028834e-03 -2.135829325690732916e-02 5.891988460672455130e-02 -8.109743754080610267e-02 -4.105481038531164084e-02 -4.143947223058534052e-02 -5.120308265335354013e-03 -4.938606450140527876e-02 -7.737670243319891283e-02 -2.148165723134089558e-02 -3.589965853039926019e-02 8.863589940345581453e-02 -2.450739461916809012e-02 6.033300157122932494e-02 -6.765944350326252854e-02 -7.479249801236037554e-02 1.061758632037110295e-02 7.581714346476400336e-03 -7.189574909610541020e-02 -5.833507582451789159e-02 3.483646326745978156e-02 2.272554269189081683e-02 2.323674092314120723e-03 1.954325983505390482e-02 -8.962915664534157334e-02 1.035425887773638726e-01 -2.901780527877273128e-02 -4.226376289364938005e-02 -5.156081380774495126e-02 5.471553607163218147e-02 -4.798948914427244444e-02 -1.990092966792099752e-02 1.336652050914591446e-02 1.636811217012584113e-02 4.677254756984359357e-02 7.044678960521945366e-02 -7.740836164978269485e-02 -5.257933552303376001e-03 2.876123617900100057e-02 -4.599516483549993991e-03 -3.944247612451138446e-02 4.801245315696228005e-02 -1.112139505592180111e-02 -5.991325492456210655e-02 -4.368189692806107027e-02 1.489306650631361598e-02 -2.032041194957795102e-02 6.031288993706278301e-02 -6.542274690956575989e-02 4.003612980058146760e-03 -1.266615048878377281e-01 1.302389529206473065e-02 6.683316907351480318e-02 7.228593669046280701e-02 5.732756391769915430e-03 -9.920344554456828751e-03 -2.841994264236772164e-02 3.585613530399125309e-02 5.835332188482329069e-02 8.694244049109187134e-02 -2.414343995980805513e-02 2.660422726564704368e-02 -5.004098936783005908e-02 6.201389979691135368e-02 -5.118234899001929128e-02 9.392853739368833832e-02 -1.627508953867448302e-02 8.608779981668950032e-02 -3.157449796745307596e-02 2.971966669686423868e-02 -3.664645547418921012e-02 2.767231210527338475e-02 5.974770231190765918e-02 1.428609957882023655e-02 -6.638871627244009865e-02 4.317316081351529194e-02 2.378719674427984612e-02 -6.229276861906586638e-02 -4.190128908706757839e-03 2.030751876020797653e-02 1.345976795187982765e-02 -5.014898908407604272e-02 4.991043478908896609e-03 -6.046066841585940460e-02 1.995732343090423147e-02 4.904919267586753525e-04 -5.490814719711498842e-03 5.642528734811989161e-02 -1.581114434544824907e-02 -5.977507741473347957e-02 3.803167251128810461e-02 6.250397061800344600e-02 -4.323193483572435047e-02 9.949044556216183124e-03 6.123212075273896937e-02 -5.853297595246073626e-02 -1.328029749377933723e-03 -4.909657452625296181e-02 -3.288116952409306931e-02 -1.979266519844208663e-02 -4.885245986806750068e-02 9.140383421328965308e-02 -7.910003340416997542e-02 6.248635295755941566e-02 2.689030802756537525e-02 9.541978315283536349e-02 -1.047027736071364928e-01 -8.105329251336709784e-02 6.375904768649467980e-02 -3.377003216297909394e-02 7.247583595678316892e-02 -1.269893937464043100e-04 3.085691429955927587e-02 3.468327897297185380e-02 -2.664904406784457044e-02 -1.108664262607590711e-01 -7.568340234615915374e-02 -5.658340880634565168e-02 -6.059009277190004900e-02 -1.644419110678703444e-02 8.651757493264283783e-02 -7.308081947800908196e-02
-4.869868620632442774e-02 1.990531673404128121e-01 -2.142242270635060231e-01 -9.915255842589443258e-02 1.214159713842639238e-02 -9.535688958032081941e-02 -1.323405447055893691e-01 1.920133440085057541e-02 4.034888555488812950e-02 -7.453586954054634839e-02 1.810019144461640084e-02 6.251399341001565024e-02 7.468474987289877576e-02 -9.607587695012458073e-02 -1.004206165902752912e-01 1.611175840357349787e-02 2.539709639628527985e-02 -3.609523544511547555e-02 9.431136529024010395e-02 -5.795139646427392016e-02 5.067455021671193188e-02 2.759430672319150568e-02 -3.098600359228237955e-01 3.418642859196270589e-02 2.670697145072635503e-02 6.908200168021315368e-02 5.262864743301549908e-02 -8.171259456525263934e-03 -2.030748323029526667e-02 -1.433887878521839052e-03 8.972713323328621038e-02 -1.542803630808847470e-01 9.177405902284845388e-03 9.581968266901166702e-04 -3.856212156900780397e-02 -3.909119291867065721e-02 1.224413105950146810e-02 1.449430757546728982e-02 -8.640760877673379914e-02 7.809514831225028431e-02 -2.666310958635276229e-01 -1.637147482766939527e-02 1.394987246401100354e-02 -2.594524534308795607e-02 2.007897539807527911e-03 7.389250273911716904e-02 8.441346434577708113e-02 7.968838980914792758e-02 -2.850982269592122406e-02 -1.114026741303233287e-01 2.514165962760780016e-03 -2.459008363287486579e-02 1.274532166856525706e-01 1.612834066612651215e-03 7.912495926649948039e-03 -1.500959965161112984e-02 4.113539315124017243e-02 2.514975143952492484e-02 2.075400170762388852e-03 9.547633202321703649e-02 5.799938744621770115e-02 -3.909482818889130351e-02 1.738491103779458632e-02 1.402294508797915507e-01 -1.147976566419944278e-01 1.148418568766440551e-01 1.780156528623096091e-02 -8.418379633862342615e-02 -1.520402972933676267e-01 -3.596220924927456819e-02 1.161082411648488022e-01 1.545828576180266652e-02 -5.721458187686665614e-02 1.353161458284196129e-02 -3.403975711140509730e-02 7.105942397806802591e-02 -6.457090214546042095e-02 -1.530451432942100086e-02 -2.298806564607586839e-02 -9.764191771343241205e-03 -1.677961706216296589e-02 2.721660793907435764e-03 -5.431422002794213111e-02 6.199072399578155895e-02 1.743707396783642297e-02 -1.325569060035993590e-02 3.681498093258793458e-02 3.891804220973963530e-02 2.129361972619602528e-01 -3.610380820439846455e-02 8.425400702570817746e-02 3.484939377012687828e-02 4.628147401761826402e-02 2.014802476984238200e-01 3.818271960540191301e-02 5.082735386526111843e-02 4.969507613784185374e-02 7.041022002589227523e-03 6.376983274904932109e-02 -6.346481107655511933e-02 2.721163732388755252e-02 -6.017076617542452613e-03 2.318381281793137870e-03 3.216336731389350667e-02 -1.351365481346769419e-02 -4.592041868151252454e-02 4.613732434934646881e-02 8.026694368449117933e-02 2.499910957583033680e-02 1.383586445600932524e-01 1.939323649373920003e-02 9.086555069329986523e-02 3.190684295315015379e-02 -8.416048468569198304e-02 5.640605016692796375e-02 -9.735492768720335754e-02 -1.695715436146380886e-02 8.842528028219667768e-02 7.464113765005028767e-02 -2.382409157261381263e-02 -3.043560246494412397e-02 9.594370024715009188e-03 7.837663276163170378e-02 -4.262138398453240579e-02 9.066008052751633323e-03 -7.200724233196588268e-03 -6.184756337837522822e-02 3.457195068755698764e-02
-1.662886023669572777e-02 4.275841034714921163e-01 -1.788096503499354839e-01 -3.091506092446606388e-02 2.073710270941330758e-01 3.072525145173882200e-01 -2.547337862126023908e-02 7.406807200696022275e-02 -1.592001908847993641e-01 -1.043976347099702801e-01 -3.162238628106683880e-01 1.342958595593840392e-02 1.358110886574793452e-01 1.425240246852113313e-01 4.186415966397419308e-02 5.601952899821332349e-02 2.414203931983129880e-01 1.177906647873199278e-02 1.324593278277634567e-01 1.976598094906314995e-01 -2.658697233249012956e-02 3.493713638914329178e-01 3.481193907858597808e-02 6.525307260133166309e-01 2.906476237243043118e-02 2.008501465425632515e-01 5.650604464485247530e-02 6.606496144037800333e-02 -2.634317494279498906e-01 -1.893096568075107733e-01 -1.179554333477691591e-01 -2.839172116686581870e-01 2.270585664064011244e-01 4.552118776556052238e-02 1.291881779461800661e-01 -8.829649076616176429e-02 1.778773292972390951e-02 -1.916157496038105312e-01 -2.645953066244749463e-01 -1.862359179250779873e-01 3.077223118979678929e-01 -3.935127664774587530e-02 -6.975651205429896085e-02 -1.260531459574306956e-01 2.441130713170336919e-01 7.170129158217225691e-03 5.775996953454257676e-01 2.943690192180102860e-01 -6.203316095472568605e-03 -7.468702695325926677e-02 2.544272206408249581e-01 -6.871460374620087797e-02 1.562486095688320632e-03 3.466897303847438216e-02 -4.096629905216660206e-02 -1.221603305047873622e-01 -1.930731219783083374e-01 1.885031641017076709e-01 6.768616494729307043e-02 -6.708687468037871637e-02 6.002565812329038047e-02 -8.379864017199956105e-02 1.575543101614654273e-01 -3.680553627004374828e-01 -3.198201509407577747e-01 -8.388484826912369352e-02 9.558516538313927002e-02 -1.255131639372728675e-02 -1.176461698241836329e-01 -5.607308496879472720e-02 1.360059122840252543e-01 6.546672292288677111e-04 -2.991026208425441313e-01 -4.572594124772182828e-02 4.718123684259509232e-01 -4.292664279265744759e-02 8.862081674232821782e-02 -1.996852390959305903e-02 6.962147418969251433e-02 -1.882149953888536953e-01 -1.551362810918152368e-01 1.229966918327488890e-01 3.170326715164372700e-01 1.260699549640613426e-01 -5.732654797627547566e-02 2.381552877472926377e-01 4.651774572998994967e-02 -9.705879781432828757e-02 -1.277511355532254533e-01 -2.714748441641621698e-02 -6.845458517244236603e-03 8.720621633783583182e-02 -7.904952190646422072e-03 -2.012412976432461642e-01 5.862411023915470309e-02 -8.772878779739316096e-03 1.120234054886578984e-01 -4.580764972906334886e-01 1.328170828330113053e-02 2.114715428074567805e-01 1.111728290186853874e-01 8.521177075800751011e-02 1.210062694335475447e-01 2.681082346424983887e-01 3.397919294006371271e-01 -1.771446592094623185e-01 4.371802908748754352e-02 -1.468454397847351323e-01 -4.473158869041273245e-01 1.169236981199418546e-01 -6.534257125669823418e-02 -1.867579115241364829e-01 -2.602711202617667696e-02 5.236413896336527402e-02 -6.826365614169022100e-02 -9.441525257085514600e-02 1.513312992324391537e-01 -6.558172943827836332e-02 1.904588898356991689e-01 -6.906293313300346237e-02 6.256864736091675983e-02 -1.659553991772448889e-01 -8.810865807593425414e-01 -7.779571949360124250e-02 -1.544198024647380485e-01 8.119357269825674614e-03 -8.871062743031989106e-03 7.224220768162806228e-02
