-1.553456571525869412e-01
3.070673794609280957e-02
1.199632924506411347e-01
4.077109952490531181e-02
3.976749936369187305e-02
-1.198356648898708937e-01
2.358836980430020075e-02
-3.049376330840928295e-01
-1.406141230778431561e-01
7.059438120819368223e-02
-6.792290791677930706e-01
8.636191699077191974e-02
6.593728283927006995e-02
7.375665662945898871e-02
1.040297685925332949e-01
6.320700286953639946e-02
-1.273462191494083573e-01
2.823655571273418416e-02
-8.142346147006465987e-03
-9.469325079940059398e-02
7.488411115426953091e-02
-2.702782782191206490e-01
2.037229591602999768e-01
-4.544390667078461732e-01
-1.749400166506071830e-01
2.162883593073092192e-01
-3.795623556584216129e-01
-3.709221519113146265e-02
-1.589233022494261072e-01
2.475106442327225098e-01
-1.378161461155936462e-01
-1.157889775621358426e-03
-6.436618128405134642e-02
-1.739632153810258819e-01
1.506195395237359125e-01
-1.137389978373763849e-01
-1.139452718894477801e-01
2.681594704881201663e-01
-1.396680572140093501e-01
9.738420706930360493e-02
3.499666390024813722e-01
1.834221747697179980e-02
-1.125737943088934018e-01
-1.419348869917453904e-01
4.212680316516907025e-02
-1.571586280464663810e-01
3.448515660219605428e-01
-1.770196039315059533e-01
3.310135270758499809e-02
-4.670460337801970313e-02
-1.649384472656550138e-01
9.316295704389843113e-02
-8.082141634484553416e-02
3.600959041849500775e-01
-1.428627919678154834e-01
-9.483595998461334664e-02
1.071901061246063741e-01
2.288334042721519301e-01
-2.577806068073414392e-01
1.106469712100028729e-01
-8.963295158420667152e-02
4.290335872345676232e-02
-5.194472893118911028e-01
-1.930709106565452193e-01
-9.128154970505913957e-02
-4.595726979030099330e-02
-2.969710835825583040e-01
1.940024285783893410e-01
-1.192237424992799583e-01
1.718597305640631734e-01
1.228610414334613266e-01
6.839118891235462794e-02
-2.091650457861733703e-01
1.785436299299787977e-01
3.316303087616125356e-01
-1.345209909363913325e-01
-1.554418663472767193e-01
5.968123550594793374e-03
1.089197041593403387e-01
-3.948988411781878538e-02
1.697584434866094838e-01
1.483254074919380938e-01
-2.728009633002677625e-01
1.555524928844486711e-02
4.386895557228314563e-02
-3.133130145068777628e-01
8.320845752191005640e-02
4.456582703460180983e-02
1.235988585184704704e-02
5.122323868679690834e-02
-1.656384238150037103e-01
-1.362328587914724831e-01
4.204027238084284690e-02
-1.240476211578076145e-02
1.670854830870978705e-02
-2.057661224693149160e-01
4.588038848221000915e-02
2.457638752060982423e-02
-2.476796188475602345e-02
2.541217719463414459e-01
4.310872378675605771e-02
1.646156955694517143e-01
8.393412393562041385e-02
-9.891972559394575371e-02
-7.566430442923978428e-02
4.547743984998111472e-02
-1.692019408532891662e-03
-5.676877937469684832e-02
-1.245282728606881828e-01
-2.876392654987206532e-01
2.388154664637080413e-02
-1.310771628393546107e-01
1.601731108344514320e-01
4.230824498914817489e-01
-1.253819188492130143e-01
-1.096327103969208377e-01
-6.380485410334699181e-02
-2.167627599419983120e-01
-7.082927015882223287e-02
9.526935210375551966e-02
1.298120623558950970e-01
6.858096662368289020e-02
-1.086619957497222844e+00
1.710140512851783812e-01
-1.128907022155723194e-01
5.112801201943463492e-02
-9.823054297908163923e-02
-1.467062985130261898e-01
