-9.233469834940094545e-01 -2.217217000103703650e-01 2.334721601938699043e-01 -2.694915763180161239e-01 -1.732470811364650309e-01 -2.311408188827159538e-01 2.203061120164340192e-01 1.732216481162979563e-02 -8.262041040775827128e-01 3.730605544360336978e-01 -7.187020754473021356e-01 -2.516324676226184831e-01 7.529735192192911486e-02 4.181994354507038159e-01 1.284324138410328220e-01 6.682717803397870693e-01 -1.797301593626673410e-01 -1.023010717683972282e-01 -6.835947739250973487e-02 -2.449614487856524025e-01 -2.085620583057650468e-01 -8.415737581459462602e-01 -7.820007420900342288e-01 5.914855836699038638e-02 1.964092761717271818e-01 -7.606468760483788838e-01 -8.706821178255489402e-01 1.133332333216660881e-01 -2.836152895983528599e-01 6.089558489914554951e-01 -6.133414946549985841e-02 1.479447343084446809e-01 -8.534612486613052384e-01 -6.345566440254477025e-02 -9.083623910913679600e-02 2.856578706250302302e-01 1.376873020445022466e-01 -1.685211104461472043e-01 2.535076637972540903e-01 1.393851451730715729e-01 5.924515448569959292e-02 1.085571637358033747e-01 -4.972199766244517899e-02 1.837160304987369430e-01 2.666802630363493409e-02 1.721856418111122194e-02 1.691661177616314293e-01 -2.811755136760226217e-02 5.289949528844321014e-01 1.131406391294948577e+00 3.534422194603711320e-01 3.405090424250620945e-02 -1.011504874591535597e+00 -5.125894188297835941e-01 -1.129152739189985405e-01 5.236923776300926869e-01 9.965454766959662702e-01 -1.734613358024562346e-01 5.098046182725033543e-02 -4.602223805548213281e-02 5.713001195470071222e-04 4.172665346986991625e-02 3.905962599535564572e-01 2.351151171112091376e-01 -5.497494921816646618e-02 -5.919028077431350704e-02 -6.610972862940671380e-02 -2.060583843355859313e-01 -2.263941437301464354e-01 5.231554560510220941e-01 -8.663374939604782110e-01 -7.557333143832556388e-02 1.049185614725189009e+00 -3.581931673359532720e-02 -1.077960457165982211e+00 9.530506861620979819e-01 -1.054479373181258284e+00 -2.644973288224888863e-01 -1.027991758530729438e+00 -3.737431499781840305e-01 6.555533908024013812e-01 2.083908466771562662e-02 3.377292745913814120e-01 -1.776268146896200495e-01 -5.020207925997149934e-01 8.993951804482644419e-02 1.378528508496185134e-01 -3.091504989911337820e-01 -6.699302587438654699e-02 -1.299951271064365921e+00 -1.918457624504820158e-01 1.765807945022702663e-01 -4.724084439960432591e-02 -1.387203684814339588e-01 2.355590991165138481e-01 3.551197526939261495e-01 1.163263194254857247e+00 -1.638859458992020441e-04 -6.513712073348214282e-02 4.990861428528088894e-01 5.323911907422578249e-01 4.560643283898802025e-01 2.529333997174141868e-01 3.795276060319207612e-01 -1.522567835537080513e-02 2.415979463019465034e-01 -2.471469361771056611e-02 2.719730144187988419e-01 -3.942304481981114828e-01 -3.833836591826426665e-01 1.713632093312866811e-01 3.344796727330360403e-02 1.098137389399754527e-01 5.403100179904596345e-01 -9.546696420854577925e-01 1.036043315439522973e-02 -3.864088529643466829e-01 -2.307570544285287573e-01 1.700612433591370265e-01 1.359190179367412987e-01 -3.376355877268211736e-01 8.643136565220007131e-03 -2.154034577191146216e-01 2.505558004579553841e-02 1.828949935757011591e-01 -1.034184282111818426e-01 1.229249939988432683e+00 -5.984468172736300273e-01
-3.854090057255826207e-01 -1.068536338144649572e-01 -3.067965735312783160e-01 5.538740440601490622e-01 2.635017278016609787e-01 -3.957541934009756873e-02 7.923412822314256088e-02 3.743204949431723771e-01 -3.766230281307619832e-01 1.200877907682749574e-01 -5.293879275204399493e-01 1.852886592737930105e-01 -6.480239548311439446e-02 -5.949894436753668803e-01 -9.378111909145866454e-01 5.482459642746788375e-02 1.826343687354751444e-01 -6.611982262060533966e-01 7.661321831588821518e-02 -8.597470364929628295e-02 -1.355400840119476980e-01 -1.970561849758789563e-01 3.706528513828593469e-02 4.326185606896558455e-02 -9.047072255999775992e-02 3.976390872828708400e-01 -1.173615208981142362e-02 -1.216810089150180269e-01 -3.704349579454124242e-01 -1.328271576503758933e-01 1.061373967867012269e-01 -5.287971330463562408e-02 -1.520367284403938979e-01 -9.486446986535854164e-02 -2.661225454946672397e-02 -1.849323715731618911e-01 -4.755100872314896310e-01 4.710933030275431255e-02 1.743519345052298164e-01 -2.104496410575811272e-01 -9.553005937400863012e-02 -6.252217781350621895e-02 -4.380559456453055334e-01 2.748993584707859483e-02 1.875898669389561568e-01 -1.819424213820146075e-01 -4.274610437755715225e-02 5.105863556297827316e-02 2.902883057190672189e-01 -1.867695479800793867e-01 -1.489438036575994884e-01 -9.217948316223811833e-02 -3.469496221564584426e-02 -1.699843627397198687e-01 5.386597021242827549e-02 -3.942683541444861467e-02 2.051325953340023267e-01 5.530955040697986824e-01 -2.454454015320391980e-01 -6.896153671823014586e-02 -1.901671498799361315e-01 -3.424969991928274865e-02 -2.038291147441275986e-01 -2.793842613358286098e-01 -1.355274135316834050e-01 -8.907304070541449681e-02 3.235187389655312384e-01 2.504149151547556684e-01 -2.524512073513637475e-02 3.994255542073727461e-01 -4.790498103840544752e-01 2.086988481723191791e-01 4.358906117838193262e-01 -1.050434429130325982e-02 -5.695872026529318344e-01 -8.827374962166632810e-02 -6.043201526157185866e-01 -6.429265051817842358e-02 4.949509214375255595e-02 3.999109589671390186e-02 -3.472118270379144778e-01 2.150854057719915891e-01 -2.380456491200062530e-01 -3.854286290989059616e-01 1.913665498723175207e-01 7.512748762728212702e-03 -1.480211987373313831e-01 -2.051455607072665832e-01 -2.316408897184646098e-01 -4.941113302670331886e-01 5.723489675032624596e-02 -9.411425043705872184e-01 -1.912709187316471715e-01 5.787944346756697112e-01 8.479373932083411614e-02 -4.989578749967741866e-01 2.824449387492253272e-01 -3.656859018017692958e-03 -3.773392000287470460e-02 -1.263144388444574365e-03 3.653246769576542485e-01 -1.961210761321104112e-01 5.854286158895728731e-02 6.247185049339752938e-01 3.622590340151125576e-01 -2.352149630540178726e-01 -1.451419919229202105e-04 3.075932482422066294e-01 2.992083006555748548e-02 -3.413987827882908332e-02 -6.872638805754908466e-03 -9.619406014373602098e-02 9.125662296102360349e-02 1.435242639981575141e-01 -5.007114244960574334e-01 -5.473950746951103397e-02 3.403797501447443086e-01 -1.546489502944708438e-01 7.049938570926593540e-02 2.682241338233915667e-02 -3.567697936931601421e-01 7.159955694806997839e-02 1.548698269085107826e-01 -1.266605916524822240e-01 1.186336103650139084e-01 1.944530587374131703e-01 3.726722844378538846e-01 2.072312942779599987e-01
-2.544095092658176238e-01 3.582389852583032358e-02 -4.730757888970838626e-02 1.241959649042430856e-02 1.066066151677248081e-02 -3.315592104620181113e-02 4.510127348898087390e-02 1.220540479944225848e-01 -2.131467487627489721e-01 4.514022109864719579e-02 -2.182463237159558700e-01 -3.156586209410622290e-02 -1.803590069333997625e-02 -5.711864720652214816e-02 -8.868097697495232190e-02 9.954174067273358073e-02 2.793651208851453960e-02 -1.286996776958541644e-01 -4.924113402770276260e-02 -1.987532271152213925e-01 2.725885748224563324e-02 -1.051445107928585254e-01 -2.007626433901283092e-01 5.915309026528531994e-02 1.046628210080186860e-01 -1.644481366180867987e-01 -1.997169280044288897e-01 -4.786646173713116070e-02 -1.568805587473823537e-01 3.146040584407814450e-02 -4.322913123203731001e-02 -3.986596528215545776e-01 -6.320627632561177933e-02 5.897948604062330097e-02 -1.564499550658496893e-03 -5.133582865444259041e-02 -2.286427550101898497e-04 2.315500464558538918e-01 1.250551165697075529e-01 2.096047103875563894e-02 -3.301195504197921432e-02 -4.120077408711005779e-02 -3.349813068536954680e-02 -9.762488740222589889e-02 1.601904497039179365e-01 8.420224214444622934e-02 -1.886779344750850185e-01 -7.501220838771111010e-02 1.046184467544744034e-01 2.327880960303636004e-01 8.639651517048940743e-02 1.430970587448905096e-01 -1.972100648591536831e-01 -1.976542047133482694e-01 -8.857954563169430362e-02 9.834401931857310319e-02 2.539055462411622943e-01 3.325536353267961182e-02 4.978820938295364790e-02 5.326276936869393103e-02 1.764821990810426164e-02 -3.363256282038594447e-02 9.249952887194076712e-02 1.191466416569534337e-01 -5.555050249480057711e-02 1.034563849463628615e-01 -8.199145882185653045e-02 -1.202792598744991878e-02 2.957036348456530336e-02 -6.620003620185054005e-02 -2.190658816916175033e-01 -4.205872099327902236e-02 2.795953786893696780e-01 2.643593097892822652e-02 -2.541214321351201733e-01 2.144842060652641935e-01 -2.036974173241974384e-01 4.381807616005767292e-02 -2.371335253508465579e-01 -7.942456524851010391e-02 -7.835918871811238529e-03 -4.787548018874630135e-02 2.768754610988787782e-03 -4.305835100741747107e-02 -4.159422233478361763e-02 7.594929591855079098e-02 -6.930949448453725681e-02 -1.246484406735009348e-01 -1.183630774815038755e-01 -3.050229850979198076e-01 -1.948686093144784692e-01 -4.113307598774428031e-02 -6.089126456685778344e-02 1.232952038640511144e-01 -1.255156492244548228e-01 6.983485914602963196e-02 2.527315285598527028e-01 8.088314638266216883e-02 -5.813524821648503871e-02 1.625616844780615189e-01 1.311790285434377701e-01 1.348501631743275753e-01 1.097255864823690197e-01 1.360775133625827249e-01 -1.287193518428655648e-01 1.470803270414811070e-01 7.287119674556272186e-02 1.559987592358399178e-01 -5.057677765452449348e-02 4.333878993072953073e-02 6.839235184200316564e-02 1.214848733474585135e-01 -4.315375241082344826e-02 1.495355791971370030e-01 -2.058588632227122683e-01 1.159195836383242750e-01 -5.929744865716127938e-02 1.387150554835268890e-01 -1.173955996145897435e-01 -2.900783898961772911e-02 -2.802802003235760342e-02 1.145345499798478550e-01 -1.260404819138515875e-01 -1.836645284977888037e-01 -5.429374184924422309e-02 1.821904667075952911e-03 2.365205459055550741e-01 -8.493152433381215283e-02
-8.953897256818321715e-02 -2.281601611559883613e-01 2.368580515104244319e-02 -4.616670333720937491e-02 -1.597863633956377871e-01 1.105977115228666263e-01 -2.179451840610917290e-02 2.006041071054417979e-01 -1.164721028499059174e-02 -2.199739039305739080e-02 7.510770739603682411e-02 8.081704925704503994e-02 8.862032770822247940e-02 1.243028969691751945e-01 1.165698068345199373e-02 7.453800873351466849e-02 9.447959561506871773e-02 -5.320126151274685855e-02 -2.394559606260609347e-02 9.695267386537623211e-02 1.035450682774088221e-01 2.795178585050053233e-01 -6.262131437471209205e-03 -1.437099432824242434e-02 5.473773114108178989e-02 -1.955519275036657900e-01 -1.053909265366064635e-01 1.230234798890633557e-01 -3.690543571757828878e-02 2.010108387333758503e-02 -8.799654733800496564e-02 1.406946021335191976e-01 7.472235829641676874e-02 -7.672096519450019581e-02 -2.518933017181960304e-02 -1.319784606347428335e-01 3.924226191051033430e-02 -1.261958760197765539e-01 -2.517981243412553000e-02 -3.036000709466992603e-02 -1.741776155987473720e-02 5.091422910931830276e-02 -5.457438071945849151e-02 -1.194367955651627101e-02 -7.155513058527739577e-03 1.547458120670708870e-01 -7.064182652949249630e-02 2.401560937751705954e-02 -7.704771451344710753e-02 6.191246409142674156e-02 3.437829851754979626e-02 -4.400529768406659381e-02 -1.191829989219965191e-01 2.915877097728772696e-02 -2.739077254300380515e-01 1.493661149304093549e-01 1.043868013009674467e-01 -1.729154537493359650e-02 4.496648793326997462e-02 1.454889695890241863e-01 -3.211082938506129580e-02 1.439721422626451530e-01 -1.219602551257845530e-01 6.107087096647390717e-02 -1.032132681579021050e-01 -2.408510161981775640e-03 -5.406724771944527302e-02 -1.330525220740164279e-02 9.806208469946681161e-02 -4.568158749764363036e-02 2.349463446470858793e-02 -1.041921796499984537e-01 3.749461840843154592e-02 -1.261695010692237898e-02 1.192174543358426181e-01 9.105846847126178312e-02 1.092685892055513114e-01 9.148887493844391761e-02 -1.856218941065322370e-01 -1.141896068254668328e-01 4.402000541502171932e-02 -6.198668205416898308e-02 -9.621589210838499273e-03 -7.041488896419058341e-02 7.852312976327713301e-03 9.814778349423083914e-03 1.098192264332720214e-01 -7.099130760381974770e-02 6.545865831831992887e-02 -1.357228385218063084e-02 -1.761981995880274876e-01 1.984894299448717592e-01 -1.300924567541709431e-01 1.057969304919594983e-01 -2.190681313299794875e-01 1.883207634144931086e-01 5.850904731083965415e-02 1.014006294957580691e-02 -1.776673866279008529e-01 1.185965077992150452e-01 5.217723404220531158e-02 -2.882181728444509553e-02 4.564445716900348421e-02 5.370680777720020227e-02 -5.748350678141788545e-02 1.061782715146167705e-01 1.014834249205510790e-02 -1.208592622900585556e-01 1.798852396153603206e-01 -1.531640255589658273e-01 7.132081267211890820e-03 7.899992865864363667e-02 -6.383097653235651758e-02 -1.621357913114096772e-01 3.142364570773147764e-02 -1.540482138641414422e-01 -4.777070887146530470e-02 -1.154012996943798719e-01 -7.280322997956627240e-02 9.946491903494286690e-02 1.939701347945940735e-01 -1.634528262568003543e-01 -1.875586714012526801e-01 3.118895945848599791e-02 -1.246431408068087582e-01 -1.883267346335142922e-01 -5.680966072133493416e-02 -4.194132495430703128e-02
2.264512984366287215e-02 -1.504929374200629222e-01 -3.238490135235859435e-02 5.032814457874978942e-02 6.418519459151790507e-03 4.075507814725007338e-02 -4.368262001886513007e-03 -1.251428903523837677e-01 -2.986904495402722265e-02 -2.778143589899245702e-02 8.486017529932952941e-02 -1.385960390019280210e-03 -4.936550710958466370e-02 -6.739061623321254690e-02 -3.295331497565795464e-02 -3.189326012740052729e-02 -2.849319035982452591e-02 1.574727614822857558e-01 -1.303962297816668170e-01 -9.897848901175076985e-02 -1.575371663144530809e-01 2.486877088067321329e-01 -1.584061313764490928e-02 1.371210270727008518e-01 2.003763874664706707e-02 -4.912265696151192629e-02 -3.088045634771258499e-02 4.864784092274201943e-02 -6.422792331733287625e-03 5.340440493704742830e-02 -2.595931644184922005e-02 1.773963281751253229e-01 -8.338943980453109028e-02 -1.276921046334485998e-01 7.218328237286639193e-02 9.673711009067170741e-02 1.098768038789528778e-01 2.391816456128891683e-02 -3.214523807486700802e-02 9.112516575544665764e-02 -4.643917701712635925e-03 -6.069785517680633541e-02 1.106551792185656892e-02 -1.482305890139128945e-01 3.894756039694652339e-02 8.858600865903818594e-03 -6.619724166444883318e-02 9.472448413385732569e-02 9.039383238791048880e-02 -6.026544861742649459e-03 -9.866610274716293427e-02 5.373206114581014631e-02 1.000720657471008274e-01 3.683529973620040116e-03 1.217847868408041406e-01 1.263851121645543363e-01 2.654068793615964317e-02 -4.519220418360738595e-02 -4.167567944175117056e-02 -4.979426207281338612e-02 1.181186463366007584e-02 1.105519338585702754e-01 -2.833899934292375897e-02 7.747000795769789019e-03 -7.291142670163715256e-02 -4.596251469767325543e-02 -3.233773574298669934e-02 4.807326144003749684e-03 -9.793373042133640682e-02 -1.824570766082409812e-01 4.330262062385848570e-02 -2.186851533319823272e-03 -5.203971936976623663e-02 -2.405124291308220405e-02 1.584988513494444903e-02 1.719922861234323905e-02 -9.788955737426266457e-02 7.298347987415047811e-02 -4.600931617112348493e-02 -6.174061539844511587e-02 3.627626349546536622e-02 3.247058955525861101e-02 -1.322675285664769995e-01 -2.162639919793999388e-01 -4.169422971147188767e-02 -4.436910705516043663e-02 1.523904810798897558e-01 -6.162216238080608227e-02 -7.148487727257164803e-02 1.170700695538525750e-04 -1.420027276803059180e-01 1.012330410114466867e-01 1.116085259407145619e-01 -8.047618074536146138e-02 7.653445848786817607e-02 1.164525956751902569e-01 -4.454585865728721839e-02 -8.636254143993168930e-02 7.803097348797524702e-02 1.938318353857805543e-01 -2.465912517465772003e-01 8.844877272138518265e-02 1.855535446094396315e-02 -5.138781592265118797e-02 -2.347799124458639988e-02 9.965086629246343308e-02 -9.376005528194947258e-02 1.673696428132556979e-01 -1.304069763371690782e-01 -1.379548125534561243e-01 -7.891299856018775538e-02 -1.347339787785145453e-02 -4.032916734550891918e-02 5.809080142040386890e-02 1.149984570268334019e-02 2.557493213512974095e-01 -9.950782601897180391e-02 7.998214011067375506e-02 1.243660895919896092e-01 -1.691563341165184531e-01 -7.066099477988854738e-02 1.909502785541784126e-02 -2.914725993595205719e-02 -5.725918123660870412e-02 -1.005011852524462096e-01 5.066645524532492617e-02 1.442257460929130368e-02 -1.862323920852080456e-02
-6.421927272366798056e-02 -2.494392101108787452e-01 2.356967664749549593e-02 8.559358895060568614e-03 -4.135593835330009238e-02 9.884375928348673734e-02 -9.075753654482797417e-02 -1.008592874216443676e-02 -3.344437934939459983e-02 4.846958296652079806e-02 -1.598420047603451785e-02 2.479089844668086809e-02 -5.833405790791917900e-02 -1.653871578956467303e-02 5.303889181617577747e-02 -2.541847993200247943e-02 2.534868534390266430e-03 -4.001464558840721331e-02 -2.997088935427521042e-02 -3.179301666082648414e-01 1.191617645987245455e-01 -1.255710471642279558e-01 2.018708794058886660e-02 1.868607140060282376e-02 -5.402279819695380431e-02 -3.909004403190319450e-03 -4.573056126128018789e-02 1.587098833497030057e-02 -4.217223560106018315e-02 -1.049901092247457375e-02 2.274755819792796685e-04 -9.776724790599386830e-03 6.531240227200960091e-02 6.072359443290320513e-02 -5.302488907508894067e-02 -7.330739628674085018e-02 -5.985412104584560827e-02 1.003142055899483992e-01 1.114287929776907639e-02 1.065983256335276824e-02 -8.113909843588432147e-02 1.830292937544611420e-01 -1.251958716490642921e-02 4.576936173336605684e-02 4.366055580104447748e-02 -7.254148965488874112e-02 8.821584234875072539e-02 -7.171569249972918267e-03 4.428815889378185690e-03 2.939801795459566838e-02 2.338343801806666220e-02 -5.293243486476292836e-02 -1.720795721415838489e-02 -2.179345571106946697e-02 -5.844141868825641906e-02 3.929485075786623427e-02 -6.512349259976216512e-03 1.991294723240127733e-03 3.455311384853764628e-02 -4.815638184504309610e-02 5.604451614828839107e-02 2.091883255057695734e-02 -4.743537252041605257e-01 -2.709493799590943081e-02 6.682664951178674288e-04 7.768533111255195023e-02 -5.755266136103459433e-03 -7.923543558096371453e-02 -1.147077692067303978e-02 -1.351981435781249019e-01 4.449221734375783874e-03 5.510403232980715105e-02 1.840555309333795006e-02 -1.429186539696393199e-01 -2.587683738410204506e-02 1.683096238942985217e-03 -3.622807813778363838e-04 -1.550331792801239172e-02 -2.992213939533603165e-02 -1.168156508135200222e-01 -7.724065777674640407e-03 1.397433215444284296e-02 -3.375349857672942794e-02 2.448654793125255580e-01 -4.278030377184212189e-03 3.143672121898830746e-02 -8.259205444069230018e-02 -6.169186674260877107e-02 -2.900029144267842265e-02 -1.799110589524113152e-03 8.970512696336238601e-02 1.576366788449867773e-02 -1.546099575312520798e-02 3.827849999629467231e-02 3.381637851934377048e-02 -2.178153473956823474e-02 2.136022210919172326e-02 6.189909534716950962e-02 2.705531389193062131e-01 -1.845875844662006882e-01 -1.808208885027322993e-02 3.822578305802992044e-02 1.695325771937245679e-02 -1.120949571205036299e-02 -3.394511133351321014e-02 -2.023285519074213140e-02 5.236414937566463007e-02 -6.982405942450956027e-02 2.363383473837684517e-03 -2.233862743702621501e-01 6.396382720035918845e-02 4.039788678538477028e-03 8.833548824646271502e-02 5.418239449815122344e-02 -1.847694364710379331e-02 1.253949608048580966e-01 -2.836712853057369449e-02 1.111130138562801614e-02 3.270393497613720279e-02 -1.044393428819016117e-02 -1.065151917376298135e-02 5.888800142358287942e-02 -2.194548077563232037e-03 3.315312250073843003e-02 -2.591560404540570531e-02 -5.728662191430403117e-02 9.675144062311213586e-03 -1.326302043556709664e-01
5.403647453828700452e-03 -1.037793136394907778e-01 3.945699073756983588e-02 1.728950660895415062e-02 2.879748555205223493e-03 -2.200983133455656493e-01 3.986063817367133666e-01 -3.126772964908040853e-02 -1.786488935427165206e-02 -3.888631605561372606e-02 -8.385719686883589749e-03 -7.855901912329505549e-03 4.403711946144894807e-02 -3.064589319336720116e-02 -7.894457358493053856e-02 1.156281903309848771e-02 -8.674248138359003796e-03 3.036586575063670787e-02 2.494594456708557340e-01 -7.119318735979945738e-04 1.814714121737557861e-01 -8.567479305619554730e-02 4.279479127679451655e-02 5.454297663261782614e-02 1.612928531289435641e-01 3.755238785695461795e-02 -3.384698282511270674e-03 -6.892255508596620284e-02 -2.604149099040568502e-02 -2.068250400322376240e-02 1.150221719623128330e-02 -7.161089883503130027e-02 6.073625725799625813e-02 4.619059043180127021e-03 -5.579412316657686444e-02 -1.207497756205642009e-01 -4.665314681518722799e-03 -1.087479011948028484e-01 1.557119932197270351e-01 3.574861537732589023e-02 1.161495977991084949e-01 1.454893583749100883e-01 -1.459248786784303475e-02 -2.395002278591987221e-02 -1.710650704103945478e-03 9.675870254954790917e-02 -1.661641109474500805e-02 -4.781153236961264985e-02 -3.045035958348476721e-02 1.808828090792644408e-02 2.367285580871664533e-02 -1.018806621713220922e-01 4.649703128768541832e-02 3.580506160479395711e-02 9.802293454538126873e-04 -5.048422613405870174e-02 2.636997989281094842e-02 -2.839609650391725602e-03 -1.114601260609148076e-01 1.378992111771022155e-01 -2.017494594381170209e-02 -6.407513713508235231e-02 7.593111413787964614e-02 -2.757918822348000721e-03 4.810753257516512532e-02 2.565674301438180052e-02 2.146335165059786929e-02 1.982032643028292310e-02 2.834762266303423976e-03 5.479242838680219163e-02 -1.149682356901928111e-02 -1.470329385150964327e-02 -8.555437297750614900e-03 -1.822642295937286494e-01 2.364797848977992153e-02 -5.499176080097752800e-03 1.933727694515522191e-02 1.318318121486706518e-01 -2.930681570505716191e-02 -1.304403090831878498e-01 8.201326629914898123e-03 4.860912578936420203e-02 -2.031815840495186376e-01 6.015025675459762661e-02 4.336741639442689977e-02 6.724090998838373745e-02 -2.552645488263136780e-02 4.141217182240375383e-02 -3.016436995162234680e-02 4.919179260734365608e-03 4.385143076180346433e-02 -4.199994133058128354e-02 -1.376608816214112789e-02 -3.286553435210443769e-02 -1.170338666730920581e-02 -3.897729314430482123e-02 -1.552443769991577148e-02 -2.595483059082712846e-02 -1.776268103662185238e-01 8.651844137568096352e-03 -6.784728852039451086e-02 -4.414917166632038176e-02 -1.775406202926813060e-02 2.529757241054094320e-03 5.464268683745547583e-02 -6.646016829874115683e-02 2.776875586433589713e-02 3.349174632133451041e-02 -5.072245522211091956e-02 -5.662009887426267679e-02 5.482614139228869643e-02 9.153028633366330769e-02 -8.153898739537082663e-02 7.910796883578267991e-02 -1.779271043579037578e-02 6.583717021930053648e-02 5.691830462696127226e-03 1.621533064383939016e-01 6.445595588892118200e-02 -2.238400850266919571e-03 -4.213236128111140510e-02 3.430769880335728106e-02 2.166257631846267573e-02 -1.457415195782350154e-02 1.733576982889187615e-02 7.492033668305292382e-02 -2.395344382985984885e-02 -1.416165596613093436e-02
8.254963040804641494e-03 -3.911846828248925767e-02 -1.773100062855056600e-02 -1.057879905592695215e-02 7.450262806962279494e-02 -9.789107852673484267e-02 1.386191871859126235e-01 -1.449001415194589928e-02 2.742029826665737940e-02 -1.472020458232066974e-02 3.690554773036143748e-03 -3.992287363098376979e-02 9.662505244321042963e-02 -3.123727334125047262e-03 8.310887139983470784e-02 -5.087165993286868818e-03 -1.221843395666468712e-01 3.191944807009369778e-02 -2.171250415302138359e-01 -1.783345236753607066e-01 2.458518168634096224e-01 1.279344629012266754e-01 -3.664086347295546220e-02 6.868262155445831185e-02 1.030206253147696177e-01 8.233137876664184396e-02 8.745201539334174212e-02 1.908453509718643221e-02 2.802207376311446983e-03 -4.481626596309563199e-03 -1.939788430874051081e-03 4.650817584347147898e-02 1.059568076835438327e-02 -1.718176270706859576e-01 4.114191717263260967e-02 1.686648602337101344e-01 3.322973975646748707e-02 1.222419999678531766e-01 -3.801283540719298682e-03 -8.339425355667443029e-02 4.222259380300233400e-02 2.636804716868193163e-02 -5.166130261116633898e-02 -2.371315080126925601e-01 -4.693005569025653773e-02 -9.097281387851365031e-02 2.052208138005352095e-02 -2.738816345647823725e-02 7.074500921377498142e-02 -1.203474846147406102e-01 7.906652295829809385e-02 -1.260875598600906256e-01 2.974878347343335588e-02 -1.212032073333228419e-02 1.416339616834663140e-01 -1.121262563024431544e-02 -7.605289712156418358e-02 -3.535720050956013549e-02 3.175244410374541970e-02 -1.607366510156352235e-02 -4.167320132659151207e-04 7.035569567032309325e-03 -5.348427464659138292e-02 -4.707683636973182539e-02 -1.423102518108033086e-02 -8.871406000620057908e-02 1.200248190781560143e-01 2.088375083113188854e-02 1.032769871486686614e-01 9.635086789689324693e-02 3.114323644662374962e-02 -1.198004312021872797e-01 -9.597240161669327863e-02 6.221874446567191713e-02 -1.632724268265141332e-02 -6.150366042150032936e-02 4.982044139660641267e-03 1.266877708343115139e-01 9.939268498115517991e-02 1.511240499567805262e-01 -1.654208016346676727e-03 6.794550201765192643e-02 4.257710677036355418e-02 8.496209532035020606e-02 9.962934167703386967e-02 -9.786060668170430688e-02 -5.798231082415550774e-04 1.343187108418197016e-02 5.200864721890779974e-02 7.765324248125221596e-02 -8.089635200471869542e-03 -2.156926488854369814e-02 -6.509120997750247883e-02 -8.088849192554894985e-02 -7.424841465631010218e-02 -1.019845058914412433e-01 -7.762784704753930565e-02 -3.227366151067619787e-02 -6.737221496772996532e-02 1.096952769855869259e-01 6.918085986044260338e-02 -1.880828972082797951e-02 -4.186805507872658899e-02 -3.696982375359734313e-02 1.529119277393487311e-02 -7.397162397589586436e-02 -2.329415472783678137e-02 1.000494665485132800e-01 -6.579593097991920901e-03 2.255421572490479143e-01 4.237584336055620626e-02 -7.557004826641390734e-03 1.109471368187835705e-01 9.772631131526758608e-03 1.969177868592855013e-02 6.897107696705363777e-02 1.742176700459713897e-03 -5.090524163318368989e-02 5.661288588958780787e-02 1.885479578729316874e-02 3.876233330227992629e-02 2.626790307429436797e-02 1.511327679886457498e-01 4.574163376569876510e-02 2.919160111581775574e-03 3.472530762468396728e-03 -1.733681540653984410e-03 -5.183249145728165835e-02
-4.161473908448949655e-02 -1.594332552905951828e-01 -6.532588156707198890e-02 -1.388679676687497658e-02 1.722006607476894366e-02 4.084753451827371346e-02 -8.773794661920421289e-02 -1.358164814378531177e-02 4.294349423772059367e-03 -4.978030217980104061e-03 -2.051001317188513168e-02 -5.592165795308210417e-03 6.533094983951243107e-02 4.690134659727838648e-03 9.750992678590701679e-02 -1.614863979627434790e-02 -4.202235995854103345e-02 -2.724040411537626341e-02 1.281764487765644500e-01 7.665808815798687281e-02 -1.751921906537552420e-01 -1.501229715507248486e-01 -2.124712445454594173e-02 -2.564929717794019529e-02 3.811291556327471575e-02 1.698653855197754248e-02 -2.368344809435628251e-02 -6.346185602841124956e-03 -1.414909651566340944e-02 -6.433933377710899203e-03 -3.533348577327799500e-02 1.848786578128449806e-02 2.401430920831106736e-02 1.588759873507248005e-03 -6.301540931781243748e-02 6.507055301050241464e-03 -1.051527024151623080e-01 9.954551724065219959e-03 -9.897303506887372704e-02 -3.867956706988640025e-02 -5.256224201741924867e-02 1.271705807982936864e-01 3.021541920384507654e-02 5.986260803155906557e-02 -3.920288495230078718e-02 1.351958353776951637e-03 1.166728148029969186e-01 -2.563290746434064224e-02 -1.953064463642809750e-02 -2.096518734321025160e-02 5.108303828353073089e-02 -2.171914044783915948e-02 -1.874182451841949551e-02 -1.682240681262828566e-02 1.489235464074462230e-03 -3.009297013525649364e-02 -4.387834383496268253e-02 -8.909340740288597751e-03 7.104202815410457471e-03 -1.149868104980206057e-01 9.702402740567038844e-03 9.046720322479304133e-02 2.385406849230325976e-02 -5.440457088100959793e-02 -4.966398975183353159e-02 2.731993768991801408e-02 3.075027367194670645e-03 2.355265721760564993e-02 -8.105708426505994768e-02 -1.287870724807726186e-01 2.042112606343292336e-02 -1.492642749026717487e-02 -2.881196917066292454e-02 2.993572788153783110e-02 -1.419629377116668305e-02 -6.234855866534064206e-02 4.833073511800222224e-03 2.138738998386682452e-02 1.280508263244377679e-02 8.863197392494238935e-02 9.407059742801971575e-03 5.066167422231723089e-02 -3.968329089608375188e-02 -1.979088795079286256e-01 -1.012771814641798274e-02 3.434738472683155318e-03 -5.019407048412299205e-02 -4.231118395945083002e-03 -5.770241285252455249e-02 3.158941626632282007e-02 -2.328849702686219478e-02 3.059364874624662806e-02 2.069641106950151632e-01 -3.353265275119887701e-02 2.413296885421538709e-02 -5.982330903101319014e-02 9.223599636220857975e-03 2.520051615335234391e-02 -1.985444623235574080e-01 -4.495541607248266375e-02 -1.670234468376149972e-01 3.813489070438352141e-02 -2.510643039161132573e-03 4.972189152950302199e-02 -1.214124911742717472e-01 5.292639715780951548e-02 -1.374047860022233752e-02 -5.475815923465835594e-02 -4.579525012111455157e-03 1.002722168003357568e-02 8.698270865026420939e-02 9.334534081120579585e-02 -1.388998572919841745e-01 -1.363253993464079716e-01 1.756277754286739504e-02 -8.175178365864252394e-02 -1.104030351623324410e-03 -9.221282160188389032e-02 -9.625640813825800390e-02 8.637208319460185080e-02 2.909945733706374368e-02 7.141126940862385641e-02 7.314538464945845309e-02 -9.622125397381465009e-03 -4.585946849974956857e-02 -1.588078613878153023e-01 -3.105763015745801811e-02 9.250892888738808384e-02
1.203184359818451621e-01 -2.111908519621756228e-02 -4.769565557309876636e-02 3.264224408719651471e-02 -6.356139250642073302e-02 8.188941784409665622e-03 1.079393578004209930e-01 -5.296848808634387756e-02 3.329099416458677213e-02 -1.033027576695810940e-01 1.489684724016105376e-02 2.005064171315617816e-01 -9.497370681901773359e-02 -3.932895803189163236e-02 2.916737481445407301e-02 -5.394895285886900510e-02 -8.947722549004542836e-02 2.251303789601032460e-02 1.889261891368063939e-01 -1.239105919080277923e-01 9.709987754795133819e-02 7.352082326328508721e-03 -3.558016442899355428e-03 -3.893602768061168312e-02 -1.187132018159114122e-01 5.117498028148755734e-02 -4.173776149196668089e-02 -8.314070627687346338e-03 5.870324059643960242e-04 4.135985406322728944e-03 -4.728785252973252001e-02 -8.134434800924533748e-02 2.209235537319981235e-02 -1.652355837690476503e-01 1.501475816686100306e-01 1.645881812888035783e-02 7.969981256444186313e-03 1.219251956727551017e-02 2.617108974044923472e-02 -6.660834332715478978e-02 1.128271534648578045e-01 -2.511428026493371310e-02 4.058845673667897669e-02 7.472736935229370991e-02 2.578281240618245373e-01 -8.509442413867465346e-03 -6.207547937526072118e-02 -9.445742910262343306e-02 -1.935797973958969936e-02 3.181340009068938518e-02 3.326052038831849109e-03 -6.137351174359282485e-02 -1.417816846723386238e-02 3.953763789502866277e-02 -3.241279579948907336e-02 2.274757605937958449e-01 -1.841847266161079563e-02 -7.536940406920808466e-02 5.456315008860401078e-02 -1.606541822886795728e-02 6.510175158191643108e-02 -8.644624353100503755e-02 -4.169800023880177592e-02 -1.599714478446636820e-02 2.469407466414300437e-02 5.379939285341334143e-02 3.375067098847156499e-02 -3.171856413671162583e-02 -4.851526549635908070e-03 -4.582100450676249159e-02 2.386594651089599464e-02 1.052640820877021877e-01 -4.590146464345607608e-02 -1.805405001568930476e-03 9.224696469776996061e-03 -9.006433216695440558e-02 1.301203843382687207e-02 -1.749312601001537862e-02 -7.305901504740415497e-02 3.284009961873831651e-01 -1.560353141362440590e-02 4.011172661142109290e-03 5.504226794222396441e-02 6.567963951091851382e-02 -1.262996530665305983e-01 2.327695370467545641e-02 1.438948256559710766e-02 1.104715644810718052e-02 -8.124106907448856718e-02 4.233963172380799528e-02 -3.213843806335589526e-02 3.043083821234794650e-02 1.169289074534160533e-01 5.135188269194108576e-03 3.794244170108738989e-02 1.938256247107914693e-02 -2.663922149736157319e-02 -2.370810646041519865e-02 8.005546690318711411e-02 1.458283389717905665e-02 3.017379231065352163e-02 1.262408501330493094e-01 1.900089638515311055e-02 -1.177117249840303227e-02 -1.304506905021832544e-02 -1.901514927260020138e-02 5.228193253336473230e-03 -3.436869321598095411e-02 -4.854629151102340945e-02 3.368546499574396474e-02 2.087198416054669714e-02 -1.305321465629932232e-01 3.650790710819912244e-02 7.914957391104462947e-02 1.026899090043090212e-02 -2.612837859206191826e-01 -4.131879617107661606e-02 6.832505457505647084e-02 -4.397354700209145676e-04 -5.455126867240601279e-02 -4.354754616666559747e-02 3.529459860696634865e-02 4.553714515540222690e-02 9.566189601119200192e-02 -1.467826463493111244e-01 1.909763560109298541e-01 -3.193446248828087086e-02 7.784094296150994435e-03
-2.088394420421647857e-02 -9.336009380569097738e-02 -2.423700179169940502e-02 7.722332172861409716e-02 -4.014751039675848454e-02 1.027869730769738303e-02 3.112024320721248904e-02 -7.045296594801855883e-02 3.694521300818515153e-02 2.525870616450541159e-02 -1.542045776936957699e-02 -7.265454525407182137e-04 -3.312990175227144979e-02 -5.197195294176945590e-02 5.324662468315237429e-02 -1.972904651160244799e-02 3.806552877022469084e-02 -7.919307681746978744e-02 -3.468098746574695135e-02 1.269622589131754464e-01 2.316331978159552954e-03 -3.514085026996364297e-02 4.859953498029642716e-02 6.066145731971040594e-02 2.822216160647692332e-02 7.941870831036751399e-02 7.805674487235386011e-03 2.930270908488333270e-02 -7.756887606731270764e-03 -1.343510211987102541e-02 9.066451453581568509e-02 -8.992799406179171132e-03 -4.349060926598476151e-02 6.886572267953143534e-02 2.261421280568482253e-02 2.331909124799794869e-02 -7.251804918393348065e-02 1.535911012210347364e-02 8.967577391902400996e-02 -1.172172196462964999e-01 3.193266512513690675e-02 1.427766358116915324e-01 -6.119379093392991048e-02 -8.271535863420703683e-02 7.207322545845123996e-02 -1.410893187010971439e-01 3.723665475419682402e-02 3.748530183395292620e-02 -2.931910974660319538e-02 5.585650280388156780e-02 1.227692155685593534e-01 -2.925080280970790078e-02 -6.665895981379781066e-03 2.477507095664380275e-04 5.530614748945045234e-02 -2.123417990439830164e-02 -6.812451987219185490e-02 1.163270799499966117e-03 2.696004543843173729e-02 5.685433076780688905e-02 -5.901989456838414860e-02 1.258356513188770096e-03 -2.751584084855930243e-02 3.212785843960647841e-02 6.687790134256413332e-02 3.117680007550451687e-02 5.770123876007347136e-02 2.211040695199729955e-02 -1.127777394613878048e-01 4.897600527035118195e-02 3.350480073637457368e-02 -2.653010578634973707e-02 -1.795903795213176640e-02 4.337762038619462357e-02 2.023385685274982707e-02 7.903527247097807962e-03 -1.799189051724915320e-02 7.681326430449132714e-02 3.279849943768126108e-02 6.114192153528042600e-02 1.238108589559713466e-02 5.502012313839590996e-02 4.239929007743268446e-02 -1.990148928681019502e-02 -3.130013555806165915e-02 2.846973175603681461e-02 -7.089507697120030205e-02 -3.123889032266903478e-03 8.122982774495228486e-02 1.918593229174851353e-02 7.202543752815188105e-02 -5.271877011098329013e-02 3.345862205712912818e-02 -5.244486237252667798e-02 -1.379248266142905077e-01 -6.065972972482712444e-02 2.551606088944463613e-02 4.534413389498512248e-02 -6.166649357141315568e-02 1.824741200303242952e-02 -9.745481853435168651e-02 -4.681861565326160546e-02 6.448931123006580723e-02 -6.141530303421584291e-02 -5.022656101259088263e-02 4.709141198483072360e-02 8.065677571872112428e-02 -1.044022373652737506e-01 3.039603924437439195e-02 -6.362593063531027382e-02 -2.514439762744370005e-02 2.080822978588837274e-02 1.119756103462130892e-01 -2.361727781909480836e-02 1.742301011816144770e-03 1.358765101521346164e-01 2.409485402297413537e-02 -2.549618910737190547e-03 4.274760471379415033e-02 7.652413929058661524e-02 -5.142973361044823194e-02 -7.564444926877307573e-02 -6.844985896569906469e-02 -2.067818405535018500e-02 2.680980803095459400e-02 -1.017663898537271849e-01 2.090445813924057730e-03 3.831004768523054577e-02
-4.700374840736678411e-02 -3.052220049073407077e-02 -1.536419877608061896e-02 -1.746696253807342725e-01 -1.243211072610754392e-01 -1.299813398620149607e-01 -1.523101608891905268e-02 -1.822478570083594165e-02 3.334295515720039904e-02 1.660397851806660234e-03 2.666888102944225264e-03 -1.049795372778599689e-01 -3.894937064729767084e-02 -5.062662944536455017e-03 -1.189738622695471438e-03 -1.916199046669002370e-02 -3.942154279987557935e-02 -2.522259107982086426e-02 4.043351031823608915e-02 4.273540926629570275e-02 1.022509877767260184e-01 1.916663880860037042e-02 7.536068521726373148e-02 -5.189865755477379543e-03 -5.240610629065529935e-02 9.323990653992622613e-02 3.520360552120201103e-02 -5.435561796071226859e-02 -3.597149506695252602e-02 1.935078184458373721e-02 1.204730322899636580e-02 -4.591839979356437257e-02 -1.835080738203089326e-02 -1.108187798805932434e-01 -2.802201398260226271e-03 5.234030376273828000e-02 6.041627180320153362e-02 1.459547885486261153e-02 -6.308668474580914065e-02 -1.656086076087030096e-02 2.844632365152579070e-02 -9.890382599783626924e-03 -5.429581504446294449e-02 8.857445118287439120e-03 2.353311658252109015e-02 -1.466936139803467869e-02 6.959769821969305492e-02 -1.738756033755532726e-02 1.614233025263827476e-02 -5.777089395790334370e-02 -2.930637805779462424e-02 1.700269894863004894e-01 -3.186188369674030491e-02 -4.079825304108483652e-02 -8.074690604338844628e-04 -7.683218562569068058e-03 -3.107498339657750915e-03 -4.245729243319541074e-02 3.859425117622042323e-02 -6.959913978403353685e-02 -3.503888969242784784e-02 -7.477207625883248998e-02 3.591256586854398719e-02 -1.268712202901642883e-01 7.333609846749603034e-02 -8.197436033684370182e-03 -1.007194382869957272e-01 5.439651430539790833e-02 -1.251793610556819342e-02 -4.097603153457778091e-02 -9.027726174259492059e-03 -3.534399475747404540e-02 4.553423847921758867e-03 6.944837044103187307e-02 -5.942205325177274747e-03 1.791661521207525004e-02 1.009437238423092215e-01 4.986887290706177450e-02 1.734567967138126929e-02 9.848259443055433493e-02 -4.059311781804229163e-02 3.443398436790728878e-02 -1.117421786038663711e-02 2.498088598804291960e-02 -1.944786336570512517e-02 -8.256445300118177288e-02 -3.105187538528882216e-03 3.451145784596908184e-02 8.794337192681726811e-02 4.019906276231113157e-02 -1.024410088158794058e-01 6.382549900031896095e-02 -6.817906921770070308e-03 -1.861166194828353139e-03 1.043397328324243215e-02 -5.077802069813084490e-02 -1.074943412866054444e-02 -3.761886961581654976e-02 -4.350835864713497453e-02 -1.291081442810224598e-02 -1.435369464580456451e-02 7.185086694977024790e-02 3.857626533652772083e-02 -5.519078370915792182e-03 1.809349055851067894e-02 -2.693565469304843099e-02 -1.409732583720450794e-01 -3.547324899359299843e-02 2.725308389876230156e-02 -7.001679693313050956e-02 -5.952758199804850450e-03 6.450206433852960497e-02 3.082321157812253562e-02 3.502761580336165477e-03 4.452363477047833508e-03 6.040852724150248820e-02 -5.501190099264267191e-02 -1.035786497609278989e-01 -1.782161921081684003e-02 -9.310168346645116000e-02 4.491631056290361357e-02 5.088434653812157205e-02 1.309837616017605344e-01 2.358062119795150541e-02 -3.326457022308873523e-02 -4.305387548631203765e-02 -1.244178248763283708e-02 1.030859678677637226e-01
2.403082415794889626e-02 -1.374621119397222667e-02 1.712753760990667201e-02 -3.964224311411439217e-02 -8.934628867573622679e-02 1.221217631178166639e-02 1.058121047512847746e-01 2.099112749132104640e-03 2.507445508745381399e-02 3.530477864842751501e-02 -1.006534817201167747e-02 1.125888315105585402e-01 -3.484753468131280424e-02 1.437621756334951130e-02 3.465499563260489996e-02 5.218086632660662305e-02 4.422354588643093859e-02 4.843189623446123721e-02 -1.005092496968541943e-01 1.757203287537307257e-01 -3.652481331837093004e-02 1.749888584623219764e-02 -9.816702863514758029e-03 3.864822345217474794e-03 1.188600140524906507e-01 3.872086494835601939e-02 3.774043636108839750e-02 -8.445849114952359848e-02 -4.618978508847147030e-02 -6.695220414991837760e-03 -1.216586268533806636e-01 -6.373902455652842580e-02 -1.935213275796851540e-02 -1.241190276316692445e-02 1.076193311537879289e-02 -9.941412434755003691e-02 -4.960241482052515916e-02 -4.581923191174552823e-02 8.517613257642522168e-03 1.012147537885636495e-01 3.760881941008303170e-02 -7.978521273396106672e-02 -3.887420131093646813e-02 -1.053715988651729787e-02 -8.783191872325586680e-02 5.459764778066446105e-03 7.385934808827791798e-02 -3.337269100190509707e-02 -7.175340082196121627e-02 -1.212779633318899347e-01 8.287098197216577478e-02 1.623551828199314498e-02 -2.823881811102529546e-02 2.973080009725846337e-02 -5.485392373911015390e-02 -5.028999663037705178e-04 -3.162270506257200409e-02 -5.330197592877283785e-02 -5.578469105588192145e-02 -3.037285826268934855e-02 -6.151268920826846731e-02 -1.445740382907249530e-02 3.847143563339610467e-02 -4.415154247965333983e-02 -1.573259304494177904e-02 -9.997746342889159143e-02 1.264168031322548680e-01 2.188285225829995212e-03 4.304131273258023083e-02 -6.533270018003399515e-02 -8.530374871399492784e-03 -7.074805944454501394e-02 -2.387154273698008540e-03 9.171652886868332868e-03 -1.334811860897523565e-02 1.994840192230378211e-03 5.956713225961331182e-02 2.290345808459662985e-02 -3.046203270962593093e-02 3.547742790538781568e-03 -3.003724014442244426e-03 3.198934301585298207e-02 1.207565232255884830e-01 1.933075565461179687e-02 2.920910019310600167e-02 4.727461382743592538e-03 -1.175677882154053527e-01 -7.228244185889963480e-02 -5.790565332148606831e-02 5.264438139714144177e-02 4.855920444925075630e-02 4.247500043146294063e-02 -3.723970407622091694e-02 -9.464335131072329141e-03 -1.608246029058833446e-02 -2.059140164519734223e-02 -2.174993761131828636e-03 -1.262895689849767057e-02 2.686917849709214920e-02 -6.575206317369380882e-02 2.704635965565891850e-02 -3.465493136692008019e-03 4.467946008599401470e-02 -1.035801733712616267e-02 1.284967358524469259e-04 6.936449863649791353e-03 1.477029894710209929e-02 9.918995944469950754e-02 1.133452757201253019e-01 9.276257218381885050e-03 6.539041565669592715e-02 -8.524555289256001422e-02 -9.467433996574908025e-04 5.152818255217832266e-02 2.044280774166075745e-02 7.896572451474913323e-02 4.250086176601711868e-02 2.312961257183418495e-02 4.405483150968068223e-02 -8.629499256484508829e-02 7.285521831917556208e-03 -7.959109839389211238e-02 6.215680603133942215e-04 -2.214688139514092713e-02 1.390113849393657675e-01 6.366697253574327142e-02 -1.282275522722479792e-02 3.498938703181883603e-02
5.020394903554755393e-03 9.776009178344487183e-02 7.729184309386493367e-05 -9.056849426579290097e-02 -3.186658820845320039e-02 -1.095333650778618773e-01 -2.359816982670158089e-02 1.042740418982078393e-01 2.653328820884264319e-02 7.760508990828945963e-02 3.377933195289500867e-02 -1.415273328292787069e-01 4.188280860646272086e-02 -2.920014282978030881e-02 -7.314466856529885930e-02 -4.167366842856795595e-02 -7.686251139254053448e-03 5.612074306692812928e-05 7.130298751250516154e-02 -5.488343670489621157e-02 1.320351600109380685e-01 3.680803825948912589e-02 2.392209372559799818e-01 8.314763874755775816e-03 4.866080869423367039e-02 -3.453603125935237467e-02 6.674150119409191784e-02 -1.375822280775356246e-02 -1.786799614760936974e-02 2.304655661190811375e-02 4.410386289157600115e-02 4.565496031903823818e-03 -5.103880800032881138e-02 -7.726176486029187607e-02 -4.107236307787189705e-02 2.420036266658345467e-02 -9.768194244503336510e-02 -2.491277764138773165e-02 -2.050795242965400833e-01 -4.282256242950984587e-02 -2.972094604471229445e-02 -3.310346600009315271e-02 1.180011021599511149e-02 -8.282047563434774551e-02 -1.156930812283768067e-01 -5.340302227676087948e-02 -1.608863597989111226e-03 -8.544688877996911569e-02 7.263010891336858788e-02 -1.744439694749840356e-02 -5.068695771668080274e-02 3.283014301820043335e-02 -5.544262641645902878e-02 -6.092174340871498242e-03 -1.110192262943320435e-01 -1.062509148278075605e-02 -1.390818953955420822e-02 4.441640421095976315e-02 5.835542643662401663e-02 4.967849692993240446e-02 -1.217891612366198140e-02 8.031850510837372503e-02 -5.766048131992177611e-02 1.478819302815376387e-02 4.108796879921747247e-02 1.016278794093754406e-01 2.272573094769603230e-02 -1.121076494477335345e-01 4.504280748311722746e-03 -1.119873464598500519e-02 -5.197520600124318040e-03 3.174883581045993830e-02 6.937799055568859112e-03 1.392863288575967307e-01 3.892450308181371471e-02 2.983026033570036414e-02 6.610232640745396585e-03 -5.505051567484409852e-02 -5.708080355484916601e-02 -3.576355805493663248e-02 2.920519659822823355e-02 -1.090415749934013495e-01 3.442547514928599728e-02 -5.933510577474603725e-02 2.179827518930720076e-02 1.553842235694601233e-02 -8.454178909025436561e-02 -2.105422965212990979e-02 1.697357627521729195e-01 8.905804342620194172e-03 1.456337623795907199e-02 -3.002106390868692840e-02 3.254099477735096502e-02 -1.221292603503319274e-03 -6.801766837750629346e-02 -1.269606120809777666e-02 1.187881382227237367e-02 7.524017654265077737e-02 1.036346403360467600e-01 -1.512470414222124443e-02 -5.376135680264056832e-02 5.352310568424212267e-02 -6.148759782305053545e-02 -2.751325939895344144e-02 6.147731183936334942e-03 -7.740413796492082166e-02 2.008181871316277263e-04 2.915715965429497430e-02 1.026930031933863813e-01 7.306384083484082897e-05 -5.344701072212635490e-02 -6.628332257775166464e-03 5.562637014242362288e-02 3.298378840894592573e-02 -1.555845195728317813e-03 -5.903336308860597514e-02 -1.005689211315281412e-01 8.889286906488373663e-02 9.670452274835082684e-02 -7.496982673130372921e-02 -8.614556107431947662e-03 7.578417371850751372e-02 -1.730532823087747515e-02 -1.174370788906779761e-02 1.844391448116144624e-02 7.151957627366177517e-02 2.325038932108045020e-02 -1.391410482254305282e-02
6.467489885795485449e-02 -4.242531153646916103e-02 -9.819565659494945697e-02 4.171501703859540472e-02 -3.649381941508528238e-02 -1.693696084466438101e-02 6.625339864688134517e-02 6.483216353252405084e-02 6.563137830836331121e-02 -4.654587262814785520e-03 2.517670767682742960e-03 2.806326104202831045e-02 -2.786747289551761569e-02 4.368104548841137552e-02 4.208470076437228341e-02 -2.071876845813010529e-02 1.904516569655061858e-02 3.060765616785711060e-02 -6.249709576260224081e-02 1.233166667082489197e-02 -4.751020322764935161e-02 1.507845154883376837e-01 1.868438980538129207e-02 -5.525387782926154817e-02 8.375934937749639209e-02 -1.698561957049225107e-02 -1.106633028483546563e-03 -5.356417971569781000e-02 7.675124915266944015e-02 9.603869212627480847e-03 1.589263551845977035e-02 -1.047013000476129801e-01 -3.650900054957651603e-02 4.285405580855128349e-02 7.774311779262196853e-02 9.245066102320287360e-03 8.243991603417361036e-02 1.254882406207476764e-01 1.371499511836581642e-01 -2.796984556180151515e-02 8.543775473353922012e-02 -5.715262387247555670e-02 -1.097657844292009022e-01 -6.949987206015370567e-02 3.683693174018553944e-03 9.872621566321269221e-03 3.443445058225631100e-02 1.411854442412213565e-03 9.863565736144415744e-03 -1.528098416244414587e-02 3.823496486903231462e-02 -1.702964672480042629e-01 -8.121907296306339966e-03 -9.788485781035971556e-03 7.916156382623823614e-04 -3.864775928461209459e-02 -1.230591504478899256e-02 -1.359827981916126444e-02 1.117692645444687966e-02 1.467532248911201931e-02 3.538953598803176032e-02 2.318578001119478080e-02 -5.767306449490860326e-02 -6.609254103305821360e-02 5.110451248288760961e-02 -1.221350700559963726e-02 -3.099403919230819468e-02 -3.879826097093089926e-02 4.332408463355087204e-03 6.306140646019962881e-02 9.596278499008157464e-03 7.975521317336499438e-02 -2.312224033506410370e-02 4.914299934986507412e-02 -2.052103558793588398e-02 6.414429810023035416e-02 7.706734289952880956e-02 4.513757796613361573e-02 -5.029687381698180054e-02 -1.848183943433730214e-02 -1.382467882317091421e-03 1.090696595233316135e-01 2.081522677060116885e-02 -2.925993026728231430e-02 1.655208552956188156e-02 7.213853679308867076e-03 -9.491518432465535782e-02 4.181835296914571121e-02 1.078398247581221908e-01 1.333272522572575593e-02 1.158578391162149723e-01 -1.114649634144505332e-02 -2.111451642661049677e-02 -4.296625744133318603e-02 4.021075862351062777e-03 2.948749069461837832e-02 -8.674533364332423502e-03 2.083897817258051691e-02 -1.992606996277332745e-02 1.303598363896801143e-02 -1.757257219964883247e-03 1.529559344103072482e-01 -3.300456979623278553e-02 -1.012900195826714755e-01 -1.317494298630827098e-03 7.502387693326327024e-03 9.019386448571176107e-02 -6.929137976210740513e-02 -1.218813188017977694e-01 -1.517659847069457481e-02 1.149216050402519645e-01 4.156759802596921710e-02 8.308191342501593246e-02 1.546176228288474452e-01 1.366700541842205859e-03 -4.215750143824219254e-02 -2.871366677931120291e-03 4.091690166511800092e-02 1.456547592485434289e-03 -8.174157286295988256e-02 -7.721565598175515526e-04 -1.901074486208712694e-02 7.016580964572131929e-02 1.071163682623344979e-02 -1.749783896160088739e-02 -7.334234248564122649e-02 8.915475298775547234e-04 1.970694645634318842e-02
-7.201456310057482990e-02 1.115768788909158038e-01 1.267700192665672555e-03 -2.614618023897814433e-02 8.370745265164752100e-04 8.321242101818789039e-02 -1.062354554382737987e-01 8.055888701723586121e-02 8.731916429411269720e-03 -3.190692195899460376e-02 1.659253327103730677e-02 6.547555592501159982e-02 -2.891695005128771395e-02 3.306977890197629333e-02 1.128017539299758787e-01 1.747710501140788998e-03 -1.300629982226882697e-01 -3.578565432873288127e-02 7.470302328806469050e-02 -1.157189244347044815e-01 -3.815570060800620861e-02 -3.126999359572282746e-04 6.771656646009420466e-03 -4.148671375896237357e-02 -8.896311379108665096e-03 6.099300106315087150e-02 -1.548090807380557953e-02 -8.012449532362958537e-02 2.906008503539190407e-02 -1.553010378222077943e-02 -3.227802592343716193e-02 -1.502233726028757814e-02 6.140580863906670850e-02 -7.266547615550144647e-03 6.175544336406237761e-02 -1.136137350210583014e-01 -1.204803209460109797e-01 -9.690347550310129954e-02 8.901444366280510112e-02 -8.819293574560188587e-02 -5.157186520591344747e-02 -1.371821988426202496e-02 -7.162128795332264874e-02 -3.868423816245958324e-02 -2.916570569453814238e-02 8.525366132612410136e-03 2.886128317597647097e-02 -3.631048385709088888e-02 3.597391399244014173e-04 9.519494682959996068e-02 6.922300043987764107e-02 4.875085340372770776e-02 -1.303509851639931931e-02 5.084929679611896458e-03 4.464730698961946048e-02 -5.410573527572802577e-02 2.010418535434348522e-02 -1.637465876389248426e-02 1.123736698637508857e-01 -1.463443978801251370e-02 -8.822677367365630574e-02 -7.769881931809954900e-02 -5.304895611619273726e-02 6.866811650019197244e-02 -1.142141772973646607e-01 2.147936954817030938e-02 -3.522373882860157374e-02 2.788153810742454927e-02 7.096835216258971790e-03 1.390952805313467634e-02 -2.512164302529038690e-02 -4.774552715699260236e-02 9.182914495666357271e-03 1.261037762043791255e-01 -2.042973014039022560e-03 -4.391572086917092284e-03 4.200723741553887697e-02 2.651128465860710243e-02 1.188371082414290889e-02 1.571904012433889344e-02 -4.066748758364482907e-02 6.858648521594201686e-02 2.643639256719524863e-02 -6.707599922187580666e-02 -1.241004230545822949e-02 -9.159433886831828964e-02 -5.284382291144545246e-02 1.846733006724181466e-03 1.145440008531214693e-01 -3.280305118174204476e-02 2.193468568032286986e-02 2.674343305056639704e-03 -4.953727836633835951e-02 7.411755707167541618e-02 1.182255056326359521e-01 -6.239853700889507089e-03 -2.033946643928257955e-02 -6.654257862609704033e-02 -3.259583738627797045e-02 -2.710833770198370352e-02 -3.888784574398502451e-03 1.755725043588880208e-01 -7.878686800091443164e-05 -1.145259949237721481e-01 1.492132981675025130e-02 6.195473280290820367e-02 4.639150203936555882e-03 5.197217136944220356e-02 4.050272445012637057e-02 -1.094548599570512731e-01 1.607231720289761800e-02 -7.117915117945319836e-02 -8.322274290743487957e-02 9.645406259415100977e-03 1.096032960504067337e-02 -5.366399159223029375e-02 1.088755456397355603e-01 3.109428202782818160e-02 -5.352548995377570673e-02 -1.316524335228226594e-01 -2.981223981960316044e-02 -7.253923847101439136e-03 1.402390278248183686e-01 1.240632471702479180e-02 -1.017873445733290805e-01 8.538840781706541483e-02 -4.692195907495210622e-02 -4.452558524777752019e-02
-8.836231197545894867e-02 -2.039354587040944355e-01 -5.925182902105907007e-02 -4.508570737833587916e-02 -3.953843508916350669e-02 1.139657908273356557e-01 -4.381715194656803786e-02 -2.905354675180438218e-02 4.407426896432247582e-02 -4.061399282770932623e-02 -3.890752683994198879e-02 1.778855558986926211e-02 2.197511467232693069e-02 4.002252565009364188e-02 6.063074227207417011e-02 8.469121051070649386e-02 1.512331454477485078e-02 -8.018096916794165141e-02 3.403984124147111517e-02 6.402687333245465906e-02 5.122511378543911226e-02 1.108956645230685378e-01 1.862148707130004827e-02 -1.859209561470919966e-02 -9.701466053650648069e-02 -9.478509595012596378e-02 -3.657890691299672814e-02 -6.495500961771825954e-02 1.933867123788774942e-02 -4.178230834575999419e-02 3.099702927332055255e-02 -8.048278158370555935e-02 1.668468170383811955e-02 1.893121873022009932e-02 -1.203343688358559684e-02 9.345812646344851815e-02 2.753953314276715286e-03 -3.296691830395583750e-02 -3.610326192239436682e-02 -1.244684375924830361e-01 -3.425349020120607019e-02 -7.697838012108307315e-02 -3.908768482162141428e-02 4.510546230233889592e-02 1.046180561200195508e-01 -4.907780691353480496e-02 8.466442158600599732e-02 -3.303673850516755661e-02 -1.458787070860122562e-02 6.429488808307384264e-03 -2.420195544499298065e-02 4.603056056033833637e-02 -4.877889558711533124e-02 -1.155952803649106138e-02 2.752895006250719381e-02 1.133148918537593974e-01 -3.292415288189820891e-03 -4.606188816561834071e-02 4.801549370895989710e-02 4.965550591880586034e-02 -8.519957628986834716e-03 6.242011932211848774e-02 4.978643027122172521e-02 2.710128340648814554e-02 -1.089896544180053578e-01 -9.452513354700996240e-02 -8.144571403860866032e-02 -2.571426332376946199e-03 -4.313458760535428260e-02 -1.555516784217967664e-02 -1.717381061612991561e-02 1.940371666897493588e-02 -1.695147727123054405e-03 7.846438543116139586e-02 8.900250552632462536e-03 -2.874763899403405543e-02 -5.006778816479325045e-02 8.574555372426425834e-03 2.744461980981353216e-02 -4.064391470153017050e-02 -5.607996465620644633e-02 -2.961620837324287474e-03 -3.047076116069658350e-02 -1.211178556638657644e-01 -3.163086048955598278e-02 4.840099198812099213e-02 -8.986258867536560391e-02 6.447746279866359287e-02 5.283675550452925085e-02 -3.033565218670722721e-02 2.078577272977631119e-01 3.220406908549514145e-03 -1.678383553389278249e-01 2.737896888357222586e-02 7.266982276739405999e-02 -1.677163581816549023e-02 1.411706773545915242e-03 -4.861576832485953181e-02 1.677437440202463395e-02 -1.432109531339139930e-01 4.734150544938425798e-02 -4.347790520202410303e-02 -1.376260926667984552e-01 5.995553981686011641e-02 -1.408192093846959841e-02 -1.457494850894205940e-01 3.402988517630983062e-02 9.587873999478932138e-03 -1.213009726345196243e-01 1.056102505814541931e-01 -4.797221274986746692e-02 -9.076806015714365683e-02 7.840338447713635084e-02 4.153351178627595619e-02 -2.113130453676135678e-03 1.723260295048836127e-02 -9.959503899792047921e-03 -9.832035772682974628e-02 9.933383115024267684e-02 -2.328481062943861535e-02 2.832799960873853135e-02 -1.502235553403159438e-02 1.327738012808274415e-01 5.158172542619193779e-02 9.045891874044906245e-02 5.820578910724028693e-02 -1.654216358012726776e-02 -7.671240595448566846e-02
-5.084290004067908847e-02 -1.899183834950213950e-02 4.152560726614056702e-02 -8.751091870311289433e-02 -5.509134579035161738e-02 -3.749111865610640221e-02 4.482897500536540264e-02 -6.480443873557738266e-02 -3.680532858146295938e-02 7.451968770176031764e-02 -3.564090701421510077e-02 3.412762900903388436e-02 2.485552673485633829e-03 1.829943666775716085e-02 1.050251455636421888e-01 -1.044346202600810077e-02 1.355673263641964631e-02 2.543445735626630871e-02 -1.739497374960526609e-03 2.138737281848946889e-03 -5.071474580503637641e-03 -9.773046552207786952e-03 -1.015559765218371213e-01 2.858449251541770458e-02 -3.897439963680494890e-02 -1.579909407230518578e-02 -3.215712999395658328e-02 -5.151710889121098244e-03 -1.260835976014810199e-02 4.116728600276258615e-02 9.528452019919921023e-02 4.990274979895104740e-02 1.028016196802931589e-02 -2.142920570232633923e-02 -6.047214234245421732e-02 1.089075224454746499e-01 8.699772629990007791e-03 8.116011975693897262e-02 -1.041472587728978771e-01 4.331811171350016809e-02 -3.659061417776150044e-02 4.160061440615929473e-02 3.147105452095015632e-02 -5.105961255750325611e-02 -9.509965942440398723e-02 -7.819363449196324589e-02 -7.006699451142830992e-02 -7.251024179817619486e-02 1.764984799087786216e-02 1.356291888319249295e-01 -2.874026612653489063e-02 -6.904041130541523075e-02 6.674966477347599875e-03 1.732662203704968609e-02 -4.279717631451165211e-02 -8.321732542397433652e-02 1.824333085023574844e-02 -4.304878823181317038e-02 1.512262586912947460e-01 2.397748432914236297e-02 3.001761599875159628e-02 -4.868460379395118942e-02 -4.936486928478159980e-02 2.579406624531910275e-02 3.899081913012829824e-03 5.945866824262423939e-02 -5.178766213706788302e-02 -3.445021471941447228e-02 3.225162527285593134e-02 -6.713337759927378613e-03 -3.034529051476253167e-03 -4.150876459929560974e-02 3.452396469503705989e-02 4.565463736868763563e-03 4.894981293679303430e-02 8.981170773171136615e-03 -1.619272768081064101e-02 -6.168754922521976769e-02 -6.689850015488291168e-02 5.763103058861141631e-02 -6.587614116576152867e-02 2.285713151174121119e-02 -3.668283602437035634e-02 -2.539905087967958205e-02 3.831685102114578551e-02 8.295298872684610247e-02 -2.414578962506960455e-02 8.395137006813924163e-02 -1.377845643356062355e-01 -5.237327333890657438e-02 -4.365419344560819703e-03 3.044408271323016668e-02 5.313111201375798898e-02 -2.225865274521768300e-02 1.417514603801785233e-01 2.991427209923492106e-02 1.449963334212230059e-02 -5.184284225450907363e-02 -5.392300545220312519e-02 8.684381414019555490e-02 -6.884984190258054693e-02 7.342975127012412589e-03 4.600598132554515989e-03 -4.008662107391169384e-03 9.474460767992715082e-02 7.945517453050797430e-02 -7.127101609606492638e-02 -8.384625041710025428e-02 5.462454411055937126e-02 -5.409153580913322878e-02 6.091837907236618416e-02 1.358763830834533101e-02 -4.701550017855860020e-02 -1.030891973840274839e-02 2.645017094050073139e-02 -4.085904299769273218e-02 -4.276205473538146457e-04 -3.524413699904365566e-02 -2.215358774092586122e-02 -4.062024619230698852e-03 2.490036793454799766e-02 1.282708056196384984e-02 7.184144319414513535e-02 1.347872141238516952e-01 1.378820167220408052e-02 -1.416630185886976444e-02 -5.831083508716675481e-03 -8.556475459009059426e-02
-4.178107636632738542e-02 4.514466568091021065e-02 9.425368642530403823e-03 1.373711648399282038e-02 1.539170648002206876e-02 1.020428755473563138e-03 4.742288106980468293e-02 1.682772537376847274e-02 3.532405504190650608e-02 -3.082757127262399435e-02 -4.123302878960781459e-02 6.273044508012670661e-02 6.342220467052751831e-02 1.732676189946789208e-02 3.658410602823717467e-02 1.863873635193821418e-02 8.598423363168242184e-02 -3.069125430873526419e-02 2.780277990260122609e-02 -6.737523654243667004e-02 -2.454743151602256299e-02 -3.786196840390665397e-02 -5.106821872714850663e-02 -2.868026140922162390e-02 4.001522516903554400e-02 -6.188958018647831849e-02 -3.302124061896602458e-02 5.960084616777130972e-02 -5.189048005038372074e-02 4.980915251024076867e-02 9.641793116163029781e-03 1.225015680516506195e-01 -1.383555787322093313e-02 -7.381011771268523869e-02 -3.619536753714332894e-02 5.301553546938548786e-03 6.625081505419419536e-03 8.938481995455620222e-02 4.467093609413930883e-03 -5.916806749581765557e-02 -1.948258969530606080e-02 1.514692754087042514e-01 1.422799348709960152e-02 2.974951303005156714e-02 6.043458921605121548e-02 -3.910994911083492953e-02 -9.674476692593596619e-03 -1.408029864287189264e-02 -4.534693214826503171e-02 2.204587286822488543e-02 -3.284846840519098365e-02 -6.925672907335322925e-02 4.698830604352970640e-03 7.493064793608549337e-03 -5.507884962797417877e-02 6.226315287286918188e-02 -1.857850134585720125e-02 2.338853125758202575e-02 1.136986620130261694e-01 -8.234102785101543587e-02 -1.075061407625835103e-01 -4.037881089756196334e-02 3.694698550684910598e-02 -1.046461852049571095e-01 -2.586094315719822054e-02 -4.077244786889047679e-02 -1.403231645940228867e-01 1.077348811809380677e-02 8.378906526053617188e-02 -1.912055884820129670e-02 4.535399648697597402e-02 -7.047173930410348397e-02 -5.260273840263675338e-02 2.466747044378577239e-02 4.645851701269562706e-02 -5.763549353639511180e-02 -7.821307755123357505e-03 6.851111247513318181e-02 4.138585841828357204e-03 6.924781961211973202e-02 -9.862138492639315954e-03 -1.454664774792516560e-02 2.377234783519362182e-02 -5.483371924203267467e-02 1.094888963004786719e-01 4.921299211046609862e-02 2.532971624589784934e-02 4.675279907507646354e-02 4.473535050748349978e-02 1.817260830269308569e-02 1.195432397341267966e-01 3.838424047626840668e-02 3.320002592961797394e-02 -6.300303451972166791e-02 -7.109735146252450788e-02 -4.896076595386249057e-03 7.310896484776016960e-03 -4.911756981932615534e-02 6.609105482936422638e-02 -2.633950452014113472e-02 3.948558999956014448e-02 -3.495435417113143539e-02 2.412437708270722195e-02 5.196234684481516874e-02 -8.865346614579097673e-02 -1.760160794675230678e-02 -9.505946255559356850e-02 1.014688859924730430e-01 8.436681495174892798e-02 -3.393491444208618368e-02 2.332931981535005944e-02 -4.393977035411796017e-02 -9.503801964019845117e-02 -8.118696498078917245e-02 6.029110253351010161e-03 4.787145128085745077e-02 3.746403939938194698e-03 1.377244812939840309e-02 -1.032207192149569713e-01 6.637386985355309132e-02 5.577276983714657410e-02 -5.191077888863385170e-02 -7.851088938662667549e-02 -5.943240099413091976e-02 -3.031552358583924564e-02 -3.530978814186284953e-02 -1.598658413869989692e-02 4.923480315405599078e-02
7.790121795296197499e-03 2.539415919105284664e-02 9.318104347543886695e-03 7.089519855077600075e-02 8.469760939630213703e-02 -4.764321277894659895e-02 -1.487150837227415590e-01 -2.941714257444619576e-02 -6.177872880297062552e-02 -5.223624508187862947e-02 -1.636617258168134720e-02 -5.017719961235991843e-02 9.825800411118028321e-02 8.685007653049243992e-02 -2.552185623337709791e-02 -5.370391524819848744e-02 -5.654757336975758247e-02 -4.078940618576326615e-02 -5.081669537470800968e-02 -8.714095045571423892e-02 1.111196075414888490e-01 -4.589402476175299950e-03 -9.969488765223960547e-02 -1.220034851204318538e-01 -1.238633702849478296e-01 -9.212121971355010513e-03 -1.989406831757772236e-04 -3.564164269310272221e-02 3.086297953217541010e-02 -3.926984124475439708e-02 1.008895862307605112e-01 1.426303756770059931e-02 2.958526116019698574e-02 -4.301084468251392678e-02 9.486064465140899016e-02 -1.716155800510076740e-02 4.071956534819124590e-02 1.482147521049821670e-01 9.775923351054384078e-03 -1.450971126983297277e-01 -7.380830984280237206e-02 -1.531903174022730407e-01 2.133965389497730070e-02 -1.679169870623180016e-01 -9.020780343998385797e-02 -1.526915187569095611e-01 1.447137587975068085e-01 4.578525657968118834e-02 2.841248818024833325e-02 4.088441772377399835e-02 -8.143748904021735902e-02 -8.249805183446815016e-02 -2.190149466121036129e-02 2.026409274444928438e-02 -2.615944813834658253e-02 -1.104688534369598074e-01 -8.742677031267787752e-03 2.012936242152481639e-02 -3.055273677286449510e-02 4.503394680531401170e-03 -1.347016879174894322e-01 -2.362485193593736807e-02 7.727818173093894960e-02 5.751038321403695308e-02 3.618057127554707431e-01 1.286568094022586678e-02 -8.560695018938542511e-02 1.134156133584958946e-02 9.735059690896728790e-02 -1.034217839474269179e-01 -2.917179896408320441e-02 3.045474785250132030e-02 3.387000133590079703e-02 -6.493039860056112889e-02 6.703418576694898656e-02 3.256462197741484543e-02 -7.934241877870625015e-02 -9.467984289741381010e-02 -1.806572903990297588e-02 1.196931642499553528e-01 3.184620323920710899e-02 4.502472225801607691e-02 -1.428483873107875557e-01 -1.236657865071633527e-01 -5.115802668656047741e-02 -5.018313085114386313e-02 -7.028502263827442198e-02 -7.927367148709207542e-03 -1.202385441919342525e-03 -2.943010290606281470e-02 8.874330662763872364e-04 5.300758275127454705e-02 -4.449119323394568754e-02 -5.227418370708554083e-04 -4.624907178298983540e-02 1.088010571673892098e-02 -1.525324133440608167e-03 1.360693119636393993e-02 -1.986320585558514207e-01 -4.566072340420178344e-02 -3.442159730891398983e-02 -1.142675598488655381e-01 9.381129288813444544e-02 4.856880584136748571e-03 7.430552149394099859e-02 5.862698116123904457e-02 -2.217958888184670338e-02 -3.801816690246615470e-03 1.901155365001746048e-02 -2.150653727606546134e-02 3.560990134427067383e-02 5.951343454199592431e-02 1.648596144263681298e-02 8.775577153543365205e-02 1.580572792912922006e-02 -4.727510176121463292e-02 -3.858871397069385534e-02 -6.639662567918545866e-02 2.882785538075389661e-02 -1.479360182771617682e-01 5.268556260793630375e-02 -1.173278593916533830e-01 -1.652150385719881598e-01 5.737246414924360854e-02 2.394291247757266566e-02 8.221743431295315541e-03 -4.074727058822524839e-02 -7.331023972379908937e-02
1.353917912925197906e-02 1.152065965127882508e-01 -3.002928269894349772e-02 5.331334498603957500e-02 5.445784992832330973e-02 -4.633792816907986861e-02 -5.960520737112653261e-02 4.835032382943504209e-02 5.032248704384828519e-02 1.247528943428057209e-02 1.655045219864256789e-02 -3.173935756581335033e-02 7.007206443979872856e-02 3.562694551609504878e-02 8.595277322583387558e-02 -4.153265693550551446e-02 -1.649721363240045507e-02 4.696417223991505158e-02 -1.140061391690705972e-01 -6.349177571944859648e-03 1.607477081139472297e-01 -7.287324598691465039e-02 1.876158224927126916e-01 1.868626703387872914e-02 -1.103058320474628075e-02 -9.706036488526256778e-02 -5.943125204089222402e-02 6.232320569440047420e-02 -9.755305304693420157e-04 -3.524808175375972880e-02 6.772317033564378974e-02 -2.230520908281129547e-02 8.627514506623132351e-02 8.597976896751564901e-02 5.636175648322639536e-02 1.414841262245211846e-02 -1.525646693257003694e-01 -1.125735088008725515e-01 1.522338754551624262e-01 -9.007184253400662977e-03 -2.095651516820988200e-02 7.189836013325054398e-02 1.538098861814045197e-02 1.960859235939998307e-02 1.020871381131687947e-02 2.587809081939667841e-02 -4.249880904793398168e-02 -5.653014964413599630e-02 -2.160455104355501338e-02 -4.006815863717710577e-03 -5.028975356774531558e-02 3.616836816047417497e-02 6.740993576416447371e-03 -8.152030890886747400e-03 4.039489928940669106e-02 -8.622889927588536785e-02 -5.339678526981934958e-02 4.197876557426790528e-02 -9.998642133962837297e-02 -1.043466150381545804e-01 -4.286930824753847069e-02 -3.808719001106961044e-02 -6.785165624106616333e-02 -7.333462279828226182e-02 1.204877949216025430e-02 3.999571495847079744e-02 -1.567178761095751327e-02 -2.343226334657686968e-02 -4.745442511166401978e-02 1.066822787625907980e-02 -1.529706636140916627e-02 -2.760279531427701008e-02 1.170479959377291809e-02 -9.005956312432038258e-02 2.058573836415429625e-02 -8.193277082643879439e-02 -5.095364979656355833e-03 1.486958241598342612e-01 1.486956071986550963e-02 -3.625348216374071203e-02 6.927371506126363265e-02 1.025416890547905108e-01 7.561977680611624286e-02 -5.287655900393949115e-02 -1.191130231307469325e-02 7.607134949324791118e-02 1.616721405675752843e-02 1.092931473616919405e-02 1.149275119036379800e-01 4.437859636797862432e-03 2.816470988492811647e-02 3.507549852864585288e-02 1.608452590278760391e-02 -2.721444414249862484e-02 1.317007300994964270e-01 1.519912406851471783e-03 -2.342672512729830625e-02 -1.134919298691671324e-01 -9.289038262926778422e-02 1.358199496618661684e-01 -1.158645287648438910e-01 -1.647561587881749279e-01 7.285985482818130299e-02 3.116517692116421365e-02 -7.581005194517861923e-02 -1.324295270991754092e-01 -5.679300153312091815e-02 4.986605821368760016e-02 -8.330028057521418616e-02 -6.495878194656161397e-02 8.623819326358651491e-03 -4.169791053292990629e-02 9.745085871391298560e-02 1.155658695470289932e-01 -1.110924509634820569e-02 -2.150805926478708829e-01 1.816884324252118418e-02 -2.079100136431540069e-02 -3.202560007686194865e-02 7.710766746008530792e-02 -4.014472741487118065e-03 2.463924390337638923e-02 3.808728327580917367e-02 8.133005100040580082e-02 -3.757089077181031272e-02 -1.415135077611435199e-01 -4.275994351422329753e-02 5.761203137012190639e-02
-2.896732576323620550e-02 -5.976002009850868435e-02 -8.663743163713244488e-02 3.831771411751785233e-02 1.504389603584528785e-03 -1.150911162007924038e-02 -1.869908624602062142e-01 1.628393119033932565e-02 -7.297512751274556897e-02 9.103522545893963369e-02 -1.475454584537672954e-02 -5.795856637811911544e-02 3.899701263979211269e-02 -4.508628469017395696e-02 -3.042329306032003425e-02 -1.034549715138358833e-01 7.070015357734429559e-03 2.043316475194779241e-02 3.406037460059097716e-02 -1.569414727645087881e-01 4.236838791374540614e-02 5.669642845046439505e-02 1.388048027777946114e-01 -3.312215806320100570e-02 -9.364718900043685068e-02 -8.698371426038770116e-03 1.341915566393398103e-02 -2.674167883510965640e-02 -3.420473942873695355e-02 -6.047221457903118741e-02 1.325802947135128022e-02 3.361005381390762270e-02 7.342555666060439357e-02 8.218612262907248195e-03 -9.680635675339508209e-03 -7.239193189503062564e-02 9.865091606814119229e-03 -7.563005693396761264e-02 7.553191793810724863e-02 2.655994901186269075e-02 -2.478579063846279157e-02 2.981063082453781071e-02 -8.373327975477500018e-02 -7.032046345016805533e-02 -7.767459665609423303e-02 -4.041102306686841089e-02 -1.507549761830342394e-01 -5.292506877043200858e-02 -5.988984690436000013e-02 2.451106892771343082e-02 -4.922985767980721933e-02 3.128663385346401593e-02 3.553630829268086821e-02 3.008068074781562740e-02 1.028291788470770685e-01 3.641482524290756001e-02 5.008850767960185135e-02 -5.967612709985598007e-02 -3.741700083208093081e-02 4.070066100925717745e-02 -4.085632481698506929e-02 -8.049102132816866872e-02 3.698283585737024114e-03 -4.549719779398612302e-02 -1.238329585654238292e-02 -9.723207739182757048e-02 1.257307558742664089e-01 -9.068773348182639429e-03 6.539688877622507057e-02 1.361747731092476099e-01 2.002005877055673330e-02 -3.055056752132448428e-02 1.104929438918900858e-02 2.699126499160119444e-02 -2.714356164550388653e-02 -2.675657735800108031e-02 1.532523888915342941e-02 -3.662658046270506756e-02 1.500439943230293463e-02 -1.564944141081002493e-02 -2.913900186915270585e-02 7.699870801760094231e-03 2.489539228065409948e-02 8.402351661637574853e-02 7.727303051480235996e-02 -5.725670188430780072e-03 3.103899659211509232e-02 3.136778873412280483e-02 -1.029435327805073852e-01 -2.420907988556495610e-02 -4.185584450872509299e-02 -2.365133110353683302e-02 1.715092448737017827e-01 -6.666091774026317029e-02 4.928968609256453165e-02 2.699876551468302979e-02 -3.967998947253587733e-02 -3.835899116295581057e-02 -7.554952324542538178e-02 6.128007492306901177e-04 2.293056469848596401e-02 8.301043365363326709e-02 -9.725396935989601144e-02 7.139406663495280470e-02 -4.085927784254820422e-02 -1.505525278939875700e-01 -7.091286849742259313e-02 -1.812463149105188465e-01 1.834762481782308344e-02 5.141843905047819782e-03 9.819637440304557555e-03 1.359357986687349529e-01 4.697619211210776399e-03 4.738445154861845032e-02 2.900179036835174792e-03 1.326786448839376298e-01 -1.196769525695187131e-01 -5.872989805023634546e-02 -1.082604525632128861e-01 1.181775129658473034e-01 1.879587228658052139e-02 -9.825820088777822980e-02 -4.636746914329467617e-02 -4.022112563067591073e-02 -3.048775411328767670e-02 7.213375827179897837e-02 -1.436968110617121465e-02 1.607635817248896301e-02
-7.481073101841741180e-02 -6.385903771556139356e-03 -1.363567152479709145e-02 -3.600308726855474400e-02 1.004655169936012615e-02 -8.651937293758826808e-02 -2.347698497937963230e-02 -3.226148824684818561e-02 -5.725681613902753458e-02 6.535006973156895493e-02 -2.952455099317583768e-03 -7.874573073582166738e-02 -3.721755956263903681e-02 8.100238718205181321e-02 -1.695378315404927685e-02 -2.593136614309319785e-02 -6.132251755341827648e-02 4.242996159024092773e-02 5.890923628684784086e-02 -5.968351218498160055e-02 -7.060627617725472038e-02 1.263608078913865951e-01 1.413817722189738592e-02 6.150765306289239509e-02 -1.287250672679892127e-01 3.057069549039236316e-03 -8.163368327903560914e-03 7.137555335118694888e-02 4.840891684321326632e-02 9.955315680058944225e-03 1.746044053038309576e-02 -1.543770429760458474e-01 5.534552869122189023e-02 6.013669668502290289e-02 1.370781968231073733e-01 6.236792805071483987e-03 -3.809167939270144410e-02 -5.052755153678972072e-02 -8.066138479326875887e-02 -3.505096354302030676e-02 -5.711697994406910589e-02 -1.025930144135022010e-01 -6.219415524336517620e-02 -7.823163787228806787e-02 1.817035937326857628e-02 -5.760689549423771150e-02 1.042598511305641573e-01 -9.632118078108425907e-02 -3.360439150408161407e-02 -3.390206115799085373e-02 2.272904763315510002e-02 3.678362102662040278e-02 4.610140773999902436e-02 -6.847303628415735144e-02 5.959214650128105001e-02 1.191487716466323871e-01 -9.597423202591692445e-03 2.675941688260879969e-02 1.074107936567443300e-01 -1.595978097932872555e-02 -6.665849911889203117e-02 9.858669808156744763e-02 -2.944010334959761693e-02 -3.912165832268416944e-03 -1.126491815056918505e-01 9.303125121592627222e-02 -4.696413098106409778e-02 -5.884289368995284514e-02 -8.502895077796053525e-02 1.858478577549569355e-01 -2.206018191067739276e-02 -1.321083236879800824e-02 9.840871562186302018e-03 6.270323342613899620e-02 7.075324329798222955e-02 4.552181868177963137e-02 -8.596404720010318926e-03 5.071480381461318521e-02 -3.006046058395165158e-02 9.179511740615094173e-02 2.110418013085856720e-02 -5.959882189385094786e-02 -1.017300278375934952e-01 1.931158634090719348e-02 4.900812920349965907e-02 1.208715928260287523e-02 -2.008300101412576963e-02 1.855919150664084999e-02 -3.553102698229166582e-03 -8.557733120215166907e-04 2.724457932549599181e-03 -7.846793735102168543e-02 1.430931049145399425e-01 -2.211439085411514432e-02 -1.804359470227764606e-01 -7.308165708336614164e-02 -1.623250736266028046e-02 5.670667319868103601e-02 1.162324316905478105e-01 5.715791827550786852e-02 -2.864166219671712352e-02 -1.981310341423538901e-01 1.945835520513319525e-02 3.983880897187928177e-02 7.790780870838664995e-02 3.326478974241374453e-02 4.655707800781203054e-02 -7.943549035584123591e-03 -1.092941265534897941e-02 -8.897511115118689196e-02 -6.594446023786756927e-02 1.054967487305710494e-01 7.943455731834649092e-02 -6.181218549397793360e-02 7.342663492624167294e-03 -5.124001320009908406e-02 -2.043766482353143871e-02 -9.480088052451164649e-02 -9.330414625154163921e-02 5.411907181140359485e-02 6.750301692290816558e-02 -4.054963819349877152e-02 -4.817780967480746884e-02 -4.822048985604594773e-02 1.177676179277224039e-01 -6.830122731318828515e-03 -6.857893332645626644e-03 -1.342739395822758197e-01
3.070252369153366259e-02 5.423143212250967730e-03 1.040378234727394775e-02 9.273043560193868634e-03 -2.578154730499419151e-02 8.275116276823198114e-02 5.132245949625416359e-02 1.751378603104006976e-02 -1.043497997289383048e-04 -4.956670036590450981e-03 -2.441164704023339807e-02 -2.490728239361783905e-02 -1.336118387480087627e-02 -1.958904158208663645e-03 -6.683979351840070582e-02 1.619704906832307792e-02 9.472889527858395844e-03 3.673768212729731919e-02 -1.750007032471138880e-03 -6.676409086122689351e-02 2.977083388042879586e-02 5.568899002638637991e-02 2.752003210707819683e-02 -1.507526428916949011e-02 5.497160946410987320e-02 -7.821182649934663167e-02 -8.274483632602637473e-02 2.085796898989786957e-02 -5.241228008741750238e-02 1.336945715392704945e-02 8.024058662822937393e-02 1.410563315639697946e-01 5.066713553405708531e-02 1.613120681855102490e-01 -4.385712560336390425e-02 3.467748534663384063e-02 4.646084214769991699e-02 2.623110883589835698e-02 -3.448047635751476103e-01 1.634210089021336659e-02 1.245105359966327541e-01 3.957070410675269517e-02 3.664633541447283316e-03 -4.952019153045619793e-02 -1.977812191675129005e-01 -7.584268879753408577e-02 4.655453171968367693e-02 2.770444850662847486e-02 6.723817104354221086e-02 -1.307118142584116072e-01 -6.185496361032495616e-02 -8.522756889529697552e-03 -5.000003411620324717e-02 -1.045262238758261873e-02 -2.068605316636022012e-02 1.556798991647115049e-01 3.392237834426659483e-03 3.857834195255797904e-02 -8.431515536569861302e-02 8.175295717876403245e-02 -1.033226798417473113e-01 -4.855232478510426719e-02 2.610306605253719797e-02 8.007236556239616387e-02 -2.403596287540477397e-02 6.493318410330036969e-03 -1.021341736346017964e-01 -4.374579258623784855e-02 2.161059628473135930e-01 4.343437221849557467e-02 -4.795565352981009943e-02 -3.058260309317261186e-02 -5.525603804467984874e-03 -1.260316302605562211e-01 -4.981694766882880515e-02 6.766329313875390702e-03 -9.770013196477828066e-03 9.748340115814470297e-02 2.625314953204630278e-02 6.859937136183789051e-03 -8.434007855648602628e-03 6.368710927398817112e-02 -3.603922952668563162e-02 -3.909438784487988261e-02 2.864423792761547349e-02 -9.239222860401800907e-02 1.081977525837551565e-02 -5.692852306971033644e-02 -1.041012705336657462e-01 -6.470407686150748960e-02 2.483732416840329568e-02 5.160772281441781961e-02 5.356913038713033426e-02 4.826026667395462433e-02 -5.914787183552565331e-02 -1.904763490062691064e-02 3.387296020065025393e-02 -3.285706892569391357e-02 1.955795090113219420e-02 -9.184498859731623707e-03 -3.387214028619883743e-02 5.038557915982933705e-02 9.402013086720016621e-02 2.201640940747269168e-02 4.477349024235161012e-02 3.939428524887887695e-02 -8.336116243254237251e-03 6.454639730045480528e-02 7.332713841341108318e-02 5.223931365701777602e-02 4.568188872511942666e-02 -5.113571655644049557e-02 3.951906525618616162e-03 8.038050546592106355e-03 -5.657245994785503954e-03 -9.771580007354541131e-02 9.792587618701589780e-02 1.154777702808499618e-01 3.423096922006287068e-02 4.424890953062418641e-02 -5.673883045150061866e-02 -3.729837064095055388e-02 2.351720306240400252e-02 2.815518641942831718e-02 2.002231840490158524e-02 9.110757289636067791e-02 -2.667367051713047388e-02 4.061863464055363165e-02
5.998892104157938637e-02 -1.036173635759940620e-01 -1.014274467336998969e-01 2.417689477983416945e-03 3.297084044347461940e-02 -1.485274891097506170e-02 -6.864257779865073905e-02 2.916213223154467266e-02 6.617429325353003933e-02 -9.848211534756234897e-02 5.390517107569388344e-02 -6.883830914932527467e-02 -4.842568477153054440e-02 -9.211463861768463260e-04 1.977480904817212684e-02 1.923863685455814640e-02 -3.556026144190697208e-02 -3.100140744128334399e-03 3.508794086611879970e-02 7.237202303869723352e-02 5.592422172245432171e-02 -5.629822021564238194e-02 -8.570946822482161664e-02 2.141873710881212617e-02 -7.987680842908780054e-02 3.935923717719489595e-02 1.536933848169116067e-02 -9.557275817013818203e-03 3.186603014807665862e-02 -1.926468663812152746e-02 -1.511346423924072868e-01 -3.154316748437253209e-02 7.583622437740178412e-02 3.925987106403207132e-03 8.239529281300378427e-02 -1.094300274211957615e-02 6.656868236058803394e-03 3.769030469986840021e-02 -6.060351501942424363e-02 2.001242861792149746e-02 -3.352117554318838344e-02 2.977083612116311270e-02 4.015134222666404823e-02 -9.537742715330985513e-03 -6.526662396929926169e-02 8.979011165183718723e-02 -6.921624129174464013e-02 -2.361350610483368626e-02 -2.967789982516845851e-02 -1.835118667652052213e-02 -1.779501039642483046e-02 1.047673043612357413e-01 4.349379341210585226e-02 -6.514807717020215660e-02 5.153129317652043601e-02 -3.010298458287520573e-02 -8.126105936435977159e-03 5.771848408061189956e-02 6.398341726945509962e-03 -1.244931951672164153e-02 -4.370112032611293135e-02 -1.886425413913452726e-02 -1.160469099414303956e-01 8.965819862838439458e-02 1.920858943706092725e-02 -7.835315027222211626e-02 -6.830623329165499968e-02 6.438751907144557585e-02 1.439457551977254557e-01 8.498574381060179650e-02 -1.516088095813638952e-02 -1.336358069902674472e-01 4.899613513387331490e-03 -1.549290765548716198e-01 3.833855740172431581e-02 -1.081666670170359189e-02 -2.437336450170143887e-02 1.449534915160483328e-01 -8.090559270018053695e-02 7.397908840088694704e-02 6.816140621233547636e-02 -1.809248643214906443e-02 7.442437822360660482e-02 -8.541822813833792327e-02 2.528847452144005956e-02 1.052879069272547171e-03 1.097552793351224375e-02 4.997343834281888636e-02 -4.895464541692699095e-02 2.155248144479459879e-02 1.822480735433930701e-02 -3.503190477523564217e-02 -5.752163705501009416e-03 7.745962024853060568e-02 5.652522057809055561e-02 -7.656153659683259671e-02 -3.160527280670435979e-02 -5.176626662916010424e-02 3.052215532296654113e-02 4.703111049115612369e-02 -3.707295274406690461e-02 -2.180803674875934350e-01 3.464852500030063398e-02 -1.537491338191513887e-02 -2.252626348403684656e-02 2.523539022067670598e-02 5.037839697520828802e-02 -7.512381255052195950e-02 4.535889859520444989e-02 2.670009514779111623e-02 4.730303476633977017e-03 -1.735101529946595292e-02 8.076941997686007402e-02 8.340490389804355864e-02 -3.098459391889196723e-02 1.340977461153420314e-01 -2.978353178029835222e-02 1.186085434159466490e-01 -3.304683959134137317e-02 -9.080337231962364031e-02 6.376137830559368280e-02 -1.097293087316913128e-02 -5.353815264486654762e-02 1.069561770528412552e-02 -2.715044131198712449e-02 1.581059261997514939e-02 -4.482899548901067566e-02 -1.001598664962212795e-02
