-8.878932860011058692e-02
3.141928141839130384e-01
-1.847419706592962896e-01
5.488204243575873359e-02
3.253311707863403013e-02
-9.650581028242232184e-01
-3.648094464416681143e-02
-3.018449936155266911e-01
-4.270083573851187198e-01
3.951246489600113154e-02
-8.869219282533400417e-01
1.259650444505507061e-01
1.275310189318396570e-01
6.951540798012309508e-02
7.676896735072914757e-02
8.776366703938513758e-02
1.237685881424222811e-01
6.526043160033725976e-02
-1.353964730902758595e-01
-8.009052611527248122e-02
1.535246864857549021e-01
9.966411877981613820e-02
1.930694480500172450e-01
-6.454513077895244200e-01
-1.675450589029899573e-01
1.991021388345496079e-01
-6.571223125367822160e-01
-1.917315348076636689e-03
-1.695461693111127155e-01
3.900267488311730535e-01
8.311193927099536083e-02
-9.072070275888813318e-02
-1.810619033195870753e-01
-1.662348715579940184e-01
1.298008919608524547e-01
-3.602884119782160388e-01
-1.038473822412751546e-01
2.073639137356686757e-01
-6.702268821972826029e-02
5.356570761826653926e-02
4.865304981909937543e-01
1.530348640496320516e-02
-1.982635555186592902e-01
2.162788204081300333e-02
5.356359376700703390e-02
-6.441784701082917119e-02
1.123397777178322787e+00
-3.377069476080556965e-01
1.161790839453010760e-01
1.100305844091324509e-01
-9.612347635785292721e-02
1.285959242364140553e-01
-1.789995167483811878e-01
9.577203439077492941e-01
-1.061679335045555561e-01
-1.130343090616780094e-01
3.543897724425894569e-01
1.651082944271005104e-01
-7.724128027964538568e-01
1.978890893053717598e-02
1.602188000446722882e-01
1.478676276599313333e-01
-8.407938599114507250e-01
-1.999323843704305936e-01
1.049927846203995915e-02
-6.882944626013266787e-02
-7.335303147659665013e-02
2.821491416464051993e-01
-8.142486849901334200e-02
3.566140352921569057e-01
2.972948840743023791e-01
5.583803618613922271e-02
-3.449759918173230244e-01
1.398883428050990974e-01
5.040369775203710212e-01
-1.212028026519389456e-01
-1.736823766939470659e-01
-4.818052732573587654e-02
1.426036351501444310e-01
-4.326912305270810832e-02
4.275229021702400822e-01
1.155725411299337452e-01
-5.910882708422823262e-01
4.375332039508764148e-02
1.133902703572591680e-01
-4.248598074109751765e-01
8.554010206218271017e-02
3.894470432088097955e-01
9.234107507604973064e-02
3.262470562427320919e-01
-2.432098159342603316e-01
-6.696647401040894954e-02
1.634771628276926458e-02
-1.585073286646559998e-01
2.071859246008839889e-02
-2.289467814068873730e-01
3.553978083715393643e-02
3.402581942131369802e-02
-2.601301549325040971e-02
4.063363015188721228e-01
-1.178299254577747229e-01
2.235751504414247581e-01
2.961770360596790996e-02
-3.377662885312595394e-03
-3.651395220833755784e-02
4.632505508677359218e-02
2.368885362392498042e-02
-1.278316394224577601e-01
-4.881365821923459580e-01
-6.871064226564971289e-01
5.341168617533428170e-02
-1.025479736315496188e-01
4.296679898937200703e-01
9.920585850407871442e-01
-1.549935804197391520e-01
4.289865081341647651e-02
-5.571400552384720567e-02
-3.532285209014609517e-01
6.137010373390814483e-02
4.475759349479164206e-01
2.334070157308785198e-01
-5.592765733412349838e-02
-1.614691250243584397e+00
2.567592441879334997e-01
-5.885455616656670025e-02
1.221557946598450517e-03
-9.238747942245741085e-02
-2.063634635484627167e-01
