-5.813398352416929843e-02
-9.038972388218168008e-02
1.360791983180075493e-01
-3.168493670988599409e-02
-2.239952401617623795e-02
-3.911393926305614666e-02
9.991454780500884369e-02
-2.834454945843676438e-02
-6.949415170009826115e-03
-2.026031421077395187e-02
-1.061792931383206684e-01
-8.029631415592894395e-02
1.001926127533957628e-01
-1.074597619644982460e-01
5.084602653873022265e-02
-8.583794964362216617e-02
1.165640462563426599e-01
9.412678668256073411e-02
8.676315506959655921e-02
-1.488702238303338810e-01
1.411574349779364662e-02
2.776198372379423684e-02
-6.281300997908915301e-03
5.156383725472989121e-02
1.052743671863887957e-03
-1.326624922338283039e-02
-1.840846631057953264e-02
4.956619442294408345e-02
-5.386705361453312385e-02
-2.048559135815766069e-02
-4.074454006496808223e-03
6.440055339021594737e-03
1.405970502881329597e-02
-6.958208032722408565e-02
2.401847708473264092e-02
-1.990282398468456310e-02
4.157934965032693275e-02
-1.112885098812371604e-01
-1.052471555183560198e-01
1.446962722464515197e-02
-1.970260507816903872e-02
-5.150212499215002515e-02
-3.349448806783636434e-02
9.595900845363858345e-02
-1.848959813779568404e-02
-2.026821731791596248e-02
-4.289219900284438336e-02
-4.999779386500158990e-02
-3.585311938396174708e-02
-1.201183968735980608e-02
7.714163102936179295e-02
2.036209380036807168e-02
8.845522941439176723e-02
-4.620083736774156791e-02
5.911558812433877902e-02
-3.609726263336077851e-02
-7.027541111242453786e-02
-9.833997179866654781e-02
1.019281792445287660e-01
1.327135865528400287e-02
-5.210255227406897574e-03
-7.153339473436082230e-02
6.760661979730031579e-02
6.899000522723151840e-02
