-3.418297562396069994e-02 4.311087423143499658e-02 -2.119522252148624553e-01 -1.158040606583844445e-01 -7.958384174346228024e-02 6.336139304510964021e-02 -6.882457004607003825e-02 -9.186931283970546647e-02 6.753926874326383889e-02 -8.552190496041092715e-02 -2.787689191379875975e-02 -4.793813079844805314e-03 8.288520532359391901e-02 -1.052483930629477399e-01 7.892518661334702035e-02 3.529203786352418104e-02 3.955771138710457296e-02 3.594465526886365947e-02 -1.482841443230318024e-01 -5.083069557755374307e-02 -7.058770989101252613e-02 -4.014308284651467440e-02 3.200145089645840130e-02 7.685907558028787223e-02 7.962600546635777155e-02 2.006623932157250434e-01 -6.057326866259954423e-02 1.452427374457655209e-05 3.554344780509972879e-02 -1.403761600206586690e-01 7.121027087708557690e-02 5.717528741627956462e-02 -8.493371681907651433e-03 8.248763343831951034e-02 9.899346726822784090e-03 1.408693840041022605e-01 -1.124291638673683008e-01 -4.432332539099775176e-02 5.881069208047749047e-02 1.603358321598633840e-01 -8.526799618103060585e-02 -1.800385320206330034e-02 -9.762948409470662003e-02 2.199945936616744258e-03 8.022327784704033626e-03 4.922171879380417975e-02 -6.600400549365093017e-02 -7.016110082336080023e-02 -1.671947578512077703e-01 1.387147669853275311e-01 -1.381974266527451201e-01 -1.126832155610616865e-01 8.918537068836515300e-03 -2.800953850937163564e-02 5.372491676708551767e-01 -1.197386948101541726e-01 7.941265054993369710e-02 6.749316620683720735e-02 1.326865051909944734e-02 -2.775243906175243191e-01 -7.435158231881927593e-02 -7.970800530230894021e-02 7.360972839989755184e-03 -1.160991858445021563e-01
6.738734070221448491e-02 -1.033281355469605478e-01 1.360365924904305968e-01 9.376236712309451993e-02 -2.674044403002974468e-02 -1.540674224062530684e-01 8.777833497794634843e-02 -2.729226660195483573e-02 -4.731475499521034522e-02 -9.420622850784358959e-02 1.042898972583771455e-01 -4.674755509405320586e-02 7.937030824504417992e-02 -5.663801114276909542e-03 -8.565670290671006937e-02 4.791572301951998319e-02 -1.325772131931333281e-02 -1.421915339294790338e-02 -8.494110535129129058e-02 1.513818950047679524e-03 -1.248154692680400468e-01 5.942555322271432516e-02 4.447940936207150052e-03 -4.316219278672803888e-02 7.808267994100552556e-02 -5.801488787949122400e-02 -2.362270406349207055e-02 -5.286281876082414392e-03 4.161433441026621272e-02 6.119671695918273147e-02 -5.415062543726292116e-02 8.939216343134380460e-02 -7.391315615052392041e-02 -5.949036709595798000e-02 2.927489073959920959e-02 6.533843450696119604e-02 7.719335005230766600e-02 -3.051408043894773478e-02 5.940763733971084898e-02 -1.615838110709572895e-01 4.059950504811032923e-02 -4.831877325728888006e-02 5.162854726356201629e-02 9.007311915024058743e-03 6.177766469724414733e-02 -6.076659113238858101e-02 -1.257430186913663372e-01 5.957583679016113798e-02 2.409379377295429309e-02 -6.529739002033314865e-02 7.675157493053613722e-02 -1.198211433575824443e-02 -4.538796354474589068e-02 -4.629471207160732599e-02 3.146322607327330795e-02 9.427901492352657592e-03 -2.166019241561873213e-02 5.065626752757316359e-02 1.118189198254567612e-01 3.015158416477008163e-02 4.022299842191540825e-02 -1.162555648849009637e-01 1.962654376135308104e-02 7.040730654957882972e-02
3.105896763896286161e-02 -6.602035237951250912e-02 4.178882598136358234e-02 -7.993851398239144868e-02 3.600806643126466117e-02 1.275304268934596419e-01 8.509338722690175383e-02 6.361941852215943771e-02 1.691793004275150489e-02 -7.149004189786796470e-02 -5.767286868189260007e-02 3.346009274314915016e-02 1.143361460931392043e-01 7.486254579641420104e-02 -6.049331579276705229e-02 1.892602457751118867e-03 -9.805061783007421039e-02 -6.327462395432320585e-02 -1.622301034782208662e-01 8.462929595478617395e-02 -1.179962060362762105e-01 -2.829618583092323447e-02 -1.193244801600712619e-02 -7.197380823217328083e-02 1.504530031568314906e-02 -8.769862843346505621e-02 -2.846243909008579556e-02 -8.681310488288347671e-02 3.741013114187299871e-02 6.191916406382699106e-02 -6.130662452727722589e-02 8.664778939084838427e-02 -2.988604988902366505e-02 -4.992964468247800686e-02 1.255107005198132127e-02 -6.486373596762057270e-02 4.498889583912268897e-02 6.721035918429857370e-02 2.691598912828166434e-02 -3.704432412343675596e-01 -4.738898889132174552e-02 -1.897097295749105043e-03 -1.132745574097611813e-01 3.683254095885914875e-02 6.643418917741943097e-02 4.274437433332679143e-02 2.312358592016779471e-02 1.616957077881883698e-02 -1.044040449558813338e-01 1.014876648894291467e-01 -2.990655091768117113e-02 4.085689806956943615e-02 3.673023133889208314e-02 7.226992908051824149e-02 3.544814697261869374e-01 1.488793208225159094e-03 1.047068283734047499e-02 1.940827915026835382e-02 7.517770994625509740e-02 -5.145836789402227773e-02 -2.456778561908144753e-02 -1.486996312692475120e-01 1.643612008926043366e-01 7.883769789586234089e-02
-5.241628493476576528e-02 -1.292331642382787450e-02 2.012400580723360324e-02 8.338485695935474173e-02 2.303214381849057885e-02 -3.248188585438916420e-01 -1.194712808894758801e-03 -2.183124323040725248e-02 -2.927949439355692629e-02 1.279124026013050697e-01 -6.280561576781586164e-02 9.877504471939165757e-04 -3.921569427090959570e-02 -3.936924445339674145e-02 -1.114530191683054949e-01 -1.363094570119511434e-02 7.307646599230642470e-02 -1.670721303658172577e-02 8.012755040462063438e-02 1.065661757933984155e-01 2.555541745820481478e-03 -9.442998751347736475e-02 -5.005880890907012798e-02 2.800269169311494014e-02 -3.491566375515216952e-02 -1.486306508625114854e-03 4.366448275165787235e-02 -6.409543613800404438e-02 5.704577306554217079e-04 3.623999203172261624e-02 8.490440040728404469e-02 3.175565150625064142e-02 5.375088606910142369e-02 -8.028131991579588733e-02 -4.496663607669001972e-02 1.917303773360152022e-02 7.429493705668890891e-02 3.892809619279071626e-02 -5.953028198964665021e-03 -1.280601421326888756e-01 -3.439553335988261573e-02 -5.011168364645181977e-02 -1.002382281910552467e-02 -5.953864036483753203e-02 -5.592522322845971949e-02 -1.382537270459725451e-02 3.464953137004199435e-02 -6.681361563851977159e-02 5.888383165261916463e-02 2.467386056385939205e-02 1.394156201186205202e-01 7.197005736560234401e-02 -2.488557154533488358e-02 -3.784166426065369015e-02 2.611095387528349354e-01 3.299198445009959152e-02 -1.574228042839504182e-01 2.531444572281762659e-02 -6.881104568085927298e-02 8.463928028044166718e-02 1.608662207370806785e-01 -1.006956742745988426e-01 -9.395340653393469132e-02 -6.930361903836931847e-02
3.974867654229062575e-02 -5.731794915166281423e-02 1.989478216552150180e-01 4.064099975691282118e-02 -4.070741020024370993e-02 -3.375147419642776092e-01 1.850536474103520873e-02 8.657914211997299117e-03 2.346079607912407439e-02 3.831384464985304605e-02 1.068564761829960373e-04 -7.243715970570224760e-02 -1.183075598009067407e-03 -1.830273595257697963e-02 5.448785773328909676e-02 -1.281859060773629481e-02 1.498432422179840351e-01 2.440251717754270827e-02 6.623255439556849367e-02 -1.253849188046380139e-02 5.118619858185601695e-02 -1.112902446175403764e-01 5.393979946643345791e-02 5.630724918617831254e-02 -1.807123746257013538e-02 3.123532719101209665e-01 3.717420590246800494e-02 5.099890741691186918e-03 -1.524187694384024003e-02 -4.284633247217426583e-02 -2.072491766117455850e-02 3.358252742126389273e-02 -6.022339603614488071e-03 -3.631035166576277590e-02 -1.241619637218527999e-01 1.740108295188527443e-01 -1.551008431571766159e-03 -6.100418017005750787e-02 6.116010972937902662e-02 -3.418056419379938982e-02 -2.788191813202536146e-02 -5.628039301060472344e-02 -6.106957338610835215e-04 -7.394784970243824251e-02 -8.188521208484639269e-02 1.296412373657040151e-01 -1.434348429894580779e-01 -9.115690224662266472e-02 -4.834658555536671537e-02 -4.766791672633720334e-02 1.336851379256772943e-01 4.612673449775706556e-03 3.840092197250123598e-03 4.108802496000035082e-02 -4.996846635048340923e-01 1.161434540476368044e-01 -6.561515514503626911e-02 9.451754566781250810e-02 4.797992254058665307e-02 1.353843666082396591e-01 3.862720666946603543e-02 -9.308950510097831199e-02 2.300264969675620136e-02 7.131200371714847830e-02
-6.173684076810139615e-02 -6.764471960283749419e-02 -8.796330440790792182e-02 -2.813572816171374183e-02 -1.811684178853446500e-02 1.584652194323833974e-01 4.258964776407189040e-02 4.492193551908197496e-02 1.091298500673107824e-01 8.907567782885848773e-02 -9.683104097885315842e-03 2.244042151781370023e-02 -4.987046421561836668e-02 -1.949754634097800032e-02 1.104431021539973917e-03 3.087708007045990646e-02 -1.321684015296706594e-01 -4.394278549410166740e-02 -1.201737330337622955e-03 -9.475425633716856588e-02 3.565878482704458452e-02 6.049601089555182998e-02 7.424054072583759212e-02 5.527705268692265084e-02 -2.708606423466193916e-02 -1.039834816117435889e-01 4.687576429165548481e-02 4.494366810998548512e-02 -5.970448868985497176e-02 5.637893821744124727e-03 -6.694897140334393759e-02 4.897302934109814404e-02 -2.438058905811087834e-02 6.442496980031667264e-02 3.990616113464005854e-02 -4.418002195722002534e-02 5.083598173313135654e-02 -6.205616946457353372e-02 1.618217845982660797e-03 -2.549394593245124518e-02 -1.097352870545974385e-01 3.794285371532723529e-03 -8.080209087993901317e-04 4.318951445162744207e-02 -4.055894019251874566e-02 -5.397651398000988948e-02 1.006761918566136810e-01 -5.457260906035121123e-02 1.213083041626602937e-01 -4.004699312944524046e-03 2.150862452342054698e-02 6.365550637486902877e-03 -2.582832955666326639e-03 9.533586212790533254e-02 3.059214605189776726e-01 -7.681093790530914289e-02 1.696819668802678621e-02 -7.569262911216036172e-02 -6.202117221951156285e-03 -7.856852736462754949e-02 -5.911769388054168017e-02 5.405626393781929120e-03 -7.468584309557219081e-02 -4.664562070737601762e-02
-3.588053737795638548e-02 -2.462946687062392281e-02 5.676766981424753722e-02 -2.980145807812618550e-02 -1.899044705100896152e-02 1.929836260726560393e-01 -8.185864913598252246e-02 -9.791667895129556320e-02 -9.638513879735738366e-02 -4.266070180080781815e-02 -5.065474362505201222e-02 -2.203493343860978351e-02 6.246212716896250988e-02 4.969238292524977979e-02 1.661059827814569401e-01 8.921431837748905469e-02 1.413763617531265705e-02 2.167299103724863035e-02 -4.907580582127934327e-03 -3.697020819632512029e-02 -5.338550403902688618e-02 7.889882946469889413e-02 -3.546329367289659251e-02 -6.147749747533882286e-02 -2.079044888801700672e-02 -1.827172708308334170e-01 -5.821742952919532060e-02 1.296231399118490286e-02 1.774216212159800132e-02 -6.843436901863458877e-02 6.144707757139574594e-02 2.784487999376739770e-02 -1.437666033759911997e-02 -6.544967193737175060e-02 -2.682342929251737944e-03 2.403229431457650639e-02 -1.199149836969992319e-02 6.148271567247663716e-02 -4.276130772226463539e-02 1.256883282514913991e-01 8.959182435041916637e-02 -1.778695231598523274e-02 -3.775991222503139854e-03 1.632573039907179459e-06 -4.883901120325131323e-02 -4.842613651421733001e-02 -2.574680583487255064e-02 6.554637360812309160e-03 -1.494282508270834697e-02 -1.272136864216441288e-01 -6.061967368901679393e-02 6.274997028058078297e-02 3.964684824040274475e-02 3.799461479267492517e-03 2.374866687524021872e-02 -5.741525245824340151e-02 -8.399255925698570491e-02 -8.094189212300359482e-02 -3.020593018716828670e-02 1.649527436094014865e-01 -1.202711023856680161e-01 4.641376107533042028e-02 -6.036665266869256641e-02 5.218330332429506335e-02
-2.479919134946284229e-02 -9.577138885183124339e-02 -1.095731277935075854e-01 -3.284360333993589093e-02 -7.921914936491540604e-02 -3.224990805455659748e-01 -1.308454698292148624e-02 4.979672504712030767e-02 1.020873336765972805e-01 7.525304070795893474e-02 5.487622800083621216e-02 6.405905311842333139e-02 -4.813469361882093123e-02 -1.062770765025356640e-01 -1.033460404996949383e-01 7.183166569136884005e-02 4.811283409538192474e-02 6.815662251439652541e-02 9.751293672497066134e-02 1.228763832144678415e-02 -9.468199431985552250e-02 -8.687023813715536455e-04 -6.385023238433935877e-02 1.311992655428462912e-02 -5.469833066694040208e-02 6.966800565046954961e-03 3.836717526003764756e-02 8.189112926518510305e-02 1.224794519742311051e-02 5.809159459556992311e-02 -1.467778033850553332e-01 -6.961495169745086919e-02 1.700010203160333758e-02 6.323369266900269459e-02 -6.075839079561847628e-02 5.110011378043230468e-02 8.388576983035869739e-02 -4.581825396553127622e-02 -6.073310359409750392e-03 2.848154193211261884e-02 -9.926787330784209162e-02 7.184613952594906539e-02 -7.130897524241522345e-02 4.078562681978294829e-02 1.170022182402537941e-01 1.042594930464310898e-01 3.485557699443255636e-02 5.946226699399177751e-02 4.722777702002337041e-02 -7.132767681331433907e-03 2.621962703219513080e-02 5.653930269539184789e-02 3.075162640832048919e-02 3.549493876329171821e-02 6.195953644065919919e-02 -4.050418310738674449e-02 2.768347888040993687e-02 -4.670906041861382085e-02 -5.371523820073348388e-02 -9.801316363588902236e-02 4.869138234595942610e-02 -1.842833366014389254e-02 6.246547765835313432e-02 1.590721824548866053e-03
-6.606963529118071825e-03 -8.669156604319416815e-02 -5.209307419994940735e-02 -3.761271063286540650e-02 -1.014453494039228021e-01 -7.373099218392935306e-02 -5.573747885341857194e-02 3.553464577179392403e-02 -2.589737278714269661e-02 7.501830464094079443e-02 -2.575301627118884579e-02 6.549447288967097380e-02 -3.924347169559489618e-02 -2.687825873930081710e-02 -6.933170409549070656e-02 6.263160375149352810e-02 -7.308046047557197056e-02 1.326267707579242665e-02 -7.287547107104692945e-02 -7.533382472558404486e-02 8.630359859798697464e-02 -9.153388430596418046e-02 9.336977641035337783e-02 -3.692542697016878983e-02 -5.798372930197172315e-02 -1.775931815159952467e-03 -9.014558367467952540e-03 7.763562852157382399e-02 -1.005208521781918857e-01 2.591242050062216376e-02 -5.103257080391437189e-02 -7.172924309276077631e-03 -8.408820084351753543e-02 -1.009147621202820776e-02 -6.287152453149855158e-02 -8.669214749045789370e-02 9.020432893667454594e-04 -2.637515784784103673e-02 8.627415882426339722e-02 -3.375704588504233744e-02 1.193096592267350875e-02 -1.058319849842807719e-01 3.076963956727514493e-02 7.385316062917086748e-03 -8.682579845034719968e-02 8.649848503571316849e-02 6.965105611634522798e-02 -9.010369380029034647e-02 -3.085614458850453878e-02 -8.389947285987138514e-02 6.352424969172248970e-02 -7.879575726099327659e-02 8.258597551141121096e-02 3.066671966768719313e-03 1.341877517331482167e-02 1.160183317194079210e-02 -9.383365711875643611e-02 -3.754942086338672325e-02 1.598542514730468683e-02 1.375052259897781987e-02 4.744898689912498656e-03 -4.307064820958004039e-03 2.412918846347598956e-02 3.323202663252556449e-02
3.671326457858146292e-02 -2.785373938015327233e-02 2.328440243870629617e-02 -4.103569859273230314e-02 -6.234643924654976327e-02 -4.309687659018894557e-02 -5.594958795933869730e-03 -5.727510164007439120e-02 -1.759673600022926970e-03 2.504148728921344168e-03 2.074369111057651743e-03 7.611906554583772189e-02 1.902477495827931131e-02 -2.103190559494390321e-02 2.267393742429121145e-02 7.652767732079038265e-02 -9.729914164311075087e-02 1.010879518765441104e-01 -1.492488639061651662e-02 -4.735089107892340513e-03 8.241566854418708177e-02 3.139053766901012121e-02 2.526948147201227984e-03 5.804780649762814743e-02 -9.629188159721739637e-03 -8.610148168801194657e-02 -6.213629439025362966e-02 7.791314354793253683e-02 -3.481424840925691211e-02 2.702072589062060742e-02 -9.270128228261866055e-02 -7.686502177378017053e-02 -5.345398943732935365e-02 3.321939308545029251e-02 -9.491337455915940802e-02 4.943856608763706056e-02 2.481674904916048897e-03 -1.183999815917196122e-02 6.574975049059161858e-02 -8.501288986563654629e-03 -1.140961981561203764e-01 2.018310718503645365e-02 -1.385916673257157061e-01 -2.153620604554855669e-02 -2.737841132802763550e-03 -1.911848013558467216e-02 -5.445297854344234578e-02 -7.326929007074996225e-02 -4.289758429301123582e-02 -1.243020504976535406e-01 7.268189065569191643e-02 -3.025403304571573290e-02 -7.117832769063235122e-03 5.299576053461869246e-02 -4.275974531380760668e-02 3.213983330629457263e-02 -2.343702733852849954e-02 4.426523402043822109e-02 -9.608278931804254894e-03 6.212016718170021608e-03 3.914807016966325576e-02 -1.669247022381016576e-02 -4.550544196176141420e-02 1.942227851691630258e-02
1.626463943910832696e-02 8.667328430384275972e-02 -9.983029669335374834e-02 -3.760406421912263625e-02 -8.432385597946290279e-02 -3.960822925570637448e-02 -1.782855905644226482e-02 6.019723878448279830e-02 -6.057205566277559534e-04 -4.137749991558551527e-02 -8.765187835312260312e-02 7.981386815493733689e-02 1.310545900799912206e-02 -5.756996519001037621e-02 7.391298644741945735e-03 -3.628804103676611797e-02 2.293642213884999198e-02 8.140786660170630518e-02 -8.163993297382552208e-03 -3.771100455570274013e-02 3.583423536168558327e-02 -2.689778049448596220e-02 6.048492129857381550e-02 7.856101338539199508e-02 -5.438888363667929854e-02 -3.677569712305753247e-02 -7.918905566734379953e-02 4.577795697365061312e-02 8.063020908236946324e-03 7.445045115573593886e-02 -9.762835223188758016e-02 7.219642701050520139e-02 -6.716389116701272644e-02 6.335857719558170287e-02 3.465664349738819400e-02 -4.149937836236478050e-02 5.846563871207758646e-03 6.146815945925302588e-02 -2.874681608164172605e-02 -4.074387722724712863e-02 2.486819859506977232e-02 3.382128151113255026e-03 -1.367743212494756597e-02 -2.024277955889390926e-02 -6.235894278833802734e-02 7.691277672137195043e-02 -2.194556424461990146e-02 -3.717465980967071121e-02 7.043196019224107207e-02 -2.836932628080750945e-02 -2.186966070020238129e-02 1.228447109132935026e-02 8.389459753347830451e-02 -2.758103269292878218e-02 -1.157829737240717027e-01 8.686362265113277414e-02 -7.399188408434818898e-02 1.881047845809061606e-02 -4.774201906279500196e-02 -4.425976953918769191e-02 4.351113325471235582e-02 1.504020264272970878e-02 6.403042596827614175e-02 -1.834345534864002120e-02
-6.700203975831417469e-02 2.536376384003785969e-02 -1.454177248033208976e-02 -1.274165975602004064e-02 -2.272899933163956970e-02 3.632679296180703343e-02 -7.094930926802427151e-02 2.708410223837709116e-02 -3.445112921278743745e-02 -1.504498038610936096e-02 -1.836576309975115895e-02 -2.397752298344080571e-04 -1.062217203239374484e-02 -6.530207064447036969e-02 -7.039963445167253964e-04 2.360057787821090089e-02 -3.442887113738828195e-03 -5.919236068206226720e-02 -3.971084122799889427e-02 -4.984041866012701300e-02 4.882299553428649103e-02 3.015547293200376497e-02 -5.378113101474021884e-02 -4.284451090843371945e-02 -2.441659455251817337e-02 2.892245996851931095e-02 -6.641517228122702232e-02 2.901893321771412126e-02 -7.266965714602331705e-02 4.853441534501732810e-03 2.700511254328926206e-02 4.282978058366320785e-04 4.177957549116430996e-02 -5.128855050904957552e-02 4.617593335915088845e-03 -3.900341218914801789e-02 -2.494524829471182412e-03 1.135189250955379557e-02 4.006421823167219398e-02 -1.438474136621738925e-02 -3.780889254476351401e-03 -8.010458993986654952e-03 5.373746943330812154e-02 2.462362363622888975e-02 -1.412891861971645249e-02 -7.521670720401113508e-02 8.350982817611485309e-03 -4.182255688570552660e-02 3.850069190499087659e-03 -9.134688376564953013e-03 -2.520072969606399274e-02 1.560528729905347536e-02 8.139627512974755008e-02 4.834749318770557164e-02 -7.083691544276633778e-02 8.284664969593673323e-02 -2.130436151318985602e-02 7.168241465947729207e-02 -2.747005012307256883e-02 9.257571712507751960e-02 8.469972340364803273e-03 -2.142348199294650396e-02 3.468044210041868001e-03 -6.545091672629547996e-02
-3.958085319131130625e-02 -5.491549252588257685e-02 -5.696446251471354132e-03 2.358749194062760221e-02 1.692256236951614201e-02 6.331905545214113092e-03 -2.482982886264729905e-02 -9.272601653190555571e-03 4.832661961229513118e-04 -3.142030210093788717e-02 3.620778250517858038e-03 -7.453952344829709031e-02 -5.873327790597887565e-02 4.026663110056129258e-02 -3.504354273644900292e-02 6.883284651496614226e-02 -2.627987798552288909e-02 4.614244894855780432e-02 -3.406927762662509559e-04 3.484013805135703634e-02 3.571183471637759139e-03 -7.801951763262785118e-03 1.069156187102670783e-02 6.341478774896279480e-02 -4.648323364474786501e-03 -6.305433532733825674e-02 -8.022728941594628460e-03 -4.619862389512011114e-02 -4.783452576942243128e-02 -6.099275490145569800e-02 3.298502265543402229e-02 4.615458577606407209e-02 6.319349376159352771e-02 1.721654519536702788e-02 -2.907381211358513184e-02 -9.249279396277283738e-02 2.917243249057282009e-02 -1.832398859685966525e-02 -2.578916628445986764e-02 -4.458330235852697547e-03 -3.822407900230221419e-03 8.003129011821980346e-03 -6.441861639411132490e-02 5.052879073004685334e-02 -5.148803137250891615e-02 -1.071983387097461514e-02 -1.985879515793151709e-02 -3.077326057697913481e-02 -5.646796285478378197e-02 1.248576658068999319e-02 5.299664341547117435e-02 2.899546847263244007e-02 2.919429909664643386e-02 -6.189864678097694445e-02 8.935208132711362772e-02 6.977539983013211766e-02 1.026885096543023734e-01 -1.457175298716702552e-02 7.715235108164880673e-02 -2.932312454717181296e-03 4.103370445627190638e-02 4.199663246836336100e-02 -3.627156545978144075e-02 2.382567461423047359e-02
-6.602108913093505949e-02 -4.554639605158413568e-02 2.208768637430786816e-02 -7.878737656383605348e-02 4.947396229438715161e-03 1.586623299169477586e-02 8.364981839879831460e-02 -7.391228226014562308e-02 2.036928463033728723e-02 5.322993431596702990e-02 -3.067560394385884098e-02 7.146317553388398247e-02 -5.708150816846346842e-02 1.037548458513592835e-02 1.549699619755787530e-02 -4.907402365579013881e-02 9.685745338994121781e-03 -2.094026613953480984e-02 9.655263233186680769e-03 6.288551391331076434e-02 5.552712336263773349e-03 4.322666252656465896e-02 -5.419355133673860875e-02 6.352049028183030799e-02 1.870946890206450289e-02 6.736123145335275175e-02 -7.422406740970070860e-02 -4.843993140386164409e-02 1.940370991512040816e-02 -6.623891245269404593e-02 -6.152768638727429407e-02 -6.283793333411782922e-02 -4.028506818063525702e-02 -1.074291379718303810e-02 3.324303538006159048e-02 -1.478851904570006870e-02 -1.714405386899066353e-02 5.008570406762319349e-02 -1.916561042671625220e-02 2.185004633956697667e-02 3.927720263607251128e-02 2.249127298741607564e-02 1.202538764472937602e-02 -4.070357889053831391e-02 -2.362231129927793230e-02 -1.991632995099536577e-02 -2.693228925834850393e-03 -8.831381580633821532e-03 -5.483437223878249306e-02 -6.658416954562022816e-02 3.192728846045359697e-02 -3.667990775943255621e-02 4.798473860030849636e-02 -3.848384004889334603e-02 -2.682440975987458384e-02 9.780471219944969485e-02 -1.483087206215526720e-02 1.339156730595017497e-02 5.411905087343316101e-02 1.673504274122361232e-02 1.612538493585134389e-02 7.489575532973934135e-02 -8.359497289509103257e-02 -2.632124058962193730e-02
7.253065058479535310e-02 1.393461241914505100e-01 7.529667453561310342e-02 -3.771499442282774672e-02 -1.820214334330406622e-02 5.194637296268142523e-02 8.418130559770752031e-02 -5.752115958044380639e-02 -1.117726460011807602e-02 9.439199758572887344e-03 6.550998210118090526e-02 -1.466503795951485355e-02 1.139205601654595494e-02 -4.397328826794323631e-02 -5.998936410989358717e-03 4.589167286041918870e-02 -2.710193785360917595e-02 3.813838752027547130e-02 9.612114684559518174e-03 2.312416804158050343e-02 2.212365449306489054e-02 1.287379221809655805e-01 -1.514728839485815319e-02 -3.891081762334675648e-02 -7.561632599026586743e-02 1.519717379595740547e-02 1.027396703686895701e-01 -1.069632523029566268e-01 1.065009218404338286e-02 -1.562092983575919143e-02 -3.028245285594059755e-02 6.107076626669875191e-02 3.355785852883304970e-02 9.061139716441669184e-03 4.207189223412725887e-02 -4.156804051437507780e-02 2.377351721742651525e-02 -9.227918519714852635e-03 3.928185739146604349e-02 -2.725333506330420222e-03 -4.062529271446591733e-02 -1.551547032036681810e-02 -6.891143195076021924e-03 7.337014230230546642e-03 -5.001086399955063239e-02 -8.899733955575989119e-02 6.732631686984613673e-02 -1.293702934528088988e-02 4.438379418873674570e-02 7.831559282359513985e-02 6.454089439926871674e-02 5.393295369841808601e-02 -3.768479151198415866e-02 -5.388308531091191150e-02 -1.875473876500075368e-02 -5.719135889116366833e-02 1.382244042605278340e-02 -1.111750550421356787e-01 1.618873010990403913e-02 -3.792905468279304110e-02 7.367868548499761742e-03 -8.417865306763260003e-02 3.845995166091638329e-03 1.671267644024517288e-02
-2.238278185879143817e-02 -6.575080920536111040e-02 -6.885901029969987430e-02 2.653455294222921770e-02 7.115809181393156768e-02 1.153813774363459006e-02 1.894917236692069545e-02 5.406678297056702331e-02 1.120334456639665577e-01 -1.293305255228388573e-02 -5.043744908276542177e-02 1.014739266645394711e-01 -2.912614825070309471e-02 -4.266268596954227860e-02 -4.121927678526784988e-02 -3.928781590362157711e-03 -5.764868959674544768e-02 8.380378788695844183e-02 -6.489790859734047290e-02 3.747428986537955364e-02 2.307954429786298819e-02 -6.621281013144952876e-02 -3.917947554094756979e-02 5.604409197860390351e-02 1.089795064733578480e-03 1.097515774874453266e-02 5.450789186577317119e-02 5.849911612060857552e-02 -1.692510522998906877e-02 5.936544960697427709e-02 -7.565850899258201590e-02 -8.175513174640573755e-02 4.110502782414118123e-02 8.135194273361541495e-02 2.891384148458926717e-02 8.257491296599107911e-02 -7.698295463266441319e-02 6.090710396585691938e-02 8.602773678014668038e-03 -3.906739690094332049e-04 -4.209951362624771848e-02 -9.493192336417395627e-02 2.915177969073177999e-02 -9.337150165073983266e-02 -1.611668417989551433e-02 -4.451718464338635245e-02 5.467861162149737289e-03 -8.013233739753426732e-02 -1.887044809233702838e-02 -3.894243894314524529e-02 5.350969194116573374e-02 -7.022606456278961129e-02 6.959959259693937472e-02 9.118145985349439264e-02 -5.571956955720299559e-02 3.176819924767679965e-02 1.314946222849092128e-02 7.361592149742486602e-02 -2.448625239827071157e-02 4.845004880641504835e-02 -2.256779720935625164e-02 -1.324936146466669604e-03 -6.149961012720654013e-02 -5.535127443692217791e-02
-9.702959711139489893e-03 -7.254078201433351858e-02 -2.227144501569941135e-02 -7.710641975151206161e-03 4.731816012753500833e-02 1.771453185607205563e-02 4.860788814361335225e-02 -9.199437537069732329e-02 -9.780931789018327757e-03 -7.236891007893778149e-02 5.528794215071002049e-02 -3.289140030610050724e-02 -4.266447684364563231e-02 1.905990163358358205e-02 -2.032852970197617307e-02 -7.899598281907481423e-02 1.751680448141550508e-02 -4.145317131100044461e-02 6.429812385277691722e-02 3.568064140568889819e-02 -2.969918990341305354e-02 5.376884284154884869e-02 -2.143881425448410788e-02 6.807259083593134030e-02 1.886618628261172229e-02 -1.129296505880203888e-01 1.996157323693106139e-02 5.365220283238745363e-03 -1.770777938122394465e-02 -1.460389462639838723e-02 -1.611178103048932345e-04 5.772604694326845254e-02 4.512181566938286426e-02 -2.392347977128377393e-02 7.697060097039618021e-02 5.130111061709357462e-02 -1.444356825456088733e-01 6.345197872950206208e-02 -8.424673007702745964e-02 -1.013253362297711173e-02 -3.277669583581731272e-02 -4.767683172311822093e-02 2.986392876250208023e-02 9.243618850678840537e-02 4.770481217216009789e-02 5.852844613439916327e-02 -1.757271758077023330e-04 -5.133680070914725668e-02 -2.628750057845521959e-02 -4.514872224383651572e-02 -7.870461175448802138e-02 1.891934069221534037e-02 9.677240885124610906e-03 -3.959734373713767741e-02 -5.685501538584768894e-02 6.720110954612527887e-02 6.512644139183978997e-02 -2.434925129518301229e-02 4.084096641437602593e-02 4.973448355294777384e-02 4.147655888722510259e-02 -6.033214205854867118e-02 -4.670346688728350265e-02 -9.139404976947056516e-03
-6.200715095251807529e-02 -2.423686772565856670e-02 -4.187077449066501506e-02 -5.586353617301347690e-02 -4.721482941365034297e-02 2.399274700071098512e-02 1.341116138916371471e-02 1.850889392648075171e-02 -3.072530030580995428e-02 8.476340386430271379e-02 -5.028906977124309938e-03 9.503556047790798211e-02 -9.944607338300989752e-02 -1.637501047565846852e-03 -4.827174760885660082e-02 -1.644443821872243819e-02 -9.270416389033338256e-02 6.489945267383004368e-02 -1.730945501196694963e-02 -8.887989830406636815e-02 7.579240942961314176e-02 -6.166573690921670764e-02 -2.927711916853683455e-02 -5.834144028343719174e-02 2.466046938396511401e-02 -1.196585559299042922e-01 5.863689813135723738e-03 -7.437967601608848345e-02 2.563935271579852876e-02 2.486913147241241046e-02 -7.557989124818113857e-02 -2.872175920329152546e-02 -5.027108022908211536e-03 4.997291987981177658e-02 -5.974591243131202600e-02 -8.469582951828476258e-02 -1.244749613608275990e-01 -1.747503281189502142e-02 -3.107632713959671347e-02 5.563872740603828786e-04 -6.860277597771101410e-02 -6.494825738337359211e-02 -1.931543854971639815e-02 4.356883875017698859e-02 -6.854979999459920315e-02 2.756427742202714401e-02 -2.855684521504068055e-02 6.862816835806609395e-02 -2.357474687783376460e-02 5.095827125280168179e-02 -5.807385127712769591e-04 5.375018544183082780e-02 -3.824795473533414147e-02 -4.442765780071745302e-02 -3.779216878963671811e-02 -5.175326021193631110e-02 8.136841106007658073e-03 -7.064973645055383500e-02 -2.337137343889068852e-02 -7.589661879938020168e-03 -1.358253416086597359e-02 -7.263509096515782804e-02 -2.250745829359927092e-02 1.021775070229865578e-01
3.383793397707796080e-02 3.371849749078108943e-02 3.561485081081672277e-02 -4.513047491773886782e-02 8.714202504806982386e-02 2.274067780648117779e-02 7.580361429659535077e-02 8.276053979461883703e-02 -2.625484665263127029e-02 -1.002576051303359222e-01 3.932125519682089926e-02 -9.199379143424921135e-02 -2.367582151345893129e-02 3.118900437848277224e-02 8.176702890804631030e-02 7.399629068224321260e-02 6.947637755243119342e-03 -6.625125885008701677e-03 7.777523269024538832e-02 5.787695893313232753e-02 7.379711039241391990e-02 7.594494965388709495e-02 -5.125203107381666456e-02 -8.672348129257499705e-02 9.670125327923417488e-03 2.481083385555007438e-03 5.504330464006477325e-02 4.825229830498518196e-02 -4.810240720313271878e-02 9.985500452207960332e-04 6.831446495730718327e-02 -8.310880248701438267e-02 8.413415764963382004e-02 1.852135282387840087e-03 -8.524137199831763323e-03 1.951445983389767450e-02 1.477012503493110689e-02 -8.522572703405235928e-02 5.918009655446609257e-02 1.163588125106779919e-02 -3.753226510303479813e-02 4.479182749255687657e-02 -1.473586990907846568e-02 -7.552616419569963685e-03 2.436014087531592626e-02 3.986806327344483841e-02 1.738448408385359634e-02 -5.929100281693951147e-02 -8.634451723598005057e-02 1.559507457383418373e-02 3.677438822655283018e-02 2.162223728747860244e-02 -8.643518538725343189e-03 -5.147463422440934355e-02 1.261140829616395620e-01 4.710876568707239587e-02 1.035798108129292183e-01 -9.174051193998181142e-02 3.580644108098473416e-02 9.826799695384635935e-03 -3.871125253053739335e-02 -6.592060588682913114e-02 -6.051371362328224895e-02 3.651224742156437830e-02
4.144160700216905496e-02 5.231206347507055127e-02 -1.064019888814419362e-02 -3.545363949390286512e-02 -9.864608434892734035e-02 -3.206726812991170239e-02 -6.624498234092911220e-02 5.525046228960879373e-03 1.335837458630246936e-02 1.225344862686806105e-02 4.055088486216759658e-02 1.266335828979822881e-03 -4.305367157264984590e-02 -1.662413622376436584e-03 7.979211496815402996e-03 6.382503322244042522e-03 -6.140311108276876040e-02 -2.085803354654205272e-02 -3.805532358878736116e-02 4.601828474272104397e-02 -1.233906066788319905e-02 -2.466301294142540443e-02 -4.960551452942017076e-02 1.371049112847113824e-02 1.097017535427479741e-02 4.061328058573285965e-02 5.002432045109531794e-02 2.419846643821955273e-02 6.091439885262707465e-02 4.143822576153222137e-02 -6.996953561908918207e-02 -9.510802542789201230e-02 8.035393619133421664e-03 8.146806899082432996e-02 3.679998402678727465e-02 3.768656464833955444e-02 5.097354458501524022e-02 -1.621576181732142449e-02 5.182290411676050701e-02 9.007340625340309881e-03 -5.289472800897825067e-02 -1.024467908410653244e-01 3.583255402961812303e-02 2.919029137860632006e-02 1.389916423883443691e-03 -1.801662182645853358e-02 -2.920364963310465370e-02 -7.433066645566116515e-02 6.747695154059074607e-02 -8.088990555649117065e-02 4.398944846163189981e-03 -1.060331344509576890e-01 -5.539057867469139064e-03 4.001018428645953390e-02 7.182480015544037699e-02 2.270008370938871424e-04 -1.279212425281135990e-01 -2.912676033171215668e-03 1.919625746424005047e-02 -4.079689807687170156e-02 -1.241394350974788126e-03 5.820579902262081051e-02 -5.595370556068368639e-02 -1.467207759987524014e-02
-4.028426259295742745e-02 -1.039940202577526417e-02 1.445114637155677645e-02 -4.239886761701499446e-02 2.152815204809963370e-02 1.940024407710052440e-02 7.194469869842300830e-03 -1.583123722695653143e-02 -1.306520030676646370e-03 -4.672553085889430413e-02 3.970758290397956129e-03 1.372517742738594768e-03 -2.125627383212954497e-02 3.244409382552638620e-03 -2.063477354591259760e-03 4.372506241413826739e-02 -2.305821836679177242e-02 -1.229859382824516865e-02 2.773013111020473931e-02 1.693428615836035933e-02 9.888403612597414238e-02 -2.064357495420687805e-02 9.071804686191103917e-02 7.242188212567132743e-02 7.411586352087126683e-02 -4.598850124419599436e-03 -1.166089478995987853e-02 7.203328954344269397e-02 -7.583168539659966394e-03 -3.327202363229279231e-02 4.546306417855585508e-02 -7.176441376197681410e-02 4.731567022732942156e-03 4.977525669741569847e-02 -4.945312695746507947e-02 6.034501529859804397e-02 4.042354019140959737e-02 -5.378618337661686399e-02 -4.953310306665592924e-03 -5.439196168529716532e-03 -4.084932950783030925e-02 4.081183125841884168e-02 6.289086413431766408e-03 -1.520991189353117744e-02 4.133230530705088446e-02 -2.996176195016262561e-02 -5.401638344880460574e-02 -5.786410328135335041e-02 8.492718151018754935e-02 1.347419537366898422e-02 4.258681191398419087e-04 -4.898431166924397534e-02 7.794235650076794530e-02 7.702504878057588045e-02 2.090392475663909247e-02 3.802907016261489886e-02 -5.324472787494000797e-02 7.012011411163866781e-02 2.597859861911939322e-02 4.931606487202558342e-02 9.968893731615215831e-03 -3.502113541695596466e-02 -3.400459613557144795e-02 -1.447727918251515318e-02
5.174281011742250247e-02 -3.509224978214230128e-02 -6.446073931564865259e-03 1.084504184610383427e-02 1.417648341536077369e-02 9.418180536545398343e-03 -3.113976147034396708e-02 -6.790632783968404695e-02 1.367139084018520120e-02 -9.715859411868411899e-02 -3.350118383466718641e-02 1.756097826894120750e-02 5.266378807998276651e-02 -5.397577629734334054e-02 -7.123353799346414383e-03 -1.853050258634399887e-03 5.970311971148852676e-02 -3.653308025996677977e-02 5.205716721327568954e-05 -7.289151667027657508e-04 -7.839713408638701586e-02 6.633360689736497728e-02 -9.424301162832500467e-03 3.648706295771570601e-02 7.772287098887573076e-02 1.837634947869313390e-02 -3.542206773163406736e-02 1.105038796732136543e-02 -4.325396738494082655e-02 2.937452280395656118e-02 2.783058275216043678e-03 -2.849877674459092708e-02 8.104242291488780725e-02 4.107491784501823145e-02 5.036836936255170705e-02 3.631367581376237358e-02 5.288671780134211568e-03 5.473421185432532365e-02 -5.015007067279496356e-02 8.377051715835370088e-03 9.452478190002430725e-03 2.177886068656442915e-03 3.306963869353633789e-02 1.512434240352192837e-02 -5.397455453933550085e-02 -2.918060080185375105e-02 -1.268584309891775293e-02 -7.003628582643514622e-02 -1.078401230025063939e-01 -3.923013733125696456e-02 2.979898724257017475e-02 4.596659582918487252e-02 -4.985855355290429863e-02 1.509276984330856428e-02 -4.462709955701799069e-02 8.655167168451287363e-02 6.474954828822065966e-02 1.999230582153678840e-02 -3.965106565680153600e-02 1.206245259087096976e-02 -3.523837249631125990e-02 7.702205074622027470e-03 -1.230179188144683682e-02 4.699199163234007992e-02
5.474486840790979136e-03 -6.852650316196523539e-02 6.040112170301881883e-02 -2.527457476242626552e-02 3.498742349768934473e-02 1.150088443236114456e-02 1.188248123043512544e-01 -5.648167060302738962e-02 -3.146549727878309582e-02 -1.033789663380985241e-01 2.635056476938769932e-02 -2.615180733277440786e-02 -3.777412217009720741e-02 -1.656460343279174408e-02 1.189928090182074821e-01 3.309516286007525843e-02 1.349519746596252179e-01 -4.879354784660883820e-02 8.823031656797201971e-02 4.284150968533388670e-02 -8.445183367923780188e-03 5.492415902533060584e-02 -9.556648012296306560e-02 -4.533430554622290337e-04 -3.072525960948901610e-02 -1.063109073212908234e-02 6.201224135457632930e-02 3.204852415943463401e-02 -5.283065208735597366e-03 -4.729544444025403360e-02 6.438620887816434712e-02 1.049294115252654841e-01 6.105231225825975133e-02 -6.315926127626546316e-02 6.607408047122456662e-02 5.114391974750071707e-02 3.706640464535502361e-02 9.110370354252201805e-03 -2.639056183948696854e-03 1.365870883307194333e-02 7.887622162972728057e-02 1.177723244628755966e-01 2.747539642507243821e-02 3.411834363747728166e-02 -6.586539286288664585e-02 -9.974190516030091713e-02 3.771362562523602330e-02 -3.466277533230065905e-02 -8.427577441716548046e-02 1.068839698916219660e-01 6.152492670870451236e-02 -1.991855869710944249e-02 -8.465413129973758943e-02 -3.149579267811760536e-02 2.513177850363638131e-03 1.933507121640003733e-03 1.856594460371047486e-02 -2.613618203550090863e-02 2.180998312809964701e-02 -4.435524745496937510e-02 -4.862564561664078737e-03 -2.181069893081947694e-02 2.467047647482571368e-02 5.619464863527685178e-02
4.800700311191451186e-02 -2.755701703754587228e-02 3.382527557657077216e-02 -3.628302311752057419e-02 2.197262525592771909e-02 1.783384815633240819e-02 1.215390262952444345e-01 -8.975923270045539637e-02 -5.168307256257965825e-03 -1.059889059530040589e-01 -2.324523463934510120e-02 -8.685898464831859345e-02 3.086525096709855434e-02 -7.929911345908026432e-02 -2.198797399230749405e-02 8.029007628554768461e-03 4.564945207045811859e-02 -1.232604458252651719e-01 9.225095592357497598e-02 1.139227766630948645e-03 6.527052075594454942e-04 9.250328020321088585e-02 -7.413182578651124344e-02 -6.526959371823094769e-02 -2.735346683008237079e-02 5.367463737043089156e-02 6.889553612128751503e-02 -3.845884848782139126e-02 4.301746150270986668e-02 -3.624583102956627917e-02 4.043531659223296298e-02 5.739153906839156855e-02 5.426161464278295848e-02 -4.401647310561416365e-02 8.151460680521525892e-02 5.092579673922811856e-02 -7.757082219084382793e-03 2.320481138473134627e-02 -1.089957554589660038e-01 7.644926443552970199e-03 8.713691496337794273e-02 6.004358607978167728e-02 9.734549340158210953e-03 1.108021140081360822e-01 -5.370489212347306224e-02 4.053057053748013866e-02 8.196327881522792735e-02 8.973841113846046935e-02 -6.441075014557573475e-02 -3.492931708954213899e-02 -6.910840870388018642e-02 2.174896371287302413e-02 -5.839336819944140888e-02 -8.628835069677721556e-03 -2.030554754182565397e-02 1.117409885543826746e-02 2.405118648782094207e-02 -4.392565436036600240e-02 1.055316528740246063e-01 -2.095327269767550266e-02 5.387923261626552385e-02 3.037543098887253434e-02 -4.467272009806364658e-02 9.893568340335457886e-03
-8.784456771640368478e-02 -6.831897201289896526e-02 -6.806047673253964869e-02 4.500938941572117657e-02 -7.697869065896700835e-02 -1.907099259580419606e-02 -2.438773875494325023e-03 -2.804993517444494613e-02 -3.469669926867385151e-02 3.175607126889443133e-02 -4.963385920179270300e-02 9.666747720794235943e-02 -2.604494613594363767e-02 -6.441577426593256273e-02 2.113467428038613011e-02 1.910693026555017326e-02 -6.494420664962459455e-02 -1.755904593167600296e-03 1.342562438759332608e-02 5.275483343626623245e-02 8.412938972320571640e-02 -4.613296559306269418e-02 -1.303566733259624126e-02 5.842332881113872223e-02 1.233607071264190141e-02 -9.784173804371137928e-02 2.360902671904155717e-02 -1.763828896704110194e-02 6.798872046771096619e-03 -1.476949123749585202e-02 -6.708521583939933142e-02 -7.586901386301925232e-02 2.656579570561668283e-02 1.008009543734780383e-01 -2.834435026276992814e-02 3.616082233371817334e-02 4.939624741899097116e-02 2.878559440878544415e-02 2.081691768574473259e-02 -1.551648884253479556e-02 2.261473461124960871e-05 -3.548709850904587654e-02 -6.867803245123504929e-02 -7.965874638573450239e-02 8.785920977969501403e-03 2.609305993213588415e-02 2.720816965642088719e-02 -9.004512720780397106e-02 -1.030786759959904757e-02 -1.383570896192393707e-01 -3.834116990695062704e-02 -8.952049317954031971e-02 5.328154554769096163e-02 8.632743042113089071e-02 1.437035307370486403e-02 2.772733645241007641e-02 -1.185793454750659441e-02 1.126915514771862775e-01 1.186371966100186262e-02 3.565445775432730165e-03 4.920768894178303293e-02 1.291684262213712298e-01 -2.008561401037935873e-02 -6.581763034028201287e-02
