1.955629670152911684e-02
7.384577000093620058e-02
-6.492928502934106061e-02
-4.133649783247103117e-03
2.517895610907055874e-03
-3.871985175621905223e-02
7.117977774536851654e-02
-7.681612634747092550e-02
-7.735125606817692956e-02
-3.416596701252908042e-02
-3.838698525662332002e-03
-1.318191527340443758e-01
-9.786233224893099714e-02
4.158234792364494392e-02
-6.046528877840063460e-02
-6.684284126077645605e-02
1.191615077194603176e-03
5.336373042124531452e-03
-2.828380796675464826e-01
-5.190948808794600827e-02
-1.387392688070162618e-02
1.989493145239901173e-02
-9.427461698885401808e-02
-7.533639691051486828e-03
4.224795705995244149e-02
8.982741689173322219e-02
2.763474540837447882e-02
9.798329861179093381e-02
-7.010919972420767698e-02
1.551185990458535113e-01
3.096000324931525056e-03
-3.343108099039759917e-03
3.058054958760126826e-02
-4.016144066606797125e-02
3.149143671666413541e-03
6.649635575406023791e-02
-5.528924305998231953e-02
3.696352999092175629e-02
-1.531425884453588293e-02
1.006474924928727893e-01
-9.423121997052431864e-02
3.560139997916333260e-02
5.059926168090685822e-02
-1.366968085976909622e-02
-6.478736980468920159e-02
-6.712853471451993292e-02
-3.094648077993202365e-02
7.960810393913285432e-02
-3.675713414578545696e-03
-6.062157898294516511e-02
1.406301855964155363e-02
1.323725014155311720e-02
1.763711963009773065e-02
-6.308323886954698978e-02
8.208940048942892087e-02
1.766057863523876059e-01
8.136551678651264552e-02
-2.782220224106426304e-02
-1.853671639613608743e-02
-4.495450979796805635e-02
-8.421766875067331071e-02
-5.322446030198421663e-02
3.546822455682787506e-02
-3.019437817130359372e-02
