3.497328048342201838e-03
6.429050699669125457e-02
5.888802300023629477e-02
-9.602058626309543932e-02
-9.071015284033329823e-03
1.234128890744605293e-02
2.780713739873777110e-02
4.632709708219422129e-02
-3.442094837522748779e-02
-1.193856282765834789e-02
-3.663783851531383223e-02
3.060141949051567445e-02
4.761453772796430534e-02
1.157986272383156566e-02
-1.227872474043298877e-02
-1.652358859229318550e-02
4.002355742391783440e-03
-4.453101640445784881e-02
4.243117612457778659e-02
7.200689583699787510e-02
2.421650572067373872e-02
-8.254527214680193112e-03
-1.103558543111322898e-02
5.001548736679907589e-04
4.041083551102460369e-02
1.317794719586159926e-03
-5.439379307773803407e-02
1.083337961264864598e-02
4.912856960054010763e-02
-2.912293828377173974e-02
3.311860367793686283e-02
-5.338653142724797407e-02
-2.220825225918748869e-02
3.899028645888253514e-02
-3.339345481053147130e-02
-4.259042749045423293e-02
6.938157891906091002e-03
-6.023186552147268696e-03
4.112637473701345053e-02
6.823589602679019234e-03
2.654480587188710189e-02
2.836224350216773153e-03
-5.049659899456734879e-02
-1.627456240920295560e-02
-6.356941954691039398e-02
1.001869384893459185e-03
-8.589328428190776479e-03
-2.121528218868423135e-04
4.032250135963916585e-03
-5.860293620660812774e-02
-1.969656870421204395e-02
3.878315643476962487e-03
-8.781694866016619139e-02
2.917210312123465210e-02
1.584855152271989753e-02
-7.962039686880281741e-02
-4.691937098085778406e-03
2.196585937730720015e-02
5.868370847515983618e-02
-5.127281306526316335e-02
-3.769967028718329560e-02
-1.011846290596998682e-01
-2.742525837812755801e-02
5.513753574647567435e-02
