-5.914375326718029902e-02 -6.975441604111108640e-02 -6.979371061412799337e-02 -1.074638613475410176e-01 9.942535916796883810e-02 -9.093373958019790315e-02 -2.040178367513674762e-01 -2.762148840942937195e-02 -4.688071293987298993e-02 1.332555054539489303e-01 3.079960640386870951e-02 1.470013259396178440e-01 1.408144702473759502e-01 -6.395495201861266243e-02 1.284921777105809959e-01 -1.082493851203600727e-01 1.278826146653842810e-01 7.654245634746763283e-02 -9.901313155866239835e-02 -7.697242150703173524e-02 1.727271671180323617e-03 3.116405055621458003e-02 3.466805070497704783e-02 -9.632549893085735893e-02 1.207303676735000386e-01 -1.084989481430074509e-01 -2.473195097332100273e-02 -1.501709695813725487e-01 1.737636539209201636e-01 -1.260424377343324076e-01 -1.206163737490688476e-01 -6.127704123923887608e-02 -8.165436657703466217e-02 -1.139355687514621678e-02 -1.965339759166819800e-01 -8.587178733693499877e-02 7.869098242495217721e-02 5.128612476059574848e-02 7.219076158310371027e-02 2.356859450526804984e-04 5.323789311981298733e-02 7.595146318695018828e-02 1.107814187455016634e-02 5.726037823032771069e-03 -5.335597529808481024e-03 -7.977318518940129666e-02 -5.851189169193545675e-02 -2.711504264587414892e-01 -3.374978954870458143e-04 -1.515242489102152680e-02 1.112658579809356479e-01 -1.142933800527501931e-01 1.053070085291767377e-01 4.135395426621559650e-02 2.605817293892738820e-02 -1.075096564054431048e-01 5.973406769153966761e-02 7.866175775847333851e-02 1.223469873822695536e-01 -2.709346347145933365e-01 -9.616148398330255642e-02 8.988791317370330158e-02 2.196137237164866030e-01 7.334578592428041277e-02
1.587194354725071921e-01 -4.349480777822205962e-02 -3.183041128731198960e-02 -7.527664849702009331e-02 -2.033342611399434341e-02 6.143742512105857673e-02 -8.301874625736310742e-03 -4.828298621142334407e-02 -6.054560877138816244e-02 -5.693485831092094315e-03 1.085322889059373158e-01 9.174787661873744227e-02 -4.667339699844093304e-02 -7.302534636658382372e-02 -3.229218053779725484e-02 -2.989667983183028413e-02 4.933957937985200548e-02 7.889929676274306039e-03 -1.672850519758696530e-02 1.195603857799863168e-01 2.313990268241298415e-02 -9.392089555826442504e-02 1.332821537326470303e-02 6.581000640908818422e-02 2.442640658100939804e-02 5.334633602046117556e-02 -6.067038601458250857e-02 1.633363502629432973e-01 5.464126623325517296e-02 7.256611145143800068e-02 -5.420131388964534447e-02 -7.009486977054932288e-02 -2.996217145226015913e-02 2.025870223235157891e-02 6.185340842785925358e-02 7.210596725393896532e-03 1.627066745592672947e-02 2.904288498309093303e-02 1.507050975829128496e-02 -4.293478328988505066e-02 -1.085161275980356908e-02 -3.926659615701202921e-02 -6.023519901794770204e-02 4.751061178806294943e-02 -3.807156155631610112e-02 -1.176944195138826532e-01 6.259439173238933070e-03 -6.625526349188744224e-02 -2.581130900279956716e-02 2.158997303788342051e-02 6.214013252203719889e-02 -1.187531090173825354e-01 6.161456906675494283e-02 -2.698117963200738142e-02 9.351808276524913727e-03 -1.372190581652056596e-01 2.696980067038932255e-02 -5.266789500516414618e-02 2.003106468252726369e-01 -8.926424942748240055e-02 5.281017025267575882e-02 7.438942868501352557e-02 -1.376839573629382585e-01 1.268405535074585977e-01
-1.377507293345916822e-03 -4.015264382660970605e-02 -3.061328623156886648e-03 2.786281872600795961e-02 -5.043768066207206247e-02 1.810562882728887837e-02 1.696089342779753262e-01 -8.082883169317589545e-02 -6.249830766208024080e-02 -3.885244566585908943e-02 -1.721883292398658505e-01 1.160531706213051573e-01 1.394712574610926063e-02 1.070725799631112168e-02 -7.175436740646262690e-02 3.502894980023478488e-02 2.574236792139061869e-02 -1.165393330412888007e-02 -2.795413436268594926e-02 -5.406399190700669072e-02 6.763553100921343431e-02 1.496148174208502060e-02 3.687783830151069881e-03 -9.320210064346726164e-02 -4.650919948904332774e-02 2.633544076738031370e-02 -7.826832866731840699e-02 -1.681873388179638551e-01 -6.037347311070356132e-02 1.870814964579201045e-01 3.758807584767461744e-03 1.501451298187708901e-02 7.625791508352711308e-03 5.185696422937330179e-03 -2.294422521712938604e-02 4.589258782669494025e-02 -1.486357981987579124e-01 -5.328961782070862352e-02 -5.228006710436140098e-02 6.994492594926657314e-02 7.540402739487671313e-02 3.998036977379441220e-02 7.588874581558849308e-02 -8.039490868954445035e-02 -2.108309783588643155e-02 3.769439084322339512e-02 6.868367078974772777e-02 6.232508815932463059e-02 1.536372352336191731e-02 -1.723925050808912396e-02 6.425950699931103072e-02 3.194293802753431916e-02 -3.271089599649149027e-01 1.020721892490492611e-01 -4.981270523365869535e-02 1.349062209571869619e-01 3.101720612311907946e-02 3.342003439818190536e-02 -1.814465532778538476e-02 8.996259767699091303e-02 4.742043928065554914e-02 6.243217598473198293e-02 1.469276774308119968e-02 1.220789707799295638e-02
-1.203995204649099121e-01 2.697431986754904032e-01 -1.086970354927345589e-01 -8.869913698092807275e-02 1.337784981313834033e-02 -4.383887782887124773e-02 5.214094176829228017e-02 -1.360366796098735620e-01 -4.445025787400461864e-02 2.483531181960515338e-02 1.337385187447150126e-01 1.291190419575882591e-02 -1.772377100379650128e-01 -1.361873568880351271e-01 -4.015412903025718239e-02 -2.351014613482444449e-01 -5.133420645306275426e-02 1.981512361636342257e-01 1.539246493283889274e-02 4.404484271689525915e-02 -1.629131696565011833e-01 3.154557356728685674e-02 -1.605074105814535967e-01 -1.574513834057073014e-01 -5.936842650509280978e-02 -3.059621123920805985e-01 1.189944039452270480e-01 1.771188026947698169e-01 -4.487673200610270419e-02 2.058386635051922056e-02 -2.641822011213568744e-01 -1.861716441744930839e-01 -1.512579870540085025e-01 9.862417879331078496e-02 1.076579229707289864e-01 -1.489726428515832091e-02 1.994449266475221694e-01 2.514920618658353368e-01 2.631678272120305945e-02 -2.385944361836051311e-02 -3.400678381408483442e-01 8.954542795024807156e-02 2.414286786954910474e-02 7.950604935807457918e-02 -1.245277852119535122e-01 9.670600346178373843e-03 3.491292728646904105e-03 -1.998955693520762522e-01 2.740183578147552534e-01 1.325308103486368960e-01 1.561165246850577393e-01 2.367460690047658300e-02 -1.970879585307666049e-01 1.443397281691735992e-02 2.107533476141323220e-02 -1.459974452771122810e-01 1.752137222032509184e-02 1.615763644610304084e-01 -3.016600110491598485e-01 1.983656683458975001e-01 1.175060269012651211e-02 -2.584990146152909424e-02 7.838071716333029626e-02 2.251278124352249499e-01
-1.023215311329358536e-02 -4.059406859362258216e-03 -5.159065859564954809e-02 -6.399383422192291004e-02 2.662195930705365046e-02 -4.881264142771674780e-02 -3.390217536658310729e-03 -6.198753391454541600e-02 2.167224845817989839e-02 -2.009025265082077169e-02 -5.826329038065827109e-02 -4.504447370890394403e-02 2.602927134300710502e-02 3.402708119257853714e-02 -6.398463719565483654e-02 1.218188616543646255e-02 5.652569118727698155e-02 2.497492368566155488e-02 5.969433902383522450e-02 4.231697630928730330e-02 6.303646173131798036e-02 3.154691296856594607e-02 5.926310650705498423e-02 3.387953699361962584e-02 -6.404510792469131353e-02 1.022990943618033582e-01 6.349865244226802303e-04 -4.466108273954621372e-02 -6.718965386474054502e-02 2.933031351523474051e-02 4.183331073212389478e-02 1.151141224381388301e-01 3.527781264420942059e-02 2.973495973404417791e-02 -3.517823570988060783e-02 -8.089308146115702786e-03 6.734509924731068697e-05 7.778510576171439317e-03 -8.462313182286700444e-03 -4.226538775403498177e-02 -3.482403333769126114e-02 -6.669857117149874393e-02 4.041177520356785402e-03 3.439637079112667362e-02 1.297533154151634706e-02 3.645061575072657684e-02 -9.985442416795109466e-02 2.336348446323931530e-02 -6.034370986709951257e-02 -3.103320172949451672e-02 1.700524018466261639e-02 -2.381071660984535043e-02 -7.011729159145603518e-02 -1.121117424050059076e-02 2.311875898907411742e-02 -6.224326270112461729e-02 3.709582123264431458e-02 2.724849077709507253e-02 -3.446252957112977411e-02 -3.043711223310505490e-02 2.816156949593181646e-03 -3.633940922602495183e-02 -2.278430230574937307e-02 -2.789936787918114933e-02
2.133328471945518945e-01 -1.814051873770248791e-01 9.753131986938294584e-02 6.696018789810385952e-02 1.374854948657689979e-01 1.221249000091790757e-02 -2.024139472318582378e-01 1.043863652811704013e-01 -2.233292197438993265e-01 1.326061726337016689e-01 1.232831902314409228e-01 2.312531489471476576e-01 8.382206136065292745e-02 6.813024420683089222e-02 -9.852896344733975964e-02 8.123460809093482893e-02 -3.855393212144816312e-02 3.423984908449625997e-02 4.296385624882857052e-02 2.164998527325600053e-01 1.439464051040519055e-01 4.761623007066846658e-02 -1.192879808004289194e-01 2.781703151837349175e-01 7.985226800802387725e-02 -3.550366354379298761e-02 -1.529992796250991272e-01 -1.922519157407705515e-01 -2.115583925355099884e-02 1.134154490127783355e-01 4.475262182541505512e-02 2.114727408393145269e-01 2.965819808008993141e-02 7.126186118593348662e-02 -1.155305259764249082e-01 4.372682052947521325e-02 -3.746980953624459015e-02 6.174840753433358947e-02 -1.739457777898464619e-01 -1.049600315838930958e-01 1.853056581254401355e-02 -3.015776164276663413e-03 1.018406562267440141e-01 -2.168248526136515864e-01 -1.442870253355494625e-01 -1.087717768773059229e-01 -2.620818792962076316e-01 -6.483726868210330785e-02 -5.966792059760201578e-02 -2.558467260848119595e-01 1.335092985423666223e-01 -3.094453312140805212e-01 2.413674966798378119e-01 1.883039178739295827e-02 -1.852728128877668134e-01 -3.085439304416183748e-01 -7.818944653125914357e-02 2.495194279563787282e-02 -2.104505586648836857e-01 -1.206628418397402425e-01 1.325787878295703603e-01 -1.173807494323964168e-01 -2.622338877482569552e-01 -6.574577774304632416e-03
-1.466422166080249764e-02 1.452040401958720472e-01 -9.566759948050213014e-02 -1.640766424007542301e-01 -1.086775866163411097e-01 -2.085115101539303517e-01 -6.334404968367764177e-02 -1.129539081183116855e-01 2.339605643799506224e-02 1.016630752144053879e-01 -8.124947903170967600e-02 8.355435080077816545e-02 1.107459680719986156e-01 -1.144996248604014111e-01 1.806879447226548696e-01 -2.670718597323121918e-02 2.558418654795951291e-02 1.450121078741353209e-01 -5.497533407975672970e-02 1.135903836671405941e-03 -2.046787976219726635e-01 -8.325578202988924426e-02 7.097812436152822757e-02 -8.436775489826509045e-02 1.032650801431000825e-01 1.722777570658682311e-01 -4.159916974251105098e-02 3.521319113089947661e-02 4.562484256016823697e-02 -4.458080802739834009e-02 3.303671268033129410e-02 -9.812665553466141943e-02 7.300809663713549169e-02 -4.958207141685318925e-03 -3.656625411631333339e-02 -5.147512130069597375e-02 5.075858010857279418e-02 -8.391207415417628601e-03 4.846953391699530649e-03 -2.369460697810735900e-02 -1.707133074458164479e-01 3.615424594056195623e-02 -7.862140083788238254e-02 2.112448448837369111e-02 2.241705362609680216e-02 8.294508276109703593e-02 6.597224645264930520e-02 -2.890146428408617990e-02 4.859080032500442958e-02 3.625727878022289713e-02 1.917792190292162413e-01 -1.845280060937209976e-01 -1.098062793937328446e-01 -2.747016091254830469e-02 1.918238895023565704e-01 -2.169467829039057882e-01 1.537730804128870435e-02 -4.064712787064855837e-03 1.110378308449935097e-01 1.708212086314486386e-02 -3.474992794082759628e-02 1.131415868587683365e-01 3.706798422996741005e-01 1.222972587108158565e-01
1.035137196243630792e-01 -2.763654706735127822e-02 1.937067549531594490e-02 -6.005231113251301850e-02 -5.657447238539060896e-02 2.194002223310322075e-02 8.347048310810405158e-02 -7.110324227018213761e-02 -8.745279493221254363e-02 -7.607909551787250813e-02 1.693587663418644196e-01 1.352465462880781955e-01 -1.292949659922303096e-02 3.880431644063905144e-02 -5.450887950648303920e-02 6.303969394562772277e-02 -1.262314367029991891e-01 -8.257249977476077002e-03 -6.197838237549260082e-02 4.898610078357677061e-02 -6.617456457051482110e-02 -1.070684839362803786e-02 4.021537080908600681e-02 -1.509703215601506110e-01 1.973988514482943879e-02 1.307749781972085135e-01 -1.701686956357121314e-03 1.463514059207003670e-01 8.311567254014863571e-03 -9.700159517382947461e-02 -4.881465337099615692e-02 -2.907320113712420773e-02 -6.236589063063733987e-04 -2.881744355234091420e-02 -5.679421124479611116e-02 8.895635978898737417e-02 5.260327434782395561e-02 3.804596006052025567e-03 -3.648598131683770951e-02 -7.487786136493543299e-02 3.704932237324882333e-02 -8.183856814005428804e-02 -1.055482461836732139e-01 -8.814184367604760081e-03 -4.973162175277905800e-02 2.610672114228846513e-02 5.804294318182750406e-02 1.141488085839172106e-03 1.123724018472537119e-02 -2.752277062842439781e-02 1.180687851960583595e-01 -2.525835462183694240e-03 5.985157742749575016e-02 -1.536378206775895067e-02 4.406754836086970023e-02 -2.390024252391663440e-02 -2.188651979366577210e-02 -2.084326361742987882e-02 1.829054421633432570e-01 6.570432935895224869e-02 -5.991995445286975308e-02 8.416932936223717188e-02 -2.097225402614734044e-02 -2.775678858108391114e-02
-3.718468484125630590e-03 -1.747157081939372525e-02 -7.829395794541035847e-02 -9.188967067255389420e-02 7.974363169072665528e-03 1.402875288626546924e-01 5.285188587413518907e-02 -7.837120649021414240e-03 1.329599330993723738e-01 9.714478126045096584e-03 3.330373545233718258e-02 -1.018150028897885084e-01 6.409401397241344667e-02 5.864847893840566262e-02 2.843472979638088025e-02 -3.664217513352607813e-02 -4.781419958424183020e-02 -9.609928087921143502e-02 6.417457143832340505e-02 1.513671437947668452e-01 -1.723516656034044803e-01 9.242624692868878222e-02 -1.526555026979308123e-02 -7.918288558026116697e-02 -4.959863736209919188e-02 3.725753168106988450e-02 2.796432852493541468e-02 -3.972292543637449824e-03 -7.153855442032425183e-02 1.559870889967368340e-03 -6.890063736886979651e-02 1.168867134868736661e-02 4.449671075835345824e-02 5.074695642117470207e-02 -6.448573497289993017e-02 8.376824273302510560e-02 -1.205522838365813837e-01 8.733264695688993523e-03 -2.861134731355025052e-01 1.883904869453629366e-02 4.953214839926998320e-02 7.486520783825699465e-02 5.375614425448008160e-02 -3.434780289640995687e-02 -5.268531166035712171e-02 -1.346186664063469922e-02 -6.092400881561687437e-02 9.333549520523223841e-02 -1.730724216014488948e-01 8.723266407524223054e-02 -6.785049201452214573e-02 4.801773783349557595e-02 1.514883402806885271e-01 8.271180565382171834e-02 -1.003147981428820501e-01 -1.371245292724780716e-03 1.548770214466989661e-02 2.083145176884456662e-01 -2.780498406105383902e-01 5.804505076735040625e-02 1.512492342969580517e-01 -8.939925228335450502e-02 -7.195527331221034106e-02 -5.640870925417301469e-04
2.247706568823122086e-01 1.990160379570067237e-02 -2.513589704535879044e-02 4.094502170097460980e-02 5.534978316953673670e-03 -2.673711523093983897e-02 3.564811632647395534e-01 -9.289413102614010875e-02 1.840713745130254653e-01 -2.218774004064377747e-01 -1.339886538665548965e-01 -2.047873822881161598e-01 -5.229557469340864184e-01 3.283714133320360662e-01 -7.222477143475944383e-02 1.078620501513302132e-01 -3.186068260022075771e-01 -2.377660811706244492e-01 -3.934755318648623656e-02 -8.388757844840734335e-02 -1.312759595281139460e-02 2.045176388636689990e-01 -1.343616966515490951e-01 -1.822421362439837211e-01 -2.665765840987608937e-01 -1.302642811606326105e-02 5.822433864719390312e-02 3.547760862494565015e-01 1.155866265081573196e-01 -5.278507051640462383e-02 -3.935151669627318660e-01 -7.989598926741539597e-02 8.781883203089485557e-02 3.350172741103484286e-01 2.181402566559301759e-01 -3.017814150347449265e-01 -6.681927231042886217e-02 3.197449557020908828e-01 2.629175323077893034e-01 -4.396022625442296342e-03 -6.601503538829204230e-03 -1.051112511760773915e-01 -2.441581466150034574e-01 3.061604603090754551e-01 -1.393305827869263935e-01 1.323260800022314498e-01 -4.587012331364299228e-02 -4.939106630431224221e-01 2.357497248219227182e-02 3.482791075088827459e-01 -2.927065367945670959e-01 3.399891924707591495e-01 -2.998352507146888613e-01 -2.516400807991209798e-01 -2.933431296779696051e-01 3.149609952212480968e-01 -1.907525566190174382e-01 1.310431523709949253e-01 -4.413526956819989189e-01 2.359381133741545178e-01 -3.226116911503076889e-01 -1.960405493560457013e-01 -2.191240088355653759e-01 -7.250261292556477166e-02
2.488011152670520799e-03 3.120577171609859035e-02 1.037296519256853677e-01 7.654894960541666626e-02 -7.314128209371942996e-03 -8.633121956539994979e-02 1.103373507706256057e-01 -5.875440267404046651e-02 -2.399588648517914959e-03 8.055250231083029011e-02 -1.666148862898092220e-01 -3.407270125545175388e-02 5.790200748044967843e-02 -1.450850412717048267e-02 3.831848444575218504e-02 7.926690437875653916e-02 3.296271428338639481e-02 -4.389211170718770177e-02 -1.713803709267380446e-02 -4.898627378780206001e-03 4.885902560979094728e-02 6.747488315665790826e-02 -6.438214678887931031e-02 -1.465574349140038590e-01 1.217820425312448468e-02 -3.280882612746226223e-02 5.063368391485695589e-04 8.783273510568576081e-02 1.394520437384440259e-02 1.315311792262439071e-02 7.213508393621050063e-02 -6.053907305555036172e-02 3.374454951710306738e-02 5.827770023111790432e-02 4.436776652681726635e-02 -6.595885266280440695e-02 -1.293187357655014302e-01 3.911649914437997227e-02 2.457356848844113179e-02 -1.035911082270097733e-01 6.242145326458794358e-02 3.503129417120851019e-02 -1.102790000021451264e-02 -6.028780559210462908e-02 -7.325905469816194806e-04 1.337100692362234167e-01 -5.111962906937132789e-02 1.022553633299999425e-02 -3.599866169670535177e-03 9.222610027717872971e-02 -2.572312869852285896e-02 5.662750080646920120e-02 -2.309994444725586293e-01 -2.020174243423791469e-02 -7.014361169858415734e-02 -2.686532165279053794e-02 9.357755071758852919e-03 2.544855683249068815e-02 -2.039053447359045201e-01 7.102327274872619056e-02 -2.297662617969573051e-02 8.739684399970278419e-03 -1.392394644280775806e-01 -1.450468787856482034e-01
4.136076268539041340e-02 -7.893100201297270635e-02 2.430874432329424573e-02 2.528726595913494482e-02 9.157982248738635866e-02 -1.022975327887824804e-02 -6.731612490398064530e-02 1.230953842919558783e-01 -3.408405542039489450e-02 -4.813710833448121840e-02 6.954197438010821042e-04 -2.553376709907128825e-02 4.926017046669011953e-03 8.044493640793671380e-03 -9.812085421624875542e-03 4.469859518483066015e-03 2.693050839731457244e-02 6.394830185257158184e-02 9.331114613735005947e-02 -5.205913619733785330e-02 6.602560057692745399e-02 -5.796866681669079341e-02 -5.036999469832270648e-03 8.878608944505494982e-02 -6.564569117233925999e-02 -1.999210708444524101e-02 6.324206812088886687e-02 -2.474175086102596843e-01 -5.535986330201937700e-02 1.067434275841496610e-02 5.826425193998053392e-02 -4.882804094544540736e-03 -3.304341293102428315e-03 -3.660729690585404900e-02 2.582191558435335474e-02 -1.579402100337651271e-02 -1.338273053670123967e-02 1.376251858533561728e-03 -4.394715048324237400e-02 -1.111612375319801366e-01 -4.849852221039591821e-02 3.267717752861759584e-02 7.679432350615204850e-02 -6.986557923501150735e-02 -6.314318661294371360e-02 -1.232137770262008158e-02 -9.410282427514415210e-03 -2.249155568172122449e-02 -4.848348937241500622e-02 2.512025515000725420e-02 -8.788896516876604226e-02 -9.931904321678357642e-03 -7.180330254040215472e-03 -4.187097811536859282e-02 6.712291001015520397e-02 -9.622274843317664417e-02 8.209148921832065682e-02 -3.175726565225096831e-02 5.707358322136306394e-02 -5.331105302657562078e-02 9.192477692408172751e-02 7.221703312169720779e-02 -1.352689643636429684e-01 3.947898751428694647e-02
-8.222720095328805989e-02 -2.106995508498698058e-02 -6.393339204121085972e-03 1.010006428241531640e-01 -3.942862808650816203e-02 -2.672360423543027053e-02 7.814940537368222223e-03 -8.832814220136288308e-02 -1.504413502366730160e-01 8.310603596961990691e-02 -3.278293139804189238e-02 2.678433738478278731e-02 2.179619347791850268e-03 -1.084736159051152421e-01 -5.172353859154506239e-02 -1.289204764448450280e-01 -1.104700482011555934e-01 -3.902391466022698402e-02 -5.607851691609311295e-02 8.913263651935035559e-02 -2.670631201033388594e-02 5.943019413924107569e-02 1.002286459796235402e-01 -8.139725216165985544e-02 -7.007013600004639853e-02 -1.320173320340010253e-02 -4.572723607352531007e-03 -3.183323405127729822e-01 8.994044012866660512e-03 7.365178591104389050e-02 -3.324948099894534104e-02 1.126140354975478791e-01 1.559992249985252544e-01 1.963498571412751817e-02 3.005318302449451126e-02 -6.477493116268212558e-02 1.369551360292105280e-01 -4.623308500588429321e-02 2.616125400118072403e-02 -2.282535425082944658e-02 -3.791817947667468214e-02 -2.225753653900459234e-02 8.038521395836392691e-02 1.088310465371584990e-01 1.096765878332877225e-01 4.968773044987858387e-04 1.153192677521108767e-02 1.316306843020187065e-02 -2.351226165089711356e-02 -1.017390545569380432e-02 -5.618000683257094729e-02 4.887716494160503078e-02 5.726824467261871360e-02 -2.474133762756215368e-02 -3.507335388839652457e-02 1.532243326120445448e-01 -1.636818313055793807e-04 2.036442200887499665e-01 -2.031395453060292344e-01 1.568925185193462690e-01 2.529378835884387583e-02 4.486576700137000218e-02 -1.516028797221020685e-01 1.032726153281815357e-01
2.751610332447796195e-02 -5.816735931347607504e-03 -2.022467000425712865e-03 -4.258619805070133768e-02 -6.324989898200485128e-02 1.297553556747927939e-01 8.587065381735103226e-03 3.685107194720792234e-02 -3.803034829244961168e-02 1.009757182151969496e-01 7.232788370845015524e-02 -3.090468181940381545e-02 3.219540267622256896e-02 -1.255217412399314836e-01 -1.223536200242652736e-02 3.888698220309095427e-02 -6.600752895216707716e-02 -1.061212492770837457e-01 4.300660611508267533e-02 1.666983361124368263e-02 7.976365787245444372e-02 6.216781254898865600e-02 -3.527752478530614411e-02 6.252027874199368729e-02 -2.365141148326597997e-02 1.595050099012684450e-02 -5.435839967735615896e-02 -4.274789309373321772e-02 7.440247276064575373e-03 -1.263088794638438650e-01 -1.588022136474253818e-02 2.219207333823261172e-02 1.029270335153986693e-01 1.094503031256890829e-01 4.499528964454298924e-02 1.587726928892038702e-02 -5.256220602372219108e-02 -6.160872972948910897e-02 -5.928614571413022560e-02 -2.051066233142814776e-02 5.581936823988783991e-02 9.768952090272932376e-03 6.054780357308030270e-02 1.101426454489142226e-01 1.134242467284607148e-01 -1.683334389954702082e-02 1.124815681285252361e-01 -9.339540206701753278e-02 -6.603959381038697340e-02 -8.682853837519893814e-02 -1.497633791652103891e-02 -4.060212487049261708e-03 1.936510951313939188e-01 5.597131653876324942e-02 -7.811305204822501999e-03 7.615977174338450784e-02 -2.462178924615977815e-02 7.642621009031705381e-02 -5.736548439792954479e-02 5.273764494285615055e-04 7.048951953838758500e-02 1.128670834933526417e-03 -2.021522549951398906e-01 3.587382826227003552e-02
-5.458107047728009281e-02 1.129544264881973403e-01 3.802409439714436040e-02 -1.931582659300863994e-02 -9.220567918475713887e-02 1.430837182741010079e-02 4.394664288739238284e-02 -1.394922800810091679e-01 2.108282450647510908e-01 -1.890699780955214584e-02 -7.230377851366583120e-02 -1.692958683069976933e-01 -2.433018516217243243e-01 3.785954882088200107e-02 -1.430461022192511811e-01 -8.224116254303989737e-02 -1.626206570761594139e-01 4.575205349478181360e-02 5.782104314866329947e-02 -3.441134333870439488e-02 3.685856542167020161e-02 -8.660373862108484977e-02 4.390359040565993548e-02 -1.533766224883361950e-01 -4.725807989070594101e-02 7.537755880300366085e-02 2.012995781086944491e-02 2.575013529616028141e-01 -2.063736174539494012e-02 4.089279126402377632e-03 -7.309682828940550214e-02 -6.268604426283952424e-02 -7.778705912552162649e-02 -1.127076405994935915e-01 2.340575149797250176e-01 2.033611774138715730e-02 -4.697315024326519095e-02 -7.692139175983270238e-02 6.513776651976629917e-02 -6.051593827273545534e-04 -9.812034841858890966e-02 4.607558180193233738e-02 6.716318760039072244e-02 6.752397314833069597e-02 1.000491767088274309e-01 1.126490006176886390e-02 1.217589330887812460e-01 -1.495912094723959168e-02 7.992493469293333874e-02 1.889414580978575897e-01 -2.262763536327927760e-01 2.133752491269156060e-01 -3.480803773220174646e-01 1.587420482477620159e-02 1.154575491148761845e-01 1.473944490789628192e-01 1.398196434594102811e-01 -3.301030918880805409e-02 -1.631599785546035755e-02 2.012045721926055963e-01 -3.324139606430652483e-02 1.684628028969507516e-02 -3.260379385168664379e-02 9.322248531714693101e-03
2.900725454954598131e-02 1.026909280647143700e-02 5.869221971555570183e-02 -7.520510881041735096e-02 7.974901218244798140e-02 -6.375025740517518968e-02 -5.373599896408498555e-02 -1.062145667818864964e-01 -7.184963232844041037e-02 1.252742264121655125e-01 -4.974896229396458952e-02 -2.142413024352573248e-01 -4.696236290312166828e-02 -6.667759012423718490e-02 -6.223157858623763750e-02 1.294726341940730108e-01 -1.024695788408660213e-01 -4.485322844073370147e-02 -4.000173294031015431e-02 -8.809217871404535771e-02 -8.608098890821694327e-02 6.694936943167661969e-02 1.001904380505196507e-01 6.202930987232489757e-02 -2.033363799841985536e-02 -5.416767528796580938e-02 4.716591643985896393e-02 -8.126665432851470916e-02 -2.061148523499866519e-02 -5.767374954294771788e-02 1.016441742886458194e-01 1.946540925103751873e-01 -1.944585159093762533e-02 7.844094976773674510e-02 -7.621547210875721790e-02 -4.043785744818445549e-02 1.424083694561436297e-01 4.334503161283456002e-02 1.433755091808777693e-02 7.216384704748152190e-02 -4.718514066670237428e-02 1.682145230379509040e-02 1.719449301075111070e-01 1.204720303539922460e-01 1.251331211151829048e-01 -3.178005501111574871e-02 4.941471404964012382e-02 9.065079924577897075e-02 1.410943480047482379e-01 -2.679366977550358755e-02 -4.741080446761589823e-02 1.208867543158299307e-01 5.056137851205694256e-02 -7.061914582415584896e-02 5.553074654287193726e-03 1.672601607498357401e-01 -1.021719397939926388e-01 1.487091119974026134e-02 9.962010017699131359e-02 9.657690929519534284e-03 -5.021513162841727274e-02 -5.564678462619159632e-02 -6.178494854514211126e-02 1.447559944185491110e-01
5.428886083720365491e-02 -1.115939721552156316e-01 -5.720928297922949456e-03 -8.490103089275294335e-02 -1.187928442393262375e-02 2.204643522139803150e-02 -3.957762876093088439e-02 -2.808284157521534485e-02 -2.223166689488894135e-02 1.400326912164959539e-02 6.071559890701370282e-02 -2.290265603315619694e-02 1.247833909149873993e-01 5.520212791936714158e-02 2.666547912294187691e-03 -1.113773519488905767e-01 8.889015857088100603e-02 9.752262507065891095e-02 8.192533367828759572e-02 4.444860905356973896e-02 7.803237298243227704e-02 -3.765711104121020891e-02 8.703471147472116587e-02 1.116325836610323474e-01 9.061103358065704383e-02 -6.425395546948180214e-02 -1.461509639629174177e-02 -3.238792640362798958e-02 1.039851217283352114e-01 -1.519774193283073005e-02 4.915561873556979072e-02 -4.312767422410582197e-02 -2.666158350334705412e-02 -6.714306799302890982e-02 -1.528585012266127918e-01 -9.210238808547989431e-02 5.548191964632745443e-02 7.404263195569485423e-02 -1.092337662367965333e-02 1.181862971342147531e-02 -1.859876882525039743e-02 3.072800849697471248e-02 4.172727761864659934e-02 -9.805553629169767860e-02 -5.475140757799082381e-02 -5.749030444779359983e-02 4.132040018610256800e-04 -5.198376266897212009e-03 1.145319179254916248e-01 -6.303972230472526528e-02 1.895732237493114591e-01 -9.524370408008191180e-02 2.187686560875638786e-01 -8.573804061281520630e-03 -3.037329745625585650e-02 -1.191868451441672472e-01 2.398614925027130543e-02 1.793861350603105642e-02 2.442860569072582699e-01 -3.075877322342716047e-01 3.024213065608468212e-02 -9.680070500831217117e-02 5.747763720700263534e-02 4.874889101699139693e-02
-4.164184095246070694e-02 -1.241351716550432582e-01 7.461136710910589234e-03 -5.716639330112847223e-02 1.221559426296747915e-02 -2.144946982513954228e-02 -2.085634459354723455e-02 1.102418898763437433e-01 -8.267116094410939531e-02 -9.385763903399112554e-03 2.409451387219365900e-02 1.248581306570471366e-01 6.588979473203557952e-03 -4.302715371282470752e-02 8.593252918359194081e-02 1.667591605371412239e-02 1.480599786764322939e-02 -1.019473377159617611e-01 -1.459356115672685028e-01 9.952677238884655164e-03 1.199546426354475837e-01 -1.155153537907189359e-02 -9.677798621790806299e-02 9.231405929149708034e-02 -2.986261908830780895e-02 -5.215584070126981497e-02 -5.449330684650454532e-02 -1.660192490882187732e-01 7.252922303476981580e-02 -1.540531015399959069e-01 1.771979533081305749e-02 3.547392657749351419e-02 -8.025779180047193373e-02 3.167834057193347208e-02 -3.461535151310494302e-02 6.956134684552080054e-03 -9.702246448874751045e-03 4.621928879443879673e-02 7.400977386534771628e-03 -8.131286483854446856e-02 8.292165661401727783e-02 1.255641005269594601e-01 5.111977648292635257e-04 -4.412057398579557338e-02 -1.073975087093089614e-01 -1.414559251042429334e-02 -1.003987788780493912e-01 -1.816329551666225894e-01 1.111496472126669022e-02 -1.393078933394902019e-01 -5.780697763034173611e-03 -3.768313714751984900e-02 -4.743516339190542719e-02 2.128292559616101060e-02 -1.203022209632050449e-01 -1.749677506267668103e-01 -2.393493602114173092e-04 1.097586505408711527e-01 1.475087958368537788e-01 -2.068320653605258130e-01 2.145128583665177613e-02 -9.519971585072575793e-02 -6.653291883420724140e-02 -9.955026442130686382e-02
9.024016147312489966e-02 -1.326213468426227782e-01 -3.446157693314275822e-02 -3.618490402908662584e-02 -1.200098679506207688e-02 8.441886149352639812e-02 1.921472084831033975e-02 -1.136808675991940742e-01 -5.775082848391715346e-02 7.673206676599902964e-02 1.282503566613014435e-02 -9.867255341294474402e-02 -1.512190741302954777e-01 2.101228772740927064e-01 -8.737675975291749053e-02 -1.131975013685017697e-02 -2.319224509624514055e-02 1.058859904811701863e-01 -8.947354557668243946e-02 7.945302524116464038e-02 1.262598771185632629e-01 -2.099127086104305914e-02 1.006625787018473328e-01 1.263079827264653732e-01 -6.188069090260947536e-02 2.738635513645256911e-02 2.129050375395828004e-02 -1.106574850403192756e-01 4.235883542203901925e-02 -7.123357066103656876e-02 5.196052927975586960e-02 -5.669521944929860335e-02 -8.517071954564088554e-02 2.929594495255230871e-02 3.183996545485612284e-02 -4.403684848308435373e-03 -7.195881540881264582e-02 -9.731716432422443663e-02 -4.339065074791204762e-02 2.514491675662263934e-02 7.683954032286417768e-02 1.096990615844199157e-01 7.895382702786936380e-02 6.545223095287229509e-02 -1.906445340861256249e-02 4.647209214362935797e-02 -3.231684758635133825e-02 5.039540668361040809e-02 -1.076909816640266547e-02 -5.195104099993199352e-03 3.303331006826109445e-02 -8.208666952834700603e-02 7.690198289181286728e-02 -7.686893007896493379e-02 -1.439772024373431845e-02 -6.366744685904011936e-02 7.711005158495344613e-04 -9.672105679380713084e-02 1.360677866326169272e-01 -5.540422521782205623e-01 4.899446766665584152e-02 -5.257907626928456229e-02 4.870339619043675267e-02 -2.890081336960737598e-03
-9.270858094238045022e-02 2.586214066999063463e-02 -2.746228184079860246e-02 7.387245430252249723e-02 6.384402177788882360e-02 -4.227347461260949624e-02 -5.372147173444652597e-03 9.390276854761750447e-03 -1.200217641082531872e-01 2.077080049993913335e-03 -3.127059851960399539e-02 9.427100115350549314e-02 -1.637439967965487533e-02 -4.449156280431344757e-02 6.807589443948552921e-02 -2.333410195914634513e-02 3.141971236918111865e-02 -7.900681004442595967e-02 1.860455594241140764e-02 4.400224701185313086e-02 -2.800526424319499039e-03 1.163729924934142901e-01 -8.655213422802930656e-02 1.151735417456895422e-01 -2.274351910526511977e-02 1.142457246410368554e-01 -9.598860721592145095e-02 1.625727475268086766e-02 3.840387842734222651e-02 6.231335654379241418e-02 1.039181109626020200e-01 1.009355226966818786e-01 7.017122065769577921e-02 1.230666088555927712e-01 2.085536911884175448e-02 -3.055249509677558303e-02 1.574128136163889524e-02 1.184219178239806769e-01 5.253084265159896349e-02 3.117238900614811500e-02 1.094976693407534174e-01 9.768307314154389687e-02 5.094723207846880292e-02 -2.097163609676129872e-02 6.736947764136551331e-02 -1.811270062163145705e-02 3.503052921812648685e-02 -9.942346851814969078e-02 -7.729937743168555087e-02 -1.185967328245778468e-01 9.950656601179624916e-02 1.898326455989217051e-02 6.605290804462592147e-02 5.476988681195728292e-02 -7.058436388613320740e-03 2.097413516571040512e-02 -3.780316405363808030e-02 1.158791500882454389e-01 2.354531051127495625e-02 -9.140613478610487563e-02 -3.235557524300537724e-02 1.714809559888860399e-03 -6.788374154802676030e-02 -6.876891573990517002e-03
9.057566545271579159e-03 3.021375632290384389e-02 -1.030265483699956269e-01 -4.738977072247265582e-02 7.687645040711332638e-03 3.271303706626358526e-02 3.771582142046630420e-02 -1.003034993089454707e-01 -4.723002022739588440e-02 3.786923124794883133e-02 -1.238846945187555837e-01 -4.422250228446081982e-02 -1.029025192229339816e-02 -1.073929195983775592e-01 8.353113221194977123e-02 -6.922742639115747609e-02 -2.238160312146581649e-02 -9.100534156084411075e-02 -3.108366122972942500e-02 -6.273684555201905488e-02 1.853253890801076151e-02 3.790160460954605792e-02 3.267235007619089665e-03 -2.532381850991262048e-02 1.005430423393383899e-01 6.502354044154598500e-02 -7.071463064787303354e-02 1.469388719145531784e-02 -2.958072232845263688e-02 3.321028421572624900e-02 -4.651080305646723700e-02 3.907208054320931989e-02 -4.521275520236889972e-03 -4.075377707428182172e-02 -1.018886046939947686e-02 -2.082202799219132205e-02 -1.403115506735241533e-02 -9.916992635173156601e-02 2.367443964299283804e-02 -2.207793229440533148e-02 -2.114616027232047585e-02 -1.394810744132861935e-01 -4.965994200548656812e-02 -1.253156824103233806e-02 9.181464408650795439e-02 2.194007148148681072e-02 5.774499529065716535e-02 1.801145185357550665e-02 2.417812306573677121e-03 -7.605665907554153005e-02 -6.186997507448945346e-03 4.199467316475135464e-02 9.923266702117694571e-02 3.196243958717050887e-02 1.083779857646890860e-01 9.009060263596545270e-02 -2.861124809779751112e-03 -2.049535062903477464e-02 1.205073853736152445e-01 -3.340629631258740240e-02 -5.842165287196397078e-02 -5.574579837114020109e-02 1.558497279265523006e-01 -6.458691492629785313e-02
8.174226510716979532e-02 -3.213973135900258238e-02 -3.597615068373504615e-02 4.033782210769588233e-02 -2.782226648371164887e-02 5.644955453385820318e-03 -6.202647223213747507e-02 1.180472855395076348e-01 -1.956261215762302164e-01 -3.542760195196851397e-02 4.708541722463245593e-02 -4.533610690587369652e-02 1.125785331270571232e-01 -1.600042772595636209e-01 -8.672795165837103581e-02 5.310925569106235422e-02 -1.066420955256749820e-01 1.383567464791506940e-01 1.508351013023709886e-01 1.195327520638335694e-01 6.267622716671863992e-02 3.529696942936241810e-03 6.265642024819519096e-02 -1.468132821539487771e-02 2.476015366751690636e-02 1.622828684335464178e-01 9.132200304928164702e-02 -1.093295246569000873e-01 -1.960614850103827300e-01 1.495084923624584623e-02 -9.938492541781465683e-02 9.336962348689072100e-02 8.426628328065138840e-02 -2.411761192549723154e-02 3.944324633732966545e-02 2.162511531306153187e-02 -1.126050276116893553e-02 9.205843681641046050e-02 2.660600026256477665e-02 -4.386942686533634728e-02 4.209977515023725914e-02 3.624298909687816150e-02 -7.736106547719376336e-02 1.070496819833685886e-01 -2.977344657476764175e-02 3.335992508659310629e-02 -4.987456696301695996e-02 -2.811578616987113824e-02 -2.136723191673037606e-02 -9.369767756601721578e-03 -6.253310168095158050e-02 6.133028776392834835e-02 2.162668815507111375e-01 1.780037592667875479e-02 -9.160800697881218285e-03 -5.931524853036930500e-02 -5.605577084033104562e-02 2.555758527583425477e-01 -2.582241875815536880e-01 2.800589709695177065e-01 1.192535371848960218e-01 4.975295858354884804e-02 -3.755703289802805878e-02 -3.201731158000839517e-02
5.120205830664844270e-03 -3.852135000705679546e-02 5.057907572926691880e-02 -1.783450766795059358e-02 2.133208995349579820e-02 -3.511243783869411744e-02 8.592509179203833281e-02 -8.907131756037453552e-03 2.241654340162174686e-02 -4.112404181090079797e-02 5.812048725967310786e-03 -3.580784126322072297e-02 -9.655004073113532259e-02 4.288303167585705983e-02 -7.817596276062968585e-02 5.377833441439817258e-02 7.540403463240612746e-03 -1.210539455915909945e-01 6.010370150749787255e-02 3.041520549200646059e-02 -2.339422315897888432e-02 6.555919811657436036e-02 -4.903045772233689120e-02 2.011048478954220731e-02 -1.283508088948457082e-01 6.436628578204062201e-02 5.818370304499714818e-02 6.435848491532450422e-02 8.729891206355599315e-03 -8.028049275272873542e-02 -4.817145322114629868e-02 -4.386385178829297206e-04 -7.579071122390106455e-03 5.861129925045009681e-02 9.108538613058943245e-02 -6.367924068468819310e-02 -1.058839451410405544e-02 3.320063654823084826e-02 -4.161970827229412306e-02 7.145073076158889314e-02 3.657621717621150487e-02 -7.697114613859679100e-02 6.063995532031823954e-02 2.345042056303190195e-02 -2.330663932695157051e-02 -4.792810027853966481e-02 3.976229987607084182e-02 8.644087103279569917e-02 -5.846891453776886793e-02 -1.736753008996005931e-02 -4.441347937644820471e-02 8.383662231141641996e-02 -1.118824189814562886e-01 -4.262565120735920671e-02 6.372534888951308929e-02 2.953749946477871036e-02 -7.869875187977626307e-02 -5.453299250668899867e-02 -4.406326051797902071e-02 1.257726302294716603e-01 -3.289964221912149156e-02 3.508357229237376446e-02 -1.165344469940271799e-01 -1.024502329016936664e-01
-1.172389862523061932e-01 1.113181477658767848e-01 -8.445699955548724436e-02 3.618355390122585807e-02 -4.064308381375776602e-02 1.056885148309361366e-01 2.076593502268122837e-01 -1.292157084165038161e-01 3.214924245699320865e-02 -4.957064503008955930e-02 -1.346952169893892437e-01 -3.061443491696665131e-02 -9.436676393781801009e-02 -6.795073943881861644e-02 -1.544315604887224087e-02 -2.453175497540088443e-02 -8.632385033383437045e-02 8.822237180644303470e-03 -2.859890718041220581e-02 -5.860035509800045478e-02 -5.589787328171261921e-02 4.666607273158314417e-02 9.998742955367785623e-02 -6.643411244748882727e-02 -1.224474920825465718e-01 -5.407258760571706166e-03 3.888380824547367758e-03 -1.645759942218335270e-01 -3.341430121177924734e-02 -4.216004559929933254e-02 -7.781563852530865022e-02 9.698381322073157396e-02 1.438048977045754996e-02 -2.707883668146440770e-02 -1.889178694529425329e-02 -3.607235942950207108e-02 6.158091586685479624e-02 -3.263346192669847740e-02 -1.208546859868406959e-02 1.129092478004687788e-01 1.365528919237536535e-03 8.350104188154396090e-02 -8.182183787035975098e-02 8.002667093467337456e-02 6.530930019794618097e-03 -3.121633892093785695e-02 1.081099263337679667e-01 3.627257422660328662e-02 1.992292807691101175e-02 5.738943936806704255e-02 -6.918984096496461067e-02 7.077938023518634547e-02 -1.601248028609949803e-01 -6.304944391460481912e-03 -4.358870150127319709e-02 2.208828119604472895e-01 8.847459255230576483e-03 1.601066419487569975e-02 6.064847250237161147e-02 1.936072046591195972e-01 2.631053696938741998e-02 2.902947185137953051e-02 -3.088593493401918799e-01 1.986919065202942536e-02
-1.397341253822867273e-02 -7.884347937093952319e-02 -8.971681809512592476e-02 -1.588639641604427249e-02 8.422917088935949481e-02 -2.007186791731647296e-02 -1.824706644786154922e-02 -1.362184130298928486e-01 -5.978747482740490865e-02 2.067842113345664742e-02 8.094171001643776786e-02 1.013752210842067403e-01 1.449063677509770942e-01 -3.727352596763253145e-02 -3.466271468597127703e-02 -1.254782583426371917e-02 -1.187546887096867752e-02 7.563771036946503878e-02 2.285780317303685340e-03 3.778572704473961378e-03 2.090943954846300953e-02 5.194541415433571313e-02 -1.780762464437571357e-02 1.476695815842366255e-01 4.084474397692142156e-02 5.596327771795551326e-02 -5.156168118440511428e-02 -4.199612334775720129e-02 8.769631661475174589e-02 -1.441362901807356593e-02 -4.202766973847880949e-02 5.509710614766354098e-02 6.281116978357959013e-02 8.790585658486764487e-02 -1.527672384848632325e-01 5.661977442558135259e-02 1.237033759458985860e-01 1.515149782779564858e-01 7.044851247127992266e-02 2.532232433813652595e-02 -7.790108374047490479e-03 3.617674649747248949e-02 3.044068200484833717e-02 4.894867465925526601e-02 7.615560632276244246e-02 -9.556649256877587650e-02 3.917255359564022349e-02 -1.822882340406778989e-01 7.963672050923321921e-02 -1.196668477552432358e-01 1.441509439471978515e-01 -8.349995876058677324e-02 1.340424108327948338e-01 2.848585865227381761e-02 -6.908170654597449965e-03 -1.127990209810093847e-01 1.238409713727017629e-02 6.024432576215068419e-02 1.041901237643672457e-01 -5.198202454616222823e-02 -2.976366386795012073e-03 8.421621575996116049e-02 1.174906490233634665e-01 1.046412841254686227e-01
2.293933738673284081e-02 7.513894999957002052e-02 5.160333373295623166e-02 -2.108698498714043357e-01 9.398965317571388034e-02 -1.816823138559957307e-02 4.074006083701404123e-03 -1.405829998337835840e-01 1.428448714997879176e-01 2.386738311121195180e-02 1.200909562208367365e-01 -1.412571519694076905e-01 -9.172086653000406653e-02 2.540553336159588269e-02 -8.081873009164818045e-02 1.034917839479319035e-01 -2.774454434933655914e-02 1.821438744099939961e-03 8.175360093133880734e-02 -1.163236366999873816e-01 -5.078264261970809497e-04 1.138221260444764911e-02 -5.065433438959657947e-03 -2.267197080096160916e-02 -9.478036032177794556e-02 6.879368571498310769e-02 -4.936244995077777170e-02 -9.641739570659650649e-02 -1.085939070915623306e-01 -5.791607113815491759e-02 -4.965123954607884166e-02 2.048760032808881471e-02 6.215403755931724755e-02 3.756200707441642583e-02 2.214377532728845771e-02 1.531569254622889079e-02 -1.366716176447737019e-01 -8.213329280761806628e-02 -9.724155958394160859e-02 1.210892927773093569e-01 1.679024210817034457e-02 -8.166683779391684106e-02 8.063787158595837889e-02 2.687152859786860401e-02 9.587786329159386778e-02 -3.730836717658448515e-02 6.931642079230733444e-02 4.636617034710848601e-02 -4.144867124880812631e-02 -8.507609263491944587e-03 -3.162556955971512068e-02 -6.523478298931202624e-02 7.801571786781287543e-02 -8.142278250210592538e-02 2.394302198586985633e-02 1.293238359501421852e-01 -5.384588955264795612e-02 -6.477209144315430878e-02 9.117511529277803894e-02 1.599715770886319943e-01 3.332392470223995845e-02 -6.863764155295799807e-02 -4.452789130612299501e-02 -3.675561832463156153e-02
3.322453330560148910e-02 5.327458698458740344e-02 -4.402606538662492963e-02 2.015908702564358501e-01 -2.531858083411172786e-02 1.100200518710464509e-01 8.802928718641819805e-02 -4.021857998557174657e-02 -1.090179596406159052e-01 -7.840645421376132157e-03 7.776431414783863127e-02 7.273878494943638272e-03 1.042281305387727369e-01 -2.971315179535944165e-02 -5.227385295724963805e-03 -1.189214143112015398e-01 -1.125629420377382839e-01 8.388634579095786969e-02 2.568466340189446556e-02 -3.051966267598300170e-02 -2.396125492989475969e-02 -6.592254039498957052e-02 -1.513028587332555797e-01 -1.193154092014632184e-01 -4.577641462687608020e-02 3.142210035730647055e-02 6.122985093207977854e-03 -5.940339403552430397e-02 -1.020239049777327961e-01 -6.280896346976130862e-02 -1.022067927341044347e-01 -4.009965183656824528e-02 -7.505516198455305932e-02 -1.121386264664434168e-01 3.507212225513469533e-02 -3.899668159724119926e-02 -8.746832612325160239e-02 1.238067897043863830e-01 1.456047920001053014e-02 5.556715979137640676e-02 6.339177072429599824e-02 5.150819968096799484e-02 4.083200815194041461e-02 -1.019984320130440381e-01 -5.240113763697708260e-02 9.670853356823906621e-02 8.240516838572017888e-02 -1.190104203103632408e-01 -8.263455088486063027e-02 9.828324027182768017e-04 7.264046963780362853e-02 1.773535685535961720e-02 -1.311363885834868903e-01 5.081720920664081070e-02 1.456681059872078771e-02 1.262602723660656047e-02 3.395577039293083688e-02 -1.070294644501795962e-02 7.957424678573522814e-02 2.701927811237456178e-02 7.208943300134047771e-02 8.415689169793387492e-02 2.588659520185402838e-02 -5.524269041998020567e-03
-2.965673876192173042e-01 5.468272813440196167e-02 -4.303337487389160415e-02 2.251856640222756750e-02 9.612932739152993400e-03 -1.118772586923319629e-01 -1.009918244633705858e-01 2.842371021533379033e-02 -2.281202690240198561e-02 9.279720208286078298e-02 -7.469809483464620592e-02 4.447437190732367318e-02 -8.546892642374162574e-02 -4.902804052574808585e-02 -1.346591869131869186e-02 7.678259979051998974e-02 8.950685958092144401e-02 6.650989774067564420e-02 1.871195588832491640e-03 -5.151986399850932291e-02 8.232083304709396365e-02 -9.750521118939130261e-02 -2.925877872213206513e-02 2.854819700005603589e-02 -1.935857359625093796e-02 -2.979624228819246351e-02 3.067706502541322003e-02 5.874022563387207296e-02 -1.167554995635843168e-01 3.492401382963293555e-02 5.240503929303323011e-02 2.384563199895105290e-02 -1.577582163640899038e-01 4.158660699054009952e-02 3.090301115136728088e-02 7.877383171347067392e-02 -1.388417783737945221e-01 -5.031366828936357366e-02 -3.829549164027429980e-02 8.539737291627087432e-03 -8.161105307381419371e-02 -1.014818003185157490e-02 1.246718198118844240e-01 1.247654489779285655e-02 9.256320220797464686e-04 -8.914200840957732519e-02 3.782894960519968958e-02 -9.738129753942882660e-02 1.778333870742588863e-01 8.622565231317816381e-02 -1.703856333578220722e-02 2.324720216086090599e-03 -6.805675856736015383e-02 3.587132017565094338e-02 1.824758222209608705e-01 1.014961177874670051e-01 1.391159187212934745e-01 6.356884473072461905e-02 4.124661439358394410e-02 5.535988902589936839e-02 5.931782994000518033e-02 3.793553532604726497e-02 5.291921607213142392e-02 5.090903693232639443e-02
3.506058871949798567e-02 -2.695029157054994878e-02 5.666589928113634905e-02 8.093194690493459020e-03 -3.498954147423880695e-02 -8.709151226220654407e-02 -3.566264472175009748e-02 3.068471485605087090e-02 -1.505346118463633531e-01 -1.540993043310807942e-02 2.820390699060380119e-02 6.855338470732114109e-02 1.105851143553469584e-01 -8.238990586203884248e-02 3.559873178012212813e-02 -3.618402921713950032e-02 3.281213395875062083e-02 4.416547736844030070e-02 -3.588941312207975798e-02 -4.040386544964817694e-02 1.919067856011916207e-02 1.352661466606544516e-02 2.848701925202114064e-03 -7.339008165441945897e-03 1.355766223440053875e-01 5.862603207321950838e-02 -1.567194858264175580e-02 -1.023142144875707482e-01 8.651517184095287860e-02 1.002806018198987709e-01 -3.680217123873192470e-02 1.596376328629314778e-02 1.287424732217360146e-01 7.653979264415476658e-02 -1.305743045222282350e-02 -8.488137044613251227e-04 3.665593985529988497e-02 1.219384870762064560e-01 -6.233746469914332872e-02 -2.770186683699944318e-03 2.310496404417115499e-02 4.737918418937740739e-02 6.446543189913932215e-02 -7.694641946651607257e-03 -4.334420702596680081e-02 1.154620387630580086e-01 -9.540881951712544551e-02 2.563234564981954622e-02 3.399217342150600424e-02 -5.700918735135435816e-02 2.182894652360866522e-02 -3.819829215078332160e-03 6.857419434191928953e-02 1.001729062981243819e-02 2.781714294771069768e-03 -2.259814109068579088e-02 -3.108894507362432863e-02 6.582472143779092601e-03 1.378511516679402082e-01 -7.739039684995721591e-02 6.059128760143710560e-03 2.554021708152569986e-02 2.016128618149566620e-02 4.133985705784709065e-03
2.259767190278856586e-02 -3.193734540642109015e-02 1.912846215188868382e-01 2.067455023699946159e-02 3.996314787471483276e-02 1.955234092768319831e-01 1.446482683193917561e-02 5.719903178123792592e-02 4.774273349753337115e-02 6.370453542026721996e-03 1.343149293760661223e-01 4.464865778161383053e-02 1.067918345569506336e-02 8.684199094116726303e-02 -5.726655414556765938e-02 6.420900411116903239e-02 5.999903031576943324e-02 4.153164493850172029e-02 5.101371650323759804e-02 -7.502462137885237969e-02 2.066071248918346925e-02 -8.327169949469255539e-02 -3.286091237584237712e-02 4.231830084890015470e-02 2.791341052058977923e-02 -1.047795603348897625e-01 2.526384236797642874e-02 -1.189784576918999220e-01 -3.199413375426990447e-02 -1.349489237196035696e-01 -2.634711649398355920e-03 -2.732044469535580000e-02 -1.614880432510260311e-01 4.091980030810228597e-02 5.973944897088606654e-03 1.336371179737119198e-02 -1.456711509875092403e-01 7.818545968275258939e-02 -1.171710763103539776e-01 7.712075357263707687e-02 2.989865876856487997e-03 -2.219285798239020724e-02 1.682709027068692367e-02 -6.279214657500364893e-02 -5.837321970320650394e-02 -8.383609055981380842e-02 -2.270676984551578056e-02 -8.182820003436706152e-03 -9.390710754837208740e-02 2.613730918013670856e-02 -7.030061796085500248e-02 -5.374465006276217538e-02 9.885875838018201578e-02 -7.880823241346811281e-02 4.380193068062740447e-02 -1.752379523557279495e-01 -2.361927668236882619e-02 -1.067017241388668186e-01 1.254156338108572966e-01 -1.352224738222955192e-01 9.777979172321039913e-02 5.345774565306847526e-03 -4.098946783182765702e-02 -1.034275391069121586e-01
9.092909684747239873e-02 1.509605472440215569e-02 4.577282773871414225e-03 2.658613856583401380e-02 -2.831583309686344294e-02 9.801794899776668235e-02 1.394320168000669213e-01 1.047753430605275447e-02 3.028616215854000940e-02 -9.376528128365052561e-02 1.150447330445359892e-02 -1.340610445770229649e-02 -1.641051946504216708e-01 -9.760929505530827055e-03 -4.724485068340365801e-02 -3.495638882960479948e-02 -1.544275323300379754e-01 -1.160079021649751060e-03 1.345341931805759013e-02 3.668218632615214986e-03 -6.531531784171661081e-02 6.178774037603897845e-02 2.074245652100079051e-02 -1.117460969348730432e-01 -1.629648828825959461e-01 8.040280485478584760e-02 6.769158035314130906e-02 1.091781778277728376e-01 -4.295954866923554216e-02 -1.830720760699959190e-02 -1.908598625639897767e-02 1.049717754315024690e-02 2.726386279762304382e-02 3.879400845579421275e-02 1.682886129259430763e-01 3.594931435115691215e-02 -2.832377843394030467e-03 5.685034625034045969e-02 -6.375221610749154388e-02 -4.524119888166296816e-02 4.922427228217021028e-02 -3.048719595556600298e-02 -6.442815362740137580e-03 -7.259389311958061586e-03 3.221609318468834221e-02 2.626725298076500875e-02 -4.777801586136828926e-02 5.367723243208703809e-02 -2.322803998889370197e-02 3.716406025576287492e-02 -2.564770879127972053e-02 4.261595116325370136e-02 -2.308358168653707465e-01 -5.933120839167884547e-02 -3.595885918142317783e-02 2.052298725515734612e-01 -2.511116456083867243e-02 1.515504459910175898e-02 -1.703833806701905429e-01 1.515884215835984206e-01 -8.927821435272904893e-02 9.478556556251438101e-03 -7.656431055223072990e-02 -1.217073635930056123e-02
-9.778042484294717507e-02 2.527956100106429904e-01 -5.713252260036088409e-02 2.272269166715221427e-03 -1.334895628068679951e-01 -5.861933466461181214e-02 6.589561889765228886e-02 -2.137077382768463596e-01 -1.083487705658616462e-01 1.377655142588068288e-03 -1.967870022578948053e-01 -2.117369655964640718e-01 2.436083686526621314e-02 -6.674357055880127121e-02 1.514097709845159956e-01 -1.042553675567919613e-01 9.762004086686890125e-02 6.113916742800958037e-02 1.649047427545841452e-02 -6.774730206344252437e-02 -1.304244407086862512e-01 -1.522674939912181669e-02 1.011998023984751888e-01 -1.494275241113467712e-01 4.124411565854893547e-02 5.185802298524896242e-02 5.525906240416050830e-02 -3.819632205469962460e-02 3.805363278549604711e-02 -1.815155708202176310e-02 -6.918088225473317809e-02 -1.753575688602344584e-01 -5.739842910373202378e-02 -9.862079429483992798e-02 3.613449810388107836e-02 -8.704942995902585634e-02 3.248250318784273727e-01 -1.001480476042010959e-01 9.824424236199846838e-02 1.706055153867961360e-01 -8.346744148888493239e-03 7.280468061709674532e-02 5.498763856217548512e-02 1.152363855128795966e-01 1.985811640028941338e-01 3.066032281505670087e-01 1.130763002020769431e-01 -9.521314050417389874e-02 1.617065424256108053e-01 1.231121173773447146e-02 3.845831606419385790e-02 -7.096909079591458280e-02 -3.260742717898293952e-01 2.951537796744299960e-02 1.314344835226124719e-01 4.217697160128451306e-01 -1.249326408309591740e-01 6.133787626684124999e-02 -1.615261417428857579e-02 9.738939281401279291e-02 1.102158003218921961e-02 2.226277620973901861e-01 1.395265952008571952e-01 2.944601949745009016e-03
3.415193741588837956e-02 6.334325864165522846e-02 -8.114492260133984725e-02 -3.407502165622775664e-02 -9.374269648824949674e-03 -5.148601399508621196e-02 -5.054392582569911668e-02 4.909658321969377626e-02 8.293637926472721689e-02 -4.282325432291719108e-02 -2.275505859688527546e-02 -2.211401352902100936e-02 -3.805209002994654199e-02 -2.533897838312324305e-03 -2.175997003166677685e-02 -1.224130166259038578e-03 5.053501838110509119e-03 -2.907503870230896195e-02 -1.999508514400775289e-02 -8.765117984860630596e-02 7.164838364128735260e-02 -7.322639397661991068e-02 4.865623515849628588e-06 1.041702731869310894e-02 -4.569063114802629152e-03 8.565301511137062007e-02 -5.417705135747837540e-03 1.349528187283284830e-01 -1.137360948987973944e-03 1.231261993622992518e-01 1.084392736611688307e-02 -4.987922211539649875e-02 -3.181337980757367040e-02 -4.515090541205785124e-02 -1.652258729785022542e-02 6.611316106825249929e-03 -7.147326515877744368e-02 1.916984926630748917e-02 -2.122393846006928944e-02 -2.568497085266652127e-03 9.536872483384669155e-03 -6.783410698750222401e-02 2.188579713374161004e-02 2.190715675235016535e-03 -5.758309510954735116e-02 -5.156426158436443891e-02 -6.837532764768813713e-03 -4.627664430874013635e-02 -4.060031719998045963e-02 -9.062246396840396845e-03 7.342470324262834191e-02 5.425406993444074639e-04 -3.143739860592829893e-02 4.633419745685651847e-02 -5.616151875123061993e-02 -8.071121424886891493e-02 2.897059275480228652e-02 -3.551785085417330338e-03 -1.461308297858034122e-01 3.717930899257661931e-02 7.745169693227415240e-03 2.651730757306834663e-02 -9.049034455798775356e-02 -7.176072396792132491e-02
-8.397749842253481034e-02 -9.449338752594310664e-02 -4.320519483799687560e-02 2.654489099704982272e-02 6.566711279042070082e-02 -5.603428307179153522e-02 3.074509370549790427e-02 -1.179960789006835875e-01 5.932726816505565909e-02 -4.696476539792118765e-03 -1.192650787591569284e-01 -1.377117468202302963e-01 -6.598297289151934530e-02 -1.348849718455961133e-01 -4.425072140927350378e-02 6.108515449148517462e-02 -3.105135321472783649e-02 4.327438662796774527e-02 3.201794414198458338e-02 5.208143344605341285e-02 5.273398439715786673e-02 1.226157475252737383e-01 9.844051746923268564e-02 6.094104974901488891e-02 -2.086135811897727246e-02 5.118823385381716246e-02 3.624734517801681682e-02 -3.405742081751027273e-02 -1.368367914390093421e-01 5.574811754406822431e-03 -1.168695165821377439e-02 9.540538760134645302e-02 -1.071709226869691362e-01 -2.005167631365091171e-02 2.318573231079466487e-02 6.659442062675660634e-02 8.945785574023773501e-02 6.670436180066109666e-02 -4.061809430171143404e-02 1.264869391788752684e-01 -1.240408650814675134e-01 -3.651856513680995509e-02 6.019306492339836917e-02 4.790761893899436741e-02 6.607639332809721322e-02 -1.712721567889864682e-01 2.567191937141558022e-02 -8.496614741524098624e-02 -4.945194464159305414e-02 1.997395089989840306e-02 -3.722537793858976540e-02 1.346337245599113497e-02 -2.919977625814392311e-02 -6.395929167270565652e-02 -5.681621812206598399e-02 7.356858340328543966e-02 -1.225078322444554807e-01 -1.037814908179123669e-02 -1.534754368768936061e-01 1.713805235015670725e-01 4.197300426875605339e-02 5.232495565628098727e-02 -1.479314995898800000e-01 1.933705136826126825e-01
8.308537857262239534e-02 7.688876497754344556e-03 2.829238795138676321e-02 1.629835245005628874e-01 8.472433925916789121e-02 9.352218787755153806e-02 -4.101739173135780098e-03 9.266946058261334163e-02 2.216095988142810155e-02 -3.987072623049702641e-02 4.854689325364064389e-02 -8.776738831917238470e-02 -3.512870782307180376e-03 4.223684521168955333e-03 -4.071562512645204857e-02 -2.037336895881196319e-02 1.175103870551865446e-03 6.614501034624473141e-02 -1.767411403900250380e-02 1.785793316717805557e-02 -2.125954571172875007e-02 -5.657301857058811417e-02 3.268868126790525075e-02 2.611312095279478759e-02 7.853593712352768819e-02 6.990131782701160257e-02 -2.019414600724142236e-02 -4.430490635759568724e-02 -1.509138478701623452e-02 5.408053146631324609e-02 -1.307416892860657244e-02 -1.892501753056364741e-02 -9.135654911886308127e-02 -6.722355880916121296e-02 1.386569254490165742e-02 -1.625492942333619378e-02 3.601105298314409564e-02 4.624037652665620446e-02 -2.427768486281698182e-02 6.195776747759331599e-02 3.969735306781749240e-02 6.930990317055300831e-02 -8.568166383847167222e-02 -1.064060733759693705e-01 2.331741697014817760e-02 1.091955019666748933e-01 -8.067940180168869935e-02 -1.038010968425982089e-01 -6.804405354948467322e-02 -3.271066861600489296e-03 5.212554404414821568e-02 3.247294193640740817e-02 -1.279090111164240540e-01 -7.418783398249341465e-03 5.479557693303763709e-03 -7.753772262138138027e-02 -3.434698468348488382e-02 -5.518516664402262767e-02 1.539938270924902375e-02 -1.810172344854722171e-01 9.358868988275914624e-02 -1.604337313065896595e-02 4.038773045981323842e-04 2.436803764840377029e-02
1.634884708937832040e-02 -8.825691503286055284e-02 8.570583799821622495e-02 1.339638432872833698e-02 5.988925847631696581e-03 7.098058078251762160e-02 -5.490525031258828431e-02 -1.639511428017970465e-02 1.260281246041149161e-01 7.175946474780864337e-02 -2.104627321582380750e-02 -1.496227577768652339e-01 -7.657812185329000709e-02 2.834633836000169382e-02 1.766782369444730124e-04 1.216942130091434038e-01 3.985341062319886635e-02 -1.656105595409455844e-02 3.974479869707429891e-02 7.510484863539176881e-02 3.553449234698929926e-02 1.095771749334254197e-01 -8.087331426103012977e-02 7.755986154002914024e-02 -5.344093602374421631e-02 4.676197905368290747e-02 -1.069025906863812526e-02 -9.339006248389933318e-02 -3.505510740534251851e-02 1.534340805914087558e-01 -6.060154726265575692e-02 -2.466513571368019256e-02 1.914545807983487197e-02 5.025649110962748106e-02 8.024508276309653965e-02 -1.976678688253534488e-02 -6.065847875142563184e-02 -2.567806829838943997e-02 1.256887026624333055e-02 -6.397927130857448443e-03 -2.559353291213569206e-02 5.247741259445798390e-02 8.519717596502119836e-03 -6.396483368299964167e-02 5.530678988410328567e-02 3.468061972777048557e-02 -2.830674096967758513e-02 5.924846767219626997e-02 -1.151723295006194803e-01 -4.757653754395339309e-03 -4.002226511445632594e-03 6.475917045410610473e-02 -4.797930544927296592e-02 -3.295424736740906746e-02 -6.929054998494893480e-02 -1.308573486975605831e-04 7.546131283534340817e-02 5.656454297895758404e-02 -1.770108994300889915e-01 1.141418406337691045e-02 9.316449378990279695e-02 -7.620532147229462649e-02 -1.774795928841464143e-01 -1.321169385569757604e-01
1.138861461273509568e-01 7.125169103411559124e-02 9.540179401610709986e-02 6.793405197790318428e-02 9.993525577511925065e-03 1.433394933641248259e-01 3.293348070299846608e-02 1.538332664827764540e-01 -5.137748404162588954e-03 -1.169622953886938904e-01 1.199726400078064831e-01 4.567032061497230434e-03 -8.030590113463734192e-02 7.199674660740951193e-02 -6.837580810815398549e-03 9.946110741428497437e-02 -3.697605878498354259e-02 -9.107214928529454301e-02 -9.513490784627718147e-03 5.636612968371137317e-02 9.275089214276262262e-02 4.852433067295124081e-02 -6.800970231312428171e-02 3.934074099970004401e-02 -1.032358796782966021e-01 -1.317771657042294403e-02 8.365255664608642339e-02 -6.497762234772848366e-02 -1.706398402397767133e-01 9.515256468330703099e-02 6.161312520358778327e-02 -6.050055646243782809e-03 6.003746880344269093e-02 -5.434586742443614504e-02 5.335924379665787226e-02 -2.222432814342331642e-02 -1.908575792708203794e-02 -1.016908339243518394e-01 2.807575407372633891e-02 1.657072317428895727e-02 5.959780834437029134e-02 2.986459042246069132e-02 5.905896273689596743e-02 -3.800089849260611385e-02 -7.872710489555984070e-02 1.746401047251732452e-01 -1.105834717483572711e-02 1.722721151564485798e-01 6.063249946799287304e-02 7.665296163610601891e-03 -4.095708418829346886e-02 1.187666540927767161e-01 -3.752016018439594675e-02 6.031426118821340415e-02 -7.873534805799042857e-02 3.447872891080106666e-02 -9.449826775300495391e-03 -2.303046177518998372e-02 -5.763376109841721051e-02 9.697489327016813043e-02 6.549776012429439631e-02 1.439133175463554182e-02 -2.183323285086176679e-01 -5.085641866808458811e-02
3.339504874637070492e-02 -6.646768437035611987e-02 -2.313923805101541706e-03 5.800492008898974761e-02 -3.215583267927724781e-02 -2.458982024991410165e-02 -7.403774549396099913e-02 9.182971332368025305e-03 -1.166036862744768005e-01 1.390055479840371366e-02 -5.408689430601864440e-02 2.180562424728646476e-02 1.555923393165746793e-01 -4.037279288680045014e-02 2.537560669066644958e-02 1.048476168962698615e-02 4.327715853322303130e-02 6.477410422612753238e-03 -6.738860530370695268e-02 8.525056920676546759e-03 1.219978896354840213e-02 -9.155294725731395744e-02 -5.191887821867024327e-02 -1.058229505536731178e-04 7.423297480936531800e-02 7.329603859860314707e-02 -2.997340658643652192e-02 -1.230913387759594163e-01 -1.434980200325917422e-02 -1.080327181897218075e-01 -4.556090124706044936e-02 -5.526603582802019909e-02 -4.986121318250875262e-02 5.137218958766146676e-02 -5.471702076448538982e-02 -2.378686686023788466e-02 1.531916650291535731e-01 -1.885235825799028847e-02 -5.704185163891424548e-02 -2.088625783888459556e-02 9.321114795684548593e-02 1.049777013151535418e-02 7.941722933796793726e-02 1.787542667402837460e-02 7.217086657133740812e-02 -1.330172626050129814e-01 -2.779892154364981341e-02 -1.823670476920118133e-01 1.340930677553849905e-02 -1.024159778413421401e-01 1.755100386407258684e-01 -1.301113949835120687e-01 1.596505392905193110e-01 9.585240656442915730e-02 -1.923659785336183370e-02 -1.398022981766195161e-01 -6.038257156792232322e-02 7.599977362261799499e-03 2.729086822808754476e-02 -2.740396521907315780e-02 1.132750668628149104e-02 7.115748702019336625e-02 1.904210584018735664e-01 7.172731793763947872e-02
2.634621077874109082e-02 -7.937423560218937954e-03 7.357927792363665176e-02 8.370429306628283939e-02 -2.187515002058930749e-02 1.244511602626486302e-01 1.304718893058655349e-02 1.604959233128823090e-02 6.205856380857123489e-02 6.501510907477633244e-04 2.753949856800936777e-02 -4.043527931621574562e-02 -6.316944856662036478e-02 -8.787910682796719677e-03 -4.065028372563742054e-02 -4.492019848873281263e-02 -5.264625001123621195e-02 1.641679854969202434e-02 1.157422966196247904e-01 5.430654529688285631e-02 -2.100191620122479272e-02 5.696261791622181207e-03 -1.184884063503006089e-02 1.057169537963210428e-02 -6.815294838401732107e-03 -5.600172867865061549e-02 -2.825996467740836751e-02 -3.153910125195652676e-03 -6.768787093904883589e-02 4.881237383523857193e-02 8.983087229588759826e-02 8.093057065338295220e-02 1.157654636282221504e-02 -1.547526322426983486e-02 1.154652753383498820e-01 -1.851646392446298917e-02 -1.371006169033630873e-01 2.539292135405307391e-02 2.027392514051723840e-02 6.758100289598119315e-02 8.299175961105018096e-02 3.020615010099101608e-03 -6.618644537624568391e-02 3.456512028501260159e-02 1.865311903821079836e-02 6.314460885827836989e-02 8.995556847613921103e-02 -3.700667072787749718e-03 -1.874268839074059306e-02 1.382194952102417940e-01 -1.370529644336384578e-01 5.998930454741178281e-02 -1.668989187850006273e-01 -2.924905830649953895e-02 -1.154757917101463666e-01 8.506425542008562435e-02 -4.300504374386735287e-03 9.856512720350789347e-02 -1.841938762452210721e-01 1.527991937898060815e-01 1.099804425026306570e-01 5.840230386319160416e-02 -2.471993617676071162e-02 -4.870538213046398529e-02
2.762910227879057309e-02 4.020289105787952857e-03 1.134647835856360532e-01 -3.067720151621209507e-02 1.110622581928532096e-02 -2.594618355895553230e-02 -8.109240281681079354e-02 8.411947494970947736e-02 -1.179088834416790466e-01 -7.432282893800425290e-03 7.360938998963702240e-02 8.131387423347419263e-02 -4.828148030660992830e-03 6.009028661091913442e-02 2.640895961117267765e-02 -1.079591888707382222e-02 3.107366351744476202e-02 2.816077933217810483e-02 -3.180392237502661923e-02 -1.613219010427536029e-02 7.372478761958711768e-02 1.458783050291460048e-01 5.543561658461981789e-02 -4.063762884841205097e-02 1.156733787040743582e-02 1.124753779824648470e-02 9.057335098551916319e-03 -3.720138463162075415e-01 -7.394981114914341014e-02 -7.078158776104444272e-02 6.107365669997434632e-02 1.070035403507153121e-01 4.813590729700697318e-02 8.062716065486967565e-02 2.059929652533128847e-02 4.891727571907644040e-02 -1.141845812865778798e-01 -3.854573882625754455e-02 3.085595064087066908e-02 -7.565170823783555487e-02 9.699662936065309160e-02 -3.291896305801247924e-02 -4.294872166708415401e-02 -6.514592741657178332e-02 -1.382315913647326477e-02 9.227650151833485803e-02 -2.572632353198128774e-02 -3.064616864836366278e-02 -4.605018291005234798e-02 -6.333631958337694601e-02 -4.291353530485344375e-03 -2.128830937518443739e-02 1.083457136535758286e-01 -7.492689467027241479e-02 -7.683778492586751385e-02 -1.814603693492806424e-01 6.881541516418396461e-03 -2.689694567901533551e-02 1.464202419063303194e-02 -1.430687898290656512e-01 2.117388285732352965e-02 -1.144187579132205784e-01 -1.628599877207664026e-01 9.538167100322461622e-02
1.576783202118893223e-01 -9.654289512318162125e-02 9.838049836075747623e-02 1.039913149500020367e-01 9.275564132895793359e-03 4.553800616184573019e-02 -6.180756974019543937e-02 1.345798094699197645e-01 -2.281452655095089072e-02 2.670406598886136598e-03 1.292302200685974678e-01 1.419365532181359468e-01 4.992995812687716500e-02 1.035768872575493493e-01 3.754684492341110041e-02 2.150985001135098662e-02 9.195988522844283919e-02 8.682997447798056212e-02 4.350252516278963616e-02 -5.965220047122618552e-02 6.253701218236769332e-02 -1.458216018020945352e-02 1.023974825085688656e-01 2.527069221287272724e-02 1.048542393349855828e-01 -7.025216770541735378e-02 2.176257963739926943e-02 1.021794692775814944e-01 2.569879079366118452e-02 -1.114852990743550772e-02 9.798648289574876658e-02 -5.888547732854827049e-02 -9.375426675272408028e-02 5.805012719116976749e-02 -8.651266780101196652e-02 1.107963230501357588e-02 -5.692102292011423648e-02 -5.734581829994075952e-02 -2.244622107824443408e-02 -6.317817282214284458e-02 -3.915148756808439073e-03 1.282603916277078038e-02 6.587322275240098564e-03 -8.306186794668882212e-02 6.857673477430289988e-02 -4.620298808193502166e-02 -1.422282712951431771e-01 -3.041252804727437656e-02 -1.479607171893244748e-02 -1.052861492111544645e-01 1.250289516383566446e-01 -5.533222364312129909e-02 1.785032250256047281e-01 -1.153684757899277324e-02 -3.495507773693466713e-02 -2.582013455151266346e-01 2.540493461475451520e-02 2.361612081844855285e-02 1.910181694128507829e-02 -3.215578774374353022e-01 7.761466059091359782e-02 -2.018662332781754817e-02 7.972904865633349825e-02 -2.200221757533313283e-02
-2.769147412927909849e-02 -3.131265694514647618e-02 -4.949330826877406525e-02 8.323656389968836500e-02 4.036828701366459299e-02 -6.254176973438127507e-02 7.520834794756808828e-02 -8.631991858469380274e-02 -6.507305374862637146e-03 5.296393693123446073e-02 8.934418588048857399e-03 -6.733476572590578468e-02 2.072338165455082232e-02 -1.028159823688486046e-01 5.366538338539297154e-02 3.730591391654482225e-02 8.015340744013998986e-03 -3.636287166551693817e-02 -2.669384652646776893e-02 4.984946888112658236e-02 -6.381650219187581796e-02 -2.056716911485043792e-02 6.485235662265571854e-02 2.073606745080657995e-02 -4.840459526950177671e-02 7.428425699759945433e-02 -7.682865699279217697e-02 -2.621879899375573197e-01 -5.961889377606095775e-02 -7.636432117015781729e-02 3.532685059622042711e-02 7.700000505454755728e-02 1.289098837508547910e-02 -7.482448024245873242e-02 -1.117797912800946175e-02 2.174288263838719884e-02 -1.300832741827996457e-02 2.639699204920060299e-02 -2.448632759279317089e-02 -1.905354176240866421e-02 9.017751323762243643e-02 9.027166368500953719e-02 1.286089821075036069e-02 -3.997836882917903817e-02 4.812773588558984239e-02 -7.978715256379795284e-02 5.563603333877833318e-02 -1.306445731089050655e-01 -9.285494618689832391e-02 -8.058437266806595112e-02 1.399713244483971053e-01 1.322489184622152938e-02 1.610406696122213543e-01 -7.035832195031299641e-02 -2.612856080634061787e-02 5.366649346480521082e-02 7.279134842738742284e-02 6.116350340420428910e-02 3.100531694310517186e-02 7.878078623777785838e-02 7.060891913732836311e-02 -8.967133967676975403e-03 -4.362880038769321317e-02 2.030119708753089572e-02
-1.625916484325222455e-01 1.684587323981681303e-02 7.493815182294917554e-02 3.420742829186584032e-03 -5.103219793057363340e-02 -2.006933278939007081e-01 -2.321911107127669002e-02 -8.224377321389450546e-02 7.549419007041063834e-02 7.227216314028529764e-02 -9.306007793048659549e-02 -3.469044708569813534e-02 2.898141068421690725e-01 1.188767121358744322e-01 2.692499931814534495e-02 -2.855349516834294193e-02 -3.585000846036531276e-03 -2.062518313015201596e-02 -8.452091725330064531e-02 -1.480680713205217991e-01 -8.250374432959763082e-02 9.739719557041527642e-02 1.283541073168282809e-01 -1.144597805344813174e-01 1.860484841175363141e-02 -3.467225230997166008e-02 -7.899506852302951021e-02 -5.638546466824210235e-01 -9.985355398742511157e-02 4.365962800492420581e-02 -4.136113151642904773e-02 6.212753006210400275e-02 -4.343774187037291457e-02 2.491860362929201531e-02 -1.446027428897550537e-02 -1.317346905322765716e-01 -7.753785837046159313e-02 -1.273003942843545233e-01 -2.092473943827449431e-02 -2.307516703972015484e-02 1.640424499951231851e-02 4.929395681100530446e-02 -3.625556465635241567e-03 5.844213931688928276e-02 1.092996288201850408e-01 -3.860205702550419810e-02 1.242529642026322934e-02 -5.307461960802224710e-02 -2.554595204605918102e-02 4.469131413467455904e-02 -9.247195946311217996e-02 6.577095361663805317e-02 -4.412351656876664641e-02 -9.532696971958207199e-02 7.925895196234608586e-02 -1.543105397301828829e-01 -4.986213365405127440e-02 6.801594865723420424e-02 1.759789625957132730e-01 1.350891959335037418e-01 3.178569432515316543e-03 6.943133062598524918e-02 1.356462678532933397e-01 -1.146922934443841795e-02
7.412435935260835995e-02 3.369905750942946143e-02 -5.286130795021452833e-02 2.609844408931250026e-02 9.656501271926951069e-02 -1.782161010905131127e-02 -1.156578833033425624e-01 -1.231204307588961745e-02 -3.470234871740853627e-02 1.845314555628605954e-02 -7.358143872215890113e-02 -8.630567333801669738e-02 -2.435782088841120796e-02 -5.852102596127133766e-02 -4.506133175426004639e-02 -6.302817135216436106e-02 9.158688251095607746e-02 -1.264009888138964699e-01 -1.506941632789609957e-02 -2.024078577141322222e-02 -3.752640532159619985e-02 -1.181996507399436964e-02 4.636297583915555132e-02 -4.717082699395893676e-03 -6.563597474489501517e-03 2.104456861657128322e-02 -8.992879310156383366e-02 -1.473374325018523279e-01 -1.545942684482959871e-02 5.400344354417352388e-02 1.567783043115243691e-01 -4.583700925406622440e-03 -9.040382205134924148e-05 1.313373677078424548e-02 -7.639272143996259090e-02 -1.067571102840214094e-02 3.465846253624693674e-02 1.635744439016931229e-02 -3.274323943965198186e-02 7.809056155937980914e-02 1.007559287440554646e-01 3.944169329673378327e-02 -1.092967133000264379e-01 5.140025203637225981e-02 -8.905592322870867564e-03 -8.898038739221990345e-02 -2.766614443735699452e-02 -4.728990429700401753e-03 -3.135217098016779280e-02 -8.873844566873477502e-02 4.656019824446396699e-02 -8.691797128665193495e-02 1.819869147739850146e-01 -7.457826608914641664e-02 -8.694142788790169829e-02 -4.370125602072442994e-02 -1.788784587316106199e-03 -4.226112929877581109e-02 1.483925113268023954e-01 -1.827064715522725979e-01 1.639570241602191294e-02 -6.827834698569192062e-02 -2.879035792259387189e-02 -5.366735357504650965e-03
-4.765110378435402638e-02 -9.561583688284952531e-02 -1.664259694178197302e-01 -1.538545819872457476e-01 -4.499693007785900839e-02 6.473770426365921260e-02 -5.509009692382414031e-02 -3.806022801347515999e-02 -9.989122635912947579e-02 8.097422503667160709e-02 -5.780938922580186948e-03 2.398299435800265930e-02 3.783252761361715483e-02 6.135784221655849954e-03 1.243759769551431721e-01 -1.502750272946579702e-01 6.007782402678502054e-02 -6.268384320235791118e-02 -1.255395266945456834e-01 5.642309264821480930e-02 2.695993537003391061e-02 5.769854339955004380e-02 2.265992407338073087e-03 -3.395891566437723823e-03 2.236666408315756641e-03 -9.329766097769447153e-02 1.103346784944685827e-01 -1.092427709869147751e-01 3.736776764643029436e-02 -4.207418514987857489e-02 4.409052118698315870e-02 -1.230580532656509324e-01 1.148025243022361350e-02 -4.878493705361282989e-02 -1.214769611882963452e-01 -3.917162027502575639e-02 1.400620161648360174e-01 -4.301775464086751710e-02 -6.517843181774264638e-02 -3.194462614544234247e-02 -1.127073202008537292e-02 -1.622244707498783287e-02 1.298060932266057732e-01 5.384976364480798493e-03 -5.238383257527181452e-02 -2.864272915406874259e-02 -7.493546838051649839e-02 -7.429557847258561054e-02 6.518956481090407325e-03 -8.961434117638131247e-02 -1.660156171054167837e-02 -1.538078525275131392e-02 1.166154426832705232e-01 -1.305983789356855440e-01 -4.574164588881863419e-02 -9.122105485813462866e-02 -3.408433317256256284e-02 4.215174681778771637e-02 1.635725917162451915e-01 -1.375408130490827219e-01 -2.972838878254758371e-02 5.486796363682939180e-03 7.136945321129371800e-02 7.105494861061802114e-02
-4.960284392001273329e-02 -7.975878545246119222e-02 -1.160811057233707318e-02 -7.837052417422910033e-02 5.054508253068900475e-02 8.187945380223500547e-03 -3.119083724661719792e-02 -4.473398761376046195e-02 4.799632583741220843e-02 -3.357025461429851559e-02 -2.476878583190186833e-02 4.901646888908671451e-02 -4.783486002649749158e-02 1.559186725164029008e-01 9.848792903658083742e-02 4.313031653310258479e-02 9.504469813450017179e-03 8.894112323063356473e-03 -6.666316564631011299e-02 6.228046510477747849e-02 -1.223563029624809423e-01 2.769971829719284143e-02 -7.927944746889076244e-02 -3.833945200459966396e-02 1.863770828179255046e-02 8.375335610065511027e-02 4.028810514151624778e-02 9.362886216128249450e-02 -5.610290233584841989e-03 -5.373283927429388374e-02 -4.352038270958811378e-02 -2.101558196683622759e-02 -1.760599142529294808e-02 -3.885547430292304177e-02 -4.156825479277794638e-02 -8.319659143811622415e-02 3.311303237916354836e-02 6.453863275184984483e-02 1.443052738386054190e-01 -4.313949880821736638e-02 -4.848448539561046183e-02 -1.266308416348638499e-01 7.329635799912689875e-02 -8.911292187277207455e-02 8.915564774744381971e-02 3.434105915095392314e-02 3.509547818139510666e-02 -1.979162509595523006e-02 1.688312181590152783e-02 3.399591659830757118e-02 7.166608663402873614e-02 1.249422955318270530e-02 -1.581209992228264699e-03 -6.048407209831421771e-02 1.094466513316412898e-01 -4.354493763224265290e-02 7.929108289139168153e-03 -4.151328699898786112e-02 5.871266187736147446e-02 3.289469344646400034e-02 -6.466160492804039206e-02 -6.762384513432545541e-02 1.379854765351837542e-01 1.297764891139128497e-02
4.587473058667281695e-02 7.576904654971283737e-02 -9.451751808329787730e-02 1.357195401414612547e-03 -4.610276121523884663e-02 7.499632277437151551e-02 4.448760226624534631e-03 -4.368875902357209629e-02 5.532393073184267013e-02 1.785744869353209432e-02 -3.852896157526926324e-02 -8.402832868284923484e-02 -1.694941066766062765e-01 1.895516911353511968e-02 -1.932603370516910654e-02 -2.009799975256786053e-02 -4.222028847372288202e-02 -6.636759447996784522e-02 5.699414099202138734e-02 -3.453677221682974890e-02 -1.808517049886539108e-02 -5.829463629260585311e-02 6.554200013207086076e-03 -1.107040364142963529e-01 -1.389475672668485373e-01 8.081076232632321277e-02 7.067840557776476629e-02 1.735578600444081243e-01 -6.604861626471050795e-02 -5.186561975406740743e-02 -1.390723258758078396e-01 -4.163309305789225645e-02 -1.089974705919532078e-01 4.086032014952169222e-02 5.018054979601762472e-02 -5.589209406954873810e-02 7.322771066529246142e-02 -2.050538204285658542e-02 2.331719295043824594e-02 -4.036937393239110883e-02 2.271520541606277324e-02 -9.463449203515950092e-02 -2.839645119979013546e-02 2.186585562449209347e-02 2.623095249484526381e-02 -5.776725575301678607e-03 -1.705286545984608521e-02 5.323484013035321982e-02 -5.938766466310589631e-02 3.386664511616997719e-02 -8.026220243981592450e-02 1.130914377527867526e-01 -2.013237883831713038e-01 -8.803116753592363231e-02 4.340263629481422303e-02 2.106704996523084128e-01 3.333377694517966139e-04 3.320847414183482338e-02 -1.167338466152477577e-01 1.122910207543241362e-01 -2.892624760109345841e-02 -4.453822713332685618e-02 -9.276098211813814387e-02 5.721082292455733492e-02
9.957423532657397325e-02 4.722133534936111959e-02 1.548151072617860551e-02 1.312004686165472132e-02 -6.275384309351346446e-02 -6.811351407488673571e-02 1.109972297451747580e-01 7.848793799337105970e-02 -4.776733033850100694e-03 -1.030675926035692913e-01 -1.091453449140026011e-01 -8.390323694207166283e-02 -1.917962827530537984e-01 4.543892270009209505e-02 8.912609569627497064e-02 -4.824026125128411113e-02 -5.867467959398600663e-02 5.006363350742484147e-02 3.344719758046425101e-02 -2.428232861288570285e-02 -6.789909859290617355e-02 3.349273366996172868e-02 -2.946700782881978356e-02 2.039117562271722250e-02 -1.206608809710551372e-01 2.094943333047519576e-02 1.021244768406185666e-01 1.350923618709539420e-01 3.550993527625377622e-02 -4.382369435366952060e-02 -8.543173775024047456e-02 -2.321665561281282056e-02 -4.913530007565488494e-02 -1.294967348233136972e-01 1.293352352846456332e-01 -6.828583724454750925e-02 -1.385850430179514092e-01 2.855941880880632708e-02 -5.062754308035407463e-02 2.952460526377655159e-02 -3.056947325234815604e-02 2.135736365467680309e-02 -6.744762860488416611e-02 1.084418551876597664e-01 5.351481414725694358e-02 1.066050701453125221e-01 3.183830539428124384e-02 6.597161210417888666e-02 6.639935216538682405e-02 1.327635697314220597e-01 -1.228173083894895656e-01 2.516688245353874368e-03 -2.219285846231573434e-01 6.127617251658243336e-02 -5.984657986334928487e-02 7.457448707281658096e-02 -7.328049549192325318e-02 -4.696574890186339807e-02 -1.335190303739027806e-01 1.450334012904533065e-01 7.853195725205869629e-03 4.343433933312005474e-02 -5.395935420131448695e-02 -5.838563926782781854e-02
-8.700102111472071686e-02 2.998267970009729430e-02 4.662514578847423707e-02 9.338052928395822183e-02 -3.331849756147854669e-02 -9.627042777754515890e-03 4.883666138984573898e-03 -4.032153258982522359e-02 1.831399526652066623e-01 -8.236743589568261414e-02 -8.283360449892890331e-02 -7.361317440487573967e-04 -1.136278323507654286e-01 -1.269956813945374244e-03 5.008053156468140338e-02 7.619514498469494301e-02 -7.495745017566159130e-02 5.060826508969482052e-02 -8.131989491083363442e-02 5.677661697645348254e-02 -9.805637073691604588e-02 -1.456348690253738143e-01 -2.341784790853557521e-02 -7.546968969272839500e-02 -1.021928638391494115e-01 -5.248427225280486493e-04 2.689531036858329449e-02 1.694562996894796725e-01 2.672911208399055341e-02 -1.221182208613104531e-01 4.776908579782597475e-02 -1.424012247355291860e-01 -9.833527417058483822e-02 -1.230276411796578789e-01 -3.000349291793080395e-02 5.161045432728082055e-02 -6.669645225284680234e-02 -3.934160714159539579e-02 -7.831245346086273054e-03 8.149036910607676543e-02 -6.953077637696658542e-02 -2.077688068725739093e-02 1.891465680990363002e-04 4.216515674960225751e-02 -3.705127009143629330e-02 -1.272291934357118459e-01 1.650375959813791399e-02 -5.676336769512520253e-02 5.258049298101535873e-02 1.345551422190675861e-01 4.946061535996721693e-03 2.991936075359145561e-02 -1.317521283254322328e-01 -9.100165983716847901e-03 1.005887076462724100e-01 3.076155564910489429e-02 -9.047090874164502583e-02 -1.956801241294111454e-02 -2.779726217379691403e-02 1.965392489052486813e-01 -1.874356613504506164e-02 3.655584885512507681e-02 1.004731441638296585e-01 5.899234207216280321e-03
-6.131110388998532029e-02 -1.708580242986425940e-02 2.293331306567148592e-02 1.101249321750152610e-01 -2.491682028971139995e-02 -1.483720900589168279e-01 -3.078463195640268948e-02 -2.289006845678845728e-02 4.908852390497304291e-02 4.995842266386287672e-02 -3.434500714778120772e-02 -5.422330304532280848e-02 1.617033137647998914e-02 4.116417922818184361e-02 8.132525733439591176e-02 8.201488473541183877e-02 6.796646175052742378e-02 6.699411351164952233e-02 -1.013189223005502189e-02 -7.440768333578591520e-02 -7.050181001363499400e-02 3.328887623968233150e-02 -4.148419202740054323e-02 -1.022632849317376136e-01 -2.459788397526794720e-02 4.010243807482641309e-02 -1.387203130721427480e-01 5.959082673528318802e-02 2.638175154452725157e-02 1.232854351856028652e-01 -6.416857194203706705e-02 3.090416487886043541e-03 -8.162720122353039898e-02 9.530196169536046813e-02 9.695586151335604252e-02 4.307262911468872496e-02 -1.723633834075448054e-02 1.128555849156323738e-02 1.501518772077432493e-02 8.835258289653898089e-02 -1.407262201415420688e-01 5.852291159514922542e-02 -6.196011018226916384e-02 -5.164182482529087320e-02 1.253776370209148776e-02 -1.475562641244836451e-02 2.826121278545430313e-02 5.720201989361435591e-02 -1.100445905289306886e-01 -7.949149749023011469e-02 6.322077164220353540e-02 -2.040869620507177948e-02 -9.461953861770817931e-02 1.548297832085313887e-02 3.586262518942004429e-02 1.129266543514553661e-01 -5.958824765075735469e-02 1.414861287759925593e-03 -2.515430731635603934e-01 1.132333933681199840e-02 1.075000112365794014e-02 -7.365057966305198212e-02 -4.376470972468193138e-02 -3.024893720818034107e-02
-6.866899608172798153e-02 2.441382427412905343e-02 3.367507059122638174e-02 1.438496920109670063e-01 3.680102667506481018e-02 -1.375657253575387172e-02 5.933973159197069441e-02 1.020888391993727967e-01 5.628311661543018707e-02 -7.839128076256898781e-02 -1.240147275810464661e-01 -1.117012342934394775e-01 3.218450509056732661e-02 7.800134641254723167e-02 3.117545103634454529e-02 3.393501112369547851e-02 9.705948625394987539e-02 -4.675689979416117886e-02 5.469585895807955317e-02 -2.051442989023858146e-03 -9.209623431686304873e-02 5.340950059315389964e-02 -9.930214371982512209e-03 -3.763876641419602875e-02 -1.287372703397023643e-01 -4.136880067006609707e-02 5.968793768055263502e-03 -6.511813963102199010e-02 -1.463925988695618241e-01 -7.614482847964984362e-03 -2.183549387505679881e-02 1.000133433286755497e-01 7.326258606396275630e-02 5.579236121354474304e-02 3.048052517694061977e-02 -8.868122264151821754e-02 -1.305740246402742888e-01 -1.216913370520436057e-02 -1.199949741859432234e-01 -8.917353932469524597e-03 2.092388142630275880e-02 2.170676361292668555e-02 5.465920892348227061e-02 5.864530840213279771e-03 1.621761567945494836e-02 -3.824221057138473684e-02 -2.329141814640033059e-02 9.459957172988615881e-02 -7.327439139822475300e-02 1.138928552705057162e-01 -1.793660415145335030e-01 8.901368525659300590e-03 -1.420644772140197132e-01 1.894468793023383613e-02 -5.680067141963302674e-02 9.225594070313035411e-02 9.928693968161823868e-03 -1.017784569781003262e-01 -1.295973964059347894e-01 1.966091494288269292e-01 1.149226977680972567e-01 -7.313357697356041853e-02 -2.249243870479577384e-02 -8.285447125646620836e-02
-3.396606141726270928e-02 -5.548824113110253919e-02 1.706988928341189871e-01 1.146923967528363786e-01 -7.506660560635415591e-02 -1.112159193186434969e-02 2.410904255119455681e-03 1.233621797161688488e-01 3.647087945739759668e-02 -6.312277523486520270e-02 -5.389040946644869934e-02 -6.572028867600020197e-02 1.077490778165366304e-03 5.257846631263943943e-02 -2.245225116758317943e-02 5.749312243659895905e-02 1.230783056188360786e-02 6.685401075475455590e-02 2.717494868253780144e-02 -1.807126512572991214e-02 4.944916549484622975e-02 3.422428485473350684e-02 2.759562715593286142e-02 -2.401989460251060041e-02 -6.379942727494174182e-02 1.364726050408240562e-02 3.945725163478124714e-02 -8.017536552094833846e-02 -5.693725745182123127e-02 1.004432941165965126e-01 2.188464877887712212e-02 -9.719279971651531569e-02 -3.023794555862376401e-02 -4.767555672277784540e-02 1.410608832694722481e-01 -6.088255502331989255e-02 -1.337596529362592712e-01 4.268107021832106412e-02 -1.408751593806241154e-01 -4.850264264156226718e-02 -1.321381235624257029e-02 -2.100240906587975270e-02 9.206157146708700278e-02 -2.875407697659365658e-02 -2.818200563978400658e-02 -2.311226281389270124e-02 -7.100829009459144747e-02 3.966518598080365915e-02 -4.359931802224339265e-02 2.221201463391675110e-02 -3.222075642342415308e-02 1.114496524713227410e-01 -9.855579837271656596e-02 -4.623462782307252716e-02 1.793703920350823988e-02 -1.851986152237725461e-02 3.031449990706048397e-02 -2.909904280843834262e-02 -1.044185327660862236e-02 -6.183710855230642456e-02 3.294526553914708250e-02 -6.109902238078293579e-03 -9.659713251509878529e-02 -8.820953953929187852e-02
-2.670552498359098081e-02 5.439544507026038839e-02 -7.212602170005324997e-02 -5.061641809390998725e-02 -8.756390475761985370e-02 4.240076859445370688e-02 7.487144765259227952e-02 -9.595410010885004060e-02 9.083357977161483909e-02 4.235519808877794001e-02 -1.536378827611213360e-01 9.226733864041453126e-02 -1.292709661985188552e-01 -1.828779311509835803e-01 -2.765110995079489084e-02 4.521763233393796128e-02 1.833757688244848577e-03 -5.853455614183099287e-02 7.151467728773485896e-03 -3.586525371545253027e-02 8.663533387838262545e-02 -2.805461175127020590e-02 1.779240411330803295e-01 -1.622133592645056133e-01 -1.039414852353513219e-01 -1.712436821328519251e-02 -3.486462169730789734e-02 -5.175918349377008065e-02 -8.122213831332106282e-02 -4.743889307359784591e-02 2.296072416938607641e-02 5.165512671224110203e-02 2.935247518955241396e-03 6.724137011858695445e-02 8.292821328040488049e-02 6.210510805885098573e-02 -8.964930863372374756e-03 -3.793723806701387175e-02 -7.620784729956581183e-02 -2.857008438924179411e-02 -1.233258249682833881e-02 -4.518894879455826602e-02 6.593722327186429810e-02 1.641444005472510528e-02 8.204790697584525561e-02 6.750672092379382538e-02 2.204691757966011426e-02 -2.376150241179076153e-02 9.200155230409051699e-02 1.150569936927935411e-01 -1.070914697796842008e-01 -5.984657276519222968e-02 -2.748403723659438302e-01 -5.541743893697525375e-02 -4.801287824530054565e-02 1.718944413970503182e-01 6.169498692693001218e-02 -2.112196899227877442e-02 -8.137163890116944076e-02 -3.858665651106496508e-02 -2.183185780071563234e-02 2.004991554907728166e-02 -4.118643021753869149e-02 5.085625493315981682e-02
5.959253062769644810e-02 1.262745968863380162e-02 -6.450228416148209853e-02 -7.204420609967901457e-02 -8.018113086725232874e-02 -8.188710051613526386e-02 -2.038307617452032872e-02 -5.294256729362425279e-02 4.335151674104707059e-02 -5.463534425993156474e-03 -5.322321461697506612e-02 8.854636268556446976e-02 -1.848314986911221626e-04 -2.044736046181934441e-02 -6.287265020128673942e-02 1.381201760944303358e-02 3.725837712816396086e-02 1.770729424119371273e-02 -5.717912529641528546e-02 1.050582445007336614e-02 5.432317441494804132e-03 -1.839649119822418452e-02 1.435379874999582681e-02 -5.343264422601136376e-02 2.973677025304099185e-03 4.461956992135070882e-02 5.474022112170497112e-02 3.012910775567649302e-01 8.122004219270077818e-02 3.249510072908862873e-02 -6.292101758925279509e-02 -1.911267171255923505e-02 -4.458351998130618415e-02 1.434017373897477840e-02 4.360318349584493131e-02 7.289335528184442449e-03 -1.399754678367321759e-01 6.644875768201957515e-03 -5.792000080292347003e-02 -3.676924793818825421e-02 -9.024944706856723176e-02 -4.261648101459816762e-02 2.297537807331815826e-02 3.556803392494933998e-03 -2.163208077251645156e-02 -7.275490557679660519e-02 -6.576408633235088230e-03 1.032986805545011155e-01 3.561563613156144142e-02 -1.353197841675049702e-02 -2.506083367251341759e-02 1.870729603536120528e-02 -4.822878457079878695e-02 8.904360424445406652e-02 -1.046447145420739862e-02 3.841392845813019130e-04 6.269703381670405085e-02 -1.541193104530766238e-02 -2.789517988108093302e-02 9.603265542350514217e-02 -1.971319250207864693e-02 1.688134568263344182e-02 -5.446109331496472999e-02 5.288368425616111340e-02
4.249235458706270702e-02 -1.420489692053005792e-01 2.222035120433810684e-01 5.510512286721505615e-02 1.576828321673167110e-01 1.642706422501971075e-01 -1.386964418504035290e-01 2.414066508456279292e-02 7.537123687862448684e-02 -1.227699209890510158e-02 2.358792718773050079e-01 1.906101034135845862e-01 -2.058551988559213439e-02 1.749312100266824099e-02 5.146169735563140002e-02 -1.723046080539529859e-02 -1.043914590778635826e-01 2.248377777050658902e-02 8.326318704767241008e-02 -5.711374618830906838e-04 9.476153892252181521e-02 -2.051489925642525358e-01 -5.887738288728913000e-02 1.208479107515235962e-01 7.221961549043177941e-02 -4.788515173092822153e-02 -6.895711628126564852e-02 -1.525839833118297073e-01 -4.428741068697198899e-03 -3.456028469847510776e-02 4.057989801180054285e-02 7.980139500167500455e-02 -2.172526618245814584e-02 -1.451291300891929259e-01 -2.158951695508042889e-01 8.058951913417376767e-02 2.042801308319886489e-01 -8.655498303099853907e-02 -9.428501578226807303e-03 7.070497678124797181e-02 1.743288011432382045e-01 -1.397903804281972751e-01 -9.088137325053489979e-02 -3.660051741327290803e-02 -3.251514688431253464e-02 -2.079921694168037904e-01 -1.725147083757440358e-02 -8.764892642726885424e-03 7.842998131545693419e-02 -1.676221520642493523e-01 -3.507873059069043647e-02 -4.357410486184533360e-02 6.054572979130738025e-02 -3.860117936188415394e-02 -3.703583914782371950e-02 -1.649726278287717840e-01 1.052246734169674965e-02 -1.170255801224530379e-01 1.318919287533767137e-01 -2.010565585294193658e-01 1.021705191742785929e-01 -1.186700033905369739e-01 4.382366854897592340e-02 5.580691619600593179e-02
5.172781971167289550e-02 5.649612589741570545e-02 9.887208861435790950e-04 -5.349271321927427658e-02 -2.564310214582756625e-02 5.195377749991107047e-02 8.039888599552900972e-02 3.548133558664436082e-02 7.891861901173394256e-02 -5.538501541530627820e-02 -1.783915579628460313e-02 -7.669665031722298909e-02 -1.507090806904245739e-01 7.902631505098721421e-02 5.234667142602104223e-02 -2.778886685136429738e-03 -2.122651809895044830e-02 -6.584654450358815025e-02 6.421789672074259755e-03 -5.698072092743110967e-02 1.593109849405949588e-02 -5.189499400748809332e-02 -5.240882511087065210e-02 -4.636789306496101604e-02 -6.825069198563986361e-02 9.437444198509684079e-02 5.439920089796014546e-02 1.523699957663741389e-01 -3.954358489087127226e-02 4.934169950929340881e-02 -6.163030277858860123e-02 -6.298875100808590255e-02 -2.971713004183567947e-03 1.542369849718999708e-02 1.586534884934665823e-01 1.447041433262623300e-03 -6.058201084045247015e-02 -1.413935557992701542e-02 8.002438564984308556e-02 7.411700226719596107e-02 1.751367425895187027e-02 1.716745794493141145e-02 3.083417275072310518e-02 2.342143548806926989e-02 -4.351569578532674815e-02 -1.868138274815951986e-03 1.268858284983828515e-02 3.944511563038269331e-02 -8.061629008069229330e-02 6.741760024693245479e-02 -8.804464712107841484e-02 2.205845057198323883e-02 -1.979313205571655576e-01 -1.902356486765439253e-02 -3.275085874042366063e-02 1.558430631048293435e-01 6.147025430753197406e-02 2.034579374425463799e-02 -1.393125611924211082e-01 2.132944901811449356e-01 -1.540424247539949609e-02 -4.830426408522789893e-03 4.305426431738459264e-02 -3.697981300327111281e-02
9.084811257695254993e-02 -7.677920849628196154e-02 6.082128938436759391e-02 3.021867615636365106e-02 5.393668696983646565e-02 -4.996564484594537281e-02 5.501759648990095335e-03 -5.226814237905337557e-02 8.817247508883713225e-02 1.216456633472617031e-02 6.767151175214658476e-02 5.345529370538221886e-02 -1.961661383198429545e-02 2.750471433518573636e-02 5.059142343410593518e-02 -5.598244636752097714e-02 5.800243838809390068e-02 4.658181725045670851e-02 1.479796516650259963e-02 -1.205997346275551191e-01 5.378967012474590928e-03 1.424395263688935445e-03 -1.979541888993864573e-02 -7.678478026825676095e-02 1.430553616965682950e-01 5.144306298001988242e-02 3.038852000458465777e-02 -8.829628731269427433e-02 -4.043132083444910766e-04 3.431910695118674248e-02 -8.881697924290013479e-02 5.358430318441556595e-02 -5.434670241354648892e-03 2.370587301131985014e-02 2.595996333705023751e-02 5.464269308922746482e-02 -8.636128719398004916e-02 6.981573842449921574e-02 -5.505030593737847248e-03 6.315638319820232605e-02 -9.394341114152214567e-02 -7.445121562946820093e-02 -7.357609658954548243e-03 2.567986937010705364e-02 1.048668006548127279e-01 -2.894647055521033276e-03 4.037531827639170845e-02 -4.497076747278250242e-02 2.777966600891845425e-02 -3.378385474770132652e-02 -2.403483308428601070e-02 -3.071934680246523469e-02 1.209539925601387927e-01 8.850207522122847947e-02 -8.963029986283764516e-02 6.310042139094095004e-02 4.987479721542782685e-02 -4.125925203122773194e-02 1.640253323179227674e-02 -7.859205045171868687e-02 -1.253193760462907591e-02 7.004466116125047936e-03 6.166809680339267047e-02 -4.900474802491340456e-04
6.843304266451327722e-02 5.285486563037000533e-03 3.971127582173918091e-02 8.152054093435601168e-02 6.137434015045287704e-03 5.766565403238612525e-02 -8.126948856285963474e-02 3.094634849984785954e-02 8.232350322925068020e-03 2.291936769705356022e-02 -1.466438421708490120e-02 -1.033421747736513047e-01 -7.062929836628546731e-02 1.727542423986947601e-02 -3.924285400694851184e-02 1.328209769543079455e-01 -1.177792984908867385e-01 8.525313585904027713e-02 1.829116205111535817e-02 -1.684571247324754065e-02 1.941740581004907512e-02 7.955720493022258588e-02 -4.420827864055398089e-04 1.124014071197585590e-02 1.901135723342099043e-02 2.818928225077748165e-02 6.139502702365638026e-02 -9.055285819766456523e-02 -4.115093423875794409e-02 6.183226140047879543e-02 3.150954815175950607e-02 2.070655901208694888e-02 -3.171164209700053083e-03 -9.244345872211288950e-02 3.646553213224398154e-02 -3.310042061861068197e-02 -2.195457251340508439e-02 9.142170598658906980e-03 -5.059663108590918557e-02 1.894252472454910699e-02 -3.643730835903150056e-02 8.520976624111413142e-03 1.578131834460530514e-02 2.255760792350696570e-02 -9.217962526601515549e-03 9.519949707410460538e-02 -4.211398390801054936e-02 3.253083731970858594e-02 -5.261547785360474322e-02 5.540292845268762062e-02 -5.810685709753623390e-02 2.286549064457718897e-02 4.536478265634319440e-02 3.577724820789045246e-03 -3.426558331347169528e-02 1.975990735073324817e-02 -5.101565847422932787e-02 -2.402778621785371313e-02 -6.721515281518612717e-02 2.042589342333831770e-01 8.843444846627622480e-02 3.278483761568300181e-02 -1.380100559887789402e-01 -6.177295680775701792e-02
-9.219461400194407796e-02 -1.350513694603192871e-01 4.428241327103366737e-02 2.295419721463137427e-02 -8.098621672761580070e-02 -8.210373269475421121e-03 2.621969872264914153e-02 -6.275599873938082773e-02 -1.325402417142671208e-01 2.643644632792236868e-02 1.278112875845564475e-02 -5.945045626192785315e-02 1.112111824758190703e-01 4.700543065264051190e-02 -5.309919236049649022e-02 4.153190937761592344e-02 -3.797673800577988645e-02 -5.269849902373410083e-02 1.199292064543383274e-01 -9.122387470309892277e-02 6.614190580761665494e-02 -1.014822664648112466e-01 6.869846927722228491e-02 4.385532435687845842e-02 1.180956534043873796e-01 1.456914994010335418e-01 -1.282194243592993110e-01 -2.780790903747878962e-01 -6.652343206926135399e-02 -1.072239647919779118e-02 1.149134987486733900e-01 1.003031684338299145e-01 9.240349024120271537e-02 5.389958860117532308e-02 -1.400498579567541479e-01 5.582635578628414308e-02 1.814351993335155261e-02 -2.493066740305419429e-02 4.012902658532665340e-02 1.237382989784956491e-02 1.557233216221640959e-01 -2.999910445770406775e-02 -6.773189085616329597e-02 -3.045291730881082362e-02 1.258061732246510689e-01 -1.128079104512961089e-01 1.145131955936299836e-02 1.826444552865510995e-01 -4.605770563686904795e-02 -1.415441603709955420e-01 5.194017793574130099e-02 -4.163946901688130031e-02 1.991064324760060955e-01 5.896159302946684527e-02 -6.080914252403735870e-02 9.810767610519519066e-02 1.813196694050298041e-02 -9.674642527372126488e-02 1.189767250998443465e-01 -1.243419373092395502e-01 -3.024248999353708681e-02 6.083563554517366911e-02 -7.745684991070408976e-02 6.973332123623800054e-03
-7.299675149614774650e-02 3.963009519793325025e-02 -3.559623657810480173e-03 -8.316050699649045475e-02 1.044317137885210876e-02 -2.735234381395280391e-05 -6.864485036278743235e-02 4.644887040106162636e-03 -1.359880655885573053e-01 1.662766164564017171e-02 5.731333037952557677e-03 8.507753753239208350e-02 1.448727721050022121e-02 -1.737290580238252599e-02 -5.276528205711888964e-02 -1.051292445290706867e-01 7.686009766224866915e-04 9.617313340637920205e-02 -7.050788021691360707e-02 -4.320132525113460492e-02 3.317098179837577737e-02 -6.523206512462491335e-02 6.832338509960438067e-02 6.680223790583986188e-03 1.013292894533305150e-01 6.591036421045881090e-03 6.101790149314351153e-02 -1.453879770057987797e-01 -2.694304305880687936e-02 -6.033090302197802873e-02 -6.950113526525511509e-02 5.729044631869475296e-02 8.202482672234601146e-02 -3.731612044817775309e-02 6.924398590199176001e-03 4.037182262262507815e-02 1.015121486787001481e-01 5.863315991383818981e-02 6.967911335836937670e-02 -8.430698587902170360e-02 8.192830797465751325e-02 -9.279407793180731445e-02 1.993274250077287178e-03 9.026561880903409552e-02 -4.909905831971401319e-02 -1.189763170444629869e-02 -2.767602845481566959e-02 -2.569227239408715391e-02 2.923340616041108717e-02 -1.173554434709057626e-01 1.994614823651676486e-02 3.399511005379780154e-02 9.460514599725676488e-02 -6.074062054891815610e-02 9.193091747404229241e-03 -3.588169490444288040e-02 -4.238609103419985202e-02 -5.714389711866708910e-02 1.057221494132110640e-01 -2.216089492635974489e-01 -3.689848276721219983e-02 1.687136126113084923e-03 -1.059409860958663782e-02 1.125499587370532018e-01
1.185691983220677065e-01 -2.069590722867307997e-01 6.777578671860129411e-02 -5.895342260370655535e-02 1.322654773984989485e-01 -2.446422376460188550e-02 -5.568540795089577805e-02 1.462270835784660050e-01 3.379676526369561340e-02 1.387794485141515856e-02 1.576015690785196044e-01 -3.291571278706734160e-02 2.417249787077606696e-02 4.623236559896365394e-02 8.969671107009802302e-02 2.501406349631151577e-02 2.955483250420670727e-02 -4.530480349385504479e-02 4.523639049336272352e-03 1.429896229608104002e-02 6.078194973437110044e-02 8.543141272489260252e-02 -7.766945587562477764e-03 1.629133740303988498e-01 1.440060370678926949e-01 -1.307911455585427651e-01 -8.308230012820207178e-02 -4.400032063349902933e-01 -4.555540631310762284e-02 5.025323461874705439e-02 9.087055557940856843e-02 7.196488985854922193e-02 1.226501836136572980e-02 5.521878320727238720e-02 -2.021426952504473337e-02 7.218610827823374043e-02 -3.857774661688347789e-02 2.215911165612707498e-02 2.448502612316271268e-02 -1.020462807126735864e-02 -1.266052769331945660e-01 -1.866277326022777044e-02 -5.344176513703603054e-02 -2.035349020318649033e-02 4.217462032534696759e-02 -7.896229775625820957e-02 6.585933038013849772e-02 -8.364509557793766911e-03 2.457800576414790120e-02 -2.168761930419552675e-01 -4.581181502429009997e-03 -7.364961324994548364e-02 2.584079481593208327e-01 2.759198702435625497e-02 -4.793744387496798320e-02 -2.187279455346940182e-01 -8.788256555561960170e-02 -3.130008710067024025e-02 5.608955008792391311e-02 -1.632904129057082265e-01 -1.037818430916969126e-01 -4.548825554359197526e-02 -6.926780156608453032e-02 -8.232854600229512487e-02
