-3.406749944141253955e-02
1.068674966192169479e-01
-2.775386446871089263e-02
1.787103059895213744e-02
-6.603198422322177630e-02
4.656659430539170086e-02
8.016309953500325158e-02
4.747030833317388010e-02
5.873667286870757481e-02
-3.172167020766331058e-02
-9.789399340380375292e-02
5.219862081542411825e-02
-1.772200615562976060e-03
4.851854348341816392e-02
6.369650193814865857e-02
1.147493409704489070e-01
-4.281215245542039499e-02
-2.230355864255427478e-02
-3.561505384413623382e-02
8.810670981203612417e-02
-7.756242657359559145e-02
6.593927147640084308e-02
-3.352903156735392853e-02
-5.313576979746076345e-03
7.478437837515214404e-02
-2.141804267385561886e-02
7.556683796926254304e-02
3.508729768167923729e-02
8.460674363278714027e-03
2.218828859331118536e-02
4.540861514475930810e-02
1.073788568157166279e-02
1.520846856880170815e-02
-7.791038732714674654e-06
-1.438103867162367211e-02
7.910097908249363874e-02
1.500731299420637009e-02
8.269219309291563069e-02
3.738105353807717746e-02
-3.466412585165760257e-02
5.185138163344980150e-02
-5.285875355920883339e-02
4.326302248538121259e-02
1.939015504737155379e-02
-2.654890854268027525e-02
-3.449005978696954161e-02
6.696460060845064663e-03
-4.726738003014017975e-02
3.323843545302528069e-02
-4.080975845902109350e-02
-2.240084162068764137e-02
4.004217480426510573e-02
-9.142077958095140566e-02
3.517012606091660804e-02
-1.249065709187625606e-01
1.650417481935920541e-02
-6.543504514965603480e-02
6.218700294915353866e-02
2.779881324920479430e-02
-9.442623951210995419e-04
-2.475453724189487920e-02
-5.348882658021490710e-02
-6.944420431863335130e-02
-6.577532428564690503e-02
