-1.080600907091774782e-01
6.612714682447880243e-02
3.657266875396445599e-02
1.909922967353797629e-01
9.347294599576174215e-03
5.090031143646472911e-02
-4.370688421559817613e-03
1.339538668958635027e-02
-1.285055512976084890e-01
5.469310482939043587e-03
1.100672467583932793e-02
-5.071006735467649407e-02
-8.980590841428817694e-02
7.584719725335464791e-02
1.112817828263171632e-01
1.229662882425388475e-03
1.164175811978954422e-01
1.476458090543805897e-02
-5.356487194554067355e-02
1.292210267818645342e-01
5.130318861273540365e-02
-1.406076294695187898e-02
5.982819388781871611e-02
6.689399865202277917e-02
1.512194412054306547e-01
-3.789081337165126767e-02
1.060384892942697888e-01
6.771867509329643209e-02
-2.788177826345172167e-02
-8.368060343859161365e-02
8.805315510033286108e-02
-1.436490594146169579e-02
-1.269553224842706884e-01
1.218110978812562278e-01
8.267514597174061008e-02
-5.049935727560538740e-02
3.955917656025100676e-02
5.168574719975940757e-02
-1.416894533290294078e-01
5.198644692700710862e-02
-7.032333983116396958e-02
1.675680022264301738e-02
4.512390904963149707e-02
-1.470587283982187909e-01
-4.033636462787227456e-02
9.742667183818246035e-02
5.187519164337286298e-02
-8.564947233487774092e-03
-9.958256143247476433e-02
4.311320590204914538e-02
-4.740476463705657617e-02
-7.841619334683619380e-02
-3.271548517086139696e-02
-1.148942851605234917e-03
1.380904349929046315e-01
2.758656201787258386e-02
4.863050636349346145e-02
7.744530957377207536e-02
-5.768608839314809389e-02
-2.709476528213218549e-03
-1.450291860595560589e-01
1.399482638792339528e-01
6.691293175193945009e-02
9.710515741427747094e-02
