-5.818459016579265522e-03
-8.936601666342573747e-03
5.836233060505922020e-03
-2.307252590842609821e-02
-9.992475705626417681e-02
-8.195720103889678199e-03
8.051800073171645408e-03
8.285912078947732778e-04
-4.770842785560121257e-02
-6.445633437931373722e-02
1.939018942325032233e-02
1.849350304357646330e-02
2.783549072864951665e-02
9.617369820690545648e-03
3.784218274686269173e-02
-1.254463498914409197e-02
-2.247001876015460465e-03
4.288566614657948403e-03
9.818159126925487395e-03
3.102659619672747376e-03
3.072635587640606090e-03
-1.191810192589231633e-02
-2.600264348574867629e-02
7.689794898630157062e-03
4.080304624190742371e-03
-1.468620399876221995e-04
4.521380501607772003e-03
5.444368143051630214e-03
-4.771912453222883384e-03
-2.192016173990867303e-02
-1.347246377747269609e-02
-3.899744743346245796e-02
-1.849103287154537506e-02
3.254328613828801498e-03
2.724585336648425310e-02
6.743065905708215367e-03
-1.395367408355023021e-02
4.313392699022365606e-02
-6.291490626303746121e-03
-5.547914949429874273e-03
-1.448908006302067342e-01
1.191998003628113104e-02
-1.107665874712020215e-02
1.049588802993875990e-02
-2.225870044913145357e-02
-5.065220982847847431e-04
-2.985861680437499818e-02
1.258015765886799295e-02
-1.437932306270575797e-03
-4.207505753428151390e-02
5.116018169464420923e-02
6.426025567517258674e-02
1.086686383079110219e-03
8.599232366160830879e-03
3.532043718744897268e-03
-1.186532429492143581e-03
5.531362502526886160e-02
-1.150781922187227649e-02
5.390577174582690230e-04
5.715961718530576663e-02
-9.198796422158423206e-03
-9.933318782960403118e-03
7.173386135006854132e-03
6.713003466084815907e-02
