-7.636419646973660602e-02
2.095372315911885053e-02
-1.468244473207369833e-03
8.841783131380917538e-02
7.977346846477949976e-03
8.870875798124067124e-02
-2.107903680739026675e-01
1.267030125963700821e-02
-1.077990761273689840e-01
-9.664617604400438378e-02
-1.969847869188016271e-02
-2.164105185702586837e-02
-1.357624233518563983e-01
-6.027489530658702160e-02
1.220741122677450746e-01
9.628867192501769368e-02
-1.355806437862839275e-01
-1.243575407388643611e-01
1.841630228455409246e-01
6.370058269479139668e-02
1.054443928364144911e-01
-1.798503123806634296e-02
-1.581471448870943042e-01
2.265476955778220058e-02
-6.792391578132085661e-02
2.608246195787112809e-01
-9.209372577949714866e-02
9.266557575263521807e-02
-2.051537154438100655e-02
2.915453990272837137e-01
-6.450431912326098915e-02
-2.018037001312809053e-01
9.715757028154381469e-02
2.292493900619069561e-02
-1.300757562394793676e-01
-2.593943336746550726e-02
-1.208391505204736427e-01
-1.223059394311215020e-01
-7.436483010120079062e-03
-9.366504984612804285e-02
1.966611978894379498e-01
-2.427309577077647537e-02
-1.105739235250291636e-01
2.011322973018365712e-01
-1.723258092913513562e-01
6.573755621737584209e-02
1.757131394048911388e-01
1.541970507732199069e-01
1.434550389814774896e-01
-9.742229304337918228e-02
5.763231447310897954e-02
-7.954141332242516127e-02
1.129915731192021877e-01
1.309254889679955791e-01
-3.227394878726281158e-03
-9.733448649825216653e-03
-1.060795809118128680e-01
1.189650948674634279e-01
1.001256361176373344e-01
-1.502137221373689435e-02
-9.567304236161856823e-02
2.277656377905334928e-01
-8.784545750211170123e-02
-2.991435571985577926e-02
