-6.187629175835169387e-02 3.127181658031838452e-02 -3.588230661806057764e-01 -2.449477229960564384e-01 -2.435178772930361724e-01 3.474410052591958564e-01 -3.928747159201428918e-02 -1.788504862582296906e-01 -1.731954413198260601e-01 -1.422799483312838231e-01 -2.279374448587464519e-01 9.803753682983186446e-02 1.879395504858543953e-01 -2.135582551070314694e-01 -2.381273638465176978e-02 -6.912077295791847764e-02 9.071252924499940973e-02 8.326649177339025265e-02 8.354248548187986900e-02 6.016698285568421178e-02 8.604505516765635631e-02 -1.068285852107891815e-01 4.694795501629901724e-02 3.453393324607333392e-01 5.399305826955170806e-01 -4.625745236969008300e-01 6.323572752973372069e-02 1.062768750167697174e-01 4.547244986368684933e-02 4.272151265698035938e-01 -1.065562353222015146e-01 -1.111412965595348634e-01 -3.732244936252945150e-02 -1.676818177809079324e-01 1.595954465284602497e-01 1.031359908487949617e-01 -1.415816718966014798e-02 -9.508367674887334420e-02 -2.341150886826268429e-01 -4.048147743800105391e-02 1.471438654161112171e-02 -1.289751859118143731e-02 -9.182802529990959084e-02 -6.910768842080307062e-01 -2.418181243270535186e-01 -3.989199039543088188e-01 5.077237537875982365e-02 3.355286604270640294e-01 -1.968456398650494064e-03 8.546835117468452869e-02 -7.771336885981993715e-03 -1.711250451104164363e-02 -6.348860336444052399e-02 -1.758251918972550953e-01 1.110589532123931467e-01 9.928479197273692991e-02 2.056599063866142996e-01 -9.181853198148351991e-01 3.141122416190760824e-01 2.164352197030651806e-02 -1.709416404929085809e-02 -4.835797455187260119e-02 -5.851645089733913813e-02 -8.377471764761133810e-02
-7.480811317840224683e-02 -1.098378018002458406e-01 -4.752608151210081094e-02 -7.133101907612666992e-02 -9.452199871848960752e-03 -8.601577614208846811e-02 -1.627298793667918131e-02 6.409306556901796237e-02 4.046386628778081418e-02 1.016571380523729334e-01 4.295049278160136680e-02 1.788426867213457061e-01 -3.774997197072266913e-03 -1.008198241851605663e-02 6.852865148441522614e-02 4.036774878950996626e-02 3.657210812515149234e-02 1.060203203356029251e-02 1.153611077082841857e-01 1.852197759867617866e-01 -3.912760235435773504e-02 -2.475628015009387339e-02 2.184878231158026221e-02 -4.996624004586565360e-02 1.826013171519935141e-01 1.011849770970958684e-01 -8.573313584177806590e-02 -1.166498506645912703e-01 -7.383526192649657316e-02 -1.446920196810232151e-01 -1.255428715059933309e-01 -1.175485353562543030e-02 3.987429458001253563e-02 -2.231554285244883862e-01 -6.932661655375460530e-02 1.899692542039184140e-01 -1.115485758866206906e-01 5.465706684807596083e-02 1.082078199273357744e-01 -8.197119774453146684e-03 7.747831566959209604e-02 -1.218175787982821306e-01 7.967506210839907232e-03 1.220991181609396847e-01 -2.643860687615928740e-02 -7.246788258470160393e-02 9.837143058506717108e-02 -4.880763544728428799e-03 -1.492976675342830017e-01 4.433391733884967101e-02 1.145743099792466968e-01 -4.864801077380224298e-02 5.653736563868569376e-02 7.819133414587997599e-02 -6.870722261559060462e-02 -8.105416510409085493e-03 7.977193517346711088e-03 -9.284947624687009404e-02 1.729847162284094825e-02 2.695945103999659032e-01 -4.944189545389797436e-02 -5.013012215121527559e-02 -7.413744517841708292e-02 -1.250300283647397086e-02
-8.767067230869048100e-02 -1.217012779460164423e-01 -1.266606534802300066e-01 -3.286996213647130349e-01 -1.703032032537804275e-01 8.896468222562946282e-02 1.572325484946647811e-01 1.591206435101060468e-01 -5.576291086151573262e-02 1.709306942686033837e-01 1.348290754021136684e-01 7.020793970139852513e-01 4.744690422023621623e-02 -2.749936164897069379e-01 -4.694934734226650398e-03 1.135700747942890165e-01 4.264867608380941422e-03 1.582418552080914476e-01 3.209826849397393600e-01 -6.804279261103720992e-03 -1.234041893728133749e-01 -1.124186797850769935e-02 -1.591210869394136529e-01 -1.372802850225365509e-02 8.083837132755221644e-01 1.650294272204581580e-01 4.556925944957472552e-02 1.990164552261715347e-02 -6.190990531520899898e-02 -1.406990259198889204e-01 1.878825602566324901e-02 -1.339048609898386977e-01 -1.219685567974562596e-01 -6.640374353721367751e-02 -3.523360128534226005e-02 1.504281433779084964e-01 -1.376714168274007465e-02 1.754286432619116820e-01 7.107603656877502230e-02 -6.347664325110743966e-02 3.057454903044940289e-02 -2.385052693965851456e-01 -3.999356959285752661e-02 7.172216879553637570e-02 -2.411906739454144633e-01 -9.290045302225605206e-02 3.101268995459005584e-01 1.508441242572839958e-01 -9.162151944152831240e-02 -1.340113684261454441e-01 4.747507391147653966e-01 -4.288460463707073622e-02 3.189132804247213349e-01 1.220268452823968126e-02 -1.267266811253533187e-01 -1.829998732530567218e-01 2.375023670359326100e-01 -8.932125239623109891e-01 2.633025780454775200e-01 1.496044135956807186e-01 -2.549473279997732100e-01 -5.342994037381324640e-02 1.684949819819255706e-02 -9.531685361879706220e-02
-9.780162006129256014e-02 -1.716640815896737157e-02 1.673039178230656399e-01 -3.747884466838765083e-01 -9.551122152040738070e-03 -2.371949423975006632e-01 3.515901663968766348e-03 -1.699146491775049561e-01 3.090795175466072141e-03 7.823241084627004238e-02 1.787588164692867077e-01 -8.783067867521322791e-02 -1.115428985386754529e-01 -3.965603250694006709e-02 -1.120155367192699203e-01 -3.294849961493286350e-01 1.642228127722980546e-02 7.201227716879010643e-02 3.050862672887459937e-01 -1.105114708548935176e-01 -4.734312064664908913e-03 -8.422123205137634072e-02 -1.160136923232125694e-01 9.815422957018193895e-02 -1.687971059575131272e-01 6.349115039748243206e-02 -5.033482139982408538e-02 -7.886470345412613381e-02 1.615561179856785656e-01 -2.673578446162648559e-02 -3.227280457329211732e-02 1.616555742497481074e-01 -7.465707936798274616e-03 -7.365656434122204443e-02 6.706308400196331343e-02 -2.814035110924320224e-02 1.131454287431446076e-01 9.729867160945351867e-02 -2.439311123687255833e-02 7.152268838085898417e-02 4.710022335507035862e-02 -2.726094388387718254e-02 -1.686709139227415555e-01 -1.243793603512098056e-01 -2.579495609438531289e-01 -3.094677270196522501e-01 3.840911723616792228e-01 4.623691953486757517e-02 -2.700925471445130358e-02 9.227213043616790469e-03 5.203981889287082746e-02 6.296710777678698849e-03 -2.973541916554467077e-02 1.046764132800039465e-01 -2.782677935854452334e-02 -6.102003966131168411e-02 -3.011775063953665565e-01 -4.299942973469950136e-02 3.153548686187877294e-03 1.261671257068776864e-01 3.039064056953755949e-02 -1.200884457244855152e-02 9.459681976276113069e-03 8.779541665098905545e-02
3.528378548295403594e-02 -8.185400132808608176e-02 1.303911741723185955e-03 -2.391374276078375993e-01 -1.192949211093779216e-01 1.461958220191734437e-01 -1.786433320883792086e-01 -2.501771901223924788e-01 -9.572558990162969086e-03 -6.712052088995326682e-02 3.892982768825536261e-02 -6.765909557307343836e-02 9.420866068910883906e-02 1.161168905777979071e-01 3.536592731629591840e-02 1.028521445835446219e-01 -1.270143532890763705e-01 -8.230473760076620349e-02 8.498985880610743227e-02 -9.346474786938988033e-02 6.111470696157964705e-02 -2.517818878023707005e-02 1.369717703780046480e-01 1.003623449848234650e-01 2.257721986083855992e-01 2.701045562425434185e-02 2.996588247386001644e-02 -5.469599794129346992e-02 2.132274382109000388e-01 7.407626958977084342e-02 -1.722155349928776794e-02 9.334539320406103069e-02 -1.246301226853064768e-03 5.769199199517852789e-02 -1.444213140898549796e-01 -6.081128667300059881e-02 -1.118425952241886984e-01 9.968689223507981589e-02 6.662640734327521241e-02 2.026539975343434434e-03 -1.002290199991662523e-01 4.335119934523713053e-02 -3.342434501203069702e-02 1.427016987277341664e-01 1.773088807389691934e-01 -1.404829225058998321e-01 1.907807149400445323e-01 -1.343319991314125827e-01 -5.908778579193571523e-02 2.718978188561352663e-02 -9.711957085567651804e-02 -6.895420053693207540e-02 -1.460257179113356174e-01 3.262044968685619967e-02 9.093893243011781646e-02 -1.562321596071756524e-01 7.506481150908995981e-02 -3.309136687202427624e-02 2.339592631442597159e-01 -7.733574250825795901e-03 4.006826969580905007e-01 1.839710706686403449e-03 -1.569367475108718671e-02 4.872670780844323701e-02
-2.123634496506232247e-02 7.633558488199476688e-02 -3.285531451395921031e-03 -1.371475493404529233e-01 -6.478268177669865846e-02 1.342169256084901896e-01 -1.066614465233932385e-01 -2.101635339162908345e-01 1.082074722273914692e-02 -4.333181050304753257e-02 4.899202951980904247e-02 -1.187608519869844809e-01 9.805418144379081380e-02 1.004269171158507501e-01 3.973693624876447478e-02 1.814013023457974882e-02 -5.669931350852299920e-03 -7.732652429896061386e-02 1.276211388876598643e-02 -8.321123096866164803e-02 3.381819967748054406e-02 -1.771152972024772967e-02 5.921451393053162038e-02 1.024913559686095876e-01 8.184369354115511586e-02 -4.621747472096573300e-02 4.228866009906400575e-02 -4.476376140726572722e-02 1.327768868591478746e-01 8.044461604856165127e-02 -3.140252669173376754e-02 6.056419767558535172e-02 -1.932504576292321669e-02 6.355008490038303870e-03 6.225565878236386658e-02 -9.231910757593239647e-02 -8.659311498165320198e-02 4.170415774011284119e-03 -5.765586249338456454e-02 1.706531059286501076e-02 -5.122597996636561735e-02 2.855012353461108821e-02 -1.890656824272957462e-02 7.877062075549960685e-02 1.539788182075970402e-01 -1.110621141713455939e-01 1.033376895645844729e-01 -1.211549425790229562e-01 6.382137716099740843e-02 5.041321129646741256e-02 -7.016390989257033362e-02 -3.971959028520543472e-02 -1.318892802868195657e-01 4.226677715466396930e-03 1.202542143082527965e-02 -8.286723831020927078e-02 4.098344544012459678e-02 3.730534595410794907e-02 1.581113326821403930e-01 -7.329449647691188563e-02 3.233885811139876054e-01 1.206008452861471493e-02 -3.382936661605626116e-02 -4.030150149854549307e-02
-2.277230120800686000e-02 7.006525705906535041e-03 4.174905563017338589e-02 -9.454018114815181117e-02 5.927786980212555734e-02 -1.575048008215632345e-01 -5.098587151586309735e-02 -1.847254722629866897e-01 2.481746136681361667e-02 -1.879967714726357708e-01 2.391698241208123007e-02 -3.723267056059309521e-01 -4.825825745360338287e-02 7.925716991062116412e-02 -3.373304471150502873e-03 -5.047928326727773446e-02 -7.127338154046454488e-02 -7.376686693835347863e-02 6.642960763432220750e-02 -1.033092477684177364e-03 6.346020790642971365e-02 -1.788838737353574265e-02 3.584208859624492260e-02 8.285834048953948094e-02 -3.047646094338927192e-01 -5.942526438083497314e-02 -2.943824541763704478e-02 3.089952078390788195e-03 1.908653538190199783e-01 1.393617396380721907e-01 -2.708905522611191469e-02 5.734483804943294599e-02 2.623066862053360926e-02 1.186228362440713419e-01 8.886401325248522928e-03 -1.180724325305798489e-01 1.154040222552587674e-01 -9.673918806939889314e-02 -1.069256792089136494e-02 5.897245867692974680e-02 6.815606011806525470e-03 9.180729628814675997e-03 1.621036922406853334e-02 -1.728825133096690281e-01 -1.201658725263196198e-01 -3.733685806117059691e-02 2.658352287434633809e-01 1.439966939171824674e-02 -2.772185035865994129e-02 7.831617646443899197e-03 -1.153907057011146348e-01 4.791080038676853031e-02 -1.312851642122357665e-01 4.963547785159878184e-02 8.429188986958892349e-02 -3.212479626935557664e-02 -2.533829490586498312e-01 2.011760572413900938e-01 -7.825090043022613073e-02 -1.748181682385206714e-01 1.118899778423295965e-01 -6.769245432278983565e-03 2.785613089425661645e-02 8.553817677667217845e-02
-1.146402243356308137e-01 -5.844969122174263620e-02 2.257358910384399397e-01 -4.404499025067337703e-01 -8.871441071519203803e-02 -1.604682433037851463e-01 -3.098219378126791310e-02 -2.290004548416286756e-01 -4.900327834228858370e-02 6.583505632374708760e-02 2.057319898109723905e-02 -1.062941259629921337e-01 4.660867445481568783e-02 2.700445498849455422e-02 2.945843409379019298e-02 -1.720356638381768666e-01 1.540171903927173812e-02 7.796333320804067768e-02 1.689855522252317610e-01 -8.571192882605793706e-02 -1.673791920014946685e-02 -8.780019438718403291e-02 5.335222721687498532e-02 2.126313930746903391e-01 -1.244391260230330448e-01 5.581693552504072425e-02 4.725087125561480000e-02 -7.990676182215507295e-02 1.911147939563254128e-01 -8.350842100914104837e-02 -2.465886066007438523e-02 1.355833304686057672e-01 -2.561697705776203732e-02 -8.886351869336343856e-02 8.360212845645169366e-02 -6.110337797218320238e-02 -1.162601827680781741e-01 3.482148268672845964e-02 1.164393979255401793e-02 -3.019174482165821669e-02 -3.461636584674450401e-02 -8.744534075629463443e-02 -1.091961083084198314e-01 1.627702973666176819e-02 -1.345545691950109368e-01 -1.243352219366752054e-01 4.338421746004482160e-01 -2.816050030748403279e-02 -4.377029769372522451e-03 -8.512966879096854622e-02 1.835348120768015914e-02 -2.080470763165283982e-02 -5.122868211025508739e-03 2.276440978899157280e-02 7.684632279295631162e-03 -1.919696646446365784e-02 -2.506211995497081846e-01 -4.101753626417362075e-02 1.743137514396494170e-01 -1.661317048683066608e-02 1.450894717872913131e-01 -2.392533989639230793e-02 9.874361105967562752e-03 9.961478814269571214e-02
2.610932964636632908e-02 -4.799322794897274008e-02 -7.748760880493618664e-02 1.782087191593887399e-01 -2.705018806186721206e-02 1.411727077099199368e-01 -1.314154402377178676e-01 -1.802151997987723742e-01 -9.548517083769622604e-03 -8.913197266507573435e-02 9.573680993981581455e-02 -2.625817073127367784e-01 3.958623723524958005e-02 2.067012675280659739e-01 3.687199462184612142e-02 -3.072704147122947912e-02 7.330310019888940098e-02 -2.363634644566519824e-02 -4.182128923487272998e-03 -5.035854713514165831e-02 5.245095926238174666e-02 5.123197894533278868e-02 4.255495484899187580e-02 6.764722516116028483e-02 -1.074458752176535997e-01 -1.146140642837447932e-01 3.102301638471719261e-02 1.792408398488066698e-02 8.060689991645149377e-02 1.333552556099673325e-01 -7.050159363417267400e-02 1.940354146541533112e-02 2.429276190681399234e-03 -2.281508338406193839e-02 -4.068349740158145461e-02 -8.635004978982688262e-02 -8.687697751460272955e-02 -5.122049286450243433e-02 2.020165859753337081e-02 4.964833043206361846e-02 7.163100185488392724e-02 6.624810816266725466e-02 2.471222108000816972e-02 1.499473974730946776e-02 1.060382306229505772e-01 -7.984843010807587960e-02 -8.434577123646475050e-02 -1.029445082667384270e-01 7.954680821396400980e-02 2.284349645793997199e-02 -2.071083235448993309e-01 4.479024310447972390e-02 -1.917623376321710427e-01 3.582597241256533366e-02 6.938428740411786699e-02 4.589619905260231003e-03 1.030574399415182946e-02 2.660956480555949355e-01 -2.881408439759305246e-02 -1.096654808997308758e-02 2.665233272960959021e-01 -8.611163398164707605e-02 2.298943671475016035e-02 4.836990525255217832e-02
-2.286946669176525074e-02 5.214084705078853021e-02 -7.453882781239980042e-03 1.177637413872923561e-02 -2.332577971377087708e-02 1.045448553474847414e-02 -3.100340020589375384e-02 -6.594872741433634167e-02 -8.410042723294141112e-03 -6.146926292840751253e-03 2.472264151127562259e-02 -6.582019896984334095e-02 -1.715521382456416943e-02 1.138241717979584199e-02 1.193782269548370432e-02 -1.519762608693442027e-03 3.531283235196307387e-03 -3.843674606812906829e-03 4.086901057812704352e-02 1.379254903629723462e-03 -6.820427737352586540e-03 -2.124749896671062829e-02 4.036922214287903821e-02 2.792839074784103995e-02 -3.002320540478593466e-02 1.087333109442822909e-02 1.593931273309411381e-03 -1.563248841172483819e-02 4.662660468153993071e-02 7.243534860028814047e-03 -5.830681387227313467e-02 4.507324136731537950e-02 1.741128366129284302e-02 1.406153289250440530e-02 3.210154420964960592e-02 -5.586228046925029167e-02 -1.085366599851864122e-02 3.272001999359536173e-02 1.894974823651524032e-02 1.177087689115519087e-02 -1.463766997283423750e-02 -3.984538530330472388e-03 1.454929456304542186e-02 2.011127117680231238e-02 2.759280993588745373e-03 -3.868031664565137889e-02 5.736918833456387812e-02 -4.080826150196341373e-02 4.282069534184322103e-03 -3.547266484658669061e-02 -4.380115736343746791e-02 -1.383674016839598828e-02 -4.773345949733544952e-02 2.722430635134634805e-02 -6.269445772539985334e-03 2.552988320931184191e-02 -2.167577921266411120e-02 6.220445645778972105e-02 -3.813670017653813648e-03 -2.198783954303419955e-02 4.456379764354504586e-02 -3.823342175018251687e-02 -8.116139639912462941e-03 4.155063694128232482e-02
-6.291361654338929743e-02 9.225064846987311717e-02 1.249406644626881169e-01 1.175958148204667326e-02 5.679980082892425314e-02 -2.155907136818189240e-01 5.161905326351146767e-02 7.967514093342518977e-02 3.597778038684382174e-02 3.448341907004760093e-02 5.457205599546764707e-02 -6.078977663331312786e-02 -1.456427792876694993e-01 -2.255551640784043688e-01 -4.414670796527894042e-02 8.773711720126183000e-02 5.038003058681082835e-02 4.143641597294728252e-02 6.047800983639523703e-02 4.198552017933768199e-02 -5.617077267816910496e-02 -9.360034208428318070e-02 -8.614492627870706798e-02 -4.829408238941453740e-02 -1.457678411330943780e-01 -3.068269504332156103e-03 -8.322340695447404124e-02 -7.251534540540503435e-03 -2.271736642017441882e-02 -7.036790088879937843e-02 -7.107294966736980857e-02 1.996557944704116516e-02 1.756164423933510854e-02 -6.760042587017124627e-02 1.772804540138593274e-02 -5.567258736377802414e-02 -3.097043897846947502e-02 4.204675963510719205e-02 -1.461646054738524776e-02 2.882272372531620962e-03 -1.138561382681915896e-01 -2.221988062766672156e-02 2.841841947711492428e-02 -1.106083809333291840e-01 -2.448401444752181522e-01 -5.811207290160223110e-02 1.364370511925895313e-01 8.144165688469591491e-02 4.251113004928587513e-02 -8.453565161353092383e-02 6.821618057778050526e-02 7.648224998700023369e-02 1.008012153296642677e-01 9.094279219072120071e-03 -8.750191460385366160e-03 1.831005202298738310e-01 -1.696341509058291175e-01 3.686570868508750719e-03 -1.783411218055240832e-01 -5.499518026687048172e-02 -3.263972420642233807e-01 3.917302608366338146e-02 -2.463035368687137641e-02 6.443499164448866778e-02
-5.699179546829406806e-02 -2.026540657061269221e-02 4.840871173566300978e-02 -1.710559316595339913e-02 8.644804541281471758e-03 -8.798063264617848878e-02 -6.811718952389206154e-03 4.215733363732382909e-03 -1.767918116385823121e-02 3.703258858568461015e-02 -6.905315272794572412e-02 -5.860054403707803256e-02 -1.817252158779816135e-02 -6.764018430631231482e-02 -4.634295525685830364e-02 9.223329944600247576e-02 1.105703278680679330e-01 9.876832781865229130e-03 3.462300444268635868e-02 -1.091796083072568146e-01 6.790742952466145843e-02 -7.517389768706381203e-02 -1.301413685751788216e-02 1.557569561734160717e-02 -8.132537472263251521e-02 3.432142137942391369e-02 -6.885264607513949531e-02 5.165602677314669669e-03 6.060282486361708888e-03 -1.779689946710309029e-02 -2.823730767879464171e-02 3.167107556654326361e-02 -2.277612061065035880e-03 -2.394734155515843704e-02 -6.131739705269338703e-02 7.245606076759736336e-02 9.001994703885593530e-02 -2.733568592628281974e-02 -1.374529311594514247e-01 1.044603363159298248e-01 -2.847381006605649578e-02 1.384978784536386627e-02 -2.169972367063918370e-02 -3.707532366535123969e-02 -7.107027547208516483e-02 4.726562490548460310e-02 1.096906006981417242e-01 4.758357205812763224e-02 -7.325621890010422521e-02 -3.348701700505662959e-02 2.859784328134375771e-03 8.968346846150088147e-02 5.876259507039713337e-02 3.324635964748773754e-03 -9.181243291284295338e-02 1.112319305786401979e-01 -8.539700474779357564e-02 5.423531928232290175e-03 -4.017016729378649481e-02 -4.572407814501775608e-02 -1.134927008650623709e-01 5.893737707224541017e-02 -5.572395978855401201e-03 3.527886556665880274e-02
-3.536380336139190866e-02 -4.351239607224893780e-02 4.349042259973943253e-02 -1.146366343889717587e-01 -1.011327860618296652e-02 -2.885380613963877197e-02 -5.705975746160922395e-03 -6.599845915463786739e-02 2.188810170421834345e-02 1.411677748379349395e-01 -8.700271200226095125e-02 -8.177514021166983060e-02 5.841199712877351985e-02 2.814431162399774061e-02 1.213610377331208190e-01 7.414385897821679228e-02 9.584999601517617263e-02 3.438140690973959940e-02 -1.223873134658473305e-01 -6.128246263876838823e-02 1.139195389958576055e-01 -6.337789816554741107e-02 5.963422110525094105e-02 6.352665241088203962e-02 -6.571363861899345848e-02 -1.556602170053159560e-02 1.595223351937630554e-02 9.352154767736427232e-02 -1.518953134136920638e-02 2.606150252294761605e-02 2.724602492232993528e-02 1.397268357680780775e-02 -1.381134547838096423e-02 -9.938426092438927550e-02 3.430193695695434863e-01 1.825341273828608724e-01 5.907002357909063583e-02 -1.496636287588692937e-01 -3.998031065612751844e-02 4.587073646325571380e-02 4.463457843722442447e-02 2.212452608265960685e-02 -2.070415653778638274e-02 2.903280914806705831e-02 6.763391073825299193e-02 -8.274225501838917973e-02 1.628523278203087288e-01 2.968064394874934953e-02 9.686056944573825586e-03 1.069997245608811376e-01 6.652393895835730098e-02 1.484004353897375519e-02 8.538144149655010895e-02 -4.369547581401603958e-02 -6.753154941456504523e-02 -1.209440449747777209e-02 -7.019013153667204297e-02 4.895754597848550604e-03 6.636291854118522848e-02 -6.667431567698192674e-02 1.926779849606592362e-02 5.640797777579805578e-02 4.865077957788695347e-03 1.606090400582573744e-03
-2.485646347633171591e-02 4.858747408078430835e-02 1.323001355067174529e-03 1.006466674356676083e-01 2.268479036917279631e-02 1.107918601196808406e-01 2.636359815417068861e-02 -9.311676531046622976e-03 -7.124655531595235070e-02 -5.858367305885504861e-02 -3.559418315868382449e-02 4.020504800790407340e-02 4.526629308017551118e-02 2.277142772553145469e-02 4.923573323686893100e-02 7.627811175993047532e-02 3.383076166848119487e-02 1.024715929828616708e-02 -5.263380958066943283e-02 -7.194136551098831434e-02 7.352354030258494155e-02 -1.411532983010294895e-01 -3.940395171460611516e-03 -3.707460201059478710e-02 3.024594917182488879e-02 -4.709004989908024269e-02 8.019302596528651850e-02 -2.572150634323252735e-02 -1.146851588208574156e-02 -1.019235635679039687e-01 5.017374918336701267e-02 2.384866316944240366e-02 -1.109995668985626870e-02 -9.353211940709192651e-02 3.083970589508973070e-01 -8.218545023876180911e-02 1.193433895119097032e-01 -1.462297026287501245e-01 -1.729963834906697862e-01 5.551396014306645560e-02 1.557250893255070767e-01 7.657987212576216826e-03 7.840549114759531868e-02 3.585321129496620018e-02 -5.045418504980626623e-04 -1.346728730215098757e-01 -1.440902467208826920e-01 -5.281175166805603984e-03 4.578670566290826693e-02 5.402794680432295576e-02 -3.714630737705244129e-02 -4.504027687581636796e-02 8.265904365704217259e-04 -4.178259229182702122e-02 1.454176113239799839e-01 2.149364182259649522e-02 4.069736303690586754e-02 2.076655138605784569e-03 -5.373197937214585496e-02 -1.807075391476449244e-01 -7.217992320989966015e-02 -3.567363803097113595e-02 -1.684186882832634097e-02 9.061752936286754379e-02
4.243099935091951269e-02 -1.603882940522297768e-02 -3.622498073049417594e-02 5.258931081566300958e-02 1.716810678324086695e-02 -1.676458113092150690e-02 2.177682452397088422e-02 5.175315751684721882e-02 1.333360426087436268e-02 -6.636497451172143625e-02 3.181326049758585045e-02 3.567234826460775887e-02 -5.889574612272149151e-02 -2.286328633729926840e-02 -6.787924541669433653e-02 -7.510051299932890556e-02 1.439664013181006508e-02 1.650097293520140160e-02 -2.280566991797932166e-02 2.812460312846062210e-02 4.270752742691527257e-03 -6.242140932905709816e-02 7.840808542595288644e-02 -4.691700425819762821e-02 5.696697319470247350e-02 3.625935953067623702e-02 -4.057698702900581350e-02 -2.114743109433606452e-02 -5.066485702632206670e-03 -8.742980316596543275e-03 2.770612369717079596e-02 -4.399602344355430655e-02 1.846506424648027694e-02 -7.606619384637765442e-03 -2.582931671139011565e-01 -5.118662834658641025e-02 -1.259189555723667087e-01 6.749266201961105771e-02 -4.565727871379723912e-02 -6.562675946162677132e-02 5.469723190692472869e-02 3.198260845142783526e-02 2.458440086874929750e-02 9.311179021326701846e-03 3.077143673029475099e-03 -5.291840173610141279e-02 -5.797218076288759153e-02 3.136332911191047623e-02 -1.075114995382895483e-02 -6.513853846461720165e-02 -4.017026862846115320e-02 4.806371566388618899e-02 -4.544556856670739498e-03 1.809672390594293731e-02 1.349329886188614658e-01 5.195986350151408917e-02 4.132531936905516068e-02 5.487407161119914637e-04 -1.321453745474826524e-02 8.634582812318064571e-02 -5.428837875190016538e-02 -8.127295499537180376e-03 -8.229940977113176653e-03 -4.693712105671395129e-02
-3.275554965429991559e-03 9.661521443316664626e-02 7.021265821430206465e-03 3.286457948982063077e-03 -1.741451460661374087e-02 -3.567823454890327144e-03 2.647609475579987270e-02 5.634254942997766330e-02 3.905734334147083903e-02 -1.483722080201198001e-01 4.366949543318386640e-02 3.885053790463970091e-02 -3.507680567843908179e-03 9.683874954188435163e-03 -1.578759749161248380e-02 2.317723455352446379e-02 -2.533443102067357150e-02 4.208775555729586670e-02 -4.058278710514476306e-02 4.963941666003925807e-02 2.572028223367437468e-03 1.115140792432610939e-01 -5.111401976017881238e-02 -9.616179736453272370e-03 3.967681587953862665e-02 -8.350966974989133818e-02 2.767569913499477036e-02 1.527521496907027244e-02 -2.659832904243097235e-02 -1.665367275399984304e-02 -3.224033844343447003e-02 -4.284116179111360778e-02 -2.431191774900449271e-02 5.855096337056531902e-02 1.276646462845945074e-01 1.956662845265676534e-02 -3.215386630513784871e-02 -7.207735947969498851e-05 1.048422290715494143e-01 -2.309383215365658909e-02 1.397013220175332970e-01 -5.154700682954688315e-05 2.214783609232496425e-02 -1.913500183785524916e-02 -1.433493808790000561e-03 1.107093460759694427e-02 2.612209172053813356e-03 1.792851919517017556e-02 2.774227985373434180e-02 9.123128703314589694e-02 -3.015033244508003030e-02 4.775555421993686600e-02 1.921499547234866226e-02 -5.408027203274129446e-02 -5.789201703733076049e-02 -4.342837291524595522e-02 4.427568001878236931e-03 -6.230960765094915865e-02 4.045594107686097118e-02 -2.362826719168350728e-02 -9.263621358165951419e-03 4.512670201475618703e-02 1.625675306333444758e-02 7.078649114196890191e-02
4.860916746640168290e-02 2.657090006490149536e-02 3.621710261908683750e-03 1.609942191658298924e-02 1.449895368878575952e-02 -4.022292945849120782e-02 2.283275996179385051e-02 5.972582421778264289e-02 -4.305785151534176347e-02 -1.967892573706246928e-01 -7.985738976641303111e-02 4.740982630374250550e-02 -1.910248468506535735e-01 4.334856151269618138e-03 5.234963565672661606e-02 -5.102370455990900416e-02 -1.136750046031190509e-01 -2.634059033725911700e-02 -8.233001189257049823e-02 1.111668149483763662e-01 -1.358684412914156758e-01 -4.055294970778233754e-02 -1.093155143295737458e-01 6.129241084566961623e-02 9.987301083265749668e-02 -1.408473331444790554e-02 1.046632395017047662e-01 -6.825226080361465608e-02 5.610741439249655044e-02 -9.518358691952351347e-02 5.497545698816874542e-03 -1.532730870953801505e-01 4.244675807366770498e-02 -4.640546390877298144e-02 1.039703918295648843e-01 -8.253866428251184495e-02 3.876590949304958150e-02 -4.420651081123902482e-02 1.339446260187643067e-01 -8.880748420734269066e-02 6.467592085545362246e-02 -8.385502325032824500e-02 3.595503824902277629e-02 6.654060558265428513e-03 3.548747059988872216e-02 -1.644249898642850816e-01 -6.355426560339241804e-02 -5.930619205470159805e-03 7.611332131875882256e-02 3.770097835120103658e-02 -8.004094076276299652e-02 -1.647350211067591733e-02 -5.361363866209946372e-02 -3.028324388128503242e-02 1.361904557479448954e-02 6.324729846604404404e-02 -6.736261247821510867e-02 -1.780138944494907838e-02 9.129841132201187148e-03 -6.025173280490328520e-02 1.177829226467216189e-01 9.662956006319277022e-03 3.647551800586044252e-02 1.067176424923441946e-01
7.533320941869924015e-02 4.688115636456201274e-02 -2.207074096388822460e-02 8.078936088882256172e-02 -1.608521696120859129e-02 -5.397392199390653282e-03 -2.872783290138388596e-02 5.033476879556744721e-02 3.762076119135789043e-02 6.781625281298117591e-02 -4.519296889807959683e-02 1.175393434128050620e-03 -2.292635507012278362e-01 -1.073848949080844356e-01 -6.229337139117709261e-03 -1.867672698947590304e-01 -1.734857054761096695e-01 9.941484842645986406e-03 2.769232621953294712e-02 1.363476737853038523e-01 -9.907070566316354687e-02 3.580929652342499520e-02 -2.207184579312128359e-02 -3.683768607066159606e-02 8.811930567021328264e-02 -2.818422254832567142e-01 -1.202952353303124965e-02 1.040534548040787134e-02 5.307442317006283439e-02 -1.055230009901521465e-01 1.115490398160433327e-01 -7.906963121408790152e-02 9.759229214740401670e-02 4.166483656508430944e-02 -6.002884494464284793e-02 1.281822627747171602e-02 1.240223905623956957e-01 6.778889488023423504e-02 1.942737685295250344e-02 -3.980010335254133974e-02 -3.455763240836937089e-02 1.211062495518571910e-02 6.085427885398927983e-02 4.476348914850369898e-02 -2.290869280139240169e-02 -2.038487881264410551e-01 1.010528534834354009e-01 -2.685255756659488124e-02 1.210082209031584505e-01 -1.551315463582840894e-03 -3.999157440514626571e-02 9.467349391012722104e-02 -6.110800836723756513e-02 2.880245733821064011e-02 6.201857849791014843e-02 4.470648610442645027e-02 -4.177950399183871788e-02 3.361463565472978809e-02 -6.086573732448304769e-02 -4.812870329218974647e-02 5.043210927029625340e-02 -1.728216879740292894e-02 -3.539560113009852099e-02 9.310188937855262692e-02
1.655328028516031905e-02 -5.684480031085233781e-02 -1.917015815419085417e-02 4.051450079796313497e-02 6.553038069026989598e-02 6.689035636901323467e-02 3.263082577328473705e-02 -2.807410701895898461e-02 -7.958635121853631714e-03 -1.419062512417204880e-01 7.343672194979441320e-03 1.060213723469820984e-02 -3.293973155458023577e-02 1.549057755447044368e-02 6.925535630543928900e-02 -3.782875579014926409e-02 -8.072579317373343444e-02 -1.363403816606014937e-02 2.444275641021938315e-03 1.823782394314902265e-03 -6.219394311568617745e-02 -5.783810446918243725e-02 -2.045025398834491095e-02 -2.605643844221498199e-03 5.252187307670041355e-02 -7.269823658607101058e-02 5.128599576497494539e-02 6.483208837887854958e-02 6.132853321737838370e-02 -7.521840305478283417e-02 -6.863500083940087329e-03 -5.669327491599229774e-02 -3.148498624690412168e-02 -3.060034110457104384e-01 1.125417666258188149e-01 -8.287306262312717220e-02 7.925347079538611061e-02 7.473850608524794381e-02 -6.491257689623537719e-02 -5.756296348446844624e-02 -6.420497278490981674e-02 -2.748325717964269707e-02 1.042521720609129038e-02 3.217852831521764156e-02 9.073404253961893373e-03 -3.981754217465523910e-02 -1.827929017835060524e-02 -1.902968595620120607e-02 7.227608644627864232e-02 1.854390595839190692e-02 -1.411779512232141758e-02 8.058347401539552035e-02 -6.319069843271234166e-02 -1.168892262059204219e-02 -1.534881190081536229e-01 -6.425117519959908097e-02 2.285854443171818004e-02 4.553375778603410695e-02 -1.756262846905600958e-02 -8.048468332735771169e-02 4.984337543829574918e-02 -1.641277466487002859e-02 -8.444026243090988620e-03 -2.436706818766972565e-02
1.202774594291152951e-03 -1.742847007836417772e-01 1.156859140911903616e-01 -5.367134264501992325e-02 2.314872977920588715e-02 5.209659754097352435e-02 6.388856300342885160e-03 -5.803441724095840040e-03 1.239388711836818778e-03 5.180880230811377857e-02 1.106076613596860408e-01 -4.170249419763713376e-03 1.445532626363820461e-01 9.839023635432095349e-02 -2.857371814710633635e-03 2.726996558545978500e-02 1.110668210941636730e-01 2.197508582066574900e-02 -8.298437367615514593e-02 1.286394468139708258e-01 -6.345858098371662259e-02 -1.014095451828793959e-01 -5.250487567368095077e-02 -1.107163957910568472e-02 -5.160768488836420254e-02 -1.366572393100754235e-01 2.132538581624120883e-02 9.787422127301194374e-02 -9.883184908784946321e-02 1.253713523817457376e-01 9.023039488275719222e-02 5.150107769777183091e-03 -9.133256324505195645e-02 6.389192888119228642e-02 -9.672629817431935284e-02 1.180274891036047352e-01 3.349185830276331377e-03 -6.182850167027664767e-02 -7.799755991831686108e-02 -5.887907034106474452e-02 -1.881677822875607864e-01 3.881712284500849625e-02 -5.498146103639606902e-02 1.879885698778625868e-03 8.137032917238974650e-02 1.523318577904571661e-02 -1.411002381179190246e-01 -1.393240727345826727e-02 9.637385028661732411e-02 5.849477044519738739e-02 3.452811226836059733e-02 7.546875036689845717e-02 4.058518199742629229e-02 2.101805005777847984e-02 -1.110702107001947936e-01 2.172198188124861706e-02 5.106970869008971292e-02 -9.789909273852212893e-03 5.750728379562984605e-02 7.760913874931664458e-02 8.094178781622066166e-03 4.887440940511351278e-02 7.668955357841371334e-02 -4.284673010657578246e-02
-1.735443103291551409e-02 7.295687429564436111e-02 2.604531909259379108e-02 2.215856811627919462e-02 7.342739802917694174e-03 -1.576161804468820607e-02 5.145534825108460941e-03 2.044103455119516966e-02 -9.948476027593597046e-03 9.579439609422975982e-03 3.321149505009579617e-02 -8.774643821770427253e-04 -5.441049900431971231e-02 2.242641118035859291e-02 8.381475758685033584e-02 -4.131306670778696344e-02 1.894978653758506992e-02 3.567059017479482733e-03 -6.705489138962249934e-03 1.897094297433418383e-03 -3.353435728566111357e-02 4.254324748663793759e-02 -5.254911930284918847e-02 1.034578660177174272e-02 -5.291843654879444664e-02 -7.175069031351286042e-02 -3.316580910254051523e-02 1.141227441860463362e-02 -2.997462478442122508e-03 6.293778122137223818e-03 6.257769819933106659e-02 -9.131907590446883966e-03 -1.998652247592462225e-03 -9.324653562041254271e-03 -9.367809026477715018e-02 -2.565616851428971154e-02 1.329951790621894392e-02 -4.882328376382516488e-02 7.762882868431174310e-02 -2.004013748364533859e-02 2.579923983530271400e-02 5.526738867062024399e-03 -3.320420629984280380e-04 7.168012820165212302e-03 -7.361867724485559455e-03 -2.348880588199826411e-02 2.113187777099300238e-02 -1.218273754959738227e-02 -7.298637577711426620e-03 -8.205846840953975874e-02 -6.833106595414593747e-03 8.408604472899400273e-03 -2.761518982888464674e-02 2.111294946565439243e-02 7.356617891295509637e-02 -4.400621772599173920e-02 -3.711770920636524567e-03 5.020206976071809463e-02 -1.884102573980901349e-02 6.647764820782454953e-02 6.505792675790650695e-03 -9.630731674678873547e-03 1.775015369832036102e-02 -5.989449336598089840e-02
-3.267188588899250928e-02 4.374442048635381053e-02 2.566534582089393529e-02 2.890058226498881666e-02 -1.223150167709783839e-02 7.197801605255348123e-02 -3.236163332048593022e-02 -3.670097502462179445e-02 -4.888386460562801211e-02 -1.245942877635521640e-01 2.220057756979749164e-01 -5.777316929252318545e-03 5.828901827214157116e-02 -2.419269007057636353e-02 -8.509741141830210256e-03 -2.801824046335578411e-02 -8.627566311044194969e-02 -2.251102386449877965e-02 3.114866645478428508e-02 -4.505704847023513093e-02 -1.372310449757712381e-01 4.343761450264223972e-02 -5.279605996326682676e-02 2.817541860942166659e-02 4.648852638011809896e-02 -1.662531336681593308e-01 -3.578641635815239894e-03 -4.272221934633803342e-02 -1.909353216521511923e-02 4.153724491160207255e-02 1.707600836068853822e-02 -5.708808169689418704e-02 6.715258145945178676e-03 -4.330199733040900056e-02 -2.061950632393744209e-01 1.017266034771304728e-01 -1.238997795406258234e-02 -2.858348049649779760e-04 -7.957039433497936631e-02 -5.696690648669754803e-02 -3.115209745818183634e-02 2.160888019799659873e-03 -3.610004332536470573e-03 2.713988186194175173e-02 -1.799907410434809353e-05 7.053931323327590486e-02 -3.828111953013311336e-02 4.352164462716617832e-02 -5.477240520612285807e-02 -4.613331814956898175e-02 3.962959831008146250e-02 -7.001955637570153601e-02 -2.926523124018215460e-02 6.686750196073684184e-03 5.136711196425052840e-03 2.238100510283303705e-03 7.465485401831355172e-02 -1.626287280411373290e-03 -3.408947467512831592e-02 3.862236118958713854e-02 -1.043701078067979559e-03 -6.859875006521772359e-03 1.844447119312091210e-02 -1.273553754092344170e-01
-1.101981201394836886e-02 -3.988620700885533998e-02 1.056571511185572243e-02 -1.656142620706214930e-02 -3.075405524451523334e-02 2.389952737798562224e-02 -2.260285543524784627e-02 -2.026010888162786683e-02 -1.172716125790628124e-02 9.170129233944009084e-02 -4.561961665006849381e-02 -3.620675290546157294e-03 8.803671889264803874e-02 -1.624821674096403601e-02 -9.704833410914137648e-02 5.854149402406636123e-03 6.265954096700705744e-02 -7.522356421931007502e-03 5.796500247771360637e-02 9.664330885883089597e-03 -1.194631496433953693e-01 5.200838807389571855e-02 7.695403388753063734e-02 2.601766927392887632e-02 -5.259718721371223205e-03 8.308360294526742629e-02 1.330581635291607119e-02 -4.591448202444681215e-02 -2.244543138479766428e-02 2.509883621674861842e-02 -1.207659357475505957e-02 1.102408737594610943e-02 -4.269035184815567902e-02 -8.777315141046142244e-02 3.741395040034259985e-03 -5.398552213619142032e-02 -8.294064426708766535e-02 6.933743548663068301e-02 -8.265109842412127206e-02 3.034546076597999242e-02 -5.526024522275922723e-02 -6.298457232718548786e-03 -1.186016577252534468e-02 -2.762362819280249349e-02 -4.540268517337310572e-02 1.237479868355184365e-01 -7.811785956980963133e-03 2.052717642257549571e-03 2.858778692446063349e-03 -5.700784451149945586e-02 5.352527169005829449e-02 -2.058069612140381657e-02 6.519651096309871975e-03 -3.260183280250261023e-02 -5.374209197968229240e-02 8.178945072096953373e-03 1.172116131005724454e-02 -2.834347545630752987e-02 -1.011870508662321942e-02 4.886156143409851188e-02 -2.509010525219390608e-02 7.112053970579094650e-03 3.385060296335956620e-02 7.675594819787948109e-02
-1.370228527752395675e-02 8.912182628298777332e-02 -1.913290951923129080e-03 1.896830348402249455e-02 -2.507831968260729183e-02 -3.094223998616296972e-03 7.177083934648794024e-03 1.284569403495696002e-03 5.366741949095057973e-02 1.657927475097736858e-01 1.786787284386094632e-02 -3.843504013200255316e-03 4.537284461302930338e-02 1.495417286062321847e-02 -1.491929779086356711e-01 -2.124603819667876189e-02 -3.748076754613070133e-02 1.001991225972929077e-02 1.386936575760751647e-02 6.896893614988247601e-02 -1.329416696547310317e-01 1.241604463801118663e-01 5.042334820929687171e-04 2.129869951584351193e-03 -1.225107266853251234e-02 9.551041774669709328e-02 -9.250085275808983196e-03 -1.531354062924575148e-02 -4.263188982102584373e-02 4.256775795207672075e-02 -1.591628246560217522e-02 3.421434683445479658e-02 -3.461509138493849141e-02 1.800308112121142001e-01 5.328214036945142645e-02 2.328577974475584331e-02 -7.483300737147316473e-02 3.987914908371788941e-02 7.326821726439139426e-02 1.712775655755797684e-03 -8.110733521756006634e-03 -1.972604779018640245e-02 -1.366012023463684770e-02 1.212949958972845549e-02 4.370525644245017681e-03 5.143299095762515760e-02 -8.787202905290471960e-03 -5.115521545812796306e-02 5.337353925362900431e-02 -1.208438544065484552e-02 2.565130257319949564e-02 -2.352815762790487486e-02 2.616698966992462433e-03 1.894223646655385229e-02 -1.424012780326167349e-01 -3.870902490073678971e-03 -1.117672620344986427e-02 1.721138331650610628e-02 -5.051835055436695344e-03 7.377015212873451466e-02 -7.273534989923773932e-03 1.209968997492627714e-02 -4.445231837422896660e-03 -5.435143142637451769e-02
7.669189635672347093e-03 2.709917937923181711e-02 3.793758904149767582e-03 9.182688676945622436e-03 -1.634959381944061513e-02 3.606437078218977660e-02 -1.682139696019668493e-02 9.569894623323775204e-03 4.058740273720044811e-02 -1.155496767189291007e-01 4.261959206652806038e-03 -2.825690938108832862e-03 6.559563726454871978e-03 -2.456394356617764077e-02 5.953146224336424569e-02 -2.908059056026776265e-02 -2.706261579933056174e-02 2.662218228285367222e-02 -7.447608910541540913e-04 5.644510901635430011e-02 -1.856130115566642300e-02 1.810888396821021262e-01 -2.105595882095542132e-02 -1.086384754952078938e-02 -3.104583835442229454e-03 -1.296615331285809643e-02 3.146067884279000332e-02 2.046713045675842366e-03 5.430831907022002107e-04 1.933387285247404122e-02 -4.705073470978750338e-02 -1.440932741270993002e-02 2.379962061191755185e-02 8.125598282402751726e-03 -5.451902644131090270e-03 -3.166504637669623201e-02 -6.433483758426812582e-02 2.456899532310860557e-02 1.333394978803657815e-01 7.301922080343104318e-03 -4.183387034564004653e-02 -2.058740687542484973e-02 -4.228997414457436044e-02 1.574041628649043567e-02 9.030145677126258765e-04 4.697122857291897297e-02 4.277856999147626633e-03 1.184681497669433196e-02 4.414648965879244130e-02 -6.431543470599504486e-02 2.485075433180909329e-02 -3.687041874177512252e-02 -3.339804118606614150e-03 -7.009514606873481699e-03 4.387423869158892098e-02 -6.740490001168517042e-02 1.458924381373623291e-02 4.500874763982476434e-03 -3.698180873957505194e-02 -4.271504077625171668e-03 -7.596426899441204549e-03 -1.225804133538139010e-02 3.857849173807819266e-03 5.417994042859939317e-03
