-1.769724876361824517e-01
5.690550436278865414e-03
-4.241078421943587223e-02
1.779256647432443383e-01
6.564379818200349881e-01
1.351948689433446829e-02
-2.518299121188383866e-02
-9.232043099416101239e-02
-1.426965840085988313e-01
2.788264117608533349e-02
-1.264829807700782738e-01
1.565275849587929313e-01
-1.071188404550224155e-01
-5.694181970249174995e-02
-2.559767923898180197e-01
-2.110666412763706756e-01
2.435879617296062283e-01
-6.116456284179291880e-02
3.828549992085497067e-01
-5.832189058629399722e-03
-3.296714536071141954e-01
3.047771063616691936e-02
2.093387198978185482e-01
6.247248429778283763e-01
-2.058221704270021823e-01
-1.946124218022239061e-01
1.867605047236645111e-01
-7.707801091099344970e-02
1.936998088044525612e-01
2.814628028556344017e-02
-1.309538015992169901e-01
-9.850923793652763272e-02
-2.380466999123313498e-01
2.035849793444258482e-01
-1.469151864201688751e-01
-2.700910639140398639e-01
1.244987087276916843e-01
4.770286353775972099e-01
1.029329765772501876e-01
6.511368028272178365e-02
-9.802575775108512968e-03
-8.240149792982826016e-02
-9.333274766250992949e-02
9.699763135242293194e-03
-1.498045151846747747e-01
-1.338134198415310283e-01
-2.369777688785675573e-01
5.722131793357013857e-02
1.816285063881059592e-01
-2.417090150499856815e-01
-2.491567524457822744e-02
1.683994677156504249e-01
1.698954451286138201e-01
4.859221819069136500e-02
1.904800811770865077e-01
-3.259676315962674042e-01
-5.750814273522389386e-02
-3.667348299277395918e-01
1.503247192361717721e-01
7.438816274416973351e-02
-8.792603552437026904e-02
-2.534805024213045432e-01
4.398186818394868303e-02
2.665733532084631208e-02
