-5.993040195909783013e-03 5.890757895648834203e-02 -1.226271995061306574e-01 1.416804419780173518e-01 4.575910036599047381e-01 -1.252159859299617484e-02 2.079984006614796904e-02 -1.736375290141177197e-01 1.519519003263341550e-01 3.898749950202069076e-02 -1.548182030415501398e-01 1.583715767403660879e-01 -1.683958243664490928e-01 8.782254990892822410e-02 8.641801180117526793e-02 2.146128419309326629e-01 7.239403789902035258e-02 4.653922655740110742e-02 -1.267898738781061962e-01 1.112491779628861921e-01 -4.295435057966112170e-03 4.265806007199076516e-02 -1.320754031857427624e-01 1.468657132842379406e-02 4.908607072455913739e-02
-1.735021369827380658e-02 5.042199194953751046e-02 1.646918797635643639e-01 -1.260245639698985010e-01 2.844621919418357514e-01 -7.284110062925142071e-02 4.947700216325433276e-02 -8.110865315542749310e-02 -3.747480240640493898e-02 3.585145260067247597e-02 1.968540292292481758e-02 -5.227156549707798888e-02 -1.415264028503057658e-01 -1.739809369329799529e-02 -7.349093431779825381e-02 -5.218433422510663361e-02 7.732914616941993780e-02 -9.686242895330100799e-02 1.296024412800375891e-01 -4.642208278113904574e-02 1.554133491704123016e-01 -1.596663030465606536e-01 1.063212697364205872e-01 -1.073276265753848879e-01 1.296287996374385909e-01
1.706627690797677191e-02 -1.302734588386382508e-02 4.400747515896886314e-02 -1.519276550041606406e-03 -6.282791925132490130e-02 -6.715066111294300255e-02 -7.289347483258437621e-02 1.178093587080067117e-01 -1.409501139537917280e-01 -2.612182207292976233e-02 2.390536677785617958e-01 1.366869193742053235e-01 2.226598383369678413e-01 1.888439114332949448e-02 -1.867959310926372296e-01 -1.233394309527350574e-01 -8.897753768833112364e-02 1.936320509250399058e-01 -1.900381685831025458e-01 1.416342235078042744e-01 -8.327099759708724014e-03 -4.123386241864266527e-02 1.736949294467309557e-01 -6.473292137110311928e-02 1.899652948656504470e-01
4.286383937158368823e-02 -2.054398107598558176e-02 -1.450631289533843293e-01 1.759534910218239212e-01 -1.747702275576988595e-02 -1.328769021856658628e-01 -2.741644221334051112e-02 -2.831088600856577209e-01 -2.653774905431819930e-01 -7.072581758539168983e-02 -1.932500756926296970e-01 1.225765088232224492e-01 2.801256585294271684e-01 -2.369895316097578031e-01 -8.933005251056355678e-02 -2.024472153395765750e-01 -2.125066583099683663e-03 -7.361901638083842569e-02 -6.271509766540345199e-02 4.758404547072966201e-02 -2.309536652861147316e-02 4.939921797677767484e-02 1.345321921522892872e-01 9.264314781791609110e-02 -9.314858943563243676e-02
2.427670852414926320e-02 -1.036448461184257402e-01 -9.634744821760414524e-02 5.449981927524303466e-02 -6.790425464647492637e-02 -5.085592435541640421e-01 -5.676827811492304865e-02 -2.513230724431373408e-01 -2.373177380173983053e-01 -6.495739561850134847e-02 -2.418362530277216593e-01 -4.678732483851536644e-02 1.234670086824677659e-01 -6.446891057198719799e-02 1.229139308500392241e-01 8.534314175572876859e-02 -7.605163951389894150e-02 1.521036579576140191e-01 3.274382892864723948e-01 -9.311116529063835634e-02 8.644942005498355841e-02 7.780723273192331757e-02 1.678560381044247596e-01 -2.545339582150846769e-01 -2.087939593952398698e-01
1.407462277902531145e-01 -2.528258105999407479e-01 -1.235254402353749698e-01 -8.176887137990777876e-02 1.634934549145528049e-01 1.718547822794228574e-01 2.517339655391270803e-02 -1.958536714414938207e-01 -2.769586710354516798e-02 -1.826659370481979183e-01 -7.225688320252754947e-03 -7.454845429810036395e-02 1.532381558056978010e-01 -8.393929338491740166e-02 1.684935749972543140e-01 3.196326082414575193e-02 -1.949733284478017969e-01 2.228940880517731385e-02 -4.481027026140128183e-02 -1.145608849041565985e-01 9.517202285181614041e-02 -1.578453731833905638e-01 5.852759462856160777e-02 -7.581509755523271887e-02 -8.865783084067899167e-02
-5.549956964796252425e-03 -5.599569614965442532e-02 -5.751602659818848273e-02 -8.225040241706138566e-02 -5.113808004180291078e-02 -8.399509113680181382e-02 -2.357350066565061172e-02 -1.696917908992442714e-01 5.763760367214067204e-02 -4.659929437677196029e-02 2.302541382709446249e-01 -2.869277406018762022e-01 8.311306101310665662e-02 4.500193871714835286e-02 -1.292601898019470237e-02 2.494609204096884525e-01 -2.848680176773480954e-01 -1.423748554938367439e-01 -1.456699636189394964e-01 1.034582123104435258e-01 8.378023898091833607e-03 1.408732122723561908e-01 8.338003147831654551e-04 7.223270336779472056e-02 -1.481852839303301472e-01
-1.938145179564934595e-02 6.680301326321151645e-02 -5.149680169359394100e-02 -4.854179673426939345e-02 1.033651143151063413e-02 -5.236454024219517646e-03 -1.217885446967079122e-01 1.757921936962768550e-01 5.579347627777132834e-02 4.285503062704754812e-02 3.878328834605674832e-03 2.522581540251827015e-01 -1.786310067461985285e-01 -4.777067664882932857e-02 -3.401071815637567164e-02 2.685379990528112271e-01 -9.300855826437094687e-02 -5.930354182065187413e-02 1.446720469199680725e-01 3.034204781581516519e-01 6.018682973891212491e-03 2.664888884188180151e-01 9.480608530893230856e-02 -1.506198121384478283e-01 9.855748990914446617e-02
-4.318092218365261747e-02 6.340102195531507889e-02 -2.308407593339405206e-02 -8.374078059220674275e-02 -8.810829030236591586e-02 -4.366857922102522493e-02 -3.358993178953632169e-02 5.861698663328625269e-02 -6.137622820899914580e-03 -1.373325719625430319e-01 -6.021211736129277597e-03 -2.067870548300372868e-01 1.606524998629414447e-01 2.001800790397340740e-02 -5.255644939695924833e-02 -5.234154116788651556e-02 -1.967216857661228113e-01 2.114446162349693792e-01 1.248469715394701779e-01 1.331437436822094644e-01 -2.094100926097873239e-01 -2.047372753868088313e-01 1.423881467583092975e-01 7.936081724984180019e-02 -1.548806364074021558e-01
2.711169869844869129e-03 -6.773521451053497733e-02 1.798200982698493211e-02 2.583352352667234175e-01 -3.472425983955265139e-01 -2.089132566990643119e-02 2.634062494378385313e-02 7.375011835028406904e-02 -1.337798457280192088e-01 -9.287708319533807821e-03 -3.616782721735863071e-02 1.016579937801274092e-01 1.872106562625275028e-01 -2.117016170217415061e-01 1.308944526583293282e-03 9.721497397666326035e-02 8.804558400286470465e-02 2.518388078162500099e-01 -3.834298994614661338e-03 -1.426917906191771390e-01 -2.039289992373287674e-01 -4.723260919522736384e-02 -1.462909239656523530e-01 -5.907308005677344015e-03 5.747899389560876503e-03
5.783212204345655055e-02 -1.215643072717061679e-01 -1.052416872212139365e-01 8.128999419988060249e-02 -4.004506285760630994e-03 -1.515572426204532530e-01 1.944047844476817777e-02 3.237913944476925737e-02 -3.295305341443409697e-01 -1.526272219138218866e-01 1.162516162493429650e-01 1.515826684022308357e-01 -1.368840265173403015e-01 -8.783544393880640677e-02 -1.216917924987103300e-01 3.603190424247124102e-02 1.965340677532574354e-01 1.347462123380500920e-01 9.233118418296731855e-02 -1.780008222966806553e-01 9.915988639591921672e-02 2.183515898658461296e-01 3.144594201144555040e-02 -1.168669915975096979e-01 7.031824968532106312e-02
4.786430342261534243e-02 -6.292648923773314085e-02 8.088439875597708273e-02 -4.802869820651057414e-02 6.698363474869971357e-02 3.170051313162187689e-01 -8.044902444778607997e-02 8.316554193671191197e-02 2.319050766082071391e-01 -1.310755754692090325e-01 -3.814048287683002858e-02 -4.459130785779276233e-03 1.580756896958196989e-01 7.791802040797710105e-02 -5.943160801667381893e-02 -1.775732866804901333e-01 1.400817055976930348e-01 1.609143109333452670e-01 2.266348393788354121e-01 2.133752385848913802e-01 3.014114940312364460e-02 -2.378585795130604488e-02 -3.076799774842184712e-02 -9.611888732857558348e-02 -3.622999487515409650e-02
9.429869417584942765e-03 1.807590750232812224e-02 -1.007309086529047937e-01 5.135507403561342388e-01 4.411161264239581853e-03 9.627499113020220045e-02 1.228113046845169878e-02 -2.325284175168311762e-01 3.214049449942326664e-01 -1.736106907826037438e-01 1.663878452771607591e-02 -4.374810718293407202e-02 -1.255672767086806474e-01 1.453926983266081718e-01 8.096111577994519019e-04 -1.039860590919803179e-01 3.617965393864056023e-02 -1.134177205916473696e-01 1.551018645526401341e-01 -6.918802141791055571e-02 1.571851351105720829e-01 3.795024101878556599e-02 -1.669969445397256058e-01 1.392500836064442804e-01 6.544004002886540106e-02
-4.215776959568449250e-02 5.255885447497033597e-02 -4.708608104489064167e-02 1.548468787601666764e-02 -8.787215376726842386e-02 -4.951188603396203258e-02 -1.355279998945481956e-01 1.445232581338754818e-01 -1.929685960084676077e-01 -1.027240983744295566e-01 -4.085498845686984237e-02 -1.124710018064452449e-01 -1.437729802855633107e-02 1.552240847870654528e-01 1.473227842714717670e-02 -1.799790393726766746e-01 8.586913565912028534e-02 3.467859568068005771e-01 -8.921032515165154553e-02 -2.941182081393594050e-01 -1.758882077054622073e-01 -2.586547990393403551e-01 1.825845460815777310e-01 -1.147408939186722182e-01 -1.613148240551215418e-01
-2.758881957747909546e-03 1.246155575235887575e-01 2.069401533862345877e-02 2.657110005890072069e-01 -1.841897454397156686e-01 2.260143008115172436e-01 7.454319569101117149e-02 -5.382853056098253069e-02 2.105431995160853276e-01 3.074321613563455249e-02 3.023318679287304023e-01 -7.006268853489097670e-02 2.544163649594299859e-01 -1.078895484559535684e-01 1.361740218556046697e-02 1.286228259459185064e-01 -2.025996006888270418e-01 2.073599916590660244e-02 1.751629663650988988e-01 -7.456292944113559681e-03 -2.162914181495636801e-01 -1.172641795479481726e-02 5.643984083217551406e-02 -1.463920447399316427e-01 2.921418456946026088e-01
3.008143182693012035e-02 -7.457094630251635825e-02 9.438288437874634007e-02 -4.702995217719905391e-02 2.866630362235421670e-01 1.292162764320839603e-02 1.268207239993313640e-01 2.056435449001576543e-01 -1.963362263647068784e-01 4.686768347936257073e-03 -7.032216779502355186e-02 -1.599736067973425990e-01 -2.696636426910347106e-01 -8.778011646576001914e-02 4.812926917410127389e-03 9.245127184729448611e-02 -1.365900139829716309e-01 2.283001389812774062e-01 -8.387074570095504056e-02 5.202529144355539682e-03 1.266786187417643927e-01 -2.501239564136555071e-02 -7.472691475662893157e-02 -1.868535660191028847e-01 -1.765797260796339585e-02
4.985355709900150117e-02 -1.984073836446728356e-01 7.749107112207095915e-02 -3.238033447612915366e-02 -1.977669314534784631e-02 1.806062755471707082e-01 1.205970410881661292e-01 2.198086176166798300e-01 5.906436003128421458e-02 -1.843093107184345658e-01 -2.730651637038878504e-02 -1.802528566747381433e-01 -2.331451947084856313e-01 -2.639625359997653797e-01 1.338747484611797246e-02 -4.614238639430014860e-02 5.562966579934780671e-03 -2.245688655432385300e-02 9.932178113463598079e-02 2.371983787375635810e-01 1.791669888695035795e-01 1.275977207125844892e-01 1.178256461899987451e-01 2.395021530072366511e-02 -1.029519158515366933e-01
-2.512290292030801980e-02 1.071416381666193823e-01 -1.286693579660518616e-01 -1.461841493326445640e-01 1.090522774864639971e-01 -5.530586446574582531e-03 3.071575158657479168e-02 -1.147629247711816070e-01 8.151758697812935828e-02 6.601470977508672178e-02 -3.068620416565769407e-02 -2.341811175532977074e-01 1.667340468906290396e-01 1.684260647607840888e-01 1.163958842021513632e-02 -1.428352488564040013e-01 -9.721460074320462455e-03 -1.679136453802271278e-01 -2.532121097124372389e-01 1.413112122072648080e-01 7.832543439398167995e-02 4.191541850580213918e-02 -2.490400307355764009e-01 2.269036784481425970e-02 9.285285214669584952e-02
-5.642813748166571747e-02 8.431054085390590758e-02 1.000669664621730709e-01 6.871873944265550213e-04 -2.977940630060484442e-02 8.465838368703922090e-02 1.387443972418517524e-01 1.156138379495158935e-01 9.351905800877856334e-02 1.069245785342079341e-01 -1.878071880724649645e-01 8.548154403530923429e-02 7.247158691885266166e-05 9.108548013857926950e-02 1.095643122993707613e-01 7.037520128248336837e-02 9.015628578422874018e-02 1.692572423853904162e-01 -5.444509545033576065e-02 -3.811857784093450330e-01 1.301716030534023627e-01 -2.401613273972766360e-01 8.866487055722015176e-02 6.280874958095981897e-02 -2.815498020134621707e-02
-5.623881783736064954e-02 5.029964931458934252e-02 -7.608129068782157334e-02 7.553718290438769800e-02 2.153340422648208907e-02 -2.199333892386670652e-02 -1.669962994157256908e-01 7.999522764407054898e-02 -1.866383309115736966e-01 1.381367184497200029e-01 6.018302464213867720e-02 -9.354995884640310289e-03 -1.630550508072256821e-01 -1.390013903710555776e-01 -4.634534853062425436e-02 -5.749843985134770602e-02 -1.206130306256789769e-01 -1.667288640114406861e-01 1.174843056673055830e-01 9.114170370258570242e-02 -1.233899147180225475e-01 -1.974114070917245556e-01 -5.480715713006688999e-02 1.687263540537778939e-01 4.490832969103057681e-02
1.352596633570847702e-02 9.290074219910238185e-02 -6.843051686671423883e-02 2.990811200957323168e-03 2.444203085742782319e-02 2.182471051795045747e-01 6.633966546754459237e-02 1.293884875202986617e-01 -1.120482339490320133e-02 -2.690149170282261915e-02 -1.271291892417435454e-01 -3.314580677842986489e-01 8.532710337920294819e-02 -2.300788324092037720e-02 -4.549516143792976808e-02 -8.550601827765784424e-02 -7.167851445406077382e-02 6.532947446433312599e-02 1.437263222806656193e-01 -2.070297073499161589e-01 3.037031845031708255e-02 -4.178813638482180293e-03 1.650309836553485315e-02 -1.194577789691904923e-01 1.103691933010955556e-01
-9.550912216535121374e-03 -1.167190182143475891e-02 1.350013582396302203e-01 -1.326395078132776295e-01 -2.216291524576866068e-02 -2.337027769409014688e-01 -1.583366372180034232e-01 -2.330494179295147517e-01 -1.434840634442356190e-02 -2.082183628584468038e-01 2.037508812158072558e-01 2.318583643472875988e-01 -1.291111050766209911e-01 4.318143920648660067e-02 2.354792833198911250e-02 9.698566335699178309e-02 -2.210123482211714396e-01 -5.503254305660566260e-03 1.729875863219866305e-01 -7.655931014068408091e-02 1.505940602879952406e-01 1.709463050739682966e-01 7.755406772209970379e-02 -1.125457400756288695e-01 6.773470031220052423e-02
1.728003539804342376e-02 1.965467782566756097e-02 -1.054578174195578560e-01 -1.390974557674586921e-02 -3.733499414104583802e-02 -2.814492770802332622e-01 -6.968780835548893902e-03 -1.338564150361956813e-02 -1.038762510094324854e-01 1.288576930009141253e-01 9.308518684473855720e-02 -1.444772959613664642e-01 2.601554363711524598e-01 1.239440620155268374e-01 -2.101335749094886823e-02 -1.477975315651707533e-01 -3.458220734692494039e-03 1.175590965332551363e-01 -2.844253076591781726e-01 -2.600353884809210037e-01 -4.126501694393534814e-02 -6.749511993818843592e-02 1.672883324415577466e-01 9.076164061054443899e-02 -5.187622539652784331e-02
2.640779324806746819e-02 -4.679114895051596223e-02 -6.472593662899214784e-02 2.562656596618225618e-02 4.958231405308326928e-02 -1.156075904669682936e-01 -1.274683248101416977e-01 5.811447055146797686e-02 -1.591713883593776913e-01 -1.024411789143766516e-01 1.916505719071286695e-01 -4.414483919660850547e-02 2.517309301804304122e-01 -1.317745552407311171e-01 9.480968629703068109e-04 -1.033192157595133609e-01 -1.423683841909620384e-01 -1.127567406144765194e-01 -1.599091810338499620e-01 1.140926155331002251e-01 -1.721873344259554905e-01 -1.520292222111769079e-02 -1.567320877871620777e-01 -3.306778477152402113e-02 4.133608466017268251e-02
-6.445875260417470443e-02 1.995205446610480438e-01 2.447733701718814506e-02 1.131605144164579968e-01 -2.156881365183743737e-01 2.454441644207144575e-03 -1.299703982116849274e-02 7.281364678675149305e-02 1.179035716596960603e-01 -1.429836707831144693e-01 -9.176095283118550217e-02 5.770361564556313744e-02 1.912165997198929934e-01 -8.847387524130474745e-02 -1.050105125709155235e-01 -1.707967109143626039e-01 -1.372426006379945940e-01 4.088570514287233337e-02 -5.951144522946444360e-02 -1.159073073177308566e-01 7.544161868926771430e-02 6.896642630323245558e-03 -1.664662075416075207e-02 1.863877025012947719e-01 1.516592297789580712e-01
-6.561506231757147090e-02 1.689236113621756519e-01 1.252549109346414585e-02 -4.876748253421386847e-02 5.693472007678599539e-02 1.380323817449594093e-01 -8.278230728169432007e-02 -1.476887417179982009e-01 -3.418767013727147530e-02 1.009929865611180165e-02 -7.382543643774834574e-02 -1.857864877640990481e-02 -1.910885888436258395e-01 -8.593230187428750610e-02 4.752697733163601529e-02 -1.597028664461672409e-01 -1.148459013802971274e-01 8.701134682054459391e-02 -5.654766937064292787e-02 -7.781039878308505797e-02 -9.798111112750156060e-02 -1.160744233116010882e-01 5.051935428287729346e-02 2.549270063108878201e-02 -1.529986558927717843e-01
1.857555544902550699e-03 -1.903645805466244040e-02 9.707566135462069451e-03 -4.369363470187552501e-02 6.326574141951095409e-02 9.976293443543167438e-02 -1.281926122190358841e-01 -2.458664024756612998e-01 -1.945091539597650632e-01 -1.682471714374583205e-01 -1.908306523928742504e-01 -2.321608702878927011e-01 -1.986541291129358677e-01 -1.218533501918332984e-01 -1.624649436599113483e-01 -1.033172450740411086e-01 -1.617517726842061243e-01 1.914280965552000446e-01 4.739748721382421731e-02 4.550998209771077441e-02 -3.259406322645167636e-02 1.824918852109857770e-01 -5.145656403937318157e-02 -1.363866640899034643e-01 -7.235630266837132785e-02
9.786582904299795035e-03 -1.862545117831856945e-02 7.388567781265045764e-02 -3.040721327985922845e-03 -1.588963110669995848e-01 -8.698206346699539904e-02 -2.407023667515111390e-02 1.638700729618829122e-01 1.551140545223766709e-01 3.283878713440176178e-02 2.629442111119289494e-01 -3.954999864667991250e-01 -5.465856242643214458e-01 3.030517874372122833e-01 2.780013727973608684e-01 -1.172680390386309467e-02 8.827037994943080779e-02 -3.945622296183782379e-02 1.069760328962994361e-01 -6.041689894401025551e-02 3.083621458028803705e-02 6.558198966924068396e-02 -1.398517233296323325e-01 6.413879839127678562e-02 -1.338937647835237443e-01
7.875769601127334887e-03 4.752762063706319519e-03 1.406088085752654482e-01 1.868909225641054994e-01 -1.843761567712160973e-02 -4.296639705181571484e-02 1.125872178458457717e-01 -4.194204497222295269e-02 -1.345343568462845640e-01 -1.136767324575330002e-01 -1.165049109819257245e-01 -1.061178198542613443e-01 -1.454796206186546870e-01 1.569073369695399289e-01 -1.116929199711973741e-01 -2.823187430155593702e-02 -8.974114607205463390e-02 -1.360488045825202219e-01 1.519039365867557445e-01 1.716152423765710533e-01 8.210745671208222185e-02 -5.002790646622801152e-02 6.679427293127744580e-02 1.852202653459290027e-01 5.244930884388821629e-02
1.403357909699894795e-02 3.063409821086769333e-03 -8.187960951116976527e-02 1.129003657631725277e-01 -1.539241733596076189e-01 3.174617484340536699e-01 5.206971212724299802e-02 1.595430007071342859e-01 -2.153044289360253952e-02 -1.251146096930275120e-01 -1.102697189941516803e-01 1.862251902226157163e-01 -2.150477042869439470e-01 1.589436103869368844e-01 -1.254855419049061560e-01 1.601358479568776652e-02 -1.051546678708712296e-01 -9.762953586299900899e-02 3.197133711019608387e-02 -1.932551374298618063e-01 4.203211360539491764e-02 -8.568453144253140863e-02 1.002758434723019232e-01 -1.046159452161434383e-01 8.087194563048569207e-02
1.105561944680887726e-02 -8.382463109898800890e-02 2.789241281420725554e-02 2.649070635412086316e-01 6.757618569569744105e-02 -1.205054166416981987e-01 2.107730906389533587e-02 5.652632515796555956e-03 6.969126494900040186e-03 9.563658556351049833e-02 -7.382422280392918201e-02 -2.576460744102644917e-01 -7.841435380023303869e-02 -3.586142874090788440e-02 -1.922706850618147723e-01 -5.964924418114075921e-02 7.627449512810649535e-02 2.171708813002558303e-01 -1.466991437875829474e-01 -2.150303562673578153e-02 8.172476958814447676e-03 1.381071767161094754e-01 5.361732279661352712e-02 6.230030980162289816e-02 -1.674023179739289602e-01
1.057202971149152557e-02 -5.955423302149474157e-02 5.362606063919497790e-02 -9.613278504842283356e-02 -6.573062183904770928e-02 -1.410566611260395120e-01 7.487468347335277108e-02 -1.315782665220188545e-02 2.582137283356278346e-01 1.480095428566707283e-01 1.349826009517924585e-01 2.541975671292577288e-01 -2.525658392430319421e-01 -1.114191141574590871e-01 4.197772769006275495e-01 -1.194467115171603810e-01 -1.622016426152742830e-01 -4.298200003377869449e-02 1.860682809460518228e-01 -2.351271991314496379e-01 -1.653369272150895797e-01 -3.373172860091559477e-01 2.375248593529695751e-01 -9.491589537908053098e-02 -7.450572357481270724e-02
1.047936417888162275e-02 2.243176566705189917e-02 -7.606823649676017207e-02 4.871855647362821062e-01 3.168032634838811867e-02 2.760831879078587958e-01 -1.086763655376551535e-01 1.430457520568639562e-01 -1.688019143471787553e-01 1.033322628235072427e-01 8.756860536919593152e-02 -5.780576471438121644e-02 7.543967321413677651e-02 -1.689323363430988156e-01 1.548757136683772961e-01 -1.443469988685110450e-01 -1.768417157416997954e-01 -1.317429611556173163e-01 8.282537405306895223e-03 1.774259768943073912e-01 2.266889056066469232e-02 1.602507912772528909e-01 -2.636275413302443735e-02 -2.053074329056858993e-01 -1.056866434061717007e-02
-1.137692492980992703e-02 3.886999689581391998e-02 -9.676651918129537677e-02 -1.183646753966587084e-02 -7.151822163564658386e-02 -1.429483656628833532e-01 -1.311504481080574547e-01 -1.382994650895451039e-01 1.108356526632551520e-01 5.182222883084552228e-02 2.696332274686066843e-02 1.152086177030137992e-01 7.847294051752770616e-02 -5.880253468174859166e-02 -8.508295431087326780e-04 -4.124000007268893708e-02 8.629118707269155253e-02 -1.801130689007828314e-02 -7.903299405531216681e-02 -9.265101721817221858e-03 -1.373077417197976768e-01 -8.440898993916290394e-02 -1.548786992523930595e-01 -1.558021822247266930e-01 9.258093825131516463e-02
6.698613335713060613e-02 -4.801707560961240677e-03 4.782607370327072310e-02 -9.729240469930516833e-02 -1.495203279897659443e-01 -2.527092516461538763e-01 -1.071553753377976620e-01 -1.287104335527390619e-01 -4.685417962571158945e-03 6.325677521247562163e-02 -1.913577280594801200e-01 2.246761912074483197e-02 -9.405383702948379165e-02 -9.019289040258891832e-02 5.778541934190371820e-02 1.560127318632277271e-01 2.150727049886566600e-01 -2.776767837643773565e-02 2.655799616623046380e-02 -9.919726252353314178e-02 -3.113496813594147927e-02 1.338901867328869399e-01 -2.351803434856552244e-01 8.122391286718970427e-02 -1.480507451465743196e-01
-2.999790913328780062e-02 1.097253150758214016e-02 3.761905261286964397e-02 -1.905305490763201937e-01 -2.153904427286069678e-01 -5.926358964933396006e-02 -2.152020318717382807e-01 -1.151626127993316540e-01 1.087147453607946457e-02 -3.906493321779491018e-02 7.652672031252712170e-02 1.294725313562118396e-01 -1.414811897624491388e-01 -1.196490682525561677e-01 -1.790222803737935575e-01 -1.090265222851639210e-01 2.128205386762518081e-01 5.035397493802622887e-02 1.611256617760880305e-01 -5.068232063433381063e-02 -9.361305712681104729e-02 1.072971938422388749e-01 -4.331965258314335321e-02 5.418677715720612159e-02 8.353075294845820065e-02
-1.976089361050048249e-03 1.865930985639284445e-01 -1.078060355522652974e-01 1.284131979372084564e-01 1.006796222099223259e-01 1.282925172082366172e-01 1.521532431511151140e-01 1.076284558668899084e-02 -2.230565082075287586e-01 5.344675468605317864e-02 2.706377605095930949e-01 -1.777177306697806936e-01 1.924830797291077755e-01 -8.206527565424330539e-02 1.382049622401301803e-01 -5.859313975569650085e-02 9.016379837983988510e-02 -2.585655991988273783e-01 -1.164716018566129413e-01 2.027876354656897862e-01 3.286929201337099316e-02 4.089789355878634819e-02 -1.135426171233850506e-01 3.620202133009951112e-02 -6.193419145606940401e-02
-2.142272777517295265e-02 1.213165807800177867e-02 -3.947749646658098993e-02 2.880112916513930671e-02 4.053187634662435562e-02 -2.027069129885442356e-01 3.553590719808227133e-02 -2.537844449006587122e-01 -2.649772420488450964e-01 -1.013729036925364729e-01 4.738447523504273756e-02 5.302362186499715718e-02 -2.073165750789476847e-01 3.169431708794114289e-01 -1.750396130389938187e-01 7.215457019437558628e-02 3.137647347129877973e-02 -4.862438586558703174e-02 1.050048234506403139e-01 -2.209677812365768712e-01 -5.258587808686637950e-03 1.743084475445325354e-01 3.771204598867357594e-01 2.053529495377500597e-02 6.634113553928756846e-02
-6.896427653842579150e-03 -7.843744325003091213e-04 6.204040563469231245e-02 -1.881625529234966232e-01 -7.516892260798674341e-02 1.771803648385011365e-01 -1.935305064663520036e-02 -7.987502547001178177e-02 -8.988394284891224051e-02 2.954898983993632655e-02 -1.548549397678928262e-02 1.101645889696104830e-01 2.510429069020719828e-01 -4.525396075849209832e-02 1.497908472947472903e-02 1.529855583456455059e-01 -1.689450005578101432e-01 -1.839017054338274726e-01 1.562710867025070560e-01 -3.666809227582003977e-02 1.651649142364732537e-01 1.602814878138756061e-01 8.148578395373094752e-02 -1.536505203809468423e-01 1.709389937488760836e-01
-5.480339770968611912e-02 2.875950781572751414e-01 -9.488653637812499708e-02 1.743480790303721661e-01 -6.736811140670900810e-02 -1.688380961977545003e-01 1.575684594256282489e-01 -6.266399247957926688e-02 -1.824910581114324304e-01 2.868973999452637327e-02 -2.344215779195155808e-02 7.210347766833481720e-02 3.443535317412177443e-01 -2.835567319530661878e-01 -2.020931845316097097e-01 3.953169673043632759e-02 5.289001738770631594e-02 4.616298231243006617e-02 2.883277761944392018e-02 3.139608435424277588e-01 -8.070226830137480767e-02 5.100106833201883960e-02 -1.373496067385841790e-01 1.623672181790642433e-01 1.697900983736207736e-01
1.650334440036516168e-03 1.839272400622486356e-02 1.470656710799194029e-02 2.095981562873100446e-01 -4.223231743280077971e-02 4.335098109713085845e-01 2.955358217287732195e-02 -7.854166344669311420e-03 -1.001570092628089187e-01 -2.118493289677477187e-01 1.220952342465707607e-01 -1.228306987756074553e-01 -4.549504674799512149e-02 -6.228040134186746402e-02 -1.381790213330806039e-01 1.379474978810245056e-01 -1.980879948758462739e-02 3.153770409397962937e-01 1.387994245636862412e-01 -2.632541486125217767e-01 -4.054421381221635229e-02 1.462300081059044188e-01 -9.107545124010603399e-02 -9.448693120002192580e-02 -1.002338666075275608e-01
4.596115083113860161e-02 -7.826441614460241669e-02 1.213554389851300430e-01 5.192464437686822309e-02 -3.779595789730354205e-02 -3.665427199807689412e-02 -1.337442781914422764e-02 -2.211982120861075499e-02 4.516514763450339004e-02 -6.248344192689120336e-02 -8.479998145188211156e-02 6.436133575540683993e-02 -9.431074359770405535e-03 -1.325964649001492301e-01 8.723874021402164280e-02 -1.366681020916818978e-01 1.461098590850494136e-02 -1.118837310329110352e-01 -9.315168159641151746e-02 2.246151244354186449e-01 1.986205216925334208e-02 -9.521361375584647124e-02 -6.645402791738998227e-02 -1.599250515991399724e-01 5.640008044687161437e-02
-6.612063250401346848e-02 2.529630272393567081e-01 -1.184682935982293711e-01 -6.229664213540491574e-02 -1.219954467046772822e-01 -6.578682546719188950e-02 2.173272728210661198e-01 8.113829351193087291e-02 6.611870516708216738e-02 5.968936584351563351e-02 7.870299956848957057e-02 9.701449257017413785e-02 1.276401836813242652e-01 -1.378735351167963696e-01 1.304706087440111739e-01 -2.209862860678824259e-01 1.512543172648486978e-01 -2.170369231861959680e-01 2.891867554436009513e-01 -5.887874462326902428e-04 -1.962857847083359364e-01 1.825099546774821072e-02 -1.702058751521732527e-01 3.954191517250240512e-02 1.480839758443280255e-03
-3.659629738162660084e-03 -1.957436302676628104e-02 1.364088620172609345e-01 -2.754270862599303774e-02 -1.881590007536218870e-02 2.909316323222704836e-01 1.347995357081827918e-02 -3.798457625350445260e-02 8.057877727169195092e-02 -3.016793692598846582e-02 4.948311354320581584e-02 -4.783883738784430045e-02 -2.800673199359271504e-01 3.490334387116974524e-01 3.218010345077142453e-01 3.295764526868455186e-03 9.788456460984493179e-02 -2.507988484139296592e-02 4.136023566758913195e-03 -2.577241614861951191e-02 -1.550991823279953552e-01 -8.881034824916385351e-02 -5.365944139693800546e-02 -1.777224170944217627e-02 -7.409928414241519212e-02
3.244375565085640123e-02 -4.264824969728235604e-02 -1.119683693615645091e-02 -6.324637302683906726e-02 1.795789460710109642e-01 5.141484869374879363e-02 3.512712606445535513e-01 -7.639328571994322137e-02 1.181158052381970081e-01 1.378045064582644752e-01 1.110528308144669019e-02 1.962595165715727216e-02 2.222604855318188188e-01 3.455017375101507998e-02 -1.533347366349734064e-01 7.117778805105791362e-02 4.117548149643397021e-02 -1.112520005260140277e-01 7.049642014397360101e-02 -2.002735882713712889e-01 1.517392550472992374e-01 -4.226456913285923933e-02 -4.559638842260016478e-02 -2.117602989749234610e-01 -2.847237347351326206e-02
5.200554535186075605e-02 -2.035957432520304755e-01 1.602171149135311057e-01 7.336060126187533836e-02 6.896545552792918143e-02 2.969847737776544136e-02 -5.490531612423563135e-02 -1.004729196643346367e-01 2.329426570497738769e-01 -1.782299862089557416e-02 -1.122322143340584860e-01 -5.435476910010014762e-02 2.574267262221202057e-01 6.958432486606583312e-02 4.009535825496937655e-02 1.870792957033126369e-01 1.139355037850951075e-01 -2.926256149928025407e-01 -5.413076743711191241e-02 6.785528083299020852e-02 -1.516467294731235482e-01 -1.065466189207083386e-01 -4.134874930217752320e-02 2.827231317097989374e-02 -7.548301748279957757e-02
-1.406411362197997235e-02 1.399208150088625258e-01 -7.358022482309620194e-02 -4.921514456382578007e-02 1.045431914654174760e-02 1.743379514618666193e-01 7.732095899451789378e-02 -6.014309139257845160e-02 -6.199425408599893231e-03 -5.981234061090337506e-02 -2.132948510140917631e-01 6.312158489016933549e-02 -2.369411950569656200e-01 2.779293981060924068e-01 -5.510312609445079668e-02 2.407574542620087299e-01 -4.579264696184901819e-03 -6.462529170320049920e-02 -2.384657224416546206e-01 1.302027356131805202e-01 -6.450521829393147943e-02 -2.227162156421670924e-01 1.595749693340108716e-02 -9.013055565771060929e-02 -1.650212480859453157e-01
-1.240235471858260052e-02 1.009128196895636154e-01 -2.722021469504736293e-02 1.454708454909938165e-01 -1.440600908478215647e-01 2.803272989332908360e-01 -1.277343511139238941e-01 4.727793770601736861e-02 1.934230925348516816e-01 1.213606328903819032e-01 -5.577036278532734870e-02 -1.044514733987341598e-01 2.465426415798608606e-01 3.999969647062583122e-02 2.385886990980636557e-01 -1.441798291101668295e-01 -1.517879215041933669e-03 -1.183114148301614571e-01 1.171484920071580726e-01 -1.011631970068199715e-01 1.316338523012418847e-02 3.264445265508703758e-02 -7.619255325557881819e-02 8.558192612701601143e-02 -1.084970672056966151e-01
5.008827407221348033e-02 -1.795728558003889183e-02 -8.120769236615489606e-02 5.613484969001387298e-02 8.211243019666580878e-02 -7.628838384704687142e-03 -2.146274512291529782e-02 1.303916474761400990e-01 1.330729568082048356e-02 1.288946565445935888e-01 3.515410022891418684e-02 -2.095307232482326032e-01 -2.466391623804395083e-01 1.726511560101358922e-01 -1.858524700099170590e-01 -1.047627374764477926e-01 -7.277497461768994702e-02 -1.045283949185828037e-01 1.513216002682347683e-01 -1.630304816326944017e-01 6.870430757417879397e-02 6.448851291496998650e-02 6.855139702455999295e-02 -4.030658211194810409e-02 -3.065676235761714830e-02
6.197680836504693147e-02 -8.796049450244307344e-02 -1.394337882265470896e-01 4.682287960085927681e-02 -1.803974135189646000e-01 -4.316720654513126615e-02 -9.470643722695776257e-02 1.013374144240370422e-01 -3.719901330661747746e-02 1.792949264495342573e-02 -3.788312361603331929e-02 -1.453514058730450698e-01 2.196667580594558189e-01 1.720875298470750103e-01 1.350007486944042497e-02 5.969178256874548699e-02 -7.191648173242139175e-02 2.161588184290245268e-02 1.091822878942358271e-01 2.061464322666599694e-02 -2.700316171981369945e-02 3.076363437805992862e-01 1.262197013821448333e-01 8.986598924178422487e-02 2.039955051270567477e-01
2.703616732518740462e-02 -6.921199315933342089e-02 3.035986848225541088e-03 1.160379962469922956e-02 1.652609809499993865e-01 9.672921097767757381e-02 -1.225597330256137096e-01 2.129246351468796761e-01 -8.337881636921867790e-02 -5.815515170408028928e-02 1.049570533989578197e-01 -4.012399681956780872e-01 2.759535345380262003e-02 8.120194877556498325e-02 5.657640123835771390e-02 2.409569415304786133e-01 6.181536951148457193e-02 2.129747921831524338e-01 2.191177676974842836e-01 3.720100423313736637e-02 1.521539818464832938e-01 1.460982638811293421e-01 -2.332965434380610270e-01 -9.597215843671894064e-02 3.210412223444632229e-02
-7.120772987895124251e-03 -6.886135952901703550e-02 -5.575199106108931490e-02 -9.797425407117632545e-02 1.429260471736880922e-01 -2.381925798027018648e-01 -6.457102173334690332e-02 3.217707998906065014e-02 2.988046577536464937e-02 3.237018702576948542e-02 -1.644670913694515624e-01 9.881081392162933963e-02 9.910940946634141935e-02 -2.207022174168869477e-01 2.452639088933995792e-01 4.924112909975859875e-02 2.548493609161645579e-01 -3.554123611864869886e-02 -1.132999968662459778e-01 -2.759065857470850182e-03 2.225018687042689958e-01 -5.309389083873147092e-02 2.473774139135274941e-01 5.381801054537802692e-02 1.510315779765399880e-01
-2.484228616778444421e-02 -2.664755158165083015e-02 5.399816471447558067e-03 -5.594690123457438796e-02 1.774147387312534699e-02 -1.058877427336265831e-01 -2.033485211812887782e-03 -2.244825883328292471e-01 -2.333600766677235150e-01 1.079454669949139189e-01 -7.607626649931371887e-02 -2.279289380289902522e-01 2.363123211523049938e-01 -9.502274418571195203e-02 -1.822701724641554444e-01 1.816889762217338278e-01 -3.978527901588496500e-03 -4.122385750385332837e-01 -1.612256847013518457e-01 -5.456533665304384023e-02 3.113166966855366868e-01 1.609498216309498131e-01 3.768146471431847982e-03 -2.627269069975768923e-01 4.470053878482044274e-02
-5.809434245715111057e-03 5.098782176635606456e-02 3.042498237548921236e-02 -3.492797432892592868e-02 2.677199704077358466e-02 7.126841784691398396e-02 3.322659388925319202e-01 3.793455106038425007e-02 -6.255853970690783417e-02 2.363806477970228359e-01 -7.850706446978805708e-02 -2.208384361117017025e-01 -1.023835874339358992e-01 -7.040261200792409524e-02 3.022257772649701579e-02 -1.876031330040099365e-01 1.078148581086052493e-01 -1.690865434152495073e-01 -3.200885481565511614e-02 -4.970117866790292604e-02 -8.544580254547809450e-02 1.111606083093702318e-01 6.996673996170446608e-02 -5.628341213417285133e-02 7.584731567857323775e-02
-3.752826193758301843e-03 5.491468298365236728e-02 -9.392885191244872145e-02 9.130222014816792228e-03 -1.623335733733623221e-01 9.971584713961258173e-02 -6.133909779479119334e-02 -6.732902677233808253e-02 -2.773218433941021521e-01 6.749568807056589848e-02 2.259410096614451399e-02 1.291165651900313405e-01 -1.316007293223945586e-02 -8.237054104788957276e-02 2.365460553735995730e-01 -3.961214779714330309e-02 1.720163743072965212e-01 1.625590513525639880e-01 -2.206904330592251995e-02 1.598609952324583361e-01 -3.003866198001845390e-03 9.388419092490561668e-02 -5.115530740472924026e-02 -1.534614883701968802e-01 3.545502098891178261e-02
3.694883423900939545e-02 5.502275223529476400e-02 -1.963183347102276932e-01 -2.735152371101320229e-02 8.781411958149569486e-02 4.512118272316966161e-01 1.065733139596350409e-01 -2.576429162473854988e-03 1.989327999865333485e-01 -1.707750036325542675e-01 1.275256658227334472e-01 2.963884364613960098e-01 -4.062589693879007924e-01 -4.860936922243709948e-03 8.604943772461901008e-02 7.252424223233855383e-02 -1.608086998539410006e-01 -1.331645948782579081e-01 2.048994518473140625e-02 -1.527235940529949321e-01 -1.584494876997605273e-01 3.166100688773890864e-02 -1.598605010105114688e-01 -3.763750508931468924e-02 -1.384453995182768071e-01
-1.607592924329077563e-02 -2.257449965332200548e-02 1.568319724148463726e-02 -6.827094184686112455e-02 -1.228882624402406615e-01 -2.649502395333215854e-01 -1.496634943801162729e-02 -1.295364539059926656e-01 4.761080515502553838e-03 6.210699535311951097e-02 -3.910967913810092268e-03 1.542266012450336198e-02 4.550050358680998719e-01 1.654162028028728360e-01 -1.523881596295234286e-01 -1.999415560921056212e-01 6.259530511758948368e-02 -1.870390781987251727e-01 1.628380279518385765e-01 1.403100161199717089e-01 -6.178996972612793570e-02 2.829375971595065598e-01 -1.445392462818520796e-01 -2.396971505551607484e-01 7.049113779780036282e-02
-2.606480302561096397e-03 3.564246767455651888e-02 -8.919654513142691310e-02 2.626829224741743241e-02 9.989525926084229235e-02 6.243928506883409529e-02 9.058534251937722104e-02 -3.675155334514558780e-01 1.676154232958653179e-01 -9.953576233059586997e-02 1.011650009581995802e-01 -7.658307106603369496e-02 -1.375180861451007486e-01 3.796709089116031416e-02 -1.005062484344413087e-01 2.046069259570270499e-02 -2.318667044809545053e-01 -1.432505584472771876e-01 -1.056782599277159007e-02 -2.022438480808122149e-02 2.070982793282341028e-01 -2.221166350113829013e-01 1.562354222042949270e-01 3.088353465218370703e-02 2.467741185639394375e-01
5.190140236545515845e-02 -5.403647880550240673e-02 -7.638263975788303628e-02 1.058447640635480080e-01 2.148129197956439099e-02 3.264830565307839105e-01 -7.244800430558419888e-04 -7.865593809568026396e-02 -1.597608066882523770e-01 2.677374780969644583e-02 2.358252987832435699e-01 8.272139680435203202e-02 1.762973331933814503e-01 -2.462264088915440408e-01 -3.597311527928663544e-02 1.970091722854975524e-01 2.572524056773027867e-01 3.111120679158262958e-01 3.549086849121894649e-01 9.460766767173174607e-02 4.502692118391066201e-02 -1.117474413262624366e-01 2.209733190133511271e-01 -1.086183870230443271e-01 1.082127866580435971e-02
-1.395337985707451392e-02 -2.705848826155126188e-02 2.365549441962480626e-02 6.270979420654966552e-02 3.923185511601586439e-04 -8.387868112580716684e-02 -1.275059029497572216e-01 2.672859450104634882e-01 6.765204985373828028e-02 -5.444309745084303931e-02 1.851728506096804727e-01 7.680332734233626113e-02 1.432223928061609752e-01 -7.264336542094119997e-02 1.981279688276767897e-02 4.439291747944612565e-02 -2.073125093979148736e-01 -1.674783256180925606e-01 2.260986639810260990e-01 -6.545385955660751320e-02 2.412135444620410601e-02 1.466877543215647228e-01 -1.716805485722556479e-01 8.265963929113114006e-02 -2.105632286114177687e-01
-7.652969808574465981e-03 4.182966852722071541e-03 -4.787009957068448507e-02 -2.609993453410630604e-01 -1.138593080278855613e-01 -6.899889115688604725e-03 7.852043503095929022e-02 1.200602702612047212e-01 -3.873395687643449437e-02 1.814097338221237407e-02 9.467098776684708394e-02 2.045970347393284983e-01 1.048271517617873766e-01 -1.466476780626640164e-01 2.136782798792298266e-01 -1.800420821291520354e-02 1.017762963714845259e-02 1.594450221985662525e-02 1.924778518016531381e-01 7.948197023152221707e-02 4.857077559729482130e-02 -1.086615391611456816e-01 -5.904658003376692110e-02 1.763771003615167143e-01 6.758362149839550193e-02
-3.011914375630211048e-03 -8.460207119027398368e-04 6.990598961790230048e-02 8.890396681079504315e-02 -1.112880723348366220e-02 1.935358158299333164e-01 1.560677190826557093e-01 1.632915427760731342e-01 5.140310952902960029e-01 1.120142233059159553e-01 -7.361544588428263480e-02 1.515551423267950115e-01 1.644221900156162541e-01 1.163118060994096370e-01 -8.648995518533859894e-02 -1.655899768499974334e-03 9.400796329131089202e-02 2.042473618773489319e-01 -1.887504321261692652e-01 1.072947554349265864e-01 1.257107637289635593e-01 1.086983498337046744e-01 2.272781753423428197e-01 1.219897100934373008e-01 -2.421906826179360817e-01
6.450668163245932077e-03 5.110293816199794337e-02 -5.329135593005560750e-02 -3.332299418950120384e-01 2.504900836392852104e-01 4.434006283859261155e-02 -8.019009609120140297e-03 5.597017136547568356e-02 2.842353228752043937e-02 4.206986649135078388e-02 1.199315510917345895e-01 1.694933439996035296e-01 1.834697240714286762e-02 -2.055820505967493605e-01 9.724260944118219563e-02 -6.987740990506617622e-02 1.098382257934287370e-01 2.181215314594381616e-01 1.229665390060416391e-01 3.796049841821496490e-02 -1.771167960734528757e-01 2.027034021744774372e-01 -8.365192794305494062e-02 2.304547732743699243e-02 1.705916443546589556e-01
1.551499154249476493e-02 2.188313080618371764e-02 1.222796001665926446e-01 8.557215263416349457e-03 1.770233848527412168e-01 -9.067482524867029325e-02 -1.277345968211021920e-01 -7.495295233904257504e-02 -4.485422485399735704e-02 -1.652450297898193088e-01 7.858185687070991243e-02 -1.914535621434584542e-02 1.801044943272743504e-01 -5.131440186346553772e-02 -1.833159305708109352e-02 7.025874370348082765e-02 9.928231048366574496e-02 3.163100428024252092e-02 -8.021415399667798651e-02 6.991212548943201432e-02 1.553910653832047961e-01 1.317728955550628023e-01 8.375003624388451320e-03 -1.482121080689775827e-01 -2.596621424033650899e-02
