-2.664666270900401326e-02 3.124443425568746574e-02 -6.028343687797430017e-02 -1.035759922206571336e-03 5.386727891368971177e-02 1.460742230796595043e-01 -1.105585330510956282e-01 -2.159940898238385809e-01 7.828856804865171048e-02 -8.020238837944400345e-02 -2.357518986607430936e-02 2.358108921502259647e-01 -1.179081809662552299e-01 -3.448690334179505684e-02 8.031848787915139842e-02 2.076496705795099207e-01 6.672278113408944278e-02 -2.214005604188637455e-02 -8.480727068027499316e-02 1.416859985505129482e-01 -2.349888354041925267e-02 6.862899722363188793e-02 -9.716574162890234678e-02 8.216679245613514940e-03 7.669219339292930593e-02
1.498355900561802040e-03 4.468031542593626365e-02 2.075228649840561712e-01 -2.010834821190743416e-01 2.418245242352841107e-01 -7.051004709841983409e-02 5.290804163637817525e-02 -1.679752494186811246e-02 -7.086754740334531844e-02 6.156982149566547768e-02 3.194207763152194512e-02 -5.680280114610458675e-02 -1.484863852356381186e-01 -1.368419198183334386e-02 -7.525618248681459344e-02 -2.896609767593342349e-02 6.982697161915338291e-02 -8.445901698034505301e-02 1.097746266356861566e-01 -4.457824576638143993e-02 1.469748825637623435e-01 -1.623724766239197648e-01 1.056017491893658927e-01 -1.121217693911561591e-01 1.278455993749051944e-01
-3.494290674676236302e-02 -5.527347274682841739e-03 2.522151799196828761e-02 1.001708679249459361e-01 -1.488036631695975331e-01 -2.883079941142091974e-03 1.042173384781672485e-01 5.341730676782215081e-02 -1.285805656316969248e-01 -1.955963329651737304e-02 2.750843007691514686e-01 1.051335291002140349e-01 2.987130473717670709e-01 1.171636453965928248e-01 -1.934185363894327936e-01 -9.765138377142634774e-02 -1.477611626261491895e-01 1.422461928486246918e-01 -2.411675148717569717e-01 3.724486103937194731e-02 1.141061111913962804e-02 2.143087883998081450e-03 1.449666712629055221e-01 -9.150791460328765170e-02 1.588434550426216785e-01
-4.876811036873985455e-02 -8.404652262705655796e-02 -4.624485349205247064e-02 6.174968618571788359e-02 -4.351211242667754608e-03 -5.690200841506919821e-02 1.116156382078145187e-01 -1.663242778796942545e-01 -1.818778644735612182e-01 1.085863052841700392e-02 -1.222460275399759738e-01 9.956298765888392521e-02 1.939626245480674804e-01 -2.574821645220652933e-01 -6.278212258405020674e-02 -2.094226747093506369e-01 -6.124855603838706003e-02 -3.635030831962130643e-02 -9.835814724152737443e-02 4.930646448625103373e-02 -5.778136335029943060e-02 5.253246276847085144e-02 1.447136787072832720e-01 7.406630012543477526e-02 -8.324227549399909609e-02
4.690661656478879032e-02 5.070768646754802988e-02 1.087199466645475190e-02 4.408390867083228880e-03 -2.106516877939896559e-01 -2.333144843474286023e-01 -1.604379887584193864e-01 -1.038526174638159660e-01 -1.774834515700506321e-01 -2.975686453782450669e-01 -3.275459451980941572e-01 7.956534506510952454e-03 1.452949868928117283e-01 -5.531796200183698676e-04 2.037168269960546452e-01 -2.590445907545156634e-02 -2.192500435652608437e-02 2.291116129716540550e-01 2.711714802944860114e-01 -9.269217300597989984e-02 3.785890643041518039e-02 2.660746385804254460e-02 6.246742236817928728e-02 -3.382383516740193330e-01 -1.655218670156685667e-01
-1.378907934428449389e-01 -9.248812343716730777e-02 -2.972238369552210879e-01 -4.072502157320764815e-02 1.500849005708667083e-01 5.015821779530472285e-02 1.545196067661202544e-01 -2.015792586062432334e-01 -6.036456499271085352e-02 -2.752394835494942904e-01 3.959670300982447155e-02 -3.779918784519358671e-02 1.685459530129409522e-01 -6.150192900520188438e-02 1.852477177869751856e-01 6.239399854729612421e-02 -1.944557603771803755e-01 4.522140978928540500e-02 -6.226799604881073230e-02 -9.264414729006661964e-02 8.975549210200498007e-02 -1.493034856249088327e-01 5.025898299708233402e-02 -6.373219730474033451e-02 -9.213744369502104015e-02
6.551013548441494971e-03 3.093842757395139087e-02 7.157848620305039614e-03 -7.382934861992609954e-03 -1.042370749087496301e-01 -6.195728726444954537e-02 1.003153374945889437e-01 5.887088483957193114e-02 -3.264425456377637730e-02 -1.545148490693773191e-01 2.678162523013460361e-01 -2.532025829678439810e-01 4.028345392219683657e-02 3.442110339855822265e-02 1.222217502607755024e-01 2.824322152453926926e-01 -2.645747346381602805e-01 -2.436126528244310363e-01 -1.449245521616804588e-01 2.305815394417397995e-02 -1.300874718347838806e-02 8.850947481210165446e-02 1.911671234599563937e-02 6.741750327908400953e-02 -2.827275602337355198e-01
4.690361032210531994e-02 1.186375974183544180e-01 -1.932353817568643328e-01 -1.836620744784366877e-01 -2.047587369144566183e-01 -1.422838459669106825e-01 3.565243185249453162e-02 -5.190092635201815074e-02 1.267539967492918029e-01 2.410485569604248757e-01 1.126659300057837737e-01 2.551461795515027609e-01 -1.600725536858474407e-01 -7.229612809356666947e-02 -8.330055192253962848e-02 2.341098773892827944e-01 -1.106490965944404159e-01 -1.115071244136202622e-01 1.621946965449453937e-01 2.797788333723544851e-01 -5.635333116106372962e-03 2.515116992481884473e-01 1.021370532973288614e-01 -1.480319103622605992e-01 7.562051821918426564e-02
-6.964968259509608794e-02 6.053957392127363307e-02 -1.482671054268087096e-01 -2.393577322764634807e-01 -6.727863686939919430e-02 -1.868592703326601989e-02 -5.345254598507204538e-03 1.069921711162008654e-01 9.229948192402082086e-02 -1.451379746103501345e-01 -7.365898903917095231e-02 -1.889517758011431958e-01 2.125434353224434636e-01 9.764059989837156617e-02 -4.459676983544105106e-02 4.508420678978104085e-02 -1.206145410252547068e-01 1.703019733321015916e-01 1.231748110916461719e-01 1.291094998375112712e-01 -2.072700722517940297e-01 -2.854391787255546320e-01 1.260801826113652768e-01 8.076327464522106703e-02 -1.995397835755596261e-01
1.153232162713333300e-02 -2.219326117907860149e-02 4.622837962576497456e-02 1.050439866127764327e-01 -8.048952711960333239e-02 -2.165945046120767437e-01 4.506429365714223478e-02 2.185033322899751773e-01 -9.815083064246281352e-02 4.641600183003803948e-01 -7.292167371189844927e-02 -2.064833400829195129e-02 8.641926836157458325e-02 -2.361953642994994162e-01 -3.155433142052229550e-02 3.497369209090412517e-02 7.612801972790836369e-02 2.855560054946479354e-01 3.022333976356660068e-02 -1.244627308633676627e-01 -1.684256145693324991e-01 -2.189337160806540533e-02 -1.344058900910108101e-01 -4.249270595679183193e-02 1.329162109183961056e-02
8.470080396632023723e-03 -9.476671205292885869e-02 -1.729873758619981244e-02 2.212990183148053416e-02 4.053615788550771551e-03 -8.171915689040006037e-02 1.301081683989918081e-01 -1.061702921370286101e-01 -2.885249092366447554e-01 -2.041249814127367723e-01 1.366411650876044326e-01 4.210406578135388045e-02 -1.560118046276046666e-01 -6.939820440505628518e-02 -7.113018700215342771e-03 6.555786634275122260e-02 1.975921838933869246e-01 1.787704615678311071e-01 8.334582209957600019e-02 -2.267846824873813172e-01 1.164959614630985268e-01 2.338090113432346184e-01 1.313554280230983320e-02 -1.708949242524150369e-01 7.104782003265758261e-02
-5.407054065607962319e-03 4.098178674645663877e-02 -3.016803116467001861e-02 9.768792537642458432e-03 2.853885717436770442e-01 5.552657260560767832e-02 1.232647609205280714e-01 7.387722926758208408e-02 3.186582929599615643e-01 -1.117253878067162032e-01 -5.493827065226575268e-02 -3.367639042475428085e-02 1.911922024745278947e-01 8.446489493322917319e-02 -1.176219189437378576e-01 -2.246578234883505332e-01 8.901565937643551862e-02 1.636070289743387085e-01 2.397886327810080653e-01 2.031693041303041514e-01 4.050515821553883622e-02 -1.990174375073006444e-02 -1.314341955526756624e-02 -1.008993087583888032e-01 -2.301419075507497858e-02
-1.505712109733070049e-02 -6.474227187321304755e-02 -9.943744627722236884e-02 2.223370790515241668e-01 1.642902178972850680e-01 1.990119677042703483e-01 -2.298246809757180376e-01 1.240030096252131286e-01 1.433948650892971910e-01 -1.310747591979708471e-01 -6.954359696733170004e-02 -1.291931697145435320e-01 -1.409519510007509746e-01 1.277725698860651682e-01 1.146380309288921595e-01 4.010736488611656159e-02 -2.218856168710628754e-03 -4.447568458406005870e-02 1.790606659562094249e-01 -1.205492871694638091e-01 1.532229536308871987e-01 -5.777072374138253648e-03 -1.665419645064670495e-01 1.550949495678808632e-01 1.049767154765417349e-01
2.223720403239190513e-02 -3.054375148217366130e-03 7.969729434331149220e-02 8.643335906667538870e-02 -3.558331354060863261e-02 -2.111605455623924085e-02 1.945581570722831888e-02 4.695428807124539528e-02 -5.862105290472022223e-02 -2.677315434399563654e-01 -1.925481647148493958e-01 -8.399350305802552596e-02 4.184093569064502305e-02 1.800804295399157928e-01 4.706107436598157973e-02 1.029248702529960043e-02 2.245204902420634141e-01 3.332970953576976370e-01 -8.316034412904001194e-02 -3.239598725057630801e-01 -1.432858545380287785e-01 -3.033903855875878519e-01 8.329718629466603685e-02 -1.110937783178836541e-01 -1.878319401263714994e-01
2.393227605936798508e-02 4.159387135708256938e-02 -5.907861585485262024e-02 2.206157088484575757e-01 -1.134917235168327460e-01 1.557523422380488742e-01 2.391627032671111985e-01 6.184277708677116299e-03 5.015540087769004840e-02 5.432375848639840049e-02 4.074760773499806477e-01 -1.526319430677373634e-01 2.562250222071068007e-01 -3.681349921784097395e-02 4.781972204892345757e-02 7.862705022972123203e-02 -3.517283125508824382e-01 -5.045360332261189518e-02 1.178787867900989439e-01 -8.589647451653850338e-03 -1.704608389857165951e-01 4.941255975123039906e-02 8.082757475955854032e-02 -9.506191550051093508e-02 2.680759941859772733e-01
8.376177315381998570e-03 2.667486819810503673e-02 -2.665299217483475119e-02 -1.112426388869122151e-01 1.322993507028812910e-01 -9.264782596059329550e-03 -2.301410876018759096e-03 2.432055670235613309e-01 -5.704612827323477658e-02 -8.399048460293330465e-03 -1.133317655568188420e-01 -4.894088067874437231e-02 -2.606316647697118349e-01 -2.126089957647167572e-01 -5.676580203542096192e-02 2.387345353498104006e-01 -6.079638754544961637e-02 2.137155656361775236e-01 -2.274903119852384956e-02 1.076149485653477428e-01 8.715116282113904989e-02 -3.879424842870256990e-02 -6.190508394223235428e-02 -9.573844006173001797e-02 2.299052732547523722e-02
4.907783228612542376e-02 -1.359246839803627833e-03 4.406087338242801327e-02 3.227516181702261983e-02 1.676186707630501760e-02 1.187920213994619334e-01 -7.992002031169902210e-02 9.391094025551414287e-03 1.624772872352474584e-01 -1.318665615857246842e-01 -8.207465971524971482e-02 -1.955604132628123160e-01 -2.810798822879805869e-01 -3.226521518654885123e-01 -5.854680016373831758e-02 -4.364447120207683162e-02 -7.895052957834169938e-02 -2.195663635964488491e-02 1.725048340521512791e-01 3.148685166521558720e-01 7.164044570850870708e-02 1.017901124599632501e-01 2.342922654697691676e-01 1.023464686059951806e-01 -1.382313926320127562e-01
1.075762169419812279e-02 1.745472861214097081e-03 -2.675418691601020443e-02 -1.322064123305446981e-01 -1.285799026003374701e-01 -2.162026857568799879e-02 -1.663009551084461135e-01 6.208479847428442083e-02 4.564088558218216962e-02 -1.264534985442016153e-02 -1.606308922352095991e-01 -1.594642738876231036e-01 9.886278362896494531e-02 1.207846578037646418e-01 -5.743724168776273564e-02 -1.488350565828984728e-01 1.841442120580632927e-03 -1.979833405241287758e-01 -1.665063996215788711e-01 1.853542869400691129e-01 5.107820994324328151e-02 -7.723672790963602430e-02 -1.949687067572238586e-01 1.207292177868383581e-01 5.483213774891070730e-02
-2.723302961443215334e-02 -7.136745805228328354e-02 9.761649115762119355e-02 6.647477116327622781e-02 4.083422639773552631e-02 1.259152959978560582e-01 9.005432140909035155e-02 1.387246265451006974e-02 -1.718016654130059134e-02 -3.028893789672038594e-01 -1.727799271268820325e-01 1.764470351809309390e-01 1.266435556516050942e-01 8.567279272561269254e-03 9.187643967892621111e-02 1.836482431428073936e-01 1.786718418018782839e-01 1.943886321486381075e-01 -2.128122415950779028e-02 -2.977624524815950524e-01 9.496985133685566238e-02 -1.843321889227028110e-01 1.424765453739418493e-02 6.378981154393875697e-02 -8.140973779962330098e-03
6.475667912181413965e-02 3.071691174124425647e-02 -1.182943531760230621e-01 7.151485690366950199e-02 -1.077264453277848068e-02 -1.721515350663008898e-02 -1.475378753579242030e-01 6.482442746318463345e-02 -1.803363114272223122e-01 1.294853911464748653e-01 7.376331451917757243e-02 -1.376246599687212281e-02 -1.643816948954692492e-01 -1.234379945968746561e-01 -3.632006766668378211e-02 -7.062385014200343869e-02 -1.019475667120194884e-01 -1.592033862667580346e-01 1.113536181562299332e-01 8.522126039153272992e-02 -1.180746330932501004e-01 -1.950196716052848001e-01 -6.180222087348378329e-02 1.572059620474598463e-01 4.528588990697834243e-02
3.422450245215036962e-02 2.979345281062607820e-02 2.351285899779601007e-02 -1.014294438133293667e-02 -2.723652271310331857e-03 4.649234055620087708e-02 -1.207501601456541229e-02 1.840447060750305397e-01 -2.092920500113491789e-02 -1.289279595440780690e-01 -2.391487336641639483e-01 -2.879982149560221805e-01 -4.235690680462979307e-02 -1.651818341695075049e-02 -8.513512814762667913e-03 1.465800332351057701e-02 3.331883949501018849e-02 5.468728308213329642e-02 1.973668371878165573e-01 -1.966735629077100977e-01 7.028511461196104183e-03 -1.402320697652925940e-01 -9.358493773171649164e-04 -7.258171756621409343e-02 8.511446028587484058e-02
-8.467438598960368157e-02 -3.411926294244735369e-02 9.623304446220945496e-02 4.841666449032318818e-03 -7.842455211089832678e-02 -2.238470727453916453e-01 -2.138107193980421650e-01 -1.504515956120066906e-03 9.126816940655581301e-02 -2.882993488445422803e-01 1.743785188276840703e-01 2.593326112557374219e-01 -7.475053405864508227e-02 -2.817329691980753961e-02 1.843721911848902884e-02 1.136487100100876113e-01 -1.988753908222929689e-01 -5.857497126569237433e-03 1.661347338670041696e-01 -1.100648262811472489e-01 1.172334005109277183e-01 1.694716031409072843e-01 5.677104810765092047e-02 -1.382934452576182471e-01 1.894310543575399367e-02
3.588822914618487042e-02 -1.261190642969888323e-02 7.297442209860124191e-04 -7.425955402934703020e-02 5.105954291696438579e-02 -4.377033105840164723e-02 5.645072211592891409e-02 6.150900382325304172e-02 2.703317853917363428e-02 1.973068761882821598e-01 1.532739466535179909e-02 -2.297984841597374706e-01 1.956621728625156376e-01 3.893501904545553782e-01 -3.623123033487049560e-02 -1.165680655749314759e-01 -4.819470995219590943e-03 4.308010827039885499e-02 -2.500917979525400514e-01 -4.237022211297037932e-01 1.970394553768971269e-02 -1.005299218710928866e-01 1.167396102463591212e-01 9.196729431742560468e-02 -1.306734087426021373e-01
-9.570163187028186795e-04 -7.775746908765710300e-03 5.971867331896957287e-02 -5.967158999252745837e-03 4.177584241901576012e-02 -9.331185170988862132e-02 -4.765846692156698594e-02 -6.806638508145562705e-02 6.123383456378680978e-02 9.814536032645011787e-02 -9.827607371406411885e-02 1.096465090353960919e-01 2.416844139461509985e-02 -3.138996640716047032e-02 -3.809175390967316222e-02 -1.823860762044866579e-01 -2.812327584181289475e-01 3.245255530869557703e-02 -1.706503992448397122e-01 6.803256574270394319e-02 -1.722117547828305173e-01 -5.395931984991725328e-02 -1.893662515810125013e-01 -1.562235919873975198e-01 4.592764738070569813e-02
-3.266933265192645958e-02 1.329036261732472086e-02 1.765445492844303632e-01 -1.366021057492175853e-02 4.623775544499540702e-02 1.065893158309448724e-01 5.193878566820542969e-02 1.309321042493183096e-01 -1.500330117236321238e-02 -1.997127724187004738e-01 -1.696451259096811714e-01 1.849659445030325117e-02 2.463705697256799443e-01 6.413385951881719893e-02 -1.372073432488455091e-01 -2.202955265920928662e-01 -1.478257295646992209e-01 2.568363115686378081e-02 -1.958280701464136520e-02 -8.588858277169278410e-02 8.331938399525512517e-02 2.236482708860021082e-02 4.806305034523456615e-02 2.272586980341222695e-01 1.865661527469320846e-01
8.956083837944902801e-03 1.035836201908369586e-01 -1.571416841962670619e-01 -1.954806316663043331e-01 -1.669661840206805841e-03 1.023631149177582633e-01 -1.114401538550341964e-01 -1.044072528786545440e-01 -1.781752639218839029e-01 -2.163714553470839561e-02 -1.922591920780429287e-01 -4.864552841412993212e-02 -3.048032565384127257e-01 -1.021722883015768329e-01 2.323612523449484005e-02 -1.050409094173431479e-01 -1.192437939498588173e-01 1.054567208659305116e-01 -7.959603349551500062e-02 -7.659487135429601801e-02 -9.571891348495054075e-02 -7.807846198248885594e-02 3.641177826749796703e-02 6.378146981068964771e-02 -1.643298364168824244e-01
1.106133621224260691e-02 1.571964693223081022e-02 6.015306777223655699e-02 -8.247821036746937062e-02 -1.678106938993297395e-02 -1.174475916663483832e-01 -1.588701155999115988e-01 -1.299859249598423749e-01 -3.983250250040710205e-01 -7.261661579903285757e-01 -2.216523643767456531e-01 -3.107234799638047829e-01 -2.493605673105462051e-01 -2.051336693331519412e-01 -5.566432248170480324e-02 -1.654925231790725371e-01 -4.264115508412635869e-02 1.586718106757129820e-01 4.781943708262585691e-02 5.806172433944888078e-02 2.230927423409077772e-04 2.071327061074494935e-01 -5.765203251654107963e-02 -1.231470729059167962e-01 -7.867336127151931813e-02
-4.451570898168343698e-02 -3.827512487560486704e-02 1.458504798179705020e-01 5.854389795983342554e-02 1.290877223316081769e-02 1.203812238719507294e-01 8.015086672967117187e-02 6.399030474768567511e-02 -5.032643554165684013e-02 7.931313564222058909e-02 1.126270509475304771e-01 -2.998214857714511794e-01 -6.105277624197880115e-01 2.400975380055970221e-01 3.072697103119785278e-01 -9.626598920500653578e-02 1.363318058403928945e-01 -1.247108482762665782e-01 9.380685869919046238e-02 -6.474597974007506584e-02 7.334352830854670962e-05 -4.026014970786397085e-02 -7.368688072453295768e-02 1.864182915691001696e-01 -1.432902736241526975e-01
6.500023589377224714e-03 -9.345620414479834104e-02 4.991949012351777626e-02 1.158212766133446953e-01 -1.273930880704367448e-02 -4.554637642231712524e-02 1.302684208825903578e-01 -2.967221484703760556e-02 -1.156237252142547356e-01 -7.638354474236436209e-02 -1.025463151144156287e-01 -9.187783102495598875e-02 -1.182256678758544371e-01 1.513475194371910471e-01 -1.225132930915415475e-01 -3.920230821527337373e-02 -9.136768753637208862e-02 -1.338368875502209121e-01 1.523762981949129958e-01 1.750954531326436303e-01 7.954322971241618856e-02 -5.438785339179155742e-02 7.862945849009032873e-02 1.811897955539891469e-01 5.327651559106004464e-02
2.211220595300092406e-02 2.095036850577830859e-02 -1.650947809353931761e-01 2.282926557822440583e-01 -1.799666444586278391e-01 4.837172813646945652e-02 1.747167118602369895e-01 1.879015638633222129e-01 -1.348539333764681158e-01 -2.260015411023855447e-01 -1.203580791399075783e-01 1.556525310457367306e-01 -1.765620204499677992e-01 1.548884420893593405e-01 -1.018738311185103662e-01 5.078807351390369346e-02 -1.075244325094226001e-04 -9.255297554004224270e-02 8.277199209348636011e-02 -1.889389566126229436e-01 6.013018134646546525e-02 -3.317277530189211010e-02 6.639047698037041367e-02 -1.701044048091444050e-01 9.311956630449290395e-02
-2.937299888904078629e-02 -3.974577866335794740e-02 6.367813403557770480e-02 3.042048754965909207e-01 -1.465980441578513052e-02 2.333498326656528454e-01 -9.182155809235675870e-03 1.799714745480725797e-01 -1.416256788817406020e-01 6.695517242111770351e-02 -5.966686679380318881e-02 -2.553090347427087181e-01 -2.378765761214167440e-01 5.620415525135413065e-02 -5.974508701401266830e-02 6.043951625626830387e-03 7.952619233439342517e-02 2.148860731319461037e-01 -1.299944781808646532e-01 -6.552813041861914323e-02 5.966539657076586067e-02 7.510248177351670773e-02 4.717123637133781994e-02 7.267841277875919381e-02 -2.316272316754952043e-01
-1.269193644461693096e-02 -1.199889665604900527e-02 8.293471752738527936e-03 -7.992474517265692191e-02 1.382797047117393652e-01 -3.121801731463754240e-02 6.470778468976003117e-02 -7.309633045016074304e-02 2.504655165704014474e-01 3.088984561738332690e-01 1.154204191966473197e-01 1.967949868700619442e-01 -2.019288209072753748e-01 -3.890340950169198647e-02 3.512167578651458899e-01 -3.735879817831756489e-01 -1.435960455030479976e-01 1.125083853041478066e-01 8.960325553779413532e-02 -3.261356833994589755e-01 -1.089939635409094137e-01 -2.251158000467290143e-01 1.888396924830022805e-01 -1.829390292140569696e-01 5.218088245572328338e-02
-5.907624413566547189e-02 -3.918395965031764433e-02 -8.960259576029154516e-02 2.418687163363511805e-01 -7.718709074350096899e-02 1.091181971080217306e-01 -1.574903887862460494e-01 2.858673217217967341e-02 -1.464817953562982111e-01 3.164003514479160617e-01 1.061296178658952816e-01 -1.252310529931324468e-01 3.889687384819246613e-02 -2.728493846011316171e-01 3.448990491404230196e-01 -9.992960225162654531e-02 -1.452589815677973739e-01 -1.446127819532866399e-01 1.777271421007337038e-02 2.005489577789668909e-01 3.224884731853072672e-02 1.628176304602417246e-01 -1.802485352263267365e-02 -1.811779810396783041e-01 -3.368722531303230266e-02
1.344116755594917598e-02 7.610204544793303105e-02 6.906726952284434652e-03 2.822649039242821484e-02 -9.767279239759214804e-02 4.122812008210001260e-03 -7.393459917472430809e-02 -2.573980524945304604e-01 4.309553688169984881e-02 9.879899448844363385e-02 9.226082654129111327e-02 4.098834468545597270e-02 9.199688679337914010e-02 1.668005688938317341e-02 4.029362172499662692e-02 -1.468077903371796111e-01 1.410217547413800121e-01 2.655094262181559653e-02 -1.090042480417610510e-01 -8.055339501416414194e-02 -7.970904307057292970e-02 -4.965036293344898821e-02 -1.712744117491794837e-01 -2.266246260193872375e-01 1.288468465430799847e-01
1.248159822201478676e-02 1.158806579808787339e-02 -9.348677243168442008e-02 -1.118791473241554091e-01 -1.015012897169546013e-01 -1.805755157652852161e-01 -1.027301241130219034e-01 -2.067258527635724430e-01 -4.977923153850034865e-02 1.660980528554786492e-02 -2.687907133476810095e-01 -2.914233469394180223e-03 -1.365352291456500833e-01 -8.881731562471117947e-02 7.818194811793743870e-02 1.585328362176565697e-01 2.223993966487183005e-01 -2.403749875292814520e-03 6.108172418322310726e-02 -1.059454123852941881e-01 -4.280218049194746410e-02 1.255836753867419497e-01 -2.157516711401973319e-01 8.503232341276598105e-02 -1.440961608904810232e-01
-1.540779736016633338e-02 -8.459620929089289865e-02 9.328386739113091186e-02 -4.792025618184702490e-02 -7.914269736836622438e-02 -1.235237994381435112e-01 -2.149350761541799770e-01 -8.600675990354929301e-02 1.880142173417549342e-02 -2.026317608530867898e-01 6.865396210524915381e-03 2.184383279999812522e-01 -2.231407313271968340e-01 -1.239168601687002103e-01 -2.152354980370682347e-01 -9.401205931025082008e-02 1.493199219095662222e-01 5.195170244317869057e-02 1.275136578538531018e-01 -4.012475820652215697e-02 -1.039442483561797137e-01 1.351571665461726857e-01 -3.079818238872686700e-02 6.361260848733103768e-02 8.384341519360602457e-02
3.514329940912175321e-02 6.476049205894097993e-02 -9.350552427247417475e-02 4.250455931000893250e-02 3.928314674250543703e-02 3.251073661608173352e-03 -4.137571794149873250e-02 3.335398849956795059e-02 -1.097574331028368239e-01 -1.390278035553465241e-01 3.287756579822025960e-01 -1.938959694322996835e-02 1.396819162631664779e-01 -8.159669676190725585e-02 1.738692327931946335e-01 -1.827241542831459509e-01 1.070074483012877636e-01 -2.806695546747885461e-01 -7.723156544017489855e-02 1.816238239110358754e-01 -1.397209013145549704e-02 -2.132865004681250287e-02 -1.121159501415612131e-01 -4.464293134515212591e-02 -1.535702601518615928e-01
-3.021409760165162314e-02 -1.168966140203860906e-03 -2.537777055671956022e-02 7.983497966899386067e-02 -6.924268425222307455e-02 -3.287221343549549812e-02 1.307290205973183350e-01 -1.323431204794389415e-01 -1.482131324648172654e-01 -6.761061691208831992e-02 -5.189697052851297704e-02 -9.880346291844391282e-02 -1.914592187872740658e-01 3.013684476680225655e-01 -6.990451666794929297e-02 1.435548335262293862e-01 1.861260069733627343e-01 -1.301255210314846388e-02 1.872206307016373861e-01 -2.685769677165328884e-01 -5.413302794202366069e-02 1.361275829111610325e-01 1.901114310327090551e-01 -1.565697464203350542e-01 8.675896828646872949e-02
-4.609202037348362341e-02 -1.141196900069869034e-02 -1.532950611543350550e-01 -8.501817175520440251e-02 -1.070834553013110674e-01 -3.416870017337390181e-02 -1.516622080889185320e-01 -1.207696727837012096e-01 -1.751647230415264989e-01 -1.820025329152999416e-01 -4.343082454090486412e-03 1.816569583001962918e-01 2.397660929125745577e-01 -6.397099226619486212e-02 1.062015576626248042e-01 1.581692140181337747e-01 -2.139972259259798337e-01 -1.816348196954929439e-01 4.867129495390639521e-02 -1.220353162000303512e-02 1.012100775248286899e-01 1.730293093808675520e-01 5.748136439157602862e-02 -1.583527048894325107e-01 9.742486006619621719e-02
-8.159988866034318007e-04 -4.057256770605262991e-02 -7.070038545677499731e-02 1.330338183544120534e-01 -2.114510175024429395e-01 -6.856790889688123281e-02 -5.194860801861989931e-03 -1.530416252329905025e-01 -1.651575481091091535e-01 1.117287036502091421e-02 1.096696301261221168e-01 5.799647289173915504e-02 2.922568681860926443e-01 -2.631909382107192052e-01 -2.203347410365600612e-01 -4.601557082306189511e-02 2.868619423808494578e-02 3.321445169930897778e-02 3.256694389652200344e-02 3.015807445259632846e-01 -9.664652617938003509e-02 5.507379205388180515e-02 -1.414005086927952737e-01 1.177183681972949481e-01 1.652963758820408802e-01
-9.221824358627410748e-03 1.491161331360446596e-02 -1.573490356169025828e-01 9.191806412707706486e-02 -1.114803812061580940e-01 -2.725476816353859192e-03 9.352566065735272438e-02 1.657901484096991132e-02 2.233988242613744318e-02 -3.941318508339688997e-01 2.803353007899133664e-01 -2.692128098133325653e-01 9.479869057754438527e-03 4.191203780682006136e-03 -6.684522975134668532e-02 2.284436913097861177e-01 -7.929271261727315057e-02 3.631495605860619036e-01 1.269117849601415493e-01 -2.562861028483199854e-01 -7.129009088437866792e-02 1.098773544824831333e-01 -1.057464638054750605e-01 -9.160949853207811522e-02 -1.023053936594068153e-01
-5.385227468185933841e-02 -8.930860530229212113e-02 -4.541993422675454778e-02 2.640293391325327366e-01 -7.541363325969156761e-02 7.541425881533339419e-03 -3.261495958397876010e-02 -3.742340885482763752e-02 1.759635522855621803e-01 -1.681561696141324336e-01 -1.609265489706029340e-01 9.304646016099019090e-02 -1.049940804498468265e-02 -6.306472322742573411e-02 1.258908933972961164e-01 -1.879673570337344612e-01 4.510609514886897847e-02 -1.153604812638453492e-01 -9.420975242350673740e-02 1.943264000890956855e-01 6.062460388458833921e-02 -8.681137507402512943e-02 -6.914932208725611817e-02 -1.499862769708696919e-01 5.292866722572005939e-02
5.594507954016871704e-02 6.855153690072372796e-02 -1.736496509062055160e-01 4.778278566282158357e-02 -5.940526948430639720e-02 -1.740432785455724995e-01 3.833593360891658919e-01 1.206446635081886570e-01 -6.736046231808058560e-02 1.880149241643146729e-01 6.147407300477126385e-02 9.684709791878248764e-02 2.103734720236213607e-01 -1.208951810959968814e-01 1.168175649510083264e-01 -1.732341259761368268e-01 1.154604038548375650e-01 -2.718008701776901681e-01 2.687001750911287568e-01 3.738604685495947044e-02 -1.898868614649801556e-01 1.749947811612891785e-02 -1.236381020997719682e-01 6.380938090029106280e-02 7.095720049742934403e-03
-2.940249444525311340e-02 -5.303688885813506032e-02 1.637101195702482248e-01 -9.253985153708582656e-02 -4.490128122818770606e-02 -1.884730070061310658e-02 6.129719753158310164e-02 -1.577776112341797710e-01 -9.693219291046363539e-02 -4.395030331520503875e-02 -1.195224931908758260e-02 1.971023017542432032e-01 -2.035619538753342395e-01 3.202265799369600208e-01 3.272813518688546530e-01 -2.454574382699618029e-01 2.748348260108808283e-01 1.315718197414401103e-01 1.940238439524628877e-02 -3.955285232403431273e-02 -6.260628964580336464e-02 -2.070326440899483700e-01 -2.278855937228081163e-01 -1.489025268572942151e-01 -3.827235239242559456e-02
-7.652766839911989694e-02 -2.242070072177550569e-02 -8.838155577501929927e-02 -1.172731062216276626e-01 3.341408946461199569e-02 7.795698197875535612e-03 1.427664715452364452e-01 -5.257018837596612315e-02 1.920363578589075471e-01 2.799138065795705316e-02 -4.110185024298770862e-02 2.321475576544702879e-02 2.935006177663858629e-01 1.177657505536478660e-01 -2.157751815641002768e-01 5.289994074604949248e-02 1.330112957123336936e-01 -1.719778358807626251e-01 4.310833837391901679e-02 -2.014522917854729700e-01 1.969293152052344342e-01 -5.589045324409821353e-02 -5.619789581944686224e-02 -2.671831810910249572e-01 -1.713713549298538641e-02
2.815940692012784685e-02 -9.669932810738975093e-03 -1.809508649288769228e-02 -2.065039969686429527e-02 4.096268369989598812e-02 -2.848573002964928380e-02 1.370354454584897519e-01 6.990636586592388624e-02 1.062627897611868599e-01 -7.945148105752597445e-02 -2.602651647499590326e-02 -3.917097102240114231e-02 2.826352331719367839e-01 1.913168372885350188e-01 -5.714286684442776432e-02 9.641911926440288605e-02 8.925593543631735183e-02 -3.883415773724392395e-01 -9.332990400113630458e-02 7.519826787079746111e-02 -1.192856267195696318e-01 -5.067849630819380030e-02 -1.705672919638124424e-02 5.379563207838759797e-02 -9.282151954879795663e-02
4.161568965757276055e-04 7.110940541120377295e-03 -3.765211676500151115e-03 -1.517254338077024811e-01 1.561096971604025441e-01 9.321518128053918328e-02 1.386256373687341781e-01 1.587025487227900489e-01 -1.956845664781869595e-02 -2.178640124878705731e-01 -1.801240290286645340e-01 1.252975401669795263e-01 -2.711299537894863998e-01 1.198911682616782826e-01 5.113015642378784115e-02 2.010138908018150317e-01 9.421610524632929862e-02 -6.942628578255752303e-02 -1.818754400259482151e-01 1.025778100606386384e-01 -4.376161068346271638e-02 -1.232830249671302003e-01 -3.351399766064149660e-02 -1.902411922643903464e-01 -1.249036727705452737e-01
1.053888649232279616e-02 2.137002518111640048e-02 -1.408404663476565122e-01 1.071283535043138918e-01 -7.252797225115024948e-02 -3.022441749060508775e-02 -1.218210960150696437e-01 1.640781393585804826e-01 9.880094672553241253e-02 1.671031754899436061e-01 -5.134798918980406496e-02 -5.924990157231475874e-02 9.398354706482923981e-02 7.070759966760266357e-02 2.137514391191920049e-01 -2.909804412420786690e-01 7.846564708606991456e-02 -4.006040369094822362e-02 7.713134703045484986e-02 -1.434906741593037771e-01 9.193739000096224495e-03 -5.132344726190499196e-02 -9.184214823469837030e-02 7.681779858141392359e-02 -1.371811433501285427e-01
8.788747787636927433e-03 2.037405035496887840e-02 -3.002047280624185743e-02 -6.642866020216691043e-04 3.630710188403999533e-02 -7.183542502059150903e-02 1.420947543843641310e-02 2.359676154744397569e-01 4.765532222344506796e-02 1.101577330653938924e-01 -1.013555778744401059e-01 -1.488710994972113066e-01 -3.045603751179914997e-01 9.485741778852761763e-02 -2.595694016414139549e-01 -1.207973164644306485e-01 -2.895152647088705764e-03 -7.238198456345609766e-02 2.160271413273339436e-01 -1.508445133293471463e-01 5.293001260396064389e-02 1.243470097013329827e-02 6.754317489562394750e-02 -6.662374909814623367e-03 -8.546601320510847921e-03
-8.247977815571858051e-02 -9.915233649700902485e-02 6.159151835554317611e-02 3.788762197010289712e-02 -5.993553395783219988e-03 4.018601447578547259e-02 -1.470559017177888728e-01 6.795568207368227198e-02 -1.087506440334504720e-01 -5.098624350252956364e-03 -9.555154050704126045e-02 -1.725406197355571492e-01 1.111317464352995776e-01 1.509254316604359825e-01 1.079312951266608311e-01 8.387789376256167551e-02 -8.312419650729425957e-02 -4.282213043994353291e-02 9.709595672315052273e-02 -6.726328781653723686e-03 -5.177519297525214753e-02 2.285769418790611907e-01 1.545978108138119644e-01 1.395149382519766945e-01 1.327200044720736605e-01
3.709485967084567154e-02 3.455173923662990115e-02 -2.906719082081235875e-02 -4.528355761090504389e-02 -5.514590824230673066e-02 -1.946152155347182292e-02 -1.907401751142222546e-01 -9.293488562977331169e-02 2.006632730459742553e-01 -6.035404199535616965e-02 -7.800485429446693542e-02 -2.860458076126204952e-01 -4.527254397831562832e-02 2.121968588403512490e-01 1.168530532659914911e-01 -1.701961056096872316e-01 4.548338254809735637e-01 3.011634679804604531e-01 1.756210291188459449e-01 2.319962187012023988e-02 1.750489422516448845e-01 -2.237501690088125259e-02 -1.502240550397064278e-01 -2.800260227190241591e-01 -3.724549757055344024e-02
-5.228314636080829553e-02 -8.215109856429259061e-02 1.159104192026352842e-01 -5.116640837125042279e-02 6.480309238482434564e-02 -5.354236015229761614e-02 -1.218116255807895482e-01 1.358980314698648717e-01 1.346847304193727057e-01 -4.414788517440777077e-02 -1.440127259541169324e-01 1.735810808166287911e-01 7.969113396747964928e-02 -2.703099878279101032e-01 1.172488685358090005e-01 -3.284337836439307767e-02 2.555820372357990866e-01 -6.599053348999499996e-03 -2.753890032564686521e-02 5.100826836684979604e-02 1.018857960090524678e-01 -3.633857111813587615e-02 2.839828626781161214e-01 8.189280127020714950e-02 1.502226126566588160e-01
2.928903504335113664e-02 -1.819807996237571279e-02 1.740453650905310345e-02 -3.914814744075405945e-02 1.912590330833697227e-01 1.118347004655840943e-01 1.710722124819843704e-01 4.184817494818685729e-02 7.920241875957109712e-02 -1.387491940378100114e-02 -2.052340325168281188e-01 -3.157199870252066498e-01 2.372794770375177553e-01 -1.054805997714430427e-01 -8.144822245670038652e-02 6.803487238598771025e-02 -2.221795191951035919e-01 -5.097442571350739859e-01 -8.601504233530017640e-02 -1.503087137158846398e-01 3.435594589537490501e-02 1.391792882805503381e-02 1.975135788924906322e-01 -7.238304804687591132e-02 -2.107646490042076326e-01
-5.135766036076376551e-02 -1.713638818519854987e-02 -1.273208929553270585e-01 1.333168628070175929e-02 -9.365318769594982440e-02 5.322639532623368863e-02 1.498359025452042914e-01 -4.723232864360709521e-02 -1.065603707443180115e-01 3.359349833532823681e-01 -1.303350006466000022e-01 -3.143088819512487309e-01 -1.724497862552603622e-01 -2.383828998345994057e-02 -1.081636685758469302e-01 -1.799098715978597884e-01 5.413132283045874599e-02 -1.372234977481682494e-01 -7.808022911781588998e-03 -8.417843901455648870e-02 -5.002762767233254887e-02 1.016610566504143331e-01 3.987661854091865965e-02 -4.597005410836871309e-02 7.570709067417938365e-02
-5.257602631331690160e-04 2.034841274831815372e-02 -1.065321782673955830e-02 9.746830600494571506e-02 -1.479696935022289809e-03 -1.279402058946782772e-01 -4.943413155764592865e-02 -8.436532515932883280e-02 -6.381191976484301698e-02 6.373271245158861342e-01 2.244335456763236689e-03 5.077194185539876670e-02 1.089535718764987754e-01 6.440420056677970129e-02 1.592910958984128933e-01 -1.912690240336856751e-01 1.514920956133298247e-01 2.510351307494773643e-01 -1.488864863936846354e-02 1.495812467755714970e-01 9.051250543654876593e-03 2.579585264091043689e-02 -6.891175672968996579e-02 -1.360063664372218872e-01 2.958363829317711691e-02
-2.313325786214551899e-02 -1.869655524002152361e-02 -1.074705378940333800e-01 5.111612930209175759e-02 3.147082741460405925e-02 9.646868398945995793e-02 1.226828461803317616e-01 -1.374590778909332359e-02 2.743217838630699901e-01 -1.005684296942079559e-01 6.017746067796501258e-02 4.635924151492056833e-01 -3.174610915855204385e-01 -7.803458987013196790e-02 -1.176840001630343746e-01 -3.744064526124025322e-02 -8.758748327990743821e-02 -9.884128423800361829e-02 -9.069173774405730332e-03 -6.613850717815789038e-02 -1.599896999682418330e-01 1.221558897692723716e-01 -1.536768530911183372e-01 -3.636148220540839221e-02 -3.488935999058347115e-02
-1.143681089710154274e-02 2.852640219556663512e-02 -1.295696763058025169e-01 -7.081822156097440646e-02 -5.162443796258368162e-02 1.890378858705955498e-02 -1.504560944724263327e-01 -5.917411485866391763e-02 -1.042374010543049324e-02 6.706904435098581807e-02 6.786630554328355880e-03 -1.016819442620406008e-03 4.355630479992230186e-01 2.798521118226976467e-01 -9.815109962229200125e-02 -2.284248836961986495e-01 3.508748968671685647e-02 -2.239135214071616697e-01 1.422205376525739473e-01 4.660664465959653974e-02 -5.035116052085712723e-02 1.950436527431046729e-01 -9.433201180209037362e-02 -3.209859466053499033e-01 -2.689320639000972873e-02
1.256480874845915946e-02 2.302280405126041693e-02 -1.969525146276093763e-01 -6.715896502766588450e-02 1.343424760287173780e-01 -8.914504830152223183e-03 -3.311661978326001926e-02 -2.893611365513112377e-01 3.154243359591006324e-01 -3.791486982784810639e-02 -4.318654636109192646e-02 -2.019609121467925983e-01 -2.594340799711648132e-02 1.088268452128610675e-01 9.316276666715668855e-04 -6.350408605738544487e-02 -1.686022041316257714e-01 -1.435770208973598527e-01 1.426021096073698709e-02 -5.634584248633132952e-02 2.297609848212445738e-01 -2.379203187676252051e-01 1.583446806566551623e-01 6.600343007570511067e-02 2.346362804847974826e-01
3.390602594668184339e-02 -1.825427599550135532e-02 1.675808360243832285e-01 -3.585916719835158251e-02 2.070021920573381913e-01 6.656212513692078003e-02 1.437461076752175604e-01 1.716432012441845151e-02 6.936527963543633046e-02 -1.906763761239481381e-01 2.917314757859813534e-01 -1.423336951738168703e-02 3.888871422187499816e-01 -8.382197539135953848e-03 -8.433163384491762504e-02 -7.407521766189458260e-04 2.563557840722517356e-01 3.604007908360098433e-01 1.920437466175965724e-01 -6.457445108851980753e-02 1.264711385983154357e-01 -4.194780479432510395e-02 1.443150185491998416e-01 -1.261833807958933351e-01 3.853870731456361318e-03
9.887702252380599355e-02 6.498260371186899420e-02 1.984964362193989973e-01 -2.645549957066524460e-02 1.662799509649338370e-01 -9.115994842080493710e-02 -5.036967742883908389e-02 1.936805754593832474e-01 2.182730567831529245e-01 1.338252610307024415e-01 3.091427600616461491e-01 5.906152413455448280e-02 1.170079757502854451e-01 -3.662599957442690124e-02 -5.855089100737614904e-02 -3.102202635466581176e-02 -2.095869352353524895e-01 -1.708151718526615126e-01 2.666655048062815392e-01 -8.311318821477665930e-02 5.929912746516982636e-02 1.182729317907768862e-01 -1.751941373537240498e-01 6.625977994866291687e-02 -1.901152403993513484e-01
6.662003194972367093e-02 3.316715963270764483e-02 -8.125192676008742565e-02 -1.358336349214480931e-01 -6.852189071575028045e-02 -9.482589262169836830e-02 9.603125648901918165e-02 -4.553592707088339325e-02 -1.044001528657747743e-02 -1.982152808732728921e-02 2.359925795363995160e-01 2.344058102758247442e-01 1.389067617392511222e-01 -8.057495645607398727e-02 2.324122725088300090e-01 -3.725642177520298304e-02 4.256995551002487610e-02 -3.577991317592339564e-03 1.762401458240664132e-01 6.712836436948824148e-02 4.053736520582021385e-02 -1.065395593520688522e-01 -8.276302320648679101e-02 1.473843842645253532e-01 3.962541492319441444e-02
5.982056957646518860e-03 1.725976085431280699e-03 4.918410821946963413e-02 -1.088915038305778189e-02 -1.809899207703347113e-02 5.042326390445388273e-02 -6.195003854626798118e-02 5.764693848111987484e-02 -1.293191485115664785e-01 2.729621695744618437e-01 7.363300423726707074e-03 2.498387678874798012e-01 5.707264769601812920e-02 1.942015941106794430e-01 -1.569119802221074222e-01 9.709597623931739974e-02 1.153729751603382592e-01 1.618466401276789091e-01 -2.750943646858339808e-01 1.072737895032523647e-01 9.731595220595058715e-02 7.688535853027260447e-02 1.180977895776356840e-01 1.312382925307610526e-01 -2.091460393801149453e-01
-2.855156083708159081e-03 -5.828447379652198362e-02 2.564822894267427267e-01 -1.725375768746778282e-01 2.908429124658282738e-01 1.985922406776870763e-01 8.011811304397659095e-02 1.932762121892954155e-01 1.746630810785867460e-01 2.061032784635961346e-01 2.548573833601020522e-01 -2.031576213507821013e-03 8.359449858151768442e-02 -1.222310488281332617e-02 -1.958100721431320010e-02 -1.308825125560883762e-01 3.393145639677911524e-02 2.599788004340989334e-01 9.110484977717012156e-02 4.090588122221007483e-02 -1.954658598131878700e-01 1.268810372795647623e-01 -1.175088723570765492e-01 6.825412366445983425e-02 1.516797725612977488e-01
-3.662427677430397238e-02 8.086192122100295011e-04 9.586294457325589269e-02 -1.262429635185774272e-02 1.514790230934555948e-01 -8.560491656417210105e-02 -1.314019936390701249e-01 -8.252321247478615340e-02 -4.269505409641916743e-02 -1.628873274324298959e-01 7.773091243007027029e-02 -2.449080937165257210e-02 1.825043730949330589e-01 -5.260330976540934789e-02 -1.509197485480297425e-02 6.932083241750708336e-02 1.013388432777129478e-01 3.458225537831609298e-02 -8.294666927033154946e-02 7.239319869560979781e-02 1.568418401305359255e-01 1.315255578842033091e-01 6.964363390735232688e-03 -1.535262455202228982e-01 -2.386070818443183916e-02
