-9.278058919301358787e-02
4.377011572781733945e-02
-1.476440762586433454e-02
5.214006431509402018e-02
7.989714277304961476e-02
1.469704074076761402e-01
8.225181411284118727e-02
-7.529190314745644319e-02
-1.245939486630622817e-01
8.745603473173327314e-02
-7.863531629590492233e-02
-7.831770536856925979e-02
5.793765208577848075e-02
-1.138308823853766139e-01
2.644684071351872598e-02
1.189066940591180649e-01
-8.561042119519443605e-02
3.709945419213558047e-03
1.407803908097730317e-01
-2.342620039130972193e-02
-9.887301859493132297e-03
-1.365864736143754254e-02
-4.502557936663644650e-02
-8.200958070464690886e-02
-2.434139811483521793e-02
-1.082196925360746770e-01
7.501010964098220324e-02
5.264109854068034500e-02
-5.640559277525271364e-02
3.453206914077742301e-02
-3.672623164234283671e-02
8.366757074182476495e-02
-6.898179928439571694e-03
2.624446524843028136e-02
6.702687653906928833e-02
-1.825448123169809145e-01
-1.360607554099421863e-02
-1.045436297602165554e-01
6.027315292971662658e-02
5.566959239041101987e-02
8.107709727312334413e-02
-1.332773998163844786e-01
-5.372252963875570608e-02
7.399091330684889195e-03
9.850112778071123953e-02
-8.870409648930288604e-02
6.051097483274332778e-02
-1.890537901700740236e-02
-5.307506982175057286e-02
1.096936241091505532e-01
8.017696760139349232e-02
-2.700714133124658412e-02
-7.229618684835714681e-02
-7.360509827215722112e-02
1.269469906259602585e-02
-8.162181023414157022e-02
1.232328636137546701e-02
9.149149219106264899e-03
-1.358929111696303635e-02
-2.725131806283008842e-02
7.665959112135436321e-03
1.628986638290163824e-01
2.235267761612960702e-01
-1.454322761202274557e-02
