9.934488110808077643e-02 -5.724606650705948291e-02 -1.150482885021415630e-01 5.679517829813926499e-02 -9.796685149345948918e-02 -6.896360955213969024e-02 -4.332659585492684012e-02 -5.086056185265403623e-02 -5.523197161562243968e-02 4.730287312498141633e-02 -1.031478958710859567e-01 -4.304512527532421140e-02 -7.166565275122531442e-02 -8.288016221001461015e-02 -8.280016408939135097e-02 3.857377670990824042e-02 1.845403612579970820e-01 1.706528414713880670e-01 1.008414503866273022e-02 3.639850533934311377e-02 1.119644107576396458e-01 1.306052443381427140e-02 2.377105700989156495e-02 1.056418238319684205e-01 4.196851232340224891e-02 -2.130651597916001852e-02 -1.724630745065318035e-02 1.116085815978471452e-01 -6.886771251058400323e-02 -1.480176550963797077e-01 1.011667423564101970e-01 -4.898086108507018754e-02 2.051548994477889187e-02 3.160004882302908102e-02 3.922021314125752334e-02 -8.166879543114979878e-02 1.102001309301390702e-01 -6.205473788138236857e-02 4.563663206046447013e-02 1.451102690510948454e-03 1.447609324783651237e-02 1.411968520365081692e-01 -3.241893238061498064e-03 1.469648599807652778e-01 -1.573308602595310524e-01 -1.303170568437017340e-01 -5.977991413719657698e-02 1.812879960379109867e-01 1.908540619195573385e-01 1.687299779770793096e-01 1.563708448944678697e-01 6.127525500841678185e-02 1.489672109462370497e-01 -1.146939396486926638e-01 -3.642749978285074464e-02 -1.721120671699307575e-02 7.248104865318753809e-02 -4.680962166313520911e-02 -1.514999085588792649e-01 -7.067208122837857764e-02 -1.333973150604552682e-01 1.835775149593585898e-01 1.058136920931885688e-01 3.584752325537169781e-03
5.045170004752260601e-02 8.844909319567793859e-02 3.954104035163118203e-02 1.449859612563509509e-02 5.104467258470365282e-02 -2.671305075089585451e-02 -5.143831798281400802e-02 -2.879638324797391125e-01 -5.148265711976179188e-02 1.632794145207507042e-02 -7.250649759055811938e-02 -7.622681855366761350e-02 -1.600618498058609951e-01 -7.992874134080080184e-02 4.153075985614752136e-02 -7.487619369710260542e-02 1.606278734289377230e-01 4.504947484723710593e-02 1.700087543750042340e-01 7.919187836830327010e-02 -5.198181833320290011e-03 -6.074973183608327332e-02 -1.550846265633572807e-01 5.767532427151226410e-02 1.525909204997677807e-02 -3.387415019932063509e-01 -1.903192725974170996e-01 1.314140513516343922e-01 7.924475085683374553e-02 -1.104235732170653350e-01 3.009470350603792380e-02 1.867362792349486558e-02 2.104517054090093015e-02 -9.288755030119642125e-03 1.810753864792319645e-01 -5.061697604167251369e-02 4.025929003376634008e-02 1.763528024129265917e-02 1.188418858701989905e-01 -2.056408680655986976e-01 -1.507540707120764711e-01 -2.385507816820778004e-01 4.322112754319455685e-02 1.472546116284287332e-01 9.762931690230837456e-02 1.459614935911698365e-02 2.429314612930830175e-01 -8.636430122481332516e-02 -4.470232736803578244e-02 7.301225176286096907e-02 2.056943463807705055e-02 -3.923280650768632034e-03 -7.601418438103421660e-02 3.142625537353217063e-02 1.407775293318294652e-01 5.997181207311144679e-02 8.672874903541857861e-02 3.895591416290061088e-02 1.470837340780624114e-01 5.179054068041059194e-02 1.248927482149150142e-01 1.011462365455779444e-01 6.246347121628053473e-02 -1.263507232550803439e-02
-1.373052769740336632e-01 7.738619511061407830e-02 1.292612294427800471e-02 7.195860133778281265e-02 -4.404458878711475789e-02 -1.391464955082633570e-01 1.085138661257585048e-02 -2.405147112625876382e-01 4.450423340117716509e-02 7.430234200994255064e-04 -1.655308705154042229e-02 -5.590241062172521605e-03 -4.632889184020170387e-02 2.119177851916042576e-01 1.456105886901873196e-02 3.087196825721064478e-02 -1.275422115153106717e-01 2.892278940128803662e-03 3.035276307873633339e-01 1.040921259894648232e-01 -3.258237986615607901e-02 2.250711949335139350e-01 1.038406006478769100e-01 3.802423247785980953e-01 -4.329370815302991532e-02 -9.687737876929398972e-02 -3.418563455835960108e-02 6.631555594744988069e-02 9.176700101829358969e-02 8.054978033697714201e-02 1.053857043799653059e-01 -1.070476256195897376e-02 6.734146916854755194e-02 1.257602038130684226e-02 -6.835501899645209101e-02 8.785315595210385631e-02 -3.799787353760233216e-02 -1.181473267715941675e-02 -5.066687540804128316e-03 9.256863942275071755e-02 1.795850591946009656e-01 -1.874180718987034089e-01 4.940888960597777241e-02 -1.478612408620235963e-01 -1.480953132924401061e-01 1.160349438858698269e-02 6.449087189924875008e-02 4.610437105228260002e-02 4.307457591044026868e-02 -1.358331145402209145e-02 8.584774304361005026e-02 1.466023403349606957e-01 9.386757201932474648e-02 -9.430379039685680975e-02 -4.127480767887002633e-02 -7.219938521845339907e-02 2.581217353039751486e-02 -4.558377494684509590e-02 7.786836394836457731e-02 -6.418281474380568320e-03 -1.018837353997524980e-01 6.405474984291351093e-02 -1.805873911209904606e-02 -6.195840252960119199e-02
8.596386174075618114e-02 7.388541848969162884e-02 -6.893087943891065827e-02 -9.464744583450902804e-02 1.977149858353072498e-01 -1.689513173440224392e-01 7.707973665077166858e-02 1.386662531659014486e-01 1.043917923473516168e-01 -9.536840329850844455e-02 -6.613842447310153139e-02 1.062167846889046918e-01 -5.104193405073232520e-02 1.463765069191271494e-02 5.318394518258270920e-02 1.004856075833180373e-01 -8.061787054669455888e-02 -9.521285165001394657e-02 5.519314467625038509e-03 -3.970304331042633778e-02 -2.721860129247306512e-02 1.300751717304036992e-01 1.028090357688688228e-01 1.122099282031372297e-01 -1.423028482863393229e-01 -1.602159110023187658e-02 -4.359698021962084974e-02 -2.122004912762157081e-02 -1.184602436340644917e-02 8.932292509385018897e-02 8.584448277679269934e-02 1.076661424373109854e-01 6.864488667975635061e-02 -6.096647399942127510e-02 5.480353360306296912e-02 1.102257479519296174e-01 -5.053284694273045552e-02 -3.599141525911078027e-02 -1.903161283098454143e-02 3.458933558525405239e-02 1.130251306009151351e-02 4.942416217004860779e-02 7.991313826568122169e-02 -9.225243831330612527e-05 5.113997520282354686e-02 -1.344459692604797578e-02 1.172541333870555369e-01 1.646953924677745443e-02 8.935938742843536897e-02 -4.348912885444967263e-02 -2.711126519224811224e-02 3.025707391318743777e-02 -9.347434328033178697e-03 -8.108802928413011424e-02 -4.600349064218647865e-02 -2.012858668428673184e-02 -6.155545703837645571e-02 -8.364361981030420112e-02 1.525440159996133693e-01 -1.163835951449875561e-01 -1.014928908641190980e-01 -2.400851248082921247e-03 -7.702565875424230435e-02 7.982594405289449024e-02
-1.910606738386050885e-01 8.960400371143543985e-02 4.280454365603408168e-02 2.301286062197715754e-01 -8.668219085329418455e-03 -7.703223434455463980e-02 1.493325951232110475e-02 2.278559347771102334e-02 -3.221016077840876263e-02 -9.852133062421931931e-02 1.169351170019884839e-01 1.099493215564848608e-01 -6.219932888577354990e-02 -1.420598296076469591e-01 1.053703695123389267e-01 -9.482860048567379185e-02 2.485245986075598854e-03 -1.045113904683126899e-01 -9.294562318883368979e-02 -6.160437281621972648e-03 -5.269217072561220572e-03 -1.185489519226083227e-01 9.654052641812059521e-02 2.663073340143444837e-02 -1.214855281330297354e-01 1.511521150749080451e-02 -1.893560213811688597e-01 6.454092916531890822e-02 5.385664219937939812e-02 -1.467538655747393887e-02 1.131357899685988683e-01 1.281770067454363234e-02 -7.040948256687717954e-03 7.188229478099895930e-02 -1.331563818897145146e-01 -6.332143385739462393e-02 1.782076354249647054e-01 9.446487376069441499e-02 4.686829056392560755e-02 -1.709486240769679255e-01 -9.865210839224236583e-02 -1.591796289939945153e-01 -3.960728562053805052e-02 -2.662028240590413528e-02 -5.576546379691316863e-02 -8.721150950375008981e-02 3.361518095914589176e-03 -6.031748739231265755e-02 9.847462926386760240e-02 -7.431751577101400330e-02 3.792108068477113847e-02 -6.149554255138656861e-02 2.331463614035010901e-01 -6.224826853214786987e-02 1.630567410505198711e-01 4.646050611544692843e-02 1.219103754918809783e-02 5.867808560060833178e-02 1.090823517941336834e-02 -5.671234212791229079e-02 7.465742493368737742e-02 5.579804293031270096e-02 9.307404699671587012e-02 3.106132683689566756e-02
1.273468030951113716e-01 -1.256158952248919436e-01 -1.107244828548194504e-01 4.672137297772811814e-05 -3.212687069999633355e-02 -1.290845109747642272e-01 -1.373899654909046253e-01 -1.827881045230443091e-01 -7.125672292384024886e-02 -3.080940326535268683e-02 -3.766738156411247179e-02 2.713928154481889607e-02 -1.315642973687130013e-01 5.595037233180068237e-02 1.704432303051606756e-01 -8.007772814146068077e-03 -2.101826508611148447e-01 6.054500921607570280e-02 1.196399907836896565e-01 -1.209560949581113404e-01 2.196885397500259740e-01 -9.459309575208253718e-02 1.346240214635921473e-01 2.242479921168896440e-01 -1.136486294830144073e-02 -1.419545052097699253e-02 -4.102672355718377240e-02 2.143466885723508963e-01 7.384178346725878139e-02 -2.177404772347562023e-01 1.311664425470609741e-01 2.165357430959246321e-01 -2.138037237656928435e-01 -5.798499749155056060e-02 -1.205114202311336341e-01 8.592421668583925462e-03 -2.968822364556401514e-02 -1.325990186839508256e-01 -2.773202783026348373e-01 -2.627162680356207591e-01 6.969454431495246405e-02 5.594470373618343553e-03 7.096776330637941457e-03 8.693064285620957787e-02 -1.104449014220169334e-01 9.277118282990716447e-02 4.157171091145991926e-02 2.199250209937919365e-01 1.229680677379769993e-01 2.755075235084108662e-02 1.151646565007561837e-02 -1.832340061298020836e-02 1.053457141328795615e-01 -9.274945104719838074e-02 -4.733118228227818636e-02 1.892425515300863170e-01 -2.687166285280173303e-02 1.262646847008326301e-01 -1.852912219053649001e-01 4.005856643219076613e-02 -1.247645517651796987e-01 1.922616480614625367e-01 2.113656277351211310e-01 5.479185916824997477e-02
-1.945168095293670074e-01 -2.958805430078280396e-02 3.523174430173624944e-02 -4.616660945743687738e-02 1.631131836753601794e-01 -7.986838858574019095e-02 1.888097969759149619e-01 -7.417112168155698404e-02 2.517474138593980837e-01 4.293045865035782782e-02 -1.405458114447546980e-01 -6.562861760004952416e-02 1.065486355616351161e-02 -2.669836354223595852e-03 2.901774628683542190e-01 -2.258473976330632738e-01 -2.464489907612071040e-01 8.001878399333556269e-02 6.599752205193014365e-02 -1.793216958282158394e-02 2.903106277672279356e-02 -1.266535534696314746e-01 3.361052648541135862e-02 2.152919205369242459e-02 8.428903396124187708e-02 1.170348468324525076e-01 2.844368343753486683e-02 7.522841870961956279e-02 -8.630157904831944893e-02 2.271678629101204789e-03 3.567141570463236346e-03 1.084603828038973455e-01 1.292307919597028010e-01 1.208712421569862888e-01 1.469267708510497289e-02 2.586893747063682691e-01 -7.325840123094387590e-02 -2.120422087494925611e-01 -9.117957257415182371e-02 -1.044274966051473574e-01 -6.320754924397389840e-03 -2.433311332526928994e-01 4.340061327762771703e-02 -3.882182756563541670e-02 6.553005316133050928e-02 8.349698017066237155e-02 5.169871032047797937e-02 2.725586106342863801e-01 1.957183107356243179e-02 7.977080133912389792e-02 5.735654129586102712e-02 -2.109207442112911481e-03 -1.935614636183052850e-02 9.086234462584183436e-02 1.532253883092339064e-01 -1.952232059617942384e-01 1.833351424494014115e-01 2.918451505485224889e-02 -5.728330638713149958e-02 -6.766066662308387047e-02 1.319160471107946875e-01 4.393669923895367202e-02 1.098136756407086800e-01 -7.485778139879839532e-02
1.299331389075492615e-01 1.284276119264186611e-01 7.231214722080170354e-02 3.083943671726280950e-02 -1.819614048413713547e-01 1.608041678250657358e-01 1.993935025691621343e-01 -8.678840080325568584e-02 1.140547503508720778e-01 2.836585647811865063e-01 -2.816641556405756822e-02 7.436786581785742546e-04 -1.814190118931860718e-01 -5.211177081088726876e-02 1.276686765551068581e-01 1.142292169708627597e-01 -9.746494268828395646e-02 2.723684357833152520e-02 2.461899339210732451e-01 -4.183596933924358524e-02 -1.534540755256098843e-01 7.694496536468131524e-03 -6.306776073465221802e-03 -5.266144581925662205e-02 1.482221739999538546e-01 -5.680229790066554374e-02 -6.687998107660189651e-02 6.797473006140331009e-02 -8.575196032630119647e-02 -5.999573635011112849e-02 3.128940731125735841e-02 9.944308785734409795e-02 -2.368674909426688943e-02 -1.070767171187259892e-01 -8.820174533801906913e-02 -1.219899070350093442e-02 -1.201987011608390554e-01 -8.603103876406655026e-02 -4.205691997990827768e-02 -1.311035096451640403e-01 -1.803994478314308253e-04 -2.092067414514864332e-01 -5.087796066016108537e-02 1.666980297435259328e-01 -1.320880635197490827e-01 -8.660482434564556464e-02 -2.069854843408974049e-02 -1.039084750451295114e-01 1.359547517860639765e-01 -1.117392099694805990e-01 5.021866604928992839e-02 -9.196005353418558459e-02 3.371183584365898545e-02 -7.758950029573163931e-02 1.123993890144106209e-02 5.831125340191497392e-02 -8.284542484085541392e-02 1.503101061873950428e-01 -3.545902652940795957e-02 -1.618302052201979480e-02 8.416967278370579564e-02 -1.113669496059948166e-01 1.226639952110515630e-02 -1.153226475013552077e-01
-5.723891999518314344e-02 1.462388308122757052e-02 4.657671445232091506e-02 -2.047157570352151623e-01 -1.528528900834296156e-01 -1.025343952545828136e-01 -1.283710503866782870e-01 1.544583081742169905e-01 -9.103450386436645614e-02 -9.599876664175026331e-02 -1.038914441262060312e-01 7.070952080040801557e-02 -1.538282435726705810e-01 8.189184309218007496e-03 2.580663369016789055e-02 9.576305302395508867e-02 5.040261450837566805e-03 8.116516382102273441e-02 4.681682096045776398e-02 -9.649471630464606653e-02 -2.393440809129883731e-02 -8.424122171172768181e-02 6.771851284410097815e-02 -8.455844108163210193e-02 1.146413439805240436e-01 9.143248026605581280e-02 -8.707953620016311777e-03 2.681649803283021050e-01 -3.180194456932751434e-02 5.336135934192895447e-03 3.655324246887164952e-02 -4.728134698502012984e-02 -1.000182116788963724e-02 9.984003739886265771e-02 8.854670100273473454e-02 -2.917923567781076019e-02 2.344262199669494562e-02 -9.539263536850924041e-02 -1.586415380267555686e-01 -1.925790042890447307e-01 4.227315680825566996e-02 4.621221650637157008e-02 1.910300678381017525e-01 2.188546692628285106e-01 2.938198371112076338e-03 -6.354582448861151311e-02 6.439486066483809945e-02 -1.139968271682343347e-02 1.719835914530297716e-01 1.122328074563331765e-02 -5.936903478139942021e-03 -1.621341558498387916e-02 -2.315838154150987038e-01 -9.386758721272207839e-02 7.307441374083289976e-02 8.477974768710105913e-02 -1.642791968307279193e-01 1.082344502024424199e-01 1.124236005324012883e-01 -1.216025779785794431e-01 4.062077567017031293e-02 5.077163845889378496e-02 1.941188479236083050e-02 2.178032691778939919e-02
-8.208301529837075394e-02 1.270738024861764633e-02 6.098342535900035111e-02 -1.465942634881240436e-01 -3.557544042172411988e-03 1.111647187271870424e-01 -1.281808052224967798e-01 6.153610205373395703e-02 -3.041232867472142345e-02 1.761175000097119081e-02 2.869445123481803236e-02 9.239913701203303353e-02 4.138809389284867774e-02 1.370820013443521390e-01 3.732963284013853245e-01 -1.904774247265990650e-01 -1.590738951268075296e-01 -2.196869949908715758e-01 -8.582781476195383563e-02 1.374707167353799719e-01 5.207336875343000250e-03 -1.694490863046629048e-01 1.953339481645381126e-01 2.778177729110250377e-02 -5.235973102355476194e-02 -1.132247492973014885e-01 -3.671253496777502900e-01 5.332217100704005758e-02 3.544111333872246999e-02 4.203091703704279342e-02 1.950451635890681767e-01 5.675581453553753264e-02 2.496659797874438702e-01 1.065708283267124273e-01 -1.755139553721929979e-01 -1.303645704325803213e-02 -1.105844950068313459e-01 1.502717376958291259e-02 -2.624086859093257770e-02 -9.543468996292473264e-03 -1.568072564229215995e-02 -9.045391954801478007e-02 7.795807253458415798e-02 -8.620643512641618100e-02 -8.167820016066054678e-02 -1.798298131945972461e-02 -1.754562271703972998e-01 2.014644224688289798e-01 -2.013978605317776841e-03 1.896431100730223973e-01 -4.331390986207000332e-02 -7.923185230557998338e-02 -1.249529518696015085e-01 -1.743872189308585952e-01 1.999314349344658848e-01 -2.763248059857505434e-01 1.491770344203305898e-01 3.739749410317121103e-02 5.879007046811977194e-02 7.886381811391657282e-02 -3.551832018637039734e-02 -4.561303267991480004e-01 1.969690605025784524e-01 1.045355306143381097e-01
7.730522766077116414e-02 -1.421437193923470732e-01 -1.881581315557614709e-01 2.146595188363890072e-01 2.608761813509175020e-01 -7.161807334307089892e-03 3.326869547961638918e-02 1.114487207760142583e-03 3.300593156130560840e-02 -4.200791160541219454e-02 7.099001845263290533e-02 -1.586896711177423203e-01 -5.208968752200901497e-02 -1.119460680978600492e-01 -1.937381245453008438e-02 -2.686906447670479522e-02 3.732013852859395603e-02 3.061527246181318732e-02 1.186908690902446772e-02 -3.278214801799299305e-02 8.201758976208083085e-03 -3.355696466383129711e-02 5.438093407098827659e-02 -1.854303884156135451e-01 -1.928073561478458875e-01 1.512885087625941150e-01 6.481957352310616094e-02 -9.626972083514180600e-02 -1.390475336224938352e-01 -9.006459354075886312e-03 4.539272341147757711e-02 3.577303920570968354e-01 -1.367587284756685007e-01 -1.217809809064977766e-02 -1.007361888712104969e-01 -1.230820706359449096e-01 8.242184612912487746e-03 2.120045551641511206e-01 2.727433456614768437e-01 1.621638530915028575e-01 -5.081558348069104003e-02 6.802535238389802175e-02 -2.745404768588777245e-01 -9.491415128841601892e-03 7.200039082034789817e-02 -1.609488505883382159e-01 -4.229949061797942667e-02 -5.389542164381752598e-02 9.049098797425558782e-02 -1.210200898530859881e-01 7.217555675470074816e-02 -1.165286575066782904e-01 -1.901955073131568197e-01 -4.610913193703462809e-02 -1.215922633905079098e-01 -1.276170898556761302e-01 2.184714614331434157e-01 -1.047196914039788818e-01 -2.847734215234260513e-01 3.123346468219940358e-02 2.856609027261645256e-02 1.229465284053049695e-01 -1.451796515578455127e-01 9.144598133335309076e-02
-1.062040133985648199e-01 1.128716045883079028e-01 -2.373335608162664354e-02 -2.590608292065533710e-02 -2.846054372819664668e-01 -1.921885436870597041e-01 8.884878121659355033e-02 -7.251768545786066444e-02 8.090632100641774460e-02 3.784963787393793438e-02 1.104883775278426850e-01 1.135855928590234903e-01 -8.829274823538378614e-02 9.934568316744755989e-02 -2.135099489067067424e-02 -1.013174093074136056e-01 8.027423520602119944e-02 2.241591558108682603e-02 2.215870133799572317e-01 -7.162354124571472525e-02 4.263453506247160893e-03 -6.619578274563769904e-02 -3.620310203158693535e-02 -2.460477322240072970e-02 1.280665403696997773e-01 -1.542596163661963671e-01 -1.961965467292414375e-02 -1.618354311162600589e-01 -9.283265908760032770e-02 -8.291185154601974847e-03 1.310468991676106143e-01 -1.274056670406608915e-01 -2.250825445852077875e-02 3.170532184795789993e-02 3.226184043378520216e-02 -1.723341607521952645e-02 -9.881259116429344513e-02 9.918178277352915351e-02 -8.477330018601696160e-02 -4.128637470650874802e-02 -1.341440525112482657e-02 -9.791259065518503890e-02 2.757049818687466458e-01 -3.991805130972236881e-02 1.795935063497922646e-01 1.359739106695676270e-01 2.345891075240700563e-01 -6.172214026517633401e-02 -6.659727948968011124e-02 9.398416075259288793e-02 -1.084489404268945134e-01 2.836366801532982235e-02 -1.357657505038029899e-01 8.995141289419056330e-02 2.345496453755171185e-01 -9.193674323052150599e-02 5.639488467741766292e-02 -3.161179193410506433e-02 7.849437375704552966e-02 -9.847949065953350359e-04 -5.469729880193938826e-02 -5.125975996667851697e-02 -7.397125413184268972e-02 7.020460746113724171e-02
1.260999443914969341e-02 2.566024634392832446e-02 9.330185275578406837e-03 -1.323718224171967217e-02 6.785800946969636205e-02 -1.549959187949426394e-02 3.255612312649678458e-02 1.754797727731579118e-02 9.259857913363139792e-02 1.434682258901184837e-01 -4.263470258752141695e-02 -1.534158564019184323e-01 3.393492185945191919e-02 -1.565110881104910812e-01 2.037096610114336528e-02 1.042848468733845735e-01 -1.633490370044223330e-02 2.639405143737434678e-02 -2.378813583726051561e-01 -1.302573311744402162e-01 8.898968156954706332e-02 -2.370945048473244443e-01 -1.394992672404308520e-01 -8.442752812051486366e-03 -1.085242526003406122e-01 -5.669530813916310100e-03 7.643901300444444491e-02 -7.577171319274579597e-02 6.817287402148808351e-02 1.481460023981466881e-02 -4.473657953151063960e-02 -1.129084282480645740e-01 1.408400629341038414e-02 -2.897051825696366628e-02 4.560503225663798538e-02 -9.297669933007235432e-02 7.117679686227514069e-02 -5.767210394662922873e-02 1.018266080766711823e-01 -4.796735310119978196e-02 -1.300283817346346155e-02 5.176516302617222010e-02 4.005540045670132748e-02 -1.007021394605501878e-02 -4.698988980040789964e-02 -9.953922000852774565e-02 -4.816110785744085604e-02 2.089145510685947588e-02 6.198252979635814064e-02 -1.648515194910035453e-01 -9.235804942792330552e-02 -2.903743749908337460e-02 -1.570085700266620199e-01 1.318580747921856977e-01 5.313437156128410221e-02 6.781245683752794295e-02 -1.032182946735356460e-01 -1.608550046398846411e-01 -1.197498052371381433e-01 -7.158335503151527779e-02 4.694336412385091001e-02 1.043351745279935266e-01 -5.463652789420949014e-03 1.048189990863990090e-01
5.813073143122344903e-03 1.886090958131362086e-02 1.457368481872688692e-01 1.736209756446253569e-02 8.643200681671701913e-03 -2.828262899586525200e-02 1.042243455885341064e-01 7.356219210725604973e-02 1.214720378683517427e-01 -1.776281562790376911e-01 5.069090578357753757e-02 6.012450321388333740e-02 2.744479633336443722e-02 1.405116250837276093e-01 2.487105457420932947e-02 7.048841687030971311e-03 -1.692603709655407240e-01 9.766205959985387042e-02 -4.013746910260740375e-02 1.959863936194943326e-02 3.233667443785524787e-02 9.535765063706649891e-02 1.934634184088766529e-01 6.210520849181722092e-02 -1.172816959308967399e-01 1.197354206521528547e-01 6.957896624099862981e-02 -8.787534415907106988e-02 2.943466741791067945e-02 -3.067902660030657341e-02 4.856008775791632870e-02 -2.733165351980392233e-01 -5.644166657977016388e-02 2.741469263304937426e-02 -2.190706870099904391e-01 -1.697649800358478067e-01 -9.237338072918006154e-03 1.004838495131093606e-01 1.283444109036643577e-01 -8.406086871472490119e-02 3.786266756635907338e-02 4.836979863139218710e-02 -6.965929992501751489e-02 4.923252265281858470e-03 1.667122472178151904e-01 2.018040683351596254e-01 -8.474133071848073684e-02 8.947793945368232027e-02 -7.251552318071340097e-02 1.418323250572460226e-01 -7.937432034160288655e-03 -2.556260745564370995e-01 -8.008090600320036563e-04 1.930563599979516097e-03 -2.449931898127039390e-02 3.588322699855486103e-02 2.157271077628252209e-01 -9.955777072164534447e-02 2.126710314863150195e-02 -4.654526639402205984e-02 1.472760685367079381e-01 4.141953174288018347e-02 -3.556328689108479140e-03 -4.783904535463294472e-02
4.772724652057338569e-03 4.910808108282042894e-02 4.808050704459384400e-02 -3.047145779274142152e-02 1.338949901406775722e-01 -3.291936047441948454e-02 1.425715970711196878e-01 2.204088294312966240e-03 7.608663061663281657e-02 6.529063171157581391e-02 -6.840932814204840617e-02 4.580119626542723116e-02 1.222522831211654420e-01 -3.206631018418087953e-02 -5.834696188691663316e-02 -7.923022610934742083e-03 1.022348069012506688e-01 -6.279363367882530300e-02 8.646851925183368648e-02 1.143449627606581698e-01 2.863171144643815447e-02 2.217742374273928840e-02 9.570370573689732790e-03 -7.843861503488477882e-02 1.007081986231114779e-01 2.387379784324819912e-02 1.481457122363098039e-02 -7.572652073601458811e-02 -9.566985446580179159e-03 5.261643877881004572e-02 6.330831588280418087e-02 -7.248658773349443696e-02 7.936244104002233846e-02 2.653694551595570106e-02 -5.038276347049395337e-02 1.991485165132191731e-02 1.536413927887608222e-01 -6.262586175396366028e-02 2.051782951163528823e-01 1.191711531059172768e-01 -3.044785192750755209e-01 5.665133205535661381e-02 2.052045669991780369e-02 1.324608245428434417e-01 -2.462144664334387639e-02 -2.275884924444832036e-02 3.274281458262964101e-02 7.795085793796878437e-02 2.280309039893540710e-02 8.281756311335640441e-02 1.040067626977232568e-01 -8.616303990781834510e-02 1.372077748369038563e-01 1.569188292854754169e-02 4.201071012215414763e-02 2.950950995918348238e-02 -2.522699410802685394e-02 -1.020211473952094411e-01 7.677649206115908995e-03 -2.219800079699797979e-01 1.797147515983185673e-01 1.401464090876792523e-01 5.065511577648490471e-02 2.878770410293453666e-02
-1.179697098174323049e-02 -7.486161266486081323e-02 -1.842416873328346985e-02 1.604477184481704344e-01 -3.614152057290755116e-02 -9.975452148854559165e-02 3.658020166196275513e-02 1.086532847699714921e-01 -3.634222205745372015e-03 -2.287176883065533337e-02 6.255793637615761349e-02 -1.277133967863964409e-02 -4.847598133026503192e-02 6.204787543465303118e-02 -1.249990093780611045e-01 -3.723747088662638510e-02 1.159035889754304466e-01 6.221298137415347262e-02 -8.182546662853829034e-02 -2.031792265067111636e-02 2.432715274512416148e-02 3.357419149570872730e-02 6.799470153900284697e-02 7.288138084246358062e-02 1.391849888542533685e-02 -1.758679200582631552e-02 1.569644066764732948e-01 2.039153176869472062e-01 -8.210032934802807825e-02 1.470936090656478623e-01 2.255321241142328043e-02 1.632079813047018768e-01 -1.777075287707119769e-02 1.894022432212279575e-02 3.010484505182959777e-02 1.340963101128644641e-01 1.346285973653280343e-01 2.479134862200737047e-03 -7.094025970268555067e-03 -9.293048319424031256e-02 -3.163147745968378916e-02 -1.628252143318948244e-03 4.787375683525701975e-02 4.037518405451612225e-02 -1.544034966612913284e-01 -6.776541410109019302e-03 -3.853699846393779382e-02 1.027225733337418373e-01 -4.745671019518950609e-03 -9.925620075780823559e-02 -1.736545510249596150e-02 6.834204669739954441e-02 1.224731894755564654e-01 9.451781380013363210e-02 -1.007324991756183008e-01 7.310883371818495402e-02 1.111637190751695731e-02 1.130841218250852459e-01 -5.196525978733876339e-02 3.485662868447994556e-02 1.447904042855653883e-01 -6.367574897045079341e-02 -6.523205503014196938e-03 -4.312752339127690071e-02
8.010375350316230325e-02 -4.097625968728837997e-02 1.595238193539755267e-01 -2.193586116999151139e-02 1.329177882391297527e-01 -3.323396933152693300e-02 -8.387328571391895748e-02 9.328323226063812978e-02 4.066314115450012784e-02 -6.379336539235545313e-03 -1.724270474867002911e-01 8.882210341459262359e-02 1.656215326451256353e-01 5.459388284730787300e-02 5.467725528100605276e-02 3.767288334449077347e-02 3.367466756023895780e-02 -3.625305292625956299e-02 -2.326002259993755483e-01 5.401879652519059327e-02 6.780159431938534431e-02 1.824226089418220786e-01 5.075208140119484568e-02 -9.812067114789949085e-02 5.775881104373666725e-02 1.031540684395391982e-01 -7.255990216314052443e-02 -1.211145800214615265e-01 1.590662837389388712e-02 1.048767471512982580e-01 1.082847130213114920e-02 4.943040484324077999e-02 -1.447765676035244475e-01 -6.992459264212924630e-02 6.336006635938407766e-03 5.287961613262723987e-02 2.051645792534108684e-02 -1.420636258244127315e-01 -1.729017955066869117e-01 -7.092542106330740337e-02 3.960243638808679661e-02 -1.474858368741875821e-02 -1.272906828946174795e-01 -6.783857065640663819e-02 1.148744667714769463e-01 1.282171786293232474e-01 -1.453197771036233467e-02 -8.264739381233923016e-03 8.604841545515636014e-02 -1.191287809904533479e-01 2.538571145141541030e-02 -5.980114129106644388e-02 -2.367403353615144812e-01 -9.347305933330407601e-02 -2.883441083224972182e-02 1.628461363092848224e-01 -5.028048471093590766e-02 -2.867962041594618317e-02 1.067584540026570716e-01 -3.132893295415358631e-02 4.004293349046867539e-02 5.293813035193711825e-02 9.384571076695115421e-02 -4.695615590607977660e-03
8.117838081090564262e-02 3.365698093074995928e-02 -1.618066769436712210e-02 4.120169569692760242e-02 1.410668588428674042e-01 -2.795137321726426372e-02 -4.991125331904727042e-02 1.375546016652527334e-02 -1.393396375465152381e-01 1.860231273630459994e-02 1.569002115130737063e-01 -2.746778898273545544e-02 5.590387041639974935e-02 -4.271617844625880123e-02 -1.214346898963745980e-02 -7.047777742859699657e-02 6.410615663121201069e-02 -3.168218708213267620e-02 5.293053754805131413e-03 3.336772224955199435e-04 -2.269018818576640784e-01 1.090574578617758798e-02 -1.408460561192273475e-01 1.243264411235965594e-01 2.491560305260473451e-01 -1.231556119272960298e-01 3.355582633986909161e-03 -1.137164678516700139e-01 -8.163949819575207212e-02 1.881879543388780690e-02 -1.420547595360402704e-01 1.367602257216805339e-01 -3.145305042795253081e-02 3.394751760060154416e-02 -4.849833186522844314e-02 1.951253035190332261e-02 -8.244592200781131197e-02 -1.394763981158600279e-02 -1.170856293162842177e-01 6.363365085479873173e-02 1.464353851565257554e-02 -1.223142194225893542e-01 2.101487480460575812e-03 -1.344393540468469539e-01 -1.047931985345264098e-02 2.531254331138914002e-02 1.552815283609292329e-01 -7.092830138534320095e-02 -8.055261725871161460e-02 -8.262560883744309026e-03 -1.543053193475624196e-01 -9.572583650107944001e-03 8.452416031585594305e-03 4.146866070572489960e-02 6.427607511837979404e-02 7.796081081878532271e-02 -1.791767235520011214e-01 1.268981211291772271e-01 -4.610905710037937338e-02 -6.912842083424566852e-02 3.128157769269714755e-02 -4.055427082610072592e-02 1.247492841175264384e-02 7.894799167450727850e-02
6.979817893694489905e-02 -4.143003418987525367e-03 4.573202393229246210e-02 -1.198428426510023299e-02 1.284890130367217775e-01 -4.542689710074256093e-02 -6.863422586176939899e-02 -2.014608524792041722e-01 1.025489679296883172e-01 -1.755905303332017942e-01 7.807122451209273784e-02 -7.333594083470784241e-04 5.919986474628553819e-02 8.352940444389247987e-02 1.684075765539004566e-01 -4.115447098151840677e-02 -1.056714989590578635e-01 5.060192429420309196e-02 6.019584403858315586e-02 2.638335670707208855e-02 9.968889785637846668e-02 -8.881343457328053081e-02 2.479888228590447496e-01 -3.001543116507190967e-02 5.993704390205507881e-02 -5.757198935387961708e-02 -2.234718062147275988e-02 -9.030676664400212605e-02 2.399640901280684913e-02 1.643471484721556464e-02 1.381903548705035178e-01 -5.707077074036989023e-02 1.114961238566139767e-01 -1.602745955984747339e-01 -1.258486795644634948e-01 4.086401505152029850e-02 1.299752523894733003e-01 -4.675665398099181080e-02 1.274367044506624982e-02 -9.473555462167190799e-02 -1.616302159873859168e-01 -1.246165990630683090e-01 -4.762168505737372076e-02 6.279595268572359459e-03 1.359053244294597396e-01 2.073304845315457334e-02 7.866601929237605761e-02 6.811570434627371717e-03 1.024932288283701282e-01 -9.585662242656060872e-02 -1.741274530319174285e-01 -4.579158362490051010e-02 7.536052202731438610e-02 9.148106159659440129e-02 -6.317652038265643422e-02 -1.033244072268641733e-01 1.532844875882007074e-01 -4.851396071085668088e-02 7.379979015362697625e-02 -1.395292638902214388e-01 -2.142878484011925475e-02 -1.143125002686183889e-01 8.423401216576720252e-02 -1.610592340107110110e-02
6.820864163838738503e-02 7.144308379153034572e-02 -9.519540471606689758e-02 5.310694734226677899e-02 1.598603583868143593e-02 -1.304523645131903421e-02 -4.761225880848639347e-02 5.154662818112430017e-02 -7.223002837351148731e-02 7.382523304470242631e-02 -7.613176162577672823e-02 -9.852224972790248059e-02 3.658171111496951594e-02 -7.761392615513021398e-03 1.499204672018968586e-02 4.839734642884028354e-02 -5.157550012042354942e-02 6.616975134774810696e-02 -3.677468470429588049e-02 3.324969065851948041e-02 5.425493237707889466e-02 6.505750329826018308e-02 4.058242933687899318e-02 -4.653338935188280207e-02 -7.489469751533049668e-02 8.943912018168655859e-03 -8.248555684476552297e-02 9.003448574744780941e-02 5.489786957864201122e-02 9.899986708993990803e-02 -2.613982655551536430e-02 -1.273727594854719702e-01 -1.016298907228008336e-01 4.209021817701598389e-02 7.174220767835923218e-02 -1.217030567223126580e-01 4.709409306028301129e-03 9.733819865634832369e-02 7.350648485389531250e-02 -4.420456887890414355e-02 -2.279819205610462973e-02 1.111707951339308553e-01 6.146958856934832231e-03 9.797552441103646315e-02 1.301219596470777340e-01 1.111995512782496150e-02 -5.129617584696713473e-02 8.369384784230335383e-02 9.017337193096240655e-02 -4.364860062089438719e-02 -8.065980687583841624e-02 6.322600640982892206e-02 6.881548157935774013e-02 1.071950282059734028e-01 8.672995834237789969e-02 -5.849745818624209337e-02 5.841306287754586407e-02 -9.286279521171358908e-02 5.078900200100990719e-02 -1.019820056775150724e-01 3.732945125410424420e-02 -5.561003005669887429e-04 6.769432916325997251e-02 1.042502905289100917e-01
1.257670087688004812e-01 1.952503905578395482e-01 1.655309981533664987e-01 2.155643105414833394e-01 -1.491283075002910741e-01 -2.542957395357960948e-01 -3.767764257303402725e-02 3.465248370793431315e-02 5.644628126832305220e-02 1.673571834570407660e-02 -1.545171534899566395e-03 -4.115946039271298554e-03 5.172016567187906477e-02 1.160523791710206670e-01 2.973980290935956602e-02 -3.160449861641504311e-03 -3.062106601318745347e-02 -1.330890833834455778e-01 -2.788097744552981982e-01 6.113159976999301554e-02 -1.159060752354821406e-03 -5.092067764322503326e-02 5.372893040690511490e-02 -3.095397355195947386e-02 -7.596293463972782212e-02 -2.380594185178933897e-01 -4.554212302105902117e-03 1.414312339051871682e-02 -1.056365281397933370e-01 -1.086188947043491143e-01 1.239855813145283731e-01 -8.197404780022830850e-02 -1.128608445841439295e-01 8.908324632648285946e-02 -7.977281932320880176e-02 -9.872235256583344887e-02 -3.927156807788341475e-02 9.601533393904337910e-02 1.219452017728377829e-01 1.071801398893179463e-01 1.032958076500540279e-01 1.800513060180360114e-01 -8.082677778342265557e-03 -3.042881377003883031e-02 -8.275356815451161141e-02 6.541137577061627295e-02 9.627304840601316749e-02 -1.904812882964673770e-02 -8.444743862381931532e-02 -6.606713270725557419e-02 1.265871012628060899e-01 -1.168986508608660796e-01 1.007259166100621106e-01 7.290315844608984130e-02 -1.858202431115247438e-02 -9.555804168724038594e-02 1.896748106383882027e-01 -1.820920660808004188e-01 1.132218679794588095e-01 1.066517028943266172e-02 1.160095131609634178e-01 1.020645218346147853e-01 3.004229723028372101e-01 -6.121924285728932991e-02
-2.405689349431688884e-02 -9.494386523208882267e-02 4.327445831988525893e-02 -9.438690642828270749e-02 8.090633413986939027e-02 4.178127467406139023e-02 1.764820174064312130e-01 1.685212366952443946e-02 2.054910108169441356e-03 3.780610195813402519e-02 7.191051251823181445e-02 1.220718800349099575e-01 -1.809798378133865848e-01 1.110021713745487082e-01 -7.252250457897121277e-03 -9.042898093349795163e-02 -6.451489702555866790e-02 -4.102680552635268318e-02 -3.360569566878932740e-02 -3.033187163900928976e-02 -1.392230145094169036e-01 -5.818185927642569033e-02 6.133365587761531457e-02 2.381571468306109551e-01 -9.496507589538730199e-02 -1.512370497709576433e-01 -1.542450992417046807e-01 -5.278568240471904344e-02 5.493463239016978250e-02 -9.383979340092783727e-02 -5.734521231494257854e-02 1.182310257059628333e-01 3.119594066066411903e-02 1.004019038981024681e-01 -4.857352319699525384e-02 7.848871836356628370e-03 -7.464568360158528593e-02 -1.982580109975851101e-02 2.168744614137105980e-02 -2.392469911737823279e-02 -8.033123255139329455e-02 -6.517807922393581421e-02 1.279361690319276990e-01 6.686163382479424827e-04 -1.679138777787455086e-02 5.232828501564358321e-04 -1.522787552268725919e-01 -7.965159793135842548e-02 3.499635041157204279e-02 -9.877423178057399833e-02 -1.188549441998709849e-01 -3.986940473832410736e-02 9.904747550694533581e-03 -9.629247308127224236e-02 -1.154444814313117240e-01 -1.006220023136091858e-02 7.666742971316405086e-02 -1.242495571157376383e-01 1.119951266678656937e-01 -4.080190443961376895e-02 7.344920873859150934e-02 1.515164003858350712e-02 1.141993042424450100e-01 -3.760603246355919554e-02
5.843898847639791144e-02 1.070209652416798107e-01 -9.067351727669752115e-02 -5.500722093632610943e-02 -1.053050874431637057e-01 -1.381177515497101702e-02 6.181454904555035157e-02 -1.297136581527891241e-01 7.364457550398979466e-03 4.090168477589593843e-02 3.131465888309109373e-03 3.056836489912883453e-02 -1.922477973382586969e-01 -6.225073502731389569e-02 -9.512284113013108611e-02 2.175555033810371020e-02 6.625413002092085668e-02 1.137993177368956527e-01 -1.956881425392641705e-01 -9.073202917084230434e-02 -2.224880555686187950e-02 -4.910309890134915284e-02 -7.184731076683967266e-02 -1.623392464814170377e-01 -3.932740008995266184e-02 -1.847646003385385038e-01 -1.489928970850655232e-01 1.130285818138991594e-01 -1.077890920229375715e-01 -4.032529030777552703e-02 -5.517507579414526048e-02 5.064386503426927810e-02 -1.934871328562176584e-01 -1.405020081355335543e-02 -3.455851096246873727e-02 6.971044879186644172e-02 -1.137702557133856429e-01 -3.225742278031415444e-02 -9.854778112119934319e-02 -3.791246497160998680e-02 -1.007100053572735493e-01 9.615779673215626988e-02 -1.672278754490528563e-03 9.579477657594242385e-03 1.225143367051240717e-01 3.580161694078248108e-02 -4.401714915966797176e-02 3.305034246602848915e-03 6.340747078478292664e-02 -7.167561249308187186e-03 1.649189930032791684e-01 -1.575916909221850570e-01 -7.890809828927303898e-03 1.748139003718038320e-01 1.304481840120945944e-02 2.199351744790599694e-01 1.368846550526720829e-01 7.178683825664339269e-02 -2.013141688047311029e-01 5.621752424644270441e-02 1.069632675447894019e-02 3.901006358425454512e-02 -2.872479126681934392e-01 -3.023022338913555068e-02
2.020116314227271004e-01 -1.296649220434464012e-01 1.052194357861458568e-01 7.574017301086685694e-02 1.727293923886051574e-02 8.290566661691818823e-04 -7.378236120244421881e-02 3.536208139256221544e-02 -1.079877677763883409e-01 -1.670049597172647976e-02 1.532208270273757722e-01 -6.360701432865328853e-02 1.988604069754351111e-01 -7.040573667056780616e-02 4.687616672734636752e-02 -1.792295232677363070e-01 1.466560122469951800e-02 -1.636470213405447349e-01 1.046937521676727205e-02 -1.024701501069326740e-02 -5.710158169232402298e-02 2.203114597946281145e-02 6.054698241764646521e-02 4.319842965210782954e-02 -3.390349226216100853e-02 4.963220891720826478e-02 1.406489891962006966e-01 -9.477549340008332990e-02 5.543195337771852221e-02 1.850438771520642456e-01 1.413087575434708032e-01 7.269439311395479997e-02 2.432183002609152739e-02 1.055877541733991065e-01 3.242164861593035269e-02 1.062755127338912975e-01 5.893687476503314815e-02 1.476525117368574225e-01 9.967800718191796583e-02 7.510986201884159441e-02 -2.069096839192104825e-02 1.358564536101726783e-01 4.460700363799396939e-02 -1.542032575802244065e-01 -1.183470432999869371e-01 -5.925495473564321852e-02 -5.346643846431078755e-03 -1.000140027562087669e-01 -1.326629662101423517e-02 -6.669335750455332446e-02 -3.486562898283779299e-01 -2.841700232161500916e-02 1.536705130051674306e-02 4.447835523379888717e-02 2.026235735008063976e-01 6.799499031016077721e-02 9.761099114345354877e-03 5.224787094653500150e-03 -1.197995656180558810e-01 1.546823435907293542e-01 -4.689393200237822190e-02 2.009535474726782851e-03 -1.643523266992272247e-01 9.788322868531527943e-02
-2.516109484502200844e-01 -5.421304563033305102e-02 -1.010281124741805731e-01 1.796951481660735428e-01 1.094670121071898150e-01 5.694194158241377285e-02 -4.536934990826996944e-02 -8.951615569944749995e-02 1.142539659498355425e-01 2.290570552448079750e-02 -8.873863668306480879e-02 1.651431077117530566e-01 -1.177706158566019790e-01 3.195258751201816849e-02 3.764608775802794766e-02 -2.494551142664394247e-02 1.057002905881661847e-01 -1.537491098479066079e-02 3.315084107630547616e-02 -1.101694417284315164e-01 9.720473986966103597e-02 1.409662868647569350e-03 -1.379624730580597258e-01 -1.403010032636906219e-02 -1.992628800872271455e-01 1.093546603526456690e-01 -8.342805740188424801e-02 -1.755571615671157049e-01 -3.194120446215454462e-02 1.087987733357903553e-01 2.839499927918177208e-02 4.369045791058346478e-02 -3.003355711777920198e-02 -7.086775350000289186e-02 4.384741587582229039e-02 8.499412623669753974e-02 -1.612250722968888161e-01 -1.686130957195314251e-01 -8.219609334002134227e-02 6.252068203053413875e-02 -8.751098164470584584e-02 -6.252327110665718835e-02 -5.351012112898698159e-02 3.535706442063209221e-02 -1.649267525939772383e-02 -4.765039519084851571e-02 4.382490495556445875e-02 -7.713019950467846220e-02 1.016721865382194806e-01 3.099881021294969338e-03 -1.144315456226337319e-01 -5.899431389919842367e-02 -8.794716495271938383e-02 1.834018327770324253e-01 -1.091404534390138653e-01 3.172386041072386420e-02 5.268085431714952110e-02 7.207017451744224257e-02 7.395231539507718388e-02 4.059144290259172894e-02 -8.015742049314243667e-02 5.412391703149795064e-02 4.837252045755381646e-02 -7.937451518867233782e-03
-4.190640841719267540e-02 4.571202566438726383e-02 5.364944496619402509e-02 -2.830330942362059305e-03 -2.523555442939875992e-01 -9.518527055797221248e-02 -1.127802977822169733e-01 3.713926427712493233e-02 -9.773941935248016410e-02 -1.592953192630409964e-01 -2.408523827644775545e-02 -9.383764640341329955e-02 1.193227402421740135e-01 -1.857182450232635063e-01 1.938473936294203004e-01 -3.516961048511475785e-02 -5.844581048259395867e-02 -2.276203809243406914e-02 -2.027577004321704790e-01 3.177214341477448828e-02 -1.061856971238245712e-01 -4.688654974359950794e-02 1.212984334558598887e-01 -6.141721366318405456e-02 1.173764620245333068e-01 -1.181457801010818570e-01 4.542171413233522109e-02 1.195639936720252136e-02 -8.561434948129791056e-02 1.161889278334409248e-01 -1.023067141068709739e-02 4.045296873326519743e-02 -1.466006209232330049e-01 1.106352476343985952e-01 -9.552839058576052811e-02 2.744611337463905704e-02 3.826319466315133283e-02 -4.819602769673305559e-02 -3.426511594518265313e-02 -9.420385465307219708e-02 1.558852356156837926e-01 -4.282678955790927833e-02 6.491319475471520051e-02 -9.707590853828473518e-03 -3.970719427101319227e-02 5.857678619587702862e-02 1.521700467972520940e-02 -7.655823972025886659e-02 2.222300835220269999e-02 -3.136809624558199727e-02 -3.246338240870222380e-02 8.750188723996828177e-02 1.022800106332895503e-01 2.032491007116268844e-02 8.771531798964864179e-02 -2.811385098111870637e-03 -7.561232173295368009e-02 3.848531549427064435e-02 -5.817428325067541817e-02 6.432594899520936715e-02 8.807225960144890800e-03 5.105310869789105380e-03 7.471600703069540550e-02 5.565705474389143897e-02
-4.811907321905499468e-02 -9.210949411167861089e-02 8.263132294874223072e-02 9.011605569019530415e-02 -1.336083496116631797e-01 3.413533433788968480e-02 5.862079895657936607e-02 2.926737255055261722e-02 -4.707703745075852986e-02 1.214515373680279259e-01 -8.129550911989553985e-02 -4.622592746428106497e-02 3.084725951654696333e-02 4.619087536369328312e-02 6.407603508191350716e-02 -6.620953317035147868e-03 -7.630800030050007010e-02 -2.792165780176873030e-02 -4.384346443539837573e-02 -2.067886035869501843e-02 1.055851404805236704e-01 6.927479011199751471e-03 3.835618425965798411e-02 2.815978065147309306e-02 -5.789721379148539404e-02 4.566371295179067619e-02 -2.240173519362635354e-02 -1.570958531109416115e-03 5.565876415655542087e-02 -5.421209151865271497e-02 -7.013984898025428516e-02 -8.984874780272832789e-03 -8.376902987259979283e-02 4.450135194071874745e-02 7.004539133868397868e-03 9.826469586193453676e-02 1.719985689616871857e-02 -4.960725538079004820e-02 -1.608600970906329253e-02 3.181033123906836652e-02 2.720400468070374722e-02 9.686818659916971580e-03 3.480148687887792830e-02 -1.316421444796157803e-01 -7.622144897721841450e-02 1.532829691716490750e-01 -1.173185583677961025e-01 -3.852256692115591657e-02 9.580533846661421979e-03 7.556346251290928240e-02 2.612256741767060922e-02 -6.340258812362557783e-02 1.384724883054778456e-02 1.542977717621540727e-02 -6.311824149883599189e-02 1.304128757223531054e-01 -2.531660332431853039e-02 1.087255161426941702e-01 -8.805249592227536171e-02 -1.609837485055517006e-02 -4.969521805881527143e-02 -3.308981542749664384e-02 1.619271086740354526e-01 7.784438722315094317e-02
-1.313245270462480851e-01 -4.794013346322720248e-02 9.332523030048196777e-02 1.126416594299038260e-01 9.390653147999217243e-02 1.264436155804802009e-01 -4.313898295931228866e-02 -8.948913440345077075e-02 -1.423824537419370595e-01 1.463625507811611159e-01 8.243303038355727363e-02 9.219497146637782581e-02 2.091477427275310330e-01 5.820289393185473087e-02 3.708313853068523347e-02 2.206201847673964767e-01 -2.252708661758204278e-01 -5.732746330511803191e-03 2.891114272703819432e-02 -2.150143624506087314e-02 -4.676780637560685322e-02 -1.581551473063208535e-02 -5.562455247873530906e-02 1.186821260573078934e-01 -1.715600492905462390e-02 -8.019624446422489450e-02 7.407781777151600799e-02 -7.993844932480355381e-02 -6.479840567897530816e-03 1.340775078183348845e-01 -1.381403063469650028e-01 -1.115954349766150877e-01 1.806583482704438581e-01 2.040126047373885462e-02 -9.859753990410366487e-02 9.309924009221894059e-02 1.495556286853988726e-01 6.148305591486213223e-02 1.676904701603933179e-01 1.993209939474490100e-01 -3.649681541491887893e-02 2.112065911829807963e-02 -4.269957544198275945e-02 -1.237221195344308383e-01 1.924087177313002842e-02 7.070890903891634272e-02 -1.595985677269004255e-01 -1.055511435038244961e-01 -7.097343956559885869e-02 -1.857701758577890161e-01 4.380844833972782904e-02 1.478621549643907851e-01 -2.202456376404893570e-02 -8.936920336643691329e-03 -2.110758840737986530e-01 1.263258858112353278e-01 8.170249872565976679e-02 -2.902764513023597948e-01 1.478283132889444129e-01 6.431192630655148401e-02 1.672725021205414553e-01 -1.450022606241199719e-01 -7.093605624036218582e-02 -8.346730529160327483e-02
3.127116445919059240e-02 6.415095128621871312e-02 5.151274355920223980e-02 3.280824615777469533e-01 1.109061753785161863e-01 1.998771116315599672e-01 -7.051260721298138745e-02 1.944327058806677999e-01 7.585331498093571267e-02 -1.196664082095257216e-02 2.693063853852323275e-02 -1.105590298127171883e-01 1.286448047679562556e-01 1.050439537269407531e-01 1.194854767648617228e-01 -5.450087178227341206e-02 -1.506727656859913889e-01 -2.557737507846314859e-02 2.194658813589044910e-01 2.711521240439404568e-02 5.073568471648224470e-02 7.285194985149308355e-02 2.660818497693471785e-01 1.062046705118425832e-01 7.084727646016818203e-02 -1.174076502452444659e-01 3.127125695978520692e-02 -2.115297570128523985e-01 1.671769367718907440e-01 1.674197256384898653e-03 -3.918966353962539950e-02 2.221035608387039173e-01 -8.118652395983283476e-02 9.816074397384684513e-02 6.575273058076004477e-03 -2.320697498209090825e-01 -1.817083476513224882e-01 4.156727381150139046e-03 -4.311080529658947724e-02 -1.251348436474658266e-01 -5.764295772949290519e-03 -2.444324259250882925e-01 6.179524448704691586e-02 -1.506785590634452179e-02 2.649849100590816187e-02 6.385871660380131043e-02 -2.110754767194500739e-02 5.444366612684820722e-02 9.417538129509632483e-02 -8.126357887810320424e-02 -8.899263240547789725e-04 8.616559173734279764e-02 8.492797387577126489e-02 -1.980979104810690061e-01 -1.223776249282849810e-01 -1.309179457764435839e-01 4.356257524870545128e-02 6.729077880254545618e-02 1.595014493467455940e-01 -1.637560348796223419e-01 -7.581182842842038028e-02 1.935025474490880693e-01 8.192215167731786707e-02 9.195558880314570749e-02
-1.398547189055131534e-01 -2.762840148128841572e-02 -5.827971356141279508e-02 1.544888010399173284e-01 -1.647295004620851488e-01 -5.464841837393238921e-02 1.792001583026766875e-01 -9.152577797011991756e-02 1.220571501667628983e-01 -8.482401104430179004e-04 1.775917815953948486e-01 6.120664851889547758e-02 -5.745417944684228645e-02 5.295374872207164393e-03 4.028539999665560478e-02 3.370301532372966050e-03 1.639265569108868947e-01 -3.279953313266914527e-02 1.493753131362252629e-01 -1.109381507667488720e-01 3.639169974999940417e-03 -4.665564118737165582e-03 -1.797173028949939841e-02 2.798951384881664256e-02 8.845394212117618782e-02 -1.682464941396666913e-01 -6.498648628320884135e-02 6.003674282837432458e-02 2.221444484998318092e-02 -1.361595511597827046e-01 8.097664120060897933e-03 -3.190857317676878968e-02 2.056503026399462419e-01 -6.302062424782881034e-02 1.556124125478722531e-01 -1.404514478829051215e-03 8.795782172559232781e-02 -9.850122397529958995e-02 3.385483116092787709e-02 4.598171303715104657e-02 -7.014508052651764747e-02 2.402525938303186684e-02 1.232604816813411275e-01 -4.078725953530643392e-03 -1.845022497489879620e-01 -1.250578880039506791e-01 1.380984094011223351e-01 -1.071683418350805328e-01 -1.829229894654634814e-01 -7.054041276774355431e-04 6.657160280142264408e-02 -2.187878964352755334e-02 1.482266726741810203e-01 1.092819945407329761e-02 6.040443408097762035e-02 8.005237616085078556e-02 4.594592866609482906e-02 1.073222207509599846e-01 -1.358330486464699553e-02 1.047092978461083984e-01 -2.684324809113208376e-03 -1.990398727259094502e-01 -1.963060692564806142e-01 1.655486523954955574e-02
-6.680271265861954799e-02 9.787659202970169087e-03 -3.370488098117370435e-02 -2.373138094982094048e-01 -3.928043486369930393e-01 2.751969553655593259e-01 6.841371002509689936e-02 -2.603656073357471512e-01 4.091769421193094947e-02 -1.760934207021640496e-01 -3.264754007244569101e-02 -7.221430062153462448e-02 -8.812370479236537879e-02 1.798399605331950021e-02 6.353740133392685174e-02 1.204596471179919387e-01 -1.297358872012822351e-01 8.365315462487120379e-02 3.135047291639403433e-02 -1.447764341043734741e-02 2.740940724593157185e-01 -8.412677559674388780e-03 -4.385345159165393580e-02 4.744421372800646797e-01 1.459924087579254348e-01 2.395819789972954972e-01 9.507449511103767403e-02 -2.529033127982028076e-02 8.603436175155600163e-02 5.402902984150407401e-02 2.722235798068105891e-03 5.998774354656786698e-03 -2.698170513614652627e-02 -3.936753685953703341e-02 -6.294455651950903174e-02 -1.596474822155139472e-01 2.907808299966526192e-02 -2.731011405259975988e-01 4.455570206050672721e-02 7.221261531117754984e-02 1.110414242459734253e-02 -1.236555312272779594e-01 3.146168750005210457e-01 3.413655579373100352e-02 2.771357122459488509e-01 -9.519947927101031493e-02 1.431932824775531410e-01 -1.216053183622280431e-01 7.249320066419503994e-02 -7.540452839926641004e-02 6.762236977091364010e-02 -2.591368799469326856e-01 -2.423662848596467856e-01 2.718668860866950421e-02 -9.149465511512989979e-02 1.788448492377626431e-01 2.572447386324167918e-04 -3.142696111609868947e-02 -9.742534884509831961e-02 1.052909554476017806e-01 1.144241721103671644e-01 7.200659093433545155e-02 2.633655358724576456e-02 3.653237027952511290e-02
-1.399869940722162642e-01 -1.311010331056373102e-01 1.132929690433423925e-01 -1.916174846057470613e-02 -1.483644214561657682e-01 -2.317000633341688431e-02 3.544764313045537657e-02 2.323020292004238374e-01 1.373858751207056826e-02 -1.560285960955050122e-01 -1.286263348802426931e-01 1.705996977560934325e-01 -7.174638616341812158e-02 -5.217138586187232419e-02 -3.354081201388264127e-02 -8.851030357917295810e-02 1.439226159456199750e-01 1.851607865358369936e-03 -7.521578345293428169e-02 -1.599656419462799628e-01 6.613141970423455640e-02 -4.021777579394842511e-02 9.892621388778993774e-02 -6.288294412450598503e-02 6.008014135792998263e-03 -1.472417602631383715e-01 -7.450579806462027943e-02 -1.040693061302527950e-01 9.861346748772403803e-02 -7.145996709594965024e-02 2.010950062266425586e-02 -2.017414899942376535e-02 -1.240363101352085495e-01 -5.007777761270848504e-02 1.158973367565078599e-01 1.540130331906638395e-01 1.396116570264839540e-01 -9.093629692176276313e-02 -9.058128198428677669e-02 -7.389352406371572923e-02 -6.827458174859882267e-02 -3.928271831057374500e-03 4.346238384591628867e-02 -3.829652485727406269e-02 -4.424017243245368866e-03 1.115430615355939847e-01 1.448444555678399526e-01 1.744260958073548876e-02 -9.149149650485421947e-02 -3.531907253675740932e-02 -1.817300050771759878e-01 -9.403067288939036261e-02 5.864744628816954269e-02 -1.021398396533922115e-02 -8.817805276211304610e-02 -3.186094323327649108e-02 6.567966650205800394e-02 7.314185658003310997e-02 7.248095638051084422e-02 -4.516694580963747513e-02 1.709920091730167124e-01 -4.665172573111382726e-02 -1.787434108286470869e-01 -9.003979619694749137e-02
-2.167053543281206029e-01 -9.474500963745159654e-02 -5.098440704763049919e-02 -3.773582450568836733e-02 -3.906475617962435615e-02 -2.697443770440127037e-02 -1.340849039692582345e-01 -3.063361392470583325e-02 5.287982575051187323e-03 1.938943140243009743e-03 -1.882669404339014363e-02 -5.313958889923193346e-02 -3.561936530379527111e-03 9.202868051908470737e-02 -4.816237270989232044e-02 -3.901969123174056642e-02 -9.635313989084061392e-02 -3.638390398966080685e-02 2.179626029049960001e-01 1.693201885336573578e-02 -1.027717512789814019e-01 -5.718905925609118340e-02 7.097854032152110804e-02 6.904374486905488773e-02 2.310757048170596767e-02 -1.507309978507999915e-01 -5.946388126471521991e-03 2.791792642144217546e-02 -5.543589821255575506e-02 1.544780427044801230e-01 -4.449777150646544444e-02 5.390202956966379938e-02 -1.284121296603595863e-01 1.220508663439426045e-01 -1.216874644456901813e-02 -1.077851195246262578e-01 -1.700366878325093312e-01 1.018521463765244273e-01 -3.337757958337297243e-02 -1.339538378298652244e-01 1.191959458452272920e-02 -8.127932253749223235e-02 4.657883780046653127e-02 9.241027622120981388e-02 -3.136525338345656213e-04 -3.752751158269589798e-02 7.850302124348938759e-02 2.438343081088841305e-02 1.851005281107412272e-03 -3.423209856845461224e-02 -3.449796929934893092e-02 -3.047082820300613462e-02 -1.058830621272403710e-01 -5.369008234951087866e-02 6.182006233822429087e-02 4.898843368884271687e-02 -8.712379930902386382e-02 -1.891348527024624276e-02 -5.426415312471867536e-02 1.233416088198702448e-03 -8.765764001816490902e-02 3.189414516553344681e-02 -4.760617346696672213e-03 2.203708266226291415e-02
-1.117461875826789020e-01 8.035201598442713589e-02 -7.588399565374677469e-02 -5.837739463838968051e-02 -6.547075841552338349e-02 4.450979089550222839e-02 8.094906268542648164e-02 -7.754412171523644703e-02 -6.476631804693142036e-02 3.438809930038345519e-03 -2.718762088045409767e-02 -5.627092636191025066e-02 3.793058658279546691e-02 9.228904801807200076e-03 9.984503622590155947e-02 -8.630977497912963037e-02 9.885128011930674474e-02 -8.475822691052094238e-02 1.218191361455584626e-01 7.823369026376902555e-03 -5.710468287172656976e-02 -1.733582513492334595e-02 -8.335631580420535883e-03 -8.815291709240467843e-03 8.996784864553329653e-02 -6.364555313558635519e-02 -9.340126863480135988e-02 1.155519182546535517e-01 -1.303728493259674048e-01 -7.047859265438514986e-02 9.605946651439276063e-02 -3.131708876606565523e-02 2.914368139569989760e-04 1.222839274236389891e-02 1.113990662358270989e-01 1.130007819292688231e-01 -4.869493478055691299e-02 -9.777882303292660671e-02 2.048566959761398409e-02 8.527370399870000395e-02 -2.879894865006252247e-02 4.919734202541192758e-02 6.334581513656026286e-02 -8.074461012604952637e-02 8.161432129670680158e-02 5.361077560714168355e-02 -9.396392084498418618e-02 -9.361665782347139420e-02 7.246150367837574102e-02 9.324491704073428755e-02 -1.142710607075890922e-01 -1.160365314282156904e-02 -6.777053678293944346e-03 9.161061774623063814e-02 1.977066630053286173e-02 6.085575138184603355e-02 8.459325562764577477e-02 1.028269255190445292e-01 -8.467584700451605273e-02 -6.025475475037413847e-02 5.854966548870638859e-02 -8.428472371753496784e-02 -8.593704209880112521e-02 -6.882501670057789012e-02
-1.420125659164158949e-01 1.522856436688929845e-02 -1.830372184554610732e-02 7.406497878687272329e-02 5.339643037841002721e-02 1.377414180877968575e-01 4.741803650866291409e-02 -9.171688419458191854e-02 7.351720351673426967e-02 4.836879136359680670e-02 3.749111343657281908e-02 -1.260701764987902096e-01 -3.112298143990236896e-02 4.391357807751309489e-02 3.097493911934040903e-02 -1.900275834182406018e-02 2.102090652019108705e-02 1.828429713687331620e-02 2.505149174696523831e-02 5.760381005020705908e-02 3.621499001006515971e-04 -5.350383930101524667e-04 7.274899095528580828e-02 -2.787641761310910224e-02 5.509555387371359303e-02 -2.609348070101581360e-02 -1.190591609216833406e-04 -6.112748022762927273e-03 -1.135531030621828169e-01 -2.128050660630129414e-03 -3.323108407503869155e-02 -3.887547452141283666e-02 -1.191086642904678611e-01 -8.927957163044316150e-03 3.894659999738567246e-02 -8.562804404824293780e-02 -2.381470758336124479e-03 5.460900502384953559e-02 -5.732156301058810577e-02 1.261583195546256975e-01 1.152171767185125595e-01 6.029492071450068963e-02 -1.035744485726407677e-01 1.450755038783792528e-01 1.083224888600810426e-01 -7.417476438470100610e-04 1.571137448259670583e-02 -9.378483569789568264e-02 -8.881452104016020199e-02 4.952660543435408180e-02 4.948165339037537830e-02 -1.259675225787584840e-01 -8.923725450495324785e-02 -9.063087194130346400e-03 -8.443804966911278020e-02 -4.871899253940025105e-03 1.078722654142744430e-01 9.771806451680058181e-02 -4.426042313055361666e-02 -8.290754149150250663e-02 -1.075639240372010114e-01 -8.485130777867873342e-02 -1.673311672978737008e-01 8.739581447909364198e-02
-6.885582565515675768e-02 -3.122223184274313182e-02 -8.813593245890365135e-03 5.899524446522843441e-02 -6.865728673428649412e-03 -8.662099331834507976e-02 -2.447977974387388969e-02 1.470733229818331489e-02 3.024587574254780642e-02 6.667240447095362788e-02 8.494524261956874420e-03 5.549438009622443407e-02 1.404109008827589267e-01 5.741103541233636559e-02 5.041679872077500790e-02 -2.797090578672455086e-02 1.116316276066552510e-01 7.276126963156852312e-02 8.428360462659763991e-03 -6.008942241559220299e-02 3.898352898815687223e-02 6.949067609836220849e-02 3.574434302143307540e-02 1.760143693034170176e-01 2.344840032184641182e-02 -7.117687069836844960e-02 9.681588786524451817e-02 -4.957146322544724731e-02 -2.965439632769648146e-03 4.072002598019834607e-02 4.503358209782881705e-02 -9.659087722029109646e-02 2.012990795098498070e-02 8.583830992157853723e-02 -4.448165838905005637e-02 -1.944216762472173940e-02 2.877800468030690395e-02 1.082682936635427223e-01 1.045796797281808854e-01 -8.473559891928235388e-02 -4.978201189870837262e-02 1.608461274560851750e-02 -1.131906073817045694e-01 1.317599169278418358e-01 -1.505890711416791976e-02 -1.646451620828666765e-02 -1.239111379395400475e-01 3.334106527421680510e-02 1.022550316911984974e-01 -9.820215205590961116e-02 -5.297718859906216937e-02 1.557239953982602898e-01 7.234310708649388522e-02 -5.024952159874360169e-02 -1.345412081442486363e-01 4.976015904945119139e-02 -3.998944231204601407e-02 -1.763453531169856606e-02 -7.748784677011347904e-03 5.821365027683302051e-02 3.176769418045925081e-02 -1.944084683257901736e-02 -1.228317311964133018e-01 9.103525074371388026e-02
-2.770995452746493823e-02 -5.189890117190629204e-02 1.585040115858864229e-01 -7.146696820096205827e-02 -1.271891494869138439e-01 -9.913151024256373900e-02 -3.170056414332198674e-02 -8.062917200298599929e-02 1.024940006180898033e-01 -4.747231314106546002e-02 3.975830082459662872e-03 -6.870596476964123400e-02 -1.079545255305876666e-01 1.884707255294318720e-02 1.017760081961301549e-01 -7.216141074359157248e-02 5.961982085555010691e-02 1.420208802271641368e-02 8.918677853305809200e-02 1.961428624810803226e-02 9.518994798723372230e-02 -2.146896759909776575e-01 3.496632388240721728e-02 -4.101306852829939009e-02 8.519534662187765173e-02 1.651590993094906312e-01 -9.298918899975854024e-02 1.467599490625042247e-01 -9.069059439045076831e-02 -2.629580691937651125e-03 1.708956047039337234e-01 -2.042151862631778336e-01 -1.424151603248001094e-02 1.373973696400782908e-02 9.173293564381762577e-02 6.861669175310076974e-02 2.329396670375512117e-03 3.106483669948316081e-02 -6.859477787067713196e-03 5.518993300066413893e-02 -1.119638343753773940e-01 3.190073198057125775e-02 -6.502599672753180127e-02 -3.458197063819744288e-02 2.334719144062775628e-02 9.970875719302098317e-02 3.797890442362077817e-02 -1.388488266650229064e-01 -1.102287743038125462e-01 -3.850277841884402336e-02 -6.690040624559623339e-02 -1.357247017534549405e-01 1.439898367221929543e-01 1.032538963120929604e-01 -6.233880772279142696e-02 -1.229559483019424526e-01 1.109418151116835366e-01 1.566864574369383756e-01 1.215314184359073540e-01 -1.296163391781138263e-01 -7.228591354010306669e-02 9.557311943968477275e-02 1.611863523831342793e-01 6.907798868369077749e-02
-1.193305855763143880e-01 -1.412068307232155484e-01 8.559470425457797738e-02 7.917352836635686841e-02 2.205411760324601234e-01 -1.954558935495609440e-01 1.667957413371972675e-01 3.528425587059030172e-02 -7.408030938996888748e-02 -8.570486030950356937e-02 -4.924396081623495097e-02 -5.331437036581156835e-02 4.953746057195592550e-02 -3.945767014907860387e-02 3.353045704732725285e-02 -1.123140139185998393e-01 9.120247812065944426e-02 9.080629333617139254e-02 4.879658102100636885e-02 6.585044976417092633e-02 -2.353128168458179792e-01 7.112126461449592985e-02 2.872512752110445086e-02 -3.242387885454015017e-02 -7.787369088451052968e-02 4.881176860301675996e-02 7.890246305508953617e-02 1.842225772843830156e-01 4.026046621560790129e-02 -8.403850581410854392e-02 1.688022404018895972e-01 -3.262498564384241906e-02 1.185452597681060649e-01 9.600059432181966279e-02 -2.937490249668011852e-02 -5.288049719114674280e-02 -1.490183480785317316e-01 2.489180101691738922e-01 1.747883358700815654e-02 -2.614707668174756985e-02 -1.224621463156957135e-01 -5.167163697857342364e-02 4.200770837841050903e-02 8.724727741116202959e-03 -7.146272638543192668e-02 -9.142267777355399250e-02 -1.840794899957718112e-01 4.233860127024782760e-02 1.516106513201815331e-01 1.446377541309158514e-02 1.631645228706436468e-01 1.215962819977182557e-01 1.475850380580621679e-01 -2.205286965975170876e-01 2.979943877692526125e-02 -7.570167103769923078e-02 3.457546133707416897e-02 -7.331627037309151884e-02 2.122493627478255762e-01 9.428320984984443417e-03 -7.692855437969435550e-02 7.740172652505428186e-02 -4.827890585036786857e-03 1.451506224653286228e-02
2.331647775950525942e-02 8.046685669173204991e-02 3.529533551921652107e-02 -1.522155003722742428e-01 -1.358131943627278182e-01 3.380676576410562850e-02 -1.247025043819951183e-02 1.842942175195780644e-02 -1.269199663205093920e-01 4.083040393824881320e-02 1.091015942700554603e-01 -7.942048805336109074e-02 1.191879677963785522e-01 -8.749448063561031386e-02 -5.982619001949217308e-02 -8.049437805221427988e-02 -1.821782418520559166e-01 1.462131093905103506e-03 -5.940938973669883383e-02 1.152595253993048408e-01 -2.987560888116369898e-02 7.816444860259731155e-04 1.755974748420294496e-01 5.633908069544244640e-02 -9.794007563806766958e-02 1.017290858515139951e-01 -1.077959073207399206e-02 -4.312796211498551302e-02 7.491731831265646679e-02 -1.211972428648288962e-02 1.366665479834528463e-01 -1.293683712577604339e-01 5.744302712659282023e-02 4.658854545772351391e-02 -1.269090341545407730e-01 -3.333387612249072429e-02 1.842199090511899284e-01 2.144880998429877367e-02 1.426329882568358187e-01 8.631584690944607563e-02 -1.349352199408070108e-01 3.620820959380657844e-02 -1.054948852934595865e-01 1.022856550875063039e-02 3.242071717649988583e-02 -6.205938509694987337e-02 -2.855127980949463684e-02 3.533862627427460795e-02 3.073342824277705294e-03 1.040710319027393777e-01 -1.827754227818097904e-02 -6.339355731315919618e-02 1.586543420958694550e-01 1.116493960994110746e-01 -1.159387201340078971e-01 -1.120964553743367641e-02 1.350438502746778291e-01 -8.285238814148493391e-02 -9.608862669363467390e-02 -1.359103954315992735e-01 7.975729737208935022e-02 -9.459461261528141762e-02 -3.537012509989873738e-02 1.083878863741664783e-01
-9.063658685674821913e-02 -9.155678407290643306e-02 -8.714265373088524169e-02 -7.711537248981603643e-02 -2.169980772024539539e-01 -2.460772783723604376e-02 -5.403974636280589605e-02 4.764728418638304770e-03 7.725707088263510103e-02 -1.219083936854712391e-01 2.253726348745065944e-01 -9.855929515350825634e-03 -1.600979505394506952e-01 1.317352951807246042e-01 4.166195178679678313e-02 2.176921371402866859e-02 1.388481278196820323e-01 -1.404046521544961013e-01 7.757067765087172218e-02 7.160506516724778059e-02 2.411915016795954450e-02 -1.726550822505758531e-01 1.460362629517716546e-02 1.125739525187125500e-01 1.354146491630721927e-01 2.477338722639974272e-03 -5.189165506774755937e-02 1.806760579594160199e-01 -5.474009785942005046e-02 -1.344160739470589595e-02 1.841868185372429190e-01 2.379857410747077961e-01 -1.117600517245496833e-01 -5.967085789231681148e-02 -1.074549775741671237e-01 7.866426523710834395e-02 -1.410928665021234651e-01 -9.184541737165768938e-02 1.897632256691383912e-02 -1.542544748426676049e-01 -6.970787176010494191e-02 5.841662868135277104e-02 4.245529615499087778e-02 -5.010192385718872238e-02 -1.591569129486178624e-01 -1.713035900089266150e-01 1.593791194165239122e-01 -1.542936723793667843e-02 5.110129768416472179e-02 2.258553310654460022e-01 1.155563671178440333e-01 -3.719058786768258962e-02 -4.488846237320628756e-03 3.067935793549682322e-02 1.571965557128555124e-01 -3.004857535709398730e-02 -1.955599301141884572e-02 4.709109264961829772e-02 -3.141406832434950891e-01 3.421766270764782514e-02 4.092730349353852076e-02 -1.228827025586315055e-02 -1.387389286995944215e-01 -1.377164370455468967e-01
-7.657337907054818926e-02 9.855471168350397881e-02 -5.301747459448780814e-02 7.140437410828821829e-03 1.022600832576394114e-01 8.442170533170552382e-02 -3.553097359005747552e-02 9.143871975923534290e-02 -1.358481410354425711e-01 -2.027356545419284686e-02 1.895289351021678670e-01 1.200316179171195263e-01 -1.081193391932582376e-01 -1.208512347974655468e-02 -8.499444860671369339e-02 1.553289556664771420e-01 1.432152822391326817e-02 3.716343687868462614e-02 -1.781158689897563430e-01 -5.696814176345127434e-02 -4.096455301423572448e-02 1.026909852444077564e-01 -1.450454447542652014e-01 -1.473557624573993974e-01 3.900937900247079728e-03 1.936761920918419755e-01 6.463710164036824690e-02 1.351580402308683593e-01 1.074017000803948602e-01 3.515753317511951387e-02 -6.772256738214037231e-02 6.234609652796759688e-02 8.728304027179001334e-02 -3.854511945035937748e-02 2.949383901381576537e-02 -9.500110351540966280e-02 -2.499258963593987970e-02 -5.950809168527741722e-02 -4.488418775401678551e-02 -5.233635649012822327e-02 1.457954216941716131e-03 1.006432083691268381e-01 -6.334676280330894804e-02 7.558162584998089073e-02 -2.313207389265682923e-01 -2.094927595079993099e-01 -4.052092010862650556e-02 -9.138285375753675555e-02 3.158954741795965554e-02 -1.415865897580189103e-01 7.397355689516593724e-02 -8.929438626085922648e-02 -1.463742651608369305e-01 1.122781449927437308e-01 2.907613883836496563e-02 3.091209828738664817e-02 -8.128195452079714500e-02 -1.947703703207798523e-02 3.049122896275103644e-03 1.566275814548815648e-01 -1.464280777449296529e-02 -1.190326037983349405e-01 -8.479707783267684262e-02 -8.692910004160452064e-02
4.870438941466497668e-02 -2.241411510069531848e-02 -1.962699426517048595e-01 -4.163909633626029783e-02 1.042104066406893820e-01 -6.878071490633294593e-02 -7.830108667541858802e-02 -9.407494780730782380e-02 2.042068120788714802e-02 -2.661051225361246025e-02 1.406485992816386144e-01 -1.092584070706750371e-01 8.027342684769904479e-02 1.710761538821836403e-01 -1.530457489048929753e-01 1.515064635167589213e-01 -5.745616233092906006e-02 -2.124947724421071688e-02 -4.269711660764424765e-03 7.565002725152714103e-02 1.237188187011475787e-01 -7.864189984588751403e-02 -8.070502538133653148e-02 1.053070740533730842e-01 -6.867144302322322758e-02 6.425907480973463981e-02 3.651829579971141437e-02 7.321990325562079127e-02 7.921930650098235605e-02 3.358555081796592984e-02 -1.639163810576021660e-02 -1.776767804152896424e-01 -3.765068730758835275e-02 2.380274916295726725e-02 1.272820698439785514e-01 1.003909826940807826e-01 -7.591083904869631860e-02 1.536117769639606945e-01 -7.176816840647215479e-02 -1.463297793581760653e-01 3.547775541753715733e-02 1.077585290638675974e-01 -1.954431133874890217e-02 6.242785393129353377e-02 -7.583028342148920298e-02 -2.717670333963917439e-01 9.063635120630375575e-02 -1.025214727623984523e-01 7.506740401853347067e-02 1.172909126143042817e-03 1.837613061992855179e-01 1.104449780736557925e-02 -1.344388197518993910e-01 -9.761411254841645402e-03 -2.235648242694033422e-02 -1.343458961060975398e-01 -2.391226749524630879e-01 3.906075341924024336e-02 6.220263063723593944e-02 1.243637306188883074e-01 -5.940553609318278278e-02 -2.416854715301565079e-02 5.312318146182632567e-02 5.327069715473424505e-02
1.863369753556006619e-02 -7.924321900229124027e-02 7.465627446566125425e-02 -7.736150371463225428e-02 -5.445927396497776685e-02 9.705944840342820013e-02 -1.575332514751516810e-01 -1.053976843276352299e-01 4.438616916050874134e-02 2.014034307974018299e-03 -4.602810238603882720e-02 -9.100375177385291309e-03 7.813441868512708763e-03 1.322465592892207997e-01 -7.465619018703115173e-02 -6.106986700143305496e-02 -4.311229696099982966e-02 3.656794518016145273e-02 -1.142752136846250516e-01 8.554250788619835455e-02 7.585212515537817501e-02 -1.539437161851409802e-02 8.197556238881606450e-02 3.501336543873564966e-02 4.268053723711173753e-02 -3.549320227544814493e-02 8.380008674411337788e-02 -1.319452294360700662e-01 6.945170967155663011e-02 -2.378689175898947294e-02 -1.367097220893281027e-02 -8.807562132505368513e-02 4.611075221535168578e-02 -3.235499353015153928e-02 -5.786069176210347983e-03 -2.604138226955860554e-03 -1.142181788856109215e-01 3.229391067798056264e-02 -1.322801621523024551e-01 -2.419172135736603890e-02 4.768807753250434850e-02 8.592573087938994159e-02 9.038937972016694578e-02 7.806653893529572064e-02 1.163046834969517496e-01 8.252890023915022966e-02 -8.054247747259338230e-02 1.562123062450108089e-02 -8.873008927841749549e-02 1.023536560111493465e-01 -4.509976483943116399e-02 -6.754051368229962993e-02 -5.985408416648471674e-02 3.553195300030258241e-02 -2.267256943259340213e-02 2.323242731023590982e-02 1.606611318202424143e-01 8.401997041306709380e-02 8.893274954888516493e-02 1.066591527114616744e-01 -1.566773212486608780e-01 1.563567767630304542e-02 -1.190340533006957607e-01 7.081512178921130218e-02
-1.812550720931199386e-02 -1.355503246479635715e-01 -4.582250340313305526e-02 -7.065307772808165909e-02 -1.068333140454083841e-01 5.867461623135231813e-02 1.747157997817907343e-02 -1.615909332487823202e-01 8.802241272904344493e-02 -3.682992148841775226e-02 3.067628884405817352e-02 -4.743765805319242329e-02 7.543785098051834781e-02 -1.053113326289265191e-02 -9.645021364086900362e-02 9.937011420894124869e-02 -1.526921533064440686e-02 -5.543946294154791787e-02 -5.299756242430737896e-02 -6.541044363113858451e-02 -1.089253398550029117e-01 -9.388401704560273009e-02 5.487941024924547495e-02 4.632808194144099473e-02 -8.530342458349869650e-02 -4.308877089638991215e-02 -9.802745048993348476e-02 1.310974371400963623e-02 1.158339757761579943e-02 4.568813817071776251e-02 -3.626678762905657938e-02 5.473371150617775509e-03 -1.149329212309896896e-02 6.132983575274313787e-02 7.460520255897626352e-02 1.335598835550650676e-01 -1.016654977146256300e-01 -1.108653807017830192e-03 -6.108436846598265524e-02 -5.106894604281017429e-03 8.576591414164071170e-02 -4.770505459600467291e-02 8.934403860285841312e-03 -2.260814099614478698e-02 9.274099625930197488e-02 -1.253176656871118066e-01 7.637336706134068010e-02 -7.733613173784135986e-02 -4.563818166997066911e-02 -2.997963072157883851e-02 6.474747002019135000e-02 1.153472334534446503e-01 2.250164588006984545e-01 1.178976708783930072e-01 5.235265861234274232e-03 1.452288068524459387e-02 8.504279970268106836e-02 4.299309114389017472e-02 -9.558959506393131800e-02 -1.553839089801315951e-02 -1.094868254050415518e-01 -5.060082198818383059e-02 -2.394265436717426740e-02 -7.675104919811125137e-02
8.514122400616455644e-02 -8.055764589396130493e-02 -2.097245283412316891e-02 -1.135817418743207893e-02 1.880134466093792700e-01 1.367269192618043305e-01 2.312052944473557900e-02 7.498909930807542978e-02 -6.212509264410992493e-02 6.636762939528867422e-02 2.540065957022098753e-02 -6.000185787373500668e-02 2.163712097874741225e-01 -1.268294298133407771e-01 -3.342558293559229343e-02 1.073354581122449442e-01 1.085782823391364671e-01 1.249365806894360206e-02 -1.329472598362289038e-01 -2.260462180165970919e-02 -7.674391789006508591e-02 9.135082655570826715e-02 -1.321068525829633966e-01 -2.049345685444506626e-01 -7.211097298778765263e-02 -1.204239802119442052e-02 1.622524914953044073e-02 -8.216700717067480786e-02 8.304918028892380177e-02 9.613774014951160379e-03 -1.061458965996097542e-01 1.614853424874136689e-02 1.684958337757544097e-02 -6.875882658364626532e-02 -2.972798315248185216e-03 1.467678901627664234e-01 2.744692419666865807e-02 -2.716354697334849577e-01 1.731358707445642200e-02 9.138289746207377273e-02 1.199737893234259223e-01 -9.347689744402865042e-02 -1.673932962913185496e-01 9.869973834183298766e-02 6.219065414692281218e-02 -2.448689853745179487e-02 -1.247478260421272522e-01 -3.913871687835882018e-02 -9.620818774553897834e-02 8.911446123245223006e-02 -1.984522281907593888e-01 -1.387579777374568502e-01 -5.967290659025822203e-02 -7.721508634108041613e-02 -7.503264781347532275e-02 -7.798412688747566324e-02 -5.416448562709573478e-02 -1.225126968752063145e-01 9.147155792942644748e-02 3.700960320016768307e-02 1.729740261082252789e-02 1.119128678923895781e-01 2.944396852677878471e-02 1.444000828467192216e-02
-1.348376579052045776e-01 8.637047255839361282e-02 3.950473296658300881e-02 -3.699107367497982135e-02 -1.040292741367899870e-01 5.887147439540436726e-03 -8.275183316331606934e-03 -7.640310476010890584e-02 9.929390328156737638e-03 -8.173962950450587572e-02 1.214052514583572190e-01 3.582219576348564388e-02 1.361395550120234610e-01 2.139973979844248257e-04 6.116873981556576745e-02 9.670015502425827192e-02 -4.688084213345242168e-02 -2.061539431610338313e-01 2.021506949807888309e-01 8.531546851316437752e-02 -6.297343076325152833e-02 -6.128618153197206569e-02 -1.292900451450405830e-01 1.578904523322414710e-01 -1.188541012502954825e-02 -1.346233047439674146e-01 -9.219473781254600153e-02 6.608345615792160510e-02 4.236038850620185703e-02 -5.262221638427482667e-02 -9.053804799369188916e-02 1.713282274876370137e-01 -8.669015859764303555e-02 1.390294043810066382e-01 6.646984963445061456e-02 7.569238174221623594e-02 -1.571368834171388840e-01 1.358381628473592090e-02 -8.043247450196847059e-02 -6.065366299220904811e-02 9.486211184596783641e-02 -1.170005552812019706e-01 1.134738425878666634e-01 2.522326853901548510e-02 -5.885719604762735396e-02 2.089823742303996076e-02 1.353863947472468687e-01 -1.446885318140723152e-02 -1.000158108172344851e-01 -7.077184027470373451e-02 -1.158090300270795958e-01 9.212330075626298104e-03 -2.390430555875378005e-01 2.097570660511116972e-02 3.343668456554413360e-02 1.769049218990522421e-01 -2.421844981022031607e-01 -4.814032443760907914e-02 1.101366635852559644e-01 1.042266192078506598e-01 -6.404230860716045651e-03 -5.520888812791303717e-03 4.725861034092305318e-02 -7.147989916847603820e-02
-2.084236420498039241e-02 6.711709760207629216e-03 -3.536510317469949288e-02 -1.364524163856508376e-01 -8.336180807277197846e-02 -5.605337408906086588e-02 -1.138802261859450660e-01 5.553027531969725872e-02 6.903630665048332560e-02 6.862821760442008867e-02 4.485198896512459371e-02 -1.227579269811244211e-01 1.032504466569078017e-01 5.718090349412528056e-02 4.318593830814224793e-02 -1.259127899503802682e-02 -3.665665058427450967e-02 -5.188894385998213399e-02 9.437394266615616034e-02 2.247774409499484968e-02 -4.350007357340629488e-02 -4.793702250396676690e-02 -1.257999381375703510e-02 -9.149684283541613394e-02 -3.719197477305358213e-02 7.812285993697601350e-02 -3.933126277192135895e-02 8.584345891222650016e-02 -1.355875876691076121e-01 1.756267797672874387e-01 -7.105542404656621513e-02 -9.852932931062916011e-02 -4.801661596637255003e-02 -3.077219252608024216e-02 -7.897066142448512082e-04 -8.049607475063398632e-02 9.924342617121323720e-03 5.622529273538975220e-02 -1.127080845286112243e-01 2.138452237393731470e-01 1.802565426505940704e-02 -3.566788756880932137e-02 9.772664783577866832e-02 1.478574617710210620e-02 -3.790238315131232855e-02 4.359381537900951925e-02 1.858965236521652534e-02 -9.835923480409182462e-02 -4.912702004145821227e-02 -5.748501487150928929e-02 -6.607670241015400903e-02 2.345804027729213662e-02 -1.279838251059869092e-01 5.712826123734429662e-02 -5.775602445317502831e-03 -1.123213543484598842e-01 -1.757100913149413357e-02 3.048112952444592683e-02 1.035830709273950767e-02 5.213107957992631908e-02 4.564004377285384856e-02 1.668326611342083737e-02 -1.027470143068067061e-02 -7.616682209791741931e-02
-8.067101651353415781e-03 -1.501027940079699592e-02 8.386513010088331166e-02 1.362516125131759681e-01 4.791821207554973483e-02 6.121028098512594495e-02 3.794795415329244026e-02 -3.035376119716810470e-02 -7.300887957502529002e-02 1.210003536388965795e-01 -3.620634138076925246e-02 -4.507138466562422841e-02 -2.633215942575845708e-02 7.749205864563697699e-02 5.609333542823372043e-02 -3.288516985297031819e-02 -8.981168379457791021e-03 1.394823528566478954e-01 -2.596210993486458563e-02 7.453974255863758669e-02 -1.464801586800566213e-01 -1.433142468000675185e-01 3.199118418320872487e-02 1.059488892791887182e-01 1.045782686756579899e-01 -3.756707573261984512e-02 -2.879238653229378164e-02 -1.045974569357305539e-01 8.767294879789651330e-02 3.126317361031496784e-03 -1.321013191357818806e-01 4.801800839614733807e-02 -1.494345254834101855e-01 -6.187873754726194025e-02 -5.252681784819447641e-02 -6.605938762644152085e-02 -1.006951368055633150e-01 -8.450663961128120072e-02 -1.244876254898856505e-01 -1.392522869481750691e-02 1.461048056253382021e-01 2.374457237521974615e-02 1.753094061692099179e-02 1.440531485481795215e-01 3.683622282765509209e-02 1.219307722770491403e-02 -1.475783302980512857e-01 -3.289774901766431836e-02 8.099633185472911168e-02 -2.197605541395611720e-02 -1.734969119691869843e-01 -4.377945891832046160e-02 2.650054999100631345e-02 -1.361956327623517204e-01 -5.193370190982265350e-02 -1.476218120528978613e-02 -1.129191295433245312e-01 1.186467521336724146e-01 -1.141803213943245604e-01 -8.975125280800469452e-02 -3.703885587720581046e-02 2.330119833060406362e-02 1.304807735196055196e-01 -2.927714661208039720e-02
-2.253303170785759743e-02 -3.366285403155429984e-02 -1.353162135415121869e-01 -1.516381684024019176e-02 -5.231913549789082851e-02 5.389269089040714389e-02 8.306819528563305979e-03 -5.464416411262072032e-02 3.211757171987156267e-02 -9.169000713120964430e-02 -2.290833295622041743e-01 -1.258028079912900943e-01 -1.938151100350956058e-01 1.830539938144525591e-01 6.553537267054755644e-02 2.395873818029858882e-02 4.518917313432629229e-02 -6.823385123212373504e-02 -7.906455780954954604e-02 2.897062240233344924e-02 1.267202430216383957e-01 -6.223258775097847278e-02 -2.435161043624265928e-02 7.417424884926740458e-02 -1.728040268182102490e-01 2.075573954568619706e-01 -1.021486335938494305e-01 -2.262808399098260176e-02 -1.198766855868022355e-02 8.233781761818496914e-02 1.986328184451812695e-01 -1.267392141710875497e-01 -1.813800445704061570e-01 -8.952363831884075154e-03 6.676958640780447998e-03 4.842877820744696804e-02 5.987946690821747964e-02 1.964102713006561987e-02 -1.426497892778519905e-01 -1.341141877439233909e-01 -1.230118219526408624e-01 -2.062718146562464785e-02 1.410068494716940068e-01 -1.620972489414286913e-02 -1.480105497686650361e-02 -5.792495168306106140e-02 2.119387046667656899e-02 1.060325652454614381e-01 1.131936672108478925e-01 1.065213572050969226e-01 1.550374151845298754e-01 1.864783399664901239e-02 3.647029602152515333e-03 5.106827575234894334e-02 8.188277072408575719e-02 1.594771066410690386e-01 -2.209468936540181366e-02 -8.162018096067286121e-02 -2.381721823468240795e-01 6.344940147742232639e-02 8.901609477810400184e-02 -1.912784483335351060e-01 8.816191863426894870e-02 -9.786964597930547516e-02
-3.030464275419890441e-02 4.963417034398334357e-03 1.113626724751193564e-01 2.697282982280675007e-02 5.557971214330844484e-02 -1.734078809707104846e-02 9.186899381114496188e-04 -2.297940151941282177e-02 -1.231030501940271749e-01 6.528276092473650483e-02 -7.801758332445189736e-02 -6.303385929248497832e-02 -4.221500001390061929e-02 1.231662055394730088e-01 8.657275113291544588e-02 -8.580190716571706178e-02 5.082992770615430561e-02 1.184975717216502633e-01 -7.236724417943946053e-02 7.739618799652348002e-02 -2.745543271174405095e-02 -4.202546780638500429e-02 6.406279762132952027e-02 1.236172155057931911e-02 9.414657855478719001e-03 8.368094938863394547e-03 8.557267626517328640e-02 -9.243442693758674444e-02 -3.047172728449426202e-02 -1.931349588138660256e-02 6.031140679212097094e-02 4.329658361396277605e-02 -1.208815252812465817e-02 5.799814091880377970e-02 7.396808214252087454e-02 -4.315479798590660804e-02 -5.685699593826406412e-02 -4.197795020551212792e-04 -6.266680163843899032e-02 -4.099095000066706879e-02 6.137275419221322609e-02 2.659307539145431068e-02 -4.380636360329297208e-02 9.962104962798713770e-02 1.023868979001569535e-01 6.992594211425887107e-02 4.244636873962306803e-04 -5.619016719505306318e-02 -1.229844187718676096e-01 2.305005366351454282e-02 1.573897135432416900e-03 1.007282700248772478e-01 -1.548845102583358731e-02 3.320948936842671451e-02 1.150551667641946246e-01 9.819462566761803790e-02 9.918104006381969762e-02 6.251356275672290130e-02 4.156470163329245571e-02 1.205598854221019284e-01 -7.833266724892933019e-02 7.853409381111040727e-03 2.862609264954290612e-03 -2.192796976564023378e-02
5.594205648109332879e-02 7.797968950073871919e-02 -2.335053533776530466e-01 -9.771633477672041213e-02 3.257016874899686804e-02 1.472379047891700932e-01 6.872947498404001487e-02 -4.859761091025945057e-02 5.140254139957623619e-02 -3.248500965564924542e-02 -9.332840163714491155e-02 4.878628288964682869e-02 2.940996129963204669e-02 5.795918461103665570e-02 5.600234759633595377e-02 -3.713538892644045741e-02 1.779073226471787061e-01 5.327924872642640641e-02 3.830709588497882654e-03 -4.857684045464307626e-02 3.789524316129166265e-02 7.743914851318584036e-02 -7.789184700440761333e-02 1.143590653827331466e-01 3.261497541876558909e-02 3.277449136402636048e-02 -2.906523177537021288e-02 2.259722239737234351e-01 2.911624442696088971e-02 -8.089328842344940818e-02 -2.633220458643605738e-02 1.758461172670742340e-02 1.468608391873539414e-02 -1.457750198363839955e-01 1.098285954192242120e-01 -2.427153830467677215e-02 1.286963403195755806e-01 2.445290322784713852e-02 -6.649884308934861377e-02 -2.090336946556270795e-02 -6.858442186134116984e-03 1.153730896027677956e-02 1.476949206622968636e-01 6.979421765284268830e-02 1.141233677380054656e-02 1.450391293663342435e-02 -3.502956774581547118e-03 1.834478231725459596e-01 1.428489274200651638e-01 8.990221713559327921e-02 1.570233321349753797e-01 1.889486866696823281e-02 1.411171171763819232e-01 -1.973804906118739513e-03 -8.879545656729084802e-02 -7.064692262292354696e-02 -5.230503183494498998e-02 -1.068519909167509573e-02 -4.028004979026272164e-02 -1.070730419264033784e-01 -9.441598682580654156e-02 2.854374026916010887e-02 3.046389555645133244e-03 -2.115750655384549678e-02
-3.025441766234243657e-02 1.641537755269825427e-01 6.121380003942370612e-02 1.047990281089634101e-01 2.489428372306536352e-01 6.977022451754295862e-02 -6.629142497712661730e-02 -1.889824354478267243e-02 6.012105190023846191e-02 -7.344284834302916565e-02 -4.422243036925587768e-03 6.830836434509766908e-02 1.347002758663927990e-01 -6.318798652166444582e-03 -1.146725742060854120e-01 9.656767501940523302e-02 3.906128958258330702e-02 -4.630421732483366512e-03 8.835299811594485297e-02 4.826926150005333288e-02 -2.593844435420607220e-02 1.398343217053053811e-01 9.857992826892070237e-02 7.656746041851185403e-02 -8.295425089546948350e-02 -7.242472001936592352e-02 1.350986109900481624e-01 -3.917126860698107865e-02 9.253583532434667136e-02 9.454958202070410170e-03 6.859075856548020600e-02 -5.061362015086710983e-04 6.069880022286882996e-03 -6.370576738916527981e-02 9.573137747421124610e-02 -6.489708436546083592e-02 -1.142272104504447328e-01 1.131750101073250442e-01 -6.537471165423561215e-02 4.447420748818583375e-02 -1.780695752783340371e-02 -2.027568199978651078e-02 -1.644728158965139408e-01 1.552862612226529881e-01 4.090328698951765929e-02 -1.426157368099897731e-02 5.696345348811104881e-02 1.063645374743499988e-01 1.041122323972247798e-01 5.682741084828258997e-05 5.473737234304663912e-02 -5.389176264830723012e-02 -1.401812735576354052e-01 1.344273438198858445e-02 -1.128165249059222414e-01 4.411443900181655220e-02 -1.367773618089646315e-01 -1.403455192901728876e-01 3.246531417783870554e-01 -1.904601205714808940e-02 9.794985232834581279e-02 6.033305712209410809e-02 4.093812578340411817e-02 8.572990587037737642e-02
1.653978109738322155e-01 1.065702519023213196e-01 -1.570408158598501080e-01 1.756899688999954967e-01 1.107782365957340753e-01 3.388125276460670493e-02 -2.049267775864944130e-01 6.040214120297968114e-02 5.560340068481316872e-02 -1.358666355476710053e-01 7.154850631460062116e-03 8.289461396266561977e-02 -3.124429596829756892e-02 4.618245534032197619e-02 -1.208507234039388617e-01 2.983593128109872372e-02 -2.763204899613741494e-02 9.721014469046425008e-03 8.536845101216458676e-02 -3.316889990130894583e-02 4.453232550577526649e-02 -3.384682745245959357e-02 -2.215269669490745053e-01 9.496496852584590531e-02 -8.275241308101091708e-02 2.107856718423947381e-02 2.710447283835708543e-01 -1.261891220008923564e-01 1.073543504813427030e-01 1.025148985650975314e-01 -1.168520024971211324e-01 5.312353619092445578e-02 -7.230995241640631593e-03 -5.047742814555212371e-02 8.218753290480029436e-03 -5.433913939958548434e-02 6.787612125715777878e-02 -5.793589425928365871e-02 -7.763922315196858381e-02 6.616106580833840123e-02 3.580011503069945727e-02 4.739875205813019743e-02 1.051035537203279108e-01 1.068246198560634658e-01 2.533046080006247890e-03 -1.366299367306636203e-01 -7.998101130196466624e-02 1.063400231973789245e-01 3.631464636541161667e-02 -1.310843865553379395e-01 -1.059534899107788808e-01 3.284025162003208903e-02 3.701850296278181435e-02 -2.836314999642295179e-02 -2.125914489324995105e-01 -8.303965190739257679e-03 -1.459255673661340050e-03 8.482667873364696520e-02 -1.661030068303317453e-01 1.186652586261904146e-01 -2.395682473746580873e-02 1.314639614073243590e-01 2.097451144026055148e-01 8.729314213519974441e-02
-1.027127875844486699e-01 7.905226939413130538e-02 3.674529998636311134e-02 -2.081192962123124546e-01 -2.843664408507773703e-03 -1.042471541100669155e-02 1.073929332153109734e-01 -5.890456492240649794e-02 2.231446543228425561e-03 -1.497671067816917431e-02 2.135374814652645781e-01 3.676114581657899394e-02 -4.053409796993345110e-02 2.014509335972347603e-01 -4.598993568210110044e-02 4.846518911347820480e-02 -3.069709075390709627e-02 -3.519353586934811928e-02 -2.141328340871868352e-01 5.289690823429451377e-02 6.945141296369890249e-02 3.197594394226567494e-02 -1.003392460745859555e-01 -4.857167192763125682e-03 -3.014310563833135642e-02 -5.043163135216349735e-02 -4.852427814158121605e-02 3.078348073496523819e-03 1.160260839781074521e-03 -1.042632139344613212e-01 8.021057909971188171e-02 -2.695621711434844081e-01 5.670946035324333145e-04 -1.147972932800035012e-01 6.847259199533346774e-02 4.407426634448006336e-02 1.560517220614091906e-02 1.471735453894035262e-01 9.050401861328846720e-02 -9.442330189912101490e-02 8.693882329745741822e-02 2.366118115841286257e-02 3.382526046142868975e-02 8.249851804082092288e-02 -2.469541901838337786e-02 -5.185297751005359113e-02 -1.823720865188531715e-01 -1.924560606380071870e-01 5.753747651600559128e-03 1.593679920058896915e-01 1.498922614876538328e-01 -1.999197592564791459e-01 5.231041642590820995e-02 1.204580243895944924e-01 -3.537702963256515037e-02 -1.196155865980137872e-01 7.441322938495670281e-02 -3.501365287124692804e-02 -6.497037672809229114e-02 4.837061283164125619e-02 -4.531320351457600315e-02 -8.004055726638235890e-02 3.457986588807671763e-02 1.393119791022123799e-01
-3.264755239103277196e-02 4.557972938664830304e-02 -1.294734735985693663e-01 2.435154664221028664e-02 -9.759813033167347163e-02 1.336421028841689937e-02 -8.954761223701182549e-02 2.711707481521869953e-02 8.939243094315363347e-02 5.550734681443392909e-02 -2.307970343847632055e-01 -6.964754312549677195e-02 -2.770187923784866446e-01 -6.867664581149522662e-02 1.604784704061834877e-01 8.501873809262948389e-02 1.180235688107537234e-01 1.792748878231915366e-01 6.008334316927538971e-02 -9.064110841003478192e-02 1.065883777707136437e-01 -1.423363461258943252e-01 -1.181959901409611324e-02 2.222031792780407300e-01 1.764806760441212929e-01 4.832836124694819130e-02 -9.741185776025059612e-03 -2.121388007966460709e-01 -3.540855259216318246e-02 -7.809554216735969945e-02 9.973245593590096547e-02 -2.249482285321722230e-01 -2.007872926734126651e-01 -1.418675309442091539e-02 3.402972340594261069e-02 4.640243978846225054e-02 -2.557595562762668973e-01 -5.168499037507676835e-02 -1.943098039549570055e-01 2.899290823059897867e-02 6.435192947442122668e-02 3.181501192701526731e-02 4.783399939135467988e-02 -2.814842748748000445e-01 4.098952477477682543e-02 1.435831950646108413e-01 -2.549836127744001951e-02 8.036330903505738490e-03 1.378319740835056849e-04 3.402044040714951451e-02 -1.573369403305718006e-01 9.719784075264210899e-02 8.649311187390183037e-03 1.252469857742808390e-01 5.086245375387186268e-02 -3.853222851065186277e-02 4.592829776431749111e-02 8.899484926380255012e-02 -1.820681746765766551e-01 2.025186942094605591e-01 -1.018658005136588718e-01 1.250607148213449815e-01 1.152519122646285810e-01 -6.964537210512944387e-02
4.481324481401526699e-02 3.881535260936794934e-02 5.688420691280111213e-02 3.273166049124277138e-02 -7.263404226127237462e-02 4.430027909768762678e-02 -9.265577890860457466e-02 5.113448425509440481e-02 -7.084115794863531969e-03 6.119027403251781072e-02 4.552443142058420350e-03 -1.019567012674478801e-01 -1.210322586580861726e-01 6.198403698516960318e-03 -1.533157988406476033e-02 2.747940847087616129e-02 -1.249063610385525158e-01 -1.491123874267125289e-02 2.191506849491877962e-01 1.128423346607744654e-01 -2.736196663612408195e-02 -8.246546615271911629e-02 5.858572525250688168e-02 -6.225816204368027351e-02 1.045254039938069007e-01 -6.963181173795504608e-02 -1.182000903987947930e-02 3.904724825503991942e-02 1.680703321112819032e-02 -7.801241440127691662e-02 4.357964964443003519e-02 -3.978779294957076468e-02 -1.343825161326575590e-01 1.013160125439689779e-01 2.903849112296748303e-02 9.763663385137587303e-02 -3.993988902577352146e-02 4.337947708616060605e-02 -3.705939220795857053e-02 3.653395985428074810e-02 4.505153673373321621e-02 9.034532689361034902e-03 2.485863858915415836e-01 -1.766216950256639384e-01 9.060995852668204953e-02 8.366661182089441678e-03 1.267275483259020508e-01 1.151122762618506622e-02 -1.232391320347416830e-01 1.865824089267632824e-02 2.870899749346966096e-02 -5.209728009193807796e-02 1.313175128360345549e-02 -2.209668746157558705e-02 -2.822722180323725127e-01 -1.341885879626187050e-01 9.415790641324639498e-02 -4.773688057687795055e-02 2.428833419359133217e-02 -4.163386690759862674e-02 -5.909013806915192762e-02 -7.691827978417888068e-02 5.833193035529592695e-03 -3.254974788204350461e-02
-3.329681792458908524e-02 1.076161977308091044e-01 -4.814025664284868333e-02 -4.008409201374512482e-02 8.508153879023414023e-03 1.829927923015941052e-02 -3.630987057215881442e-02 -5.230215530538541782e-03 -4.015340908802045305e-02 7.169423572589454785e-02 7.917082971303988914e-02 -3.199529320516703891e-03 3.477508728741261768e-02 -1.202927561800978679e-01 9.615490963844611216e-02 7.546289600410388543e-02 5.451553487364903944e-02 -8.427275469757569692e-02 -3.217132996229708775e-02 -8.014550906868120328e-02 -1.094159773473008940e-01 -3.440828178621703481e-02 -1.198173182804717629e-01 1.850243954697671986e-02 1.045793959935127776e-01 -1.131418575250566216e-01 3.181287205573868349e-02 -2.964057897310492379e-02 -7.562775006375022091e-02 5.612773776477818222e-02 -4.495436542353141440e-02 8.344968575556359347e-02 -7.276923361239555008e-03 -5.933777940801324320e-03 -1.866251829821129540e-02 5.807444330137117444e-02 3.633941512697787951e-02 6.601308276295033903e-03 -5.309694759785457685e-02 1.001323273238161476e-01 -1.454106334358739108e-02 4.145913310255831125e-02 -1.823808530015140483e-02 -2.868141011304825572e-02 1.021007573801215457e-01 -3.125896566927292147e-02 -5.647234921557472281e-02 4.007699844271191136e-02 7.518775670269113587e-02 -5.373408837761205897e-02 -2.474007791540775228e-02 8.430287488389793735e-03 1.142848098544578250e-01 -6.376489974466467703e-02 -4.406925442974510970e-02 1.256107940242925658e-01 1.730748214658284559e-02 6.292900009368320065e-03 4.655811802513787345e-02 -1.131108155466160614e-01 -8.627833990626765370e-02 3.581386333195290400e-02 1.202316182837521313e-01 -3.086941277667357500e-02
-1.419433235610658706e-01 -8.730298691117983900e-02 4.346304291321562152e-02 -9.366211132378622628e-02 8.595089672029831984e-02 2.551828575690650025e-01 -6.935622972673301245e-02 2.011576160540755678e-02 1.243431507035433620e-01 -1.599072108091918187e-01 1.140511254421766292e-03 3.245086794149102394e-01 8.735952116299633072e-03 -2.484018852466092497e-02 4.072968506831347452e-02 7.303563778347718638e-02 8.334304159244437793e-03 -1.307303647630986797e-02 -6.949950167939575318e-02 7.148566455548552301e-02 -2.562061960307608979e-02 8.198841072464387036e-02 1.580397771808129959e-02 -1.889825354560636939e-01 3.360250755621414787e-02 -3.701916262892301218e-02 -7.260097352964488271e-02 2.504470104103032613e-01 -1.371777106070572461e-01 -1.047923123622502145e-01 4.537103547921278457e-02 -8.089023291985589226e-02 -1.244811759094621023e-01 -7.420828105151751342e-02 -2.091243239798089570e-01 -8.479140778284280366e-02 1.115828797231933206e-01 -4.333101799231916379e-02 -5.182860309793245468e-02 -1.087884247467978543e-01 2.265937903179688906e-01 -1.742514806814317585e-01 2.990976614270597911e-01 -5.759337268668354021e-02 1.493733043604461019e-01 -6.918100942578621869e-03 -6.016648170780342086e-01 4.347249912843861343e-03 -1.453703908466390205e-03 -2.129485421472335910e-02 3.653983203643076244e-02 -2.984051535163621469e-02 1.338871002059359439e-01 -2.865469917116160795e-02 1.787753352142475438e-01 9.826089469162073431e-03 1.014297746189316840e-01 1.808754780850382049e-01 7.259181119727277365e-02 1.423298655808745428e-01 1.893272257689294080e-01 -1.594618304768045669e-01 3.491465868766766706e-02 3.870396370761256671e-02
-1.038809098485386946e-02 5.124235935729275736e-03 -7.657588602801902733e-02 -1.097607424684083066e-01 4.003896425057682645e-02 4.806501500631595730e-02 4.219797872998359151e-02 5.503645832949149996e-02 -9.897186092824118708e-02 1.814171885930928804e-02 -8.674570794999651724e-02 -2.147965000887401554e-02 2.030779268836840554e-02 -1.187300527412404327e-01 7.133249145783299161e-02 -6.740781243447379820e-03 4.408632311833238226e-02 -3.190658583594015857e-02 1.078817573422363452e-01 1.678136436697860029e-02 -1.347676958840804129e-01 -1.041932333990318593e-01 -1.021336288776248935e-01 2.601827345347086651e-02 -7.353452644540624250e-02 1.006206367447686906e-01 1.253691656536632532e-02 6.342130699656067794e-02 4.881610869542341025e-02 7.326344547487249892e-02 -4.474368478874626159e-02 -4.578861934942442258e-02 7.098858796229809420e-02 -3.901623600198095981e-02 3.849520826746370694e-02 -2.187024577422611027e-02 -1.185763431808462692e-01 -1.800782943691854252e-02 1.179645605747768611e-01 -1.182075019438305202e-01 9.311996655700645331e-02 7.745044775975144791e-03 -3.461729932953337696e-02 -6.177190512231390401e-02 3.537487587537699318e-02 5.546161724307325375e-02 6.227281168359691255e-02 -4.712878550676188882e-02 8.093480668876404903e-04 -4.480519087287119367e-02 1.864236812869945331e-02 -3.036238352358573873e-03 4.507107652852402474e-02 5.333969931836816253e-02 -1.024857368871769092e-02 1.107834868213295049e-01 -6.527967890732885858e-02 6.216017736996420906e-02 -6.263229409277229660e-03 -6.610019956630380777e-02 -3.576602957863552618e-02 5.626626587468636781e-02 2.035532164589887866e-02 7.601970766580251962e-03
4.192265703888099077e-02 -1.738412126002108760e-01 3.746306076965380538e-02 2.433094930414977930e-02 -1.184587408878093190e-01 -2.062267431990947586e-01 2.035956918942134763e-02 1.800284629322939506e-02 -1.822403688196881089e-01 -2.311314307217592900e-01 -4.028832007093657852e-02 8.943445313190741264e-02 8.596241407386119582e-02 6.228454846462880279e-02 4.051809904709612747e-02 2.556179246295341156e-02 4.487418264492595149e-02 -1.332965705841051562e-01 2.351469573601221857e-02 -1.159386056957695255e-02 -8.801337527418975903e-02 8.333558047914835232e-02 -1.314312205363052377e-01 -6.351537655043959507e-02 -1.523860510563674608e-01 4.827675939381818188e-02 1.482683708396110578e-01 2.153664260902013461e-01 -1.119994910505646701e-01 -1.877988822075752351e-01 -3.005397355975293616e-02 8.043721265048910107e-02 8.046019846612141244e-03 -3.864738076284101459e-02 -9.103028582384867229e-02 1.510445397470139457e-02 1.999472784981217582e-02 3.024318741548535222e-02 4.812053198304225982e-02 -8.477870114512060795e-02 8.630339294940179984e-02 4.461923453025113534e-02 7.294138231087170243e-02 -1.282733093970103155e-01 -6.548339897212462901e-02 -3.259320066150148826e-02 7.399885447897840141e-02 -1.132659405136714759e-01 -9.830926787897101282e-02 1.761357745811573117e-02 -1.507533886531492173e-01 -5.922979508675003252e-03 9.047664618452389007e-02 7.252955095744156866e-02 -6.553775282754001341e-02 4.225856551698276703e-02 -5.626337934724698342e-02 -1.990180960834707358e-02 -8.950029777659150587e-03 2.010384369987314179e-01 3.053239313335005117e-02 -3.829693311298070640e-02 -1.584201618627039954e-01 -1.201942277679104443e-01
2.782135250694368900e-02 -9.955640203551166523e-02 -4.265846960143827860e-02 -3.390422955494152429e-02 1.538999989296539533e-03 -2.923005230611231200e-02 -5.164605797691750044e-02 3.836081208160072725e-02 -6.666965701435882685e-02 6.025727003500924717e-02 -5.588071877558540429e-02 -1.442224855694972385e-01 -5.795587363832073458e-02 6.868409620929269432e-02 -1.537717401151785790e-01 2.082359008446819093e-01 1.495209711454874579e-01 -9.110912121976359745e-02 -6.182103095635264889e-02 9.473713352069869711e-03 3.424425786051756015e-02 5.438618972937174501e-02 -5.753948494673110509e-02 -3.258318408452513110e-02 8.686323058841750877e-02 1.528599025761103458e-01 8.000397646933136986e-02 -1.885397323129664807e-02 5.869558669223966241e-02 7.583929047148305069e-02 -3.552967603233082167e-02 -7.717976143384905341e-02 1.552521181682278428e-01 1.522229860520299752e-02 7.257874446975889904e-02 5.276233677941721129e-02 9.945150723537504733e-02 1.009213970483825717e-01 -6.429665986663779531e-02 -2.892322334335561615e-02 2.997843332665005994e-02 -2.770825378042137549e-02 -2.204294093410263944e-02 -8.230213863343152289e-03 6.942136463386337775e-02 -2.082880179603983084e-01 -2.320580940933967412e-02 5.701587501442982597e-02 2.953196160795519207e-02 1.120707949259992309e-03 1.615159080572406702e-01 3.600125694505262181e-02 4.312844222760048307e-02 1.227361118831284473e-02 -3.096839097021429274e-02 -8.200472649175846729e-02 -1.470463767704540681e-01 -7.897900108948842368e-02 -4.817895816498968947e-02 -1.338306395278686910e-02 8.293081789068186549e-02 -2.182535458327709149e-02 -6.477819153159258825e-02 1.018274743292732071e-01
