-2.646811347064121495e-02
-4.259707228179451105e-02
4.662598664843051882e-02
-6.532418880461977884e-02
1.238775863955395712e-02
-3.901131136516100550e-02
1.602281051733820544e-02
-3.840368519472666525e-02
1.112184539557261459e-01
1.033383262760237953e-01
6.723193000205493486e-02
8.504720963460538075e-02
-6.598139445093574584e-02
3.735241910410061483e-02
7.447881584781138042e-02
4.485782839052479543e-02
4.440600778058588494e-02
-6.535954786852007925e-02
-3.192768568268307405e-02
7.555232832524998859e-03
1.568877739195950471e-01
-1.692380295454922468e-01
1.114187299043523371e-01
8.215447804288807110e-02
-6.715357982043963780e-02
-4.386908158079831643e-02
3.756224697184074729e-02
-6.729149154281370560e-02
-8.292544961755718425e-02
-1.718094925593920130e-01
-1.367430843671014196e-01
1.382931801198272193e-01
7.956911886127090994e-02
7.580904489135223932e-03
8.453383862891003520e-03
1.271676868769446578e-01
-5.498378284955884182e-02
3.424182498807076813e-02
-4.668776967261137334e-02
-7.129052552537802623e-02
-8.090387748021857228e-03
-1.304016740631004090e-01
5.072497028360111598e-02
3.387368026087238526e-01
1.246767024443640355e-02
4.726202129565668097e-02
3.534205460070441451e-02
-6.891892403850376214e-02
-2.745287720732484185e-02
2.657648105001010272e-02
-1.028471906427276816e-01
-4.122074269668628277e-02
5.376818359726218827e-02
3.138057137640082317e-02
-2.138814822228215784e-01
-4.053436615347369432e-02
-9.977601125299731533e-02
-6.091072688374242483e-02
-7.856963147897159938e-02
-2.034004962572951436e-01
-2.638112283904023997e-02
1.342342909064308532e-01
1.189243459689573873e-01
-7.424277637228920979e-02
